<?xml version="1.0"?>
<opencv_storage>
<opencv_ml_svm>
  <format>3</format>
  <svmType>EPS_SVR</svmType>
  <kernel>
    <type>RBF</type>
    <gamma>0.0050000000000000001</gamma></kernel>
  <C>1.</C>
  <p>0.001</p>
  <term_criteria><iterations>10000</iterations></term_criteria>
  <var_count>258</var_count>
  <sv_total>475</sv_total>
  <support_vectors>
    <_>
      -1.1824218 -2.27459598 -0.00575648295 -0.02466923 -6.0667027e-08
      -0.000130249449 -0.0111067789 -0.000541232235 -0.00163568766
      -3.35369214e-06 -1.59167812e-05 -3.17257076e-07 -9.10057934e-05
      -0.00026178977 -0.000154954119 5.39889669 -0.00231437269
      -0.00279471488 2.76476645 -0.00013447435 -0.000982095837
      -0.000604420784 -0.00446187286 0.0139988884 -1.35900855e-05
      -0.00657529151 1.24029422 -6.81059191e-06 -5.31568257e-05
      -1.61912612e-05 0.222543776 -0.000185292447 -0.0113494247
      -0.00094124052 -8.09872727e-05 -0.000788024103 -0.000213637424
      -5.57044696e-05 -0.00617885869 -0.000201765622 -0.000150143664
      -0.000498487207 -0.00138723548 -0.000219541136 -0.000442418037
      -0.00202354067 -0.00043751052 3.94714808 0.602816343 -0.0142068919
      -0.00166566111 -2.7602593e-05 -3.85660769e-06 -0.00924984366
      1.62131727 -0.016276015 -0.0431146137 -0.00293566869
      -0.00505838823 -0.00434950273 -0.000881692977 -0.000543351634
      -0.000954363553 1.59987092 -0.02536867 -2.76206993e-05
      -3.73116854e-05 -1.96338842e-05 -0.00441477448 -0.00121347338
      -0.000565777242 4.71000624 -0.00172093243 -0.000104367886
      -2.57279112e-06 -0.000945543754 -1.50547903e-05 -0.00880932529
      3.20448446 -0.00175726286 -9.1800548e-06 -3.83470564e-07
      -0.000375796953 1.25519657 -0.0197823066 -0.000464603771
      -0.00320806447 -0.00279298774 -7.15524448e-06 -0.00777955027
      -0.00597765436 -0.000412304129 -0.00511294138 -0.00554824481
      1.32846594 -0.0171770025 -0.000646737404 -0.00986288674
      -0.00589132495 -0.00208556885 -5.52971469e-05 -0.0078767091
      1.63284516 -1.18888966e-06 -9.06817877e-05 -0.000764001044
      4.72727823 -0.000113534246 -3.02818917e-05 -0.000347143156
      -0.00166882004 -0.00172275014 -0.00271565048 -1.45565782e-05
      -4.7338468e-05 -0.000531690021 -6.90995591e-07 -2.30998785e-06
      -0.000126105035 -4.66019228e-05 -0.00634291535 -7.77928108e-06
      -0.00673855748 -0.00049846503 -0.0129109956 -0.00958401058
      -0.00216793898 -0.0156025812 -0.0242947843 -0.00154157949
      -1.60827245e-08 -0.000153609217 0.156240851 -7.38405724e-05
      -7.40457835e-05 0.0270096324 0.332826376 0.416409373
      -8.83841089e-09 -0.000226383869 0.469846517 -2.5253978e-06
      -2.47376093e-08 0.380950093 0.673908889 -0.000173174791
      0.500009358 -0.00065193628 -1.20245405e-08 0.307251543
      -2.26285574e-05 -0.000130295259 -2.47880234e-06 -2.86483441e-06
      0.069967635 0.136164054 -0.00414880551 0.238596469 -1.18329137e-06
      -0.00121801742 -4.15898739e-06 -0.00180334237 0.710965514
      0.583440542 0.520413101 -0.00251452741 0.223906338 0.462825328
      -2.91610322e-05 -0.000457874528 0.196220472 0.499220848
      0.543773472 -0.000163883786 0.518121004 0.19319503 0.0835437626
      -0.00138640346 0.105417132 -0.00234767934 0.450715184
      -0.00142240734 -1.50608439e-05 -0.00347571238 0.606558204
      -0.00511503732 -0.00312775723 -0.000127034553 -2.69954444e-06
      0.215918481 -2.1269588e-07 -4.23912638e-07 -8.87550414e-07
      0.367539912 -1.40497723e-05 -1.74693196e-05 -0.00022209312
      -0.000464001205 0.172069371 -4.04698888e-08 -2.17226834e-10
      -4.70545558e-09 -2.23886908e-13 -0.000148589592 -8.04597846e-07
      -2.12476481e-10 -9.24659034e-05 0.15059486 -1.85652116e-05
      0.0254912861 -0.000141988305 -3.83396255e-05 -1.52914436e-05
      0.235399216 -5.85523594e-07 -7.56104464e-06 0.185089648
      -0.000283543981 0.252830863 -8.79493964e-05 0.0570631623
      -0.000946857617 -3.52653115e-05 -5.31408375e-08 0.150310993
      -2.05315928e-06 -0.000118677839 -3.22143114e-06 -2.19349386e-06
      -0.000208067984 -2.12247571e-07 -3.44569662e-06 0.253055304
      -4.91300511e-09 -6.68392897e-10 -1.27120678e-08 -7.43428541e-10
      0.28664273 0.452737123 -2.31750982e-05 0.0611421503
      -8.85827103e-05 -1.08324805e-09 -1.34019203e-07 -4.06311119e-05
      -3.33479688e-09 -0.000645015796 0.0128335077 -1.09154699e-10
      -2.97395468e-06 -8.20849073e-06 -0.000301985478 -1.4187242e-07
      -0.000199676317 -9.56748814e-09 -2.86365484e-05 -0.000258206099
      -5.98512588e-06</_>
    <_>
      -1.1976192 -2.24573445 -0.00570124155 -0.0236759111
      -6.09619448e-08 -0.000126802654 -0.0109623903 -0.000536521198
      -0.0016413189 -3.25826113e-06 -1.5843907e-05 -3.15110839e-07
      -8.92637399e-05 -0.000258564338 -0.000151039581 5.31239319
      -0.00375964865 -0.00278052618 2.91610122 -0.000131146124
      -0.000982259633 -0.000595118967 -0.00443865219 -9.33183692e-05
      -1.33534841e-05 -0.00764929224 1.08566415 -6.57951796e-06
      -5.25319047e-05 -1.61593616e-05 0.313575864 -0.000184517557
      -0.0114582442 -0.000909629976 -7.94836087e-05 -0.000785652781
      -0.000211907027 -5.42098023e-05 -0.00596713042 -0.000197454327
      -0.000150998327 -0.000490623992 -0.00135436293 -0.000223872601
      -0.000527271302 -0.00204248028 -0.000434734626 4.09962654
      0.658673406 -0.0143065816 -0.00162712543 -8.63808164e-05
      -3.81280074e-06 -0.00923336577 1.53026724 -0.0160687156
      -0.0424364507 -0.00288401684 -0.00494647631 -0.00430501997
      -0.000875065976 -0.000552601821 -0.000950863119 1.4777956
      -0.0261541698 -2.72597918e-05 -3.72414797e-05 -1.89761449e-05
      -0.0043854746 -0.00117956824 -0.000558547094 4.67000961
      -0.00170835387 -0.000104562976 -2.52795803e-06 -0.000929692469
      -1.44863779e-05 -0.0102915401 3.14546561 -0.00175845937
      -9.07245612e-06 -3.69870378e-07 -0.00037704545 1.18018389
      -0.0187720582 -0.000461742078 -0.00281154411 -0.00301144295
      -7.06012815e-06 -0.00771085965 -0.00599494902 -0.000405462895
      -0.00511562219 -0.00552019477 1.09204102 -0.016829757
      -0.000647050154 -0.00933189597 -0.00585981319 -0.00206812285
      -5.34795508e-05 -0.00777117675 1.47625673 -1.1634454e-06
      -8.90878291e-05 -0.000753444794 4.77008677 -0.000111276233
      -2.99361382e-05 -0.000336000696 -0.00162215228 -0.00171324937
      -0.00235825893 -1.44836176e-05 -4.73266919e-05 -0.0005164959
      -6.68294774e-07 -2.27227997e-06 -0.00012355634 -4.64190962e-05
      -0.00618952839 -7.6501201e-06 -0.00672894716 -0.000475563778
      -0.0139889764 -0.0095997639 -0.00210359623 -0.0154452687
      -0.0248566549 -0.00145188521 -1.60448366e-08 -9.69991088e-05
      0.142260805 -7.44753997e-05 -7.49197861e-05 0.010572128
      0.324795574 0.411767721 -8.80500206e-09 -0.000225783268 0.46608755
      -2.57690181e-06 -2.45177567e-08 0.398084581 0.660429895
      -0.000174643501 0.508911908 -0.000697124051 -1.22794557e-08
      0.317617476 -2.26424327e-05 -0.000130549481 -2.48253195e-06
      -2.87301123e-06 0.0621280447 0.140976802 -0.0040514092 0.246017322
      -1.17997376e-06 -0.00106382137 -4.15022532e-06 -0.00187885598
      0.716415405 0.580209613 0.512444079 -0.00258939387 0.233398527
      0.471081823 -2.94729853e-05 -0.000461307092 0.190687984
      0.494722962 0.53290385 -0.000163712946 0.526097775 0.184286177
      0.0922786295 -0.00145474554 0.0994120687 -0.00223203236 0.4497509
      -0.00141156756 -1.49326943e-05 -0.00348029612 0.606479168
      -0.00506381365 -0.00313528115 -0.000127295672 -2.70160058e-06
      0.227785617 -2.13536595e-07 -4.22231381e-07 -5.29836834e-05
      0.379118413 -1.4047564e-05 -1.74650831e-05 -0.00022215872
      -0.000464072393 0.171356142 -4.04529672e-08 -2.17526636e-10
      -4.70394879e-09 -2.23709506e-13 -0.000148588442 -8.0446739e-07
      -2.12476037e-10 -9.24591295e-05 0.149955824 -1.85625904e-05
      0.0254311226 -0.000141988407 -3.83360129e-05 -1.5288786e-05
      0.236512586 -5.8541832e-07 -7.56012787e-06 0.186010808
      -0.000283702539 0.25379622 -8.78271094e-05 0.0568113141
      -0.000947811524 -3.40709084e-05 -5.31223563e-08 0.149710923
      -2.05449965e-06 -0.000118677221 -3.22038591e-06 -2.19577737e-06
      -0.000208132988 -2.12072365e-07 -3.4449622e-06 0.254168093
      -4.91046448e-09 -6.68411826e-10 -1.27205402e-08 -7.43160589e-10
      0.286042571 0.451797366 -2.31709655e-05 0.0618981346
      -8.85756308e-05 -1.08186415e-09 -1.33979199e-07 -4.06267427e-05
      -3.33378525e-09 -0.000645620283 0.0127864052 -1.0910952e-10
      -2.97340102e-06 -1.16486099e-05 -0.000302106724 -1.41818717e-07
      -0.000199726011 -9.5645003e-09 -2.86340419e-05 -0.000257761189
      -5.9842946e-06</_>
    <_>
      -1.40994132 -2.05190206 -0.00587229244 -0.0246932432
      -6.1318076e-08 -0.000131469656 -0.0112511907 -0.000553234946
      -0.00168363331 -3.69968939e-06 -1.6294427e-05 -3.21109979e-07
      -9.43669293e-05 -0.000269593991 -0.00015741153 5.46875095
      -0.00215240126 -0.00284083537 2.80615282 -0.0001368784
      -0.00100112485 -0.00061372231 -0.00455479184 0.00578144565
      -1.46101629e-05 -0.00645364448 1.27190065 -6.76507943e-06
      -5.43708593e-05 -1.64928388e-05 0.0374518894 -0.000185849771
      -0.0105086183 -0.000972502283 -8.19030029e-05 -0.000798248686
      -0.00021829555 -5.84129593e-05 -0.00717603089 -0.000210773534
      -0.00015220097 -0.00049598777 -0.00142659934 -0.000218601665
      -0.000415022107 -0.00203585438 -0.000444645499 4.01302195
      0.654793024 -0.0145273404 -0.00172084384 -0.00014279403
      -3.94524432e-06 -0.00939066056 1.46720445 -0.0164461117
      -0.0450259633 -0.00297366921 -0.00677864067 -0.0044292775
      -0.000904674758 -0.000520492205 -0.000980542507 1.62781692
      -0.0253886599 -2.72329144e-05 -3.7422069e-05 -2.11187798e-05
      -0.00445655501 -0.00124592497 -0.00055899279 4.77670956
      -0.00175678323 -0.00010604789 -2.47351772e-06 -0.00094038737
      -1.54381851e-05 -0.00858360715 3.36177993 -0.0017806734
      -9.34434956e-06 -4.23769961e-07 -0.000376702228 1.20615399
      -0.0193761699 -0.000473826396 -0.00391769595 -0.00407022657
      -7.3727424e-06 -0.00794559717 -0.00601795921 -0.000420572003
      -0.00515125878 -0.005574218 1.35797393 -0.0173618458
      -0.000656347838 -0.0092848558 -0.00601697387 -0.00212444155
      -5.98101615e-05 -0.00783576444 1.64920008 -1.25901397e-06
      -9.41654944e-05 -0.000765574805 4.69237185 -0.000119626326
      -3.08978124e-05 -0.000360864244 -0.00374679174 -0.00175243523
      -0.00271955924 -1.49286416e-05 -4.7278143e-05 -0.000566325558
      -6.64430331e-07 -2.38335019e-06 -0.000128224812 -4.68192738e-05
      -0.00649109576 -7.90273771e-06 -0.00679574814 -0.000526496267
      -0.0125725456 -0.00973546784 -0.00226153666 -0.0159115531
      -0.0239505358 -0.00151604018 -1.61358074e-08 -0.000118020769
      0.140450507 -7.39856259e-05 -7.51108819e-05 0.027466923
      0.336293042 0.410523802 -8.87619134e-09 -0.000226899603
      0.466771036 -2.53416761e-06 -2.47467327e-08 0.386406481
      0.656786501 -0.000173995548 0.496844381 -0.000666762528
      -1.22376305e-08 0.30746007 -2.26089815e-05 -0.000129337597
      -2.47927323e-06 -2.88746537e-06 0.070694603 0.135503426
      -0.00394898513 0.240133435 -1.18492892e-06 -0.00112181576
      -4.16770854e-06 -0.00190988823 0.710178494 0.589598238 0.516097367
      -0.00256023509 0.243845522 0.466664582 -2.96623202e-05
      -0.000459013827 0.201286048 0.498714596 0.530595779 -0.00016256691
      0.538701534 0.193496257 0.0803671181 -0.00147026894 0.100613445
      -0.00217465824 0.445781469 -0.00142588967 -1.49638427e-05
      -0.00347379968 0.597129703 -0.00501086423 -0.00312915258
      -0.000126547195 -2.70443093e-06 0.224229217 -2.15502553e-07
      -4.24686931e-07 0.00443076715 0.362546384 -1.40471384e-05
      -1.74667675e-05 -0.000222081988 -0.000464255252 0.172181636
      -4.04566336e-08 -2.16770185e-10 -4.70396033e-09 -2.23814728e-13
      -0.000148578736 -8.044629e-07 -2.12400222e-10 -9.24588821e-05
      0.150811493 -1.85627814e-05 0.0257263929 -0.000141980519
      -3.83356237e-05 -1.528947e-05 0.235369518 -5.85413773e-07
      -7.56023155e-06 0.184981197 -0.000283556641 0.253176481
      -8.80069565e-05 0.0573007651 -0.000947395165 -4.12207846e-05
      -5.31255502e-08 0.150451466 -2.05461856e-06 -0.000118668169
      -3.22025903e-06 -2.20382458e-06 -0.000208069541 -2.1217258e-07
      -3.44518412e-06 0.253177434 -4.91084107e-09 -6.68314515e-10
      -1.27135706e-08 -7.43179462e-10 0.287574798 0.45356068
      -2.31715567e-05 0.0604162551 -8.85721529e-05 -1.08220755e-09
      -1.33976854e-07 -4.06272338e-05 -3.33405947e-09 -0.000645286404
      0.0130047966 -1.09104767e-10 -2.97348538e-06 -7.28256964e-06
      -0.000302052416 -1.41826789e-07 -0.00019966434 -9.56481028e-09
      -2.86339327e-05 -0.000259217544 -5.9842755e-06</_>
    <_>
      -1.45584381 -1.99363136 -0.0058456962 -0.0242784824
      -6.24551433e-08 -0.000134645408 -0.0112318322 -0.000563061913
      -0.00168936094 -3.66633481e-06 -1.62404031e-05 -3.13170773e-07
      -9.39313686e-05 -0.000274953811 -0.000155897709 5.4495573
      -0.00197322923 -0.00287121418 2.65386724 -0.000136620773
      -0.00100376713 -0.000616351783 -0.00456569344 -0.000245955744
      -1.43277166e-05 -0.00687036896 1.26431859 -6.84564293e-06
      -5.33803868e-05 -1.6872038e-05 0.000668138266 -0.000186620251
      -0.0110231526 -0.000964866194 -8.31395664e-05 -0.000799799862
      -0.000210040467 -5.83907859e-05 -0.00655470556 -0.000214568514
      -0.000151938424 -0.000505795761 -0.0014393311 -0.000211649705
      -0.00071141019 -0.00212062662 -0.000443666708 3.81842327
      0.625776887 -0.0147685986 -0.00174649106 -0.000114181479
      -4.1941048e-06 -0.00937652029 1.46356881 -0.0163988341
      -0.0447887369 -0.00296152639 -0.0062818923 -0.00441453792
      -0.000909022463 -0.000565395283 -0.000995454961 1.61211419
      -0.0255181361 -2.63047423e-05 -3.88571498e-05 -2.07411376e-05
      -0.00448363042 -0.00122517254 -0.000552458398 4.73371029
      -0.00174603052 -0.000106409367 -2.78994412e-06 -0.000926715438
      -1.51128361e-05 -0.00865971111 3.38309669 -0.00179505884
      -9.41174585e-06 -4.11621272e-07 -0.000384486135 1.1235249
      -0.0187556576 -0.000484318676 -0.00446188683 -0.00330527709
      -7.37439632e-06 -0.007982051 -0.0060069398 -0.000427877036
      -0.00525683444 -0.00554059679 1.36537576 -0.0173503552
      -0.0006424319 -0.00930309296 -0.00604915526 -0.00210801116
      -5.89803967e-05 -0.00809393171 1.65985942 -1.24763494e-06
      -9.40767641e-05 -0.000766012352 4.55505562 -0.000119401629
      -3.06154179e-05 -0.000359229773 -0.00425589504 -0.00178796274
      -0.00233113486 -1.50482247e-05 -4.91368664e-05 -0.00056093029
      -7.36186166e-07 -2.39266546e-06 -0.000128671556 -4.74865446e-05
      -0.00644794106 -7.8506273e-06 -0.00680345576 -0.000516227446
      -0.0129910447 -0.00956550054 -0.00226870016 -0.0154497596
      -0.0239581317 -0.00164316676 -1.6123229e-08 -0.000130952001
      0.157512128 -7.37909941e-05 -7.41987678e-05 0.0199620873
      0.330849737 0.409745574 -8.86980622e-09 -0.000226142554
      0.471293956 -2.52453265e-06 -2.48418903e-08 0.385133445
      0.666705608 -0.000173467357 0.492950231 -0.000658189994
      -1.20958283e-08 0.305648029 -2.27153032e-05 -0.000130393644
      -2.46637592e-06 -2.86729301e-06 0.0649292395 0.125240788
      -0.00414647814 0.242168307 -1.18649211e-06 -0.00124447304
      -4.16999592e-06 -0.0017575511 0.708950162 0.580170333 0.519238055
      -0.00252350187 0.22207509 0.457787186 -2.90647185e-05
      -0.000457646413 0.193557292 0.494654506 0.545310616
      -0.000164318219 0.52132678 0.195370197 0.0924205035 -0.00138214882
      0.110228345 -0.00229512947 0.450993657 -0.00141807995
      -1.50792039e-05 -0.00346400007 0.604527414 -0.00511207851
      -0.00311463163 -0.000126502229 -2.70803753e-06 0.218837112
      -2.13204203e-07 -4.25122124e-07 -2.06263358e-05 0.371989995
      -1.40526599e-05 -1.74747329e-05 -0.000222011877 -0.000463899807
      0.172954947 -4.04916598e-08 -2.16876239e-10 -4.70741224e-09
      -2.24111691e-13 -0.0001485916 -8.04767296e-07 -2.12480838e-10
      -9.24747073e-05 0.151380986 -1.8568604e-05 0.0255523659
      -0.000141988596 -3.8344333e-05 -1.52948578e-05 0.234010801
      -5.8566053e-07 -7.56222971e-06 0.183945805 -0.000283345755
      0.251604289 -8.80986045e-05 0.0573632419 -0.000945640437
      -3.63931067e-05 -5.31646656e-08 0.151053533 -2.05141623e-06
      -0.000118679112 -3.22279288e-06 -2.19016806e-06 -0.000207986857
      -2.12469885e-07 -3.44663908e-06 0.251658142 -4.91628427e-09
      -6.68372302e-10 -1.2701399e-08 -7.4377543e-10 0.287337214
      0.453864157 -2.31804315e-05 0.0602420047 -8.85920963e-05
      -1.08502651e-09 -1.34071229e-07 -4.06367617e-05 -3.33609607e-09
      -0.000644247804 0.0128820706 -1.09213576e-10 -2.97466931e-06
      -3.96914766e-06 -0.000301830907 -1.41941683e-07 -0.00019961498
      -9.5713526e-09 -2.86398044e-05 -0.00025870325 -5.98620591e-06</_>
    <_>
      -1.36525679 -2.10121799 -0.0056697703 -0.0246813335
      -6.00534804e-08 -0.00012840546 -0.0109773995 -0.00054385059
      -0.0016571366 -3.63453637e-06 -1.60503041e-05 -3.07599208e-07
      -9.32437833e-05 -0.000271701894 -0.000150940105 5.3932395
      -0.00163477904 -0.00278985011 2.72202754 -0.000134390895
      -0.000986217055 -0.000588776369 -0.00443370314 0.0223156512
      -1.43226252e-05 -0.00607295102 1.29100406 -6.94739037e-06
      -5.39105931e-05 -1.65707243e-05 0.0556514524 -0.000182134769
      -0.00983915757 -0.000944305386 -8.10333877e-05 -0.000783099968
      -0.000217014094 -5.78862819e-05 -0.00620431174 -0.000207409335
      -0.000151121814 -0.000493829313 -0.00137514947 -0.00021588651
      -0.00051230879 -0.00205603475 -0.000434101588 3.90504694
      0.651818037 -0.0134970481 -0.00168070151 -9.48099187e-05
      -4.01271609e-06 -0.00918975659 1.55009162 -0.0163257103
      -0.042980168 -0.00286640553 -0.00620026514 -0.00426290324
      -0.000898124534 -0.000519698311 -0.000962914259 1.64284372
      -0.0243763961 -2.70175933e-05 -3.78203185e-05 -2.10186809e-05
      -0.00433754036 -0.0012006684 -0.000558418047 4.7443409
      -0.00169770105 -0.000103676801 -2.39828955e-06 -0.00092931668
      -1.51448767e-05 -0.00835381914 3.30929923 -0.00174471748
      -9.29999533e-06 -4.16703841e-07 -0.000369061396 1.14288175
      -0.0194974188 -0.000465682999 -0.00356504438 -0.00347143994
      -7.09500091e-06 -0.00786065124 -0.00595592428 -0.00041061698
      -0.00509252166 -0.0055723195 1.41538787 -0.0171206724
      -0.000642520259 -0.00940666813 -0.00587517908 -0.00207649427
      -5.88438743e-05 -0.00791991595 1.68005085 -1.26303769e-06
      -9.16223507e-05 -0.000769489678 4.62847948 -0.000116626143
      -3.05333524e-05 -0.000345753622 -0.00262730918 -0.00172746694
      -0.00272088521 -1.46031061e-05 -4.74596709e-05 -0.000530367601
      -7.14698956e-07 -2.32472803e-06 -0.000126695653 -4.58892719e-05
      -0.00636416441 -7.65874211e-06 -0.00667801732 -0.00050797523
      -0.0122504784 -0.00973423198 -0.00220146845 -0.015979128
      -0.0236352421 -0.00158998859 -1.65750329e-08 -0.000125992898
      0.128939658 -7.34855203e-05 -7.43252967e-05 0.0536339432
      0.30883044 0.411447734 -9.18057363e-09 -0.000223012714 0.442736417
      -2.49190271e-06 -2.55685606e-08 0.367619395 0.640253544
      -0.000173585242 0.473948598 -0.000788373116 -1.25103661e-08
      0.311759055 -2.28822955e-05 -0.000126660219 -2.45356409e-06
      -2.94564688e-06 0.0824084878 0.142983586 -0.00362887047
      0.246735573 -1.21009009e-06 -0.00112115557 -4.24858763e-06
      -0.00191761728 0.690992236 0.606830716 0.50182426 -0.00245713582
      0.255790085 0.461046845 -2.98157738e-05 -0.000448805076
      0.214043379 0.489883929 0.513631046 -0.000162126904 0.554394901
      0.199927226 0.055131197 -0.00141753466 0.109306276 -0.0019807755
      0.447604537 -0.00139480166 -1.51017366e-05 -0.00340559287
      0.576577365 -0.0048554102 -0.00307475985 -0.000123454811
      -2.75738262e-06 0.224651068 -2.18987566e-07 -4.35049714e-07
      0.0153597184 0.344099551 -1.40526154e-05 -1.74752859e-05
      -0.000221990471 -0.000463944016 0.173184618 -4.04930844e-08
      -2.16675497e-10 -4.70745798e-09 -2.24143647e-13 -0.000148589155
      -8.04769911e-07 -2.12461618e-10 -9.24748383e-05 0.151616737
      -1.85687277e-05 0.0256298296 -0.000141986573 -3.83443403e-05
      -1.52951088e-05 0.233688757 -5.85662463e-07 -7.56228246e-06
      0.183657855 -0.000283304049 0.251420647 -8.81480009e-05
      0.0574955195 -0.000945506967 -3.82638718e-05 -5.3166012e-08
      0.151258484 -2.05140668e-06 -0.000118676828 -3.22279107e-06
      -2.19212779e-06 -0.000207968857 -2.12500453e-07 -3.44671685e-06
      0.251375407 -4.91645391e-09 -6.68347488e-10 -1.26993918e-08
      -7.43788031e-10 0.287745953 0.45434016 -2.31807026e-05
      0.0598418228 -8.85914124e-05 -1.08515408e-09 -1.34071797e-07
      -4.06370127e-05 -3.33619532e-09 -0.000644145592 0.0129394326
      -1.09213694e-10 -2.97470683e-06 -2.7594715e-06 -0.000301813561
      -1.41945307e-07 -0.000199597867 -9.5715178e-09 -2.86398499e-05
      -0.000259088411 -5.98622546e-06</_>
    <_>
      -1.33852351 -2.15959477 -0.00569002982 -0.0238287952
      -6.03352248e-08 -0.000127071879 -0.0110717081 -0.00052915659
      -0.00161477888 -3.27164412e-06 -1.57044924e-05 -3.07786365e-07
      -9.09108639e-05 -0.000267776079 -0.000151663233 5.42000723
      -0.00197905488 -0.00280484697 2.66739535 -0.000129630454
      -0.000983056962 -0.000582924346 -0.00440699095 0.0158825144
      -1.30855906e-05 -0.00699841604 1.25976479 -6.76956961e-06
      -5.26967597e-05 -1.63642435e-05 0.125404134 -0.000182773336
      -0.0117304372 -0.000946088461 -8.00628186e-05 -0.000777247187
      -0.000205256641 -5.4748165e-05 -0.00519479392 -0.000203783929
      -0.000147237079 -0.000481261115 -0.00137143 -0.000220075817
      -0.000812125916 -0.00211537257 -0.00043593286 3.79555845
      0.609212518 -0.0136364698 -0.00166776835 0.00725720264
      -3.93416212e-06 -0.00923675578 1.58098352 -0.0161066465
      -0.0424376801 -0.00288214372 -0.00503651146 -0.00423522945
      -0.000894514844 -0.000598804152 -0.000943656196 1.61719275
      -0.0252209734 -2.60115667e-05 -3.80058482e-05 -1.88928352e-05
      -0.00429096539 -0.00118539343 -0.000559147913 4.8256464
      -0.00168512145 -0.000102373357 -2.50891912e-06 -0.000919693382
      -1.44828609e-05 -0.00934908912 3.28798962 -0.00173660333
      -9.21364881e-06 -3.66030577e-07 -0.000370245689 1.1160996
      -0.019405406 -0.000448554521 -0.00366543047 -0.00261611585
      -7.10046561e-06 -0.00788537879 -0.00603282684 -0.000412016438
      -0.00508672418 -0.00549997995 1.34161556 -0.017075805
      -0.000644891465 -0.0102235992 -0.00588209694 -0.00203024759
      -5.39580506e-05 -0.00824297685 1.6710372 -1.19007382e-06
      -8.6830958e-05 -0.000748343766 4.60815382 -0.000112058959
      -2.94796355e-05 -0.000342734595 -0.00269916491 -0.00170991407
      -0.00289092027 -1.41570608e-05 -4.83721633e-05 -0.000510879327
      -7.47777733e-07 -2.30886008e-06 -0.000125445877 -4.64991208e-05
      -0.00631368859 -7.708868e-06 -0.00667108176 -0.000490834063
      -0.0132457428 -0.00962381531 -0.00211422076 -0.0152906757
      -0.0243498329 -0.00157639408 -1.63483804e-08 -6.53541065e-05
      0.140903518 -7.36597649e-05 -7.41135518e-05 0.0372025929
      0.297250777 0.405697405 -9.02019881e-09 -0.000223359399
      0.447181195 -2.51478514e-06 -2.51170373e-08 0.375379622
      0.657984376 -0.000173088585 0.482361555 -0.00078358507
      -1.23841835e-08 0.32053563 -2.28193694e-05 -0.000128513668
      -2.45316801e-06 -2.91299398e-06 0.0737352297 0.13508141
      -0.00382929714 0.240647107 -1.19670665e-06 -0.00116184121
      -4.21015466e-06 -0.00184845622 0.712535024 0.602080345 0.501294196
      -0.0024394393 0.250558674 0.448644131 -2.97424012e-05
      -0.000452983746 0.203193665 0.493041545 0.521819472 -0.00016369886
      0.544401526 0.199431419 0.0741148219 -0.00142528024 0.114367589
      -0.00200915779 0.444089651 -0.00141025882 -1.50337901e-05
      -0.00344790029 0.592034876 -0.00493537402 -0.00310152164
      -0.000124434111 -2.73742148e-06 0.225803792 -2.16364768e-07
      -4.29839787e-07 0.0091534853 0.361923099 -1.40591919e-05
      -1.74825e-05 -0.00022198807 -0.000463367091 0.173230678
      -4.05285121e-08 -2.17540375e-10 -4.71129313e-09 -2.24370896e-13
      -0.000148613093 -8.05113871e-07 -2.12626375e-10 -9.24927372e-05
      0.15140669 -1.85750287e-05 0.0251454376 -0.000142003351
      -3.83544284e-05 -1.53004403e-05 0.233303413 -5.85942075e-07
      -7.56440795e-06 0.183520526 -0.000283212867 0.250282675
      -8.80728621e-05 0.0570830107 -0.000943962019 -2.58559721e-05
      -5.32064703e-08 0.151197776 -2.04771777e-06 -0.000118697957
      -3.22574169e-06 -2.16893386e-06 -0.000207939287 -2.12732928e-07
      -3.44811929e-06 0.250661552 -4.92214935e-09 -6.68508415e-10
      -1.2692718e-08 -7.44433737e-10 0.285971999 0.452939272
      -2.31900176e-05 0.0611074194 -8.86170674e-05 -1.08795739e-09
      -1.34179302e-07 -4.06471554e-05 -3.33819528e-09 -0.000643317588
      0.0125878174 -1.09339683e-10 -2.97594374e-06 -3.37410711e-06
      -0.000301620254 -1.42065446e-07 -0.000199603732 -9.5785051e-09
      -2.8646502e-05 -0.000257080916 -5.98839642e-06</_>
    <_>
      -1.39717865 -2.06002307 -0.00579827884 -0.0247506108
      -6.20606144e-08 -0.000133651149 -0.0112041831 -0.00055870082
      -0.00167818635 -3.59170394e-06 -1.61882053e-05 -3.09703609e-07
      -9.35063144e-05 -0.000275017723 -0.000154639565 5.48562574
      -0.00189905299 -0.00286280503 2.63751817 -0.000134862392
      -0.000999656855 -0.000605444657 -0.004521464 -0.000121220124
      -1.40964912e-05 -0.00695661455 1.26798713 -6.79179584e-06
      -5.34578758e-05 -1.67282233e-05 0.0104081742 -0.000186167788
      -0.0112653263 -0.000960458594 -8.2525592e-05 -0.000795130618
      -0.000208974569 -5.77353712e-05 -0.00619442621 -0.00021232148
      -0.000151051223 -0.000504632888 -0.00141934922 -0.00021277304
      -0.000792769948 -0.00213940814 -0.00044363545 3.81688023
      0.619296312 -0.0146463215 -0.00172783202 0.00162945874
      -4.15252271e-06 -0.00938423164 1.5515759 -0.0163940899
      -0.0444077402 -0.00293636043 -0.00592719018 -0.00435596984
      -0.000908472575 -0.000578923151 -0.000984241837 1.60746431
      -0.0253979173 -2.62864596e-05 -3.89417146e-05 -2.04472872e-05
      -0.00442946376 -0.00121467421 -0.000554613536 4.76047277
      -0.00172793341 -0.000105403211 -2.72482521e-06 -0.000918105943
      -1.50949572e-05 -0.00873435941 3.42652965 -0.00178279111
      -9.3701301e-06 -4.03640684e-07 -0.000380808953 1.10654247
      -0.0192047469 -0.000476622459 -0.00440234877 -0.00299927173
      -7.26928874e-06 -0.00798383076 -0.0060545844 -0.000423846563
      -0.00523571251 -0.00556267705 1.37143683 -0.0173186138
      -0.000641788007 -0.00965010747 -0.00599673623 -0.00209183129
      -5.78548461e-05 -0.00814591907 1.66664851 -1.23642849e-06
      -9.24983688e-05 -0.000767963938 4.58448267 -0.000117847427
      -3.02132212e-05 -0.000353787706 -0.0039800969 -0.00177114794
      -0.00210773316 -1.47645878e-05 -4.90419261e-05 -0.000543732196
      -7.54770156e-07 -2.35159314e-06 -0.000128164247 -4.72513711e-05
      -0.00644767983 -7.79796937e-06 -0.0068003214 -0.000507847813
      -0.013079741 -0.00966345705 -0.00221438892 -0.0155223543
      -0.0241687987 -0.00165716722 -1.64434546e-08 -0.000106336323
      0.132937223 -7.35887443e-05 -7.42083575e-05 0.0381266773
      0.304801941 0.408229768 -9.09347886e-09 -0.000223203184
      0.445607424 -2.50929543e-06 -2.53182897e-08 0.377647281
      0.651938617 -0.000173898705 0.474424183 -0.000796191161
      -1.24638513e-08 0.319635063 -2.28603694e-05 -0.000127716048
      -2.46233708e-06 -2.92599839e-06 0.0745786503 0.137652844
      -0.00374633307 0.242440626 -1.20286256e-06 -0.00117421255
      -4.22790708e-06 -0.00187536411 0.705763578 0.604036331 0.495524734
      -0.00246469723 0.250080109 0.452824831 -2.97319239e-05
      -0.00045097238 0.206766963 0.492261529 0.524237752 -0.000162655808
      0.554564059 0.199061692 0.0628724545 -0.00145448023 0.112894922
      -0.00202280283 0.447208762 -0.00139889866 -1.50690912e-05
      -0.00343118818 0.583877981 -0.0048832614 -0.00308934809
      -0.000124308994 -2.74630634e-06 0.229061216 -2.17625086e-07
      -4.32101444e-07 0.00840629637 0.353770494 -1.40565471e-05
      -1.74818051e-05 -0.000221910246 -0.000463748351 0.174061775
      -4.05203693e-08 -2.16474866e-10 -4.71001815e-09 -2.24402311e-13
      -0.000148595107 -8.04993761e-07 -2.12493342e-10 -9.24864653e-05
      0.152354032 -1.85731078e-05 0.0256097689 -0.000141989643
      -3.83506413e-05 -1.52993489e-05 0.232261047 -5.85843509e-07
      -7.56379995e-06 0.182511449 -0.000283094065 0.250027716
      -8.8282206e-05 0.0577222109 -0.000944054278 -3.73233088e-05
      -5.31961497e-08 0.151977509 -2.04907997e-06 -0.000118681593
      -3.22461983e-06 -2.18498872e-06 -0.000207884208 -2.12757541e-07
      -3.447876e-06 0.249884918 -4.92062213e-09 -6.68354261e-10
      -1.26878064e-08 -7.44236228e-10 0.288134873 0.455215096
      -2.31874947e-05 0.0591665395 -8.86048947e-05 -1.08736786e-09
      -1.34140791e-07 -4.06442487e-05 -3.33780426e-09 -0.000643253443
      0.0129290167 -1.09292499e-10 -2.97561451e-06 0.000130414963
      -0.000301629509 -1.42033372e-07 -0.000199538583 -9.5764765e-09
      -2.86441573e-05 -0.000259244582 -5.98764746e-06</_>
    <_>
      -1.39929593 -2.04876447 -0.0057750321 -0.0244462155
      -6.22138856e-08 -0.000134347632 -0.0111657511 -0.000563685724
      -0.00168136356 -3.67375992e-06 -1.63357618e-05 -3.0877672e-07
      -9.42820843e-05 -0.000278782827 -0.000152850815 5.45586157
      -0.00172048167 -0.00286954874 2.64940214 -0.000136760718
      -0.0010086752 -0.000609807146 -0.00452322001 -0.000184068296
      -1.43809648e-05 -0.00670887809 1.28631592 -7.0133392e-06
      -5.37306478e-05 -1.70127187e-05 0.0339170434 -0.000186249483
      -0.011002006 -0.000956899428 -8.28589327e-05 -0.000794187072
      -0.000207987017 -5.84966074e-05 -0.00582495797 -0.000214968823
      -0.000152350563 -0.00051128061 -0.00141784933 -0.000215338208
      -0.000827790471 -0.002172173 -0.00044023199 3.79425669 0.653022766
      -0.0144307232 -0.00173687504 -1.29335367e-05 -4.25622602e-06
      -0.00936545432 1.54760599 -0.016539149 -0.0442681164
      -0.00291473651 -0.00564576779 -0.00434655789 -0.000923190324
      -0.000573533005 -0.00099049753 1.62184358 -0.0251654834
      -2.61597215e-05 -3.93484515e-05 -2.08280489e-05 -0.00443210546
      -0.00121763663 -0.000558963628 4.75234985 -0.00172710046
      -0.000105823143 -2.79753317e-06 -0.000923545042 -1.5212564e-05
      -0.00856189895 3.41426396 -0.00178603083 -9.47445096e-06
      -4.16064069e-07 -0.000382520666 1.12585664 -0.0192630645
      -0.000487658632 -0.00409819605 -0.00291045173 -7.30003285e-06
      -0.00797671638 -0.00605090614 -0.000426539569 -0.00528639415
      -0.00561057311 1.39674187 -0.0173504613 -0.000637087447
      -0.00960123911 -0.00600708881 -0.00209518615 -5.89279152e-05
      -0.00824027974 1.6802299 -1.26092789e-06 -9.36030556e-05
      -0.000772622065 4.57031965 -0.00011953889 -3.0428042e-05
      -0.000351948314 -0.00397802098 -0.00178324571 -0.00190708693
      -1.50478591e-05 -4.95766617e-05 -0.0005399519 -7.62057027e-07
      -2.38588132e-06 -0.000129256223 -4.72299107e-05 -0.00644047745
      -7.77376954e-06 -0.00680458779 -0.000509763777 -0.0129769873
      -0.00968268141 -0.00224485574 -0.0155114364 -0.0239854399
      -0.00174354471 -1.63867586e-08 -8.75219703e-05 0.134234786
      -7.36907314e-05 -7.40752876e-05 0.0379749462 0.296712905
      0.406402856 -9.03538311e-09 -0.000222548348 0.444729865
      -2.52193763e-06 -2.51483101e-08 0.378133893 0.647399604
      -0.000174939923 0.475702524 -0.000933282718 -1.2457205e-08
      0.325704992 -2.2843582e-05 -0.000128344138 -2.44469561e-06
      -2.91402512e-06 0.0710704848 0.138698414 -0.00381957227
      0.251091838 -1.19873687e-06 -0.00113950693 -4.21414734e-06
      -0.00186728605 0.712639272 0.605330527 0.492984593 -0.00245130411
      0.246774822 0.450086147 -2.96672733e-05 -0.000451872009
      0.206591368 0.492290854 0.519458354 -0.000163642922 0.55396688
      0.202204362 0.0682645142 -0.0014739898 0.118154958 -0.00203236844
      0.447263896 -0.0013917723 -1.50305905e-05 -0.00344739598
      0.587295771 -0.0049317521 -0.00310228276 -0.000124420432
      -2.74054241e-06 0.232624322 -2.1664323e-07 -4.30124857e-07
      0.0080046542 0.358818859 -1.40565471e-05 -1.74818051e-05
      -0.000221910246 -0.000463748351 0.174061775 -4.05203693e-08
      -2.16474866e-10 -4.71001815e-09 -2.24402311e-13 -0.000148595107
      -8.04993761e-07 -2.12493342e-10 -9.24864653e-05 0.152354032
      -1.85731078e-05 0.0256097689 -0.000141989643 -3.83506413e-05
      -1.52993489e-05 0.232261047 -5.85843509e-07 -7.56379995e-06
      0.182511449 -0.000283094065 0.250027716 -8.8282206e-05
      0.0577222109 -0.000944054278 -3.73233088e-05 -5.31961497e-08
      0.151977509 -2.04907997e-06 -0.000118681593 -3.22461983e-06
      -2.18498872e-06 -0.000207884208 -2.12757541e-07 -3.447876e-06
      0.249884918 -4.92062213e-09 -6.68354261e-10 -1.26878064e-08
      -7.44236228e-10 0.288134873 0.455215096 -2.31874947e-05
      0.0591665395 -8.86048947e-05 -1.08736786e-09 -1.34140791e-07
      -4.06442487e-05 -3.33780426e-09 -0.000643253443 0.0129290167
      -1.09292499e-10 -2.97561451e-06 0.000130414963 -0.000301629509
      -1.42033372e-07 -0.000199538583 -9.5764765e-09 -2.86441573e-05
      -0.000259244582 -5.98764746e-06</_>
    <_>
      -1.31920481 -2.10488296 -0.00596397603 -0.0248070788
      -6.1737417e-08 -0.0001343084 -0.0113859056 -0.000551042845
      -0.00172732421 -3.5681478e-06 -1.61386743e-05 -3.26199313e-07
      -9.33901392e-05 -0.00026933584 -0.000160305426 5.56129789
      -0.00275039836 -0.00283452426 2.87121987 -0.000137438008
      -0.00100331905 -0.000636395707 -0.00458894018 -0.000263520255
      -1.42287472e-05 -0.00713168131 1.22304082 -6.54261612e-06
      -5.30478101e-05 -1.62229699e-05 0.0962933749 -0.000188421618
      -0.0116379568 -0.000973725808 -8.36534746e-05 -0.000815669715
      -0.00021845568 -5.7261339e-05 -0.00787632726 -0.000208109981
      -0.000151424101 -0.000500646711 -0.00143976358 -0.000224324613
      -0.000397971889 -0.00201624539 -0.000444086327 4.13054657
      0.657129645 -0.0158611517 -0.00172273035 -0.000152871376
      -3.85355906e-06 -0.00946106017 1.50476074 -0.0166758429
      -0.046720393 -0.0030404767 -0.00651679141 -0.00450956216
      -0.000897399848 -0.000526363205 -0.000977797317 1.60123825
      -0.0267178174 -2.75237635e-05 -3.69078807e-05 -2.04194803e-05
      -0.00451972475 -0.00127532938 -0.000567537849 4.80312061
      -0.00176866225 -0.000106779371 -2.73636874e-06 -0.000953337527
      -1.51972745e-05 -0.00926841795 3.42858386 -0.00178953016
      -9.29603993e-06 -4.09463524e-07 -0.000379464647 1.29447579
      -0.019676229 -0.000485677214 -0.00424794434 -0.00427437993
      -7.51514744e-06 -0.00794262998 -0.0060566985 -0.000426254555
      -0.00516995462 -0.00563524337 1.29169881 -0.0175680686
      -0.000668718363 -0.00941940863 -0.00604299176 -0.00214027381
      -5.84806548e-05 -0.00761765568 1.61774111 -1.22548806e-06
      -9.37228542e-05 -0.000764794531 4.78022623 -0.000117226642
      -3.09986972e-05 -0.000366676715 -0.00450284593 -0.00176063122
      -0.00234837132 -1.50839796e-05 -4.71096246e-05 -0.00057824637
      -6.35664549e-07 -2.40743043e-06 -0.000129795095 -4.71852945e-05
      -0.00649625948 -7.93163508e-06 -0.0068476228 -0.000519968919
      -0.0133600794 -0.00963628106 -0.00229664054 -0.0160058215
      -0.0246240161 -0.00147202983 -1.60606284e-08 -4.48688843e-05
      0.138909146 -7.45778962e-05 -7.45037905e-05 -1.99078022e-05
      0.311604172 0.396471441 -8.80127526e-09 -0.000224714429
      0.460945398 -2.60867637e-06 -2.44266936e-08 0.406502545
      0.648752868 -0.000175956695 0.497941613 -0.000907349051
      -1.24064741e-08 0.328759938 -2.27178443e-05 -0.000131408829
      -2.47206322e-06 -2.87657485e-06 0.0480314568 0.136262938
      -0.00413562311 0.25475499 -1.18048592e-06 -0.00102472806
      -4.1535709e-06 -0.00185340131 0.725529075 0.580595613 0.496584684
      -0.00256553805 0.240539923 0.453766674 -2.95220361e-05
      -0.000460536918 0.190426409 0.494996071 0.529069901
      -0.000164375437 0.536673546 0.183570534 0.0992216319
      -0.00154433341 0.100686252 -0.0020979431 0.447558641
      -0.00139277498 -1.4889396e-05 -0.0034835909 0.606099725
      -0.00506933499 -0.00313484482 -0.000126798041 -2.71257704e-06
      0.237060755 -2.12945594e-07 -4.22141397e-07 -8.2779894e-05
      0.385150671 -1.40538796e-05 -1.74739562e-05 -0.000222087067
      -0.000463649776 0.172149688 -4.04923668e-08 -2.17725796e-10
      -4.70786832e-09 -2.24035824e-13 -0.000148604086 -8.04813737e-07
      -2.12575443e-10 -9.24771448e-05 0.150513887 -1.85691842e-05
      0.0252018012 -0.000141998389 -3.83459446e-05 -1.52948342e-05
      0.235087216 -5.85699127e-07 -7.56238614e-06 0.184941411
      -0.000283478206 0.252072155 -8.79123618e-05 0.0568304695
      -0.000945861393 -2.78151037e-05 -5.31664597e-08 0.150318548
      -2.05085144e-06 -0.000118690594 -3.22327719e-06 -2.1794508e-06
      -0.000208045691 -2.12399698e-07 -3.44659134e-06 0.252543658
      -4.91660934e-09 -6.68486988e-10 -1.27074271e-08 -7.43835604e-10
      0.285610199 0.451957405 -2.31809881e-05 0.0618570223
      -8.85986447e-05 -1.08503029e-09 -1.34086633e-07 -4.06375184e-05
      -3.33607031e-09 -0.000644475047 0.0126235988 -1.09233615e-10
      -2.97473707e-06 -8.34032835e-06 -0.000301860797 -1.41948391e-07
      -0.000199676389 -9.57189972e-09 -2.8640723e-05 -0.000257022592
      -5.98648967e-06</_>
    <_>
      -1.4206835 -2.03360462 -0.0058036265 -0.0247071665 -6.29546122e-08
      -0.000137214243 -0.0111794686 -0.000567064213 -0.00168432586
      -3.66379209e-06 -1.62704491e-05 -3.0694531e-07 -9.4568175e-05
      -0.00027907305 -0.00015453255 5.49436426 -0.00178440881
      -0.00288439263 2.59844279 -0.000136426679 -0.00100373465
      -0.000615007011 -0.0045475224 -0.000168085026 -1.42913841e-05
      -0.00696438132 1.27515829 -6.93608945e-06 -5.37338092e-05
      -1.69872528e-05 0.00863675773 -0.000187182683 -0.01134359
      -0.000954551913 -8.27147815e-05 -0.00079724961 -0.000205331322
      -5.85246999e-05 -0.00618370948 -0.000215277512 -0.000152980036
      -0.000513881387 -0.0014260204 -0.000211913997 -0.000848727825
      -0.00218311581 -0.000444045145 3.73505473 0.628486097
      -0.0150711434 -0.00174534135 -6.35635115e-06 -4.27708437e-06
      -0.00940700714 1.5561204 -0.0165153202 -0.0449920893
      -0.00293340464 -0.00596261956 -0.00437180977 -0.000916447665
      -0.000578398991 -0.000998213305 1.61830997 -0.0254848301
      -2.57469437e-05 -3.95056268e-05 -2.08386737e-05 -0.00446081161
      -0.00121922826 -0.000548509706 4.76483917 -0.00172665052
      -0.000106742016 -2.93071025e-06 -0.000920821563 -1.51972063e-05
      -0.00863546226 3.42636776 -0.00180038717 -9.46556702e-06
      -4.11262704e-07 -0.000385785679 1.09417796 -0.0192641038
      -0.0004974521 -0.00445539877 -0.00279717264 -7.33297338e-06
      -0.00798105542 -0.00605025748 -0.000428651809 -0.00531886704
      -0.00554683665 1.37012124 -0.0173234176 -0.000628589536
      -0.00969945733 -0.00601872476 -0.00210631196 -5.85896196e-05
      -0.00824731868 1.6708312 -1.23768041e-06 -9.38605008e-05
      -0.000766965211 4.54191589 -0.000119035409 -3.02436565e-05
      -0.000353409152 -0.00429377286 -0.00179909065 -0.00192681246
      -1.50251026e-05 -4.98052068e-05 -0.000543848728 -7.68389725e-07
      -2.35685047e-06 -0.000129167136 -4.76669738e-05 -0.00644651381
      -7.78878984e-06 -0.0068404898 -0.000508153928 -0.0130537199
      -0.00959140155 -0.0022569329 -0.0153537327 -0.0241656899
      -0.00173502485 -1.6116088e-08 -0.000126045343 0.146816
      -7.36024231e-05 -7.37019363e-05 0.0109092519 0.311635524
      0.400330842 -8.87799256e-09 -0.000225394659 0.466588944
      -2.51695792e-06 -2.47838656e-08 0.38650471 0.663144886
      -0.000175356749 0.483914316 -0.000851480581 -1.22238113e-08
      0.323268354 -2.27377459e-05 -0.000130012791 -2.44182411e-06
      -2.87807893e-06 0.0530760214 0.128431708 -0.00414073421
      0.238016739 -1.18555795e-06 -0.00129720452 -4.17341653e-06
      -0.00175823725 0.726545095 0.597667158 0.500364304 -0.00247476855
      0.23506467 0.439427286 -2.93664343e-05 -0.000456900656 0.195777535
      0.501908362 0.543738425 -0.000164258847 0.549984336 0.191932559
      0.0846452117 -0.00144421519 0.115292251 -0.00219143927 0.453260958
      -0.00140670594 -1.50292199e-05 -0.00348905195 0.596053481
      -0.00506884046 -0.00313622598 -0.000125706763 -2.71067097e-06
      0.229703873 -2.13520423e-07 -4.25059625e-07 -3.63530962e-05
      0.367290646 -1.40572329e-05 -1.74829984e-05 -0.000221894225
      -0.000463717937 0.174236774 -4.05252898e-08 -2.16421617e-10
      -4.71047201e-09 -2.24450626e-13 -0.000148595936 -8.05033267e-07
      -2.12497173e-10 -9.24885171e-05 0.152504846 -1.857389e-05
      0.0256130397 -0.000141989993 -3.83517545e-05 -1.53001165e-05
      0.231980994 -5.85875455e-07 -7.56407144e-06 0.182283998
      -0.000283053436 0.249765918 -8.83101748e-05 0.0577737801
      -0.00094378693 -3.73209987e-05 -5.3201564e-08 0.152122453
      -2.04867047e-06 -0.000118682226 -3.22494134e-06 -2.18391415e-06
      -0.000207867735 -2.1280546e-07 -3.44808677e-06 0.249597251
      -4.92136998e-09 -6.68353095e-10 -1.26855886e-08 -7.44316109e-10
      0.288239449 0.455411464 -2.31887116e-05 0.0590123348
      -8.86072012e-05 -1.08776832e-09 -1.3415297e-07 -4.06455438e-05
      -3.3380958e-09 -0.000643087435 0.0129322279 -1.09306356e-10
      -2.97577753e-06 0.000212684274 -0.000301595632 -1.4204916e-07
      -0.000199526621 -9.57736201e-09 -2.86449176e-05 -0.000259305991
      -5.98789893e-06</_>
    <_>
      -1.16914821 -2.2460022 -0.00570068834 -0.0252398457
      -6.01164984e-08 -0.000129265653 -0.010982831 -0.000533791666
      -0.00167194125 -3.40228303e-06 -1.58169314e-05 -3.12038082e-07
      -9.11451207e-05 -0.000262913614 -0.000151484579 5.45351744
      -0.00255664275 -0.00276262802 2.78753805 -0.000133471171
      -0.000972652866 -0.000599743275 -0.00442544464 0.0223388523
      -1.38771511e-05 -0.00660998933 1.20557761 -6.64680738e-06
      -5.36842017e-05 -1.62417691e-05 0.202843964 -0.000184490622
      -0.0102963513 -0.00092180277 -7.95357118e-05 -0.000785194687
      -0.000214451327 -5.57449457e-05 -0.00623206049 -0.000198784313
      -0.000150835418 -0.000492650608 -0.00134879083 -0.000225543336
      -0.000430563581 -0.00201823073 -0.000432071975 3.98122048
      0.646645427 -0.014303158 -0.00163567998 -0.000113208887
      -3.82365579e-06 -0.00921331719 1.66464937 -0.0163096301
      -0.0431239307 -0.00288496865 -0.00550800748 -0.00429279217
      -0.000889262476 -0.000512325554 -0.000946585147 1.58936739
      -0.0252502244 -2.74848026e-05 -3.68865476e-05 -2.01751591e-05
      -0.00436109444 -0.00120783015 -0.000559222943 4.71112728
      -0.00169634237 -0.000103717488 -2.50332891e-06 -0.000933382718
      -1.47502515e-05 -0.00888030138 3.27981234 -0.00174615602
      -9.16327372e-06 -3.94053927e-07 -0.000369123096 1.25200975
      -0.0204880685 -0.000471863925 -0.00308087934 -0.00355133344
      -7.10773611e-06 -0.00770693412 -0.0059924745 -0.000406405219
      -0.00509792799 -0.00555564277 1.27215219 -0.0170789063
      -0.000636930228 -0.00983777829 -0.00582020823 -0.00208979123
      -5.57456806e-05 -0.00765745016 1.5936327 -1.19312085e-06
      -8.93258184e-05 -0.000755157438 4.7556901 -0.000112154921
      -3.02589524e-05 -0.000341262348 -0.00182264647 -0.00170810171
      -0.00222942536 -1.44973883e-05 -4.63461693e-05 -0.000517036999
      -6.61054059e-07 -2.28980343e-06 -0.000125130464 -4.58718423e-05
      -0.00628057215 -7.63204207e-06 -0.00672912225 -0.000488089048
      -0.0127797173 -0.00964141544 -0.00217336183 -0.0159544628
      -0.0243989658 -0.00151727523 -1.60750613e-08 -5.45409312e-05
      0.140126556 -7.45752914e-05 -7.48822786e-05 -2.19945596e-05
      0.31085816 0.400542438 -8.81188544e-09 -0.000224448435 0.461600095
      -2.60579918e-06 -2.44616363e-08 0.405164063 0.644042194
      -0.000176069952 0.496691734 -0.000926927256 -1.24787523e-08
      0.328184336 -2.2711627e-05 -0.000131354042 -2.47505432e-06
      -2.8752122e-06 0.0513981953 0.138538614 -0.00411654776 0.255150408
      -1.18157402e-06 -0.00102553912 -4.15583281e-06 -0.00183746452
      0.72560674 0.584254801 0.499446452 -0.00257299119 0.241063625
      0.454924881 -2.95703812e-05 -0.00045994643 0.190988749 0.495203763
      0.530546188 -0.000164638826 0.540076613 0.187829971 0.0957248509
      -0.0015266703 0.0988397747 -0.00207319832 0.449848056
      -0.00139133178 -1.48976296e-05 -0.00348301465 0.603954911
      -0.00504701491 -0.00313251792 -0.000126619896 -2.71233489e-06
      0.239543855 -2.13806686e-07 -4.22369027e-07 -7.05119965e-05
      0.383877218 -1.40510347e-05 -1.74703418e-05 -0.000222105664
      -0.000463866221 0.171940193 -4.04756726e-08 -2.1751119e-10
      -4.7061488e-09 -2.23910137e-13 -0.000148595587 -8.04660885e-07
      -2.1251903e-10 -9.24691922e-05 0.15041256 -1.85663193e-05
      0.0253517218 -0.000141992685 -3.83415172e-05 -1.5292293e-05
      0.235520974 -5.85575037e-07 -7.56141208e-06 0.185238034
      -0.000283552246 0.25272423 -8.79050785e-05 0.0569038875
      -0.000946648011 -3.17516169e-05 -5.31476232e-08 0.150176361
      -2.05247466e-06 -0.000118683201 -3.22198548e-06 -2.18798391e-06
      -0.000208073368 -2.12272752e-07 -3.44591285e-06 0.253090084
      -4.91397367e-09 -6.68437361e-10 -1.27120119e-08 -7.43542228e-10
      0.286056101 0.45218271 -2.31766862e-05 0.0616273582 -8.8587949e-05
      -1.08369724e-09 -1.34039041e-07 -4.06328691e-05 -3.33511263e-09
      -0.000644921965 0.0127314869 -1.09178319e-10 -2.97416432e-06
      -9.06072546e-06 -0.000301959721 -1.41892784e-07 -0.000199687827
      -9.56870227e-09 -2.86377708e-05 -0.000257590524 -5.98552197e-06</_>
    <_>
      -1.4316107 -2.01280069 -0.00578630297 -0.0245360248
      -6.14532212e-08 -0.000135869312 -0.0111252069 -0.000557251566
      -0.00169764878 -3.67114012e-06 -1.62498527e-05 -3.13873102e-07
      -9.4357245e-05 -0.000275075872 -0.000154718975 5.43791723
      -0.00135897205 -0.00283618202 2.71656013 -0.000138398231
      -0.00100222521 -0.000615885656 -0.00451756362 -1.66903428e-05
      -1.45545146e-05 -0.00593236601 1.334602 -6.96502957e-06
      -5.42256348e-05 -1.67360868e-05 0.0457245521 -0.00018562378
      -0.010408706 -0.000956561242 -8.25371026e-05 -0.000794819207
      -0.000214188171 -5.88020193e-05 -0.0067435978 -0.000211277948
      -0.000152932102 -0.000511742779 -0.00141213753 -0.000218170928
      -0.000465491146 -0.00208522798 -0.00044119684 3.91226983
      0.693485022 -0.0145531623 -0.00171696348 -0.000129775799
      -4.08234109e-06 -0.00930564944 1.48304689 -0.016719861
      -0.0448283516 -0.00293419184 -0.00606114091 -0.00437111827
      -0.000907302252 -0.000525986252 -0.000981407822 1.67475486
      -0.0248450302 -2.6827558e-05 -3.82809012e-05 -2.13928888e-05
      -0.00444481056 -0.00123907824 -0.000557477993 4.72627068
      -0.00173202262 -0.000106207015 -2.69630891e-06 -0.0009420797
      -1.55168818e-05 -0.00793445669 3.36129212 -0.00177501887
      -9.39051552e-06 -4.20392411e-07 -0.000376570242 1.19261694
      -0.0192265194 -0.000487456418 -0.00372931315 -0.00383240753
      -7.28774967e-06 -0.00786668248 -0.00598079665 -0.000421232486
      -0.00521916617 -0.00560541498 1.46430206 -0.0174139813
      -0.000638795493 -0.00933230482 -0.00594847091 -0.00211846735
      -5.94876183e-05 -0.00792241283 1.71996975 -1.25618578e-06
      -9.48447414e-05 -0.000773126783 4.61830902 -0.000119190605
      -3.09616844e-05 -0.000354155578 -0.00349426642 -0.00176738203
      -0.00218982785 -1.49954876e-05 -4.82876094e-05 -0.000554365048
      -6.99227655e-07 -2.36342316e-06 -0.000129998763 -4.67331192e-05
      -0.00647156173 -7.75825356e-06 -0.00675639976 -0.000517526059
      -0.012263814 -0.00968092494 -0.00228869217 -0.015904285
      -0.0235722009 -0.00170870766 -1.63212928e-08 -7.49979881e-05
      0.130929962 -7.41485419e-05 -7.42402262e-05 0.0252923109
      0.311214447 0.403761566 -8.97368757e-09 -0.000223868919
      0.454054862 -2.57200963e-06 -2.48893102e-08 0.390121281
      0.641910255 -0.000175091598 0.482246131 -0.000967314467
      -1.24897763e-08 0.325872511 -2.27662058e-05 -0.000129658059
      -2.47338812e-06 -2.91144238e-06 0.0648935661 0.139760435
      -0.00390035915 0.253191799 -1.19419872e-06 -0.00102781819
      -4.19716298e-06 -0.00187567656 0.714387417 0.591350317 0.4906165
      -0.00250412454 0.249302089 0.452178866 -2.98895047e-05
      -0.000454599329 0.204645276 0.497995555 0.521110773
      -0.000162701414 0.54971534 0.190672666 0.0751621574 -0.00149374956
      0.107929111 -0.00195130194 0.447678685 -0.00138712989
      -1.49666002e-05 -0.00345031614 0.593477786 -0.00497542555
      -0.00310812471 -0.000125394698 -2.73652608e-06 0.232690483
      -2.15709107e-07 -4.27999566e-07 0.00604724139 0.361101985
      -1.40501907e-05 -1.74719898e-05 -0.000222013943 -0.000464114244
      0.172925264 -4.04782661e-08 -2.16562088e-10 -4.70596806e-09
      -2.24024575e-13 -0.000148582738 -8.04637921e-07 -2.12419957e-10
      -9.24679698e-05 0.151447162 -1.85662284e-05 0.0257301591
      -0.000141982397 -3.83405422e-05 -1.52928405e-05 0.234173015
      -5.8555537e-07 -7.56142754e-06 0.184013039 -0.00028338228
      0.252041668 -8.81242086e-05 0.0575110316 -0.000946228334
      -4.0952189e-05 -5.31493853e-08 0.15106529 -2.05280367e-06
      -0.000118671298 -3.22168398e-06 -2.19878029e-06 -0.000207998935
      -2.12380868e-07 -3.44610771e-06 0.251941621 -4.91413443e-09
      -6.68313183e-10 -1.27040138e-08 -7.43532014e-10 0.287981451
      0.454364657 -2.31769172e-05 0.0597883351 -8.85824848e-05
      -1.08396603e-09 -1.34030799e-07 -4.06329382e-05 -3.33533934e-09
      -0.000644564629 0.0130110551 -1.09166232e-10 -2.97420252e-06
      -3.80389383e-06 -0.000301904511 -1.41896336e-07 -0.000199613714
      -9.56871737e-09 -2.86373015e-05 -0.000259436842 -5.98538873e-06</_>
    <_>
      -1.45887423 -1.96495461 -0.00586115336 -0.02471813 -6.22221492e-08
      -0.000138608724 -0.0112058399 -0.000562844332 -0.00170831732
      -3.76389244e-06 -1.6359676e-05 -3.14449267e-07 -9.56600124e-05
      -0.000275748142 -0.000156732465 5.49846601 -0.00195930293
      -0.00286298385 2.66214728 -0.000138707925 -0.000999303767
      -0.000623021566 -0.00456679193 -9.02720494e-05 -1.47029459e-05
      -0.00660236226 1.2702353 -6.85415898e-06 -5.48299759e-05
      -1.68302122e-05 -0.000164587604 -0.000187612794 -0.0109549994
      -0.00096020347 -8.23990413e-05 -0.000803290633 -0.000211562205
      -5.94221419e-05 -0.00699070422 -0.000213111431 -0.000153972491
      -0.00051080616 -0.00142789714 -0.000213086212 -0.000456664653
      -0.00210003345 -0.000446494436 3.87702894 0.673166275
      -0.0152197657 -0.00173766969 -0.000133941619 -4.10959456e-06
      -0.00940216146 1.47643971 -0.0165972356 -0.0456603952
      -0.0029685304 -0.00649987254 -0.00444287667 -0.000922840263
      -0.000520304078 -0.000995798735 1.63122129 -0.0256011486
      -2.64261053e-05 -3.85019957e-05 -2.1792448e-05 -0.004486511
      -0.00124766992 -0.000544704322 4.73521757 -0.00174999482
      -0.000107596308 -2.74494232e-06 -0.000929540372 -1.53793699e-05
      -0.00843346305 3.41151786 -0.00179801055 -9.44554358e-06
      -4.30355357e-07 -0.00038217174 1.17155993 -0.0193718337
      -0.000495345681 -0.00414341502 -0.00392965414 -7.40684436e-06
      -0.00792208128 -0.00603365293 -0.000426435494 -0.00527120475
      -0.00553423772 1.35156596 -0.0173917469 -0.000629539718
      -0.00948235579 -0.0060093021 -0.00214347872 -6.01520624e-05
      -0.00792090967 1.64773965 -1.25105464e-06 -9.48703891e-05
      -0.000767554797 4.5955224 -0.000120431119 -3.05805988e-05
      -0.000359153404 -0.00463008042 -0.00178403105 -0.00193333579
      -1.50342285e-05 -4.8405047e-05 -0.000554919359 -7.01672377e-07
      -2.36701362e-06 -0.000129744803 -4.72602806e-05 -0.00650735712
      -7.87329373e-06 -0.00684134709 -0.000521506474 -0.0126837855
      -0.00959117897 -0.00230893749 -0.0157031026 -0.0240125917
      -0.00167001016 -1.58849751e-08 -7.30071915e-05 0.149287596
      -7.42055418e-05 -7.43469864e-05 -8.02906579e-05 0.316813409
      0.393758833 -8.70232952e-09 -0.000225927637 0.472965807
      -2.57582201e-06 -2.43064857e-08 0.407328546 0.665060282
      -0.00017607976 0.497682691 -0.000807706616 -1.22121016e-08
      0.328368217 -2.26452539e-05 -0.000131554058 -2.4582082e-06
      -2.83772852e-06 0.0424093753 0.129870996 -0.0043230853 0.251054049
      -1.17197806e-06 -0.00120326667 -4.12832469e-06 -0.00177858851
      0.730279863 0.579722047 0.502625585 -0.00256761163 0.226858705
      0.451387376 -2.89640993e-05 -0.000463673525 0.183206573
      0.495906442 0.549966872 -0.000166140089 0.530491829 0.185924426
      0.110896103 -0.0015084648 0.104699448 -0.00225125672 0.458375812
      -0.00141033472 -1.49545631e-05 -0.00351342722 0.613731563
      -0.00516770035 -0.00316216331 -0.000127035892 -2.68433473e-06
      0.236505181 -2.11454747e-07 -4.191551e-07 -0.000166620914
      0.390956223 -1.40463035e-05 -1.74649213e-05 -0.000222115574
      -0.000464265671 0.17181839 -4.04495566e-08 -2.16963475e-10
      -4.70336214e-09 -2.23733927e-13 -0.000148579231 -8.04411513e-07
      -2.12407453e-10 -9.24562191e-05 0.150474072 -1.85617228e-05
      0.0256727599 -0.000141981349 -3.83342303e-05 -1.52883476e-05
      0.235922828 -5.85372391e-07 -7.55985729e-06 0.185447454
      -0.000283633941 0.2536183 -8.79405998e-05 0.0571520478
      -0.000947814493 -4.00219833e-05 -5.31179012e-08 0.150141284
      -2.05514016e-06 -0.000118668824 -3.21985658e-06 -2.20395964e-06
      -0.000208101585 -2.12093212e-07 -3.4448708e-06 0.253714889
      -4.90979613e-09 -6.68331168e-10 -1.27176065e-08 -7.43071216e-10
      0.287183762 0.453013718 -2.31698577e-05 0.0608638339
      -8.85696863e-05 -1.08162468e-09 -1.33961223e-07 -4.06254476e-05
      -3.33363093e-09 -0.00064555899 0.012964109 -1.09087309e-10
      -2.9732571e-06 -9.07730282e-06 -0.00030210588 -1.41804676e-07
      -0.000199690126 -9.56359347e-09 -2.86329505e-05 -0.000258895481
      -5.98394763e-06</_>
    <_>
      -1.45528424 -1.9866786 -0.00577512383 -0.024603311 -6.1227766e-08
      -0.000135677998 -0.0111112362 -0.00055688055 -0.00167860894
      -3.73417902e-06 -1.62684028e-05 -3.11600843e-07 -9.48073139e-05
      -0.00027543903 -0.000154716196 5.44030237 -0.00144053705
      -0.00283068884 2.67079139 -0.000137402778 -0.000998735544
      -0.000611848373 -0.00449830713 -4.41687553e-05 -1.47001283e-05
      -0.00603981316 1.31506443 -6.84920451e-06 -5.42741218e-05
      -1.66259215e-05 -0.000109209454 -0.000184810138 -0.0105572985
      -0.000960846897 -8.21576541e-05 -0.000792545907 -0.000213517764
      -5.93012373e-05 -0.00677426346 -0.000212675717 -0.000151879547
      -0.000506713404 -0.00141123019 -0.000214850093 -0.000450569642
      -0.00207632291 -0.000437625626 3.87907267 0.685819626
      -0.0144759286 -0.00172255433 -0.000141907381 -4.07975995e-06
      -0.00929017179 1.48000062 -0.016569281 -0.0447693206
      -0.00292813196 -0.00643786835 -0.00436204905 -0.000909356808
      -0.000516085362 -0.000979392324 1.66098785 -0.0249189008
      -2.67468986e-05 -3.81965656e-05 -2.16651151e-05 -0.0044261422
      -0.00123773876 -0.000553834077 4.72298622 -0.00172905636
      -0.000105931889 -2.62173558e-06 -0.000936685654 -1.54812333e-05
      -0.00795227475 3.38317513 -0.00176822476 -9.38913763e-06
      -4.28488221e-07 -0.000374400435 1.17531967 -0.019251015
      -0.000485084543 -0.00390467956 -0.00400373153 -7.27737188e-06
      -0.00788695924 -0.00596873276 -0.000420715864 -0.00518662995
      -0.00556025375 1.44314384 -0.0173378028 -0.000638439204
      -0.00930415001 -0.00594921736 -0.00211609364 -6.0161201e-05
      -0.00788336992 1.69917977 -1.26483189e-06 -9.42807892e-05
      -0.000765235105 4.59843111 -0.000119584045 -3.07364171e-05
      -0.000354478601 -0.00391359767 -0.00175857462 -0.00221111556
      -1.49139478e-05 -4.81503921e-05 -0.000555526582 -6.96578127e-07
      -2.35670063e-06 -0.00012991378 -4.65167868e-05 -0.00646641618
      -7.773574e-06 -0.0067324331 -0.00052428327 -0.0122278715
      -0.00965610333 -0.0022783007 -0.0158198848 -0.0235787276
      -0.00168635091 -1.62910521e-08 -9.33773772e-05 0.130492538
      -7.4158932e-05 -7.44478602e-05 0.0272433162 0.31449908 0.407096267
      -8.95546926e-09 -0.000224514108 0.454917699 -2.56336398e-06
      -2.48610821e-08 0.386097014 0.642865956 -0.000174916189
      0.483121663 -0.000946197542 -1.24245298e-08 0.3241027
      -2.27617838e-05 -0.000129405933 -2.46807372e-06 -2.90911407e-06
      0.0667374954 0.13250944 -0.00391392317 0.252929032 -1.19273363e-06
      -0.00103029853 -4.19218441e-06 -0.00187656784 0.714185297
      0.595879018 0.492227376 -0.00251273718 0.247878954 0.456748664
      -2.98556697e-05 -0.000456058071 0.202200353 0.494224072
      0.522637308 -0.000162833836 0.551664591 0.194676891 0.0776192099
      -0.00149141939 0.11133419 -0.00196591998 0.445353806
      -0.00139086298 -1.4939531e-05 -0.00345834298 0.593102694
      -0.00499263871 -0.00311569031 -0.000125413295 -2.73180649e-06
      0.232829869 -2.15842121e-07 -4.27221295e-07 0.00559740141
      0.363245547 -1.40501907e-05 -1.74719898e-05 -0.000222013943
      -0.000464114244 0.172925264 -4.04782661e-08 -2.16562088e-10
      -4.70596806e-09 -2.24024575e-13 -0.000148582738 -8.04637921e-07
      -2.12419957e-10 -9.24679698e-05 0.151447162 -1.85662284e-05
      0.0257301591 -0.000141982397 -3.83405422e-05 -1.52928405e-05
      0.234173015 -5.8555537e-07 -7.56142754e-06 0.184013039
      -0.00028338228 0.252041668 -8.81242086e-05 0.0575110316
      -0.000946228334 -4.0952189e-05 -5.31493853e-08 0.15106529
      -2.05280367e-06 -0.000118671298 -3.22168398e-06 -2.19878029e-06
      -0.000207998935 -2.12380868e-07 -3.44610771e-06 0.251941621
      -4.91413443e-09 -6.68313183e-10 -1.27040138e-08 -7.43532014e-10
      0.287981451 0.454364657 -2.31769172e-05 0.0597883351
      -8.85824848e-05 -1.08396603e-09 -1.34030799e-07 -4.06329382e-05
      -3.33533934e-09 -0.000644564629 0.0130110551 -1.09166232e-10
      -2.97420252e-06 -3.80389383e-06 -0.000301904511 -1.41896336e-07
      -0.000199613714 -9.56871737e-09 -2.86373015e-05 -0.000259436842
      -5.98538873e-06</_>
    <_>
      -1.40917611 -2.03722978 -0.00588309113 -0.0241592526
      -6.0208464e-08 -0.000133317997 -0.0112189865 -0.000541200046
      -0.00169704796 -3.58234888e-06 -1.61401804e-05 -3.23079831e-07
      -9.38044468e-05 -0.000266076939 -0.000157644972 5.43239212
      -0.00227334746 -0.00279991492 2.84849381 -0.000136945149
      -0.000991172739 -0.000624030828 -0.00455006491 0.0198575668
      -1.43238258e-05 -0.0061940602 1.26109111 -6.60178421e-06
      -5.46700649e-05 -1.61598782e-05 0.0862361193 -0.000186195903
      -0.0104520787 -0.000959615456 -8.2227205e-05 -0.000801390444
      -0.000221171416 -5.77965402e-05 -0.00749608641 -0.000205383578
      -0.000151897984 -0.000496143242 -0.00140380173 -0.000224658696
      -0.000182529795 -0.00196020352 -0.000443628407 4.09917784
      0.698996663 -0.0147817899 -0.00169534818 -0.000248786644
      -3.75906347e-06 -0.00932824425 1.44009471 -0.0165677201
      -0.044339899 -0.00299135712 -0.00647527864 -0.00445074448
      -0.000894211407 -0.000483395968 -0.000960604753 1.63137603
      -0.0254238192 -2.75753846e-05 -3.63720101e-05 -2.10635353e-05
      -0.00443701912 -0.00127124914 -0.00056083774 4.74902821
      -0.00174255436 -0.000106085965 -2.41194107e-06 -0.000957440876
      -1.53456149e-05 -0.00861855038 3.30721712 -0.00176797772
      -9.30543683e-06 -4.14138071e-07 -0.000371688599 1.23523116
      -0.0193433501 -0.000479794835 -0.00341574848 -0.00481397845
      -7.3935621e-06 -0.00783494674 -0.00594151439 -0.000417944917
      -0.00511094928 -0.00553965149 1.32810426 -0.0173877887
      -0.000652668881 -0.00927893352 -0.0059534451 -0.00213920791
      -5.89064221e-05 -0.00756984018 1.63033915 -1.2088725e-06
      -9.1305963e-05 -0.000765295699 4.7348237 -0.000116666917
      -3.08452909e-05 -0.000360346428 -0.00356785441 -0.00172596448
      -0.00272265379 -1.47866149e-05 -4.64989462e-05 -0.000554874481
      -6.21479955e-07 -2.37769268e-06 -0.000130071363 -4.65334415e-05
      -0.00648601772 -7.94375046e-06 -0.00677493447 -0.000524005038
      -0.0123276003 -0.00960163865 -0.00230966299 -0.0160847269
      -0.0239461586 -0.00142730412 -1.58864797e-08 -0.000118381082
      0.147370547 -7.41068652e-05 -7.44190693e-05 -2.57974116e-05
      0.323896497 0.397879004 -8.69449845e-09 -0.000227008306
      0.475010186 -2.56752855e-06 -2.4257794e-08 0.398775458 0.661990225
      -0.000175647176 0.496640861 -0.00083857961 -1.21473427e-08
      0.324992836 -2.2596023e-05 -0.000131842811 -2.46720037e-06
      -2.84182647e-06 0.0467800498 0.12235342 -0.00434682472 0.243956193
      -1.17166474e-06 -0.0012281189 -4.12657664e-06 -0.00175755681
      0.732347608 0.588853896 0.502183735 -0.00253023766 0.230059862
      0.448001534 -2.92755703e-05 -0.000463984121 0.187193274
      0.500280023 0.54849267 -0.00016546814 0.53754276 0.188892812
      0.104791909 -0.00151028612 0.106889799 -0.00223205495 0.448815346
      -0.00141910254 -1.49264033e-05 -0.00352200959 0.606278956
      -0.00518259266 -0.00316614145 -0.000127077903 -2.68461235e-06
      0.230805695 -2.12175465e-07 -4.18761658e-07 -0.000111023706
      0.386439383 -1.40558959e-05 -1.74780926e-05 -0.00022201761
      -0.000463602919 0.172904357 -4.05085565e-08 -2.17365251e-10
      -4.70927697e-09 -2.24212698e-13 -0.000148604129 -8.04935041e-07
      -2.12567741e-10 -9.24834385e-05 0.151202098 -1.85716526e-05
      0.0252890624 -0.000141997458 -3.8349277e-05 -1.52973898e-05
      0.23392503 -5.85797011e-07 -7.56325426e-06 0.183971077
      -0.000283314585 0.251103133 -8.80456573e-05 0.057117451
      -0.000944925996 -2.96793878e-05 -5.31840563e-08 0.150958329
      -2.04961293e-06 -0.000118690215 -3.22423898e-06 -2.1781882e-06
      -0.000207978199 -2.12574022e-07 -3.4473012e-06 0.251397848
      -4.91902252e-09 -6.68458844e-10 -1.26987629e-08 -7.44087847e-10
      0.286332667 0.45302254 -2.31849117e-05 0.0609942153
      -8.86048947e-05 -1.08635945e-09 -1.34123724e-07 -4.06416511e-05
      -3.3370442e-09 -0.000643874868 0.0126905907 -1.09275304e-10
      -2.97526321e-06 -4.66249867e-06 -0.000301741791 -1.41999408e-07
      -0.00019962342 -9.57472324e-09 -2.86430513e-05 -0.000257592037
      -5.98726365e-06</_>
    <_>
      -1.38722575 -2.06494379 -0.00580382952 -0.0247044079
      -6.24120915e-08 -0.000136610353 -0.011206164 -0.000563909125
      -0.00169333757 -3.6573183e-06 -1.63167715e-05 -3.09639859e-07
      -9.43965715e-05 -0.000279389176 -0.000153629808 5.51579857
      -0.00159114727 -0.00287795183 2.62723088 -0.000136391187
      -0.00101363484 -0.000614913763 -0.00454195496 -0.000208801473
      -1.43240168e-05 -0.00670316303 1.29875898 -6.95690596e-06
      -5.38246823e-05 -1.70085605e-05 0.0186413415 -0.000187006211
      -0.0112520941 -0.000959673256 -8.31484067e-05 -0.000796859618
      -0.000208623474 -5.86323331e-05 -0.00608587125 -0.000215175634
      -0.000152646578 -0.000514360494 -0.00142423809 -0.000217536552
      -0.000802427647 -0.00217450038 -0.000442160876 3.8030386
      0.634518266 -0.0146545265 -0.00174335553 -2.50841113e-05
      -4.26157112e-06 -0.00940034818 1.58136868 -0.0166730247
      -0.0446816087 -0.00293662818 -0.00576034002 -0.00436510658
      -0.000922033563 -0.000574937207 -0.000993758906 1.63983893
      -0.0253379196 -2.63870788e-05 -3.94436574e-05 -2.09095706e-05
      -0.00445011305 -0.00122498791 -0.000561161665 4.78637409
      -0.00173405511 -0.000106323751 -2.86038699e-06 -0.000927336805
      -1.53227229e-05 -0.00845446903 3.43849897 -0.00179396034
      -9.50854337e-06 -4.13796243e-07 -0.000383693376 1.14025176
      -0.0194742754 -0.000494336302 -0.00426380383 -0.00313602318
      -7.31388127e-06 -0.00797826424 -0.00607719179 -0.000428141648
      -0.00531418063 -0.00562717998 1.42530644 -0.017422121
      -0.000640455866 -0.00974241458 -0.00601993268 -0.00210299343
      -5.87075556e-05 -0.00821507163 1.70421553 -1.25657402e-06
      -9.38802841e-05 -0.000777538866 4.60269356 -0.00011953705
      -3.06042057e-05 -0.00035453256 -0.00384725141 -0.0017970223
      -0.001941322 -1.50474561e-05 -4.96618959e-05 -0.000546483498
      -7.58761132e-07 -2.38338725e-06 -0.000129830078 -4.74684857e-05
      -0.00647280971 -7.78094454e-06 -0.00683484739 -0.000510897662
      -0.0129990531 -0.009682253 -0.00227020006 -0.0156415086
      -0.0240810532 -0.00177419663 -1.62991221e-08 -9.72345442e-05
      0.130781621 -7.42134143e-05 -7.46647711e-05 0.0284504816
      0.317957222 0.406042606 -8.95488661e-09 -0.000224457937
      0.454564601 -2.57062607e-06 -2.48528291e-08 0.388969541
      0.638601124 -0.000175378387 0.487823576 -0.00093341805
      -1.25020181e-08 0.321244955 -2.2732971e-05 -0.000129562191
      -2.47394223e-06 -2.90768071e-06 0.0664192736 0.137303397
      -0.00387652172 0.252350539 -1.19299455e-06 -0.00101436453
      -4.19156549e-06 -0.00191615312 0.713761687 0.595012486 0.495318413
      -0.00253681629 0.25000608 0.457594633 -2.98962696e-05
      -0.000455704838 0.20543775 0.497178257 0.518363357 -0.00016294088
      0.54987371 0.194954187 0.0792523175 -0.00148791843 0.108110324
      -0.00200341013 0.443498611 -0.00139329815 -1.4943038e-05
      -0.00345326588 0.592948198 -0.00496853888 -0.00311194779
      -0.000125520193 -2.73160708e-06 0.235885233 -2.16233502e-07
      -4.27257163e-07 0.00673524663 0.364118397 -1.40550255e-05
      -1.74787619e-05 -0.000221959854 -0.000463789125 0.173523575
      -4.05083718e-08 -2.16721391e-10 -4.70896566e-09 -2.24273223e-13
      -0.000148594787 -8.04902868e-07 -2.12496729e-10 -9.24817432e-05
      0.151865825 -1.85712688e-05 0.0255528688 -0.000141990095
      -3.8348142e-05 -1.5297459e-05 0.23309432 -5.85770181e-07
      -7.56315467e-06 0.183205098 -0.000283211994 0.25073123
      -8.8187895e-05 0.0575219393 -0.000944740896 -3.61267485e-05
      -5.31830828e-08 0.151522413 -2.05001083e-06 -0.000118681608
      -3.22389633e-06 -2.18619698e-06 -0.000207932739 -2.12630269e-07
      -3.4473519e-06 0.250709981 -4.91882979e-09 -6.68372024e-10
      -1.26940618e-08 -7.44048101e-10 0.28763929 0.454471767
      -2.31845788e-05 0.0597682819 -8.86001217e-05 -1.08638454e-09
      -1.3411298e-07 -4.06411746e-05 -3.33708439e-09 -0.000643691979
      0.0128851179 -1.09261183e-10 -2.97522365e-06 -1.31316483e-06
      -0.000301716878 -1.41995457e-07 -0.000199576316 -9.57437329e-09
      -2.86424129e-05 -0.00025886111 -5.98706765e-06</_>
    <_>
      -1.33697188 -2.09186578 -0.00571412314 -0.0246309061
      -6.09084054e-08 -0.000132798843 -0.0110821817 -0.000541484798
      -0.0016717508 -3.37971755e-06 -1.58274743e-05 -3.08355112e-07
      -9.15510391e-05 -0.000269622746 -0.000153050874 5.48498535
      -0.00185056042 -0.00280234846 2.61375618 -0.000133930429
      -0.000981444144 -0.000604236673 -0.00443466613 0.0107885003
      -1.35493901e-05 -0.00673211878 1.25879991 -6.80464927e-06
      -5.27189623e-05 -1.64508929e-05 0.0829720795 -0.00018571454
      -0.011147771 -0.000941710838 -8.13446895e-05 -0.000786265358
      -0.000205646415 -5.57746353e-05 -0.0057111904 -0.000204167038
      -0.000149041472 -0.000503320887 -0.00138515455 -0.000220152782
      -0.000658818346 -0.00210205535 -0.000432368135 3.77803898
      0.642795682 -0.014723992 -0.00168425508 0.0042765718
      -4.01917259e-06 -0.00923131499 1.60281396 -0.0163934194
      -0.0436909571 -0.00291341916 -0.00471570995 -0.00429919269
      -0.000899068371 -0.000565389928 -0.000956694072 1.6176672
      -0.0252189487 -2.6440086e-05 -3.80597121e-05 -1.96981e-05
      -0.00438053161 -0.00120908103 -0.000553325168 4.7201786
      -0.00169969886 -0.000103551036 -2.79549477e-06 -0.000917803205
      -1.4721355e-05 -0.00870370865 3.33218622 -0.0017560306
      -9.23678635e-06 -3.82963037e-07 -0.000374318537 1.15224695
      -0.0198305212 -0.000477035879 -0.00356486184 -0.0023415566
      -7.16763134e-06 -0.00779889291 -0.00598697597 -0.000417603529
      -0.00519027282 -0.00551980501 1.35495305 -0.0172175989
      -0.000626341382 -0.0101484144 -0.00587057928 -0.00206954847
      -5.51720841e-05 -0.0080322884 1.66177797 -1.17732611e-06
      -8.96105048e-05 -0.000756981783 4.61623049 -0.00011371672
      -2.98400737e-05 -0.000346388726 -0.00314097223 -0.00173902558
      -0.00198904867 -1.45047525e-05 -4.81095303e-05 -0.000522787159
      -7.29223302e-07 -2.30568753e-06 -0.00012694941 -4.65686244e-05
      -0.00634144526 -7.70044426e-06 -0.00674048997 -0.000491905608
      -0.0129825659 -0.00949939806 -0.0021873964 -0.0154574281
      -0.0241882149 -0.00170274847 -1.58900484e-08 -0.000128721294
      0.146507889 -7.41058175e-05 -7.45350699e-05 0.000159040093
      0.320827127 0.396359324 -8.6935934e-09 -0.000227141121 0.47012946
      -2.56078897e-06 -2.42605616e-08 0.402203798 0.662061453
      -0.000175772075 0.496456325 -0.00083497708 -1.21778108e-08
      0.326688349 -2.26067841e-05 -0.000131724562 -2.46089212e-06
      -2.84316684e-06 0.0506435558 0.12008895 -0.00432043057 0.245648339
      -1.17140883e-06 -0.00122518861 -4.12640202e-06 -0.00176166289
      0.731433988 0.590369523 0.502316117 -0.00253042462 0.231874257
      0.451737612 -2.93088815e-05 -0.000464315002 0.188195169
      0.499124378 0.549574614 -0.000165510399 0.539061904 0.194297582
      0.104341865 -0.00151383993 0.107463852 -0.00221816124 0.448946297
      -0.00142431643 -1.49271191e-05 -0.00352261239 0.609719157
      -0.00517859915 -0.00316694309 -0.000127119565 -2.68430085e-06
      0.231993914 -2.12544833e-07 -4.18672272e-07 -0.000117046831
      0.389265209 -1.40570355e-05 -1.74798879e-05 -0.000221997718
      -0.000463539647 0.173121601 -4.05162091e-08 -2.17337606e-10
      -4.71000794e-09 -2.24282493e-13 -0.00014860621 -8.04999104e-07
      -2.12579815e-10 -9.24867636e-05 0.151378766 -1.8572895e-05
      0.0252723061 -0.000141998651 -3.83510924e-05 -1.5298574e-05
      0.233562991 -5.85848909e-07 -7.56368354e-06 0.183684558
      -0.000283260306 0.250731617 -8.80770458e-05 0.0571635216
      -0.000944527565 -2.91483848e-05 -5.31925437e-08 0.15113394
      -2.04894241e-06 -0.000118691918 -3.22476671e-06 -2.1758151e-06
      -0.000207956517 -2.12643499e-07 -3.44762361e-06 0.251012444
      -4.92019803e-09 -6.68464895e-10 -1.26957387e-08 -7.44215189e-10
      0.286385417 0.453203738 -2.31868271e-05 0.0608579516
      -8.86088746e-05 -1.08697817e-09 -1.34143534e-07 -4.06436993e-05
      -3.33749295e-09 -0.000643633306 0.0126794372 -1.09298008e-10
      -2.97551946e-06 -3.67313623e-06 -0.000301691325 -1.42024248e-07
      -0.000199608898 -9.57612745e-09 -2.86442846e-05 -0.000257581327
      -5.98767065e-06</_>
    <_>
      -1.42942011 -2.02107215 -0.00578435929 -0.0241118316
      -6.23629433e-08 -0.000135393377 -0.0111519694 -0.000561796711
      -0.00167872338 -3.64095786e-06 -1.63500245e-05 -3.07591534e-07
      -9.43738414e-05 -0.000277323124 -0.000152838853 5.44051933
      -0.00174216519 -0.00287959981 2.63542819 -0.000135683978
      -0.00100955542 -0.0006085239 -0.0045356974 -0.00017465181
      -1.42608505e-05 -0.00668116612 1.28151715 -6.86519707e-06
      -5.41596601e-05 -1.709754e-05 0.0392217003 -0.000186661287
      -0.0110507626 -0.000954590621 -8.2284605e-05 -0.000792360806
      -0.000206450408 -5.85653725e-05 -0.00569599075 -0.000214023181
      -0.000152851222 -0.000511598249 -0.00141490728 -0.000215464548
      -0.000818329572 -0.00217852159 -0.000443610043 3.79701829
      0.663789749 -0.0144689353 -0.00173188071 -6.00437452e-05
      -4.24248537e-06 -0.00937543437 1.53040814 -0.0165197495
      -0.0442543514 -0.00291131111 -0.00562437484 -0.0043470934
      -0.000920238614 -0.000577268715 -0.000989762368 1.62462401
      -0.0251176748 -2.61443565e-05 -3.95387906e-05 -2.09317277e-05
      -0.00443823356 -0.00121386745 -0.000556823623 4.75374174
      -0.00172187597 -0.00010678696 -2.75571597e-06 -0.000920969062
      -1.52118446e-05 -0.00862555206 3.40449166 -0.00179167115
      -9.49772493e-06 -4.09944647e-07 -0.0003830184 1.08816946
      -0.0189787988 -0.000486531557 -0.00395328784 -0.0032732808
      -7.28995792e-06 -0.00796185806 -0.00606603967 -0.00042522818
      -0.0053049433 -0.00557612628 1.38520265 -0.0173348486
      -0.000634224038 -0.00948238745 -0.00600043265 -0.00210018968
      -5.8261845e-05 -0.00825227704 1.68254542 -1.23785196e-06
      -9.27591609e-05 -0.000770312967 4.58264875 -0.000118962067
      -3.03961187e-05 -0.000350466464 -0.00343148876 -0.0017831655
      -0.00180847547 -1.49535044e-05 -4.98794288e-05 -0.00053862721
      -7.59086674e-07 -2.37053496e-06 -0.000129648892 -4.74368899e-05
      -0.00643439777 -7.78753747e-06 -0.00680762995 -0.000507317076
      -0.012962007 -0.00966936443 -0.00224376447 -0.0155701507
      -0.0240025353 -0.00172437949 -1.62990137e-08 -8.88036157e-05
      0.129049987 -7.43936471e-05 -7.4923948e-05 0.0242153034
      0.319222927 0.410876274 -8.95444163e-09 -0.000224603835
      0.455930263 -2.58625823e-06 -2.48184975e-08 0.385972202 0.64203465
      -0.000175758076 0.492361128 -0.00090002513 -1.2588699e-08
      0.320407331 -2.27406654e-05 -0.000129972046 -2.49152276e-06
      -2.90648268e-06 0.0646856204 0.137930349 -0.00387804583
      0.249935418 -1.19324011e-06 -0.00101846282 -4.19167372e-06
      -0.00191601063 0.713955164 0.591336906 0.494956285 -0.00256104791
      0.242074534 0.459964752 -2.99545227e-05 -0.000456315407
      0.201733649 0.496252805 0.51831013 -0.000163155273 0.546968341
      0.190844148 0.0792913437 -0.00146837079 0.109547704 -0.0020816566
      0.438589573 -0.00138683699 -1.49471043e-05 -0.00344877411
      0.590719283 -0.00496854819 -0.00310572446 -0.000126118801
      -2.73605974e-06 0.235274464 -2.16624571e-07 -4.27163087e-07
      0.00456432626 0.362069815 -1.40572874e-05 -1.7482751e-05
      -0.000221905226 -0.000463692617 0.174120069 -4.05247285e-08
      -2.16529059e-10 -4.71046757e-09 -2.24435257e-13 -0.000148597319
      -8.05033551e-07 -2.12507761e-10 -9.24885462e-05 0.152382985
      -1.85738572e-05 0.025570035 -0.000141991128 -3.83517981e-05
      -1.53000128e-05 0.232143596 -5.8587591e-07 -7.56405461e-06
      0.182430759 -0.000283074478 0.249852136 -8.82842724e-05
      0.0577029958 -0.000943847699 -3.62727769e-05 -5.32010738e-08
      0.152017668 -2.04865864e-06 -0.000118683507 -3.22495589e-06
      -2.18281684e-06 -0.000207876859 -2.12790937e-07 -3.44805335e-06
      0.249737233 -4.92131136e-09 -6.68366196e-10 -1.26865736e-08
      -7.44312834e-10 0.288017958 0.455159068 -2.31886188e-05
      0.0592265278 -8.86076887e-05 -1.08771647e-09 -1.34153197e-07
      -4.06454637e-05 -3.33805472e-09 -0.000643135747 0.0129004363
      -1.09306918e-10 -2.97576412e-06 0.000150140375 -0.000301603635
      -1.42047881e-07 -0.000199535469 -9.57731139e-09 -2.86449267e-05
      -0.000259095599 -5.98789984e-06</_>
    <_>
      -1.52562129 -1.92711759 -0.00580702163 -0.0241416954
      -5.99680163e-08 -0.000125546168 -0.0111157 -0.000526378164
      -0.00167063461 -3.57545241e-06 -1.60355321e-05 -3.18864323e-07
      -9.3550625e-05 -0.00026498668 -0.000156281807 5.42892981
      -0.0024645431 -0.00279587065 2.86971879 -0.000133612732
      -0.000995790237 -0.00059611199 -0.00449467218 0.0269680321
      -1.42693389e-05 -0.0065141255 1.22595489 -6.60476144e-06
      -5.47442251e-05 -1.63563527e-05 0.0207086243 -0.000182403121
      -0.00964289624 -0.000958826742 -8.02163777e-05 -0.000788364152
      -0.000221307317 -5.67979405e-05 -0.00702985749 -0.000204036318
      -0.000151201573 -0.000466571073 -0.00138852152 -0.000222870556
      -0.000322354696 -0.00198589568 -0.000448811712 4.15255642
      0.724902272 -0.0138633475 -0.00167449133 -0.000255608058
      -3.72522823e-06 -0.00930124521 1.35544813 -0.0161325242
      -0.0443387553 -0.00291856495 -0.00726111094 -0.00436217571
      -0.000888794544 -0.000501829723 -0.000953455456 1.59380341
      -0.0253704395 -2.68327112e-05 -3.63081635e-05 -2.07673875e-05
      -0.00433766423 -0.00122515101 -0.000545855495 4.76562023
      -0.00172778347 -0.000104253821 -2.13466683e-06 -0.000926016015
      -1.47592864e-05 -0.00921024475 3.36851954 -0.00174918503
      -9.24629603e-06 -4.09288191e-07 -0.000366469496 1.13915396
      -0.0192727484 -0.000454388297 -0.003391315 -0.00553728873
      -7.2535413e-06 -0.00778974034 -0.00598811079 -0.000408749969
      -0.00500349374 -0.00548359752 1.26076281 -0.0170532744
      -0.000659021374 -0.00902576279 -0.00593126053 -0.00209597335
      -5.85260132e-05 -0.00764588173 1.59551919 -1.23374696e-06
      -8.9985886e-05 -0.000751885469 4.68880272 -0.000117116389
      -3.02681128e-05 -0.000355258846 -0.00429742318 -0.00170355232
      -0.00292022456 -1.46601133e-05 -4.59243856e-05 -0.000551135628
      -6.41766349e-07 -2.36523761e-06 -0.000125674735 -4.5940862e-05
      -0.00641549332 -7.83916221e-06 -0.0066850041 -0.000520536792
      -0.0124819018 -0.00971160363 -0.0022065111 -0.0161264949
      -0.0239248034 -0.00128344237 -1.60644653e-08 -5.42289017e-05
      0.137169793 -7.47435406e-05 -7.46504156e-05 0.00122264028
      0.309525877 0.400833607 -8.79242723e-09 -0.000224558375
      0.459418863 -2.6225855e-06 -2.43596592e-08 0.403555393 0.642350733
      -0.000176335147 0.501513064 -0.000939594582 -1.24801804e-08
      0.332071871 -2.26967095e-05 -0.000131785302 -2.48247829e-06
      -2.87794728e-06 0.0518913791 0.139692664 -0.00412334688
      0.255119383 -1.18008097e-06 -0.000973846356 -4.15066324e-06
      -0.00186310674 0.726178646 0.584358394 0.493780404 -0.00256289891
      0.243694752 0.456205577 -2.97151764e-05 -0.000460583629
      0.191238701 0.496174604 0.526441336 -0.000164498575 0.537093103
      0.184910104 0.0962438434 -0.00153102481 0.0978711843
      -0.00206465996 0.44558841 -0.00138960953 -1.48688978e-05
      -0.00348634296 0.602607489 -0.00508866319 -0.0031373261
      -0.000126926694 -2.71434124e-06 0.240565866 -2.13199741e-07
      -4.21703646e-07 -7.14944254e-05 0.3817361 -1.40490656e-05
      -1.74685283e-05 -0.000222093964 -0.000464062294 0.172060236
      -4.04660376e-08 -2.17139473e-10 -4.70504347e-09 -2.23861497e-13
      -0.000148587118 -8.04560841e-07 -2.12459203e-10 -9.24639826e-05
      0.150611401 -1.85645313e-05 0.0255392566 -0.000141986573
      -3.83385413e-05 -1.52908633e-05 0.2354476 -5.85493524e-07
      -7.56081454e-06 0.185111403 -0.00028355504 0.252952665
      -8.79557774e-05 0.0571019985 -0.000947026885 -3.64879525e-05
      -5.31364535e-08 0.150313497 -2.05355877e-06 -0.000118675642
      -3.22111282e-06 -2.19598064e-06 -0.000208071666 -2.12221792e-07
      -3.44554383e-06 0.253136158 -4.91239005e-09 -6.683753e-10
      -1.27128112e-08 -7.43358874e-10 0.286815703 0.452871919
      -2.31740905e-05 0.061022684 -8.85799891e-05 -1.08294329e-09
      -1.34007635e-07 -4.06300169e-05 -3.33457928e-09 -0.000645107182
      0.012868287 -1.09141161e-10 -2.97382098e-06 -8.17827822e-06
      -0.000302006752 -1.41859402e-07 -0.000199676186 -9.56673318e-09
      -2.86358318e-05 -0.00025840514 -5.98489214e-06</_>
    <_>
      -1.17592299 -2.27595115 -0.00575886341 -0.0253408328
      -6.16377989e-08 -0.000133319045 -0.0111674815 -0.000545896648
      -0.00166829408 -3.37745587e-06 -1.59758019e-05 -3.12867229e-07
      -9.19048689e-05 -0.000269507087 -0.0001531952 5.51782703
      -0.00223197346 -0.00282856333 2.71664071 -0.000134213071
      -0.000993524562 -0.000606057118 -0.0044743428 0.00303275138
      -1.36037133e-05 -0.00713232579 1.24088073 -6.83217877e-06
      -5.34861065e-05 -1.65923429e-05 0.175736174 -0.000187046855
      -0.0114588318 -0.000940059836 -8.14034502e-05 -0.000792865525
      -0.000207482459 -5.58281754e-05 -0.00574900256 -0.000204376644
      -0.000151101529 -0.000505059434 -0.00138730346 -0.000223548021
      -0.000783558178 -0.00213897158 -0.000436647912 3.88395452
      0.596281052 -0.0148298368 -0.00168535113 0.00660486892
      -4.02439764e-06 -0.00933647994 1.71040845 -0.0164546799
      -0.0435882024 -0.00292697642 -0.00485241367 -0.00432079239
      -0.000903555949 -0.000576793973 -0.000966767897 1.6071527
      -0.025667578 -2.69556876e-05 -3.84332852e-05 -1.97174777e-05
      -0.00441384641 -0.00120564864 -0.000565745228 4.78673935
      -0.00171792274 -0.000104490122 -2.76927608e-06 -0.000927790708
      -1.48164027e-05 -0.00903922319 3.36450315 -0.00177578337
      -9.32350849e-06 -3.83387629e-07 -0.000378373603 1.2162627
      -0.0204506982 -0.000478557107 -0.00381304906 -0.00238560024
      -7.19267109e-06 -0.00786773022 -0.00608429639 -0.000418583892
      -0.00524369301 -0.0056002019 1.31942594 -0.017306421
      -0.000641971536 -0.0104406187 -0.00592758087 -0.0020854685
      -5.51554986e-05 -0.0080982456 1.64739764 -1.1942609e-06
      -8.99440274e-05 -0.000763882825 4.75318193 -0.00011383208
      -3.00626216e-05 -0.000345514156 -0.00262093334 -0.00175340183
      -0.00196631718 -1.45811164e-05 -4.84084885e-05 -0.000516974484
      -7.44683348e-07 -2.31168679e-06 -0.000126582658 -4.70416198e-05
      -0.00635195896 -7.73131706e-06 -0.00683738803 -0.000486669742
      -0.0133700706 -0.00965934992 -0.00218035351 -0.0155706126
      -0.0247447658 -0.00167149049 -1.60486628e-08 -0.000141710334
      0.135095119 -7.43893688e-05 -7.4800264e-05 0.0146763772
      0.328626871 0.402822793 -8.78615047e-09 -0.000226283257
      0.460944027 -2.59372337e-06 -2.43831177e-08 0.395905554
      0.649513185 -0.00017621083 0.499234676 -0.000908320479
      -1.23207675e-08 0.328415602 -2.25853728e-05 -0.000130856803
      -2.48136189e-06 -2.87501416e-06 0.055391714 0.137695521
      -0.00411368161 0.244394496 -1.17874936e-06 -0.00104692555
      -4.1460512e-06 -0.00192251231 0.724772394 0.596175909 0.499248624
      -0.00256665633 0.240909919 0.460689753 -2.97858987e-05
      -0.000461243384 0.200156897 0.501250327 0.528174937
      -0.000164092984 0.545053184 0.195481077 0.0860623866
      -0.00154570409 0.0990529805 -0.00220595719 0.440155089
      -0.00140340975 -1.4876553e-05 -0.00349625945 0.597988725
      -0.00507678557 -0.0031445676 -0.00012714183 -2.70209216e-06
      0.240638077 -2.14399904e-07 -4.21241992e-07 -2.48020133e-05
      0.370010704 -1.40586117e-05 -1.74826819e-05 -0.000221959126
      -0.000463473494 0.173543096 -4.05276452e-08 -2.17198537e-10
      -4.71105555e-09 -2.24396226e-13 -0.000148607913 -8.05090281e-07
      -2.12587045e-10 -9.24915075e-05 0.151745111 -1.85747012e-05
      0.0252862014 -0.000141999306 -3.83536426e-05 -1.53003602e-05
      0.23289229 -5.85922578e-07 -7.564312e-06 0.183137655
      -0.000283163419 0.250114262 -8.81454616e-05 0.057293009
      -0.000943901832 -2.92967252e-05 -5.32051132e-08 0.151484251
      -2.04800017e-06 -0.000118693191 -3.225505e-06 -2.17350953e-06
      -0.000207917124 -2.12756234e-07 -3.44811428e-06 0.250327379
      -4.92193175e-09 -6.68460176e-10 -1.26904691e-08 -7.44399931e-10
      0.286659539 0.453694642 -2.31896502e-05 0.0604704022
      -8.86141279e-05 -1.08790965e-09 -1.34171586e-07 -4.0646697e-05
      -3.33817196e-09 -0.000643243082 0.0126915444 -1.09329878e-10
      -2.9758969e-06 -1.68126076e-06 -0.000301611959 -1.4206087e-07
      -0.000199579983 -9.57817914e-09 -2.86460381e-05 -0.000257754407
      -5.9882509e-06</_>
    <_>
      -1.40495872 -2.06254983 -0.00570046389 -0.0245066714
      -6.09573263e-08 -0.000129463326 -0.0111234449 -0.00053792476
      -0.00163766311 -3.46694742e-06 -1.58924122e-05 -3.03720611e-07
      -9.30613824e-05 -0.000275364815 -0.000152360677 5.50051594
      -0.00160926289 -0.00283786398 2.58581614 -0.000131317327
      -0.000986766187 -0.000582887849 -0.00442876806 0.00880249217
      -1.37032957e-05 -0.00696792407 1.27926433 -6.90421712e-06
      -5.28628188e-05 -1.68891038e-05 -2.42842725e-05 -0.000183793207
      -0.0110626314 -0.000959506549 -8.1184764e-05 -0.000778406044
      -0.000203769276 -5.62504429e-05 -0.00495043397 -0.000209250124
      -0.000149512052 -0.000483087293 -0.00140002114 -0.000213091989
      -0.000937849109 -0.00216922467 -0.000437921117 3.70598984
      0.611349046 -0.0139295096 -0.00170861871 0.0089333877
      -4.13882663e-06 -0.00929353293 1.58560562 -0.016126696
      -0.043572478 -0.00287224981 -0.00553910946 -0.00423153443
      -0.000909601571 -0.000610101793 -0.000964268052 1.61961007
      -0.0248189755 -2.54365077e-05 -3.89161614e-05 -1.96445872e-05
      -0.00431385962 -0.00117921107 -0.000547464122 4.81933355
      -0.00169310952 -0.000102682658 -2.61077093e-06 -0.000900661049
      -1.44234991e-05 -0.00898089446 3.41241908 -0.00175201497
      -9.2723285e-06 -3.89258389e-07 -0.000373988558 1.08634543
      -0.0197341554 -0.000456299051 -0.00408868631 -0.00296849362
      -7.13776353e-06 -0.00791502185 -0.00607623858 -0.000417987321
      -0.00515586976 -0.0055155484 1.38001108 -0.0171494465
      -0.000636910903 -0.0101940185 -0.00591666251 -0.00203945534
      -5.60185872e-05 -0.00836206321 1.69010389 -1.23293296e-06
      -8.95546764e-05 -0.000751099666 4.5509305 -0.000116366333
      -2.9513998e-05 -0.000347979483 -0.00370611507 -0.00174076646
      -0.00242777192 -1.4422204e-05 -4.89357881e-05 -0.000529970333
      -7.82485074e-07 -2.33307901e-06 -0.000125770457 -4.66903912e-05
      -0.00636254298 -7.68939572e-06 -0.00671839481 -0.000498455658
      -0.0130631225 -0.00966710504 -0.00214150548 -0.0154953469
      -0.0240598675 -0.00166667229 -1.63392695e-08 -9.66688967e-05
      0.126871526 -7.42741831e-05 -7.4762298e-05 0.0291858017
      0.313839555 0.407480061 -8.97556607e-09 -0.000223899129
      0.449585766 -2.57960505e-06 -2.48924117e-08 0.387790561
      0.634775043 -0.000175358349 0.484857231 -0.000966373715
      -1.25578383e-08 0.324565619 -2.27668206e-05 -0.000129731183
      -2.48032302e-06 -2.90937783e-06 0.0678344741 0.13667196
      -0.00386443036 0.253990799 -1.19523759e-06 -0.0010070093
      -4.19797561e-06 -0.0018986552 0.713723838 0.5953269 0.488424659
      -0.00252058683 0.248942122 0.455925643 -2.99061412e-05
      -0.000455326954 0.204315543 0.495837957 0.517519772
      -0.000163205157 0.549489617 0.196709648 0.0799505338
      -0.00148384064 0.107960582 -0.00195710454 0.442448735
      -0.00138553127 -1.4950997e-05 -0.00344684301 0.590617895
      -0.00495343748 -0.00310442387 -0.000125313745 -2.73827163e-06
      0.237882495 -2.16906471e-07 -4.27916746e-07 0.00745305046
      0.364481091 -1.40586071e-05 -1.74835168e-05 -0.000221929135
      -0.000463530509 0.173865944 -4.0529951e-08 -2.16925075e-10
      -4.71115413e-09 -2.2444286e-13 -0.000148604711 -8.05096988e-07
      -2.12561552e-10 -9.24918495e-05 0.152073517 -1.85749323e-05
      0.025389526 -0.000141996643 -3.83537408e-05 -1.53007568e-05
      0.232437268 -5.85927751e-07 -7.56440477e-06 0.18273291
      -0.00028310428 0.249844924 -8.82137465e-05 0.0574737862
      -0.000943701423 -3.17820159e-05 -5.32073479e-08 0.151771352
      -2.04795538e-06 -0.000118690186 -3.22552819e-06 -2.1760718e-06
      -0.000207891659 -2.12801041e-07 -3.4482357e-06 0.249923781
      -4.92221863e-09 -6.6842637e-10 -1.26875888e-08 -7.4442319e-10
      0.287213564 0.45434767 -2.31901085e-05 0.0599235296
      -8.86134003e-05 -1.08811271e-09 -1.3417332e-07 -4.06471336e-05
      -3.33832806e-09 -0.000643092557 0.0127681326 -1.09331134e-10
      -2.97596034e-06 5.84870577e-07 -0.000301585998 -1.4206698e-07
      -0.000199556089 -9.57847135e-09 -2.864616e-05 -0.000258273154
      -5.98829683e-06</_>
    <_>
      -1.27254272 -2.13229704 -0.00566316815 -0.0250678156
      -5.89886717e-08 -0.000129163003 -0.0109416889 -0.000526116812
      -0.00164639344 -3.41396753e-06 -1.5751255e-05 -3.11014389e-07
      -9.15139171e-05 -0.000264526869 -0.00015273114 5.41790485
      -0.00177173386 -0.00273980852 2.68842292 -0.000134277943
      -0.000965571962 -0.00059482333 -0.00437277323 0.0431740209
      -1.38502592e-05 -0.00588197773 1.26180232 -6.77739354e-06
      -5.37119158e-05 -1.61540393e-05 0.107976943 -0.000182570424
      -0.0102061396 -0.000938262616 -8.05017553e-05 -0.000778528687
      -0.000215447057 -5.61612651e-05 -0.00617605448 -0.00019918097
      -0.000149088111 -0.000485704339 -0.00135618297 -0.000223364317
      -0.000238584529 -0.00197755103 -0.000427890918 3.89288902
      0.666521907 -0.0139453895 -0.00164591765 -9.57861557e-05
      -3.81051905e-06 -0.00908252317 1.61988544 -0.0162382014
      -0.0425300784 -0.00288106431 -0.00542057306 -0.00425953697
      -0.000890937517 -0.000496484456 -0.00093257922 1.62013483
      -0.0245042238 -2.74885442e-05 -3.66089662e-05 -2.02871652e-05
      -0.00432258612 -0.00121303706 -0.000555934559 4.65033722
      -0.00168648153 -0.00010243494 -2.42948727e-06 -0.000941103208
      -1.49573198e-05 -0.00822036993 3.23802781 -0.00172509695
      -9.15760393e-06 -3.95930925e-07 -0.000362333638 1.21861899
      -0.0203236099 -0.000467762526 -0.00278227078 -0.00346396607
      -7.08152766e-06 -0.00762261031 -0.0059035155 -0.000405453669
      -0.00502768438 -0.00549245952 1.36493587 -0.0169952866
      -0.000629943912 -0.00974719599 -0.00577155594 -0.00207862374
      -5.62195128e-05 -0.00763168791 1.63880146 -1.19131641e-06
      -8.860034e-05 -0.000761830364 4.65625238 -0.000112759088
      -3.01024866e-05 -0.000343231688 -0.00213138806 -0.0016921577
      -0.00235078484 -1.43581601e-05 -4.62874887e-05 -0.00052857952
      -6.75016906e-07 -2.28262024e-06 -0.000127087376 -4.54395486e-05
      -0.00631078519 -7.6963297e-06 -0.00661331741 -0.000502045616
      -0.0120466314 -0.00955585483 -0.00217998028 -0.0160380248
      -0.0238115098 -0.00156601495 -1.5892569e-08 -0.000135129681
      0.148370296 -7.4200223e-05 -7.44285717e-05 -2.02772026e-05
      0.324110448 0.394830763 -8.68847483e-09 -0.000226951277
      0.469743162 -2.57580587e-06 -2.42184566e-08 0.400001407
      0.660540938 -0.000175616442 0.498748749 -0.000865766138
      -1.21892088e-08 0.32504499 -2.25894473e-05 -0.000132218949
      -2.46915965e-06 -2.84125736e-06 0.0485305265 0.120843828
      -0.00431441469 0.246336892 -1.17159595e-06 -0.00120201055
      -4.12601048e-06 -0.00178151904 0.733275354 0.591398478 0.499336004
      -0.00252731354 0.230408922 0.451423883 -2.93239264e-05
      -0.00046405883 0.187690467 0.498047173 0.545003355 -0.00016576807
      0.535759091 0.192727104 0.106038317 -0.00152115419 0.105321586
      -0.00221546972 0.447280645 -0.00142109778 -1.4923161e-05
      -0.00352117536 0.605800509 -0.00516381674 -0.00316211698
      -0.000127039311 -2.68714621e-06 0.234597653 -2.12314731e-07
      -4.18589792e-07 -0.000115707364 0.389611751 -1.4053242e-05
      -1.74745783e-05 -0.000222040035 -0.000463795004 0.172653422
      -4.04925942e-08 -2.17211388e-10 -4.7076556e-09 -2.24087554e-13
      -0.000148596737 -8.04791227e-07 -2.12519474e-10 -9.24759588e-05
      0.151051596 -1.85689405e-05 0.0254118964 -0.000141992583
      -3.83451297e-05 -1.52949488e-05 0.234407604 -5.85680311e-07
      -7.56232885e-06 0.184316903 -0.000283393689 0.251758903
      -8.80273656e-05 0.0571557395 -0.000945694104 -3.29459435e-05
      -5.31661044e-08 0.150776416 -2.05113429e-06 -0.000118683813
      -3.22303026e-06 -2.18570108e-06 -0.000208008365 -2.12447958e-07
      -3.44664772e-06 0.251977295 -4.91651386e-09 -6.68418543e-10
      -1.27035378e-08 -7.4381018e-10 0.28665632 0.453122437
      -2.3180819e-05 0.0608713664 -8.85950285e-05 -1.08508114e-09
      -1.34079045e-07 -4.06372346e-05 -3.33612427e-09 -0.000644317479
      0.012778597 -1.09223491e-10 -2.9747182e-06 -5.62071773e-06
      -0.000301838445 -1.41946487e-07 -0.000199638132 -9.57169011e-09
      -2.86402756e-05 -0.000258035463 -5.98635324e-06</_>
    <_>
      -1.45648861 -2.01405144 -0.00576283224 -0.0248185061
      -6.0474278e-08 -0.000134012691 -0.011126115 -0.000545609219
      -0.0016734635 -3.663813e-06 -1.61200715e-05 -3.13085735e-07
      -9.44166604e-05 -0.000274337217 -0.000156068287 5.46223736
      -0.000983387232 -0.00281273248 2.62825847 -0.000137382653
      -0.000990883098 -0.000608454808 -0.00447337097 0.0278671943
      -1.45099666e-05 -0.00564511446 1.35495937 -6.86824478e-06
      -5.42582129e-05 -1.65395359e-05 -0.000328930822 -0.000184339777
      -0.0103696771 -0.000973148271 -8.24014423e-05 -0.000788757578
      -0.000214689702 -5.89170158e-05 -0.00674193026 -0.000210799844
      -0.000150636042 -0.000500351423 -0.00141491101 -0.000218571295
      -0.000324348774 -0.00204129028 -0.000438334362 3.81707597
      0.667617321 -0.0144260824 -0.0017189408 -9.11139505e-05
      -4.01567786e-06 -0.00923990365 1.51167464 -0.0165602677
      -0.0442476608 -0.00294027291 -0.00614514155 -0.00434614159
      -0.000902176835 -0.000511922757 -0.000965791405 1.69494367
      -0.0243995618 -2.68359472e-05 -3.77925026e-05 -2.13751991e-05
      -0.00440626917 -0.00124362705 -0.000552228419 4.73932219
      -0.00172463758 -0.000104938779 -2.58168848e-06 -0.000935836288
      -1.55895232e-05 -0.00757176429 3.33524084 -0.00175640197
      -9.40696464e-06 -4.21324984e-07 -0.00037037718 1.16685414
      -0.0195659157 -0.000478631031 -0.0036901033 -0.00364016648
      -7.24868642e-06 -0.00784990191 -0.00590912346 -0.000419154967
      -0.00513619604 -0.00553234201 1.49991477 -0.0173639171
      -0.000637002115 -0.00962026231 -0.0059202495 -0.00210849871
      -5.94044868e-05 -0.007913596 1.74393475 -1.25093243e-06
      -9.33597476e-05 -0.000768532511 4.57772589 -0.000119294426
      -3.05943031e-05 -0.000356183504 -0.00353709934 -0.00173955632
      -0.00254067662 -1.48046693e-05 -4.76765017e-05 -0.000554380589
      -7.00545399e-07 -2.33986634e-06 -0.000130036147 -4.6323752e-05
      -0.00648010848 -7.83951145e-06 -0.00669530733 -0.000527977187
      -0.0118208034 -0.00964407343 -0.00227612676 -0.0159553178
      -0.0233521294 -0.00168102409 -1.613639e-08 -0.000147605839
      0.147854179 -7.37431037e-05 -7.37648006e-05 0.0126299486
      0.310734034 0.402050197 -8.87417695e-09 -0.00022569533 0.461492091
      -2.52917266e-06 -2.47376271e-08 0.386695564 0.66251123
      -0.000175184468 0.48480311 -0.000849585456 -1.22495267e-08
      0.322984874 -2.27358632e-05 -0.000130673026 -2.45299066e-06
      -2.88159094e-06 0.0572755411 0.124398381 -0.00413317047
      0.239747867 -1.18584728e-06 -0.00127043691 -4.17347064e-06
      -0.00175238261 0.725044608 0.602205575 0.500196755 -0.0024660097
      0.234046832 0.440708399 -2.95105438e-05 -0.000457198214 0.19637242
      0.500663221 0.543228149 -0.00016424738 0.546277642 0.196843401
      0.0827462673 -0.00144514441 0.113740563 -0.00215019961 0.447076917
      -0.00140890956 -1.50172918e-05 -0.00348655763 0.595460773
      -0.00507759862 -0.00312974444 -0.000125784849 -2.71556041e-06
      0.231144369 -2.13710891e-07 -4.248989e-07 -1.87506521e-05
      0.369962811 -1.4052398e-05 -1.74762281e-05 -0.000221948314
      -0.000464043056 0.173638448 -4.04951876e-08 -2.16262272e-10
      -4.70747441e-09 -2.24201978e-13 -0.000148583887 -8.0476832e-07
      -2.12420387e-10 -9.24747437e-05 0.152086169 -1.85688496e-05
      0.0257903337 -0.000141982295 -3.83441547e-05 -1.52954963e-05
      0.233059734 -5.85660644e-07 -7.56234476e-06 0.183091938
      -0.000283223722 0.25107637 -8.8246481e-05 0.0577628687
      -0.000945274427 -4.21468176e-05 -5.31678666e-08 0.151665315
      -2.0514633e-06 -0.000118671916 -3.22272854e-06 -2.19649814e-06
      -0.000207933932 -2.1255606e-07 -3.44684258e-06 0.250828892
      -4.91667462e-09 -6.68294253e-10 -1.26955406e-08 -7.43799966e-10
      0.28858161 0.455304384 -2.31810518e-05 0.0590323806
      -8.85895715e-05 -1.08534981e-09 -1.34070788e-07 -4.06373038e-05
      -3.33635053e-09 -0.000643960084 0.0130581651 -1.09211404e-10
      -2.9747564e-06 -3.64035373e-07 -0.000301783235 -1.41950039e-07
      -0.00019956402 -9.57170609e-09 -2.86398081e-05 -0.000259881752
      -5.98622e-06</_>
    <_>
      -1.45331442 -1.98010755 -0.00577071914 -0.0246288478
      -6.06582375e-08 -0.000134050875 -0.0110851722 -0.000551968638
      -0.00166095467 -3.74423439e-06 -1.62040178e-05 -3.10715279e-07
      -9.49269961e-05 -0.000272642879 -0.000155447909 5.44485521
      -0.00158187281 -0.00282019284 2.60483909 -0.000137552357
      -0.0009855018 -0.00060976547 -0.00448935572 0.00152865052
      -1.4638209e-05 -0.0061767688 1.28859746 -6.79768254e-06
      -5.45637704e-05 -1.66134414e-05 -0.00054097129 -0.000184379984
      -0.010809836 -0.000969311572 -8.17188848e-05 -0.000787469209
      -0.000211163308 -5.92157412e-05 -0.00679759728 -0.000211377905
      -0.000151341213 -0.000497619098 -0.00141802209 -0.000212133033
      -0.000290488562 -0.00205234648 -0.000439654948 3.80802536
      0.64089632 -0.014491573 -0.00172295433 -0.00012373706
      -4.06138679e-06 -0.00922498107 1.48205006 -0.0163656343
      -0.0448104069 -0.00293130428 -0.00638453662 -0.00436570821
      -0.000913363008 -0.000502720999 -0.000974935072 1.63489604
      -0.0248822682 -2.6620175e-05 -3.79095945e-05 -2.15749933e-05
      -0.00440746965 -0.00123587786 -0.00054828485 4.70536995
      -0.00172875042 -0.000105612577 -2.57363035e-06 -0.000931807212
      -1.54312183e-05 -0.0080105653 3.36765361 -0.00176434091
      -9.38614539e-06 -4.30060282e-07 -0.000373157876 1.15643966
      -0.0192742273 -0.000484564633 -0.00398575095 -0.00389940082
      -7.28118312e-06 -0.00782011449 -0.00593020907 -0.000420287019
      -0.0051451805 -0.00548051158 1.39336467 -0.0172367096
      -0.000625017215 -0.00950060971 -0.00593762798 -0.0021088405
      -5.99870182e-05 -0.00787579082 1.66550195 -1.24709698e-06
      -9.36089709e-05 -0.000765538076 4.55307102 -0.000120192854
      -3.03789275e-05 -0.000355565659 -0.00375647657 -0.00175035687
      -0.00212806067 -1.48349682e-05 -4.76305831e-05 -0.000553170976
      -7.0223831e-07 -2.34867275e-06 -0.000128799496 -4.64363329e-05
      -0.00644439366 -7.83614178e-06 -0.00670779217 -0.000527585333
      -0.0122022796 -0.00952909887 -0.00227853283 -0.0157540943
      -0.0235556364 -0.00164865912 -1.58900804e-08 -0.000124033235
      0.14949511 -7.41458934e-05 -7.43801211e-05 0.000769913197
      0.323232561 0.397342473 -8.69047945e-09 -0.000227365177
      0.470950156 -2.5692741e-06 -2.42312801e-08 0.398433208 0.6667431
      -0.00017563437 0.49570471 -0.000814754749 -1.21335368e-08
      0.325243443 -2.25881013e-05 -0.000132054425 -2.46780451e-06
      -2.84309544e-06 0.049116306 0.120903268 -0.00431550108 0.243725121
      -1.17115997e-06 -0.00123178051 -4.12581949e-06 -0.00177573948
      0.732204556 0.589927316 0.502946019 -0.00252853055 0.228493243
      0.447774798 -2.93299636e-05 -0.000464233977 0.187730193 0.49999401
      0.549856126 -0.000165561636 0.535771728 0.19419302 0.102877207
      -0.00150669867 0.108962789 -0.00223798724 0.44718039
      -0.00142261246 -1.49258249e-05 -0.00352256652 0.608970881
      -0.00518982019 -0.00316367624 -0.000127220788 -2.68566396e-06
      0.233631551 -2.11990098e-07 -4.18663916e-07 -9.93126596e-05
      0.383791208 -1.40478251e-05 -1.74679626e-05 -0.000222065966
