<?xml version="1.0"?>
<opencv_storage>
<opencv_ml_svm>
  <format>3</format>
  <svmType>EPS_SVR</svmType>
  <kernel>
    <type>RBF</type>
    <gamma>0.0050000000000000001</gamma></kernel>
  <C>1.</C>
  <p>0.001</p>
  <term_criteria><iterations>10000</iterations></term_criteria>
  <var_count>258</var_count>
  <sv_total>536</sv_total>
  <support_vectors>
    <_>
      -2.347543 -3.17255688 -0.00479307072 -0.00395893259
      -5.52815429e-08 -0.000158045295 -0.00960955489 -0.000414824026
      -0.00159215881 -1.66027121e-06 -1.26444611e-05 -2.30574344e-07
      -7.29715466e-05 -0.000251674122 -0.000158583964 3.30205607
      1.10405004 -0.00233634049 1.98526502 -0.000131551453
      -0.000987555133 -0.000624067499 -0.00362304808 0.119639777
      -1.02323456e-05 0.467486829 2.36075163 -8.19031266e-06
      -3.85048697e-05 -1.53083911e-05 0.353008121 -0.000165088393
      -0.00302250031 -0.000961997721 -8.53035745e-05 -0.000623622036
      -0.000207928344 -4.82952128e-05 -0.00312295253 -0.000204859796
      -0.000115858194 -0.000635017001 -0.00115952059 -0.000313784025
      0.0472608618 -0.00168935058 -0.000360617181 2.24621415 1.27189291
      -0.00763749145 -0.00146534992 -0.0017924268 -3.57879048e-06
      -0.00767935626 0.480043143 -0.0186008513 -0.0193279497
      -0.00269237719 -0.000696419564 -0.00340503338 -0.000551870733
      -0.000642177998 -0.000694864721 2.41938663 -0.0109891826
      -2.62223366e-05 -3.63162108e-05 -1.31992037e-05 -0.00386159401
      -0.00128584565 -0.000583909045 4.50264359 -0.00124387571
      -9.52358168e-05 -4.79121309e-06 -0.000986952567 -2.05108045e-05
      0.304755479 1.37612498 -0.00134305807 -8.37613061e-06
      -2.36411097e-07 -0.000298301602 0.367917329 -0.00188068382
      -0.000568310497 0.169120878 -0.000584363646 -6.4053379e-06
      -0.00730807427 -0.0035842557 -0.000385687017 -0.00458369171
      -0.00583608681 3.5331223 -0.0187467001 -0.00062870828
      -0.00160594715 -0.00516842911 -0.0017907467 -4.22642734e-05
      -0.0079108784 3.10284257 -9.90545232e-07 -8.24532981e-05
      -0.000809579622 2.91971469 -9.51802795e-05 -2.90236203e-05
      -0.000305600406 1.08471966 -0.00155505748 -0.00729318522
      -1.71892461e-05 -5.58655192e-05 -0.000584987341 -7.11230712e-07
      -1.79054246e-06 -0.000160563417 -3.97874282e-05 -0.00644486165
      -6.13233715e-06 -0.00475427182 -0.000573707453 -0.00516482303
      -0.0086768074 -0.00237043994 -0.0142578315 -0.0116275083
      -0.00330375577 -1.39398928e-08 0.556180239 0.330022991
      -7.73151987e-05 -4.11741239e-05 0.701538086 0.278991282
      0.862251282 -6.85802526e-09 -0.000190413062 0.836061239
      -2.67231394e-06 -1.7398385e-08 0.375890553 0.794713259
      -0.000206429992 0.132263631 -0.00152144965 -9.71404468e-09
      0.0790819749 -2.2388358e-05 -0.000201384741 -2.46581271e-06
      -2.72042757e-06 0.126289696 -0.000687521242 -0.00103615865
      0.336720675 -1.03283264e-06 -0.000992225134 -3.69462168e-06
      -0.00026361295 0.636975467 0.457039088 0.550186694 -0.00140783109
      0.113735512 0.246951446 -3.30846015e-05 -0.000414752751
      0.410302907 0.868037999 0.486307651 -0.000222979812 0.626180291
      0.358689547 -0.00628871005 -0.00258386903 0.0318144374
      0.0861578062 0.186453789 -0.00191590155 -1.33841422e-05
      -0.00415625609 -0.000234792606 -0.00587363169 -0.00311258365
      -0.000143516372 -2.58538171e-06 0.140835971 -1.5490275e-07
      -3.45966527e-07 0.234717861 0.349298418 -1.44514715e-05
      -1.77400671e-05 -0.000228023244 -0.000417272415 0.109461926
      -4.21627639e-08 -3.25428323e-10 -4.91910246e-09 -2.28288661e-13
      -0.000150696898 -8.24207007e-07 -2.27682262e-10 -9.34879281e-05
      0.0712483525 -1.89027905e-05 -0.000249591249 -0.000143550569
      -3.89348097e-05 -1.55358066e-05 0.304104626 -6.01531838e-07
      -7.67179881e-06 0.258728921 -0.000289969699 0.238025755
      -6.95292547e-05 -4.7108977e-05 -0.000893259421 0.122465514
      -5.51531869e-08 0.0884283632 -1.83731413e-06 -0.000120575394
      -3.39660346e-06 -2.6015681e-07 -0.000211428909 -2.17343342e-07
      -3.50663026e-06 0.291315764 -5.20214805e-09 -6.8508399e-10
      -1.28888376e-08 -7.78078268e-10 0.0662399381 0.235010132
      -2.36498054e-05 0.249104738 -9.02929023e-05 -1.2130128e-09
      -1.40219782e-07 -4.11602014e-05 -3.42508133e-09 -0.00062504597
      -0.000241057365 -1.16580898e-10 -3.03651086e-06 -0.000387561304
      -0.000295461155 -1.4795846e-07 -0.000204879165 -9.93399052e-09
      -2.9017312e-05 -3.07295195e-05 -6.10814868e-06</_>
    <_>
      -2.10381055 -2.85633183 -0.00468041096 -0.00380767044
      -5.56191466e-08 -0.000140068805 -0.0092792958 -0.000427350693
      -0.00153515942 -1.67185544e-06 -1.24273784e-05 -2.31967803e-07
      -6.80496378e-05 -0.000230110018 -0.000146823397 3.18309903
      0.757800519 -0.002298465 2.32763624 -0.000128212952
      -0.000980173587 -0.000601913896 -0.00362896337 0.0323760733
      -1.00002944e-05 0.207252413 2.04670715 -7.8958119e-06
      -3.75064737e-05 -1.51611566e-05 0.664162636 -0.000160300915
      -0.00430248491 -0.000863054476 -7.84778385e-05 -0.000616625883
      -0.000201988703 -4.52567074e-05 -0.00275594904 -0.000189369734
      -0.000119097574 -0.000611669035 -0.0010906317 -0.000269485696
      0.00199354813 -0.00168072816 -0.000349670503 2.56241083 1.20466828
      -0.00769760413 -0.00136267126 -0.0016981056 -3.72292789e-06
      -0.00759341661 0.482754558 -0.0179118961 -0.0193602145
      -0.00255511608 -5.48701719e-05 -0.00335935946 -0.000519901107
      -0.000640053418 -0.000715614005 2.1330235 -0.0137939556
      -2.50900011e-05 -3.53071337e-05 -1.24226626e-05 -0.00375432405
      -0.00118970405 -0.000583724119 4.32797337 -0.00122906477
      -9.53617055e-05 -4.55448844e-06 -0.00095085433 -1.90458613e-05
      -0.000336643105 1.40883827 -0.00133497268 -8.43521502e-06
      -1.94958446e-07 -0.000311459036 0.48800844 -0.00129960745
      -0.000545142102 0.0962141156 -0.00139138522 -6.29760962e-06
      -0.0072891484 -0.00360914203 -0.000367361121 -0.00448758109
      -0.00572425732 3.02605128 -0.0179822464 -0.000617799349
      -0.000959045254 -0.00509108603 -0.00171726488 -3.9207498e-05
      -0.00752312504 2.73103356 -9.85439783e-07 -8.13578808e-05
      -0.00078287191 3.08345103 -9.14480988e-05 -2.88508345e-05
      -0.000287184404 1.04052365 -0.00153715024 -0.00686812634
      -1.72489072e-05 -5.08917728e-05 -0.00050826103 -6.62793866e-07
      -1.80404572e-06 -0.000138548494 -3.88230292e-05 -0.00600640522
      -5.6656495e-06 -0.00483528944 -0.000505081902 -0.00750062522
      -0.00851405039 -0.00218620733 -0.0135125453 -0.0133984741
      -0.00292365346 -1.39997649e-08 0.539907575 0.350430489
      -7.71594714e-05 -3.80926285e-05 0.707906246 0.273549497
      0.836942554 -6.89036694e-09 -0.000188134232 0.839963317
      -2.7116107e-06 -1.74373422e-08 0.39275068 0.795508325
      -0.000204969634 0.111688621 -0.00178643607 -9.68904601e-09
      0.0691580996 -2.25184485e-05 -0.000203053525 -2.47966545e-06
      -2.71693807e-06 0.0999321491 -0.00077316683 -0.00107315078
      0.31843853 -1.04030471e-06 -0.00111409428 -3.70446128e-06
      -0.00013128834 0.616560042 0.457028836 0.553413451 -0.00134893402
      0.0956156999 0.220364511 -3.27561611e-05 -0.000407638698
      0.419204831 0.861878693 0.488565892 -0.000225148426 0.607050538
      0.362027377 -0.00642021094 -0.00265700067 0.0105416067
      0.0767631903 0.190651909 -0.00189970341 -1.3453634e-05
      -0.0041241087 -0.000512115424 -0.00579567719 -0.00307718385
      -0.000141503653 -2.61469654e-06 0.116029859 -1.53405708e-07
      -3.47599183e-07 0.23276253 0.324818909 -1.443778e-05
      -1.77189086e-05 -0.00022824714 -0.000418058335 0.106999353
      -4.20720241e-08 -3.25619837e-10 -4.91037611e-09 -2.27474289e-13
      -0.000150670239 -8.23440416e-07 -2.27525235e-10 -9.34480704e-05
      0.0692858323 -1.88879621e-05 -0.000246963464 -0.00014353494
      -3.89130364e-05 -1.55217749e-05 0.308240294 -6.0091088e-07
      -7.66668654e-06 0.261976004 -0.000290591444 0.242388606
      -6.91886307e-05 -5.16407563e-05 -0.000897949736 0.121670529
      -5.50523858e-08 0.0864516497 -1.84533019e-06 -0.000120553224
      -3.39027974e-06 -2.89668662e-07 -0.000211676408 -2.16530722e-07
      -3.50281857e-06 0.295767456 -5.18815568e-09 -6.84997781e-10
      -1.29239099e-08 -7.76560816e-10 0.0659175441 0.233171776
      -2.36270098e-05 0.250438958 -9.02445972e-05 -1.20567889e-09
      -1.39982745e-07 -4.11358087e-05 -3.41976758e-09 -0.000627875328
      -0.000239266679 -1.16308817e-10 -3.03346746e-06 -0.000398594275
      -0.000296053797 -1.47663172e-07 -0.000205041375 -9.91727056e-09
      -2.90025437e-05 -3.11513941e-05 -6.10328152e-06</_>
    <_>
      -2.14770961 -2.84776688 -0.0046401564 -0.00416900916
      -5.45883161e-08 -0.000138905598 -0.00927930139 -0.000407203508
      -0.00148182863 -1.52760515e-06 -1.23187956e-05 -2.2818962e-07
      -6.74896655e-05 -0.000228503122 -0.000148443069 3.23106885
      0.73447603 -0.00226450758 2.1820147 -0.000125868595
      -0.000959099794 -0.00058784656 -0.00356559688 0.0274158344
      -9.54532425e-06 0.146822244 1.98763764 -7.46734077e-06
      -3.72545655e-05 -1.50893193e-05 0.507398069 -0.000160810872
      -0.00460163876 -0.00088027044 -7.79174443e-05 -0.00060551241
      -0.000196477224 -4.41516822e-05 -0.00280984235 -0.0001876428
      -0.000115072275 -0.00059305242 -0.0010906267 -0.00027236811
      -0.000123196311 -0.00168608315 -0.00035126775 2.47106481
      1.16306567 -0.00881083217 -0.00136027462 -0.00153877761
      -3.51147696e-06 -0.00754374359 0.546331108 -0.0178124793
      -0.0204033516 -0.00254797237 -0.0004088188 -0.00329833152
      -0.0005250143 -0.000655093056 -0.000692556845 2.10054374
      -0.0139650796 -2.44953662e-05 -3.46366323e-05 -1.13614997e-05
      -0.00367381447 -0.00118413533 -0.000566569506 4.31220436
      -0.00119235367 -9.27690053e-05 -4.4677945e-06 -0.000930390263
      -1.85561403e-05 -0.000727639766 1.49189174 -0.0013187828
      -8.19345496e-06 -1.85257633e-07 -0.000298417028 0.355529904
      -0.00137180241 -0.000546386815 0.0480333306 -0.000612848962
      -6.14331384e-06 -0.00722702127 -0.00369797368 -0.000366285734
      -0.00438458985 -0.0056834016 2.9272759 -0.0179776996
      -0.000614276156 -0.00135554024 -0.00502324989 -0.00166504772
      -3.79082121e-05 -0.00766125089 2.67519069 -9.77416789e-07
      -7.76049201e-05 -0.000769328733 3.05135727 -8.90815645e-05
      -2.77866238e-05 -0.000287910399 1.02162707 -0.00152023032
      -0.00639710482 -1.69832838e-05 -5.10233986e-05 -0.00050033204
      -6.6667792e-07 -1.71493195e-06 -0.000139044932 -3.84898922e-05
      -0.00599997584 -5.70618704e-06 -0.0047813165 -0.000508291065
      -0.00798359327 -0.00853206869 -0.00219141855 -0.01331593
      -0.0137411328 -0.00285611511 -1.39393608e-08 0.541040957
      0.348074913 -7.71385166e-05 -3.86298707e-05 0.714157343 0.27552104
      0.840730786 -6.85405288e-09 -0.000188505481 0.837897778
      -2.6948112e-06 -1.73534609e-08 0.394746125 0.807719529
      -0.000205227392 0.119182535 -0.00169093721 -9.68607328e-09
      0.0679879636 -2.2474107e-05 -0.000202238894 -2.47377238e-06
      -2.70883515e-06 0.106317863 -0.00082268758 -0.000971536094
      0.31747523 -1.03629225e-06 -0.00110972673 -3.69443751e-06
      -0.000154481619 0.622097254 0.461040139 0.554438651 -0.00138912594
      0.0951751918 0.230066627 -3.27314956e-05 -0.000409695203
      0.419121712 0.861632884 0.486301243 -0.000224806106 0.610436559
      0.362267941 -0.00642811321 -0.00269156718 0.0138241947
      0.0728222951 0.187601253 -0.00191810098 -1.34202801e-05
      -0.0041417242 -0.00049503526 -0.00574381556 -0.00309083983
      -0.000141957906 -2.60294996e-06 0.114940353 -1.53839892e-07
      -3.46248555e-07 0.230340004 0.328987181 -1.44384376e-05
      -1.77197671e-05 -0.000228241945 -0.000418010051 0.107057281
      -4.20759427e-08 -3.2566097e-10 -4.91077667e-09 -2.27504701e-13
      -0.000150672102 -8.23475887e-07 -2.27537517e-10 -9.34499112e-05
      0.0693187714 -1.88886297e-05 -0.000247282296 -0.000143536192
      -3.89140623e-05 -1.55223734e-05 0.308126807 -6.009397e-07
      -7.66691392e-06 0.261895716 -0.000290572585 0.242229655
      -6.91923779e-05 -5.17596673e-05 -0.000897762482 0.1217549
      -5.50568018e-08 0.086492978 -1.8449548e-06 -0.000120554832
      -3.39057874e-06 -2.87778079e-07 -0.000211669263 -2.16561347e-07
      -3.50297887e-06 0.295629263 -5.18877252e-09 -6.85008161e-10
      -1.29227677e-08 -7.7662915e-10 0.0658298284 0.233138233
      -2.36280193e-05 0.250476837 -9.02470492e-05 -1.20599253e-09
      -1.39993787e-07 -4.11369001e-05 -3.4199934e-09 -0.000627767644
      -0.000239496076 -1.16321633e-10 -3.03360162e-06 -0.000398379343
      -0.000296030164 -1.47676189e-07 -0.000205038014 -9.91801929e-09
      -2.90032276e-05 -3.10351425e-05 -6.10350617e-06</_>
    <_>
      -2.12476563 -3.1568203 -0.00464912783 -0.00354478392
      -5.44503642e-08 -0.000149486033 -0.00927549787 -0.000429592037
      -0.00155666529 -1.65609447e-06 -1.25830975e-05 -2.33207388e-07
      -7.00869423e-05 -0.000242540045 -0.00014874911 3.14598632
      0.960092247 -0.00231183041 2.18647861 -0.000132250323
      -0.0010045002 -0.000614343735 -0.00360151543 0.0617793575
      -1.0245858e-05 0.368152797 2.22545934 -8.23259961e-06
      -3.72861432e-05 -1.51165968e-05 0.629753411 -0.000159636358
      -0.00288615865 -0.000884354464 -8.22827787e-05 -0.000613695651
      -0.000206218057 -4.68550243e-05 -0.0016482909 -0.000198445181
      -0.000118062351 -0.000639271806 -0.00110746454 -0.000279028085
      0.00576389581 -0.0017215804 -0.000345354812 2.37429047 1.2490896
      -0.0066940859 -0.00140292139 -0.0018187362 -3.8115254e-06
      -0.00754267396 0.523237824 -0.018426979 -0.0181558691
      -0.0025614386 0.0281282961 -0.00331834308 -0.000522561895
      -0.000660203455 -0.00070872705 2.28324509 -0.0118013294
      -2.62866724e-05 -3.64361476e-05 -1.25934021e-05 -0.00375062251
      -0.00122389174 -0.000596320373 4.38002968 -0.00124063506
      -9.50157773e-05 -4.79923165e-06 -0.000973351649 -1.98291073e-05
      0.166506559 1.3282485 -0.00131979911 -8.44308852e-06
      -1.99817876e-07 -0.000309563649 0.462001085 -0.00184986705
      -0.000554703525 0.155281872 -0.00134781795 -6.36147888e-06
      -0.00714575686 -0.00361102656 -0.000372966286 -0.00455942377
      -0.00583994575 3.33002067 -0.0182246752 -0.000623240427
      -0.0014619024 -0.00508182403 -0.00173389493 -4.07388325e-05
      -0.00771935703 2.94222426 -1.02327294e-06 -8.29387645e-05
      -0.000810632482 2.88763165 -9.5384632e-05 -2.90704684e-05
      -0.00029257359 1.2031697 -0.00154649641 -0.00699777808
      -1.75138866e-05 -5.33431994e-05 -0.000543269096 -7.06348033e-07
      -1.85129522e-06 -0.000148007675 -3.90627101e-05 -0.00615397701
      -5.66268545e-06 -0.00472532678 -0.000531272904 -0.00638237502
      -0.008637839 -0.00227360195 -0.0137419533 -0.0121936724
      -0.00321850204 -1.39675302e-08 0.570094407 0.366885722
      -7.74980581e-05 -3.73770345e-05 0.700834751 0.242634952 0.83459729
      -6.82999923e-09 -0.000183896904 0.813221276 -2.75519847e-06
      -1.71746066e-08 0.405236602 0.804641068 -0.000204912911
      0.111445464 -0.00173912488 -9.99061989e-09 0.0843768641
      -2.25668518e-05 -0.000206359822 -2.52647396e-06 -2.69406246e-06
      0.101289645 -0.000782485295 -0.00106806296 0.339289039
      -1.03656021e-06 -0.00103424944 -3.69982558e-06 0.00397812389
      0.625606835 0.449207753 0.536213934 -0.00123093592 0.0874110609
      0.213858128 -3.23632157e-05 -0.00040543612 0.421568602 0.865854442
      0.476356268 -0.000229006706 0.60038805 0.351339161 -0.00647000177
      -0.00277940603 -0.000107784341 0.0959890261 0.180571541
      -0.00191532425 -1.34819902e-05 -0.00413753884 -0.000687975669
      -0.00568091869 -0.00305839465 -0.000141176497 -2.62017579e-06
      0.113362148 -1.52204137e-07 -3.4589695e-07 0.226092756 0.364241898
      -1.44129463e-05 -1.7680286e-05 -0.000228661971 -0.000419467804
      0.102441728 -4.19067483e-08 -3.26047161e-10 -4.89451857e-09
      -2.25983417e-13 -0.000150622829 -8.22047866e-07 -2.27247582e-10
      -9.33756746e-05 0.0656311363 -1.88609974e-05 -0.000242524024
      -0.000143507423 -3.88735207e-05 -1.54962054e-05 0.315871418
      -5.9978305e-07 -7.65738514e-06 0.267982244 -0.000291736535
      0.250372469 -6.85505292e-05 -6.04130691e-05 -0.000906515226
      0.120309435 -5.48688952e-08 0.082784906 -1.85988756e-06
      -0.000120513891 -3.37880147e-06 -3.42521815e-07 -0.000212132814
      -2.15043755e-07 -3.4958689e-06 0.303954452 -5.1626956e-09
      -6.84850898e-10 -1.29883277e-08 -7.73801467e-10 0.0651619881
      0.229643166 -2.35855314e-05 0.253026396 -9.0157213e-05
      -1.19231702e-09 -1.39552284e-07 -4.10914508e-05 -3.41008333e-09
      -0.000633050513 -0.000236260996 -1.15814948e-10 -3.02792864e-06
      -0.000419101998 -0.000297136401 -1.47125746e-07 -0.0002053426
      -9.88685755e-09 -2.89757172e-05 -3.17578815e-05 -6.09444032e-06</_>
    <_>
      -2.03542018 -2.94177651 -0.0047033974 -0.00432529626
      -5.49108883e-08 -0.00013914083 -0.00929276459 -0.000419714663
      -0.00151870982 -1.5548593e-06 -1.21973699e-05 -2.30988761e-07
      -6.84411789e-05 -0.000234232881 -0.000147407074 3.19921136
      0.82873553 -0.00229587033 2.29496646 -0.000128527099
      -0.000957964803 -0.000594419136 -0.00359417917 0.0613402352
      -9.65364325e-06 0.281256884 2.07486272 -7.6661463e-06
      -3.72321665e-05 -1.46189495e-05 0.60368216 -0.000160236479
      -0.0036935946 -0.000868201081 -7.91762577e-05 -0.000620896171
      -0.000199382266 -4.42869496e-05 -0.0026622822 -0.00018687277
      -0.000117764655 -0.000603883876 -0.00109120423 -0.000271088356
      0.0257976465 -0.00165438827 -0.000346682064 2.48220873 1.2170856
      -0.00742464326 -0.00136638083 -0.00169710466 -3.58646207e-06
      -0.00758037949 0.613961756 -0.0176859666 -0.0198782645
      -0.0025679383 -0.000206126118 -0.00336235156 -0.000510675833
      -0.000631900562 -0.000704711012 2.17504811 -0.013054057
      -2.57722695e-05 -3.52012976e-05 -1.19565293e-05 -0.00373584032
      -0.00119477743 -0.000579023443 4.32278347 -0.00122171117
      -9.39452875e-05 -4.49297295e-06 -0.000931738759 -1.85680456e-05
      0.0358407982 1.36312175 -0.00132427702 -8.04295996e-06
      -1.70116792e-07 -0.000308703777 0.532009602 -0.00236826343
      -0.000520438189 0.142501771 -0.00148677325 -6.27087684e-06
      -0.0071628117 -0.00370262517 -0.000366668159 -0.00447570113
      -0.00558844255 3.07654977 -0.0177652482 -0.000604808563
      -0.00141118746 -0.00503394939 -0.00173456455 -3.79521662e-05
      -0.00740657374 2.75971055 -9.26524194e-07 -7.91274433e-05
      -0.00078021962 3.0044558 -8.93166361e-05 -2.85219649e-05
      -0.000286154536 1.03143406 -0.00150967983 -0.00678695831
      -1.64090325e-05 -5.02617986e-05 -0.000518623972 -6.67776817e-07
      -1.8182609e-06 -0.000139979282 -3.90370114e-05 -0.00601868611
      -5.7306529e-06 -0.00480477745 -0.000503373914 -0.00687578553
      -0.00845275726 -0.00218245015 -0.0138025349 -0.0129978638
      -0.00291609042 -1.39498688e-08 0.572280228 0.367442578
      -7.76043598e-05 -3.85453168e-05 0.70127821 0.261682361 0.839145899
      -6.78404932e-09 -0.000184849894 0.817697167 -2.74479976e-06
      -1.70855028e-08 0.404788435 0.808386922 -0.000205869961
      0.128566831 -0.00171817653 -1.00042907e-08 0.0815774575
      -2.24694322e-05 -0.000206080353 -2.5095203e-06 -2.686475e-06
      0.110009551 -0.00075722544 -0.00092957099 0.35127449
      -1.03302659e-06 -0.000933818403 -3.68886913e-06 0.00249236636
      0.637411356 0.456358761 0.542801976 -0.0012596898 0.0867557079
      0.229176924 -3.25043475e-05 -0.000407892832 0.42510885 0.877413988
      0.474845201 -0.000227356286 0.601541221 0.343959063 -0.00652783737
      -0.00273439218 -5.66352501e-05 0.0887374952 0.184408516
      -0.00192514388 -1.34659704e-05 -0.004148826 -0.000643627718
      -0.0055985502 -0.00306866947 -0.000141673168 -2.6085047e-06
      0.124221288 -1.52465617e-07 -3.44690619e-07 0.224930391 0.37209639
      -1.44086225e-05 -1.7674176e-05 -0.000228712219 -0.000419754593
      0.101884067 -4.18796837e-08 -3.25921318e-10 -4.89183094e-09
      -2.25758174e-13 -0.000150612235 -8.21810545e-07 -2.27180691e-10
      -9.33633273e-05 0.0652352571 -1.88564736e-05 -0.000240989204
      -0.000143500685 -3.8866714e-05 -1.54920472e-05 0.316867113
      -5.99590578e-07 -7.65583536e-06 0.268731624 -0.000291892473
      0.251566619 -6.84895931e-05 -6.06107315e-05 -0.000907859183
      0.119888738 -5.48386083e-08 0.0823563188 -1.86238685e-06
      -0.000120504839 -3.37682172e-06 -3.53574279e-07 -0.000212193569
      -2.14817788e-07 -3.4947484e-06 0.305085033 -5.15847542e-09
      -6.84801049e-10 -1.29974396e-08 -7.73338338e-10 0.0654380247
      0.229507774 -2.35786501e-05 0.253074646 -9.01414678e-05
      -1.19014054e-09 -1.39478658e-07 -4.10840548e-05 -3.40851236e-09
      -0.000633840973 -0.00023517308 -1.15729933e-10 -3.02701142e-06
      -0.000421435368 -0.000297305756 -1.47036729e-07 -0.00020537751
      -9.88177984e-09 -2.8971137e-05 -3.22450069e-05 -6.09293556e-06</_>
    <_>
      -2.00239539 -2.85144687 -0.00474446267 -0.00545921689
      -5.58652111e-08 -0.000138996402 -0.00937417801 -0.000439273339
      -0.00153702463 -1.76622075e-06 -1.24966218e-05 -2.29045199e-07
      -6.87288484e-05 -0.000228085846 -0.000146337581 3.37880468
      0.628911912 -0.00232114433 2.29606676 -0.000127918902
      -0.000969345856 -0.000604650239 -0.00368920341 0.00375454873
      -1.00027382e-05 0.0548873469 1.9262886 -7.3007468e-06
      -3.70087473e-05 -1.51386257e-05 0.565955639 -0.000161007833
      -0.00510323048 -0.00085765752 -7.82384232e-05 -0.000629706192
      -0.000193718166 -4.53200009e-05 -0.00308500812 -0.000190070845
      -0.000120181925 -0.000603295921 -0.00110947108 -0.000256669882
      -3.19408973e-05 -0.00168972975 -0.000348663831 2.56914926
      1.09779346 -0.00881122984 -0.00137956662 -0.00160122139
      -3.705057e-06 -0.00765519775 0.630727589 -0.0177928209
      -0.0217586458 -0.00258680247 -0.000815893174 -0.00343089039
      -0.000533255981 -0.000646624423 -0.000738179369 2.05745864
      -0.0153968614 -2.38458069e-05 -3.56946257e-05 -1.22306483e-05
      -0.00375019596 -0.00118278677 -0.000564164482 4.40339851
      -0.00124991208 -9.60739853e-05 -4.55617328e-06 -0.000911128183
      -1.79561757e-05 -0.00149348984 1.54284668 -0.00135744608
      -8.24497602e-06 -2.01732249e-07 -0.000319557468 0.561251998
      -0.00255518244 -0.000544000126 -0.000228721794 -0.00229055109
      -6.43054727e-06 -0.00731959566 -0.00371666299 -0.000372337032
      -0.00448835362 -0.00562975742 2.82180095 -0.0178852528
      -0.00061890349 -0.00188183552 -0.00513195572 -0.00171492458
      -3.95819625e-05 -0.00749266846 2.612149 -9.88456918e-07
      -8.18147601e-05 -0.000755300513 3.10176539 -9.16329227e-05
      -2.80848417e-05 -0.000294957776 0.981071174 -0.00155631732
      -0.00679324009 -1.71004322e-05 -5.05319476e-05 -0.000510223617
      -6.47142883e-07 -1.85897522e-06 -0.000134160742 -3.91512804e-05
      -0.00592848053 -5.70747534e-06 -0.00492886128 -0.000499192916
      -0.00858240761 -0.00851686578 -0.00219749217 -0.013162015
      -0.0145340459 -0.00277859345 -1.39342111e-08 0.593900442
      0.368694782 -7.75531662e-05 -3.81162863e-05 0.685168386
      0.240555704 0.832129478 -6.77853329e-09 -0.000183463038
      0.805905521 -2.74690365e-06 -1.70627299e-08 0.410653174
      0.811714947 -0.000206884608 0.134375483 -0.00162548712
      -1.02995426e-08 0.0967124254 -2.24837659e-05 -0.000207132471
      -2.53058374e-06 -2.6788332e-06 0.111331001 -0.000688830274
      -0.00101125287 0.370871603 -1.03122989e-06 -0.000908235088
      -3.69446457e-06 0.0103202742 0.647316217 0.454330176 0.527382672
      -0.00120193243 0.0863269717 0.237742528 -3.22318338e-05
      -0.00040758567 0.425150841 0.881427467 0.467898369 -0.000228838064
      0.607964277 0.326299012 -0.00645423774 -0.00279218331
      -8.01772258e-05 0.104948968 0.184981912 -0.00193108013
      -1.35339851e-05 -0.00416098488 -0.000675116375 -0.00557112275
      -0.00307078287 -0.000141598881 -2.60632828e-06 0.126395732
      -1.51741872e-07 -3.44730836e-07 0.213888362 0.406241149
      -1.44020905e-05 -1.76641825e-05 -0.000228815465 -0.000420136435
      0.100748748 -4.18366675e-08 -3.25980326e-10 -4.88767959e-09
      -2.2537522e-13 -0.000150599153 -8.21445553e-07 -2.27102684e-10
      -9.33443516e-05 0.0643384308 -1.88494287e-05 -0.000239619883
      -0.000143492929 -3.88563421e-05 -1.54854024e-05 0.318784773
      -5.99294992e-07 -7.65340701e-06 0.270231903 -0.000292182085
      0.253613353 -6.83351172e-05 -6.25645334e-05 -0.000910072355
      0.119482338 -5.47907959e-08 0.081448257 -1.86620639e-06
      -0.000120493904 -3.37380766e-06 -3.67975446e-07 -0.000212308631
      -2.14435502e-07 -3.49294442e-06 0.307158947 -5.15183673e-09
      -6.84755974e-10 -1.30138149e-08 -7.72617248e-10 0.0653475299
      0.228707522 -2.3567829e-05 0.253648251 -9.01183448e-05
      -1.18666643e-09 -1.39365795e-07 -4.10724751e-05 -3.40599615e-09
      -0.00063517259 -0.00023423291 -1.156003e-10 -3.02556714e-06
      -0.000426498504 -0.000297585415 -1.46896582e-07 -0.000205452045
      -9.87383775e-09 -2.89641066e-05 -3.25057772e-05 -6.09061908e-06</_>
    <_>
      -1.89053357 -3.05253601 -0.00458908733 -0.00619479921
      -5.22574268e-08 -0.000141599114 -0.00913338736 -0.000430764543
      -0.00150235649 -1.69061377e-06 -1.20319901e-05 -2.22731558e-07
      -6.84385523e-05 -0.000230513921 -0.000147847022 3.45026445
      0.724695265 -0.00224229065 2.08740973 -0.000129636261
      -0.000907494919 -0.000601231761 -0.00353168929 0.0593404546
      -9.74496288e-06 0.137171 1.93895638 -7.5264411e-06 -3.62960236e-05
      -1.42635154e-05 0.457086593 -0.00016024425 -0.00430098176
      -0.000863839523 -7.85809898e-05 -0.000602257205 -0.000188779784
      -4.48357969e-05 -0.00188342016 -0.000187674043 -0.000115106253
      -0.000604577363 -0.00109748344 -0.000238658133 0.0371866003
      -0.00162371749 -0.000332997035 2.28133011 0.999647141
      -0.00682677561 -0.00137166365 -0.00157299696 -3.8934013e-06
      -0.00736720255 0.721178472 -0.0174341034 -0.0210177824
      -0.00253987964 -0.000185290715 -0.00329348352 -0.000534949417
      -0.000626975379 -0.000696284231 2.07505536 -0.0133537222
      -2.44705097e-05 -3.44323307e-05 -1.19473734e-05 -0.00362998061
      -0.00118878379 -0.0005498018 4.394454 -0.00120088726
      -9.1374568e-05 -4.77475032e-06 -0.000902198837 -1.81604155e-05
      0.0136561133 1.51699328 -0.00129140227 -8.13361839e-06
      -1.85374873e-07 -0.000307008217 0.675517857 -0.00472537708
      -0.000541186891 0.014688164 -0.00168649119 -6.34004618e-06
      -0.00701982062 -0.00367080956 -0.000367182831 -0.00440828316
      -0.00548352581 2.88504553 -0.0177107584 -0.000570955046
      -0.00313539919 -0.00497331517 -0.00167198805 -3.87014406e-05
      -0.00739656156 2.62728047 -9.17382692e-07 -8.0574544e-05
      -0.000763654942 2.97744226 -9.13315889e-05 -2.70121291e-05
      -0.00029284932 1.03894663 -0.00151662168 -0.00632722583
      -1.64460907e-05 -4.85599812e-05 -0.000523350143 -6.51081848e-07
      -1.84359362e-06 -0.000135732349 -3.77609795e-05 -0.0059360289
      -5.53490099e-06 -0.00476707518 -0.000510113954 -0.00755169429
      -0.00816601235 -0.00219013891 -0.0134628331 -0.0132863186
      -0.0029366028 -1.36889531e-08 0.625016332 0.376440078
      -7.77783061e-05 -3.65613632e-05 0.675820112 0.219529003
      0.822426736 -6.53693943e-09 -0.000179167706 0.798310399
      -2.80003019e-06 -1.62945462e-08 0.456459224 0.822855353
      -0.000209754857 0.137193054 -0.00177429826 -1.07525562e-08
      0.116584361 -2.23882635e-05 -0.000214347121 -2.55982536e-06
      -2.62333288e-06 0.0836323872 -0.000605228182 -0.000868112198
      0.404602706 -1.01464559e-06 -0.000910436851 -3.63953814e-06
      0.0445941836 0.661102414 0.454395741 0.51491785 -0.00107135356
      0.0615962893 0.233829394 -3.21306616e-05 -0.000407995714
      0.435852975 0.906159937 0.446790993 -0.000234716601 0.584364057
      0.317221463 -0.00686370488 -0.00299857464 -0.000535800704
      0.115776889 0.165911704 -0.00196368224 -1.35298351e-05
      -0.00421552826 -0.00110455963 -0.00547401095 -0.00306804222
      -0.000141901226 -2.58368004e-06 0.114298269 -1.51324684e-07
      -3.36381305e-07 0.204324663 0.460880578 -1.43971574e-05
      -1.7652108e-05 -0.000229055237 -0.000420119235 0.0981504023
      -4.17916404e-08 -3.27499278e-10 -4.88399454e-09 -2.24833607e-13
      -0.000150606458 -8.21132687e-07 -2.27180524e-10 -9.33281335e-05
      0.0618907958 -1.88428457e-05 -0.000244139199 -0.000143501398
      -3.88479457e-05 -1.54782174e-05 0.322687924 -5.99043176e-07
      -7.65106597e-06 0.273548096 -0.000292720128 0.256614327
      -6.78502256e-05 -7.37773225e-05 -0.000912829011 0.120512359
      -5.47424612e-08 0.0792143345 -1.86934335e-06 -0.000120501834
      -3.37139613e-06 -3.65112214e-07 -0.000212533094 -2.13904386e-07
      -3.49092352e-06 0.310903639 -5.145258e-09 -6.84904577e-10
      -1.3041733e-08 -7.71944841e-10 0.0622961521 0.224585325
      -2.35571515e-05 0.257027417 -9.01047024e-05 -1.18293852e-09
      -1.3927081e-07 -4.10613211e-05 -3.40324657e-09 -0.00063699286
      -0.000237638393 -1.15495204e-10 -3.02413036e-06 -0.000439420692
      -0.000297937426 -1.46757401e-07 -0.000205637349 -9.86623583e-09
      -2.89581167e-05 -2.99115327e-05 -6.08861455e-06</_>
    <_>
      -1.9158628 -2.96383524 -0.0046329163 -0.00642196834 -5.2844598e-08
      -0.000140389617 -0.00920127332 -0.000432255008 -0.00150754035
      -1.72603541e-06 -1.21147914e-05 -2.23746824e-07 -6.85988271e-05
      -0.000229401543 -0.000148994048 3.46708679 0.665823877
      -0.00225880742 2.19525313 -0.000128377302 -0.000914134085
      -0.000596935046 -0.00356782437 0.0518518165 -9.76835599e-06
      0.084805645 1.89651 -7.51402467e-06 -3.66437416e-05
      -1.43627958e-05 0.489085466 -0.000160873402 -0.00496598426
      -0.000869039504 -7.77323075e-05 -0.000605339068 -0.000186778823
      -4.5140474e-05 -0.00232285424 -0.000186573452 -0.000116378011
      -0.000598708401 -0.00110523752 -0.000234249397 0.0300430879
      -0.00163254014 -0.000338370417 2.43962336 0.983467817
      -0.00749372225 -0.00137326494 -0.00150918751 -3.84144187e-06
      -0.00743747456 0.690877318 -0.0174133088 -0.0217628237
      -0.00256222906 -0.000620223815 -0.00332781486 -0.000536725798
      -0.000626155874 -0.000703967409 2.04732156 -0.0140045369
      -2.40608151e-05 -3.45077606e-05 -1.21008652e-05 -0.00364371552
      -0.00118527166 -0.000542773283 4.43215275 -0.00121294195
      -9.22789332e-05 -4.65342964e-06 -0.000889405957 -1.78076043e-05
      -0.000505616481 1.53909087 -0.00130756525 -8.10362417e-06
      -1.87035141e-07 -0.0003098741 0.650624514 -0.00468649296
      -0.000536616601 -7.70208208e-05 -0.00175168365 -6.37281255e-06
      -0.00711513497 -0.00371891214 -0.000367955334 -0.00442304043
      -0.00545074884 2.79190278 -0.0177136697 -0.000574484817
      -0.00322274747 -0.00502164708 -0.00167494477 -3.8651131e-05
      -0.00745320739 2.5794723 -9.22894401e-07 -8.01528149e-05
      -0.000750383246 3.06815457 -9.11660172e-05 -2.68111689e-05
      -0.00029518368 1.00368702 -0.00152547867 -0.00663950061
      -1.63184086e-05 -4.82923933e-05 -0.000521259906 -6.41969507e-07
      -1.85114709e-06 -0.000134619972 -3.80872843e-05 -0.00592170004
      -5.63073172e-06 -0.00480532972 -0.000509643927 -0.00789118465
      -0.00819028076 -0.00219211914 -0.0133411903 -0.0136830648
      -0.00285308645 -1.36411238e-08 0.63148874 0.376327008
      -7.76330999e-05 -3.67632019e-05 0.687713265 0.214149937
      0.829481125 -6.53671695e-09 -0.000179706622 0.800977826
      -2.77465642e-06 -1.63298477e-08 0.451894462 0.829303563
      -0.000209559992 0.136312276 -0.0016869962 -1.0632152e-08
      0.114483468 -2.23366205e-05 -0.000213110252 -2.54862175e-06
      -2.62630419e-06 0.0851679742 -0.000592538039 -0.000845465285
      0.398250878 -1.01259752e-06 -0.000912654155 -3.63491245e-06
      0.0392450839 0.66037333 0.448946863 0.520738959 -0.00110412529
      0.0663806349 0.229342714 -3.20749277e-05 -0.000408373948
      0.434970468 0.909700453 0.449026704 -0.000234391002 0.58434397
      0.319615185 -0.00682642264 -0.00299180555 -0.000491927727
      0.115876898 0.16597192 -0.0019761892 -1.34960619e-05
      -0.00422624778 -0.00103933073 -0.00550356973 -0.00308260438
      -0.000142053905 -2.57149804e-06 0.113533609 -1.51163661e-07
      -3.36161122e-07 0.208471417 0.449290246 -1.43948964e-05
      -1.7648119e-05 -0.00022910985 -0.000420215743 0.0975539535
      -4.17752837e-08 -3.27691652e-10 -4.88249263e-09 -2.24671573e-13
      -0.000150603912 -8.21002004e-07 -2.27169492e-10 -9.3321345e-05
      0.061373651 -1.88402591e-05 -0.000244311028 -0.00014350038
      -3.88442895e-05 -1.54756635e-05 0.323638618 -5.98937447e-07
      -7.65016648e-06 0.274322391 -0.000292857614 0.257493347
      -6.77538483e-05 -7.55879664e-05 -0.000913722033 0.120527029
      -5.47244809e-08 0.0787191167 -1.87069509e-06 -0.000120499935
      -3.37033703e-06 -3.68490561e-07 -0.000212588973 -2.13743704e-07
      -3.49022207e-06 0.311876267 -5.14277643e-09 -6.84910406e-10
      -1.30492213e-08 -7.71680164e-10 0.0619173944 0.223898023
      -2.35531134e-05 0.257569224 -9.00971427e-05 -1.18160681e-09
      -1.39230593e-07 -4.10570283e-05 -3.40227646e-09 -0.000637549092
      -0.000237791683 -1.15449476e-10 -3.0235899e-06 -0.000442235149
      -0.000298050669 -1.46704991e-07 -0.000205678196 -9.86329773e-09
      -2.89556028e-05 -2.96769613e-05 -6.08778237e-06</_>
    <_>
      -1.95547521 -2.95322132 -0.00480039697 -0.00746526895
      -5.4121827e-08 -0.000140457254 -0.00942295324 -0.000434132206
      -0.00152472407 -1.87858552e-06 -1.22448628e-05 -2.29740778e-07
      -7.20145181e-05 -0.000232109305 -0.00015325092 3.57327008
      0.749727666 -0.00230203825 2.01396871 -0.000129904365
      -0.000907880953 -0.000603066292 -0.00364953629 0.052446872
      -1.02121676e-05 0.134124219 1.98850405 -7.28042187e-06
      -3.83466067e-05 -1.44729293e-05 0.328075498 -0.00016228098
      -0.00568343047 -0.000902046741 -7.81668132e-05 -0.000620904728
      -0.000188133708 -4.68826838e-05 -0.00288419169 -0.000188515143
      -0.000118621327 -0.00058698206 -0.00114747358 -0.000235411353
      0.0578573607 -0.00159846689 -0.000350073504 2.27989864 0.967556238
      -0.00827711634 -0.00141394685 -0.00147154403 -3.78088134e-06
      -0.0075639002 0.739889026 -0.0173421036 -0.0236082543
      -0.00264101988 -0.00177913695 -0.00343941431 -0.000550038589
      -0.000603332184 -0.000721844321 2.15685916 -0.0146750649
      -2.38024677e-05 -3.46425877e-05 -1.29747086e-05 -0.00372862094
      -0.00121352496 -0.000533996965 4.47644997 -0.00125955476
      -9.42691113e-05 -4.45283467e-06 -0.000892997952 -1.79650833e-05
      -0.000306298898 1.60760427 -0.00134023733 -8.14895611e-06
      -2.01222747e-07 -0.000311303156 0.7156142 -0.0051876856
      -0.000528776087 -0.000720890588 -0.00247859373 -6.50293578e-06
      -0.00712829037 -0.00376955583 -0.00037501179 -0.00441696076
      -0.00535070151 2.89153266 -0.0177815799 -0.000573183002
      -0.00344152562 -0.00510432525 -0.00172950677 -4.07742482e-05
      -0.00733030075 2.65809608 -9.30709746e-07 -8.12766593e-05
      -0.000739065697 3.03704786 -9.34572745e-05 -2.73200912e-05
      -0.000305020454 0.898780048 -0.00153644814 -0.00715880981
      -1.61047901e-05 -4.82317519e-05 -0.000546341413 -6.52628728e-07
      -1.91271215e-06 -0.00013599977 -3.89055785e-05 -0.00600604527
      -5.92616971e-06 -0.00488471659 -0.000524834672 -0.00719877426
      -0.00816327054 -0.0022342368 -0.0132940011 -0.0138359619
      -0.00277558411 -1.36909666e-08 0.634002149 0.380561709
      -7.76780726e-05 -3.58278703e-05 0.68373394 0.214276135 0.822695017
      -6.54046861e-09 -0.000178499671 0.792607725 -2.79059054e-06
      -1.63140541e-08 0.45824492 0.830928862 -0.000210302838 0.138593346
      -0.00170916133 -1.07762874e-08 0.120322794 -2.23640691e-05
      -0.000214162574 -2.56576482e-06 -2.62473191e-06 0.0933626071
      -0.000571995042 -0.000839053129 0.405955046 -1.01338321e-06
      -0.000921903586 -3.64179368e-06 0.0379522741 0.65791887
      0.454794735 0.511939228 -0.00106735853 0.0653513521 0.238091961
      -3.19774226e-05 -0.000406668725 0.443095326 0.914375246
      0.452213705 -0.000234867141 0.588396847 0.315504611 -0.00695520546
      -0.00301999552 -0.000507756078 0.120486006 0.170175791
      -0.0019753736 -1.35561731e-05 -0.00422177836 -0.00108567753
      -0.00546971383 -0.00306985551 -0.000141829572 -2.57999454e-06
      0.118402869 -1.49989418e-07 -3.36685616e-07 0.202926442
      0.460265338 -1.43890175e-05 -1.7639024e-05 -0.000229206344
      -0.000420552416 0.0964921042 -4.17363033e-08 -3.27777111e-10
      -4.87874363e-09 -2.24321429e-13 -0.000150592503 -8.20672767e-07
      -2.27102379e-10 -9.33042247e-05 0.0605269223 -1.8833889e-05
      -0.000243189046 -0.0001434937 -3.88349399e-05 -1.54696336e-05
      0.32542032 -5.98670795e-07 -7.64797005e-06 0.275721759
      -0.000293125253 0.25937134 -6.76069612e-05 -7.75498484e-05
      -0.000915738463 0.120187044 -5.46811769e-08 0.0778664351
      -1.87413661e-06 -0.00012049044 -3.3676215e-06 -3.81115825e-07
      -0.000212695537 -2.13394259e-07 -3.48858407e-06 0.31379357
      -5.13676612e-09 -6.8487449e-10 -1.30643247e-08 -7.71028297e-10
      0.0617739633 0.223101407 -2.35433199e-05 0.25814721
      -9.00764062e-05 -1.17845567e-09 -1.39128801e-07 -4.10465509e-05
      -3.39999295e-09 -0.000638765749 -0.000237027853 -1.15332646e-10
      -3.0222825e-06 -0.000446992053 -0.000298305415 -1.46578131e-07
      -0.000205748118 -9.85611681e-09 -2.894926e-05 -2.98541727e-05
      -6.08569235e-06</_>
    <_>
      -1.7997582 -3.11157203 -0.00462571438 -0.00542865694
      -5.43211236e-08 -0.000140104778 -0.0091365017 -0.000443565077
      -0.00152310741 -1.7020775e-06 -1.23103764e-05 -2.2699605e-07
      -6.71704693e-05 -0.000227700424 -0.00014372365 3.36010146
      0.60475862 -0.00228481623 2.32556224 -0.000129177599
      -0.00093311246 -0.00060275977 -0.00361067522 0.0200878605
      -9.92434798e-06 0.0454586521 1.84870255 -7.49182618e-06
      -3.63673789e-05 -1.4451989e-05 0.650719047 -0.000160004507
      -0.00482583046 -0.000836642692 -7.77719542e-05 -0.000611655531
      -0.000191134415 -4.46326194e-05 -0.00181145163 -0.000188076534
      -0.000118478369 -0.00061279058 -0.00108727952 -0.0002435481
      0.00660618395 -0.00168441352 -0.000339890947 2.49891019
      0.999962568 -0.00710851606 -0.00135549821 -0.00160092569
      -3.92078891e-06 -0.00749874348 0.730163693 -0.0175427813
      -0.0204280429 -0.00252526067 0.00234332681 -0.00333658559
      -0.000530711084 -0.00064938271 -0.000721696997 2.00277853
      -0.0143861566 -2.45232204e-05 -3.52907628e-05 -1.18096632e-05
      -0.00368045946 -0.00116674392 -0.000559910608 4.41088676
      -0.00122585124 -9.39877864e-05 -4.77738286e-06 -0.00090818957
      -1.85126974e-05 -0.00114349346 1.42885065 -0.00132888556
      -8.2239967e-06 -1.82819633e-07 -0.000318389008 0.669910431
      -0.0040418529 -0.00054268766 0.0120536163 -0.00170440809
      -6.37494895e-06 -0.00712172128 -0.0037542833 -0.00036573637
      -0.00450646086 -0.0055606016 2.73408866 -0.0176135581
      -0.000595923921 -0.00271829427 -0.00505643245 -0.00168556953
      -3.82947073e-05 -0.00747282803 2.5361886 -9.47819046e-07
      -8.21081412e-05 -0.000758468697 3.12968111 -9.09716618e-05
      -2.75673883e-05 -0.000286606723 1.12935996 -0.00154578546
      -0.00658938382 -1.68717834e-05 -4.93263396e-05 -0.000511392544
      -6.57734063e-07 -1.86875184e-06 -0.000132943067 -3.8498576e-05
      -0.00585868815 -5.50646882e-06 -0.00486644637 -0.000490587263
      -0.0086728204 -0.00835739635 -0.00213924516 -0.0131710069
      -0.0140698384 -0.00286468654 -1.37342466e-08 0.618151546
      0.372402966 -7.76778252e-05 -3.707629e-05 0.694047809 0.235616744
      0.833615422 -6.59137989e-09 -0.000181578827 0.804337442
      -2.76098217e-06 -1.65201701e-08 0.438465357 0.828808367
      -0.000208444108 0.144200832 -0.00163780712 -1.04984661e-08
      0.107781224 -2.23375519e-05 -0.000210856015 -2.55636337e-06
      -2.64200958e-06 0.0987193435 -0.000635891105 -0.000835637329
      0.393060863 -1.01710555e-06 -0.000871216587 -3.64776565e-06
      0.0268530529 0.654515266 0.454734147 0.524785578 -0.00112511055
      0.0735029727 0.239926979 -3.21409971e-05 -0.000409532455
      0.433392972 0.904730022 0.456885159 -0.000231152953 0.591482162
      0.314686269 -0.0067849136 -0.00293749594 -0.000361228915
      0.112536944 0.174101532 -0.00196875888 -1.35009614e-05
      -0.00421058945 -0.000926522072 -0.00551381754 -0.00309088221
      -0.000141889293 -2.57833267e-06 0.115360424 -1.50804084e-07
      -3.3842494e-07 0.210139409 0.435674608 -1.43903026e-05
      -1.76383473e-05 -0.000229280384 -0.000420298718 0.0956974775
      -4.17374473e-08 -3.28625044e-10 -4.8792379e-09 -2.24249682e-13
      -0.000150605076 -8.20722789e-07 -2.27197622e-10 -9.33068513e-05
      0.059670195 -1.88345384e-05 -0.000246675365 -0.000143503567
      -3.88366498e-05 -1.54696791e-05 0.326477289 -5.98712177e-07
      -7.64815104e-06 0.276701182 -0.000293254445 0.259824097
      -6.74230178e-05 -8.28236662e-05 -0.000915936835 0.121039987
      -5.46834507e-08 0.0771401748 -1.87352998e-06 -0.000120502002
      -3.36813628e-06 -3.70216441e-07 -0.000212753119 -2.13327951e-07
      -3.48855474e-06 0.314660579 -5.13715692e-09 -6.84991119e-10
      -1.3070208e-08 -7.71095465e-10 0.0600591823 0.221209854
      -2.35439838e-05 0.259746403 -9.00831728e-05 -1.17849464e-09
      -1.39145314e-07 -4.1047424e-05 -3.39999229e-09 -0.00063897972
      -0.000239597342 -1.15353935e-10 -3.02236481e-06 -0.000451300293
      -0.00029833251 -1.46586245e-07 -0.000205808654 -9.85673942e-09
      -2.89502459e-05 -2.81821885e-05 -6.08599839e-06</_>
    <_>
      -1.87509489 -3.10262299 -0.00466983346 -0.00522387866
      -5.49686199e-08 -0.000139048003 -0.00919022691 -0.000429445761
      -0.00153895072 -1.57599743e-06 -1.21401144e-05 -2.27293384e-07
      -6.71134476e-05 -0.000224617543 -0.000145188824 3.34526324
      0.636974156 -0.00228361529 2.32396984 -0.000125385937
      -0.000928285299 -0.000589410076 -0.00362831098 0.0375981554
      -9.53598555e-06 0.0762993023 1.88907015 -7.19269974e-06
      -3.67793109e-05 -1.44609621e-05 0.612406492 -0.000160724012
      -0.00470185047 -0.000839233457 -7.58664246e-05 -0.00061165262
      -0.000190818158 -4.37876115e-05 -0.00209032465 -0.000181405936
      -0.000119333032 -0.000596161117 -0.00107834104 -0.00024818079
      0.0234529432 -0.00167650462 -0.000345539505 2.50209188 1.03377557
      -0.00730737951 -0.00133494346 -0.00158941478 -3.71334863e-06
      -0.00754992059 0.694211543 -0.0175117739 -0.020438632
      -0.00254047615 -0.000734553381 -0.00333711668 -0.000513850129
      -0.000649500173 -0.000715973205 2.05201912 -0.014428488
      -2.45919182e-05 -3.50249793e-05 -1.1561152e-05 -0.003704909
      -0.00115595607 -0.000553699851 4.45903587 -0.0012223901
      -9.44007552e-05 -4.52421182e-06 -0.00088696793 -1.79737963e-05
      -0.00112588599 1.38297701 -0.00133390131 -8.07354263e-06
      -1.62297852e-07 -0.000314897858 0.630075097 -0.0034726595
      -0.000524642877 0.0340699367 -0.00199637422 -6.30075283e-06
      -0.00712365145 -0.00374949351 -0.000361556711 -0.00449547172
      -0.00547983497 2.77482367 -0.0175774023 -0.000589844421
      -0.00260588876 -0.00506438082 -0.00168720912 -3.62891187e-05
      -0.00744476775 2.58562589 -9.02774048e-07 -7.89510595e-05
      -0.000747837243 3.11433029 -8.8111381e-05 -2.76469545e-05
      -0.0002842166 1.14392173 -0.00152561464 -0.00706178648
      -1.6386497e-05 -4.88019505e-05 -0.000502016512 -6.4279368e-07
      -1.83429563e-06 -0.000132014233 -3.88376902e-05 -0.00581893092
      -5.5661344e-06 -0.00487550627 -0.00047949914 -0.00827489328
      -0.0083690444 -0.00213656016 -0.0132787097 -0.0139929336
      -0.00280306279 -1.37611194e-08 0.594203055 0.363216996
      -7.77870373e-05 -3.76238022e-05 0.701148272 0.263006479
      0.839773417 -6.63628352e-09 -0.000183340104 0.825157523
      -2.76732021e-06 -1.6592093e-08 0.423948526 0.819137037
      -0.00020770535 0.141605765 -0.00173534302 -1.02054898e-08
      0.0889817923 -2.23627685e-05 -0.000209010905 -2.52781888e-06
      -2.66044026e-06 0.0921895206 -0.000707689673 -0.000761237519
      0.364926398 -1.02148329e-06 -0.000892304699 -3.65099277e-06
      0.00854845904 0.652903616 0.446355015 0.527972341 -0.00123706565
      0.0802733749 0.233681396 -3.26292538e-05 -0.000408845022
      0.427051634 0.894979537 0.449493051 -0.000228730423 0.595452785
      0.325320303 -0.00673196791 -0.002888188 -0.000203152929
      0.0905896798 0.171421543 -0.00194676663 -1.3392395e-05
      -0.00419258839 -0.000872839126 -0.00557908509 -0.00308941049
      -0.000142816993 -2.59010039e-06 0.113558292 -1.5135916e-07
      -3.39456221e-07 0.220673576 0.390129656 -1.43961852e-05
      -1.76492595e-05 -0.000229119134 -0.000420083583 0.0974531323
      -4.17814761e-08 -3.27949751e-10 -4.88320806e-09 -2.24701104e-13
      -0.000150609616 -8.21067147e-07 -2.27210251e-10 -9.33247211e-05
      0.0612243041 -1.8841416e-05 -0.000245557108 -0.000143504498
      -3.88462286e-05 -1.54765767e-05 0.323715806 -5.98990482e-07
      -7.65055211e-06 0.274429768 -0.000292858866 0.257369846
      -6.77176722e-05 -7.6948294e-05 -0.000913486292 0.120839238
      -5.4731661e-08 0.0786101222 -1.86998261e-06 -0.000120505014
      -3.37090796e-06 -3.63020206e-07 -0.000212591447 -2.13774427e-07
      -3.49045695e-06 0.31187588 -5.14379428e-09 -6.84955037e-10
      -1.30489157e-08 -7.71798847e-10 0.0614019185 0.223415494
      -2.35547814e-05 0.257984668 -9.01023741e-05 -1.18208887e-09
      -1.39251057e-07 -4.10588691e-05 -3.40261663e-09 -0.000637437217
      -0.000238701803 -1.15473714e-10 -3.02381159e-06 -0.000442901772
      -0.000298021245 -1.46726507e-07 -0.000205687073 -9.86456961e-09
      -2.89568652e-05 -2.91277502e-05 -6.08819255e-06</_>
    <_>
      -2.02828789 -2.93218994 -0.00470168795 -0.00326803653
      -5.69194789e-08 -0.00014198538 -0.00923235435 -0.000444498583
      -0.00154054502 -1.62452443e-06 -1.25459765e-05 -2.29186682e-07
      -6.73945397e-05 -0.000228330493 -0.000143929996 3.16531396
      0.542731762 -0.00234316499 2.41184521 -0.000127098916
      -0.000977553078 -0.000606139423 -0.00370113063 -0.000244632422
      -9.78146545e-06 0.0103244856 1.81437945 -7.40010091e-06
      -3.64610642e-05 -1.5225045e-05 0.735528111 -0.00016148448
      -0.00480323238 -0.000827903976 -7.8557001e-05 -0.000622860389
      -0.000194121152 -4.45088081e-05 -0.00200973055 -0.000192300809
      -0.000121473779 -0.000616032106 -0.00108617567 -0.000262024987
      -0.000118107644 -0.00174175121 -0.000346541929 2.61123395
      1.11650622 -0.00799381174 -0.0013631148 -0.00181245815
      -3.79174185e-06 -0.00765493186 0.496479422 -0.0177260283
      -0.0189676024 -0.00254153251 -0.000172533095 -0.00340339821
      -0.000518521178 -0.000682173937 -0.000738996197 1.96499467
      -0.0151373399 -2.46946911e-05 -3.67931279e-05 -1.16417505e-05
      -0.00374901504 -0.00116435031 -0.000574610545 4.35426903
      -0.00123746879 -9.71260088e-05 -4.71733347e-06 -0.000928801193
      -1.83584998e-05 -0.00205016276 1.35206199 -0.00136317592
      -8.15971089e-06 -1.90456987e-07 -0.000326270412 0.442927986
      -0.00116571831 -0.000546225114 0.0367578641 -0.00228811684
      -6.3635307e-06 -0.00722707715 -0.00374598615 -0.000369680987
      -0.00457929168 -0.00569923641 2.68245554 -0.0177153684
      -0.00061817409 -0.00131584064 -0.00515165599 -0.00171187334
      -3.85478961e-05 -0.00751280552 2.52063489 -9.77192826e-07
      -8.17428954e-05 -0.000769098697 3.08053088 -9.01217063e-05
      -2.82084511e-05 -0.000285116083 1.18899798 -0.00156215602
      -0.00664165244 -1.73335902e-05 -5.27360062e-05 -0.00050674245
      -6.70455677e-07 -1.85258591e-06 -0.000136711387 -3.96946016e-05
      -0.00587656582 -5.57781641e-06 -0.00488660019 -0.000486087723
      -0.00942779146 -0.00854098517 -0.00217643566 -0.0131000681
      -0.0144270658 -0.00287046004 -1.37542395e-08 0.591538012
      0.362688988 -7.77535752e-05 -3.74634728e-05 0.706151724
      0.261972338 0.841127038 -6.63323441e-09 -0.00018356349 0.826312661
      -2.76384753e-06 -1.65894694e-08 0.423299968 0.818810403
      -0.000207177291 0.139505833 -0.00176314474 -1.01478834e-08
      0.0888142064 -2.23522784e-05 -0.000208751779 -2.53025837e-06
      -2.66059737e-06 0.0904154703 -0.000669368776 -0.000816388056
      0.361530066 -1.02138017e-06 -0.000901221239 -3.64810626e-06
      0.0100485515 0.649896026 0.447221726 0.532593071 -0.00121763721
      0.0818987042 0.230271444 -3.26254412e-05 -0.000408831227
      0.427081913 0.89583528 0.450656354 -0.000228717356 0.594248891
      0.325927794 -0.00673425477 -0.00289111794 -0.000261163135
      0.0911546648 0.173199251 -0.00194388954 -1.33908561e-05
      -0.0041928771 -0.000887453149 -0.00559411943 -0.00309656723
      -0.000142711142 -2.58780642e-06 0.106838554 -1.51420423e-07
      -3.39218929e-07 0.223574802 0.386039138 -1.43967136e-05
      -1.76471967e-05 -0.00022921346 -0.00041985896 0.0964416042
      -4.17770032e-08 -3.28880728e-10 -4.88319385e-09 -2.24571975e-13
      -0.000150621592 -8.21073002e-07 -2.27303218e-10 -9.33250703e-05
      0.0601743087 -1.88411868e-05 -0.000249194185 -0.000143514219
      -3.88467124e-05 -1.54757417e-05 0.325116754 -5.98996337e-07
      -7.6504266e-06 0.275692523 -0.000293038029 0.258125275
      -6.74964758e-05 -8.29707424e-05 -0.000913994794 0.121721774
      -5.47277885e-08 0.0777022392 -1.86983345e-06 -0.000120516175
      -3.37106644e-06 -3.5315054e-07 -0.000212669445 -2.13651646e-07
      -3.49018546e-06 0.313088357 -5.14334308e-09 -6.8507533e-10
      -1.30574458e-08 -7.71776032e-10 0.0595153943 0.221248388
      -2.35540665e-05 0.259808213 -9.01066742e-05 -1.18167032e-09
      -1.39254027e-07 -4.10582761e-05 -3.40228179e-09 -0.000637845951
      -0.000241390691 -1.15479661e-10 -3.02370927e-06 -0.000448263279
      -0.00029808798 -1.46716701e-07 -0.000205762903 -9.86419302e-09
      -2.89570016e-05 -2.73347414e-05 -6.08821802e-06</_>
    <_>
      -2.08192229 -3.16149712 -0.00474488456 -0.00412316946
      -5.47543522e-08 -0.000152667752 -0.00939344894 -0.000434491958
      -0.00158483442 -1.60568914e-06 -1.23807613e-05 -2.22473702e-07
      -6.99054726e-05 -0.000240696638 -0.000150412758 3.31507325
      0.884672821 -0.00232239533 2.05912757 -0.000130973291
      -0.000964095932 -0.000620737555 -0.00364646851 0.0497928709
      -9.93575213e-06 0.257064402 2.13021469 -7.88483158e-06
      -3.63397085e-05 -1.48144718e-05 0.48480776 -0.000163259218
      -0.00410369039 -0.000893917051 -8.1792823e-05 -0.000622555497
      -0.000198584792 -4.59014518e-05 -0.00256860186 -0.000194812819
      -0.000117471383 -0.000639465055 -0.00112384523 -0.000276926032
      0.0369554311 -0.00167889392 -0.000342901476 2.26452637 1.11982036
      -0.00844014436 -0.00141971209 -0.00175734924 -3.73051853e-06
      -0.00764542958 0.605582356 -0.0183013808 -0.0199181046
      -0.00263097556 -0.000621101935 -0.00340647507 -0.000527496508
      -0.000653545198 -0.000716361334 2.24731803 -0.0130424248
      -2.5252024e-05 -3.60861522e-05 -1.20259865e-05 -0.00376376417
      -0.00123281754 -0.000570228731 4.43807793 -0.00123113091
      -9.58193559e-05 -4.91401443e-06 -0.000946282409 -1.97166664e-05
      0.109364569 1.37194467 -0.00134026969 -8.14346731e-06
      -1.78027577e-07 -0.000312838558 0.495570004 -0.00236527785
      -0.000556223444 0.0542343445 -0.00130789774 -6.42255918e-06
      -0.00720657408 -0.00370919728 -0.000379142904 -0.00457775779
      -0.00572298281 3.18100357 -0.0182871725 -0.000600042345
      -0.00218202313 -0.00511142239 -0.00174977025 -3.9315466e-05
      -0.00766426185 2.86105609 -9.47581611e-07 -8.21009889e-05
      -0.000783242285 2.92916846 -9.2610062e-05 -2.81631856e-05
      -0.000297779276 1.114452 -0.00155559671 -0.00684082927
      -1.7007691e-05 -5.25719624e-05 -0.000548239448 -6.73857244e-07
      -1.79194387e-06 -0.000147006227 -3.97149015e-05 -0.00620153407
      -5.77840592e-06 -0.0048049055 -0.000528461998 -0.00705789914
      -0.00850410853 -0.00230914331 -0.0134519804 -0.0129325623
      -0.00317665329 -1.38058756e-08 0.585210681 0.358079702
      -7.75098815e-05 -3.80281672e-05 0.715353608 0.265580833
      0.848044872 -6.7189454e-09 -0.000185876183 0.830940902
      -2.72600732e-06 -1.68936722e-08 0.407138467 0.817226946
      -0.000206242796 0.128039777 -0.0016158747 -9.99145122e-09
      0.0768795907 -2.2367889e-05 -0.000206530924 -2.52118912e-06
      -2.68104009e-06 0.0996997878 -0.000677732518 -0.000799988688
      0.348507702 -1.02556521e-06 -0.000929443573 -3.66599056e-06
      0.00264653377 0.639322817 0.444060504 0.540989816 -0.00126021111
      0.0877241045 0.232227445 -3.26293484e-05 -0.000409547531
      0.421857357 0.88315028 0.467404872 -0.000226808246 0.601201534
      0.335239291 -0.00662016496 -0.0028070542 -9.5822812e-05
      0.0926392078 0.17878674 -0.00194597861 -1.34128786e-05
      -0.00417962484 -0.000760027207 -0.00564739434 -0.00309987785
      -0.000142790115 -2.58836599e-06 0.106544718 -1.51963604e-07
      -3.41990784e-07 0.226447776 0.367692739 -1.44021596e-05
      -1.76543454e-05 -0.000229169746 -0.000419461023 0.0969349742
      -4.18095745e-08 -3.29217709e-10 -4.88651164e-09 -2.24825082e-13
      -0.000150637017 -8.21367564e-07 -2.27403901e-10 -9.33403935e-05
      0.0604593307 -1.88467329e-05 -0.00025180864 -0.000143524463
      -3.88552144e-05 -1.54807185e-05 0.324158072 -5.99235307e-07
      -7.65231744e-06 0.275011867 -0.000292880257 0.256793559
      -6.75285628e-05 -8.39089189e-05 -0.000912432792 0.122416772
      -5.47644525e-08 0.0780559778 -1.86671775e-06 -0.000120529527
      -3.373543e-06 -3.37597442e-07 -0.000212609564 -2.13906958e-07
      -3.49151719e-06 0.311925292 -5.14847187e-09 -6.85160428e-10
      -1.30478339e-08 -7.72343578e-10 0.0588033237 0.220992237
      -2.3562432e-05 0.260106772 -9.01269741e-05 -1.18427812e-09
      -1.39345573e-07 -4.10673056e-05 -3.4041574e-09 -0.000636948505
      -0.00024326572 -1.15585867e-10 -3.02482272e-06 -0.000446425605
      -0.000297891762 -1.46824803e-07 -0.000205734555 -9.87039339e-09
      -2.89626878e-05 -2.63808615e-05 -6.09008248e-06</_>
    <_>
      -1.98619664 -3.25464511 -0.00459902594 -0.00237850193
      -5.52846444e-08 -0.000147177852 -0.00913972128 -0.000449155341
      -0.00156113377 -1.59507647e-06 -1.25448232e-05 -2.21853327e-07
      -6.59762372e-05 -0.000238074252 -0.000143961341 3.10826707
      0.709655523 -0.0023143685 2.19340539 -0.000128607455
      -0.000979738776 -0.00061644183 -0.00362276705 0.00118405372
      -9.9378849e-06 0.140629441 1.95347607 -7.73713873e-06
      -3.53721116e-05 -1.4755994e-05 0.647933722 -0.000159875126
      -0.00421105046 -0.000836218649 -7.98333058e-05 -0.00060926337
      -0.000197624031 -4.56447706e-05 -0.00138749788 -0.000194897133
      -0.000117172429 -0.000648998132 -0.0010725141 -0.000257893291
      -7.10104796e-05 -0.00172616681 -0.00033938553 2.35989285 1.0780251
      -0.00676986622 -0.00136676303 -0.00180815533 -3.9821166e-06
      -0.00757720042 0.565968692 -0.0182106178 -0.0171698034
      -0.00252318732 0.0202816576 -0.00332095567 -0.000517081993
      -0.000687621068 -0.000718609605 2.07449579 -0.0132746063
      -2.52162754e-05 -3.66331224e-05 -1.18334438e-05 -0.00373361912
      -0.00119588431 -0.000584915862 4.3827858 -0.00122056692
      -9.56412186e-05 -5.04168793e-06 -0.000939095975 -2.00668874e-05
      -0.000140250428 1.26115012 -0.00132877647 -8.47335468e-06
      -1.63221841e-07 -0.000318484002 0.498622715 -0.00130231911
      -0.000564760005 0.0613833442 -0.00162452704 -6.39426435e-06
      -0.00720606418 -0.00368861924 -0.000369910151 -0.00461919792
      -0.00582145667 2.95292115 -0.0180734489 -0.000612716831
      -0.00164657191 -0.00510144001 -0.0016920307 -3.78441437e-05
      -0.00778305391 2.68157697 -9.5229376e-07 -8.27089752e-05
      -0.000784241885 2.93250895 -9.20054954e-05 -2.80005333e-05
      -0.000286849536 1.32502508 -0.00156173238 -0.00676228385
      -1.76071462e-05 -5.22461487e-05 -0.000521547045 -6.83286601e-07
      -1.85222245e-06 -0.000141995595 -3.92005022e-05 -0.00605557766
      -5.45397961e-06 -0.00477144308 -0.000501337461 -0.00850277487
      -0.00854684319 -0.00220551412 -0.0131515963 -0.0132530481
      -0.00313902902 -1.37374805e-08 0.573183894 0.351957649
      -7.74561631e-05 -3.86887587e-05 0.720645547 0.274781883
      0.854107201 -6.68970834e-09 -0.000187831029 0.842147768
      -2.70528039e-06 -1.68601435e-08 0.40215838 0.819323838
      -0.000205909324 0.129682839 -0.00163117913 -9.78946524e-09
      0.0723245516 -2.23184597e-05 -0.000205102275 -2.50207586e-06
      -2.67977703e-06 0.0978676528 -0.000717768795 -0.000807635253
      0.338207901 -1.02242007e-06 -0.000969914719 -3.65270171e-06
      -3.0401292e-05 0.639650166 0.448546678 0.552310169 -0.00130819273
      0.0892843157 0.23397772 -3.27630951e-05 -0.00041287666 0.416448623
      0.879838467 0.477018982 -0.000225799668 0.603446007 0.343138188
      -0.00657174923 -0.00276511582 -1.85855843e-05 0.0819036141
      0.182597369 -0.00194699818 -1.33594194e-05 -0.00419199374
      -0.000677714881 -0.00569694582 -0.0031240934 -0.000143129801
      -2.57614829e-06 0.107730411 -1.52470292e-07 -3.40691372e-07
      0.228586376 0.352474988 -1.4403191e-05 -1.76532703e-05
      -0.000229248326 -0.000419221673 0.0960942358 -4.18090202e-08
      -3.30073247e-10 -4.88684204e-09 -2.24737641e-13 -0.000150649168
      -8.21403262e-07 -2.27496272e-10 -9.33422853e-05 0.0595637336
      -1.88471076e-05 -0.000255275576 -0.000143534096 -3.8856524e-05
      -1.54805002e-05 0.325293422 -5.99265263e-07 -7.65240384e-06
      0.276053965 -0.000293021731 0.257322967 -6.73371105e-05
      -8.93044053e-05 -0.000912718591 0.123264 -5.47648433e-08
      0.0772922188 -1.8662613e-06 -0.000120540753 -3.37393999e-06
      -3.27266747e-07 -0.000212672065 -2.13825288e-07 -3.49141601e-06
      0.312874049 -5.14860732e-09 -6.85275836e-10 -1.30543603e-08
      -7.72382547e-10 0.0570700541 0.21905759 -2.35626703e-05
      0.261742026 -9.01328749e-05 -1.1841802e-09 -1.39357681e-07
      -4.10677239e-05 -3.40405726e-09 -0.000637215562 -0.000245822564
      -1.15602132e-10 -3.02484796e-06 -0.000450957101 -0.000297930208
      -1.46827389e-07 -0.000205798424 -9.87070603e-09 -2.89634008e-05
      -2.47045828e-05 -6.09029848e-06</_>
    <_>
      -2.01233411 -3.23143625 -0.00469959527 -0.00403403072
      -5.46396315e-08 -0.000152251276 -0.00930951908 -0.000440469594
      -0.00157560303 -1.55782323e-06 -1.23181144e-05 -2.23821317e-07
      -6.80076191e-05 -0.00023957518 -0.000149031679 3.32041049
      0.798127711 -0.00231655361 2.07338071 -0.000129989363
      -0.000958536169 -0.000619738596 -0.00363528007 0.0326112211
      -9.80372897e-06 0.18337512 2.03585958 -7.80683968e-06
      -3.58345897e-05 -1.47150267e-05 0.515690565 -0.000163115357
      -0.00411102036 -0.000872894307 -8.06462776e-05 -0.000613707351
      -0.000198553418 -4.55634145e-05 -0.00170839485 -0.000193126965
      -0.000117524112 -0.000640331476 -0.00110623683 -0.000264992588
      0.0136347059 -0.00169889524 -0.000341185398 2.25311279 1.06817448
      -0.00769560272 -0.00139586639 -0.0017426844 -3.89624211e-06
      -0.00765072927 0.640252471 -0.018240517 -0.0191795118
      -0.00258840225 -0.000138509713 -0.00335640251 -0.000524251023
      -0.000683670631 -0.00071380852 2.16770196 -0.0129874498
      -2.54058687e-05 -3.60819431e-05 -1.1811936e-05 -0.00374584063
      -0.00121654384 -0.000571526587 4.45917034 -0.00122668233
      -9.503396e-05 -5.05489106e-06 -0.000935690477 -1.96345409e-05
      0.0568046011 1.39383888 -0.00133166939 -8.36189338e-06
      -1.57764106e-07 -0.000315205194 0.511592448 -0.00263198907
      -0.000559683598 0.032522738 -0.00127043622 -6.44513466e-06
      -0.00717126112 -0.00373309455 -0.000374980125 -0.00460759038
      -0.00576294865 3.05430627 -0.0182315242 -0.000601587992
      -0.00240721437 -0.0051051341 -0.00171577395 -3.76694952e-05
      -0.00775375403 2.76994991 -9.35522735e-07 -8.22242437e-05
      -0.000784422911 2.97319031 -9.22088584e-05 -2.78197404e-05
      -0.000296169543 1.21599376 -0.00156129373 -0.00657584751
      -1.72191012e-05 -5.17682129e-05 -0.00054002367 -6.74574835e-07
      -1.82399731e-06 -0.000143915138 -3.95109346e-05 -0.00617103698
      -5.6108579e-06 -0.00482375128 -0.000513106934 -0.00778280664
      -0.00851732958 -0.00225330307 -0.0134416828 -0.0130942361
      -0.00317586795 -1.37926532e-08 0.591361582 0.363082588
      -7.75415974e-05 -3.768241e-05 0.703213096 0.265727103 0.833583355
      -6.65996902e-09 -0.000183914206 0.82749927 -2.74022477e-06
      -1.67466236e-08 0.425116479 0.815010428 -0.000207323654
      0.137840092 -0.00173719344 -1.02229309e-08 0.0896204114
      -2.23635161e-05 -0.000208061814 -2.51768552e-06 -2.65974109e-06
      0.0961432829 -0.000656232063 -0.000838903827 0.372674048
      -1.02309934e-06 -0.000907277805 -3.65663323e-06 0.0112262052
      0.64754343 0.454218417 0.531745613 -0.00122278975 0.0852051526
      0.24062489 -3.24295324e-05 -0.000409094762 0.430492342 0.893514633
      0.451570719 -0.000228348406 0.600401998 0.325179547 -0.00670309644
      -0.00287350849 -0.000206621844 0.0986748487 0.179189146
      -0.00194440177 -1.34439415e-05 -0.00418967847 -0.000857950188
      -0.00556505425 -0.00309613463 -0.00014220069 -2.58315777e-06
      0.111721709 -1.51844134e-07 -3.40287244e-07 0.219052598 0.39695254
      -1.44115529e-05 -1.76654175e-05 -0.000229139361 -0.000418689306
      0.0973000303 -4.18622861e-08 -3.30209526e-10 -4.89207741e-09
      -2.25191637e-13 -0.000150668406 -8.21865115e-07 -2.27615635e-10
      -9.33663032e-05 0.0604586452 -1.88559461e-05 -0.000257837848
      -0.000143546087 -3.88697263e-05 -1.54886984e-05 0.323188365
      -5.99639634e-07 -7.65543973e-06 0.274445236 -0.000292696845
      0.254906684 -6.74818366e-05 -8.82121894e-05 -0.000910039991
      0.123980425 -5.48243122e-08 0.0782341957 -1.86140937e-06
      -0.000120557081 -3.37777851e-06 -3.06895799e-07 -0.000212544532
      -2.14280007e-07 -3.49363108e-06 0.3105281 -5.15688603e-09
      -6.8535988e-10 -1.30356019e-08 -7.73287268e-10 0.0567534417
      0.219576016 -2.35761599e-05 0.261434048 -9.0163041e-05
      -1.18846999e-09 -1.39500784e-07 -4.10822031e-05 -3.407157e-09
      -0.00063562725 -0.000247625489 -1.15767076e-10 -3.02664762e-06
      -0.000445780897 -0.000297592458 -1.47002012e-07 -0.000205721517
      -9.88064208e-09 -2.8972303e-05 -2.39664078e-05 -6.0932266e-06</_>
    <_>
      -2.14633775 -2.93870163 -0.00478548463 -0.00238623144
      -5.60392053e-08 -0.000149210289 -0.00943550654 -0.00044570677
      -0.00156450318 -1.68741053e-06 -1.26929408e-05 -2.30623101e-07
      -7.03923943e-05 -0.000241492569 -0.00014860458 3.13911152
      0.771628976 -0.00236473279 2.29883432 -0.000130675326
      -0.000994954957 -0.000616799167 -0.00371412607 0.018282786
      -1.02169961e-05 0.217789501 2.04109907 -8.05756918e-06
      -3.72085306e-05 -1.54239242e-05 0.638532639 -0.000164038356
      -0.00410132715 -0.000865380978 -8.18805929e-05 -0.000631924835
      -0.000205420016 -4.62018797e-05 -0.00253707683 -0.0001982541
      -0.000120956931 -0.000635964912 -0.00111978687 -0.000277323241
      0.0120603181 -0.00172513048 -0.000345601205 2.51899076 1.21992421
      -0.00814214814 -0.00141974585 -0.00182689121 -3.80717802e-06
      -0.0077611953 0.470359653 -0.0182649102 -0.0189163852
      -0.00260600913 -7.12154797e-05 -0.00344773964 -0.000540801382
      -0.000675008574 -0.000739884563 2.14372277 -0.0135388812
      -2.53839407e-05 -3.7171576e-05 -1.24596008e-05 -0.00381854386
      -0.00121127209 -0.000583879766 4.31626606 -0.00125196856
      -9.72815833e-05 -4.79594064e-06 -0.000955505122 -1.90246028e-05
      -0.000184985067 1.34259379 -0.00136910658 -8.32839578e-06
      -2.02716834e-07 -0.000324525055 0.436333835 -0.000326376176
      -0.000543639297 0.112896159 -0.00166544016 -6.42718669e-06
      -0.00729229813 -0.00377483689 -0.000378882396 -0.00465270504
      -0.00578281051 3.04240084 -0.018172523 -0.000611923693
      -0.000954584626 -0.00517653115 -0.00176835177 -4.05828323e-05
      -0.00769037241 2.74663377 -9.9262661e-07 -8.26185278e-05
      -0.000798925292 2.98065948 -9.32943076e-05 -2.92340173e-05
      -0.000293938967 1.15935123 -0.00156432064 -0.00676718121
      -1.73016615e-05 -5.42696471e-05 -0.000538656139 -6.83450764e-07
      -1.87694468e-06 -0.000145942395 -4.04375533e-05 -0.0061393613
      -5.77235778e-06 -0.00489905011 -0.000514581159 -0.00779071124
      -0.00859792624 -0.002272974 -0.0135462694 -0.0132284928
      -0.00312689808 -1.35547564e-08 0.572458982 0.360841721
      -7.72261337e-05 -3.645373e-05 0.7318995 0.255972266 0.843025565
      -6.5646244e-09 -0.000185367942 0.845766068 -2.71181966e-06
      -1.65198575e-08 0.438102663 0.839073181 -0.000205728385 0.12042103
      -0.00172960781 -9.85306148e-09 0.0777137727 -2.22438739e-05
      -0.000207278877 -2.53291387e-06 -2.64449795e-06 0.080940932
      -0.000753767788 -0.000927738729 0.329880536 -1.0131813e-06
      -0.0011448859 -3.61528873e-06 0.00463672541 0.633351445 0.45910278
      0.559864521 -0.00130170898 0.0755461901 0.221790299
      -3.22503074e-05 -0.00041075531 0.429263979 0.889659643 0.482569396
      -0.000228289151 0.595349073 0.352526754 -0.00675950292
      -0.00293795997 -0.000416945084 0.0855075642 0.186819285
      -0.00196744222 -1.33678614e-05 -0.00422701659 -0.000886160182
      -0.00568627659 -0.00313723017 -0.000142092438 -2.5535237e-06
      0.0876142606 -1.5142659e-07 -3.36114738e-07 0.229079232
      0.356785566 -1.44142023e-05 -1.76680278e-05 -0.000229149198
      -0.000418437034 0.097206533 -4.18757331e-08 -3.3065703e-10
      -4.89358598e-09 -2.25266325e-13 -0.000150679232 -8.22001311e-07
      -2.27690852e-10 -9.33734045e-05 0.060257569 -1.88584036e-05
      -0.000260182162 -0.000143553829 -3.88737571e-05 -1.54907048e-05
      0.323192477 -5.99750479e-07 -7.65626282e-06 0.274532855
      -0.00029268142 0.254536152 -6.74266048e-05 -9.05442939e-05
      -0.000909487833 0.124577262 -5.48398127e-08 0.0781095624
      -1.85994168e-06 -0.000120566699 -3.3789579e-06 -2.96700165e-07
      -0.00021254184 -2.1435774e-07 -3.49415291e-06 0.310379118
      -5.15908338e-09 -6.85436485e-10 -1.30339002e-08 -7.73539011e-10
      0.055832006 0.218774974 -2.35797506e-05 0.262146801
      -9.01736566e-05 -1.18952748e-09 -1.39543474e-07 -4.10861358e-05
      -3.40790662e-09 -0.000635346747 -0.000249332137 -1.15817397e-10
      -3.02712306e-06 -0.000446634513 -0.000297524035 -1.47048212e-07
      -0.000205732504 -9.8833528e-09 -2.89749387e-05 -2.29642628e-05
      -6.09408517e-06</_>
    <_>
      -2.07298207 -3.15215635 -0.00474435091 -0.00360671896
      -5.44688739e-08 -0.000155083879 -0.00938085001 -0.00044442527
      -0.00155828218 -1.80869188e-06 -1.26870982e-05 -2.28986693e-07
      -7.24757556e-05 -0.000246800511 -0.000147576182 3.212569
      0.95098573 -0.00234395033 2.04574728 -0.000129814856
      -0.000978163909 -0.000608879142 -0.00366640673 0.0538751334
      -1.04533192e-05 0.344528228 2.20421815 -8.24275776e-06
      -3.83218867e-05 -1.46687335e-05 0.490685731 -0.000161660588
      -0.0040556537 -0.000867529539 -8.09082339e-05 -0.00063092669
      -0.00020786954 -4.79704831e-05 -0.00307710911 -0.00019714683
      -0.000119809098 -0.00064401282 -0.00110393763 -0.000272078702
      0.0370801128 -0.00167930289 -0.000343313906 2.22859812 1.12429857
      -0.0086873211 -0.00141822523 -0.00159742322 -3.74202955e-06
      -0.00775083108 0.592950583 -0.0183235276 -0.0194450319
      -0.00260722893 -0.000842680107 -0.00343110203 -0.000553747639
      -0.00064225425 -0.000733326888 2.319525 -0.0127755878
      -2.56439471e-05 -3.67575449e-05 -1.37429797e-05 -0.00371917151
      -0.00122826267 -0.000579033513 4.37222195 -0.00125600852
      -9.60881443e-05 -4.64031882e-06 -0.00095058931 -1.97757108e-05
      0.128079757 1.36060822 -0.00135751627 -8.40617122e-06
      -2.177228e-07 -0.000313594588 0.503663182 -0.0017616743
      -0.000529078476 0.042571485 -0.000647865061 -6.33784475e-06
      -0.00729295891 -0.00381592358 -0.000376036391 -0.00459303614
      -0.00569899799 3.27087188 -0.0180885773 -0.000599081744
      -0.00186847372 -0.00510467216 -0.00178421289 -4.23324745e-05
      -0.00767381769 2.89538884 -1.01114085e-06 -8.16986576e-05
      -0.000796525041 2.90406466 -9.27756337e-05 -2.90051612e-05
      -0.000294341909 1.05946851 -0.0015480289 -0.00726682879
      -1.65235397e-05 -5.37161977e-05 -0.000529736513 -7.04237493e-07
      -1.85628176e-06 -0.000149147789 -4.00075442e-05 -0.00626309635
      -5.83382098e-06 -0.00485123135 -0.000520416244 -0.00646658335
      -0.00855586864 -0.00228697713 -0.0134555204 -0.0127822114
      -0.00312619354 -1.34305589e-08 0.552190542 0.361579865
      -7.72323547e-05 -3.59560509e-05 0.725284934 0.252918422 0.83632648
      -6.51768461e-09 -0.000185153753 0.856122494 -2.73241653e-06
      -1.63428915e-08 0.457643032 0.850102842 -0.000205443605 0.10701602
      -0.00178557122 -9.85646231e-09 0.0690409541 -2.22214076e-05
      -0.000207843957 -2.58144928e-06 -2.62856429e-06 0.0721656829
      -0.000846664014 -0.000967109401 0.295137167 -1.00942486e-06
      -0.00138989324 -3.59818478e-06 -9.97783627e-06 0.620229185
      0.462517619 0.568054914 -0.00139711716 0.0709924847 0.213468537
      -3.21342595e-05 -0.000410765555 0.429974824 0.884988666
      0.504599094 -0.000230004414 0.598131895 0.362165362 -0.00684389751
      -0.00301358476 -0.0006326781 0.07097096 0.190352112 -0.00197879481
      -1.33466338e-05 -0.00423664786 -0.000955752796 -0.00566108106
      -0.00313321035 -0.000141835641 -2.54764518e-06 0.0762840956
      -1.52432406e-07 -3.33937948e-07 0.224260941 0.336682886
      -1.44206415e-05 -1.76789472e-05 -0.000229009253 -0.000418132986
      0.0987381339 -4.19210942e-08 -3.30250993e-10 -4.89780927e-09
      -2.25703299e-13 -0.00015068808 -8.22369827e-07 -2.27735414e-10
      -9.33925476e-05 0.0615597516 -1.88656468e-05 -0.00026023612
      -0.000143558107 -3.88841181e-05 -1.54977679e-05 0.320721328
      -6.00048622e-07 -7.65877485e-06 0.272538006 -0.000292320678
      0.25217104 -6.7665489e-05 -8.63341629e-05 -0.000907049631
      0.124666773 -5.48898313e-08 0.0793712586 -1.85611884e-06
      -0.000120573663 -3.3819606e-06 -2.8578097e-07 -0.000212395986
      -2.14791825e-07 -3.49608649e-06 0.307817936 -5.16599785e-09
      -6.85437096e-10 -1.30140672e-08 -7.74279973e-10 0.0566203967
      0.220392048 -2.35910084e-05 0.260890245 -9.01955646e-05
      -1.19321264e-09 -1.39657033e-07 -4.10981229e-05 -3.41058737e-09
      -0.000633841497 -0.000249298377 -1.15946891e-10 -3.02862827e-06
      -0.000439498108 -0.000297215156 -1.47194214e-07 -0.000205628603
      -9.89155957e-09 -2.89820309e-05 -2.33611827e-05 -6.09642939e-06</_>
    <_>
      -1.80407655 -3.92000008 -0.00489438418 -0.00538730668
      -5.19532009e-08 -0.000133948706 -0.00987153221 -0.00044421191
      -0.00144409947 -2.15262821e-06 -1.31170864e-05 -2.43314901e-07
      -7.75527951e-05 -0.000255974941 -0.000150936306 3.45831466
      1.32906425 -0.00229511177 2.08622742 -0.000137073948
      -0.000945200503 -0.000612836215 -0.00368584925 0.156617984
      -1.0970668e-05 0.707257092 2.60097432 -9.60152101e-06
      -4.04113416e-05 -1.46217335e-05 0.481708318 -0.000156314331
      -0.00299366564 -0.000934536976 -8.60952205e-05 -0.000660069054
      -0.000236765642 -5.12931765e-05 -0.00520699983 -0.000203523407
      -0.000118127777 -0.000605659909 -0.00120500079 -0.000271388795
      0.125419706 -0.00149156118 -0.000333338976 2.19849539 1.04710948
      -0.00972941983 -0.00150334404 -0.00112343382 -3.5244118e-06
      -0.00770207681 0.898226082 -0.0185063519 -0.0201655403
      -0.00274954224 0.0831279978 -0.00356411026 -0.000581274566
      -0.000539785891 -0.000757184811 2.66916251 -0.0115724718
      -2.67400501e-05 -3.55383345e-05 -1.53082747e-05 -0.00384190911
      -0.00127586396 -0.000613045064 4.35744333 -0.00133061211
      -9.30880196e-05 -3.99926921e-06 -0.00102920679 -1.9093055e-05
      0.359224528 1.25854075 -0.00137123384 -8.68625557e-06
      -2.8672676e-07 -0.000305372756 0.612598419 -0.00282489182
      -0.000498495763 0.0725201592 0.0152035207 -6.26276415e-06
      -0.00734479306 -0.00367839145 -0.000386198983 -0.00441498309
      -0.00565252407 3.85186434 -0.0185916554 -0.000610378978
      -0.00332029094 -0.00509925652 -0.0018330618 -4.93515217e-05
      -0.00777080981 3.26686788 -1.11462293e-06 -8.84329784e-05
      -0.000822488335 3.02279806 -9.85714578e-05 -3.1319003e-05
      -0.000311478681 1.31925833 -0.00150879868 -0.0106554208
      -1.62891847e-05 -5.36829721e-05 -0.000572815363 -6.79733432e-07
      -2.11415977e-06 -0.000151797911 -3.96974901e-05 -0.00632290402
      -6.36767254e-06 -0.00493202731 -0.000557936612 -0.00317485863
      -0.00876359362 -0.00238644332 -0.013630718 -0.0121355867
      -0.00309142377 -1.36216416e-08 0.557384968 0.346071333
      -7.67410456e-05 -3.78183649e-05 0.758150458 0.255401194
      0.848482013 -6.70015288e-09 -0.000187267564 0.839005947
      -2.64333562e-06 -1.69245027e-08 0.422828853 0.840212286
      -0.000204953336 0.106744647 -0.00154822262 -9.66576419e-09
      0.0663902983 -2.22594008e-05 -0.000202884432 -2.51785536e-06
      -2.68259282e-06 0.0966873541 -0.000705562648 -0.000802307914
      0.292960793 -1.01908563e-06 -0.0011904228 -3.63674417e-06
      -0.00011133762 0.607362032 0.462361842 0.583020866 -0.00135649391
      0.0965639502 0.222023889 -3.24984394e-05 -0.000410691573
      0.431291968 0.873412192 0.490216196 -0.000225795244 0.610482872
      0.3689031 -0.00686889468 -0.00292089186 -0.000603167748
      0.0759286508 0.189850479 -0.00197601784 -1.33570747e-05
      -0.00420765579 -0.000818828528 -0.00571405096 -0.0031313526
      -0.000141851138 -2.55030045e-06 0.0729588345 -1.55213726e-07
      -3.39779433e-07 0.239490345 0.306293607 -1.4423711e-05
      -1.76823723e-05 -0.000229006138 -0.000417867355 0.098780483
      -4.19377919e-08 -3.30637046e-10 -4.89960339e-09 -2.25812573e-13
      -0.000150699037 -8.22530865e-07 -2.27810562e-10 -9.34009295e-05
      0.0614835843 -1.88686045e-05 -0.000262417656 -0.000143565761
      -3.88888329e-05 -1.55002836e-05 0.32051152 -6.00179533e-07
      -7.65977438e-06 0.27244705 -0.000292274111 0.25162372
      -6.76351992e-05 -8.81301239e-05 -0.000906314701 0.125226945
      -5.49088739e-08 0.0793614835 -1.85439217e-06 -0.000120583332
      -3.38334007e-06 -2.75102195e-07 -0.000212380502 -2.14903338e-07
      -3.49674951e-06 0.307458907 -5.16867926e-09 -6.85511425e-10
      -1.3010772e-08 -7.74582787e-10 0.0558318421 0.21978277
      -2.35953867e-05 0.261442244 -9.02074826e-05 -1.19453547e-09
      -1.39707339e-07 -4.11028886e-05 -3.4115315e-09 -0.000633445045
      -0.000250880665 -1.16005795e-10 -3.02920989e-06 -0.000439671276
      -0.000297123246 -1.47250717e-07 -0.000205629738 -9.8948405e-09
      -2.8985145e-05 -2.24622527e-05 -6.09744575e-06</_>
    <_>
      -1.93206704 -7.49821424 -0.00287685357 -0.00187289144
      -2.14142197e-08 -8.59103675e-05 -0.00698243314 -0.000152750421
      -0.000881054031 -9.43193129e-07 -8.74702164e-06 -1.90859694e-07
      -5.64205366e-05 -0.000205150471 -0.000125459264 1.76055419
      3.5130198 -0.00117815705 1.37750578 -0.00010619979 -0.000789532962
      -0.000366425927 -0.00175733969 0.801009119 -7.06026594e-06
      2.93002987 4.6391573 -1.16800593e-05 -3.39486942e-05
      -8.55498729e-06 0.340247929 -7.9301295e-05 1.42276907
      -0.000863168971 -6.79411023e-05 -0.000383199804 -0.000256112893
      -3.83244405e-05 -0.00373257697 -0.000128414424 -6.52105373e-05
      -0.000415882241 -0.000763124612 -0.000310388335 0.232580438
      -0.000695746159 -0.000215991487 1.1685164 1.82165742 0.272847652
      -0.000912958873 0.0248717219 -1.70763292e-06 -0.00422442472
      0.682657301 -0.0165792182 -0.00431589969 -0.00190904702
      0.545055091 -0.00172441418 -0.000298348779 -0.000219331298
      -0.000274982158 4.14285851 1.21101964 -2.87424045e-05
      -1.79225972e-05 -1.22690062e-05 -0.00222551287 -0.00105891679
      -0.000559548964 3.92120314 -0.000939602905 -4.19341814e-05
      -1.48059928e-06 -0.000940018857 -1.78229275e-05 2.25143433
      -0.00108878233 -0.000609780604 -7.2525213e-06 -1.71061615e-07
      -8.2904975e-05 0.253949821 -0.00109849428 -0.000278752501
      1.08235168 0.78021878 -3.36108428e-06 -0.00497644953
      -0.00157688896 -0.000219589434 -0.00222970825 -0.00483821379
      6.99045086 -0.0154530406 -0.000546028605 -0.00209316052
      -0.00293656019 -0.00122387114 -3.68866276e-05 -0.00677203527
      5.20189667 -1.20120387e-06 -5.43658425e-05 -0.000786858727
      1.88668084 -7.73556822e-05 -2.87356215e-05 -0.000208350786
      1.33558035 -0.000739413488 -0.0183604993 -1.01041405e-05
      -3.15786783e-05 -0.000445763639 -5.70840484e-07 -1.7645192e-06
      -0.000137622847 -2.02967785e-05 -0.00515741995 -4.65793801e-06
      -0.00218171929 -0.000534679973 1.70874453 -0.00824151468
      -0.00148711947 -0.0135184228 0.425272703 -0.00325922575
      -1.3748239e-08 0.586550593 0.329311222 -7.57974485e-05
      -4.09132699e-05 0.766706347 0.254458278 0.840757608
      -6.85507606e-09 -0.000186320685 0.80354166 -2.49680079e-06
      -1.762848e-08 0.38741827 0.825105548 -0.000208684141 0.11919307
      -0.00125698443 -9.75716841e-09 0.0655017197 -2.23874158e-05
      -0.000197382004 -2.37331756e-06 -2.68224335e-06 0.110379227
      -0.000691770576 -0.000479844341 0.330685854 -1.02772094e-06
      -0.00118029246 -3.68643782e-06 -0.000117929667 0.611451209
      0.473965913 0.557388961 -0.0013710577 0.120607451 0.260295987
      -3.16926489e-05 -0.000413774775 0.426627904 0.852734029
      0.449952871 -0.00022914265 0.648978055 0.356775999 -0.00660585286
      -0.0028615382 -0.000353804848 0.0731273666 0.18601808
      -0.00199847086 -1.3468074e-05 -0.00420388579 -0.000886359427
      -0.00560328411 -0.00313620083 -0.000140191449 -2.53123812e-06
      0.0918634981 -1.59852306e-07 -3.45027274e-07 0.227427915
      0.352908343 -1.44517207e-05 -1.77206257e-05 -0.000228728095
      -0.000415919552 0.101880521 -4.21094839e-08 -3.31885047e-10
      -4.91683982e-09 -2.27198062e-13 -0.00015077267 -8.24057679e-07
      -2.28283878e-10 -9.34803684e-05 0.0635299981 -1.88975373e-05
      -0.000273939921 -0.000143613623 -3.89327433e-05 -1.55265843e-05
      0.314782083 -6.01418094e-07 -7.66966878e-06 0.268232226
      -0.000291357137 0.244322613 -6.79230288e-05 -8.96601341e-05
      -0.000897925638 0.128332242 -5.51014914e-08 0.0816823691
      -1.83826944e-06 -0.00012064667 -3.39612689e-06 -1.99394407e-07
      -0.000212027167 -2.16296129e-07 -3.50381538e-06 0.300777674
      -5.19556842e-09 -6.85894064e-10 -1.29563471e-08 -7.7754464e-10
      0.0531830974 0.219636217 -2.36392298e-05 0.261980861
      -9.03105538e-05 -1.20831167e-09 -1.40181413e-07 -4.11500951e-05
      -3.42145845e-09 -0.000628563226 -0.000259098713 -1.16554405e-10
      -3.03505158e-06 -0.000427212042 -0.000296067505 -1.4781773e-07
      -0.000205441349 -9.92725724e-09 -2.90146036e-05 -1.85044155e-05
      -6.10711777e-06</_>
    <_>
      -0.857442141 -11.8729143 -0.00322767464 0.721640408
      -1.29722508e-08 -8.61829903e-05 -0.00816745684 -0.000111771922
      -0.000717772928 -5.25405426e-07 -8.78512401e-06 -2.96450509e-07
      -5.36549414e-05 -0.000191826475 -0.000135097638 0.336529016
      5.3955555 -0.00115990965 0.538812637 -0.000108490509
      -0.00122548686 -0.000440810225 -0.00168332958 0.984118223
      -9.36358356e-06 4.80213642 6.56824446 -1.17143354e-05
      -3.79093508e-05 -9.52269966e-06 0.182654768 -5.57911299e-05
      2.68416286 -0.00104361994 -6.55998811e-05 -0.000286549504
      -0.000311173906 -4.09414388e-05 -0.00593187101 -0.000146560938
      -5.33529928e-05 -0.000421674922 -0.000799578498 -0.000326676934
      0.139559582 -0.000638541358 -0.000298569066 0.538211346 2.91266203
      0.708673656 -0.000898822327 -0.000401569676 -1.41791065e-06
      -0.00383763504 -0.00265877717 -0.0176840536 0.642222226
      -0.00196633791 0.297960341 -0.00142386078 -0.000324172404
      -0.000240662645 -0.000183743265 5.53521729 2.70095396
      -2.43258055e-05 -1.67657308e-05 -1.24078497e-05 -0.00247344468
      -0.00120919454 -0.000537933898 3.3006053 -0.00121830497
      -2.03615582e-05 -1.47484332e-06 -0.000969800632 -2.07663179e-05
      3.74937201 -0.00837952737 -0.000628049136 -7.92107494e-06
      -1.63298751e-07 -4.33935202e-05 0.0425156094 0.174981803
      -0.0002745417 1.77928638 0.594908297 -4.41914608e-06
      -0.00434710691 -0.00230382802 -0.000219943598 -0.00205482915
      -0.0058395355 10.0111742 -0.0186734162 -0.000693802023 0.305247337
      -0.00334380567 -0.00133317872 -3.72657487e-05 -0.00798095297
      7.10320663 -1.30362241e-06 -4.91711107e-05 -0.000841557048
      1.13919425 -9.00691812e-05 -3.54307849e-05 -0.000233844388
      0.678319156 -0.000699954748 -0.0195040349 -1.12255575e-05
      -2.52709906e-05 -0.000502564479 -6.50932748e-07 -3.03055231e-06
      -0.000148234452 -2.1657328e-05 -0.00601600017 -4.96534085e-06
      -0.00161537051 -0.000635270611 3.10034084 -0.0091925431
      -0.00176881731 -0.0121785458 1.66142344 -0.00320468121
      -1.36749856e-08 0.541260362 0.288202792 -7.44063e-05
      -4.37781018e-05 0.779250145 0.266085714 0.829769492
      -7.05790271e-09 -0.000191719169 0.802863061 -2.34576441e-06
      -1.83808275e-08 0.393980324 0.858209848 -0.000207349294
      0.0972674266 -0.000879121944 -9.55557322e-09 0.0304580629
      -2.23976967e-05 -0.000187369762 -2.37657787e-06 -2.70638134e-06
      0.0933908969 -0.0005930076 -0.000167799968 0.249339551
      -1.03583807e-06 -0.00158632069 -3.71245778e-06 -0.000275934057
      0.582457662 0.498479187 0.583426714 -0.00163856335 0.149405107
      0.277344465 -3.13238597e-05 -0.000417744275 0.413270205
      0.829575658 0.505839825 -0.000225119293 0.685765624 0.34699446
      -0.00660237903 -0.00298057543 -0.000798333727 0.022225149
      0.216298297 -0.00202939031 -1.35267883e-05 -0.00418867916
      -0.000976786716 -0.00535241701 -0.00316718337 -0.000139361175
      -2.50041512e-06 0.046031028 -1.69324849e-07 -3.49942667e-07
      0.209086865 0.284106076 -1.44530495e-05 -1.77245183e-05
      -0.000228640551 -0.000415967312 0.102825567 -4.21233821e-08
      -3.3126632e-10 -4.91791097e-09 -2.2737972e-13 -0.000150768261
      -8.24147094e-07 -2.2824366e-10 -9.34850032e-05 0.0644393712
      -1.88994873e-05 -0.000271930534 -0.000143609301 -3.89350826e-05
      -1.55288235e-05 0.313384712 -6.01489887e-07 -7.67037091e-06
      0.267030835 -0.000291166973 0.243311241 -6.81059755e-05
      -8.5254942e-05 -0.000897030521 0.127863184 -5.51162316e-08
      0.0825023279 -1.83738905e-06 -0.000120642238 -3.39679536e-06
      -2.02095251e-07 -0.00021194719 -2.16473424e-07 -3.50445271e-06
      0.299462855 -5.1975575e-09 -6.85827783e-10 -1.29466446e-08
      -7.77743703e-10 0.0544296578 0.22124508 -2.36424585e-05
      0.260651708 -9.03136752e-05 -1.2094713e-09 -1.40208357e-07
      -4.11534384e-05 -3.42231887e-09 -0.000627958041 -0.000257595297
      -1.16583715e-10 -3.03548723e-06 -0.000422443438 -0.00029595269
      -1.47859922e-07 -0.000205373144 -9.92953364e-09 -2.90163134e-05
      -1.96008841e-05 -6.10769348e-06</_>
    <_>
      -0.127536133 -12.430418 -0.00337765692 1.02995038 -1.43006798e-08
      -8.7216431e-05 -0.00853788294 -0.000127003863 -0.000762502314
      -9.50834362e-07 -9.57500197e-06 -3.20955479e-07 -5.71271812e-05
      -0.000202485768 -0.000143667843 -0.00234342134 5.5811615
      -0.00126138481 0.360147059 -0.000106009757 -0.00130092003
      -0.000463914679 -0.00167884596 0.879015803 -1.09257371e-05
      5.04854202 6.75663614 -1.22323318e-05 -3.9524235e-05
      -1.02374051e-05 0.193058848 -4.99928647e-05 2.75112796
      -0.00108468777 -7.31232358e-05 -0.000297588878 -0.000314405072
      -4.49106083e-05 -0.00491508888 -0.000177967551 -4.49608997e-05
      -0.000429927488 -0.000846883398 -0.000371667848 0.0586209558
      -0.000676691066 -0.000329854782 0.398428857 3.26098371 0.945369482
      -0.000980945188 -0.00078844995 -1.54193629e-06 -0.00392112648
      -0.00939297397 -0.0169719961 0.960228741 -0.00198741863
      0.378266782 -0.00148212374 -0.000439051713 -0.000308519258
      -0.000198851616 5.6894784 2.84194756 -2.91637389e-05
      -2.05624292e-05 -1.47548872e-05 -0.00250321534 -0.00125340489
      -0.000573989237 3.00584006 -0.00138922373 -1.82649983e-05
      -1.52701671e-06 -0.00108525308 -2.22158724e-05 3.8351841
      -0.0115247322 -0.000676981697 -8.05082527e-06 -4.08480361e-07
      -4.46490012e-05 -0.00219754898 0.664128602 -0.000272767997
      1.95376587 0.688525915 -4.64927052e-06 -0.00435339147
      -0.00251571205 -0.000234294785 -0.00206935499 -0.00604969729
      10.4001579 -0.0191049576 -0.000779711001 0.614945531
      -0.00346727064 -0.00141569076 -4.91004103e-05 -0.00766773336
      7.30684948 -1.59235503e-06 -5.47808777e-05 -0.000855506514
      0.884541392 -9.06076166e-05 -3.6541569e-05 -0.000247159624
      0.441894084 -0.000694134738 -0.0196998194 -1.21566745e-05
      -3.82424914e-05 -0.000551865669 -7.67624726e-07 -3.14164845e-06
      -0.000166170503 -2.28770114e-05 -0.00640478916 -5.38339827e-06
      -0.0013311659 -0.000679976249 3.20210242 -0.00924390368
      -0.00174272503 -0.013296104 1.85222268 -0.00324313226
      -1.39656402e-08 0.468958378 0.247710556 -7.3005147e-05
      -4.61263262e-05 0.792774796 0.314941794 0.851260126
      -7.44466755e-09 -0.000197326008 0.78966856 -2.19422645e-06
      -1.97324734e-08 0.359578133 0.837193072 -0.000206600962
      0.0913828239 -0.00061226805 -9.15738507e-09 -2.7514845e-05
      -2.25347794e-05 -0.000177946742 -2.34810113e-06 -2.7761796e-06
      0.123809949 -0.000611522468 -0.000165398713 0.17553851
      -1.06208734e-06 -0.0019619416 -3.7897023e-06 -0.000580540334
      0.533343673 0.519388437 0.602719307 -0.00188862823 0.17174609
      0.290306002 -3.12894517e-05 -0.000415438844 0.409566164
      0.794571579 0.538168252 -0.000217491775 0.713247061 0.38615343
      -0.00653792312 -0.0027497001 -0.000766497862 -0.000307046081
      0.222111285 -0.00201175944 -1.36650515e-05 -0.00410362333
      -0.000660335761 -0.00555000314 -0.00313472562 -0.000139158175
      -2.50259291e-06 0.03320086 -1.76916274e-07 -3.61412191e-07
      0.221789926 0.209076941 -1.44638925e-05 -1.77411657e-05
      -0.000228467092 -0.000415337388 0.104732096 -4.21949444e-08
      -3.31149469e-10 -4.92480723e-09 -2.28018749e-13 -0.000150789769
      -8.24753329e-07 -2.28371363e-10 -9.35165081e-05 0.0659510195
      -1.89111997e-05 -0.000274122605 -0.000143621975 -3.89523084e-05
      -1.55398848e-05 0.310169995 -6.01980901e-07 -7.67440724e-06
      0.264512271 -0.000290682103 0.239896759 -6.83673279e-05
      -8.1877668e-05 -0.000893342483 0.128518164 -5.51957626e-08
      0.0840292349 -1.8310443e-06 -0.000120660166 -3.40180054e-06
      -1.78349438e-07 -0.000211754435 -2.17111108e-07 -3.50745563e-06
      0.295993119 -5.20859977e-09 -6.85901447e-10 -1.29192692e-08
      -7.78942244e-10 0.0546210408 0.222620219 -2.36604501e-05
      0.259659171 -9.03519976e-05 -1.21525268e-09 -1.40395841e-07
      -4.11726905e-05 -3.42650708e-09 -0.000625737302 -0.000259095919
      -1.16799001e-10 -3.0378892e-06 -0.000413919683 -0.000295486709
      -1.4809298e-07 -0.000205247736 -9.94273464e-09 -2.9027995e-05
      -1.92070565e-05 -6.11154155e-06</_>
    <_>
      -0.54513061 -11.8872995 -0.00324964314 0.733502924 -1.21446337e-08
      -8.04290976e-05 -0.00826374907 -0.00011221724 -0.000747416925
      -6.28763189e-07 -8.63085734e-06 -3.01287201e-07 -5.30436191e-05
      -0.000192457912 -0.000140035772 0.0660603419 5.4114027
      -0.00115860405 0.600977302 -0.000101764366 -0.00125057809
      -0.000430991524 -0.00157588476 0.952605009 -9.55537325e-06
      4.86400366 6.58169889 -1.1938655e-05 -3.61170096e-05
      -8.93500419e-06 0.233038485 -5.02843686e-05 2.75583005
      -0.00106240273 -6.74807743e-05 -0.000287798641 -0.00030131705
      -3.94831077e-05 -0.00521640666 -0.000150869077 -4.58484537e-05
      -0.000388250715 -0.000815132225 -0.000323006097 0.0978113264
      -0.000617856393 -0.000301586319 0.617635608 3.042449 0.825415671
      -0.000913009455 -0.0005221506 -1.42724218e-06 -0.00367880752
      -0.00585649395 -0.0164741464 0.721012712 -0.00194694323
      0.304823965 -0.00141553325 -0.00033715539 -0.000247114716
      -0.000170096886 5.55528736 2.74296856 -2.69072116e-05
      -1.69115119e-05 -1.19533834e-05 -0.00238935021 -0.00119465776
      -0.000541496265 3.15873694 -0.00129120471 -1.60344061e-05
      -1.3581132e-06 -0.00101060176 -1.99117621e-05 3.75891829
      -0.00958040077 -0.000618464313 -7.48738921e-06 -2.226937e-07
      -4.11578767e-05 -0.000730492175 0.401079535 -0.000254774262
      1.8268615 0.593042195 -4.56323323e-06 -0.00412475038
      -0.00216369983 -0.00021929256 -0.00190090516 -0.00572078116
      10.0448236 -0.0184492152 -0.000700673845 0.372717619 -0.0032941883
      -0.00133178534 -3.97702206e-05 -0.00766303344 7.09774399
      -1.39442579e-06 -4.8359816e-05 -0.000815448991 1.01378608
      -8.70522563e-05 -3.43268803e-05 -0.00023535153 0.474138945
      -0.000643805484 -0.0196235348 -1.11779764e-05 -2.76932897e-05
      -0.000514566083 -6.7983126e-07 -2.9839548e-06 -0.000148856474
      -2.14101037e-05 -0.00601285556 -5.12228462e-06 -0.00136957609
      -0.000645631226 3.16514158 -0.00894471165 -0.00163556135
      -0.0123544512 1.72436285 -0.00307599176 -1.38182461e-08 0.52082777
      0.282873631 -7.45231009e-05 -4.42882047e-05 0.779374123
      0.269905627 0.833418429 -7.15015291e-09 -0.00019164267 0.794658303
      -2.35689004e-06 -1.86140152e-08 0.381577492 0.845123708
      -0.000207061021 0.105923928 -0.000940779049 -9.51090406e-09
      0.0401945338 -2.24528521e-05 -0.000184726843 -2.36945971e-06
      -2.72487728e-06 0.107915193 -0.000568107178 -0.000286625553
      0.239074782 -1.04385674e-06 -0.00156403624 -3.73397006e-06
      -0.000437766168 0.576190531 0.506389678 0.582946956 -0.00168343587
      0.153847978 0.279898137 -3.14515601e-05 -0.000416493072
      0.417823464 0.824777484 0.503886461 -0.000222776885 0.697479844
      0.353311807 -0.00655111065 -0.00292772148 -0.000727182778
      0.0120944306 0.224145308 -0.00199795421 -1.35159953e-05
      -0.00415887777 -0.000846160867 -0.00540191634 -0.00315908017
      -0.000139046533 -2.51603478e-06 0.0583840832 -1.70131315e-07
      -3.52911798e-07 0.21419923 0.254868299 -1.4460612e-05
      -1.77333877e-05 -0.000228617559 -0.000415342889 0.103100598
      -4.2165702e-08 -3.32077754e-10 -4.92238605e-09 -2.27672644e-13
      -0.000150793654 -8.24547385e-07 -2.28415481e-10 -9.35058342e-05
      0.0644219071 -1.89068924e-05 -0.000276810752 -0.000143626821
      -3.89467568e-05 -1.55352282e-05 0.312629223 -6.01815032e-07
      -7.67287929e-06 0.266596109 -0.000291022094 0.24181293
      -6.80654775e-05 -8.87849892e-05 -0.000895115139 0.129126698
      -5.51642998e-08 0.0826294422 -1.83311488e-06 -0.000120664532
      -3.40020483e-06 -1.77194593e-07 -0.000211896069 -2.16771397e-07
      -3.50614846e-06 0.29836297 -5.20431387e-09 -6.85991208e-10
      -1.29369795e-08 -7.78502152e-10 0.0527601689 0.220075846
      -2.36534852e-05 0.261740327 -9.03427208e-05 -1.21283528e-09
      -1.40333213e-07 -4.11654073e-05 -3.42472561e-09 -0.000626902562
      -0.000261125388 -1.16729501e-10 -3.03695288e-06 -0.000422005192
      -0.000295712991 -1.48002272e-07 -0.000205363773 -9.93776794e-09
      -2.90240478e-05 -1.76397152e-05 -6.11022278e-06</_>
    <_>
      -1.33107042 -10.5272417 -0.00313365413 0.321842998 -1.39254164e-08
      -7.76682136e-05 -0.00796093885 -0.000116474373 -0.000827712473
      -6.78675406e-07 -8.51959612e-06 -2.71240708e-07 -5.79717598e-05
      -0.000204409473 -0.000142203833 0.822974443 4.72105837
      -0.00110958202 0.686939359 -0.000110249239 -0.00108951284
      -0.000409423577 -0.00159553031 0.947740257 -8.9904679e-06
      4.15230799 5.87629128 -1.27664616e-05 -3.85018466e-05
      -8.31099533e-06 0.0101569928 -6.73298346e-05 2.40077758
      -0.00103109691 -6.97320575e-05 -0.000320581486 -0.000302588625
      -3.87432119e-05 -0.00430989033 -0.000132651752 -5.93363948e-05
      -0.000383733015 -0.000815204752 -0.000304995163 0.210509345
      -0.000592139433 -0.000267512951 0.681990743 2.64066505 0.592126608
      -0.000926239416 0.00401782803 -1.50026926e-06 -0.0039107874
      -0.00109961536 -0.0169865694 0.190593287 -0.00199822895
      0.487896591 -0.00149082928 -0.000314838107 -0.000175120396
      -0.000184403136 5.00905704 2.109447 -2.84544039e-05
      -1.59937445e-05 -1.1720882e-05 -0.0024268995 -0.00116322457
      -0.000525907439 3.32671881 -0.00116820517 -2.5448624e-05
      -1.3788989e-06 -0.000994301168 -1.97519676e-05 3.18909812
      -0.00730469171 -0.000592912838 -7.58990927e-06 -1.23453248e-07
      -4.42658638e-05 0.0218503512 0.152509242 -0.00026490353 1.63768804
      0.713119924 -4.09553104e-06 -0.00428476371 -0.00186813844
      -0.000218695699 -0.00196609087 -0.00540546654 8.87553406
      -0.0176607016 -0.000572939869 0.05276452 -0.00318452972
      -0.00133924303 -3.70055604e-05 -0.00737632019 6.35428905
      -1.26718157e-06 -4.91029859e-05 -0.000840103836 1.23474085
      -8.71227749e-05 -3.23408494e-05 -0.000224577903 0.676772535
      -0.000683019869 -0.0190512575 -1.05891631e-05 -2.55059349e-05
      -0.000521824695 -6.87265697e-07 -2.54184852e-06 -0.000148747757
      -2.07834055e-05 -0.00587584591 -5.10682867e-06 -0.00167635665
      -0.00063516869 2.63407063 -0.00875633582 -0.00156488433
      -0.0137474276 1.19405556 -0.00343170133 -1.3890098e-08 0.51987648
      0.3054066 -7.48086532e-05 -4.20728393e-05 0.769557357 0.27342239
      0.829621792 -7.12571335e-09 -0.00019062146 0.796917498
      -2.40027498e-06 -1.85749549e-08 0.389979601 0.846032739
      -0.000205503209 0.114150949 -0.00115488819 -9.49121493e-09
      0.0462165251 -2.24875748e-05 -0.000187000231 -2.38536381e-06
      -2.72166562e-06 0.106566563 -0.000680929865 -0.000491737621
      0.26437673 -1.04624633e-06 -0.00144379458 -3.73348985e-06
      -0.000344592467 0.584645808 0.511773229 0.578980923 -0.00160182535
      0.131744251 0.283517987 -3.11264594e-05 -0.000412987196
      0.425054848 0.830287695 0.506822467 -0.000220702626 0.682312489
      0.350731462 -0.00656725047 -0.00289996527 -0.000576555554
      0.0232973099 0.230506897 -0.00197042827 -1.35491528e-05
      -0.00414749654 -0.000801871938 -0.00538135972 -0.00314739929
      -0.00013843691 -2.53236112e-06 0.0659997612 -1.6567482e-07
      -3.53136471e-07 0.212079883 0.273686588 -1.44575379e-05
      -1.77301154e-05 -0.000228615012 -0.000415618793 0.103114292
      -4.21494306e-08 -3.31639494e-10 -4.92060659e-09 -2.2757222e-13
      -0.000150782056 -8.24387428e-07 -2.28335739e-10 -9.34975033e-05
      0.0645582527 -1.89039765e-05 -0.000274402148 -0.000143618628
      -3.89420529e-05 -1.55327834e-05 0.312758356 -6.01684917e-07
      -7.67189613e-06 0.266613811 -0.000291057455 0.242320612
      -6.81093588e-05 -8.66190676e-05 -0.000895814737 0.128509626
      -5.51456587e-08 0.0826896429 -1.83483132e-06 -0.000120654273
      -3.39882968e-06 -1.88278491e-07 -0.000211906721 -2.16667985e-07
      -3.50550772e-06 0.29865393 -5.20168042e-09 -6.8591216e-10
      -1.29397968e-08 -7.78203169e-10 0.0536632687 0.220811158
      -2.36491869e-05 0.261076897 -9.03306136e-05 -1.21154897e-09
      -1.40283177e-07 -4.1160718e-05 -3.42380968e-09 -0.000627272355
      -0.000259376247 -1.1667077e-10 -3.03638285e-06 -0.000421514356
      -0.00029580004 -1.47946864e-07 -0.000205358083 -9.93453764e-09
      -2.90209537e-05 -1.86476063e-05 -6.10921325e-06</_>
    <_>
      -1.99436271 -8.79921055 -0.00286411634 -0.00130362506
      -1.65599072e-08 -8.58063795e-05 -0.00740841916 -0.000132492598
      -0.00094867486 -8.19924708e-07 -8.54511291e-06 -2.29471851e-07
      -5.84599584e-05 -0.000220282076 -0.000133825495 1.58320427
      3.96017766 -0.0010825193 0.853831649 -0.000111067886
      -0.000924849359 -0.000377869786 -0.00160984637 0.829762399
      -7.83875112e-06 3.3652873 5.04217243 -1.25601664e-05
      -3.42253115e-05 -7.83851829e-06 -1.27594913e-05 -7.97578105e-05
      1.74033189 -0.000947545399 -7.41054318e-05 -0.000377596414
      -0.000292094337 -3.88092558e-05 -0.00364772114 -0.000126325263
      -6.49521025e-05 -0.000428499799 -0.000786342542 -0.000333428005
      0.257148474 -0.0006226275 -0.000214519867 0.870023131 2.0813396
      0.194941103 -0.000930833863 0.0247886702 -1.62500419e-06
      -0.00406159041 0.380219162 -0.0169284176 -0.00191428838
      -0.00198293221 0.60017401 -0.00157722225 -0.000294200319
      -0.000169948908 -0.000222975665 4.4214921 1.4989624
      -3.23080785e-05 -1.69260329e-05 -1.20283848e-05 -0.00235708361
      -0.00110114075 -0.000565025664 3.70878243 -0.00106974191
      -3.50058035e-05 -1.53495262e-06 -0.00099955278 -1.95450757e-05
      2.64194989 -0.00413583638 -0.000592196651 -7.30023294e-06
      -1.28871335e-07 -5.96870595e-05 -0.000108790882 -0.000663221232
      -0.000276950072 1.30137634 0.999445617 -3.49574316e-06
      -0.00463937549 -0.00154841063 -0.000215653563 -0.00214064354
      -0.00524687394 7.63858986 -0.0165067613 -0.000551336561
      -0.00173481565 -0.00301001873 -0.00130010978 -3.72166141e-05
      -0.00687682116 5.55940723 -1.24096027e-06 -5.38303611e-05
      -0.000843545422 1.61389387 -8.08831755e-05 -3.05513749e-05
      -0.000211558989 1.08458173 -0.000722474128 -0.0185099766
      -1.01361838e-05 -2.88912433e-05 -0.000495057902 -6.45523812e-07
      -1.9571437e-06 -0.000147281404 -1.9995754e-05 -0.00544336019
      -4.88483283e-06 -0.0019248341 -0.000582931505 2.01276588
      -0.00858292356 -0.00151642726 -0.0151022673 0.683006167
      -0.00358940498 -1.38674521e-08 0.494007707 0.309704512
      -7.51045445e-05 -4.10725152e-05 0.779265165 0.293098509
      0.842670619 -7.04171388e-09 -0.000191498009 0.8098979
      -2.44160765e-06 -1.83268423e-08 0.388688862 0.838147581
      -0.000204368785 0.121256538 -0.0013528734 -9.34630418e-09
      0.0499017388 -2.23977113e-05 -0.000188360063 -2.42513192e-06
      -2.71492104e-06 0.109802157 -0.000794546446 -0.000695738709
      0.259199947 -1.04337062e-06 -0.00140534132 -3.70470775e-06
      -0.000429864362 0.579647541 0.522084177 0.591327429 -0.00159426569
      0.118018076 0.283832461 -3.14539975e-05 -0.000412346941
      0.435224563 0.832634628 0.504122555 -0.000218391491 0.672093153
      0.378256917 -0.00672321301 -0.00287242397 -0.000563892303
      0.0147442594 0.223844349 -0.00194839831 -1.34655129e-05
      -0.00415228773 -0.000732172048 -0.00558237405 -0.0031647915
      -0.000138871343 -2.5319448e-06 0.0639951304 -1.64737756e-07
      -3.50188998e-07 0.227443516 0.253286362 -1.44515607e-05
      -1.77225047e-05 -0.000228654462 -0.000416071853 0.102664895
      -4.21143191e-08 -3.31191435e-10 -4.91699481e-09 -2.27307607e-13
      -0.000150764216 -8.24066092e-07 -2.28217986e-10 -9.34807758e-05
