<?xml version="1.0"?>
<opencv_storage>
<opencv_ml_svm>
  <format>3</format>
  <svmType>EPS_SVR</svmType>
  <kernel>
    <type>RBF</type>
    <gamma>0.0050000000000000001</gamma></kernel>
  <C>1.</C>
  <p>0.001</p>
  <term_criteria><iterations>10000</iterations></term_criteria>
  <var_count>258</var_count>
  <sv_total>572</sv_total>
  <support_vectors>
    <_>
      -1.88021183 -9.26007748 -0.00459600333 -0.00668069348
      -3.89505814e-08 -0.000233184808 -0.00954422727 -0.000381220132
      -0.00121962873 -2.17448132e-06 -1.43362986e-05 -2.83277672e-07
      -8.63049645e-05 -0.000323403219 -0.000175830646 1.99611259
      4.35248375 -0.00204594946 0.911170304 -0.000177006033
      -0.00127609225 -0.000592763477 -0.00336657604 0.278228134
      -1.35225764e-05 3.78512239 5.60798216 -2.06018212e-05
      -4.53754874e-05 -1.9653402e-05 -0.000920565275 -0.00013847035
      1.1623137 -0.00116473192 -0.000105529354 -0.000600106956
      -0.000343207066 -7.64268261e-05 -0.00562858162 -0.000213657317
      -0.000113657639 -0.000851125456 -0.00126315141 -0.000384455692
      -0.00179291808 -0.00105605158 -0.000299412379 1.8187418 2.8585124
      -0.0116365748 -0.00153873558 -0.00128259289 -3.5099763e-06
      -0.00697321398 -0.00211390993 -0.0251515377 -0.0174300205
      -0.00273153139 0.0556342825 -0.00334148691 -0.00065966486
      -0.000379699428 -0.000544422306 4.43830585 1.49050653
      -3.54691547e-05 -3.50542541e-05 -2.75890088e-05 -0.00424982514
      -0.00154918001 -0.000623306085 2.32893133 -0.0012713779
      -8.66244227e-05 -3.89014713e-06 -0.00115972385 -3.23638887e-05
      3.22117996 1.50644517 -0.00112125382 -1.12777134e-05
      -2.40048593e-07 -0.000127023377 -0.00112303405 -0.00607820787
      -0.000584473717 1.04301858 0.257229865 -5.61362276e-06
      -0.00651126029 -0.0039736405 -0.000367116038 -0.00423358427
      -0.00652017957 8.77907276 -0.0219368935 -0.000728943851
      0.526397467 -0.00446767593 -0.00194959238 -5.91205608e-05
      -0.00832602475 5.97224808 -1.25167821e-06 -0.00010508507
      -0.0011430016 1.57624817 -0.000130932181 -4.46679187e-05
      -0.000390825677 -0.00177129859 -0.00151430024 -0.00558936037
      -1.65184738e-05 -5.48142598e-05 -0.000789762242 -9.65271965e-07
      -2.71326576e-06 -0.000230132413 -3.40699662e-05 -0.0085241301
      -7.12333076e-06 -0.00327089964 -0.000792383333 2.09943509
      -0.00886053592 -0.00324975164 -0.0185269117 0.894756377
      -0.00440666499 -1.35594593e-08 0.678700864 0.685973704
      -7.60119146e-05 -6.1695675e-05 0.325430512 -0.00307366066
      0.612365901 -7.56618945e-09 -0.000150223728 0.118993454
      -2.71423778e-06 -2.06269295e-08 0.42973429 0.461541921
      -0.000216009226 -0.0012632414 -0.00239859428 -1.21396955e-08
      0.352105319 -2.44303574e-05 -0.000211290229 -2.46636091e-06
      -2.57964234e-06 0.6823138 -0.00217166427 -0.00709298532
      0.210321099 -1.04687115e-06 -0.00112592662 -4.00583713e-06
      0.154380649 0.585506678 0.448417813 0.343470305 -0.000286970258
      0.293323755 -0.000721404562 -2.52138143e-05 -0.000413420785
      0.201881766 0.426824272 0.738432586 -0.000337481237 0.55777365
      0.860246301 0.183355168 -0.00110807538 -0.000424765749 0.458122641
      0.205920458 -0.00186822622 -1.41172995e-05 -0.00398694258
      0.19541049 -0.00492903171 -0.00234752684 -0.000128602522
      -2.47955199e-06 0.4483172 -1.85640374e-07 -3.58284922e-07
      0.135656849 0.711567402 -1.50085125e-05 -1.87161877e-05
      -0.000214636151 -0.000392720947 0.253525943 -4.617279e-08
      -2.77522838e-10 -5.28837951e-09 -2.68034184e-13 -0.000151306624
      -8.56322572e-07 -2.30724495e-10 -9.51487018e-05 0.196233153
      -1.9537385e-05 -0.000210206505 -0.000143788653 -3.98329321e-05
      -1.61614407e-05 0.0741454735 -6.27466193e-07 -7.89252408e-06
      0.0712634102 -0.000256202038 0.0250247605 -9.32892581e-05
      0.0392101407 -0.000675160729 0.11884746 -5.95648935e-08
      0.208049446 -1.5093334e-06 -0.000121032659 -3.6579238e-06
      5.98111656e-05 -0.000197671441 -2.56676458e-07 -3.67851931e-06
      0.056005124 -5.81190474e-09 -6.84902135e-10 -1.1111565e-08
      -8.4315771e-10 0.157426819 0.400483042 -2.46402506e-05 0.117964998
      -9.21377432e-05 -1.5389332e-09 -1.50095303e-07 -4.22116973e-05
      -3.66279207e-09 -0.000488818449 -0.000207741585 -1.27883606e-10
      -3.16907563e-06 0.0294750445 -0.000267410855 -1.60828947e-07
      -0.000194848268 -1.06553122e-08 -2.96349081e-05 -8.87902643e-05
      -6.31222019e-06</_>
    <_>
      -1.83455169 -9.24860191 -0.00463666674 -0.00592308678
      -3.87946493e-08 -0.000235125932 -0.009587924 -0.000369516638
      -0.00123941223 -1.99801889e-06 -1.40827342e-05 -2.88942033e-07
      -8.52769372e-05 -0.000319490791 -0.000178939197 1.95137703
      4.37026978 -0.00203969912 0.993197083 -0.000175303852
      -0.00127096823 -0.000586495735 -0.00338677596 0.228847265
      -1.31865672e-05 3.80258822 5.61942053 -2.09505106e-05
      -4.51246488e-05 -1.96309174e-05 -7.57956877e-05 -0.000142943361
      1.12178957 -0.00115481147 -0.000105083636 -0.000602890621
      -0.00034467777 -7.45616999e-05 -0.00515661482 -0.000207365782
      -0.000113688111 -0.000862933055 -0.00124600367 -0.000378666329
      -0.00216321438 -0.00106796157 -0.000303844979 1.78500831
      2.97591877 -0.0123505928 -0.00151620968 -0.00141082983
      -3.44527666e-06 -0.00707884366 -0.00360279484 -0.0251016449
      -0.0174000543 -0.0027497937 0.0934301615 -0.00334601803
      -0.000641914434 -0.000408431428 -0.000538100197 4.43039227
      1.48915029 -3.69002519e-05 -3.45768058e-05 -2.70875844e-05
      -0.00421063136 -0.00153484265 -0.00061621581 2.21541715
      -0.00127134786 -8.65638067e-05 -3.94148356e-06 -0.00113536941
      -3.23317036e-05 3.18684888 1.49361372 -0.00112309249
      -1.11404806e-05 -2.13626592e-07 -0.000128818327 -0.00157525123
      -0.00460121734 -0.000574895064 1.0908618 0.316506565
      -5.54461076e-06 -0.00650847889 -0.00399994943 -0.00036231734
      -0.00425019395 -0.00655708695 8.78853607 -0.0220005512
      -0.000724896905 0.61813283 -0.00447510602 -0.00194766338
      -5.66429808e-05 -0.00811295584 5.96388054 -1.2399928e-06
      -0.000103552498 -0.00115680764 1.58600461 -0.000126614847
      -4.43167592e-05 -0.000388516171 -0.00287749083 -0.00151205494
      -0.00524874125 -1.63322929e-05 -5.44252107e-05 -0.000786671473
      -9.41235044e-07 -2.6204998e-06 -0.000226954289 -3.44034815e-05
      -0.00858908426 -7.12473729e-06 -0.00326989521 -0.000778696442
      2.07739711 -0.00882834662 -0.00319367554 -0.0189537182 0.923593223
      -0.00441942411 -1.34699683e-08 0.656902134 0.684438765
      -7.58872338e-05 -6.25022294e-05 0.350032657 -0.00297411904
      0.608844876 -7.48896234e-09 -0.000152064706 0.110328756
      -2.69284874e-06 -2.0546862e-08 0.446868241 0.447588474
      -0.000216848304 -0.00135560299 -0.0021994838 -1.18243459e-08
      0.337338775 -2.44555249e-05 -0.000212237646 -2.47335038e-06
      -2.5512777e-06 0.710574746 -0.00214744359 -0.00725767575
      0.192824885 -1.04228002e-06 -0.00126338028 -3.97753865e-06
      0.149019271 0.566044807 0.448194504 0.335662693 -0.00040680106
      0.312396139 -0.000597370148 -2.50437461e-05 -0.000417009811
      0.218198121 0.431497902 0.766093373 -0.00034045137 0.563004136
      0.886232615 0.189807117 -0.00111067656 -0.000481180497 0.436271161
      0.20903571 -0.00189072848 -1.40861184e-05 -0.00398874469
      0.209053636 -0.0049394737 -0.00235667033 -0.000130499422
      -2.45549359e-06 0.444277972 -1.86056582e-07 -3.55160864e-07
      0.131722733 0.696929514 -1.50123487e-05 -1.87209043e-05
      -0.000214607731 -0.000392392336 0.253709197 -4.61948986e-08
      -2.77740525e-10 -5.29067368e-09 -2.68206952e-13 -0.000151316388
      -8.56527038e-07 -2.30816394e-10 -9.51588445e-05 0.196286097
      -1.95411885e-05 -0.000212310362 -0.000143794809 -3.98388511e-05
      -1.61647895e-05 0.0737195238 -6.27631152e-07 -7.89382284e-06
      0.0709803849 -0.000256094179 0.0242577605 -9.33187184e-05
      0.0390887111 -0.000674189709 0.119376302 -5.95898975e-08 0.208159
      -1.50742108e-06 -0.000121041085 -3.65968299e-06 6.10697316e-05
      -0.000197626883 -2.56843322e-07 -3.67941675e-06 0.0554215871
      -5.81550452e-09 -6.8504602e-10 -1.11074279e-08 -8.43551229e-10
      0.156743348 0.400039732 -2.46459585e-05 0.118364766
      -9.21508617e-05 -1.54067514e-09 -1.50158669e-07 -4.22178164e-05
      -3.66404707e-09 -0.000488236605 -0.000209369915 -1.27960809e-10
      -3.16983778e-06 0.0295363348 -0.000267259486 -1.60903383e-07
      -0.000194828361 -1.06595559e-08 -2.96388807e-05 -8.81116794e-05
      -6.31350531e-06</_>
    <_>
      -2.00218797 -9.09420681 -0.00443079462 -0.00852793641
      -3.82198877e-08 -0.000229427882 -0.00930513535 -0.00036832827
      -0.00122984417 -2.08870779e-06 -1.39504118e-05 -2.71353031e-07
      -8.3960309e-05 -0.000326211593 -0.000172947737 2.24312544
      4.29919338 -0.00200144015 1.01801038 -0.000173965876
      -0.00122121256 -0.000565651979 -0.00326349703 0.285146087
      -1.28284546e-05 3.70702457 5.56528902 -2.07220892e-05
      -4.48833453e-05 -1.94289332e-05 -0.000391662004 -0.00013608158
      1.1409899 -0.00112369563 -0.000102685051 -0.000592660392
      -0.000334509648 -7.33121124e-05 -0.00621928694 -0.000205491975
      -0.00011055568 -0.000852378143 -0.00120406563 -0.000379615667
      -0.0017314048 -0.00107426778 -0.000293635239 1.85728073 2.7596705
      -0.011057727 -0.00147904677 -0.0012359143 -3.46299043e-06
      -0.00691304775 -0.000242535534 -0.0251145046 -0.0183015801
      -0.00263710157 0.0562650971 -0.0032340351 -0.000628623704
      -0.000360380596 -0.000531830185 4.41937923 1.44531429
      -3.59474361e-05 -3.39286344e-05 -2.70343735e-05 -0.00404395862
      -0.00151587673 -0.000635389064 2.42643476 -0.00122155447
      -8.30339341e-05 -3.7829443e-06 -0.00112949521 -3.15194484e-05
      3.19070005 1.64482415 -0.00109255384 -1.11177351e-05
      -2.30025691e-07 -0.000115210321 -0.000153393776 -0.00716270413
      -0.00056200946 0.971723914 0.281792402 -5.26339454e-06
      -0.00645339582 -0.00388035434 -0.000354637858 -0.00414680829
      -0.00640924321 8.70284748 -0.0214577448 -0.000697286043
      0.413005114 -0.00430725794 -0.00189997116 -5.69335534e-05
      -0.00814245548 5.92923069 -1.24989776e-06 -0.000103823251
      -0.00112150097 1.6606102 -0.000123132006 -4.39448195e-05
      -0.000376459997 -0.00130583136 -0.00148611853 -0.00547185121
      -1.59459014e-05 -5.24942443e-05 -0.00074154418 -9.3354555e-07
      -2.54454699e-06 -0.000220631002 -3.29749309e-05 -0.00838984083
      -6.84737688e-06 -0.0032754764 -0.000748637831 2.05905008
      -0.00870157871 -0.00317179761 -0.0185873732 0.831473291
      -0.00443510106 -1.35625413e-08 0.67916733 0.686600149
      -7.59852701e-05 -6.23933156e-05 0.346758783 -0.00325876637
      0.616098881 -7.56382867e-09 -0.00015072494 0.101970561
      -2.69364045e-06 -2.06791011e-08 0.433317184 0.460355997
      -0.000215606269 -0.00144292414 -0.00213236595 -1.207572e-08
      0.341433764 -2.45962456e-05 -0.000212008075 -2.46588547e-06
      -2.57169995e-06 0.718443215 -0.00237267744 -0.00732895592
      0.197018415 -1.04686058e-06 -0.00124014704 -4.00948647e-06
      0.148388371 0.566530704 0.433685005 0.322540194 -0.000350271352
      0.319367021 -0.000642509607 -2.51738365e-05 -0.000414062844
      0.204764485 0.412481099 0.751001418 -0.000338991435 0.554745376
      0.895872235 0.212683618 -0.00104181643 -0.000273066486 0.455061495
      0.165965319 -0.00191201025 -1.40998673e-05 -0.0039804047
      0.233113915 -0.00510054361 -0.00232690293 -0.00013090334
      -2.47365961e-06 0.444852084 -1.86691707e-07 -3.57540245e-07
      0.136506021 0.727890313 -1.50112983e-05 -1.87157748e-05
      -0.000214757922 -0.000392240734 0.25221765 -4.61781369e-08
      -2.78994217e-10 -5.28958344e-09 -2.67937744e-13 -0.000151329732
      -8.56439499e-07 -2.30899314e-10 -9.51547627e-05 0.194793701
      -1.95390749e-05 -0.000216517816 -0.000143806552 -3.98367483e-05
      -1.61620337e-05 0.0758589655 -6.27562031e-07 -7.89303158e-06
      0.072872512 -0.000256405358 0.0256540831 -9.29777234e-05
      0.038292218 -0.000675331859 0.120394222 -5.95726668e-08
      0.206843942 -1.50801884e-06 -0.000121053825 -3.65907613e-06
      6.18334161e-05 -0.000197763089 -2.56590653e-07 -3.67860798e-06
      0.0573682524 -5.81313531e-09 -6.85117574e-10 -1.11212097e-08
      -8.43334902e-10 0.154397875 0.39720571 -2.46422587e-05 0.120749697
      -9.2151422e-05 -1.53926749e-09 -1.50133161e-07 -4.22141275e-05
      -3.6629868e-09 -0.000489083584 -0.000212408544 -1.2793204e-10
      -3.16933256e-06 0.0287542138 -0.000267434196 -1.60854327e-07
      -0.000194948603 -1.06570459e-08 -2.96371909e-05 -8.58226049e-05
      -6.31293778e-06</_>
    <_>
      -2.02190709 -8.65560818 -0.0042474987 -0.00932507869
      -3.74557061e-08 -0.000233067083 -0.00898187235 -0.000355584489
      -0.00125737011 -2.08534334e-06 -1.37190736e-05 -2.61839318e-07
      -8.20379282e-05 -0.00031960808 -0.000164569821 2.28520608
      4.15161276 -0.0019366882 1.23720407 -0.000169304636 -0.00120689254
      -0.00054896262 -0.00318269478 0.268475771 -1.25990236e-05
      3.57153416 5.41367102 -2.04942189e-05 -4.3390628e-05
      -1.9753581e-05 0.0771664381 -0.000133796901 1.15438962
      -0.0010668406 -0.000100930571 -0.00058942422 -0.000330973591
      -7.13416812e-05 -0.00531868497 -0.000198107693 -0.000109160115
      -0.000849584525 -0.00116014318 -0.000375403673 -0.00200918806
      -0.00110082154 -0.000277628511 1.9514544 2.68839765 -0.0108794626
      -0.00142961659 -0.00114945229 -3.48380968e-06 -0.00674261386
      0.0290825292 -0.0247549023 -0.0184264872 -0.00253192801
      0.126665264 -0.0031115741 -0.00061170425 -0.000372091046
      -0.000529415382 4.28994894 1.36385214 -3.58824545e-05
      -3.34215729e-05 -2.66702009e-05 -0.00389781222 -0.00143494061
      -0.000627597037 2.4258399 -0.00119288254 -8.2217608e-05
      -3.76072489e-06 -0.00110439421 -3.09028328e-05 3.06559658
      1.69520807 -0.00106971897 -1.09641205e-05 -2.29463254e-07
      -0.000117467695 0.0576508157 -0.00765017979 -0.000554536586
      0.949219584 0.341372252 -5.09668735e-06 -0.00640321476
      -0.00376495137 -0.000341645471 -0.00410858681 -0.00634981878
      8.48646069 -0.0209907666 -0.000684979314 0.423577964
      -0.00420800783 -0.0018320143 -5.55372317e-05 -0.00795294251
      5.76663017 -1.27514227e-06 -0.000100594822 -0.00112127827
      1.75153995 -0.000120371522 -4.30036016e-05 -0.000361479615
      -0.00104506884 -0.00144960638 -0.00536475889 -1.57370541e-05
      -5.15139982e-05 -0.000703949598 -9.28318912e-07 -2.40000099e-06
      -0.000212844665 -3.19681276e-05 -0.00811284408 -6.50516768e-06
      -0.00324463937 -0.000719228236 1.941764 -0.00864141528
      -0.00303063495 -0.0185157303 0.76492691 -0.00437184097
      -1.35422891e-08 0.685030878 0.690033376 -7.62434065e-05
      -6.23076558e-05 0.333461642 -0.00316492305 0.611872792
      -7.54211271e-09 -0.000151677144 0.111124747 -2.71515978e-06
      -2.05546336e-08 0.427157819 0.461280495 -0.000215998545
      -0.0014000407 -0.00206216355 -1.2012519e-08 0.335951626
      -2.45327865e-05 -0.000212648549 -2.47179173e-06 -2.57324518e-06
      0.704303741 -0.00230216491 -0.00730518624 0.199991852
      -1.04460185e-06 -0.00122110278 -4.0046807e-06 0.146544144
      0.5695737 0.431825846 0.322274148 -0.00036384369 0.315748155
      -0.000630932162 -2.51971978e-05 -0.000416210969 0.204364955
      0.415421277 0.750572324 -0.000337526348 0.567136526 0.872033119
      0.212530941 -0.00102704775 -0.000264338072 0.451444179 0.171579391
      -0.00190908846 -1.40661823e-05 -0.00398682477 0.224668592
      -0.00511374697 -0.00233853492 -0.000130753513 -2.47186972e-06
      0.447522044 -1.84961166e-07 -3.5724625e-07 0.134554058 0.722636342
      -1.50135847e-05 -1.87180358e-05 -0.000214761385 -0.000392010377
      0.252121747 -4.61897791e-08 -2.79311851e-10 -5.29088418e-09
      -2.68008895e-13 -0.000151337852 -8.56556767e-07 -2.30969424e-10
      -9.51606271e-05 0.194614813 -1.95411885e-05 -0.000218452769
      -0.000143812169 -3.9840208e-05 -1.61637672e-05 0.0758929029
      -6.27656902e-07 -7.8937428e-06 0.0729621872 -0.000256381318
      0.0253656693 -9.29473972e-05 0.0381014608 -0.000674877432
      0.120875098 -5.95860818e-08 0.206726268 -1.50688993e-06
      -0.000121061013 -3.66010636e-06 6.27411064e-05 -0.0001977543
      -2.56660627e-07 -3.67906227e-06 0.0572746918 -5.81508441e-09
      -6.85219603e-10 -1.11205587e-08 -8.43554337e-10 0.153629899
      0.396520942 -2.46453565e-05 0.121343166 -9.21598548e-05
      -1.54017266e-09 -1.50169754e-07 -4.2217489e-05 -3.66363251e-09
      -0.000488834514 -0.000213873602 -1.27976948e-10 -3.1697441e-06
      0.0286816992 -0.000267363008 -1.60894572e-07 -0.000194953187
      -1.06593809e-08 -2.96394737e-05 -8.50637443e-05 -6.31367311e-06</_>
    <_>
      -1.97755539 -8.83980083 -0.00442480249 -0.00913903862
      -3.74050799e-08 -0.000226333621 -0.00923745893 -0.000367387809
      -0.0012391865 -2.06191362e-06 -1.37188063e-05 -2.7246702e-07
      -8.26818141e-05 -0.000314429606 -0.000169485415 2.21132684
      4.18370295 -0.0019732276 1.10028458 -0.000170424071 -0.00122592889
      -0.000562556437 -0.00324804988 0.263316095 -1.27293042e-05
      3.62550259 5.4536128 -1.98899434e-05 -4.29398933e-05
      -1.96677884e-05 -0.000510448241 -0.00013496996 1.18871236
      -0.00111177971 -0.000103077939 -0.000589934061 -0.000331444578
      -7.23458434e-05 -0.00504009891 -0.000201998977 -0.000109100678
      -0.00082492549 -0.00122734881 -0.000365394575 -0.00216292194
      -0.00106698216 -0.000287817005 1.95494986 2.71321082 -0.0119317938
      -0.00148053956 -0.00117002241 -3.46675438e-06 -0.00678669615
      -0.00127606629 -0.0244006645 -0.0189443398 -0.00262977555
      0.0698206425 -0.00322651607 -0.00062015088 -0.00040147375
      -0.000530687394 4.28558302 1.41522038 -3.4730303e-05
      -3.36420562e-05 -2.60990273e-05 -0.003995921 -0.00146654027
      -0.00060406694 2.34141803 -0.00123923912 -8.21167341e-05
      -3.75274999e-06 -0.00111029716 -3.04271689e-05 3.11598134
      1.70833051 -0.00108290161 -1.07603801e-05 -2.27855296e-07
      -0.000121953672 -0.000125999708 -0.00699750008 -0.000549195975
      0.94307816 0.286091149 -5.40273004e-06 -0.0063511706
      -0.00381790241 -0.000352597679 -0.00408587046 -0.00631040893
      8.53790474 -0.0211730003 -0.00071502931 0.469693244 -0.00429156283
      -0.00185063772 -5.62166788e-05 -0.0080598034 5.7838726
      -1.26385089e-06 -0.000102628888 -0.0011143689 1.67950189
      -0.000123947946 -4.31549852e-05 -0.000380076322 -0.00249204994
      -0.00146207958 -0.00534240529 -1.54553381e-05 -5.23984381e-05
      -0.000754782115 -9.39550262e-07 -2.52277437e-06 -0.000216594257
      -3.27520829e-05 -0.00820535794 -6.84454199e-06 -0.00322839664
      -0.000742774166 2.00468636 -0.00870228466 -0.00306662964
      -0.0182281043 0.833502531 -0.00427654712 -1.33460114e-08
      0.712701976 0.704297602 -7.68359896e-05 -6.31541261e-05
      0.326167166 -0.00347706676 0.604684591 -7.41806927e-09
      -0.000149654428 0.100934915 -2.7846545e-06 -2.00207957e-08
      0.439031601 0.499626756 -0.000215189197 -0.00133573497
      -0.00216329121 -1.22418236e-08 0.367502689 -2.43357281e-05
      -0.000212767161 -2.55358054e-06 -2.56157932e-06 0.697871089
      -0.00231849286 -0.00714654569 0.204332069 -1.03134857e-06
      -0.000943367544 -3.97565373e-06 0.135039926 0.593305945
      0.422101766 0.331277788 -0.000262366288 0.322789073
      -0.000820916262 -2.55453815e-05 -0.000416224822 0.190548256
      0.423040092 0.758943975 -0.000340977742 0.537229061 0.852010489
      0.211003542 -0.001187457 -0.000546821684 0.46472764 0.176138833
      -0.00193098269 -1.39693411e-05 -0.00402180431 0.225508481
      -0.00498283561 -0.00236009853 -0.000130146655 -2.47306366e-06
      0.456083804 -1.84908075e-07 -3.53007124e-07 0.125536919
      0.724373877 -1.5013261e-05 -1.87178357e-05 -0.000214756466
      -0.000392050511 0.252179444 -4.61884646e-08 -2.79226198e-10
      -5.29071364e-09 -2.68005778e-13 -0.000151336193 -8.56541135e-07
      -2.30956115e-10 -9.51598413e-05 0.194686219 -1.95409229e-05
      -0.000218019122 -0.000143810961 -3.98397315e-05 -1.61635799e-05
      0.075825572 -6.27644226e-07 -7.89365549e-06 0.072893098
      -0.000256375934 0.0253721289 -9.29621674e-05 0.0381553583
      -0.000674914452 0.12076769 -5.95845044e-08 0.206782371
      -1.50704511e-06 -0.000121059529 -3.6599647e-06 6.2580104e-05
      -0.000197751709 -2.56657131e-07 -3.67901544e-06 0.0572336987
      -5.81485038e-09 -6.85202006e-10 -1.11202656e-08 -8.43526526e-10
      0.15382117 0.396711767 -2.46449836e-05 0.121178247 -9.21585306e-05
      -1.54007351e-09 -1.50164823e-07 -4.22170742e-05 -3.66356345e-09
      -0.0004888486 -0.000213549429 -1.27970801e-10 -3.16969522e-06
      0.0287160464 -0.000267369003 -1.60889769e-07 -0.000194948982
      -1.06590923e-08 -2.96391681e-05 -8.52512749e-05 -6.31357534e-06</_>
    <_>
      -2.01946378 -8.55934048 -0.00448485557 -0.00909241568
      -3.99491213e-08 -0.000229967787 -0.00927010644 -0.000374358933
      -0.00126646436 -2.05826564e-06 -1.3836383e-05 -2.73002854e-07
      -8.19242414e-05 -0.000313974975 -0.000167900434 2.29897857
      4.10173655 -0.00201281067 1.25108051 -0.000172134445
      -0.00122799061 -0.000568223477 -0.00333873322 0.246853143
      -1.27151488e-05 3.53770065 5.39742804 -1.98662838e-05
      -4.4170305e-05 -1.96014807e-05 0.0362439416 -0.000136810719
      1.09738016 -0.00109839323 -0.000101600053 -0.000602222804
      -0.000332723692 -7.29777166e-05 -0.00612893933 -0.000200861425
      -0.000112913214 -0.000838595559 -0.00121526257 -0.000374716154
      -0.00193495315 -0.00109065801 -0.000299175124 2.03582501
      2.72569323 -0.012200457 -0.00146680616 -0.00133839599
      -3.4747984e-06 -0.00698558986 -0.00115285919 -0.0245692339
      -0.0190063417 -0.00264420733 0.0537370294 -0.00334257982
      -0.000616216217 -0.000384676328 -0.000548453827 4.27348995
      1.28182375 -3.55504271e-05 -3.42987878e-05 -2.71401113e-05
      -0.00407627737 -0.00147521985 -0.000624222215 2.40818572
      -0.00122885243 -8.51685181e-05 -3.83676161e-06 -0.00111671456
      -3.10743999e-05 3.02346039 1.72748566 -0.00110832439
      -1.10142119e-05 -2.23767998e-07 -0.00012224738 0.0208375044
      -0.00709617417 -0.000560141751 0.915808976 0.196588442
      -5.34988658e-06 -0.00649671257 -0.00387439365 -0.000354036572
      -0.00418322487 -0.00628483482 8.4423418 -0.0211899299
      -0.00071739353 0.465706885 -0.00433325861 -0.00188319921
      -5.57198255e-05 -0.00783930626 5.75875092 -1.24629037e-06
      -0.000103709317 -0.00111448183 1.83161771 -0.000122728001
      -4.40354124e-05 -0.000380934769 -0.00222302857 -0.00149011146
      -0.00487938104 -1.59028259e-05 -5.22375049e-05 -0.000739535841
      -9.02203226e-07 -2.47442335e-06 -0.000218870919 -3.3123677e-05
      -0.00825693179 -6.80801668e-06 -0.00337279518 -0.00073155365
      1.92701507 -0.00874147378 -0.00311972364 -0.0183755755 0.740768552
      -0.00434590038 -1.33696139e-08 0.716120243 0.701899767
      -7.69815597e-05 -6.25166867e-05 0.32139796 -0.00343191624
      0.607611895 -7.41990203e-09 -0.000150339867 0.111400597
      -2.79272399e-06 -1.99866736e-08 0.425839543 0.50253129
      -0.00021596982 -0.00138663198 -0.00211458537 -1.21185089e-08
      0.363496065 -2.43844952e-05 -0.000212955856 -2.53097346e-06
      -2.56477506e-06 0.697727025 -0.00234035612 -0.00726376148
      0.200987324 -1.03106686e-06 -0.00102476869 -3.98088923e-06
      0.137101099 0.591488838 0.418524295 0.318686903 -0.000282461726
      0.319875538 -0.000720084878 -2.55221512e-05 -0.000417965872
      0.188567311 0.415390164 0.756287873 -0.000338610116 0.557977319
      0.845376968 0.219414055 -0.00109749311 -0.000327255606 0.46336472
      0.161729634 -0.00192952028 -1.39378299e-05 -0.00403201114
      0.23513779 -0.00515051465 -0.00236829533 -0.000130750195
      -2.47169828e-06 0.456405431 -1.82615111e-07 -3.53087728e-07
      0.129058868 0.730609536 -1.5011803e-05 -1.87130026e-05
      -0.000214880158 -0.000391983718 0.250967562 -4.61715786e-08
      -2.80184542e-10 -5.28947686e-09 -2.67764272e-13 -0.000151345201
      -8.56438533e-07 -2.31006894e-10 -9.51549591e-05 0.193494767
      -1.9538631e-05 -0.000221012902 -0.000143819256 -3.98371085e-05
      -1.61608496e-05 0.0775904357 -6.27562599e-07 -7.89281694e-06
      0.0744387731 -0.000256640109 0.0266032498 -9.26870271e-05
      0.0375436693 -0.000675977615 0.121488817 -5.95667764e-08
      0.205722332 -1.50783012e-06 -0.00012106826 -3.65919777e-06
      6.29803981e-05 -0.000197866902 -2.56429729e-07 -3.67822827e-06
      0.0588712879 -5.81238746e-09 -6.85235368e-10 -1.11318625e-08
      -8.4329127e-10 0.152072936 0.394537538 -2.46411237e-05 0.123003811
      -9.21568426e-05 -1.53867441e-09 -1.50134298e-07 -4.22131598e-05
      -3.66251895e-09 -0.000489614438 -0.00021569361 -1.27935454e-10
      -3.16917067e-06 0.0280861557 -0.000267532101 -1.60838781e-07
      -0.000195047542 -1.06564118e-08 -2.96371818e-05 -8.35466708e-05
      -6.31291641e-06</_>
    <_>
      -2.06873393 -8.80805779 -0.0046102847 -0.010586109 -3.7626311e-08
      -0.000224211879 -0.00966662355 -0.000367223402 -0.00126712606
      -2.06690765e-06 -1.39449485e-05 -2.89876084e-07 -8.57876657e-05
      -0.000319591898 -0.000176740505 2.40991664 4.17312288
      -0.00202209759 1.05917346 -0.000173066364 -0.0012466308
      -0.0005798731 -0.00331432093 0.277802169 -1.27552994e-05 3.5953536
      5.44787836 -1.94778804e-05 -4.37795861e-05 -1.94580552e-05
      -0.000964003499 -0.000141758603 1.11871004 -0.00116202445
      -0.000106736763 -0.000614578312 -0.000330919545 -7.20324606e-05
      -0.00428495649 -0.000207141784 -0.000108847875 -0.000813862716
      -0.00127997086 -0.000356139644 -0.00205249689 -0.00109230145
      -0.000303377135 1.92811632 2.66942263 -0.0119306743 -0.00154735625
      -0.00111332955 -3.42048088e-06 -0.00691330992 -0.000566825387
      -0.02415343 -0.0193764474 -0.00276869116 0.0686813444
      -0.00329565373 -0.000648055458 -0.000412453432 -0.000530143967
      4.30716133 1.36973512 -3.56525597e-05 -3.35781406e-05
      -2.54481602e-05 -0.00403381838 -0.00150504813 -0.000608668663
      2.4695549 -0.00132264104 -8.26687974e-05 -3.68297469e-06
      -0.00112090644 -2.99006897e-05 3.10994959 1.79639351
      -0.00112712197 -1.07164633e-05 -2.29132269e-07 -0.000133773952
      0.0605381094 -0.00760578271 -0.000538858527 0.915723026
      0.294014573 -5.6508934e-06 -0.00641383557 -0.00383360405
      -0.000365591462 -0.00416370342 -0.00632698042 8.49656773
      -0.0216074176 -0.000727028586 0.400061488 -0.00448185531
      -0.001926517 -5.64116963e-05 -0.00811664481 5.78725338
      -1.28967235e-06 -9.9128476e-05 -0.00110781484 1.75812685
      -0.000123519887 -4.24606842e-05 -0.000384820916 -0.00239968346
      -0.00145659433 -0.00533537846 -1.51162385e-05 -5.28684141e-05
      -0.000785775017 -9.48022034e-07 -2.53957251e-06 -0.000220663307
      -3.44203982e-05 -0.00826718938 -7.2775324e-06 -0.00340304035
      -0.000773181964 1.99738359 -0.0088305464 -0.00308227842
      -0.0186305717 0.795193553 -0.00423869584 -1.32576821e-08
      0.744811714 0.708993435 -7.74148284e-05 -6.24784807e-05
      0.302612096 -0.00359417824 0.614419758 -7.36006411e-09
      -0.00014898798 0.123203211 -2.84160797e-06 -1.96647356e-08
      0.419082284 0.529023826 -0.000216063374 -0.00139179558
      -0.00225368165 -1.22377601e-08 0.388260543 -2.42450878e-05
      -0.000212871018 -2.55839427e-06 -2.565655e-06 0.680940807
      -0.00230540801 -0.00719609438 0.20244725 -1.02273714e-06
      -0.000935905613 -3.97279564e-06 0.139116839 0.611633301
      0.411501229 0.322778702 -0.00019207118 0.314786464 -0.000881259853
      -2.58206874e-05 -0.00041803217 0.168816611 0.412995219 0.753258049
      -0.000338667334 0.551520228 0.827422142 0.219296426 -0.0010673207
      -0.000333948701 0.477046102 0.151546329 -0.00193348015
      -1.38729774e-05 -0.00407329388 0.233769774 -0.00519639533
      -0.00239484734 -0.00012991218 -2.47110779e-06 0.469997853
      -1.81171742e-07 -3.50893316e-07 0.130715281 0.741334617
      -1.50140895e-05 -1.87152655e-05 -0.000214883621 -0.00039175342
      0.250871658 -4.61832208e-08 -2.80502205e-10 -5.29077715e-09
      -2.67835396e-13 -0.000151353321 -8.56555857e-07 -2.31076977e-10
      -9.51608163e-05 0.193315864 -1.95407447e-05 -0.000222947856
      -0.000143824873 -3.98405646e-05 -1.61625831e-05 0.077624388
      -6.27657471e-07 -7.89352816e-06 0.0745284632 -0.000256616069
      0.0263148528 -9.26567009e-05 0.0373529121 -0.000675523188
      0.121969707 -5.95801914e-08 0.205604658 -1.50670121e-06
      -0.000121075449 -3.660228e-06 6.38880301e-05 -0.000197858099
      -2.56499703e-07 -3.67868256e-06 0.0587777421 -5.81433657e-09
      -6.85337398e-10 -1.11312106e-08 -8.4351065e-10 0.15130496
      0.39385277 -2.46442196e-05 0.123597279 -9.21652754e-05
      -1.5395798e-09 -1.50170891e-07 -4.22165176e-05 -3.66316466e-09
      -0.000489365426 -0.000217158653 -1.27980349e-10 -3.16958267e-06
      0.0280136354 -0.000267460913 -1.60879054e-07 -0.00019505214
      -1.06587468e-08 -2.96394628e-05 -8.27878102e-05 -6.31365174e-06</_>
    <_>
      -2.08095264 -8.67574406 -0.00441587903 -0.0117928879
      -3.81352265e-08 -0.000227285549 -0.0092865061 -0.000356611155
      -0.00129302603 -2.07322182e-06 -1.36621384e-05 -2.76486247e-07
      -8.35184183e-05 -0.000314144301 -0.000169370876 2.50870156
      4.14156246 -0.00197441853 1.1269865 -0.000171285792 -0.00122982136
      -0.000564699352 -0.00326224859 0.295783937 -1.25573215e-05
      3.55045676 5.41349268 -1.93415945e-05 -4.44443976e-05
      -1.93578035e-05 0.0191320069 -0.000138095478 1.14585781
      -0.00110442075 -0.000102971811 -0.000604816538 -0.000331273593
      -7.20783792e-05 -0.00556658022 -0.000199612827 -0.000110918656
      -0.000832461403 -0.001211892 -0.000358325749 -0.0017174707
      -0.0010673122 -0.000300240092 1.94255066 2.55609012 -0.012369697
      -0.00147454126 -0.00112327887 -3.39597864e-06 -0.00681421626
      0.141719282 -0.0242378674 -0.0198438 -0.00267686811 0.025546547
      -0.00324470061 -0.000614542223 -0.000369413785 -0.000526356278
      4.30366659 1.34590495 -3.59357655e-05 -3.31218253e-05
      -2.67284086e-05 -0.00390874175 -0.0014742827 -0.000609074952
      2.5647068 -0.00124977459 -8.31610014e-05 -3.70722728e-06
      -0.00110666349 -3.02224817e-05 3.09888506 1.81169891
      -0.00110700959 -1.07839023e-05 -2.29646901e-07 -0.000122404934
      0.158182308 -0.00865603425 -0.000534694642 0.867930174 0.309908628
      -5.30794387e-06 -0.00620637415 -0.00374034909 -0.000349536072
      -0.00412121462 -0.00623524049 8.44777012 -0.0211162306
      -0.000717278162 0.338305235 -0.00434342446 -0.00189256785
      -5.57604217e-05 -0.0077554523 5.76640797 -1.2863236e-06
      -9.81691628e-05 -0.00109714153 1.90049899 -0.000120121716
      -4.27740524e-05 -0.000372869341 -0.000978438184 -0.00144635479
      -0.00518546673 -1.51280155e-05 -5.09667443e-05 -0.000737923488
      -9.0772096e-07 -2.34406025e-06 -0.000217641442 -3.34774522e-05
      -0.00809744466 -6.89237822e-06 -0.00341437873 -0.000739260809
      1.97777176 -0.00873468537 -0.00304987375 -0.0183871053 0.754213095
      -0.00427424908 -1.32232465e-08 0.742888391 0.706224024
      -7.74144719e-05 -6.22008156e-05 0.315506548 -0.00366105582
      0.627973139 -7.3525448e-09 -0.000149369444 0.122611634
      -2.84527982e-06 -1.96465457e-08 0.42124325 0.543926299
      -0.000214772299 -0.00146677787 -0.00222660066 -1.20522605e-08
      0.388711452 -2.42555016e-05 -0.000212175451 -2.55329064e-06
      -2.56139538e-06 0.683051884 -0.00229062536 -0.00718513969
      0.189190388 -1.02093861e-06 -0.00102806697 -3.97248459e-06
      0.141612291 0.610912263 0.410709858 0.328611314 -0.000209136066
      0.305585861 -0.000933444186 -2.57412066e-05 -0.000419657008
      0.164859742 0.40683639 0.765562594 -0.000337103294 0.544838428
      0.841493964 0.222963288 -0.00101245625 -0.000200583221 0.473892778
      0.145837337 -0.00193327037 -1.38648875e-05 -0.00408190396
      0.242210478 -0.00524445903 -0.00239430042 -0.000130666915
      -2.46632135e-06 0.465212733 -1.80401926e-07 -3.50254055e-07
      0.13521266 0.736234367 -1.5013502e-05 -1.87145579e-05
      -0.000214887448 -0.000391804555 0.250849575 -4.61798741e-08
      -2.80463874e-10 -5.29042943e-09 -2.67809727e-13 -0.000151351764
      -8.56524707e-07 -2.310626e-10 -9.51592665e-05 0.193312645
      -1.95401662e-05 -0.000222625691 -0.000143823869 -3.9839666e-05
      -1.61620774e-05 0.0776821524 -6.27632403e-07 -7.8933308e-06
      0.0745655373 -0.00025663164 0.0264244769 -9.2653303e-05
      0.0373727903 -0.000675669056 0.121889472 -5.95764043e-08
      0.20559305 -1.50699702e-06 -0.00012107411 -3.65995879e-06
      6.36888435e-05 -0.000197864443 -2.5647492e-07 -3.67854705e-06
      0.0588590205 -5.81379167e-09 -6.85314527e-10 -1.11317853e-08
      -8.43450754e-10 0.151412547 0.393927634 -2.46433538e-05
      0.123532534 -9.21632527e-05 -1.53931634e-09 -1.50161227e-07
      -4.22155899e-05 -3.66297503e-09 -0.000489451864 -0.000216910441
      -1.27968608e-10 -3.16946694e-06 0.0280064754 -0.000267483527
      -1.60867756e-07 -0.000195054745 -1.06581028e-08 -2.96388589e-05
      -8.2896222e-05 -6.31345529e-06</_>
    <_>
      -2.13348126 -9.26966476 -0.00456902245 -0.0133008854 -3.748994e-08
      -0.000246056239 -0.00966943614 -0.000349490932 -0.00135820848
      -2.06350865e-06 -1.38555288e-05 -2.92361165e-07 -8.72395758e-05
      -0.000327426591 -0.000177474954 2.665169 4.40264797 -0.00203246623
      0.934438705 -0.000174010871 -0.00128962006 -0.000579724554
      -0.00327905291 0.320342839 -1.24958351e-05 3.73843193 5.65713024
      -1.96812398e-05 -4.62953831e-05 -1.93579599e-05 -0.000641809544
      -0.000147040162 1.20211506 -0.00115433766 -0.000106785279
      -0.000628361828 -0.000335860444 -7.39379757e-05 -0.00432701129
      -0.000202619034 -0.000109933368 -0.000857036386 -0.0012339286
      -0.000360617065 -0.00138688611 -0.00106782315 -0.000309526542
      1.73534989 2.63339281 -0.0130560398 -0.00151619536 -0.00101966225
      -3.39390522e-06 -0.00696664909 0.301751763 -0.0243205614
      -0.020257175 -0.00280330563 0.0521091931 -0.00331895961
      -0.000668222841 -0.000360682403 -0.000505788776 4.51123905
      1.44310927 -3.8067541e-05 -3.34188335e-05 -2.75556322e-05
      -0.00399626698 -0.00155537413 -0.000608908013 2.57047153
      -0.00130286859 -8.49595453e-05 -3.72348859e-06 -0.00113155053
      -3.12973425e-05 3.28070855 1.80439711 -0.00113038858
      -1.07962305e-05 -2.26692165e-07 -0.000123878388 0.224043876
      -0.00988846365 -0.000535963452 0.933102012 0.407917142
      -5.4136417e-06 -0.00620928826 -0.00390525232 -0.000357656478
      -0.00423937617 -0.00638370309 8.83112049 -0.021675203
      -0.000710329914 0.274849832 -0.00449283188 -0.00198377343
      -5.69995391e-05 -0.00774345035 6.02594662 -1.30494197e-06
      -9.41208054e-05 -0.00113478699 1.91859722 -0.000121735546
      -4.30922555e-05 -0.000376454351 -0.000925737084 -0.00144259876
      -0.00528797414 -1.45334179e-05 -5.1750907e-05 -0.000765065663
      -9.25285974e-07 -2.26487668e-06 -0.000230068821 -3.47334899e-05
      -0.00839640107 -7.28806481e-06 -0.00348108821 -0.000780301925
      2.12030458 -0.0090448074 -0.0030422085 -0.0192948151 0.79314822
      -0.00433663977 -1.32045255e-08 0.767625272 0.707675219
      -7.75741792e-05 -6.21333238e-05 0.308374524 -0.00392777054
      0.647978604 -7.35575068e-09 -0.000147501283 0.132343262
      -2.85357055e-06 -1.9613271e-08 0.419234157 0.566629589
      -0.000213488951 -0.00146449113 -0.00230171694 -1.22807933e-08
      0.414405942 -2.42132082e-05 -0.000211324164 -2.55948498e-06
      -2.56902308e-06 0.682664335 -0.00237983442 -0.00725270901
      0.194845393 -1.01868147e-06 -0.000994626782 -3.97931353e-06
      0.148453504 0.627925158 0.407961458 0.326535612 -0.000164517289
      0.301391333 -0.00109528296 -2.58725286e-05 -0.000418035721
      0.145066738 0.403154284 0.753122628 -0.000335609395 0.529047668
      0.84784615 0.236464456 -0.000921281986 -5.09339552e-05 0.501452744
      0.121643528 -0.00193915155 -1.38493588e-05 -0.0041094292
      0.258225828 -0.00534056732 -0.0024011638 -0.000130162603
      -2.46096806e-06 0.480646878 -1.80528261e-07 -3.49961255e-07
      0.143033087 0.759457529 -1.50134547e-05 -1.8713652e-05
      -0.000214919259 -0.000391755166 0.250529945 -4.6177238e-08
      -2.80751256e-10 -5.29030109e-09 -2.67758526e-13 -0.000151355198
      -8.56515214e-07 -2.31085387e-10 -9.5158859e-05 0.192985415
      -1.95398825e-05 -0.000223670664 -0.000143826765 -3.98394877e-05
      -1.61616317e-05 0.0781335905 -6.27625127e-07 -7.89321984e-06
      0.0749697387 -0.000256695173 0.0266925637 -9.25791828e-05
      0.0371895656 -0.000675874355 0.122143947 -5.95738072e-08
      0.205308527 -1.50703954e-06 -0.000121077333 -3.65990968e-06
      6.39158534e-05 -0.000197892368 -2.56427199e-07 -3.67841176e-06
      0.0592590533 -5.81344395e-09 -6.85337065e-10 -1.11346203e-08
      -8.4342211e-10 0.150856584 0.393277705 -2.46428135e-05 0.124082893
      -9.21640167e-05 -1.53908952e-09 -1.50158669e-07 -4.22150733e-05
      -3.6628014e-09 -0.000489610597 -0.000217670793 -1.27966013e-10
      -3.16939213e-06 0.0278363172 -0.000267514755 -1.60860523e-07
      -0.000195080356 -1.06577556e-08 -2.96386788e-05 -8.23535593e-05
      -6.31339253e-06</_>
    <_>
      -2.1469543 -9.15326023 -0.00464019692 -0.013757851 -3.79056928e-08
      -0.000241743328 -0.00977589935 -0.000356951787 -0.00138564047
      -2.12296436e-06 -1.40445163e-05 -2.97840757e-07 -8.89794974e-05
      -0.000333978736 -0.000181050316 2.73104739 4.37724972
      -0.00207073684 0.942713141 -0.00017724825 -0.00130513334
      -0.000588701514 -0.00331504014 0.283941448 -1.26447303e-05
      3.7032001 5.63226652 -1.98338457e-05 -4.74212466e-05
      -1.91948311e-05 -0.000443694997 -0.000150048028 1.12835562
      -0.00117277855 -0.000108340937 -0.000640971644 -0.000335224962
      -7.43000419e-05 -0.00388825382 -0.000206127559 -0.000111937537
      -0.000860635831 -0.00124563777 -0.000362301915 -0.00124392577
      -0.00109046511 -0.000314908131 1.79376423 2.61686158 -0.0129010268
      -0.00154106063 -0.00108355598 -3.44177442e-06 -0.00705445651
      0.288982421 -0.0244438518 -0.0208110735 -0.00283396081
      0.0240511596 -0.00335365231 -0.00067547959 -0.000352872798
      -0.000512793544 4.49380112 1.38616943 -3.92038419e-05
      -3.38791288e-05 -2.76330502e-05 -0.00405454542 -0.00158193451
      -0.000624392007 2.62916207 -0.00133261271 -8.64012545e-05
      -3.73408238e-06 -0.00116279977 -3.1874788e-05 3.25622463
      1.81790733 -0.00114911667 -1.07352507e-05 -2.36774056e-07
      -0.000129516935 0.252702296 -0.0103049278 -0.000543146802
      0.906513929 0.376023412 -5.48280468e-06 -0.00620758533
      -0.00403807452 -0.000362955354 -0.004283763 -0.00652605947
      8.78607273 -0.0217454005 -0.000712863635 0.274531305 -0.0045712362
      -0.00202364521 -5.8255544e-05 -0.00771501008 6.00641727
      -1.33079868e-06 -9.57947268e-05 -0.00115183846 1.93161738
      -0.000121983401 -4.31572116e-05 -0.000378904719 -0.00046404131
      -0.00145714101 -0.00513079017 -1.47135206e-05 -5.21448674e-05
      -0.000782100251 -9.38950905e-07 -2.29171201e-06 -0.000230800171
      -3.53918549e-05 -0.00850374904 -7.3878914e-06 -0.00351221347
      -0.000790553284 2.08524537 -0.00914087892 -0.00306797028
      -0.0197132938 0.760975599 -0.00436446443 -1.33033948e-08
      0.757856786 0.708235443 -7.74300279e-05 -6.18469858e-05
      0.292085767 -0.00382935815 0.618372262 -7.41545003e-09
      -0.000146172344 0.125039965 -2.84967768e-06 -1.97935535e-08
      0.418235004 0.544618607 -0.000215467007 -0.00142577768
      -0.00237346068 -1.22677353e-08 0.41908741 -2.43459235e-05
      -0.000211686158 -2.51984511e-06 -2.57547413e-06 0.684242189
      -0.00243750308 -0.00733002694 0.197690263 -1.02495073e-06
      -0.000944885367 -3.99491546e-06 0.136535019 0.621400118
      0.395872891 0.301369905 -0.000151838409 0.315498948
      -0.000919224171 -2.57613337e-05 -0.000415123097 0.155896455
      0.402468473 0.738124311 -0.000337669684 0.541488051 0.835618615
      0.243832365 -0.000914583332 -0.00011387132 0.495939732 0.126218587
      -0.00192652037 -1.38823443e-05 -0.00407695817 0.264620304
      -0.00539676053 -0.00237446581 -0.000129600274 -2.47848038e-06
      0.4852871 -1.80457235e-07 -3.52270206e-07 0.134344831 0.763244808
      -1.5016929e-05 -1.87205387e-05 -0.000214796441 -0.00039162254
      0.251679033 -4.62045548e-08 -2.80052981e-10 -5.29269162e-09
      -2.68066141e-13 -0.000151353117 -8.56721726e-07 -2.31094782e-10
      -9.5168929e-05 0.194041669 -1.95440571e-05 -0.000222307892
      -0.000143823185 -3.98451702e-05 -1.61659154e-05 0.0763679221
      -6.27790712e-07 -7.8946905e-06 0.073475495 -0.000256405474
      0.0251896083 -9.2832699e-05 0.037645936 -0.000674397161
      0.121828437 -5.9603515e-08 0.206284285 -1.50525739e-06
      -0.000121074714 -3.66158724e-06 6.42993837e-05 -0.000197767513
      -2.5671946e-07 -3.67960797e-06 0.0575120337 -5.81764681e-09
      -6.85392021e-10 -1.11222578e-08 -8.43852488e-10 0.151967049
      0.394893646 -2.46494383e-05 0.122741893 -9.2173068e-05
      -1.54130098e-09 -1.50221567e-07 -4.22219819e-05 -3.66442632e-09
      -0.000488614663 -0.00021676367 -1.28041064e-10 -3.17028389e-06
      0.0284139924 -0.000267286843 -1.60947451e-07 -0.000194984095
      -1.06625144e-08 -2.96426842e-05 -8.34273887e-05 -6.31470266e-06</_>
    <_>
      -2.15527105 -9.77408409 -0.00470437435 -0.0136244176
      -3.74570028e-08 -0.000256083295 -0.00995686185 -0.000355293887
      -0.00138695061 -2.10750886e-06 -1.41427763e-05 -3.0009906e-07
      -9.06226705e-05 -0.000338630285 -0.000186225996 2.75978923
      4.57430363 -0.00209039333 0.692407489 -0.000179248789
      -0.00133296917 -0.000594929967 -0.00335247442 0.316022485
      -1.26936493e-05 3.86218357 5.82116842 -1.99098431e-05
      -4.72373176e-05 -1.95328612e-05 -0.00196915469 -0.000151725413
      1.21815729 -0.00119746849 -0.000110540481 -0.000641698018
      -0.000339367834 -7.60297626e-05 -0.00382808852 -0.000210623824
      -0.000112130008 -0.000875376223 -0.00126734597 -0.000367345434
      -0.00154471735 -0.00108438614 -0.000322862819 1.53401697
      2.65814042 -0.0132399155 -0.00157243141 -0.00103661092
      -3.45517878e-06 -0.00709995674 0.327492088 -0.0249062572
      -0.0217780918 -0.0028897603 -0.000126252024 -0.00336926267
      -0.000682763464 -0.00038540829 -0.000511721533 4.63791561
      1.54866755 -3.85304265e-05 -3.43563261e-05 -2.80603545e-05
      -0.0040543736 -0.00161787705 -0.000603941851 2.66104937
      -0.00134583982 -8.60508881e-05 -3.88461058e-06 -0.00113305228
      -3.18528691e-05 3.43615055 1.87340069 -0.00115777529
      -1.09979201e-05 -2.32288656e-07 -0.000127027539 0.199282289
      -0.0105728982 -0.000548519078 0.924329996 0.413163483
      -5.64059883e-06 -0.00624853699 -0.00406251429 -0.000369801215
      -0.00433336478 -0.00656645047 9.09691238 -0.0222806204
      -0.000728765328 0.263614237 -0.00462720916 -0.00204417319
      -5.84815571e-05 -0.0080295084 6.20580196 -1.33709364e-06
      -9.62231788e-05 -0.0011516891 1.75824726 -0.000125172475
      -4.33399437e-05 -0.00039378705 -0.00174736977 -0.00149432675
      -0.00540081272 -1.47015853e-05 -5.34540159e-05 -0.000804072886
      -9.73654323e-07 -2.38239136e-06 -0.000236775522 -3.59456972e-05
      -0.00865549687 -7.51996049e-06 -0.00349791371 -0.000804838317
      2.22032833 -0.00916917901 -0.00317991665 -0.0197653528 0.885487616
      -0.00441586645 -1.32595082e-08 0.762050688 0.709004939
      -7.7474826e-05 -6.16949474e-05 0.279965043 -0.00385764125
      0.626111746 -7.40596873e-09 -0.000145348517 0.133320808
      -2.85429928e-06 -1.97664995e-08 0.418969452 0.546979845
      -0.000215038599 -0.00137307972 -0.00245634513 -1.22882433e-08
      0.425432891 -2.43206869e-05 -0.000211585342 -2.51079246e-06
      -2.57504348e-06 0.677298248 -0.00246050465 -0.00730301486
      0.198117763 -1.02350452e-06 -0.000957616023 -3.99280952e-06
      0.142618552 0.632899344 0.394466192 0.305558622 -0.000153692192
      0.303839564 -0.000977318734 -2.5726109e-05 -0.000415140763
      0.146357492 0.401627809 0.732899666 -0.000337012025 0.536297858
      0.836359859 0.246739432 -0.0008937901 -2.50091398e-05 0.502511621
      0.12825422 -0.0019188514 -1.3867254e-05 -0.00409046095 0.26231572
      -0.00538354274 -0.00237522437 -0.000129378124 -2.47491857e-06
      0.491638571 -1.79920065e-07 -3.51873638e-07 0.135370612
      0.767679036 -1.50151855e-05 -1.8719169e-05 -0.000214780521
      -0.000391820737 0.251886845 -4.61966643e-08 -2.79688245e-10
      -5.29174304e-09 -2.68032504e-13 -0.000151345434 -8.56635211e-07
      -2.31031264e-10 -9.51645779e-05 0.194315553 -1.95425437e-05
      -0.000220395086 -0.00014381767 -3.98425764e-05 -1.61647658e-05
      0.0761535838 -6.27720567e-07 -7.89418937e-06 0.0732382461
      -0.000256397645 0.0252973307 -9.28867667e-05 0.0378678404
      -0.000674662413 0.121355861 -5.95942531e-08 0.206494004
      -1.50611356e-06 -0.000121067824 -3.66081281e-06 6.3502288e-05
      -0.000197762682 -2.56685325e-07 -3.67931398e-06 0.0574161634
      -5.81628878e-09 -6.85303536e-10 -1.11215703e-08 -8.43695169e-10
      0.152785599 0.395689368 -2.46472737e-05 0.122059688
      -9.21662504e-05 -1.54069701e-09 -1.5019441e-07 -4.22196099e-05
      -3.66400021e-09 -0.000488740567 -0.0002153284 -1.28007535e-10
      -3.16999763e-06 0.0285402983 -0.000267328724 -1.60919399e-07
      -0.000194969893 -1.06608589e-08 -2.96409999e-05 -8.42344743e-05
      -6.31416242e-06</_>
    <_>
      -2.11156249 -10.0704775 -0.00455805939 -0.0130955363
      -3.33322419e-08 -0.000234447929 -0.00982593559 -0.000347562949
      -0.00131652923 -2.31408148e-06 -1.40540906e-05 -2.97311061e-07
      -9.1619404e-05 -0.000339951512 -0.000185559649 2.63078809
      4.57991886 -0.00201912806 0.466933846 -0.000178991744
      -0.00129855447 -0.000576056307 -0.00315820449 0.341557741
      -1.30106646e-05 3.90087557 5.80062199 -1.93793912e-05
      -4.51463347e-05 -1.92809221e-05 -0.00418667495 -0.000143965837
      1.37167001 -0.00121825119 -0.000111665329 -0.000617946847
      -0.000328054157 -7.51199259e-05 -0.00172589021 -0.000214020954
      -0.000103587619 -0.00080528832 -0.00130281039 -0.000328167138
      -0.00164702511 -0.00106694631 -0.000312672288 1.30454683
      2.66746783 -0.0116547477 -0.00161472987 -0.000785129378
      -3.49190896e-06 -0.00671274634 0.187704533 -0.0238596145
      -0.0211577676 -0.00282676425 0.0494594835 -0.00317937555
      -0.000709261862 -0.00038922223 -0.000489775441 4.59418201
      1.68872774 -3.66349705e-05 -3.32169329e-05 -2.66842653e-05
      -0.00385298207 -0.00156731473 -0.000579898478 2.52451134
      -0.00138111389 -7.94289517e-05 -3.49673473e-06 -0.00111790583
      -2.98345531e-05 3.46905255 1.92107141 -0.00110671856
      -1.0618146e-05 -2.62488072e-07 -0.000120487784 0.0904429555
      -0.00955448858 -0.000518430665 0.934591889 0.361993968
      -5.71661894e-06 -0.0060034194 -0.00378143531 -0.00036647293
      -0.00409341557 -0.00625867303 9.03212833 -0.0218024347
      -0.00071305735 0.289973974 -0.00447909953 -0.00195938582
      -6.10103525e-05 -0.00817980897 6.13174152 -1.39598978e-06
      -9.46520813e-05 -0.00111032638 1.51804483 -0.000126731713
      -4.10059874e-05 -0.000387332082 -0.00241477625 -0.00140223431
      -0.00569375372 -1.38735395e-05 -5.26557233e-05 -0.000824971939
      -1.00202089e-06 -2.41351336e-06 -0.000230491467 -3.44261607e-05
      -0.00844112504 -7.63704156e-06 -0.00325792423 -0.000828274118
      2.30562019 -0.00895618927 -0.00303437118 -0.0193450265 1.00548136
      -0.0042725075 -1.30135032e-08 0.763225853 0.72514838
      -7.77332825e-05 -6.29023416e-05 0.277350247 -0.00381127466
      0.614789784 -7.2454247e-09 -0.00014519236 0.128180653
      -2.88561296e-06 -1.92811402e-08 0.428032637 0.55301553
      -0.000215959211 -0.00123501732 -0.00242087827 -1.21860051e-08
      0.421696246 -2.4076513e-05 -0.000212387269 -2.56217436e-06
      -2.54488373e-06 0.673354805 -0.00238118111 -0.00705164857
      0.192343101 -1.00901775e-06 -0.000839523156 -3.94155131e-06
      0.127538264 0.647274494 0.388147742 0.327382445 -0.000195652712
      0.307128727 -0.00102063757 -2.57399515e-05 -0.000417562551
      0.150775224 0.418133646 0.747241378 -0.000341682578 0.528050423
      0.824899554 0.237938315 -0.00108680956 -0.000279028085 0.487841189
      0.159418777 -0.00194128719 -1.37458537e-05 -0.00412229262
      0.246684641 -0.00516295526 -0.0024074805 -0.000129411885
      -2.45646333e-06 0.495534539 -1.79132769e-07 -3.46794252e-07
      0.129650503 0.743794382 -1.50165142e-05 -1.87228325e-05
      -0.000214695392 -0.000391834677 0.252711594 -4.62099869e-08
      -2.79069462e-10 -5.29278088e-09 -2.68209744e-13 -0.00015134034
      -8.56722693e-07 -2.31005909e-10 -9.51687762e-05 0.195115596
      -1.95444281e-05 -0.000218579313 -0.000143812693 -3.98448756e-05
      -1.61668977e-05 0.0749368221 -6.27790371e-07 -7.89486876e-06
      0.0721806139 -0.000256211293 0.0244077202 -9.30731621e-05
      0.0382660404 -0.000673862523 0.120919846 -5.96084035e-08
      0.207210824 -1.50540882e-06 -0.000121062789 -3.66148856e-06
      6.3354848e-05 -0.0001976817 -2.56852587e-07 -3.67992266e-06
      0.0562708713 -5.81826676e-09 -6.85294987e-10 -1.11134604e-08
      -8.43888848e-10 0.153893352 0.397101462 -2.46503805e-05
      0.120874524 -9.21686005e-05 -1.54179269e-09 -1.50220671e-07
      -4.22227895e-05 -3.66481401e-09 -0.000488175632 -0.000214038257
      -1.28038288e-10 -3.17041849e-06 0.0289666392 -0.000267205876
      -1.60960354e-07 -0.000194902299 -1.06630411e-08 -2.96426952e-05
      -8.53122547e-05 -6.3147213e-06</_>
    <_>
      -2.1277442 -9.82430172 -0.00438193791 -0.0142160673
      -3.25526628e-08 -0.000241324306 -0.00952846371 -0.000333758449
      -0.00131156179 -2.22174003e-06 -1.36897042e-05 -2.85985635e-07
      -8.97984501e-05 -0.000333487726 -0.000180538089 2.73106122
      4.50406218 -0.00193016639 0.595535517 -0.000174485409
      -0.00125552341 -0.000562812202 -0.00308818859 0.370088845
      -1.27488966e-05 3.82389545 5.72583914 -1.88583344e-05
      -4.42621713e-05 -1.95277571e-05 -0.00375815015 -0.000140311022
      1.36829269 -0.00118673057 -0.000108798034 -0.000600860803
      -0.000327578135 -7.42328994e-05 -0.00313978642 -0.00020856208
      -0.000104090534 -0.000820278598 -0.00125854753 -0.000342385581
      -0.00162230746 -0.00103907881 -0.00029606602 1.42992878 2.53842616
      -0.0117095895 -0.00155820081 -0.000715105387 -3.45601234e-06
      -0.00653810706 0.307528079 -0.0240946189 -0.0217594113
      -0.00274762348 0.0103193 -0.00308301393 -0.000675976684
      -0.000385603227 -0.000479900948 4.5444293 1.66838455
      -3.52887982e-05 -3.25896945e-05 -2.66137831e-05 -0.00371945486
      -0.00152695039 -0.00057079125 2.62864614 -0.00132724503
      -7.76568995e-05 -3.66749669e-06 -0.00108197145 -2.93497342e-05
      3.45606995 1.96411443 -0.00106705492 -1.07403212e-05
      -2.54573422e-07 -0.000109625369 0.181269407 -0.0108081149
      -0.000517695968 0.872570992 0.37446177 -5.51937637e-06
      -0.00595854735 -0.00372953434 -0.000357198645 -0.00403062114
      -0.00621567108 8.93036366 -0.0215990804 -0.000700300967
      0.196955457 -0.00433297455 -0.00189699209 -5.92334873e-05
      -0.00804293714 6.07553673 -1.3857624e-06 -9.27970468e-05
      -0.00109816599 1.52798903 -0.000123838923 -4.09425083e-05
      -0.000385816063 -0.00283252494 -0.00139490643 -0.0058983136
      -1.38273008e-05 -5.13266605e-05 -0.000786694116 -9.74433988e-07
      -2.35346556e-06 -0.000225737196 -3.32644522e-05 -0.00823506992
      -7.2374296e-06 -0.00319505855 -0.000804252748 2.26346254
      -0.00883078389 -0.00308026187 -0.0189457778 0.976516128
      -0.00435503526 -1.29381181e-08 0.761406898 0.720795095
      -7.79621914e-05 -6.34555108e-05 0.267433852 -0.0036921713
      0.615736365 -7.19022752e-09 -0.00014712158 0.141878873
      -2.90140338e-06 -1.90685672e-08 0.42610383 0.560046732
      -0.000216168351 -0.00119445624 -0.002486157 -1.21094805e-08
      0.427917242 -2.39309193e-05 -0.000211416249 -2.56454518e-06
      -2.5396962e-06 0.66378212 -0.00231084926 -0.00705954293
      0.195926741 -1.00275327e-06 -0.000845297356 -3.92850461e-06
      0.120794348 0.654747367 0.401576012 0.33741799 -0.000250287616
      0.304096073 -0.00097431615 -2.57929369e-05 -0.00042223034
      0.152866215 0.427933097 0.757616341 -0.000339692138 0.548913956
      0.804478168 0.235033751 -0.00107894919 -0.000276217557 0.489200443
      0.175258011 -0.0019364967 -1.36854942e-05 -0.00414838083
      0.245424032 -0.00519889593 -0.00243516942 -0.000129052438
      -2.44200078e-06 0.503305733 -1.7810909e-07 -3.44675868e-07
      0.128497407 0.740925014 -1.50157512e-05 -1.87227906e-05
      -0.000214667729 -0.000391956564 0.253011733 -4.62080898e-08
      -2.78718965e-10 -5.29243271e-09 -2.68227226e-13 -0.000151334651
      -8.56689326e-07 -2.30962388e-10 -9.51670663e-05 0.195450097
      -1.95439225e-05 -0.000217045803 -0.000143808327 -3.98438096e-05
      -1.61666612e-05 0.0745493695 -6.27763143e-07 -7.89471233e-06
      0.0718132854 -0.000256166968 0.0242830198 -9.3145245e-05
      0.0384838395 -0.00067385158 0.120543681 -5.96058527e-08
      0.207489163 -1.50577296e-06 -0.000121057579 -3.66116751e-06
      6.28450653e-05 -0.000197661575 -2.56867679e-07 -3.67987536e-06
      0.0559696779 -5.81787285e-09 -6.85240142e-10 -1.11113216e-08
      -8.43835612e-10 0.154619962 0.397879243 -2.4649742e-05 0.120213225
      -9.21649989e-05 -1.54166324e-09 -1.50209971e-07 -4.22220401e-05
      -3.66473141e-09 -0.000488131045 -0.000212902974 -1.28024716e-10
      -3.17033573e-06 0.0291331001 -0.000267204858 -1.60952226e-07
      -0.000194879409 -1.06625118e-08 -2.9642044e-05 -8.60256696e-05
      -6.31451576e-06</_>
    <_>
      -2.04313922 -9.93188953 -0.0041888305 -0.0128998728
      -3.32499468e-08 -0.000252292026 -0.00909717288 -0.000345101056
      -0.0013313049 -2.2030888e-06 -1.38964779e-05 -2.83217673e-07
      -8.6623455e-05 -0.000339818478 -0.000170567029 2.54177523
      4.52636528 -0.00196070666 0.56601274 -0.000170558764
      -0.00131140323 -0.000543751114 -0.00303377956 0.319481075
      -1.25884717e-05 3.87826681 5.7562499 -1.94749155e-05
      -4.44727157e-05 -1.92269563e-05 -0.00281820563 -0.000134597081
      1.43665195 -0.00108728383 -0.000103559607 -0.00058150402
      -0.000331536401 -7.48517414e-05 -0.00205117837 -0.000203019867
      -0.000107656837 -0.000842574809 -0.00116356905 -0.000353432377
      -0.00194655277 -0.00113252026 -0.00029686268 1.46100879 2.54142499
      -0.0098825423 -0.0014694772 -0.000735668233 -3.55553902e-06
      -0.00662052911 0.427492529 -0.0244945083 -0.020316923
      -0.00258289301 0.0613800883 -0.00297874981 -0.000662098464
      -0.000392949791 -0.000487273879 4.55168581 1.75631094
      -3.63857507e-05 -3.36498997e-05 -2.79355299e-05 -0.00367758889
      -0.00151515345 -0.000590827141 2.59015322 -0.00131810131
      -7.75644367e-05 -3.58424018e-06 -0.00105549674 -2.99324583e-05
      3.49328399 1.8497889 -0.00106340833 -1.12048883e-05
      -2.47682038e-07 -0.000106519699 0.141803265 -0.0110556027
      -0.000509238744 0.909042835 0.308324873 -5.22257869e-06
      -0.00588179519 -0.00383001845 -0.000341946434 -0.00413851067
      -0.0063051451 9.01423836 -0.0210284423 -0.000705208513 0.231443614
      -0.00427390123 -0.0018634306 -5.79942098e-05 -0.00810429361
      6.11588287 -1.42605506e-06 -9.5628282e-05 -0.00109881174
      1.48998785 -0.000123275269 -4.17920055e-05 -0.000369602407
      -0.000312399789 -0.0014112331 -0.00600388041 -1.37761926e-05
      -5.13819141e-05 -0.00073456642 -1.00672253e-06 -2.38244934e-06
      -0.000223072973 -3.28280257e-05 -0.0082011437 -6.85945497e-06
      -0.00321156974 -0.000744870515 2.26342893 -0.00894977059
      -0.00300057395 -0.0187769216 1.02852809 -0.00433584489
      -1.30093234e-08 0.778895915 0.735567987 -7.78250323e-05
      -6.33302989e-05 0.279232502 -0.00386618217 0.627029359
      -7.23215976e-09 -0.000145335624 0.139367253 -2.87896296e-06
      -1.92417566e-08 0.419487536 0.559898019 -0.000215708555
      -0.00118735316 -0.0023263779 -1.2244179e-08 0.422613293
      -2.39660058e-05 -0.000211730017 -2.56227372e-06 -2.54931456e-06
      0.675397813 -0.00235917582 -0.00695681898 0.203541085
      -1.00578904e-06 -0.00078225974 -3.93835489e-06 0.126655787
      0.655705929 0.389415085 0.348081738 -0.000196669862 0.301835895
      -0.00107071386 -2.58087966e-05 -0.000417121482 0.151568294
      0.424123913 0.744151533 -0.000339435996 0.532083869 0.821159244
      0.231752872 -0.00106315769 -0.000202464871 0.499009579 0.161322579
      -0.00195309694 -1.37204406e-05 -0.00414050417 0.249914199
      -0.00515300781 -0.00242252555 -0.000129097665 -2.45030333e-06
      0.508561432 -1.78095661e-07 -3.46770463e-07 0.138992503
      0.741648138 -1.50152837e-05 -1.87232872e-05 -0.000214631465
      -0.000392063928 0.253391415 -4.62083882e-08 -2.78326195e-10
      -5.29228261e-09 -2.68268101e-13 -0.00015132899 -8.56673296e-07
      -2.30921129e-10 -9.51661859e-05 0.195855379 -1.95437569e-05
      -0.000215462976 -0.000143803831 -3.98432239e-05 -1.61667649e-05
      0.074037455 -6.27749671e-07 -7.89467595e-06 0.0713421106
      -0.000256101601 0.0240444485 -9.32345356e-05 0.0387292802
      -0.000673725794 0.1201571 -5.96057106e-08 0.207834184
      -1.50598623e-06 -0.000121052355 -3.66098811e-06 6.23820233e-05
      -0.000197632398 -2.56905025e-07 -3.67992357e-06 0.0555421337
      -5.81782045e-09 -6.85191404e-10 -1.11082921e-08 -8.43817849e-10
      0.155406669 0.398755431 -2.46496438e-05 0.119471438
      -9.21622486e-05 -1.54171054e-09 -1.50204542e-07 -4.22218582e-05
      -3.66477848e-09 -0.000488010177 -0.000211739127 -1.28017458e-10
      -3.17032595e-06 0.0293387454 -0.000267186115 -1.6095116e-07
      -0.00019484981 -1.06623723e-08 -2.96417293e-05 -8.67968556e-05
      -6.31441981e-06</_>
    <_>
      -2.08517814 -9.48304653 -0.00416334765 -0.0138182156
      -3.55348639e-08 -0.000268742209 -0.00896594487 -0.000369470246
      -0.00142886303 -2.42536521e-06 -1.42038853e-05 -2.74643156e-07
      -8.7195338e-05 -0.000344986765 -0.000170475032 2.67822385
      4.35749817 -0.00200218079 0.755967677 -0.000172665532
      -0.0013107385 -0.000553926686 -0.00314576086 0.249582678
      -1.33499234e-05 3.69027996 5.59497833 -2.01385901e-05
      -4.33581881e-05 -2.01470612e-05 -0.00178396667 -0.000137969953
      1.32620955 -0.00107637129 -0.000105578132 -0.000590868818
      -0.000335889898 -7.82457428e-05 -0.00231469888 -0.000212829778
      -0.000113800314 -0.000904011191 -0.00119837152 -0.000352136471
      -0.00250095176 -0.00118330936 -0.000286079274 1.53113437
      2.42621446 -0.0113921314 -0.00150472648 -0.000883100147
      -4.11670226e-06 -0.0067443233 0.383054405 -0.0247476287
      -0.0218835566 -0.00255926815 0.102998324 -0.00309969601
      -0.000629416027 -0.000445188605 -0.000535631203 4.41145468
      1.60964191 -3.6383979e-05 -3.53486357e-05 -2.94986221e-05
      -0.00372488471 -0.00149560883 -0.00060777762 2.60309076
      -0.00128923741 -8.22676884e-05 -4.18923446e-06 -0.00107600808
      -3.12596349e-05 3.382411 2.05426073 -0.00108748011 -1.17625968e-05
      -2.69510195e-07 -0.000111292946 0.12781772 -0.0113504948
      -0.000548568263 0.747385502 0.266615212 -5.33030061e-06
      -0.00597773353 -0.0038047391 -0.000348602829 -0.00429610023
      -0.00652135909 8.77294827 -0.0211176649 -0.000710260938 0.22411494
      -0.00434222957 -0.00183588814 -6.13268639e-05 -0.00815882534
      5.95336533 -1.49342122e-06 -0.000103532846 -0.00113423902
      1.54935777 -0.000130523375 -4.25096623e-05 -0.000388028304
      -0.000862929446 -0.00150238315 -0.00468359794 -1.53402252e-05
      -5.37205342e-05 -0.000743750308 -1.0449146e-06 -2.34999607e-06
      -0.000224205141 -3.29937066e-05 -0.00829522312 -6.60027354e-06
      -0.00323744118 -0.000753843749 2.09463906 -0.00897913426
      -0.00307919225 -0.0186502095 0.925297201 -0.00452043256
      -1.33669547e-08 0.77582401 0.749338508 -7.72919448e-05
      -6.23238884e-05 0.269050837 -0.0038672036 0.617683709
      -7.48405693e-09 -0.000145379046 0.138688654 -2.80918653e-06
      -2.00136832e-08 0.409012854 0.547678173 -0.00021333422
      -0.00109564478 -0.00216859137 -1.24196617e-08 0.405492842
      -2.42145325e-05 -0.000210352009 -2.52541122e-06 -2.60390675e-06
      0.682429552 -0.00261355238 -0.00674242107 0.220156491
      -1.02644515e-06 -0.000781048147 -4.00872523e-06 0.128620133
      0.637878537 0.388731569 0.366450727 -0.000190929597 0.297080338
      -0.000850769109 -2.55273262e-05 -0.000409526896 0.173749119
      0.425820321 0.738351524 -0.000332939468 0.549028635 0.807410479
      0.212899193 -0.000990540837 -0.000141538418 0.514422119
      0.166460276 -0.00196009059 -1.39072654e-05 -0.00407597609
      0.260489404 -0.00509454496 -0.00235545426 -0.00012707022
      -2.50055336e-06 0.510055423 -1.77214133e-07 -3.56867304e-07
      0.134870425 0.745750368 -1.50181231e-05 -1.87318547e-05
      -0.00021442186 -0.000392140937 0.255435914 -4.62389131e-08
      -2.76748069e-10 -5.29459143e-09 -2.68689612e-13 -0.000151314991
      -8.56866222e-07 -2.30845967e-10 -9.51754118e-05 0.1978513
      -1.95479897e-05 -0.0002106928 -0.000143790588 -3.98482334e-05
      -1.61716762e-05 0.0710439011 -6.27903319e-07 -7.89621299e-06
      0.0687300861 -0.00025564892 0.0219047815 -9.36970682e-05
      0.0397373736 -0.000671847607 0.119010873 -5.96379479e-08
      0.209617078 -1.50447579e-06 -0.000121038662 -3.66245445e-06
      6.18437771e-05 -0.000197435278 -2.57302474e-07 -3.68133237e-06
      0.0527437627 -5.82231507e-09 -6.85150547e-10 -1.10884777e-08
      -8.44252501e-10 0.158252001 0.402339339 -2.46566924e-05
      0.116466656 -9.21664541e-05 -1.54423097e-09 -1.50262196e-07
      -4.22290468e-05 -3.66665542e-09 -0.000486669393 -0.000208335667
      -1.28084668e-10 -3.17128183e-06 0.0303972308 -0.000266897667
      -1.6104417e-07 -0.000194683089 -1.06672946e-08 -2.96454637e-05
      -8.95699122e-05 -6.31565626e-06</_>
    <_>
      -2.07342029 -9.11863041 -0.00416396372 -0.0142659042
      -3.40744428e-08 -0.000249167439 -0.00906806532 -0.000347394176
      -0.00139258499 -2.36421329e-06 -1.39800168e-05 -2.86733354e-07
      -8.68007119e-05 -0.000341789651 -0.00016995646 2.70793986
      4.29664803 -0.00199323264 0.978758693 -0.0001686014 -0.00130404043
      -0.000533731596 -0.00302231312 0.267134041 -1.27944622e-05
      3.6712923 5.5532136 -1.93963187e-05 -4.4632041e-05 -1.9506846e-05
      -0.00112788635 -0.000136839953 1.36112475 -0.00106190785
      -0.000104108498 -0.000601320644 -0.000328512891 -7.27581064e-05
      -0.00101053331 -0.000201192117 -0.00011025869 -0.000830878445
      -0.00116428605 -0.000344940083 -0.00213441742 -0.00121846178
      -0.000294450001 1.78292418 2.51468658 -0.0104079247 -0.0014736267
      -0.000714099559 -3.67559892e-06 -0.00665268395 0.4161506
      -0.0236796737 -0.0213629194 -0.00255185203 0.0602128431
      -0.00295565301 -0.000665746687 -0.000414079375 -0.000511063845
      4.38748837 1.54515827 -3.75703712e-05 -3.36030243e-05
      -2.76199626e-05 -0.00361993606 -0.00145677011 -0.000601392472
      2.6050663 -0.00135527796 -7.85993325e-05 -3.46996171e-06
      -0.00107231096 -2.91488032e-05 3.27326632 1.99563837 -0.0010855482
      -1.09295615e-05 -2.74950509e-07 -0.000126953222 0.234527171
      -0.0109756058 -0.000492306426 0.862714291 0.269144177
      -5.188454e-06 -0.00577893201 -0.00386585365 -0.000335307937
      -0.00411757501 -0.00636482658 8.66008091 -0.0205115452
      -0.000703264261 0.253266037 -0.00430303719 -0.0018495738
      -5.92916949e-05 -0.0076850662 5.88203239 -1.50823018e-06
      -9.51682596e-05 -0.0011101322 1.7414428 -0.000123543228
      -4.14463466e-05 -0.000356472156 -0.000824037124 -0.00141205871
      -0.00519909384 -1.40603679e-05 -5.13673876e-05 -0.000731893175
      -9.7679424e-07 -2.25444228e-06 -0.000213924897 -3.3069351e-05
      -0.00795930251 -6.83013468e-06 -0.00331421895 -0.000730981003
      2.08956695 -0.00902390853 -0.00277533382 -0.019056268 0.87527144
      -0.0041969046 -1.30857609e-08 0.742900848 0.736570656
      -7.76866582e-05 -6.55818221e-05 0.292271078 -0.00364426943
      0.56844306 -7.24812121e-09 -0.000146247883 0.0894184932
      -2.87764874e-06 -1.92958645e-08 0.441365898 0.53464371
      -0.000216974091 -0.000962802966 -0.00221101614 -1.21965336e-08
      0.395274878 -2.39844194e-05 -0.000212525949 -2.62527146e-06
      -2.54333304e-06 0.692450225 -0.0024998805 -0.00672373362
      0.202570871 -1.01198532e-06 -0.000543784874 -3.92898619e-06
      0.0890287831 0.63316071 0.377857566 0.342756808 -0.000266242307
      0.336642861 -0.000747607788 -2.57031188e-05 -0.000416054128
      0.191438809 0.447556466 0.759400427 -0.00034577219 0.523759544
      0.793257833 0.226919353 -0.00139788864 -0.000887751579 0.460510582
      0.194758967 -0.00198350963 -1.37319812e-05 -0.00406115083
      0.247286499 -0.00482906867 -0.00237960042 -0.000128444328
      -2.48151878e-06 0.486412883 -1.81504035e-07 -3.48382059e-07
      0.118021488 0.718271613 -1.50162641e-05 -1.87301521e-05
      -0.000214414104 -0.000392336602 0.255563915 -4.62298324e-08
      -2.76444395e-10 -5.29354782e-09 -2.68639576e-13 -0.000151307846
      -8.56771976e-07 -2.30785058e-10 -9.51706897e-05 0.198049545
      -1.9546309e-05 -0.000208928992 -0.000143785583 -3.98454358e-05
      -1.61703319e-05 0.0709447637 -6.27827092e-07 -7.89565001e-06
      0.0685926005 -0.000255658495 0.0221015029 -9.37333461e-05
      0.0399237946 -0.000672185037 0.118572742 -5.96274106e-08
      0.209757507 -1.50538631e-06 -0.000121032303 -3.6616218e-06
      6.10701973e-05 -0.00019743813 -2.57252964e-07 -3.68098313e-06
      0.052758459 -5.82077897e-09 -6.85064672e-10 -1.10885852e-08
      -8.44078307e-10 0.158973545 0.403005242 -2.46542495e-05
      0.115889199 -9.21594619e-05 -1.54352842e-09 -1.50232736e-07
      -4.22263838e-05 -3.66615605e-09 -0.000486847421 -0.000207003366
      -1.28048377e-10 -3.17095783e-06 0.0304838941 -0.000266950927
      -1.61012466e-07 -0.000194675376 -1.06654428e-08 -2.96436283e-05
      -9.0278736e-05 -6.315066e-06</_>
    <_>
      -2.06862617 -9.0197897 -0.00403514039 -0.0128605887
      -3.39353114e-08 -0.000252936239 -0.00880544912 -0.000342227519
      -0.00140416424 -2.21654136e-06 -1.3461784e-05 -2.68314608e-07
      -8.31663856e-05 -0.000332501048 -0.000164792436 2.6169157
      4.21769524 -0.00192317576 0.986336112 -0.000164655299
      -0.00125507684 -0.000523371971 -0.00299064023 0.256419897
      -1.24627368e-05 3.61414242 5.46314907 -1.97541322e-05
      -4.23735182e-05 -1.93399446e-05 -0.00133626815 -0.000134487724
      1.32654929 -0.00103733875 -0.000101686368 -0.000581170898
      -0.000326399604 -7.22444456e-05 -0.00240246952 -0.000198566748
      -0.000107661108 -0.000848451164 -0.00113385532 -0.000353845011
      -0.00226494391 -0.00116142875 -0.000281804561 1.78781891 2.5063169
      -0.0106573356 -0.00142764475 -0.000770993356 -3.69382292e-06
      -0.00658352673 0.262599379 -0.0236654468 -0.0202686638
      -0.00247760955 0.164784521 -0.00295951241 -0.000606252928
      -0.000409930799 -0.000502816634 4.3124609 1.52760494
      -3.62190367e-05 -3.31681222e-05 -2.76821702e-05 -0.00358789763
      -0.00143230509 -0.000598976389 2.47503185 -0.00126213219
      -7.68933023e-05 -3.69461645e-06 -0.00106182811 -2.94338515e-05
      3.22917604 1.93762803 -0.0010495329 -1.10014344e-05 -2.6057532e-07
      -0.00011206769 0.111333266 -0.00923459232 -0.00050416094
      0.836049974 0.318500638 -4.95188806e-06 -0.00590741541
      -0.00364695326 -0.000329706061 -0.00404702593 -0.00629354594
      8.56236172 -0.0203828178 -0.000687548425 0.322024703
      -0.00415686332 -0.00178778858 -5.79024563e-05 -0.00770019693
      5.79589176 -1.43701334e-06 -9.68372115e-05 -0.00110462343
      1.66476548 -0.000120305209 -4.15401009e-05 -0.000357318146
      -0.000891093514 -0.0014119643 -0.00510186702 -1.43083007e-05
      -5.11734797e-05 -0.000697443786 -9.65103368e-07 -2.17507272e-06
      -0.000212990679 -3.16693186e-05 -0.00796421617 -6.5236768e-06
      -0.00318340166 -0.000712965499 2.02628446 -0.0087343622
      -0.00284707244 -0.0187452435 0.873489618 -0.0042700856
      -1.33166234e-08 0.739718795 0.733289301 -7.70461484e-05
      -6.55975236e-05 0.306956589 -0.00376460631 0.575277686
      -7.46402495e-09 -0.000145146478 0.0788161829 -2.80206223e-06
      -2.00536476e-08 0.437746108 0.526931405 -0.000214883228
      -0.000983647769 -0.00205003773 -1.22967663e-08 0.383577794
      -2.42021924e-05 -0.000210111204 -2.62440358e-06 -2.57736087e-06
      0.703818381 -0.0026320878 -0.00655283267 0.198892608
      -1.02948627e-06 -0.00062220596 -3.98260363e-06 0.0894312784
      0.613670826 0.364208966 0.353945196 -0.000260154891 0.340687215
      -0.000789395126 -2.53337039e-05 -0.000409097673 0.192944661
      0.43542853 0.75460726 -0.000343763066 0.508698702 0.811393619
      0.227670878 -0.00136004132 -0.000873523939 0.465974241 0.189280555
      -0.00198419555 -1.39195909e-05 -0.0040055248 0.255570322
      -0.00476892572 -0.0023347945 -0.000127540494 -2.51273786e-06
      0.479985148 -1.83682914e-07 -3.56261808e-07 0.12044175 0.715039849
      -1.50132046e-05 -1.87270361e-05 -0.000214412823 -0.000392639195
      0.255661428 -4.62140015e-08 -2.7604985e-10 -5.29179767e-09
      -2.68539043e-13 -0.000151297369 -8.56614349e-07 -2.30693659e-10
      -9.51628172e-05 0.198255569 -1.9543455e-05 -0.00020646707
      -0.000143778409 -3.9840801e-05 -1.61679709e-05 0.0709436014
      -6.27699592e-07 -7.89468868e-06 0.0685131177 -0.000255697174
      0.0225090403 -9.37655932e-05 0.0401581377 -0.000672811933
      0.117961332 -5.96092207e-08 0.209887117 -1.50690232e-06
      -0.000121023055 -3.66024028e-06 5.98770566e-05 -0.000197452769
      -2.57154795e-07 -3.68036194e-06 0.0529209077 -5.81814374e-09
      -6.84930945e-10 -1.10897425e-08 -8.43782932e-10 0.159937412
      0.403851926 -2.46500585e-05 0.115157098 -9.21483152e-05
      -1.54229596e-09 -1.50183595e-07 -4.22218436e-05 -3.66527542e-09
      -0.000487195386 -0.000205134333 -1.27988148e-10 -3.17039985e-06
      0.0305631869 -0.000267049123 -1.60957953e-07 -0.000194671957
      -1.06622871e-08 -2.96405651e-05 -9.12301621e-05 -6.31407784e-06</_>
    <_>
      -2.05919003 -8.63549709 -0.00393684907 -0.0126793124
      -3.36083694e-08 -0.000253512495 -0.0086469939 -0.000329549541
      -0.00141492381 -2.16783974e-06 -1.32322148e-05 -2.66003468e-07
      -8.13270308e-05 -0.000328228343 -0.00016038047 2.53192401
      4.13297462 -0.00188607699 1.24483824 -0.000158831506
      -0.00125172478 -0.000505842967 -0.00291622872 0.238503665
      -1.21203566e-05 3.54046726 5.38418913 -1.93504311e-05
      -4.21842269e-05 -1.90455812e-05 0.0731810182 -0.000133339767
      1.30668223 -0.00100484584 -9.95700684e-05 -0.000582404959
      -0.000324286026 -7.01387762e-05 -0.00198470219 -0.000189712897
      -0.000105757674 -0.000824530027 -0.00107737281 -0.000354635966
      -0.00205998425 -0.00116338802 -0.000277657236 1.94078696
      2.50685716 -0.0103614386 -0.00137217739 -0.000912588381
      -3.56886176e-06 -0.00647969218 0.199546009 -0.0231340807
      -0.0189521555 -0.00241271942 0.158298343 -0.00288284593
      -0.000599343388 -0.000393977709 -0.000484646298 4.2450819
      1.42377353 -3.67102366e-05 -3.25119181e-05 -2.7564658e-05
      -0.00348960096 -0.00138772128 -0.00060147926 2.45554662
      -0.00122616382 -7.64427459e-05 -3.49544166e-06 -0.00106596982
      -2.90186999e-05 3.10811424 1.92140019 -0.00102356856
      -1.07976139e-05 -2.706403e-07 -0.000106868829 0.140667975
      -0.00836942066 -0.000486965961 0.840998769 0.269596994
      -4.74037961e-06 -0.0058985888 -0.00350510469 -0.000315533456
      -0.00397012755 -0.00624125544 8.44102001 -0.0199848935
      -0.000679516874 0.366011918 -0.00408318965 -0.0017577511
      -5.66824056e-05 -0.00731724268 5.70885849 -1.44422154e-06
      -9.11864918e-05 -0.00109754549 1.80482829 -0.000114557668
      -4.1057574e-05 -0.000338360987 -0.000335050747 -0.00136233226
      -0.00519824727 -1.3917569e-05 -5.06938377e-05 -0.000666820095
      -9.1301348e-07 -2.00958925e-06 -0.00020978367 -3.08925883e-05
      -0.00777517911 -6.29223132e-06 -0.0031310427 -0.000690934714
      1.96434259 -0.00878775492 -0.0027075808 -0.0186752081 0.80828619
      -0.00424204161 -1.3079803e-08 0.740609229 0.737450361
      -7.7540426e-05 -6.62098391e-05 0.295742065 -0.00361129153
      0.57188952 -7.26086347e-09 -0.0001471453 0.0927864984
      -2.84836028e-06 -1.93955199e-08 0.443865061 0.532164752
      -0.00021643861 -0.000929644331 -0.0021300239 -1.21348718e-08
      0.383041382 -2.3949633e-05 -0.000212074548 -2.64337746e-06
      -2.54476254e-06 0.693060458 -0.00252687512 -0.00664274395
      0.204265907 -1.01322405e-06 -0.000562028494 -3.92750326e-06
      0.0880156532 0.62846446 0.375374556 0.356974065 -0.00029530318
      0.336861104 -0.000752156833 -2.55806699e-05 -0.000416016061
      0.195500538 0.450926811 0.766235352 -0.000344881177 0.523435116
      0.791344881 0.220629349 -0.00143891957 -0.000984630315 0.456327558
      0.203171626 -0.00199276302 -1.375584e-05 -0.00405892543
      0.245927721 -0.0047493875 -0.00238616113 -0.000128164713
      -2.48030938e-06 0.482630461 -1.8202816e-07 -3.4915567e-07
      0.117403999 0.708787978 -1.50154692e-05 -1.87307633e-05
      -0.000214360989 -0.00039250488 0.256124198 -4.62296832e-08
      -2.7585495e-10 -5.29326405e-09 -2.68695602e-13 -0.000151299188
      -8.56742702e-07 -2.3072122e-10 -9.51691254e-05 0.198650971
      -1.95459652e-05 -0.000206523124 -0.000143778743 -3.98444099e-05
      -1.61703992e-05 0.0701941997 -6.27802763e-07 -7.89556179e-06
      0.0678991228 -0.000255564199 0.0217658319 -9.38649828e-05
      0.0402915329 -0.000672023161 0.117984958 -5.96265224e-08
      0.210268021 -1.50575454e-06 -0.000121024321 -3.66130894e-06
      6.03475492e-05 -0.000197395959 -2.57304208e-07 -3.68103019e-06
      0.0521372445 -5.820608e-09 -6.84988677e-10 -1.10841922e-08
      -8.44041836e-10 0.160160452 0.404319763 -2.46539512e-05 0.11477641
      -9.21550309e-05 -1.54355273e-09 -1.50222988e-07 -4.22259509e-05
      -3.66619268e-09 -0.000486682839 -0.000205231176 -1.28035554e-10
      -3.17092213e-06 0.0307880454 -0.000266927032 -1.61008913e-07
      -0.000194631939 -1.06651212e-08 -2.96430571e-05 -9.14410848e-05
      -6.31488911e-06</_>
    <_>
      -2.07819629 -8.71097279 -0.00392933935 -0.0132255834
      -3.43838487e-08 -0.000249303761 -0.00862086006 -0.000331830175
      -0.00140736043 -2.1530368e-06 -1.32998412e-05 -2.64345886e-07
      -8.15460808e-05 -0.000333581062 -0.000161596719 2.63756084
      4.14214277 -0.0019028344 1.2171073 -0.000161567339 -0.00123638078
      -0.000508797646 -0.00290890737 0.241829574 -1.20774166e-05
      3.54609871 5.38580084 -1.96413439e-05 -4.20971992e-05
      -1.92161078e-05 0.0596834533 -0.000132410176 1.34306765
      -0.00100121589 -9.93999638e-05 -0.000582850771 -0.000323111191
      -6.93827387e-05 -0.00188244518 -0.00019125361 -0.000105408959
      -0.000841519213 -0.00107912242 -0.000358195452 -0.00207813224
      -0.00118179561 -0.000276214501 1.84272337 2.5115602 -0.0105218254
      -0.00137253129 -0.000901537191 -3.64234324e-06 -0.00656315358
      0.31872198 -0.023210045 -0.0194144137 -0.00239759404 0.233593196
      -0.00289562694 -0.000583951653 -0.000390986679 -0.000493080821
      4.2487874 1.44131756 -3.71210444e-05 -3.23050663e-05
      -2.72764009e-05 -0.00343960617 -0.00139445392 -0.000613493088
      2.47677922 -0.00123646844 -7.61504198e-05 -3.61299681e-06
      -0.00107740413 -2.92168479e-05 3.12728333 1.95401382
      -0.00103113533 -1.07722817e-05 -2.52158117e-07 -0.000106549734
      0.146072388 -0.00940054189 -0.000490282662 0.853850007 0.309162736
      -4.75501065e-06 -0.00578614231 -0.00355111482 -0.000315535581
      -0.00395728089 -0.00627196487 8.44441891 -0.0198708978
      -0.0006698129 0.314247459 -0.00406149635 -0.00175977312
      -5.66494928e-05 -0.00731091108 5.70219994 -1.43395516e-06
      -9.37875448e-05 -0.00110381201 1.80089772 -0.000114800394
      -4.06640793e-05 -0.000339123711 0.0451492295 -0.00136292528
      -0.00487576751 -1.41849578e-05 -4.98902191e-05 -0.000661491824
      -9.30007559e-07 -2.0127527e-06 -0.000207126839 -3.09535462e-05
      -0.0078223031 -6.31164994e-06 -0.00317710568 -0.00068828027
      1.96206093 -0.00869633444 -0.00266544218 -0.0187502522 0.791139245
      -0.00425248407 -1.3191455e-08 0.723141134 0.729454517
      -7.74117943e-05 -6.6789893e-05 0.317459166 -0.00364971044
      0.566115558 -7.31661176e-09 -0.000147363025 0.0788624361
      -2.83062923e-06 -1.95954577e-08 0.451413691 0.520739138
      -0.000214564381 -0.000947014603 -0.00205858913 -1.21532162e-08
      0.376197875 -2.40376921e-05 -0.000211601407 -2.6440382e-06
      -2.54700672e-06 0.704908609 -0.00257279002 -0.00671464857
      0.197556794 -1.0205523e-06 -0.000582062348 -3.93813343e-06
      0.0803670138 0.613647223 0.372613579 0.350152969 -0.000328449561
      0.350487292 -0.000720539072 -2.55913219e-05 -0.000414786919
      0.202708468 0.449023068 0.763555884 -0.00034536203 0.508587003
      0.811253667 0.235627085 -0.00144654664 -0.00105811225 0.451213926
      0.196288705 -0.00199719495 -1.38159003e-05 -0.00402218336
      0.254471034 -0.00474130968 -0.00236552744 -0.000128413943
      -2.49082791e-06 0.4713718 -1.84917027e-07 -3.51057537e-07
      0.119433597 0.702514112 -1.50132546e-05 -1.87270507e-05
      -0.000214414176 -0.000392631948 0.255645812 -4.62141614e-08
      -2.76068723e-10 -5.29182076e-09 -2.68538609e-13 -0.000151297703
      -8.5661668e-07 -2.30696171e-10 -9.51629409e-05 0.198238403
      -1.95434914e-05 -0.000206545257 -0.000143778656 -3.98408702e-05
      -1.61679927e-05 0.0709628761 -6.27701411e-07 -7.8947005e-06
      0.0685314834 -0.000255699182 0.0225151815 -9.37620134e-05
      0.0401472151 -0.000672809896 0.117980182 -5.96094196e-08
      0.209872603 -1.50687674e-06 -0.000121023353 -3.66026188e-06
      5.99082559e-05 -0.000197453701 -2.57154426e-07 -3.68036694e-06
      0.0529359132 -5.8181735e-09 -6.84934331e-10 -1.10898473e-08
      -8.43786763e-10 0.159900367 0.403811663 -2.46501058e-05
      0.115190312 -9.21485262e-05 -1.54230728e-09 -1.5018432e-07
      -4.22218982e-05 -3.66528341e-09 -0.000487196288 -0.00020519222
      -1.27989036e-10 -3.17040622e-06 0.0305548869 -0.000267048803
      -1.60958564e-07 -0.000194673092 -1.06623252e-08 -2.9640607e-05
      -9.11933166e-05 -6.31409148e-06</_>
    <_>
      -2.04704428 -9.15361881 -0.00392709766 -0.0134858536
      -3.34802301e-08 -0.000271371886 -0.00867858063 -0.000328931084
      -0.00148491561 -2.15906562e-06 -1.33931362e-05 -2.68321259e-07
      -8.27192998e-05 -0.000336160098 -0.000161093194 2.54511142
      4.32976437 -0.00193072192 1.09005749 -0.000160729236
      -0.00129924098 -0.000519126072 -0.00290215365 0.255266398
      -1.21354651e-05 3.68842244 5.55905247 -1.93436081e-05
      -4.22186058e-05 -1.90727715e-05 0.0227610208 -0.000135435097
      1.45462978 -0.00100119517 -0.000100663536 -0.000590052572
      -0.000326679525 -7.16629947e-05 -0.00120530557 -0.000195892673
      -0.000104830397 -0.000868739036 -0.00106205873 -0.000363064319
      -0.00220097974 -0.00121097849 -0.000285167014 1.75909376
      2.51759434 -0.0103909047 -0.00138686574 -0.000988670508
      -3.65614187e-06 -0.00655949442 0.33197853 -0.0234029591
      -0.0182937216 -0.00242734468 0.158172086 -0.00291158189
      -0.000598202052 -0.000395188283 -0.000479094218 4.38645554
      1.59311807 -3.72682698e-05 -3.2833359e-05 -2.88081774e-05
      -0.0034759196 -0.00145059184 -0.000598301995 2.46577668
      -0.00124160445 -7.65052537e-05 -3.78473851e-06 -0.0010707546
      -2.9842553e-05 3.31154633 1.86981606 -0.00102974952
      -1.09659204e-05 -2.57209393e-07 -0.000103089325 0.199155092
      -0.00989455171 -0.000485506753 0.860473752 0.3244766
      -4.78080119e-06 -0.00575739983 -0.00350036891 -0.000318415085
      -0.00406595832 -0.00637934171 8.74298096 -0.0201198123
      -0.000676218828 0.311227232 -0.00413355511 -0.00179784175
      -5.7282763e-05 -0.0073629301 5.8918829 -1.46542277e-06
      -9.02838146e-05 -0.00112921384 1.71591437 -0.000116617288
      -4.11325673e-05 -0.000342266954 -0.000118635216 -0.00136689551
      -0.00465951301 -1.37855013e-05 -5.06890028e-05 -0.000666394073
      -9.3261275e-07 -1.94362474e-06 -0.00021706718 -3.15417965e-05
      -0.00800808426 -6.37603443e-06 -0.00314890197 -0.000710432359
      2.0851779 -0.00888099801 -0.00272083445 -0.0188933033 0.898066401
      -0.00434005912 -1.30697071e-08 0.749003232 0.742045462
      -7.77584064e-05 -6.60344231e-05 0.285834491 -0.00360129564
      0.575523853 -7.22887172e-09 -0.000148137522 0.106412418
      -2.86244926e-06 -1.92392413e-08 0.435617208 0.535158694
      -0.000217525725 -0.00096480269 -0.00209241174 -1.22846178e-08
      0.379217237 -2.39052897e-05 -0.000213029896 -2.63640982e-06
      -2.54591509e-06 0.686785936 -0.00245772977 -0.00668650633
      0.211455002 -1.01023932e-06 -0.000556182757 -3.92203901e-06
      0.0975300297 0.633297622 0.388071388 0.360619456 -0.000301815366
      0.330061883 -0.000709310931 -2.58387754e-05 -0.000417720526
      0.194190174 0.453773379 0.770757139 -0.000343339954 0.543922305
      0.780595064 0.211185277 -0.00138885947 -0.000887794944 0.458446234
      0.203052431 -0.00199597981 -1.37236057e-05 -0.00407568924
      0.240079194 -0.00479321415 -0.0024015212 -0.000128366446
      -2.47294315e-06 0.486100763 -1.81256539e-07 -3.48134932e-07
      0.117602751 0.712066412 -1.50106162e-05 -1.87250098e-05
      -0.00021438906 -0.000392933813 0.255973697 -4.62023131e-08
      -2.75506701e-10 -5.29039035e-09 -2.68489278e-13 -0.00015128596
      -8.56485997e-07 -2.30599095e-10 -9.51563707e-05 0.198665351
      -1.95412122e-05 -0.000203623844 -0.000143770216 -3.98369557e-05
      -1.61662647e-05 0.0706202984 -6.27595568e-07 -7.8939438e-06
      0.0681567788 -0.000255685067 0.0226643961 -9.38458907e-05
      0.0404883921 -0.000673202914 0.117259383 -5.95954859e-08
      0.210201651 -1.50817414e-06 -0.000121012839 -3.65909068e-06
      5.86901442e-05 -0.000197445392 -2.57104659e-07 -3.67992629e-06
      0.0527734347 -5.81613424e-09 -6.84799994e-10 -1.10887051e-08
      -8.4355023e-10 0.161155745 0.405038893 -2.46468499e-05 0.114140905
      -9.21382089e-05 -1.54140112e-09 -1.50143308e-07 -4.22183221e-05
      -3.66464459e-09 -0.000487380283 -0.00020299929 -1.27938382e-10
      -3.16997489e-06 0.0307521448 -0.000267110969 -1.60916372e-07
      -0.000194650755 -1.06598312e-08 -2.9638064e-05 -9.2428978e-05
      -6.31327566e-06</_>
    <_>
      -2.03424239 -8.84413338 -0.00392610347 -0.0126232477
      -3.35488011e-08 -0.000271255325 -0.00862555113 -0.00033066675
      -0.00146116898 -2.17732008e-06 -1.35527744e-05 -2.74418568e-07
      -8.251892e-05 -0.00033455441 -0.000159455099 2.43357015 4.25530195
      -0.00194373995 1.23028755 -0.000159303992 -0.00132294558
      -0.000516346248 -0.00289613311 0.225040525 -1.21911535e-05
      3.66102552 5.49004889 -1.97298177e-05 -4.32892521e-05
      -1.89858783e-05 0.174877346 -0.000136067305 1.3570199
      -0.000982265105 -0.000100821773 -0.000589370611 -0.000331127201
      -7.13533082e-05 -0.000497046858 -0.000195167988 -0.000105431107
      -0.000882892171 -0.00104972778 -0.000366103632 -0.00237144274
      -0.00122879655 -0.00028100409 1.91486275 2.54473042 -0.0100712841
      -0.00137080229 -0.000984941144 -3.65378037e-06 -0.00653663464
      0.267166406 -0.0234031714 -0.0174457729 -0.00239664526 0.179948986
      -0.00285521615 -0.000628356123 -0.000411077344 -0.000480164395
      4.34295797 1.5573976 -3.89881679e-05 -3.34360266e-05
      -2.88351039e-05 -0.00352159631 -0.00143953005 -0.000616542355
      2.43144059 -0.00126651721 -7.74628497e-05 -3.61818775e-06
      -0.00109301216 -3.0301735e-05 3.22305393 1.80165815 -0.00104173087
      -1.08754657e-05 -2.93107007e-07 -0.000114480485 0.167734772
      -0.0092343241 -0.000482446281 0.915496051 0.403033912
      -4.73297951e-06 -0.00572672719 -0.00360066188 -0.000315664045
      -0.00410537003 -0.00644097291 8.63700962 -0.0200471785
      -0.000682906131 0.344237387 -0.0041401484 -0.00180429139
      -5.77980463e-05 -0.00740937702 5.83015633 -1.50553194e-06
      -8.94390832e-05 -0.00114393444 1.80040991 -0.000116899944
      -4.1854677e-05 -0.000333117438 0.0907772109 -0.00135865645
      -0.0046533118 -1.3909661e-05 -5.27091652e-05 -0.000658310659
      -9.46040018e-07 -1.98343128e-06 -0.000216603687 -3.17911181e-05
      -0.00790003687 -6.35645938e-06 -0.00312368618 -0.000698471849
      2.01923919 -0.00894304831 -0.00265367911 -0.0192248207 0.870972157
      -0.00428447872 -1.32839268e-08 0.739835858 0.736268938
      -7.7058743e-05 -6.58569043e-05 0.293108881 -0.00359556405
      0.576319993 -7.43514983e-09 -0.000147310275 0.0947393402
      -2.79498454e-06 -1.99743955e-08 0.429044843 0.52689606
      -0.00021572414 -0.000964999082 -0.00204506097 -1.23076527e-08
      0.371045798 -2.41128964e-05 -0.000210401704 -2.6209616e-06
      -2.57589227e-06 0.68906188 -0.00256070658 -0.00653135963
      0.207673803 -1.02763249e-06 -0.000606092566 -3.97384702e-06
      0.0992089435 0.618753254 0.380907416 0.365916729 -0.000273919082
      0.32969141 -0.000737223017 -2.54197093e-05 -0.000411910994
      0.193619072 0.444101065 0.764935911 -0.000341672741 0.528299809
      0.789952397 0.211518839 -0.00135914085 -0.000865251524 0.458333552
      0.204308048 -0.00198024325 -1.38995902e-05 -0.00401862431
      0.239632964 -0.00471782312 -0.00235535414 -0.000127273466
      -2.50119479e-06 0.47628504 -1.8360528e-07 -3.55574116e-07
      0.115703225 0.707255125 -1.50077276e-05 -1.8720295e-05
      -0.000214453714 -0.000393107737 0.255397707 -4.61824108e-08
      -2.75741735e-10 -5.28852295e-09 -2.68291845e-13 -0.000151283486
      -8.56322515e-07 -2.30562763e-10 -9.5148338e-05 0.198176444
      -1.95380235e-05 -0.000203492891 -0.000143769663 -3.98323537e-05
      -1.61631851e-05 0.0715556592 -6.2746409e-07 -7.89283422e-06
      0.0689212307 -0.000255851803 0.0236024801 -9.37226359e-05
      0.0403278023 -0.000674200186 0.117214315 -5.95735052e-08
      0.209728673 -1.50963569e-06 -0.000121011064 -3.65772848e-06
      5.80797205e-05 -0.00019751658 -2.56916138e-07 -3.67907978e-06
      0.0537558049 -5.81300341e-09 -6.84725388e-10 -1.10956604e-08
      -8.43220938e-10 0.160900995 0.404474676 -2.46419058e-05
      0.114597633 -9.21295941e-05 -1.53980695e-09 -1.50093129e-07
      -4.22131016e-05 -3.66348218e-09 -0.00048802729 -0.000202831987
      -1.2787793e-10 -3.16931141e-06 0.0304734893 -0.000267265423
      -1.60851627e-07 -0.000194700595 -1.0656227e-08 -2.96348917e-05
      -9.21883257e-05 -6.31224248e-06</_>
    <_>
      -2.06613064 -8.68873405 -0.00394432666 -0.013958673
      -3.40543487e-08 -0.000264017552 -0.00871112011 -0.000343596097
      -0.00144881965 -2.21217965e-06 -1.38396572e-05 -2.76231077e-07
      -8.32056394e-05 -0.000338392187 -0.000159126401 2.55859709
      4.16047144 -0.00196523103 1.22217631 -0.000162157652
      -0.00131762552 -0.000519335503 -0.00293643726 0.209632814
      -1.2340658e-05 3.55696011 5.41723871 -1.92436037e-05
      -4.22735502e-05 -1.95952252e-05 0.188990518 -0.00013745451
      1.34849167 -0.000988391577 -0.000100998041 -0.000596042722
      -0.000331402814 -7.09211454e-05 -0.000226691976 -0.000194010325
      -0.000109426997 -0.000876046601 -0.00106859661 -0.000354836375
      -0.00245468505 -0.00127576618 -0.000279237662 1.88704169
      2.45689774 -0.0103124818 -0.0013828848 -0.000954739575
      -3.81883001e-06 -0.00659408513 0.380556732 -0.0235189591
      -0.0180432554 -0.00239726109 0.182984173 -0.00286210631
      -0.000631949166 -0.00042462803 -0.000497804547 4.27225637
      1.46523356 -3.85958847e-05 -3.35451223e-05 -2.7809001e-05
      -0.00351182069 -0.00141427666 -0.000626906054 2.5699532
      -0.00128759781 -7.92664723e-05 -3.72691079e-06 -0.00109225139
      -3.01826567e-05 3.16386461 1.90950024 -0.00105977582
      -1.09674174e-05 -2.55028823e-07 -0.000124348444 0.222947508
      -0.0101887472 -0.000488677993 0.837965488 0.36853826
      -4.88182923e-06 -0.00579717569 -0.00370094948 -0.000318295177
      -0.0041603935 -0.00653894432 8.5071764 -0.0201599281
      -0.000678542478 0.296876043 -0.0042192149 -0.00180008763
      -5.7200883e-05 -0.00752703287 5.75295353 -1.50648918e-06
      -9.08366201e-05 -0.00114571676 1.84599459 -0.000118391494
      -4.17830743e-05 -0.00033283027 0.0901477262 -0.00139478757
      -0.0047072405 -1.4227563e-05 -5.12433653e-05 -0.000662294158
      -9.45866304e-07 -2.01019361e-06 -0.000211993785 -3.21253538e-05
      -0.00780155836 -6.26861402e-06 -0.00323646795 -0.000695271126
      1.94119596 -0.00902919192 -0.00262580859 -0.019125985 0.786198497
      -0.00430575293 -1.3087301e-08 0.745979249 0.741818368
      -7.74962173e-05 -6.54603646e-05 0.283519566 -0.00348213152
      0.581510246 -7.24417193e-09 -0.000148838284 0.118777476
      -2.83275199e-06 -1.93496401e-08 0.427123129 0.524507821
      -0.000218330766 -0.00101749168 -0.00215248321 -1.22208119e-08
      0.376189768 -2.39003566e-05 -0.00021283362 -2.59417925e-06
      -2.54740985e-06 0.683735788 -0.00239400496 -0.00674337475
      0.216859564 -1.01132241e-06 -0.000615470461 -3.92551692e-06
      0.106977813 0.633132815 0.402565122 0.365568221 -0.000301838591
      0.319281816 -0.000689189415 -2.56950825e-05 -0.000417874049
      0.198935628 0.458014041 0.773751259 -0.000342076935 0.562944412
      0.783012033 0.198668286 -0.00133576186 -0.000792619248 0.460730523
      0.216515243 -0.00198013429 -1.37550151e-05 -0.00408499083
      0.227968186 -0.00480343821 -0.0024079415 -0.000128030297
      -2.46275386e-06 0.490110904 -1.80716597e-07 -3.48588088e-07
      0.11894457 0.706863105 -1.5007492e-05 -1.87210881e-05
      -0.000214415311 -0.000393195951 0.255792797 -4.61840806e-08
      -2.75358264e-10 -5.28851274e-09 -2.68343805e-13 -0.000151278378
      -8.56318934e-07 -2.30526681e-10 -9.51480833e-05 0.198589742
      -1.95380926e-05 -0.000202016963 -0.000143765501 -3.98321245e-05
      -1.6163498e-05 0.0710115358 -6.27460736e-07 -7.89287787e-06
      0.0684270859 -0.000255779014 0.0233148038 -9.38146331e-05
      0.040568985 -0.000674012583 0.116854534 -5.95749015e-08
      0.210084215 -1.5097321e-06 -0.000121006298 -3.65765641e-06
      5.76901366e-05 -0.000197484362 -2.56964285e-07 -3.67918369e-06
      0.0532877371 -5.81317394e-09 -6.84685308e-10 -1.10923484e-08
      -8.43227543e-10 0.16165629 0.405334622 -2.46421587e-05 0.113870427
      -9.21276223e-05 -1.5399626e-09 -1.50091552e-07 -4.2213298e-05
      -3.6636072e-09 -0.000487869023 -0.000201750983 -1.27875363e-10
      -3.16934825e-06 0.0306854248 -0.000267237134 -1.60855151e-07
      -0.000194669468 -1.06563478e-08 -2.96348189e-05 -9.29269736e-05
      -6.31222474e-06</_>
    <_>
      -2.02301741 -8.33000755 -0.00392859615 -0.0136296339
      -3.68380384e-08 -0.000260415894 -0.00856814347 -0.000362649182
      -0.00145751762 -2.34576055e-06 -1.40634584e-05 -2.71094819e-07
      -8.15490712e-05 -0.000338022626 -0.000155613103 2.51404095
      4.05964804 -0.00201068609 1.40691161 -0.000159960036
      -0.00132776739 -0.000514924992 -0.00298376381 0.172938228
      -1.25160586e-05 3.47180104 5.33193159 -1.95518605e-05
      -4.18170821e-05 -2.00805498e-05 0.298838466 -0.000134765854
      1.34494233 -0.000945783977 -9.94696093e-05 -0.000597451115
      -0.000328281632 -7.10676904e-05 -9.42474799e-05 -0.000195690649
      -0.000111281675 -0.000882358989 -0.00106583454 -0.000344258093
      -0.00280517386 -0.00134432479 -0.000279752741 2.03629422
      2.44685674 -0.010224849 -0.00137253595 -0.000987724634
      -4.0737832e-06 -0.00672789011 0.449174315 -0.0231814235
      -0.0193192009 -0.00234235683 0.174878329 -0.00290294527
      -0.000618492952 -0.000455986621 -0.000532583217 4.18350029
      1.39629662 -3.81739883e-05 -3.43942083e-05 -2.81652028e-05
      -0.00353136612 -0.00137455063 -0.000632133044 2.55083251
      -0.00128839235 -8.03088478e-05 -3.82122698e-06 -0.00107897818
      -3.03658981e-05 3.062078 1.93456638 -0.00108260149 -1.10637166e-05
      -2.64539835e-07 -0.000132063287 0.248445749 -0.0104360553
      -0.000486615929 0.818595827 0.314880311 -4.89833701e-06
      -0.00575668737 -0.00379524846 -0.000315350015 -0.00421630917
      -0.00653405255 8.38301182 -0.0196949616 -0.000685307081
      0.312559575 -0.00424211286 -0.00176780799 -5.80860833e-05
      -0.00750752864 5.65696239 -1.5456327e-06 -9.47740409e-05
      -0.00113366707 1.93340349 -0.000119470264 -4.166488e-05
      -0.00033363793 0.174413979 -0.00141896412 -0.00452842098
      -1.47697592e-05 -5.15264546e-05 -0.000656326127 -9.74888849e-07
      -2.04529874e-06 -0.000206653625 -3.2441465e-05 -0.00777187943
      -6.12574013e-06 -0.00331860175 -0.000667904504 1.8522805
      -0.00904758926 -0.00252193329 -0.0186985992 0.730452597
      -0.00422121119 -1.33477966e-08 0.743705988 0.740257442
      -7.67013335e-05 -6.48689602e-05 0.27994141 -0.00355357141
      0.584853113 -7.5045854e-09 -0.000148128398 0.108037643
      -2.75797288e-06 -2.02192929e-08 0.41450125 0.527942598
      -0.000215983353 -0.00104156183 -0.00213910476 -1.23687478e-08
      0.371681243 -2.41755624e-05 -0.000209911013 -2.57605166e-06
      -2.59405874e-06 0.681220114 -0.00260722754 -0.00652727531
      0.216927513 -1.03171408e-06 -0.000672786322 -3.9973329e-06
      0.11563722 0.620058656 0.396625131 0.37844032 -0.000218756628
      0.310553044 -0.000766911486 -2.53452163e-05 -0.000410402223
      0.186868206 0.435556203 0.765648782 -0.000339319464 0.537949085
      0.793500423 0.19696483 -0.00127209036 -0.00070840132 0.474698424
      0.204451054 -0.00196169456 -1.39689382e-05 -0.00402622996
      0.230039805 -0.00476442976 -0.0023482861 -0.00012630719
      -2.50733956e-06 0.478988916 -1.82813451e-07 -3.57857118e-07
      0.117572904 0.715093315 -1.50031765e-05 -1.87156293e-05
      -0.000214452957 -0.000393555936 0.255530179 -4.61587781e-08
      -2.75165585e-10 -5.28591482e-09 -2.68140572e-13 -0.000151268032
      -8.56087752e-07 -2.30427691e-10 -9.51366164e-05 0.198470861
      -1.95337689e-05 -0.000199859918 -0.000143759113 -3.98254524e-05
      -1.61596581e-05 0.071570985 -6.27274346e-07 -7.89140086e-06
      0.068817988 -0.000255911611 0.024220882 -9.37680597e-05
      0.0406706184 -0.000675140007 0.116311401 -5.95463661e-08
      0.209910423 -1.51188954e-06 -0.000120997429 -3.65567234e-06
      5.63156791e-05 -0.000197539382 -2.56768345e-07 -3.67815164e-06
      0.0540134497 -5.809071e-09 -6.84527379e-10 -1.10974918e-08
      -8.42780623e-10 0.162317514 0.40571171 -2.4635654e-05 0.113526016
      -9.2113034e-05 -1.53796598e-09 -1.50019972e-07 -4.22063313e-05
      -3.66216679e-09 -0.000488550751 -0.0002000729 -1.27788252e-10
      -3.16847922e-06 0.0305854194 -0.00026741263 -1.60770284e-07
      -0.000194696433 -1.06515223e-08 -2.96303242e-05 -9.35864446e-05
      -6.31077091e-06</_>
    <_>
      -2.0008173 -9.0658102 -0.00398832746 -0.0127875824 -3.57691867e-08
      -0.000257064792 -0.00868857373 -0.000346523506 -0.0013849024
      -2.34051822e-06 -1.39497388e-05 -2.74039195e-07 -8.39336935e-05
      -0.000337808568 -0.000162501514 2.50242734 4.29963493
      -0.00197553122 1.0787735 -0.000163868695 -0.00131996779
      -0.000515541411 -0.00297722383 0.221781611 -1.2659385e-05
      3.70451093 5.54056358 -1.9941328e-05 -4.36857881e-05
      -1.97186291e-05 0.0703220814 -0.000134999631 1.38082111
      -0.00100719579 -0.0001005757 -0.000586767041 -0.000333019794
      -7.27476727e-05 -0.000180219955 -0.000194658031 -0.00011100807
      -0.000875828264 -0.00109333266 -0.00035538993 -0.00235106726
      -0.00123169343 -0.000282579655 1.78736055 2.59737754 -0.0100863418
      -0.00139006332 -0.00094539643 -3.8476619e-06 -0.00663892785
      0.360396951 -0.0236003511 -0.0199912265 -0.00240609772 0.172399312
      -0.00288039562 -0.00063501962 -0.000409062224 -0.000508893398
      4.34998703 1.55511546 -3.8538019e-05 -3.37899874e-05
      -2.85309688e-05 -0.00360702653 -0.00141448644 -0.000621072366
      2.47488046 -0.00128754997 -8.02426803e-05 -3.577813e-06
      -0.00108632841 -3.12707707e-05 3.24812198 1.91701698
      -0.00106133067 -1.10270403e-05 -2.62345026e-07 -0.000118991498
      0.168457627 -0.0100167189 -0.00049378589 0.918679476 0.275666893
      -4.93275229e-06 -0.00571627961 -0.00382975652 -0.000318239647
      -0.0041117603 -0.00646694889 8.69229794 -0.0201734472
      -0.000677539618 0.349324763 -0.00421329681 -0.00179231644
      -5.85530215e-05 -0.0075406949 5.86249352 -1.48670154e-06
      -9.54536226e-05 -0.00113818818 1.72085893 -0.000122883619
      -4.21144287e-05 -0.000341471052 0.0444481745 -0.00140125118
      -0.00481281709 -1.45928234e-05 -5.08650337e-05 -0.000678656506
      -9.8248006e-07 -2.15368505e-06 -0.000210820537 -3.20976214e-05
      -0.00792330876 -6.33334048e-06 -0.0032201414 -0.0007023855
      2.05815387 -0.00899675116 -0.00264962367 -0.0192724764 0.878024578
      -0.00420341268 -1.34933833e-08 0.687524974 0.711931646
      -7.5857075e-05 -6.50144575e-05 0.326668561 -0.00336545962
      0.567914486 -7.57146967e-09 -0.000147465238 0.0825448558
      -2.69312909e-06 -2.06446842e-08 0.439127862 0.487140357
      -0.000214770538 -0.00101733441 -0.00225861697 -1.21280594e-08
      0.362907261 -2.42965016e-05 -0.00020910069 -2.54536485e-06
      -2.58055366e-06 0.693044126 -0.00259800931 -0.00662661903
      0.202495709 -1.0437368e-06 -0.000768597762 -3.99574674e-06
      0.102995269 0.593333483 0.403159618 0.362469107 -0.000281301967
      0.32622233 -0.000732507673 -2.49191853e-05 -0.000408566353
      0.216322273 0.445366323 0.751115263 -0.000344119588 0.514434934
      0.835660696 0.207311362 -0.00135448365 -0.00100890722 0.451749235
      0.219479918 -0.00193618622 -1.40883885e-05 -0.00396196358
      0.224009454 -0.00462431647 -0.00232284283 -0.000125760867
      -2.50773655e-06 0.457777947 -1.88320442e-07 -3.59904107e-07
      0.121652454 0.693679988 -1.49959114e-05 -1.87111127e-05
      -0.000214343047 -0.000394456147 0.256846577 -4.61292231e-08
      -2.73242817e-10 -5.28210231e-09 -2.68068282e-13 -0.000151231172
      -8.55737085e-07 -2.30129291e-10 -9.5118914e-05 0.200070679
      -1.95278008e-05 -0.000190436374 -0.000143732032 -3.9814804e-05
      -1.61554326e-05 0.0700469315 -6.26989618e-07 -7.88944362e-06
      0.0672653317 -0.000255791994 0.0242917687 -9.40942773e-05
      0.0418484882 -0.000675969466 0.113991931 -5.95109775e-08
      0.211185023 -1.51543873e-06 -0.0001209642 -3.65248457e-06
      5.26453368e-05 -0.000197481058 -2.56690754e-07 -3.67709958e-06
      0.0530533977 -5.80386184e-09 -6.84128365e-10 -1.10907372e-08
      -8.42160508e-10 0.166502237 0.409939766 -2.4627303e-05 0.109919459
      -9.208345e-05 -1.53573831e-09 -1.49909383e-07 -4.21970653e-05
      -3.66061381e-09 -0.000488859776 -0.000193028376 -1.27650959e-10
