<?xml version="1.0"?>
<opencv_storage>
<opencv_ml_svm>
  <format>3</format>
  <svmType>EPS_SVR</svmType>
  <kernel>
    <type>RBF</type>
    <gamma>0.0050000000000000001</gamma></kernel>
  <C>1.</C>
  <p>0.001</p>
  <term_criteria><iterations>10000</iterations></term_criteria>
  <var_count>258</var_count>
  <sv_total>485</sv_total>
  <support_vectors>
    <_>
      -1.92842114 -1.99624324 -0.00465069246 -0.00165283144
      -4.61260967e-08 -8.88125869e-05 -0.00909549836 -0.000368117238
      -0.00118569972 -6.2557649e-07 -1.08151471e-05 -2.78156733e-07
      -5.13891391e-05 -0.00015550539 -0.000128240543 2.50999331
      0.071158804 -0.00189601234 2.77229095 -0.000113688839
      -0.000817525666 -0.000495063141 -0.0034258191 0.024746336
      -6.87845113e-06 0.0378086641 1.36089277 -1.09174507e-05
      -3.67175926e-05 -9.83427617e-06 1.18874228 -0.000158445182
      -0.00436828751 -0.000647517503 -6.60195947e-05 -0.000661482743
      -0.000245027099 -2.50160065e-05 -0.00382487592 -0.000100318226
      -0.000109805944 -0.000493230531 -0.000842738198 -0.000280153239
      0.00555074587 -0.0013244634 -0.000301738037 3.75056601 1.32294035
      -0.00883974042 -0.000943874242 -0.000878303195 -1.58949285e-06
      -0.00741525227 0.0601916239 -0.0140219219 -0.0181096829
      -0.00247545308 0.748098314 -0.00357435551 -0.000453762797
      -0.00039746429 -0.00062418991 1.51989126 -0.0172978323
      -3.739569e-05 -2.3847937e-05 -8.99752285e-06 -0.00365089974
      -0.000971101806 -0.000587875897 3.2339294 -0.0013014978
      -8.11361388e-05 -2.3739276e-06 -0.000960190024 -1.54765221e-05
      -0.00669359136 0.544990063 -0.00127602892 -6.47871684e-06
      -6.04811987e-08 -0.000288779353 0.523816049 0.124991246
      -0.000338826852 0.58233285 0.643885314 -5.30617308e-06
      -0.00692356611 -0.00422089221 -0.000280384644 -0.00379044632
      -0.00488731172 1.93688202 -0.0155709982 -0.000549610413
      0.0914957523 -0.00448120898 -0.00171337032 -2.26876691e-05
      -0.00549566373 1.71475005 -5.43151032e-07 -6.29840943e-05
      -0.000835634302 3.746665 -5.46360607e-05 -2.73946334e-05
      -0.000234169042 0.682446897 -0.00123382488 -0.00682945456
      -1.19538063e-05 -3.32214368e-05 -0.000255357358 -4.93413722e-07
      -1.5949613e-06 -9.70032415e-05 -3.60157137e-05 -0.0055363737
      -5.95820165e-06 -0.00501044514 -0.000286518189 -0.0105839493
      -0.00755160023 -0.00145823776 -0.0159844533 -0.0164648164
      -0.00130855828 -1.61664637e-08 0.111749589 0.224169388
      -7.13546906e-05 -4.38520947e-05 0.0901863277 0.244174212
      0.137335584 -1.0151183e-08 -0.000168966275 0.428524017
      -2.77141953e-06 -2.67035851e-08 0.37815845 1.08429027
      -0.000175646099 0.0456064045 -0.00263695209 -8.9291774e-09
      0.0216995254 -2.32759921e-05 -0.000113196293 -2.83181544e-06
      -2.96995336e-06 -0.00115832034 -0.000246886426 -0.000230600155
      -0.00177128322 -1.27393832e-06 -0.00349624292 -4.49178606e-06
      -0.00278357207 0.501598477 0.219633862 0.15050441 -0.00146334164
      0.140835419 0.377620816 -2.29557245e-05 -0.000358715275 0.10143733
      0.267519742 0.52386266 -0.000198552079 0.491826832 -0.000239022367
      0.0752510503 -0.00364456978 0.012973208 -0.0011510069 0.442777157
      -0.00151244551 -1.50408032e-05 -0.00319036935 0.152246296
      -0.00327730528 -0.00276786252 -9.3031158e-05 -2.9735404e-06
      -0.00169188378 -1.99820889e-07 -4.66116347e-07 0.0497377925
      -4.96948887e-05 -1.44852575e-05 -1.78404225e-05 -0.00022574731
      -0.00041857388 0.133970454 -4.25202309e-08 -3.09238024e-10
      -4.94646768e-09 -2.32989572e-13 -0.000150578766 -8.26493761e-07
      -2.26618946e-10 -9.3606177e-05 0.0949102044 -1.89527545e-05
      -0.0001961534 -0.0001434359 -3.89943816e-05 -1.55934322e-05
      0.267864108 -6.03365493e-07 -7.68981045e-06 0.227528006
      -0.000285031827 0.21202071 -7.43067721e-05 0.00685085729
      -0.000870171236 0.10994371 -5.55317676e-08 0.109711118
      -1.81475855e-06 -0.000120457182 -3.41366672e-06 -3.31684134e-07
      -0.000209352525 -2.21924566e-07 -3.52304369e-06 0.257312387
      -5.25319876e-09 -6.83382961e-10 -1.26381634e-08 -7.83178244e-10
      0.0990584791 0.277092963 -2.37326967e-05 0.214224488
      -9.03706386e-05 -1.24283994e-09 -1.40907943e-07 -4.12458721e-05
      -3.44722539e-09 -0.000609418086 -0.000201100076 -1.17328189e-10
      -3.04770106e-06 -0.000263402762 -0.000292498473 -1.49041853e-07
      -0.000203104108 -9.9923092e-09 -2.90609605e-05 -5.96750833e-05
      -6.12286294e-06</_>
    <_>
      -1.88228512 -2.07517385 -0.0045443913 -0.00145461946
      -4.50454252e-08 -8.85884147e-05 -0.00897174422 -0.000358137098
      -0.00116149581 -5.88142711e-07 -1.07762926e-05 -2.74244229e-07
      -4.98395202e-05 -0.000153963658 -0.000122546597 2.42626739
      0.00985172391 -0.00185888633 2.9455502 -0.000109948291
      -0.00082021876 -0.000478720875 -0.00336414459 0.0229845084
      -6.90588286e-06 0.0167909116 1.30621469 -1.08830545e-05
      -3.66431887e-05 -9.79613469e-06 1.28200924 -0.000156395268
      -0.00395249855 -0.000621856423 -6.42079831e-05 -0.000656078395
      -0.000249213423 -2.43556569e-05 -0.00405566581 -9.71633199e-05
      -0.000107887208 -0.0004897443 -0.000798095716 -0.000287610834
      -0.000176938134 -0.00132248877 -0.000298983039 3.96638083
      1.36007655 -0.00845185854 -0.00089933991 -0.000837645959
      -1.53541805e-06 -0.00734836515 0.0500999019 -0.0140051469
      -0.0169734489 -0.00240935665 0.75712043 -0.00348302769
      -0.000452385633 -0.000392058661 -0.0006078679 1.4635005
      -0.017567547 -3.78907571e-05 -2.31424128e-05 -8.95294579e-06
      -0.00359786418 -0.000948075729 -0.000596237544 3.2145555
      -0.00127931742 -7.93037616e-05 -2.16676472e-06 -0.000970188237
      -1.57535578e-05 -0.007335342 0.488963872 -0.00125752657
      -6.50239235e-06 -5.74615875e-08 -0.00027969011 0.540702045
      0.135543764 -0.000333636504 0.629729748 0.705040872 -5.1386105e-06
      -0.00695944531 -0.00428055646 -0.000269843295 -0.00373981218
      -0.00492627593 1.87918568 -0.0154516315 -0.000556058134
      0.141085193 -0.00442366209 -0.00168293982 -2.2155933e-05
      -0.00548184244 1.64557266 -5.42971065e-07 -6.07540351e-05
      -0.000840689812 3.86459208 -5.11659637e-05 -2.75573766e-05
      -0.000223377079 0.689543903 -0.00120844273 -0.00687137013
      -1.17888112e-05 -3.22041778e-05 -0.000229884245 -4.72124611e-07
      -1.53448264e-06 -9.52938935e-05 -3.52368443e-05 -0.0054534087
      -5.79714333e-06 -0.0049705836 -0.000272671459 -0.0109700048
      -0.00773790525 -0.00138975459 -0.0162050538 -0.0168365762
      -0.00122059358 -1.6356223e-08 0.115066223 0.238599479
      -7.07976506e-05 -4.30818727e-05 0.083745718 0.247159243
      0.134376734 -1.03153592e-08 -0.000170644591 0.404139757
      -2.69612701e-06 -2.73099925e-08 0.377235532 1.1102742
      -0.000174852423 0.0360594466 -0.00223500165 -8.93769947e-09
      0.00771550834 -2.34438521e-05 -0.000110568515 -2.80308404e-06
      -2.99514545e-06 -0.000926941517 -0.000310632109 -0.000213523424
      -0.00177941052 -1.28558122e-06 -0.0035967126 -4.54095607e-06
      -0.00273638242 0.474302411 0.224500984 0.128047571 -0.00142644998
      0.157944977 0.408296317 -2.26427128e-05 -0.000356342498
      0.101086818 0.253390312 0.542927325 -0.000194919267 0.502005816
      -0.000363339321 0.0746626407 -0.00347044342 0.0244189315
      -0.00124543242 0.427469194 -0.00155047863 -1.52088305e-05
      -0.00314937532 0.17416352 -0.00333674205 -0.00274173007
      -9.2871036e-05 -2.9751327e-06 -0.00189535168 -2.00818448e-07
      -4.72254357e-07 0.0367193483 0.00924984738 -1.44866417e-05
      -1.78427763e-05 -0.000225717013 -0.000418508862 0.134301335
      -4.25300009e-08 -3.09148568e-10 -4.94737584e-09 -2.3308387e-13
      -0.000150580629 -8.26572943e-07 -2.26628369e-10 -9.36102952e-05
      0.0951923132 -1.89543134e-05 -0.000196151916 -0.000143436788
      -3.89966117e-05 -1.5594951e-05 0.267330289 -6.03429555e-07
      -7.69035159e-06 0.227096647 -0.000284953829 0.211512104
      -7.43587516e-05 0.00694319978 -0.000869646028 0.109959401
      -5.55425324e-08 0.109983891 -1.81393602e-06 -0.000120458659
      -3.41431223e-06 -3.29343607e-07 -0.000209320962 -2.22018144e-07
      -3.52346001e-06 0.25676012 -5.25468602e-09 -6.83383072e-10
      -1.26338886e-08 -7.83337561e-10 0.0992338136 0.277446002
      -2.37351178e-05 0.213948846 -9.03753389e-05 -1.24363342e-09
      -1.40932343e-07 -4.12484515e-05 -3.44780227e-09 -0.000609093695
      -0.000201083312 -1.17356028e-10 -3.04802484e-06 -0.000261856097
      -0.000292431883 -1.49073273e-07 -0.000203081581 -9.99407579e-09
      -2.90624866e-05 -5.9766131e-05 -6.1233668e-06</_>
    <_>
      -1.71747196 -2.34290504 -0.00469248416 -0.00170858914
      -4.78272959e-08 -9.02140018e-05 -0.00915888231 -0.000379176083
      -0.00118316012 -7.07343418e-07 -1.13560081e-05 -2.82183322e-07
      -5.17456356e-05 -0.000156475027 -0.000124439262 2.47676158
      -0.00164160086 -0.00194393634 3.08803368 -0.000111014655
      -0.000836118415 -0.000493726635 -0.00351109845 0.00308468938
      -7.21871493e-06 -0.00136084319 1.15786135 -1.06181842e-05
      -3.82345534e-05 -1.01746418e-05 1.33271539 -0.000159772331
      -0.0051729707 -0.000624633511 -6.51027221e-05 -0.000673537259
      -0.000249377044 -2.60739325e-05 -0.00402805395 -0.000103337334
      -0.000111913658 -0.000495906745 -0.000835104554 -0.000283210451
      -0.000273997895 -0.00140516995 -0.000316028279 4.17459249
      1.29362369 -0.00897880178 -0.000942712999 -0.000828308461
      -1.62204321e-06 -0.00758684613 0.130996764 -0.0140667623
      -0.0176487993 -0.00247354223 0.714526236 -0.00360756181
      -0.000474447588 -0.00041141882 -0.0006437212 1.34414554
      -0.019116044 -3.79366429e-05 -2.44095827e-05 -9.39844449e-06
      -0.00370842498 -0.000958265329 -0.000600433559 3.28346205
      -0.00133469037 -8.35973042e-05 -2.14978536e-06 -0.000974534254
      -1.57856666e-05 -0.00880705193 0.492181569 -0.00132289238
      -6.72835222e-06 -6.7358755e-08 -0.000295391364 0.59493643
      0.125110537 -0.000346361805 0.594293118 0.65314424 -5.33210732e-06
      -0.00705477269 -0.00447410857 -0.000279887085 -0.00391716277
      -0.00496395444 1.61961091 -0.0154874371 -0.000573143479
      0.110494867 -0.00460648024 -0.00172413432 -2.33947339e-05
      -0.00563942129 1.49083018 -5.44444276e-07 -6.29000424e-05
      -0.000840337423 4.0084281 -5.35638283e-05 -2.77422914e-05
      -0.000229138925 0.748017609 -0.00126283348 -0.00675472431
      -1.2116232e-05 -3.40348306e-05 -0.000243215443 -4.89493118e-07
      -1.59510626e-06 -9.75168441e-05 -3.68919209e-05 -0.00550365215
      -6.04073966e-06 -0.00519338343 -0.000277971994 -0.0122263236
      -0.00787588302 -0.00142153108 -0.0160624627 -0.0181290209
      -0.0010980037 -1.6420115e-08 0.107626468 0.228657573
      -7.12972833e-05 -4.70234336e-05 0.0791564807 0.294390798
      0.157467991 -1.02654987e-08 -0.000173120847 0.418693155
      -2.69810221e-06 -2.72210094e-08 0.392994881 1.09629869
      -0.000174094865 0.0548950508 -0.00219028769 -9.19118914e-09
      -0.000257814972 -2.3441673e-05 -0.000110737667 -2.81780808e-06
      -2.97983502e-06 -0.00104930962 -0.000197678164 0.0464575961
      -0.00148258044 -1.28649162e-06 -0.00350317033 -4.52887889e-06
      -0.0027451471 0.470433801 0.230803162 0.170914829 -0.0014542077
      0.151516259 0.403128475 -2.3406943e-05 -0.000364453852
      0.0981830359 0.261638582 0.548413813 -0.000191741652 0.486403465
      -0.000450704683 0.0331550464 -0.00347257755 -8.87295973e-05
      -0.00153785257 0.439543724 -0.00154855452 -1.52730408e-05
      -0.00312494859 0.152702212 -0.00299417926 -0.00274302834
      -9.34463751e-05 -2.99193925e-06 -0.00183928339 -2.06329759e-07
      -4.72009418e-07 0.0332033113 -6.11649084e-05 -1.4487332e-05
      -1.7843895e-05 -0.000225703843 -0.000418472511 0.134444147
      -4.2534726e-08 -3.09121978e-10 -4.94782082e-09 -2.33127943e-13
      -0.000150581778 -8.26612052e-07 -2.2663478e-10 -9.36123251e-05
      0.0953114182 -1.89550756e-05 -0.000196206252 -0.000143437399
      -3.8997714e-05 -1.55956841e-05 0.267094731 -6.03461217e-07
      -7.69061444e-06 0.226908356 -0.0002849187 0.211279079
      -7.43804558e-05 0.00697858259 -0.00086939719 0.109979957
      -5.55477548e-08 0.110100307 -1.81352686e-06 -0.000120459576
      -3.41463328e-06 -3.27979791e-07 -0.000209306891 -2.220619e-07
      -3.5236601e-06 0.25651297 -5.25540944e-09 -6.8338607e-10
      -1.26319595e-08 -7.83415555e-10 0.0992889255 0.277581125
      -2.37362965e-05 0.213843763 -9.03777182e-05 -1.24401589e-09
      -1.40944422e-07 -4.12497066e-05 -3.44808027e-09 -0.000608941948
      -0.000201115807 -1.17369822e-10 -3.04818241e-06 -0.000261192879
      -0.000292400335 -1.49088564e-07 -0.00020307189 -9.99493643e-09
      -2.90632379e-05 -5.97815524e-05 -6.12361509e-06</_>
    <_>
      -1.75381839 -2.40409303 -0.00494730053 -0.0012758805
      -4.96375279e-08 -9.66220541e-05 -0.00956271589 -0.000404391467
      -0.00122011651 -7.45182035e-07 -1.16993824e-05 -2.87714272e-07
      -5.4324064e-05 -0.000156409806 -0.000132895831 2.52309489
      -0.00218943064 -0.00203858688 3.09634805 -0.000117720214
      -0.000842487207 -0.000526311749 -0.00369818439 -0.000181435273
      -7.35633103e-06 -0.00185111247 1.13375914 -1.09288894e-05
      -3.862417e-05 -1.06098905e-05 1.3713367 -0.000169347273
      -0.00523013202 -0.000654851319 -6.79566074e-05 -0.000695894705
      -0.000252078404 -2.65911549e-05 -0.0041847853 -0.000109246837
      -0.000117339805 -0.000527907861 -0.000892773271 -0.000283071364
      -0.00027549584 -0.00144697644 -0.000322560954 4.10599279
      1.28394985 -0.0101595605 -0.00101049605 -0.000904755434
      -1.68622671e-06 -0.00788768847 0.0901496932 -0.0143934572
      -0.0183749143 -0.00261776824 0.7558586 -0.00383168808
      -0.000487099693 -0.000435849593 -0.000683150487 1.35455179
      -0.0197828915 -3.85160602e-05 -2.5782123e-05 -9.34533909e-06
      -0.00387006276 -0.00100386585 -0.000607800495 3.34579945
      -0.00138026103 -8.81285305e-05 -2.47139246e-06 -0.000993936323
      -1.58948897e-05 -0.00898006745 0.482554108 -0.00138633116
      -6.73460545e-06 -6.97123141e-08 -0.000317203026 0.556041896
      0.142047912 -0.000364164938 0.574409008 0.721821845
      -5.71492501e-06 -0.00733533315 -0.00458753156 -0.00029987382
      -0.00411857758 -0.00505724223 1.58082771 -0.0161706209
      -0.00057415507 0.107249767 -0.00481146853 -0.00180933683
      -2.45459323e-05 -0.00588360941 1.48129916 -5.32466061e-07
      -6.5260836e-05 -0.000857538253 4.04270697 -5.65327791e-05
      -2.80114109e-05 -0.000244850118 0.801748216 -0.00133809552
      -0.00664642733 -1.25851129e-05 -3.6247533e-05 -0.000262534217
      -5.09380698e-07 -1.66871746e-06 -0.000100814439 -3.90340647e-05
      -0.00572466105 -6.32766159e-06 -0.00541585078 -0.000293817837
      -0.0129544102 -0.0079268869 -0.00153450144 -0.0161612146
      -0.018514039 -0.00123711373 -1.65251546e-08 0.105913982
      0.231044739 -7.14781054e-05 -4.8590573e-05 0.0673483014
      0.317021012 0.168853328 -1.03109086e-08 -0.000173724518
      0.412487417 -2.68855615e-06 -2.73802101e-08 0.395212471 1.094473
      -0.000173864435 0.063789539 -0.00206188904 -9.34772526e-09
      -0.00032706678 -2.35145817e-05 -0.000109694171 -2.82385622e-06
      -2.98618443e-06 -0.000923910819 -0.000156928858 0.0809695497
      -0.00136446068 -1.29104205e-06 -0.00344948517 -4.54435485e-06
      -0.00272828015 0.464312345 0.231737465 0.178919345 -0.00141896494
      0.151830181 0.408861011 -2.36595533e-05 -0.000366313267
      0.0999568477 0.263183296 0.551890194 -0.000188769263 0.49106127
      -0.000532503123 0.00764256716 -0.00342216622 -0.000121012032
      -0.00164028606 0.442689896 -0.00154626521 -1.53236033e-05
      -0.00310060522 0.148382306 -0.0027834489 -0.00273252372
      -9.36885408e-05 -3.00635747e-06 -0.00178359565 -2.08814086e-07
      -4.74257007e-07 0.0270051435 -0.000176235626 -1.44870774e-05
      -1.78437112e-05 -0.000225700511 -0.000418501295 0.134478912
      -4.25336175e-08 -3.0905728e-10 -4.9476836e-09 -2.33124501e-13
      -0.000150580483 -8.26599546e-07 -2.2662551e-10 -9.3611663e-05
      0.0953569114 -1.89548591e-05 -0.000195899003 -0.000143436453
      -3.89973357e-05 -1.5595524e-05 0.267058015 -6.03450985e-07
      -7.6905435e-06 0.226867616 -0.00028491547 0.211293027
      -7.43912169e-05 0.00701535493 -0.00086943421 0.109902978
      -5.55464474e-08 0.11013519 -1.81366443e-06 -0.000120458411
      -3.41452187e-06 -3.29163726e-07 -0.000209305115 -2.22058006e-07
      -3.52361963e-06 0.256495029 -5.25522159e-09 -6.83376133e-10
      -1.2631892e-08 -7.83393239e-10 0.099421382 0.277710021
      -2.37359891e-05 0.213731885 -9.03766486e-05 -1.24393063e-09
      -1.40940458e-07 -4.12493646e-05 -3.44802076e-09 -0.000608956849
      -0.000200891038 -1.1736509e-10 -3.04814193e-06 -0.00026097658
      -0.000292404846 -1.49084613e-07 -0.000203068936 -9.9946984e-09
      -2.90629941e-05 -5.99191262e-05 -6.12353642e-06</_>
    <_>
      -1.88662457 -2.08592081 -0.00463300245 -0.00160813623
      -4.66555328e-08 -9.33638657e-05 -0.00910583697 -0.000382854865
      -0.00117704202 -6.91854211e-07 -1.08594213e-05 -2.69464749e-07
      -5.20632857e-05 -0.000157726274 -0.000127749488 2.53205514
      -9.02992469e-05 -0.0019294119 2.76771474 -0.000114661751
      -0.000809018791 -0.000493703643 -0.00342732668 0.00658171251
      -7.0787587e-06 -0.000592228665 1.26640451 -1.10372039e-05
      -3.57605131e-05 -9.99353142e-06 1.22817004 -0.000160836251
      -0.00490549859 -0.000645139487 -6.62963575e-05 -0.000657311291
      -0.000239835761 -2.57321481e-05 -0.00351461442 -0.000105587649
      -0.000110872737 -0.000510570186 -0.000849720789 -0.000269759155
      -0.000163175122 -0.00136241375 -0.000292364653 3.66604614
      1.2665875 -0.00919458084 -0.000971227593 -0.000842957466
      -1.80967834e-06 -0.00745347794 0.0638782457 -0.0138643719
      -0.017608311 -0.00246762694 0.757629752 -0.00356655917
      -0.000466973521 -0.000432881818 -0.000638729893 1.46314955
      -0.0178501159 -3.71434471e-05 -2.50317935e-05 -8.96889196e-06
      -0.00362782436 -0.000963751343 -0.00058935571 3.29865623
      -0.00129805657 -8.16538086e-05 -2.60073125e-06 -0.00095144927
      -1.53289984e-05 -0.00731954398 0.558206558 -0.00128636288
      -6.51023674e-06 -6.57354988e-08 -0.00029610307 0.484853923
      0.157233566 -0.000344743283 0.546736956 0.740822971
      -5.34798528e-06 -0.00706087146 -0.00423996896 -0.000286111026
      -0.00386557938 -0.00492254691 1.81447887 -0.0156228263
      -0.000542917638 0.0862319022 -0.00451534567 -0.00170978066
      -2.34723593e-05 -0.00572219817 1.63535333 -5.64081972e-07
      -6.41414881e-05 -0.000836214283 3.74888206 -5.56932428e-05
      -2.69734901e-05 -0.000232785358 0.708830714 -0.00126089586
      -0.00675338926 -1.20435325e-05 -3.44972104e-05 -0.000252723752
      -5.31314186e-07 -1.57441775e-06 -9.675607e-05 -3.63065446e-05
      -0.00552758761 -5.88838066e-06 -0.00503355591 -0.000290619093
      -0.0115760732 -0.00762519473 -0.00145301712 -0.0158005357
      -0.0168711897 -0.00149152859 -1.61005023e-08 0.110211879
      0.225983411 -7.14959242e-05 -4.49759464e-05 0.074603349
      0.264623672 0.145047128 -1.0089253e-08 -0.000171097097 0.443627924
      -2.74456556e-06 -2.66077649e-08 0.385776699 1.09107375
      -0.000176064568 0.0520039722 -0.00258812006 -8.84643914e-09
      0.00405710191 -2.32330567e-05 -0.000112418988 -2.82093902e-06
      -2.95726977e-06 -0.00119077717 -0.000230552963 -9.17851867e-06
      -0.00162414089 -1.26906434e-06 -0.00355333625 -4.47570301e-06
      -0.00276962388 0.494678855 0.211877793 0.165518239 -0.00145006971
      0.136368185 0.383132339 -2.32017501e-05 -0.000364363572
      0.0936481506 0.260769248 0.532437861 -0.000197030546 0.48368293
      -0.00032937809 0.0723689944 -0.0036088659 0.00607622042
      -0.00122287276 0.436720312 -0.00153278152 -1.5073083e-05
      -0.00320716784 0.156336665 -0.00322798151 -0.0028023934
      -9.31222166e-05 -2.96819599e-06 -0.00167895586 -2.00029646e-07
      -4.647232e-07 0.0462298654 -8.4986159e-06 -1.44856549e-05
      -1.78401424e-05 -0.000225772761 -0.000418490759 0.133698076
      -4.25203872e-08 -3.09523573e-10 -4.94661201e-09 -2.32963361e-13
      -0.000150582928 -8.26508597e-07 -2.26650518e-10 -9.36069628e-05
      0.0946176425 -1.89529364e-05 -0.000197324494 -0.000143439174
      -3.89949055e-05 -1.55934104e-05 0.268228889 -6.03377828e-07
      -7.68985774e-06 0.227864832 -0.000285076821 0.212181881
      -7.42439661e-05 0.00667190924 -0.000870249525 0.110230193
      -5.55322721e-08 0.109462738 -1.81457563e-06 -0.000120461023
      -3.41382338e-06 -3.28113089e-07 -0.000209372491 -2.21900265e-07
      -3.52302413e-06 0.257613569 -5.25329513e-09 -6.83421542e-10
      -1.26402178e-08 -7.83197007e-10 0.0984795466 0.276452184
      -2.37328622e-05 0.21476683 -9.03727996e-05 -1.24283461e-09
      -1.40912888e-07 -4.1246105e-05 -3.44721163e-09 -0.000609496958
      -0.000201963237 -1.17334656e-10 -3.04772084e-06 -0.00026487853
      -0.000292509067 -1.49043828e-07 -0.000203124859 -9.99247707e-09
      -2.90612552e-05 -5.91121097e-05 -6.12295344e-06</_>
    <_>
      -1.67934382 -2.41836977 -0.00440712227 -0.000290066004
      -4.45883117e-08 -8.28814518e-05 -0.00876974873 -0.000349071837
      -0.00110488699 -5.64037123e-07 -1.06674524e-05 -2.64686264e-07
      -4.81595562e-05 -0.000149999338 -0.000118334523 2.43731475
      -0.000854997197 -0.00183214038 2.85297322 -0.000104688916
      -0.000775030989 -0.000457494811 -0.00329804327 0.0441167541
      -6.67722179e-06 -0.000800016453 1.17979586 -1.03250759e-05
      -3.5649482e-05 -9.66978951e-06 1.26761937 -0.000154237321
      -0.00449723937 -0.000604915025 -6.05915811e-05 -0.000628665322
      -0.000237087355 -2.3895278e-05 -0.00324806268 -9.59772224e-05
      -0.000105153049 -0.000469408726 -0.000774477026 -0.000277651765
      -3.15080215e-05 -0.00133918005 -0.000295893376 3.82397699
      1.23070025 -0.00738061732 -0.000874690944 -0.000808012148
      -1.57772513e-06 -0.00728393253 0.211867124 -0.0134168398
      -0.0155801028 -0.00233328715 0.761367977 -0.00338202505
      -0.000441741373 -0.000393199909 -0.000600155559 1.38209772
      -0.0175337531 -3.70913076e-05 -2.28865301e-05 -8.59481679e-06
      -0.00347771985 -0.000907498412 -0.000588777941 3.33695221
      -0.00123668252 -7.79091715e-05 -2.03465652e-06 -0.000937770121
      -1.51258564e-05 -0.00804546662 0.44234696 -0.00123800605
      -6.35361857e-06 -5.30230793e-08 -0.000272304518 0.548470795
      0.173453838 -0.000323456043 0.614864886 0.667252481
      -4.93419111e-06 -0.00689368695 -0.00425660005 -0.000262549584
      -0.00367926946 -0.00481997151 1.68235278 -0.0150971031
      -0.000548763957 0.100668743 -0.00437823124 -0.00161710428
      -2.12775285e-05 -0.00552825816 1.53860939 -5.17807109e-07
      -5.95541387e-05 -0.000798814639 3.85204315 -4.85223027e-05
      -2.64329828e-05 -0.000213145409 0.854875028 -0.00118714431
      -0.00725932047 -1.14755921e-05 -3.15526959e-05 -0.000194808061
      -4.75893813e-07 -1.44310673e-06 -9.12510222e-05 -3.45474946e-05
      -0.00528493058 -5.60634817e-06 -0.00498399884 -0.000252549013
      -0.0114587881 -0.00764419837 -0.00134341919 -0.0156220179
      -0.0171168428 -0.00116907246 -1.61982729e-08 0.101208203
      0.219801784 -7.1960123e-05 -4.75088855e-05 0.0673621893
      0.284428477 0.160918459 -1.00882778e-08 -0.000172012456
      0.451747864 -2.76094261e-06 -2.6592101e-08 0.38368994 1.07495999
      -0.000174844856 0.0661588162 -0.00260949507 -9.05041553e-09
      -4.45137921e-05 -2.3263985e-05 -0.00011232392 -2.82819019e-06
      -2.95561358e-06 -0.00119301933 -0.000183832759 0.0278743878
      -0.00148609362 -1.27224041e-06 -0.00345653738 -4.47794855e-06
      -0.00277325511 0.493654907 0.205461562 0.190398052 -0.00143773505
      0.125452727 0.370901555 -2.38187913e-05 -0.000368414621
      0.0854841098 0.252795517 0.525063813 -0.000194413937 0.466259092
      -0.000287356059 0.0607189536 -0.00354399532 -8.17771979e-06
      -0.00138036907 0.438059032 -0.00151428871 -1.51152162e-05
      -0.00318522146 0.156534612 -0.00309123332 -0.00279667648
      -9.34460841e-05 -2.99139583e-06 -0.0016141081 -2.03432307e-07
      -4.65737969e-07 0.0488448776 -0.000198581256 -1.44904543e-05
      -1.78459268e-05 -0.000225752563 -0.000418104581 0.133930907
      -4.25476792e-08 -3.09986981e-10 -4.94947328e-09 -2.33157975e-13
      -0.00015059844 -8.26763824e-07 -2.26755101e-10 -9.36202414e-05
      0.0946663097 -1.89576785e-05 -0.00020023252 -0.000143449783
      -3.90023306e-05 -1.55975486e-05 0.267667115 -6.03585192e-07
      -7.69146754e-06 0.22751537 -0.00028497391 0.211183399
      -7.4231044e-05 0.00648124143 -0.000868997828 0.110985398
      -5.55631985e-08 0.109595433 -1.81185544e-06 -0.0001204746
      -3.41599207e-06 -3.12764882e-07 -0.000209335252 -2.22097626e-07
      -3.5241228e-06 0.256842941 -5.25763255e-09 -6.8351802e-10
      -1.26335635e-08 -7.83682841e-10 0.0975225866 0.275829792
      -2.37399472e-05 0.215356663 -9.03910841e-05 -1.24500688e-09
      -1.40992455e-07 -4.12537811e-05 -3.44876838e-09 -0.000608799572
      -0.000204064519 -1.17427429e-10 -3.04866285e-06 -0.000264290895
      -0.000292351906 -1.49135317e-07 -0.00020311444 -9.99775907e-09
      -2.90661883e-05 -5.79634725e-05 -6.12456734e-06</_>
    <_>
      -1.8689934 -2.18264294 -0.00459798099 -0.00095470011
      -4.5610804e-08 -8.74186735e-05 -0.00901449285 -0.000365609973
      -0.00117341639 -5.80725782e-07 -1.07610813e-05 -2.69164815e-07
      -4.98863774e-05 -0.000150629407 -0.000124204496 2.49594522
      -8.74011166e-05 -0.00188403635 2.84234905 -0.000111402645
      -0.000797807239 -0.000485933444 -0.00340290088 0.0292809531
      -6.82504242e-06 -0.000211462597 1.27882755 -1.07631995e-05
      -3.56122873e-05 -9.78941171e-06 1.27063429 -0.00015926575
      -0.00394843379 -0.000626711524 -6.33621166e-05 -0.000653295428
      -0.000242845548 -2.41095149e-05 -0.00361476908 -9.79682227e-05
      -0.000109349829 -0.000501432631 -0.000806649507 -0.00028157045
      0.00654615834 -0.00133523881 -0.000293456513 3.74420595 1.31699562
      -0.00861609355 -0.000909171707 -0.000900743704 -1.56841486e-06
      -0.00745765725 0.0787259266 -0.0139015298 -0.0168368369
      -0.0024344069 0.761142552 -0.00354300067 -0.000451797241
      -0.000403183862 -0.000622579362 1.4743619 -0.0176321045
      -3.76270582e-05 -2.37816548e-05 -8.62879824e-06 -0.00361688109
      -0.000945966458 -0.000595358026 3.30107784 -0.00127272226
      -8.11345308e-05 -2.37635641e-06 -0.000956425618 -1.55130874e-05
      -0.00731247338 0.474168718 -0.00127230701 -6.34988692e-06
      -5.71115564e-08 -0.00028761159 0.49889195 0.153012723
      -0.000338111509 0.610630631 0.718401849 -5.24173993e-06
      -0.00704188552 -0.00424665585 -0.000274580874 -0.00380420429
      -0.00490188506 1.83623457 -0.015541641 -0.000545499788 0.12170577
      -0.00445589889 -0.00169660489 -2.17675479e-05 -0.00554956263
      1.65403676 -5.28753162e-07 -6.225369e-05 -0.000828408112
      3.81309748 -5.14623098e-05 -2.70192504e-05 -0.000225021591
      0.792518437 -0.00122645008 -0.00690009678 -1.19118331e-05
      -3.30125877e-05 -0.000225301905 -4.69461298e-07 -1.50991264e-06
      -9.41272956e-05 -3.55952252e-05 -0.00546367047 -5.79242169e-06
      -0.00503658084 -0.000266436808 -0.0113422368 -0.00766225299
      -0.00140963716 -0.0159304179 -0.0168646239 -0.00135515479
      -1.61323452e-08 0.111547746 0.226075768 -7.14919006e-05
      -4.62375974e-05 0.0720225126 0.280789554 0.15676713
      -1.00924646e-08 -0.000172862812 0.445045084 -2.71430804e-06
      -2.67210591e-08 0.389033556 1.09731126 -0.000176168309 0.05712533
      -0.00237620855 -8.92668162e-09 -7.12317196e-05 -2.32589173e-05
      -0.000111479043 -2.8152474e-06 -2.95110181e-06 -0.00111664867
      -0.000204925644 0.0145691931 -0.00150574755 -1.26985731e-06
      -0.00355496886 -4.47827688e-06 -0.00277751428 0.484921724
      0.208862185 0.171511784 -0.00145115622 0.139261037 0.391870409
      -2.32374896e-05 -0.000367611006 0.0881497711 0.256164134
      0.541482031 -0.000194406137 0.481035501 -0.000378424826
      0.0645567179 -0.00353254587 0.00311545655 -0.00137250603
      0.433139622 -0.00154721225 -1.51430559e-05 -0.00319842179
      0.167188287 -0.00319940504 -0.00281164749 -9.39034726e-05
      -2.96440203e-06 -0.00171575544 -2.01845012e-07 -4.65547544e-07
      0.0412791371 -1.97149438e-05 -1.44817386e-05 -1.78354749e-05
      -0.000225787444 -0.000418809126 0.133527279 -4.2498268e-08
      -3.09129139e-10 -4.94428232e-09 -2.32807426e-13 -0.000150570078
      -8.2630072e-07 -2.26563657e-10 -9.35961361e-05 0.0945974439
      -1.89490802e-05 -0.000194889857 -0.000143430356 -3.89888519e-05
      -1.5590058e-05 0.268660218 -6.03209003e-07 -7.6885517e-06
      0.22812593 -0.000285157264 0.212980464 -7.42586853e-05
      0.00683825836 -0.00087125873 0.109599248 -5.55071793e-08
      0.109371498 -1.81679263e-06 -0.00012044976 -3.41205555e-06
      -3.40784879e-07 -0.000209401333 -2.21741914e-07 -3.5221351e-06
      0.258218348 -5.24977484e-09 -6.83340995e-10 -1.2645474e-08
      -7.82801934e-10 0.09929315 0.276998699 -2.37271088e-05 0.214253187
      -9.03578257e-05 -1.24107469e-09 -1.40848073e-07 -4.12398658e-05
      -3.44595086e-09 -0.000610056974 -0.000200203096 -1.17259036e-10
      -3.04695595e-06 -0.000265257724 -0.000292635697 -1.48969548e-07
      -0.000203131916 -9.9881845e-09 -2.90572389e-05 -6.00807398e-05
      -6.12163967e-06</_>
    <_>
      -1.80360866 -2.26946115 -0.00477162097 0.0376276076
      -4.78550923e-08 -8.8293782e-05 -0.00923783239 -0.000384117418
      -0.00115503639 -5.34796015e-07 -1.10354076e-05 -2.7450659e-07
      -5.04206837e-05 -0.000145696264 -0.000128505359 2.37699938
      -0.00159077416 -0.00196002075 2.94402766 -0.000111901143
      -0.00080101646 -0.000500884431 -0.00355371227 -2.34089784e-05
      -6.81224674e-06 -0.00127866981 1.15147758 -1.06948182e-05
      -3.57643512e-05 -9.93305821e-06 1.34336245 -0.000164599216
      -0.0045971442 -0.000632168725 -6.38126439e-05 -0.000664853316
      -0.000244847673 -2.42316673e-05 -0.00346811535 -0.000101746911
      -0.000112561356 -0.000514890824 -0.000839542714 -0.000280275359
      -0.000152822991 -0.00138593896 -0.000301168009 3.82350016
      1.32440698 -0.00881407876 -0.00094199914 -0.000982240541
      -1.59887918e-06 -0.00768968044 -0.000428696629 -0.0137773026
      -0.0163306594 -0.00251304801 0.771891415 -0.00368333724
      -0.000450892432 -0.00044139786 -0.000652546936 1.3778131
      -0.0186750367 -3.79919584e-05 -2.48263987e-05 -8.15757357e-06
      -0.00372746377 -0.000952816161 -0.000595745223 3.32437038
      -0.00130885618 -8.50555953e-05 -2.46160153e-06 -0.000961310521
      -1.54510999e-05 -0.00857111532 0.382294029 -0.00132647064
      -6.37756239e-06 -4.4524274e-08 -0.000305438531 0.426773697
      0.28831917 -0.000345425535 0.611909151 0.728471816 -5.45503963e-06
      -0.00722404709 -0.00436850032 -0.000285267073 -0.00396492938
      -0.00495769596 1.63591027 -0.0157609135 -0.000562439149
      0.180516481 -0.00464331405 -0.00173604127 -2.14070969e-05
      -0.0056923232 1.52250278 -4.98469944e-07 -6.30832437e-05
      -0.000826049363 3.85912418 -5.16769978e-05 -2.69110024e-05
      -0.000231090598 0.830274224 -0.00127828389 -0.00700637931
      -1.2123699e-05 -3.47167806e-05 -0.000235714528 -4.75897082e-07
      -1.56369799e-06 -9.45646098e-05 -3.73511321e-05 -0.00553356577
      -5.97618873e-06 -0.00521187298 -0.000267201365 -0.0124787148
      -0.00776052522 -0.00145037752 -0.0157429725 -0.0174677707
      -0.00131844846 -1.64812093e-08 0.112606302 0.239040464
      -7.13385525e-05 -4.85283745e-05 0.0689146742 0.314227045
      0.17501536 -1.03117355e-08 -0.000174650355 0.40811944
      -2.64993014e-06 -2.74291878e-08 0.3936553 1.10252702
      -0.000174911504 0.0571648553 -0.00194270874 -9.21589471e-09
      -0.000404172373 -2.3509403e-05 -0.000109241344 -2.80267932e-06
      -2.9884925e-06 -0.000830965233 -0.000124908343 0.0863276497
      -0.00140214153 -1.28881993e-06 -0.00353959901 -4.54492556e-06
      -0.00271628937 0.453088075 0.230442822 0.183941931 -0.00140006165
      0.157279044 0.410464197 -2.36340638e-05 -0.000367123372
      0.0995997041 0.260525018 0.567712128 -0.000189366183 0.499635398
      -0.000527077587 0.00144830346 -0.0033516027 -0.000123817881
      -0.00169997744 0.440913916 -0.00157006318 -1.53460496e-05
      -0.0031114649 0.152826846 -0.00281905709 -0.00274162577
      -9.37613149e-05 -2.99669e-06 -0.00181169203 -2.08154944e-07
      -4.74163812e-07 0.0254918151 -0.000203847696 -1.44849291e-05
      -1.78407772e-05 -0.000225721902 -0.000418650772 0.134242028
      -4.25204512e-08 -3.08962744e-10 -4.94636065e-09 -2.3301814e-13
      -0.000150574851 -8.26482392e-07 -2.26589122e-10 -9.36055803e-05
      0.0952000171 -1.89526399e-05 -0.000195023342 -0.000143432801
      -3.89939669e-05 -1.55935068e-05 0.267496586 -6.03356e-07
      -7.68978498e-06 0.227190614 -0.00028498593 0.211850315
      -7.43688215e-05 0.00702612475 -0.000870076998 0.109667733
      -5.55316717e-08 0.109957755 -1.814901e-06 -0.00012045358
      -3.41354098e-06 -3.34986822e-07 -0.000209332284 -2.21951197e-07
      -3.52307757e-06 0.257005781 -5.25316191e-09 -6.83346935e-10
      -1.26360531e-08 -7.83166088e-10 0.0996211544 0.277719676
      -2.37326276e-05 0.21369347 -9.03687614e-05 -1.24287447e-09
      -1.40904106e-07 -4.12457412e-05 -3.44725937e-09 -0.000609331124
      -0.000200265975 -1.17323026e-10 -3.04769378e-06 -0.00026193462
      -0.0002924859 -1.49041128e-07 -0.000203083444 -9.99221239e-09
      -2.9060735e-05 -6.02193031e-05 -6.12279518e-06</_>
    <_>
      -1.90399134 -2.16050839 -0.004666124 -0.00168079964
      -4.65793057e-08 -8.96154161e-05 -0.00917764567 -0.000378800294
      -0.00117395609 -6.1404387e-07 -1.07893702e-05 -2.68158857e-07
      -5.08545127e-05 -0.000152108201 -0.000128287575 2.60438037
      -0.000218800153 -0.00191412529 2.77708697 -0.00011417958
      -0.000792667386 -0.000491820159 -0.00344548584 0.0230213478
      -6.93650145e-06 -0.00063688209 1.2727102 -1.09735256e-05
      -3.53115502e-05 -9.77722539e-06 1.2365787 -0.000162812416
      -0.00442129327 -0.000644103799 -6.46867047e-05 -0.00065924821
      -0.000243062852 -2.4552719e-05 -0.00359930214 -0.000101177466
      -0.000110662761 -0.000511963561 -0.000840964378 -0.000274177379
      0.0025610812 -0.00135117746 -0.00028991999 3.64134836 1.25599384
      -0.00942778494 -0.000947517983 -0.000810077647 -1.67172277e-06
      -0.00754666608 0.116499014 -0.0138342036 -0.017645305
      -0.00249129673 0.758830428 -0.00360287423 -0.000459223258
      -0.000420781318 -0.00064034079 1.49223781 -0.0180405956
      -3.76633325e-05 -2.45254741e-05 -8.44352326e-06 -0.00363390171
      -0.000951046241 -0.0005899198 3.37581778 -0.00128952635
      -8.2073595e-05 -2.56994986e-06 -0.000951025228 -1.53091005e-05
      -0.00734732486 0.527284861 -0.00129457354 -6.32738283e-06
      -5.71886716e-08 -0.000296240003 0.473562598 0.100121252
      -0.000339295395 0.549793363 0.797082007 -5.32402601e-06
      -0.00714411493 -0.00431702705 -0.000283666392 -0.00386153092
      -0.00490509253 1.81902266 -0.0157954544 -0.00054382591
      0.0589674264 -0.00454182038 -0.00171128183 -2.23141233e-05
      -0.00570433773 1.65214002 -5.44251293e-07 -6.37543344e-05
      -0.000822707021 3.82700729 -5.26777585e-05 -2.67300838e-05
      -0.000231151818 0.726163685 -0.00125997863 -0.00699782884
      -1.19843708e-05 -3.36710655e-05 -0.000233642553 -5.05273817e-07
      -1.51844938e-06 -9.39387464e-05 -3.63650033e-05 -0.00552099338
      -5.86336364e-06 -0.00512914406 -0.000273243524 -0.0116987033
      -0.00768337073 -0.00144150271 -0.0157684125 -0.0170758609
      -0.00144013076 -1.62186957e-08 0.111964658 0.23047328
      -7.15093556e-05 -4.71931126e-05 0.0691349357 0.287244081
      0.161223918 -1.01418625e-08 -0.000173189037 0.437007993
      -2.70159444e-06 -2.68773253e-08 0.392641485 1.10015774
      -0.000176203073 0.0577552393 -0.00227208133 -8.99175312e-09
      -0.000119068623 -2.33197716e-05 -0.000110713438 -2.80558356e-06
      -2.95971199e-06 -0.00104116427 -0.000178636867 0.0356290564
      -0.0014525461 -1.27428621e-06 -0.00354349939 -4.49345589e-06
      -0.00278495695 0.475984454 0.213488936 0.176861286 -0.00142185041
      0.143238932 0.393236011 -2.34288527e-05 -0.000367775414
      0.0880212709 0.255928338 0.545601547 -0.000193162181 0.482356668
      -0.000413655624 0.0466115028 -0.00348958815 -2.65583021e-05
      -0.00147376896 0.435804248 -0.00154991192 -1.51868462e-05
      -0.0031755548 0.164282084 -0.00310544297 -0.00279901386
      -9.37100049e-05 -2.97565589e-06 -0.00172595622 -2.03853403e-07
      -4.6759007e-07 0.038523905 -0.000141750614 -1.44854348e-05
      -1.78403807e-05 -0.000225755721 -0.000418542477 0.133881107
      -4.25205329e-08 -3.0933861e-10 -4.94654051e-09 -2.3298247e-13
      -0.000150580294 -8.26501036e-07 -2.26630437e-10 -9.36065626e-05
      0.0948123708 -1.89528582e-05 -0.00019657235 -0.000143437093
      -3.89946254e-05 -1.55934613e-05 0.267981529 -6.03371518e-07
      -7.68984046e-06 0.227638006 -0.000285046059 0.212065712
      -7.42854972e-05 0.00678898022 -0.000870186137 0.110046826
      -5.55322117e-08 0.109628871 -1.81467249e-06 -0.000120458601
      -3.41373902e-06 -3.30347092e-07 -0.000209358928 -2.21918157e-07
      -3.52304687e-06 0.257406533 -5.25327071e-09 -6.83397006e-10
      -1.26387905e-08 -7.83188903e-10 0.0988552719 0.276872128
      -2.3732815e-05 0.214412093 -9.03715336e-05 -1.24285771e-09
      -1.40910316e-07 -4.12460176e-05 -3.44723428e-09 -0.000609438343
      -0.000201408082 -1.17331186e-10 -3.04771584e-06 -0.000263893569
      -0.000292500656 -1.49043345e-07 -0.00020311102 -9.99241223e-09
      -2.90611024e-05 -5.94754565e-05 -6.12290796e-06</_>
    <_>
      -1.7923404 -2.24171257 -0.00473051518 -0.000938085897
      -4.80034927e-08 -9.20908788e-05 -0.00919592939 -0.000384660874
      -0.00118222204 -6.38846359e-07 -1.1319642e-05 -2.81996165e-07
      -5.11389953e-05 -0.000154360794 -0.000124551108 2.37799382
      -0.00214403635 -0.00195819698 3.1509459 -0.000111633155
      -0.000835578598 -0.000497595815 -0.00354881096 -0.000140681936
      -7.31711316e-06 -0.00156052562 1.111817 -1.10033552e-05
      -3.76762364e-05 -1.02747563e-05 1.39072156 -0.00016310814
      -0.00477178069 -0.000612187083 -6.47699853e-05 -0.000676814234
      -0.000253846869 -2.54543811e-05 -0.00378673337 -0.00010191794
      -0.00011461485 -0.000512283354 -0.000819053559 -0.000289326446
      -0.000567619223 -0.00141492288 -0.000308674469 4.20023632
      1.39021659 -0.0093069002 -0.000929471105 -0.000918394595
      -1.63887364e-06 -0.00772843417 -0.000161028729 -0.0141429771
      -0.0167174712 -0.00246632076 0.740250647 -0.00363482116
      -0.000474069209 -0.000434479531 -0.000650547503 1.30600786
      -0.0192861594 -3.87095133e-05 -2.47314238e-05 -9.24307278e-06
      -0.00375825632 -0.000953414361 -0.000610057963 3.22987938
      -0.00132621301 -8.49290882e-05 -2.27258374e-06 -0.00098037452
      -1.58735802e-05 -0.00927906018 0.460436314 -0.00133284868
      -6.75670799e-06 -5.71045753e-08 -0.000300822401 0.477859199
      0.222086906 -0.000351136579 0.638195872 0.713663816
      -5.37940241e-06 -0.00722595211 -0.00449183304 -0.000280110427
      -0.00398458121 -0.00508058956 1.56781447 -0.0156532731
      -0.000577585248 0.206463471 -0.00462863455 -0.00174216775
      -2.25101176e-05 -0.00570064783 1.43898451 -5.47920934e-07
      -6.36600598e-05 -0.000852510158 4.00922155 -5.27953307e-05
      -2.79680953e-05 -0.000227242417 0.752926528 -0.00127486931
      -0.0063731866 -1.23563486e-05 -3.44990221e-05 -0.000236512089
      -4.6942381e-07 -1.58298144e-06 -9.66598454e-05 -3.70893285e-05
      -0.00555448653 -5.96380642e-06 -0.00523232808 -0.000269562268
      -0.012766473 -0.00801888481 -0.00142595835 -0.0163573138
      -0.018222725 -0.00120052905 -1.66808629e-08 0.127225682
      0.258591413 -7.11038156e-05 -4.75265442e-05 0.0763956606
      0.300312877 0.169390529 -1.04770024e-08 -0.000175281733
      0.369703531 -2.61135688e-06 -2.79257559e-08 0.384817004 1.1162225
      -0.000175312103 0.0392350703 -0.00154047576 -9.34171407e-09
      -0.000507658871 -2.3679484e-05 -0.00010859238 -2.80045288e-06
      -3.01841874e-06 -0.0005322785 -0.000140556498 0.0836968869
      -0.0014698063 -1.29988643e-06 -0.00357646728 -4.59708326e-06
      -0.0027087864 0.420139372 0.234144628 0.163720772 -0.00136238826
      0.178777963 0.424096078 -2.33594601e-05 -0.00036309904 0.104177296
      0.252028704 0.604315817 -0.000190486753 0.51264149 -0.000631672156
      0.0013782531 -0.00318086357 -0.000116506555 -0.00175444095
      0.435294092 -0.0016105934 -1.55205107e-05 -0.00306092622
      0.164183661 -0.00287984428 -0.00268824748 -9.34209966e-05
      -3.01058685e-06 -0.00188622833 -2.07953121e-07 -4.80242306e-07
      0.0116367675 -0.000100563724 -1.4484629e-05 -1.78401569e-05
      -0.000225732438 -0.000418657582 0.134128392 -4.25180211e-08
      -3.09018006e-10 -4.94614971e-09 -2.32991469e-13 -0.000150574866
      -8.26464316e-07 -2.26590371e-10 -9.36046417e-05 0.0950958878
      -1.89522689e-05 -0.000195162269 -0.000143432946 -3.89934685e-05
      -1.5593123e-05 0.267671704 -6.03341391e-07 -7.68965401e-06
      0.227337062 -0.000285010668 0.211994916 -7.4348507e-05
      0.00698203966 -0.000870217453 0.10969799 -5.55290356e-08
      0.109861299 -1.81508665e-06 -0.000120453653 -3.41339728e-06
      -3.35173098e-07 -0.000209342499 -2.21924964e-07 -3.52297093e-06
      0.25717783 -5.25280086e-09 -6.83351153e-10 -1.26373516e-08
      -7.8312834e-10 0.0995093733 0.277557135 -2.37320401e-05
      0.213825971 -9.03678301e-05 -1.24267507e-09 -1.40898564e-07
      -4.12451263e-05 -3.44711326e-09 -0.000609421288 -0.000200372189
      -1.17316795e-10 -3.04761488e-06 -0.000262491929 -0.000292503828
      -1.49033482e-07 -0.000203091491 -9.99178962e-09 -2.90603875e-05
      -6.01305292e-05 -6.12267922e-06</_>
    <_>
      -1.61113548 -2.2785244 -0.00461630663 0.12434718 -4.6775039e-08
      -8.30756107e-05 -0.00895893853 -0.000365585962 -0.00113865722
      -5.11555129e-07 -1.09172133e-05 -2.71873233e-07 -4.85119417e-05
      -0.000145344355 -0.000120895216 2.25347996 -0.00217222166
      -0.00190200319 3.0619061 -0.000106820888 -0.000805410265
      -0.000478972011 -0.00346973701 -7.01630852e-05 -6.78984998e-06
      -0.00144362799 1.07126498 -1.05145591e-05 -3.6390371e-05
      -9.96289145e-06 1.36990559 -0.0001597316 -0.00453882152
      -0.000594380137 -6.12151125e-05 -0.000654626638 -0.000245618518
      -2.35955504e-05 -0.00328842644 -9.57748271e-05 -0.000110943722
      -0.000490915263 -0.000782253337 -0.000283949048 -0.000336879224
      -0.0013790091 -0.000301538879 4.04339695 1.39801824 -0.00820754189
      -0.000879034516 -0.00103944982 -1.52308144e-06 -0.00756562175
      -0.000525488169 -0.0136783263 -0.0154493125 -0.00239269901
      0.771201253 -0.00354382093 -0.000448779669 -0.000418887736
      -0.00062901841 1.27689266 -0.018574791 -3.7669939e-05
      -2.37648364e-05 -8.55014332e-06 -0.0036458245 -0.000916149816
      -0.000596808852 3.18570566 -0.00127113413 -8.29268902e-05
      -2.1376045e-06 -0.000946526357 -1.51092627e-05 -0.00924697705
      0.353756934 -0.00129459961 -6.46326498e-06 -4.26091056e-08
      -0.00029257455 0.411561549 0.367244929 -0.000335000717 0.671845019
      0.636641562 -5.19167634e-06 -0.00710394979 -0.0043487451
      -0.000269428245 -0.00385428127 -0.00491681742 1.52598238
      -0.0152866086 -0.000560723478 0.266575754 -0.00452311523
      -0.00168767816 -2.02642532e-05 -0.00556019414 1.4132483
      -4.97263898e-07 -6.05553469e-05 -0.000820718706 3.86267281
      -4.90960811e-05 -2.7003236e-05 -0.000217051187 0.819717705
      -0.00123221555 -0.00644180877 -1.19703518e-05 -3.30223302e-05
      -0.000207732257 -4.45275219e-07 -1.5162932e-06 -9.17008874e-05
      -3.60884842e-05 -0.00537028071 -5.74648038e-06 -0.00512501132
      -0.000248113764 -0.0125155877 -0.007730301 -0.00138226338
      -0.0159010086 -0.0176300239 -0.00111995346 -1.65109206e-08
      0.110775635 0.237974644 -7.13905974e-05 -4.85885612e-05
      0.0728618801 0.326896787 0.181168854 -1.0321779e-08
      -0.000175780893 0.410453975 -2.63658649e-06 -2.74722183e-08
      0.393799365 1.1006465 -0.000175216162 0.0612189844 -0.00192550861
      -9.23498167e-09 -0.00045911668 -2.35390653e-05 -0.000108863103
      -2.79796382e-06 -2.99870544e-06 -0.000786580029 -0.00011263843
      0.0990025923 -0.00136834756 -1.28974307e-06 -0.00350579433
      -4.54749488e-06 -0.00271523348 0.44745943 0.229910374 0.193807244
      -0.00138762989 0.155741274 0.404853493 -2.38422672e-05
      -0.000368018227 0.10216216 0.261627883 0.571407378 -0.000187117883
      0.498425275 -0.000503704825 -0.000126294486 -0.00333665474
      -0.000132740926 -0.00173898123 0.441360891 -0.00156730274
      -1.53676901e-05 -0.00310718804 0.150732875 -0.0027669617
      -0.00274469005 -9.42339757e-05 -3.00269767e-06 -0.00177895243
      -2.08023593e-07 -4.74853323e-07 0.0250348598 -0.000346893998
      -1.44886972e-05 -1.78446244e-05 -0.000225730837 -0.000418300915
      0.134158522 -4.25399449e-08 -3.09552134e-10 -4.94852292e-09
      -2.33132198e-13 -0.000150589665 -8.26677137e-07 -2.26692165e-10
      -9.36157157e-05 0.0949671715 -1.89561688e-05 -0.000198160385
      -0.000143443322 -3.89997113e-05 -1.55964226e-05 0.267431259
      -6.03514422e-07 -7.69097005e-06 0.227250487 -0.000284954091
      0.211288556 -7.43021956e-05 0.00672699884 -0.00086926081
      0.110466264 -5.55540787e-08 0.109825119 -1.81280507e-06
      -0.000120466713 -3.41522264e-06 -3.20844123e-07 -0.000209324135
      -2.22068991e-07 -3.52383904e-06 0.256733894 -5.25632693e-09
      -6.83450352e-10 -1.26332065e-08 -7.83527909e-10 0.0984121338
      0.276692003 -2.37378063e-05 0.21460852 -9.0383699e-05
      -1.24441024e-09 -1.40965071e-07 -4.12514055e-05 -3.44835116e-09
      -0.000608908362 -0.000202548501 -1.17394747e-10 -3.04838022e-06
      -0.000262867106 -0.000292384124 -1.49107834e-07 -0.000203095042
      -9.99611238e-09 -2.90645021e-05 -5.88889088e-05 -6.12402255e-06</_>
    <_>
      -1.64525616 -2.17171812 -0.00471309945 0.190536931 -4.6759542e-08
      -9.02241227e-05 -0.00918051135 -0.000376238429 -0.00115376851
      -5.41811914e-07 -1.09796738e-05 -2.73278914e-07 -5.03089832e-05
      -0.000147723636 -0.000127982144 2.24173093 -0.00072869967
      -0.00193278398 2.91948533 -0.000110677975 -0.00080921693
      -0.000496470369 -0.00350665208 -4.67693062e-05 -6.8539739e-06
      -0.000462406635 1.22112191 -1.10738683e-05 -3.59810219e-05
      -1.00080852e-05 1.32760811 -0.000162722499 -0.00420780946
      -0.000626053254 -6.39580394e-05 -0.000656607794 -0.000247696706
      -2.4326735e-05 -0.0037516607 -0.000103021004 -0.000110920999
      -0.000515280815 -0.000822938862 -0.000288158451 -0.00012483004
      -0.00136907725 -0.00030184057 3.82811546 1.40710568 -0.00814163405
      -0.000935902412 -0.000996963354 -1.58145383e-06 -0.00760580366
      -0.00120646809 -0.0140307629 -0.0152881909 -0.00248629693
      0.779784381 -0.00362838875 -0.000447393599 -0.000436005619
      -0.000641143008 1.42364836 -0.0181220714 -3.78504701e-05
      -2.4714418e-05 -8.46123385e-06 -0.0036858907 -0.000951301306
      -0.000592055498 3.22833848 -0.00129215012 -8.36073305e-05
      -2.44040234e-06 -0.000962841732 -1.5664129e-05 -0.00812106021
      0.309524953 -0.00130494765 -6.49778758e-06 -5.70857814e-08
      -0.000297498045 0.39120084 0.407833695 -0.000344865053 0.665641189
      0.763492167 -5.36649168e-06 -0.00722558843 -0.00431920867
      -0.000282217807 -0.00390336802 -0.00496962992 1.7679646
      -0.0158367641 -0.000557847088 0.256255955 -0.00460272329
      -0.00172471523 -2.21332793e-05 -0.00568446983 1.59151196
      -5.07860648e-07 -6.18116173e-05 -0.000836306659 3.76321697
      -5.09583442e-05 -2.72634825e-05 -0.000227892509 0.793325365
      -0.00127004005 -0.00725269644 -1.22480287e-05 -3.51242306e-05
      -0.000232660939 -4.8574725e-07 -1.57459897e-06 -9.62253253e-05
      -3.6947753e-05 -0.00556785055 -5.89911451e-06 -0.00508593908
      -0.000270761404 -0.0120232273 -0.00772065623 -0.00145574845
      -0.0158420671 -0.0169033855 -0.00132366084 -1.64707785e-08
      0.108837888 0.236761659 -7.12425463e-05 -4.65650155e-05
      0.066770412 0.289575726 0.166384265 -1.03468221e-08
      -0.000175284527 0.404618293 -2.64064101e-06 -2.75214767e-08
      0.378503561 1.10697198 -0.000174289657 0.0437059924 -0.00185418874
      -9.0731147e-09 -0.000258912885 -2.35238276e-05 -0.000107798805
      -2.79669121e-06 -2.99558883e-06 -0.000709059008 -0.00014613579
      0.0373145565 -0.00155663351 -1.28799525e-06 -0.00365989399
      -4.55486042e-06 -0.00276568229 0.441952676 0.217891186 0.160842672
      -0.00141493767 0.158533692 0.408369839 -2.32310813e-05
      -0.000367350411 0.0973111689 0.242740124 0.580148399
      -0.000189412938 0.508420706 -0.000484237506 0.0479990244
      -0.00327194226 0.0147437043 -0.0015164247 0.432325602
      -0.00157525868 -1.53720903e-05 -0.00312407315 0.185575753
      -0.00310043944 -0.00275507919 -9.36963042e-05 -2.98667192e-06
      -0.00179186335 -2.04717878e-07 -4.75059522e-07 0.0238272995
      -0.000161668839 -1.44797023e-05 -1.78317914e-05 -0.000225839889
      -0.000418889802 0.132954285 -4.24832827e-08 -3.0933206e-10
      -4.94291807e-09 -2.32656451e-13 -0.000150568143 -8.26182259e-07
      -2.26556496e-10 -9.35899807e-05 0.0940959305 -1.89467246e-05
      -0.000195148677 -0.00014342973 -3.8985545e-05 -1.55877151e-05
      0.269566476 -6.03113222e-07 -7.68773043e-06 0.228867531
      -0.000285287504 0.21380353 -7.41645927e-05 0.006656304
      -0.000872084987 0.109637059 -5.54907338e-08 0.108893737
      -1.81801408e-06 -0.000120448363 -3.41109921e-06 -3.43533458e-07
      -0.000209454418 -2.21592344e-07 -3.52149004e-06 0.259139538
      -5.24750821e-09 -6.83350321e-10 -1.26525395e-08 -7.82561071e-10
      0.0988945365 0.276309997 -2.37234217e-05 0.214798242
      -9.03510954e-05 -1.239853e-09 -1.4081165e-07 -4.1235955e-05
      -3.44506002e-09 -0.000610574381 -0.00020041829 -1.17217694e-10
      -3.04646233e-06 -0.000267974421 -0.0002927405 -1.48921686e-07
      -0.000203171308 -9.98550576e-09 -2.90549615e-05 -5.98156585e-05
      -6.12088525e-06</_>
    <_>
      -1.57656372 -2.26226211 -0.00456644129 0.162569389 -4.57794798e-08
      -8.25989628e-05 -0.00891007949 -0.000357024488 -0.00111774565
      -5.09873587e-07 -1.08225777e-05 -2.72168307e-07 -4.83949698e-05
      -0.000143805024 -0.000120848534 2.20065045 -0.00158003939
      -0.00187964796 2.99340129 -0.000106615014 -0.000800639275
      -0.000474697968 -0.00341545045 0.00638656318 -6.79179129e-06
      -0.000917353551 1.12238872 -1.04604505e-05 -3.66726454e-05
      -9.83230257e-06 1.32361042 -0.000157560891 -0.00418937299
      -0.000599675055 -6.07277434e-05 -0.00064348185 -0.000245734089
      -2.38816174e-05 -0.00316464202 -9.52707851e-05 -0.000108859807
      -0.000483750802 -0.000775565626 -0.000285522576 -0.000244352035
      -0.0013548329 -0.00029998066 3.97509599 1.39799547 -0.00741861435
      -0.000871120836 -0.00106526131 -1.49344294e-06 -0.00745204976
      -0.000760184601 -0.0136203468 -0.0144742951 -0.00237470237
      0.767519772 -0.00349498983 -0.000446156366 -0.000404822989
      -0.000614341698 1.31977797 -0.0179435723 -3.79587618e-05
      -2.33160099e-05 -8.72266355e-06 -0.00361084542 -0.000922508945
      -0.000597006991 3.19959188 -0.00126174802 -8.16599204e-05
      -2.03247487e-06 -0.000949204841 -1.53390993e-05 -0.00867790543
      0.316177964 -0.0012698815 -6.49725598e-06 -4.49918289e-08
      -0.000284020585 0.424031854 0.39229992 -0.000331954478 0.684071302
      0.616711676 -5.15925967e-06 -0.00706570316 -0.00426065177
      -0.000266067334 -0.00379346055 -0.00490298076 1.6205163
      -0.0153038185 -0.000561555033 0.275431037 -0.0044750548
      -0.00167408225 -2.0453208e-05 -0.00551025895 1.47041273
      -4.99380917e-07 -5.97349826e-05 -0.00082290452 3.81601167
      -4.92235013e-05 -2.7006352e-05 -0.000216881046 0.844369709
      -0.0012114452 -0.00667612255 -1.18669886e-05 -3.24001703e-05
      -0.000205802426 -4.41022337e-07 -1.51000575e-06 -9.20305029e-05
      -3.5505851e-05 -0.0053761052 -5.72587714e-06 -0.00503232935
      -0.000254810991 -0.0119905658 -0.00772371655 -0.00137418963
      -0.0160565786 -0.0171992313 -0.0011352303 -1.65469274e-08
      0.109637886 0.236143142 -7.13540285e-05 -4.87502002e-05
      0.069600895 0.321937621 0.180463538 -1.03530553e-08
      -0.000175640074 0.407308072 -2.63084758e-06 -2.75760694e-08
      0.387601256 1.09437716 -0.000175111825 0.0604860857 -0.00192991702
      -9.2359409e-09 -0.000437148497 -2.35662392e-05 -0.000108673456
      -2.79065512e-06 -3.00131751e-06 -0.000759986113 -0.000146702791
      0.0892345533 -0.00136135414 -1.292246e-06 -0.00352950441
      -4.55686131e-06 -0.00270820875 0.444674432 0.227481931 0.189861894
      -0.00138707738 0.154509693 0.403989792 -2.37377171e-05
      -0.000368082838 0.100470103 0.25724709 0.570500493 -0.000187754107
      0.498277843 -0.000481813535 0.00048288703 -0.00329283671
      -7.14440612e-05 -0.00169712841 0.437583447 -0.00156466151
      -1.53903438e-05 -0.0030992066 0.157162696 -0.00281934603
      -0.00273626647 -9.38722587e-05 -3.00560919e-06 -0.0017464807
      -2.08283737e-07 -4.75861214e-07 0.0255443007 -0.000277121988
      -1.44886972e-05 -1.78446244e-05 -0.000225730837 -0.000418300915
      0.134158522 -4.25399449e-08 -3.09552134e-10 -4.94852292e-09
      -2.33132198e-13 -0.000150589665 -8.26677137e-07 -2.26692165e-10
      -9.36157157e-05 0.0949671715 -1.89561688e-05 -0.000198160385
      -0.000143443322 -3.89997113e-05 -1.55964226e-05 0.267431259
      -6.03514422e-07 -7.69097005e-06 0.227250487 -0.000284954091
      0.211288556 -7.43021956e-05 0.00672699884 -0.00086926081
      0.110466264 -5.55540787e-08 0.109825119 -1.81280507e-06
      -0.000120466713 -3.41522264e-06 -3.20844123e-07 -0.000209324135
      -2.22068991e-07 -3.52383904e-06 0.256733894 -5.25632693e-09
      -6.83450352e-10 -1.26332065e-08 -7.83527909e-10 0.0984121338
      0.276692003 -2.37378063e-05 0.21460852 -9.0383699e-05
      -1.24441024e-09 -1.40965071e-07 -4.12514055e-05 -3.44835116e-09
      -0.000608908362 -0.000202548501 -1.17394747e-10 -3.04838022e-06
      -0.000262867106 -0.000292384124 -1.49107834e-07 -0.000203095042
      -9.99611238e-09 -2.90645021e-05 -5.88889088e-05 -6.12402255e-06</_>
    <_>
      -1.78658879 -2.1800797 -0.00480515929 0.0750430524 -4.81664841e-08
      -9.17674843e-05 -0.00930559356 -0.000391282287 -0.00119930122
      -5.65990888e-07 -1.10124411e-05 -2.74493232e-07 -5.14766652e-05
      -0.000150721229 -0.000130809814 2.39648175 -0.00110715115
      -0.00197787839 2.91839385 -0.000115143775 -0.000816327287
      -0.000508348981 -0.00357756135 -0.000142909514 -6.91570813e-06
      -0.00108540838 1.20211256 -1.11229947e-05 -3.62489518e-05
      -1.00720754e-05 1.32316649 -0.000166837606 -0.00470655598
      -0.000635374687 -6.54937903e-05 -0.000671145215 -0.000246021227
      -2.45643751e-05 -0.00344995409 -0.000103801467 -0.000115256174
      -0.000523107359 -0.000848963042 -0.000279952161 -0.000163628865
      -0.00139442005 -0.000300839951 3.78339434 1.35294259
      -0.00932146236 -0.000963446451 -0.00101843756 -1.70892838e-06
      -0.00774452835 -0.000791447354 -0.0140313478 -0.0169340838
      -0.00252785883 0.774496317 -0.00369935087 -0.000458076247
      -0.00045252213 -0.00066155626 1.41974354 -0.018574167
      -3.75988711e-05 -2.54561674e-05 -8.37676725e-06 -0.00374386576
      -0.000962654187 -0.000590347219 3.30120707 -0.00130924419
      -8.54282625e-05 -2.65232165e-06 -0.000955820375 -1.52744651e-05
      -0.00830325298 0.423244029 -0.00133120723 -6.48185551e-06
      -4.57532678e-08 -0.000310201402 0.399336785 0.335596144
      -0.000350147369 0.598489583 0.728814185 -5.51556286e-06
      -0.0072818175 -0.00436957786 -0.000290624914 -0.00399504136
      -0.00500442972 1.71461129 -0.0159471277 -0.000550639234
      0.194054529 -0.00467336364 -0.00175695622 -2.18691384e-05
      -0.00579354493 1.57623494 -5.21360278e-07 -6.42725354e-05
      -0.000836827559 3.78930092 -5.31844089e-05 -2.72604539e-05
      -0.000233190964 0.78873384 -0.00130192423 -0.00689164363
      -1.24661974e-05 -3.53102878e-05 -0.000244352617 -5.0384017e-07
      -1.59108674e-06 -9.58588353e-05 -3.77504766e-05 -0.00560532603
      -5.9683889e-06 -0.00521880994 -0.000276185223 -0.0124360388
      -0.00771177467 -0.00149321451 -0.0157650318 -0.0172813889
      -0.00143385783 -1.646921e-08 0.111823186 0.242039621
      -7.10300592e-05 -4.75828092e-05 0.0692212507 0.308243245
      0.165892482 -1.03257287e-08 -0.000174371933 0.407167792
      -2.62647336e-06 -2.75378547e-08 0.396990359 1.1060605
      -0.000175972062 0.0539826974 -0.00197899318 -9.14492837e-09
      -0.000362768304 -2.35297248e-05 -0.000108605454 -2.77836239e-06
      -2.98767714e-06 -0.000815922802 -0.000141565164 0.0754345655
      -0.00138390192 -1.28921704e-06 -0.00360124093 -4.5480665e-06
      -0.00273230067 0.448684424 0.228775203 0.179336905 -0.00138747774
      0.157605782 0.410981566 -2.32909315e-05 -0.000365591346
      0.102983989 0.261890441 0.569463551 -0.000189967046 0.49987638
      -0.000508558122 0.00838822126 -0.00336366938 -6.47510606e-05
      -0.00165065995 0.44190377 -0.00157145597 -1.53749224e-05
      -0.0031134712 0.160161287 -0.00286556128 -0.00274776807
      -9.33233532e-05 -2.99191993e-06 -0.00180941285 -2.06863803e-07
      -4.74590223e-07 0.0244204588 -0.000168594386 -1.44951364e-05
      -1.78544378e-05 -0.000225630385 -0.000417921721 0.135262281
      -4.25822506e-08 -3.09505838e-10 -4.95261254e-09 -2.33507712e-13
      -0.000150602704 -8.27036558e-07 -2.26770352e-10 -9.36343931e-05
      0.0958361998 -1.89631064e-05 -0.000199551912 -0.000143451078
      -3.9009934e-05 -1.56029582e-05 0.265562117 -6.03805574e-07
      -7.69335929e-06 0.225790173 -0.000284671172 0.209285185
      -7.44515273e-05 0.006912034 -0.000867088209 0.110876098
      -5.56011166e-08 0.110706694 -1.80904067e-06 -0.00012047762
      -3.4181935e-06 -3.06511055e-07 -0.000209211808 -2.2244383e-07
      -3.52561233e-06 0.254709065 -5.26285682e-09 -6.83496426e-10
      -1.26172051e-08 -7.84237841e-10 0.0984784886 0.277452141
      -2.3748451e-05 0.21406585 -9.04065237e-05 -1.24782618e-09
      -1.41076271e-07 -4.12627996e-05 -3.45082496e-09 -0.000607602648
      -0.00020350657 -1.17522506e-10 -3.04980131e-06 -0.000257951004
      -0.000292109529 -1.49245722e-07 -0.000203022602 -1.00039301e-08
      -2.90714288e-05 -5.86101087e-05 -6.12630356e-06</_>
    <_>
      -1.78145564 -2.09819031 -0.00464828592 0.0737993419
      -4.56143319e-08 -8.86825001e-05 -0.00910841022 -0.000365535059
      -0.00115078711 -5.31094372e-07 -1.09054999e-05 -2.7339695e-07
      -4.98825575e-05 -0.000147892031 -0.000126531057 2.31747842
      -0.00032788486 -0.00189256365 2.92941666 -0.000110746405
      -0.000806588971 -0.000487900543 -0.00345027051 0.0191242024
      -6.79682853e-06 -6.29666465e-05 1.25953019 -1.09536104e-05
      -3.6231082e-05 -9.75707553e-06 1.29683244 -0.000160818221
      -0.00394678162 -0.00062382326 -6.3155836e-05 -0.00065419107
      -0.000249302044 -2.39824676e-05 -0.00389324338 -9.86636442e-05
      -0.000109024943 -0.000505566655 -0.000807527511 -0.000285182643
      -6.46514818e-05 -0.00134404004 -0.000300673884 3.8493309
      1.39740372 -0.00835943501 -0.000911982264 -0.000906375004
      -1.49206573e-06 -0.00751666725 -0.000406768377 -0.0140133118
      -0.0157749895 -0.00246479153 0.775068521 -0.00358074601
      -0.000442579534 -0.000407610147 -0.00062471797 1.44668007
      -0.0177782383 -3.79546691e-05 -2.36513188e-05 -8.53506754e-06
      -0.00363832316 -0.000950769288 -0.000588233757 3.21888137
      -0.00127970241 -8.2076127e-05 -2.29971101e-06 -0.000956749893
      -1.56067654e-05 -0.00765021378 0.34702459 -0.0012852964
      -6.4780379e-06 -4.63689496e-08 -0.000288464653 0.456041574
      0.292190403 -0.000337388221 0.665249228 0.77299577 -5.26913027e-06
      -0.00713656843 -0.00431045983 -0.000275517086 -0.00382829946
      -0.0049259942 1.81988275 -0.0157597978 -0.00055440102 0.205146566
      -0.0045357612 -0.00170552125 -2.15749387e-05 -0.00559613621
      1.6140641 -5.06347874e-07 -6.05548521e-05 -0.000833147089
      3.79266095 -4.98781374e-05 -2.70775345e-05 -0.000225476266
      0.743277609 -0.00123865576 -0.00701128412 -1.19999504e-05
      -3.32669915e-05 -0.000221745402 -4.68417824e-07 -1.5369402e-06
      -9.50108806e-05 -3.62480132e-05 -0.00552083412 -5.8631681e-06
      -0.00506323483 -0.000267357362 -0.0115035698 -0.00772416405
      -0.00142446649 -0.0159244519 -0.0167710688 -0.0012663526
      -1.65088778e-08 0.110837303 0.237994224 -7.11084649e-05
      -4.6347006e-05 0.067388162 0.289459288 0.163665771 -1.03804974e-08
      -0.000175529902 0.40074259 -2.62368144e-06 -2.76446954e-08
      0.379978657 1.11285555 -0.000174544228 0.0405756161 -0.00179339887
      -9.10951847e-09 -0.000278197957 -2.35596672e-05 -0.000107271015
      -2.79265237e-06 -3.00116562e-06 -0.000667356187 -0.000142633275
      0.0406462699 -0.00156052993 -1.29002592e-06 -0.00368786347
      -4.56488897e-06 -0.00274875178 0.436075956 0.219014809 0.157803208
      -0.00139717991 0.160716921 0.412806958 -2.31719896e-05
      -0.000366810185 0.0980169475 0.239788264 0.583900511
      -0.000188785198 0.511298835 -0.000513090461 0.0446014181
      -0.0032512669 0.0145158321 -0.00152110902 0.430190265
      -0.00158116722 -1.54159261e-05 -0.00311761559 0.187050715
      -0.00308137108 -0.00275082514 -9.35472563e-05 -2.98845112e-06
      -0.00182313682 -2.04945934e-07 -4.76336282e-07 0.0208972953
      -0.000147949409 -1.44782216e-05 -1.7829896e-05 -0.00022585009
      -0.000419001444 0.132840306 -4.24745572e-08 -3.09225423e-10
      -4.94202235e-09 -2.32590233e-13 -0.000150563777 -8.26102621e-07
      -2.26527561e-10 -9.35858479e-05 0.0940376073 -1.89452312e-05
      -0.0001943924 -0.000143426805 -3.89832385e-05 -1.55863854e-05
      0.269799471 -6.03048591e-07 -7.68722202e-06 0.229028612
      -0.000285327085 0.214145765 -7.41594849e-05 0.00669078156
      -0.000872497563 0.109438382 -5.54809034e-08 0.108815223
      -1.8188598e-06 -0.000120444587 -3.41042664e-06 -3.47940357e-07
      -0.000209469305 -2.21525553e-07 -3.52113489e-06 0.259429723
      -5.24613242e-09 -6.83324897e-10 -1.2654966e-08 -7.82408083e-10
      0.0991149172 0.27641502 -2.37211734e-05 0.21468994 -9.03455511e-05
      -1.23915611e-09 -1.40786881e-07 -4.12335285e-05 -3.44455908e-09
      -0.000610809366 -0.000199874339 -1.17188911e-10 -3.04616333e-06
      -0.000268379546 -0.000292792422 -1.48892653e-07 -0.000203177682
      -9.98383776e-09 -2.90534226e-05 -6.01000756e-05 -6.12038184e-06</_>
    <_>
      -1.77969265 -2.02961874 -0.00456331531 0.0276061445
      -4.53119426e-08 -8.60530563e-05 -0.00893122051 -0.000357243145
      -0.00114377635 -5.41114389e-07 -1.07564674e-05 -2.71900717e-07
      -4.89782869e-05 -0.00014994471 -0.000122399782 2.32843661
      -0.000583703804 -0.00186969177 2.91128874 -0.000108858418
      -0.000804316544 -0.000475840934 -0.0033898775 0.0139102526
      -6.79089862e-06 -0.000367882923 1.21111023 -1.07333508e-05
      -3.6292382e-05 -9.78670687e-06 1.24678254 -0.000157504415
      -0.00434350828 -0.000611730618 -6.23823507e-05 -0.000651848852
      -0.000246108946 -2.38371213e-05 -0.00342984754 -9.5404248e-05
      -0.000107973436 -0.000487381942 -0.000786236487 -0.00028494696
      -8.10806814e-05 -0.00134076294 -0.000297128921 3.90511727
      1.38964605 -0.00808691978 -0.000884722453 -0.000980617944
      -1.51008192e-06 -0.00741807697 -0.000296890357 -0.0137886154
      -0.0160062835 -0.00239176606 0.76951915 -0.00350350305
      -0.00045398582 -0.00039453365 -0.00061119895 1.39149237
      -0.0177102219 -3.7628306e-05 -2.32295642e-05 -8.81970573e-06
      -0.00359526556 -0.000932368741 -0.000592558645 3.16281486
      -0.00125986198 -8.06466414e-05 -2.15355772e-06 -0.000950560265
      -1.52920256e-05 -0.00791067258 0.41818884 -0.00126415887
      -6.42779332e-06 -5.05115842e-08 -0.000283696834 0.443913162
      0.27866897 -0.000329497299 0.650186062 0.661995947 -5.14193698e-06
      -0.00700970739 -0.00425050082 -0.000268024451 -0.00376141537
      -0.00487871934 1.74279261 -0.0153115941 -0.000550387369 0.2179932
      -0.00444151182 -0.00167794747 -2.09005757e-05 -0.00548459403
      1.55895281 -5.17653518e-07 -6.06015856e-05 -0.000833954546
      3.77734756 -5.01438626e-05 -2.70122564e-05 -0.000220009024
      0.711656928 -0.00121035182 -0.00651608501 -1.17898717e-05
      -3.24370558e-05 -0.000213902327 -4.57402251e-07 -1.49583525e-06
      -9.31423128e-05 -3.53866417e-05 -0.00542587368 -5.7695629e-06
      -0.00499160029 -0.000260181434 -0.011464023 -0.00762373349
      -0.00138600334 -0.016076589 -0.0169599503 -0.00120042684
      -1.63207279e-08 0.111065447 0.234208226 -7.11858884e-05
      -4.65756893e-05 0.0682911873 0.289623439 0.154956579
      -1.02374766e-08 -0.000174339424 0.416989952 -2.65612766e-06
      -2.7218416e-08 0.395477891 1.11180842 -0.000175271809 0.0529290885
      -0.00206684787 -8.97794283e-09 -0.000208574827 -2.341041e-05
      -0.000108735177 -2.78638572e-06 -2.97366114e-06 -0.00094464171
      -0.000123311242 0.045656234 -0.00149440125 -1.28003705e-06
      -0.00363369426 -4.52130553e-06 -0.00278208754 0.460820556
      0.215664715 0.167728156 -0.00141930231 0.152765706 0.40762338
      -2.3179824e-05 -0.00036776386 0.0968337283 0.254165083 0.562045813
      -0.000191042825 0.495677114 -0.000517994456 0.0442453921
      -0.00341061316 0.00335762277 -0.00153756887 0.439016581
      -0.00156782777 -1.52888442e-05 -0.00315152202 0.173377126
      -0.00303749531 -0.00278245215 -9.3512288e-05 -2.9753312e-06
      -0.00182036008 -2.04149728e-07 -4.71185842e-07 0.0278562419
      -0.000120025092 -1.44892147e-05 -1.78452701e-05 -0.000225727854
      -0.000418261043 0.134194106 -4.25429505e-08 -3.09594822e-10
      -4.94883556e-09 -2.3315437e-13 -0.000150591266 -8.2670482e-07
      -2.26702684e-10 -9.36171564e-05 0.0949817747 -1.89566872e-05
      -0.000198460461 -0.000143444398 -3.90005189e-05 -1.5596881e-05
      0.267356724 -6.03536932e-07 -7.69114558e-06 0.227200955
      -0.00028494143 0.211169302 -7.43023556e-05 0.00670999661
      -0.000869119889 0.110545322 -5.55574751e-08 0.109848537
      -1.81251232e-06 -0.00012046811 -3.4154566e-06 -3.19292866e-07
      -0.000209319434 -2.22091543e-07 -3.52396091e-06 0.256636918
      -5.25680299e-09 -6.83459012e-10 -1.26323876e-08 -7.83580978e-10
      0.0983193591 0.276640892 -2.37385811e-05 0.214661181
      -9.03856635e-05 -1.24465027e-09 -1.40973711e-07 -4.12522422e-05
      -3.44852324e-09 -0.000608828675 -0.000202764713 -1.17404808e-10
      -3.04848368e-06 -0.000262759277 -0.000292366516 -1.49117852e-07
      -0.000203093281 -9.99669147e-09 -2.90650387e-05 -5.8774327e-05
      -6.12419763e-06</_>
    <_>
      -1.67891777 -2.33239937 -0.00458810152 0.0973720849
      -4.60392862e-08 -8.32206351e-05 -0.0089680003 -0.000359335769
      -0.00112409762 -4.88986529e-07 -1.08775621e-05 -2.71308096e-07
      -4.81446368e-05 -0.000145125567 -0.000121240948 2.28792882
      -0.00157460815 -0.00188603578 3.01795983 -0.000105828731
      -0.000799254922 -0.000475109875 -0.00343828602 0.0131413639
      -6.71841417e-06 -0.000946668268 1.13133967 -1.03766433e-05
      -3.62527608e-05 -9.71561258e-06 1.36514628 -0.000158586277
      -0.00423462037 -0.00059968757 -6.07668444e-05 -0.000648349
      -0.000245533738 -2.35158313e-05 -0.00350777106 -9.59982499e-05
      -0.000108534303 -0.0004859115 -0.00078163197 -0.000287092873
      -0.000192333275 -0.00136059069 -0.000304658432 3.98173642
      1.35638201 -0.00795409642 -0.000877385784 -0.000984986662
      -1.46343757e-06 -0.00751540344 0.0136203468 -0.0136971157
      -0.0149282841 -0.00240049977 0.754113376 -0.00352332322
      -0.000440605945 -0.000409788598 -0.000619066355 1.32996392
      -0.0182670318 -3.76639146e-05 -2.32894035e-05 -8.34493585e-06
      -0.00362041616 -0.000924251333 -0.000591481104 3.25093699
      -0.00126432884 -8.15284293e-05 -2.07447874e-06 -0.000955532189
      -1.52567864e-05 -0.0087094726 0.34398824 -0.00128326169
      -6.43994599e-06 -4.10841388e-08 -0.000285734219 0.464769304
      0.316161633 -0.000333245349 0.664109468 0.660771847
      -5.14890644e-06 -0.00706401328 -0.0043351748 -0.000267672614
      -0.00381730916 -0.00489065703 1.63144588 -0.0154037522
      -0.000561716268 0.224284366 -0.00450635515 -0.00167586596
      -2.02380706e-05 -0.00555016939 1.4851892 -4.87959881e-07
      -6.0041024e-05 -0.00081664446 3.8932395 -4.79995651e-05
      -2.68987515e-05 -0.000217366338 0.863700151 -0.00121955783
      -0.00695824437 -1.18532216e-05 -3.25898181e-05 -0.000203035539
      -4.37772172e-07 -1.50198298e-06 -9.21558021e-05 -3.59019323e-05
      -0.00539067155 -5.76790626e-06 -0.00510758208 -0.000249617326
      -0.0120813716 -0.00779067446 -0.00138082483 -0.0158017091
      -0.0174100343 -0.00110590167 -1.65324021e-08 0.109140798
      0.240377873 -7.11191242e-05 -4.81747556e-05 0.066246897
      0.314620912 0.168466985 -1.03468984e-08 -0.00017430204 0.409813583
      -2.63304173e-06 -2.75915042e-08 0.394508898 1.09838188
      -0.000175891037 0.0576057509 -0.00201400369 -9.21512289e-09
      -0.000356840494 -2.35712632e-05 -0.00010872334 -2.78379935e-06
      -2.99262115e-06 -0.000789578189 -0.00016843628 0.081494242
      -0.00132159493 -1.29250577e-06 -0.00355951907 -4.55513828e-06
      -0.00272255973 0.447373569 0.227368593 0.183837473 -0.00136918679
      0.154842526 0.407498747 -2.3485698e-05 -0.000365192362 0.101833545
      0.260160953 0.5647313 -0.000189260798 0.494314015 -0.000487256038
      0.00216886401 -0.00335724559 -5.84731606e-05 -0.00168432679
      0.438920259 -0.00156206475 -1.53925757e-05 -0.00310137682
      0.159319282 -0.00283733313 -0.0027412707 -9.32399271e-05
      -3.00662532e-06 -0.0017754134 -2.07686128e-07 -4.75625598e-07
      0.0250366963 -0.000222417526 -1.44865917e-05 -1.7844277e-05
      -0.000225661526 -0.000418618176 0.134899199 -4.25340474e-08
      -3.08637033e-10 -4.94753349e-09 -2.33168817e-13 -0.00015057456
      -8.26583175e-07 -2.2658006e-10 -9.36108045e-05 0.0958020091
      -1.8954699e-05 -0.000194206892 -0.000143431753 -3.89967281e-05
      -1.5595655e-05 0.266489685 -6.03437286e-07 -7.69050985e-06
      0.226347685 -0.000284844893 0.211020038 -7.44856661e-05
      0.00728059933 -0.000869284326 0.109491356 -5.55464226e-08
      0.110516161 -1.81387622e-06 -0.000120452954 -3.41433679e-06
      -3.34236518e-07 -0.000209274003 -2.22099672e-07 -3.52367579e-06
      0.256016761 -5.25518296e-09 -6.83319623e-10 -1.26285906e-08
      -7.83376641e-10 0.100271106 0.278664619 -2.37359109e-05
      0.212927997 -9.03738473e-05 -1.24399191e-09 -1.40934901e-07
      -4.12492009e-05 -3.44807916e-09 -0.000608820061 -0.000199641581
      -1.1735754e-10 -3.04813443e-06 -0.000258727203 -0.000292385055
      -1.49083846e-07 -0.0002030373 -9.99457228e-09 -2.90626704e-05
      -6.07394941e-05 -6.1234382e-06</_>
    <_>
      -1.78771746 -2.07618093 -0.00451352214 0.0913272798
      -4.42375487e-08 -8.45053146e-05 -0.00892122928 -0.000351043622
      -0.00112796319 -4.96068594e-07 -1.06028265e-05 -2.6661192e-07
      -4.86904464e-05 -0.000147948624 -0.000124169703 2.31194806
      0.0708414391 -0.00184186932 2.78942657 -0.000108160617
      -0.000792895386 -0.000472158048 -0.00332820299 0.0266856961
      -6.60541855e-06 0.0597300828 1.33622849 -1.08648401e-05
      -3.566948e-05 -9.41502367e-06 1.24257028 -0.000156794296
      -0.00404248806 -0.000625238696 -6.16805701e-05 -0.000635209377
      -0.000244737777 -2.37263412e-05 -0.00384632288 -9.60295438e-05
      -0.000105320862 -0.00049152982 -0.000783874362 -0.000285644463
      0.0183590017 -0.00131181115 -0.000292208715 3.70766306 1.37054491
      -0.0076278476 -0.00088749628 -0.000891418429 -1.4691251e-06
      -0.00733480696 0.00824744999 -0.0138122849 -0.0152529487
      -0.00240515033 0.759419382 -0.0034605281 -0.000427851104
      -0.000389223162 -0.000599942286 1.50866365 -0.0169839971
      -3.78568075e-05 -2.31173817e-05 -8.53977053e-06 -0.00354032242
      -0.000938214245 -0.000587919028 3.22023726 -0.0012463124
      -7.9342004e-05 -2.22414064e-06 -0.000955050404 -1.57002214e-05
      -0.00685165031 0.34130466 -0.00124096102 -6.39609789e-06
      -4.46562538e-08 -0.000274884951 0.453665555 0.314553291
      -0.000327306829 0.654465437 0.750944912 -5.0645217e-06
      -0.00702971499 -0.0041999463 -0.000267341791 -0.00370652182
      -0.00486794626 1.95948863 -0.0155791538 -0.000542039284 0.19379361
      -0.00441461056 -0.00166758476 -2.10192065e-05 -0.00541511923
      1.71046722 -5.0456606e-07 -5.9664806e-05 -0.000825746625
      3.71869159 -4.86962344e-05 -2.68325221e-05 -0.000218744332
      0.779376328 -0.00119882892 -0.00736105442 -1.16117108e-05
      -3.20071376e-05 -0.000213238105 -4.75522967e-07 -1.49476693e-06
      -9.41677936e-05 -3.51012204e-05 -0.00547231408 -5.71222381e-06
      -0.00490130857 -0.000266783522 -0.0108393766 -0.00759380823
      -0.00139312155 -0.0160107948 -0.0161751844 -0.00130602624
      -1.63576708e-08 0.1049072 0.228649408 -7.11465764e-05
      -4.50812731e-05 0.0735122114 0.269769162 0.16119051
      -1.03015561e-08 -0.000174936053 0.417723924 -2.64097753e-06
      -2.73747478e-08 0.371397614 1.10554254 -0.000173904744
      0.0400985032 -0.00202294416 -8.87634766e-09 -0.00015399768
      -2.34435302e-05 -0.000107769556 -2.7891806e-06 -2.98940677e-06
      -0.000816735206 -0.000177425856 0.00553814322 -0.00170194975
      -1.28269573e-06 -0.00376988761 -4.53884059e-06 -0.00277226907
      0.448758185 0.206408471 0.154799446 -0.00142518233 0.149375275
      0.396178484 -2.30368569e-05 -0.00036729878 0.0915486515
      0.231234014 0.565446079 -0.000190786173 0.501392007 -0.00034704461
      0.0824902132 -0.00328186643 0.0289866515 -0.0013787949 0.423674107
      -0.00156671356 -1.53277106e-05 -0.00315808831 0.195570514
      -0.00329106022 -0.00278274273 -9.34123309e-05 -2.97347606e-06
      -0.00178708672 -2.02130394e-07 -4.72974563e-07 0.0330376364
      -0.000134286165 -1.44764199e-05 -1.78264763e-05 -0.000225902244
      -0.0004190623 0.132273465 -4.24608508e-08 -3.09457487e-10
      -4.94079755e-09 -2.32447552e-13 -0.000150562686 -8.25996494e-07
      -2.26525992e-10 -9.35803328e-05 0.0935312957 -1.8943103e-05
      -0.000194838925 -0.000143426761 -3.89802954e-05 -1.55842354e-05
      0.270686865 -6.02962871e-07 -7.68647715e-06 0.229761571
      -0.000285453803 0.214920342 -7.40627584e-05 0.00649328157
      -0.000873266836 0.109525315 -5.54659181e-08 0.108339019
      -1.81995244e-06 -0.00012044394 -3.40957467e-06 -3.49930474e-07
      -0.000209521182 -2.2138461e-07 -3.52054076e-06 0.260318726
      -5.24407229e-09 -6.83338608e-10 -1.26617437e-08 -7.82190424e-10
      0.0986496657 0.27567783 -2.37178247e-05 0.215282559
      -9.03397304e-05 -1.23803601e-09 -1.4075431e-07 -4.12299814e-05
      -3.4437404e-09 -0.000611295749 -0.00020022571 -1.17152094e-10
      -3.04571404e-06 -0.000271109602 -0.00029289021 -1.48849097e-07
      -0.000203217147 -9.98141214e-09 -2.90513817e-05 -5.97598992e-05
      -6.11970518e-06</_>
    <_>
      -1.71388745 -2.09713745 -0.00460364809 0.0553905517
      -4.63023362e-08 -8.68824209e-05 -0.00899404194 -0.000366751628
      -0.00113572075 -5.62086939e-07 -1.08893628e-05 -2.72132439e-07
      -4.96561224e-05 -0.000150115899 -0.000123392645 2.26615691
      -0.00113145821 -0.00189524353 2.95845103 -0.000108903507
      -0.000809022633 -0.000479008653 -0.00343759637 0.00699093938
      -6.93504899e-06 -0.000733661989 1.17525566 -1.09052362e-05
      -3.64514417e-05 -9.94099901e-06 1.28736866 -0.000159324773
      -0.00422315579 -0.000610908377 -6.28445268e-05 -0.000654048112
      -0.000248055556 -2.44583553e-05 -0.00331333233 -9.79172764e-05
      -0.000110084489 -0.000494583044 -0.00079531048 -0.000283823727
      -0.000322211999 -0.00136500725 -0.000299549807 3.94111943
      1.39203882 -0.00825589057 -0.000899145205 -0.000962654653
      -1.5662639e-06 -0.00750462152 -0.000877445971 -0.0137904482
      -0.0157052558 -0.00240471354 0.74732393 -0.00352817122
      -0.000451957691 -0.000417210482 -0.000625357614 1.35761142
      -0.0179913845 -3.79318772e-05 -2.38802841e-05 -8.88976047e-06
      -0.00364155276 -0.000927697169 -0.000591251592 3.18779993
      -0.0012718935 -8.21358335e-05 -2.19229787e-06 -0.000953733281
      -1.54294466e-05 -0.00838187058 0.382452726 -0.00128261291
      -6.51148912e-06 -4.86424661e-08 -0.000288774143 0.401658177
      0.332090944 -0.000335757213 0.652682781 0.700570166
      -5.21311176e-06 -0.00711889565 -0.00430633686 -0.000271368684
      -0.00383940339 -0.00493852468 1.68077803 -0.0154493349
      -0.000555728446 0.233761713 -0.00450213626 -0.0016916754
      -2.12903869e-05 -0.00564679364 1.51212835 -5.21922857e-07
      -6.16999314e-05 -0.000835135696 3.79305696 -5.07922414e-05
      -2.716161e-05 -0.000221588023 0.733050764 -0.00123288657
      -0.00677076308 -1.19802098e-05 -3.34143078e-05 -0.000220472401
      -4.73096577e-07 -1.52807525e-06 -9.4242976e-05 -3.59186342e-05
      -0.00546317548 -5.80229471e-06 -0.00504904892 -0.000264174421
      -0.0118620135 -0.007763559 -0.00139476254 -0.0160931759
      -0.0171407033 -0.00122605974 -1.66665455e-08 0.121022031
      0.252176434 -7.09415181e-05 -4.73406144e-05 0.0751820356
      0.305750132 0.168236673 -1.04747073e-08 -0.000175679626
      0.382716358 -2.59315857e-06 -2.79782082e-08 0.381955624 1.11283171
      -0.000174992514 0.0420386493 -0.00160620385 -9.29551547e-09
      -0.000504415599 -2.3678369e-05 -0.000107368462 -2.78926336e-06
      -3.01796126e-06 -0.000591565447 -0.000157176066 0.0800992325
      -0.00144175545 -1.29952548e-06 -0.00360810058 -4.59383136e-06
      -0.00271583721 0.422183812 0.231010526 0.170168608 -0.00137221173
      0.173537165 0.421500236 -2.32245238e-05 -0.000363874831
      0.104536466 0.247577369 0.595606744 -0.000188576028 0.513285875
      -0.000590728479 0.00489144027 -0.003213163 -4.59876283e-05
      -0.00172092521 0.436365485 -0.00159809948 -1.55178841e-05
      -0.00307154539 0.167775244 -0.00287075643 -0.00270983204
      -9.32304538e-05 -3.00735792e-06 -0.00185360818 -2.07451279e-07
      -4.80328652e-07 0.0139029175 -0.000163194578 -1.4484629e-05
      -1.78401569e-05 -0.000225732438 -0.000418657582 0.134128392
      -4.25180211e-08 -3.09018006e-10 -4.94614971e-09 -2.32991469e-13
      -0.000150574866 -8.26464316e-07 -2.26590371e-10 -9.36046417e-05
      0.0950958878 -1.89522689e-05 -0.000195162269 -0.000143432946
      -3.89934685e-05 -1.5593123e-05 0.267671704 -6.03341391e-07
      -7.68965401e-06 0.227337062 -0.000285010668 0.211994916
      -7.4348507e-05 0.00698203966 -0.000870217453 0.10969799
      -5.55290356e-08 0.109861299 -1.81508665e-06 -0.000120453653
      -3.41339728e-06 -3.35173098e-07 -0.000209342499 -2.21924964e-07
      -3.52297093e-06 0.25717783 -5.25280086e-09 -6.83351153e-10
      -1.26373516e-08 -7.8312834e-10 0.0995093733 0.277557135
      -2.37320401e-05 0.213825971 -9.03678301e-05 -1.24267507e-09
      -1.40898564e-07 -4.12451263e-05 -3.44711326e-09 -0.000609421288
      -0.000200372189 -1.17316795e-10 -3.04761488e-06 -0.000262491929
      -0.000292503828 -1.49033482e-07 -0.000203091491 -9.99178962e-09
      -2.90603875e-05 -6.01305292e-05 -6.12267922e-06</_>
    <_>
      -1.78481781 -2.35819674 -0.00484170159 -0.000686149113
      -4.8917844e-08 -9.62215563e-05 -0.00936250854 -0.000405234983
      -0.00119490991 -7.30087606e-07 -1.14655595e-05 -2.76842513e-07
      -5.32350132e-05 -0.00015495118 -0.000130020664 2.47452974
      -0.00194263225 -0.00201626332 3.03692079 -0.000115862516
      -0.000825472176 -0.00051517383 -0.00362739665 -0.000150815613
      -7.23254834e-06 -0.00181598275 1.13153636 -1.0988314e-05
      -3.7087575e-05 -1.03592511e-05 1.39366186 -0.000167312974
      -0.00529970462 -0.000637306191 -6.68459252e-05 -0.000681062113
      -0.00024482506 -2.62901904e-05 -0.00366809149 -0.0001091784
      -0.000115604387 -0.000529083074 -0.000872867531 -0.000276685692
      -0.000291476434 -0.00143325119 -0.000307010108 3.94815731
      1.2795974 -0.00942946691 -0.000996370334 -0.000902496977
      -1.78179471e-06 -0.00777276186 0.036983557 -0.0141927693
      -0.0175742116 -0.00255553843 0.763544142 -0.00374699384
      -0.000475695007 -0.000453531393 -0.000678607903 1.36649799
      -0.0193399061 -3.76714306e-05 -2.61032092e-05 -9.03314594e-06
      -0.0037816097 -0.000975343573 -0.000597884471 3.32643056
      -0.00134071172 -8.73097742e-05 -2.58712316e-06 -0.000971917936
      -1.57291197e-05 -0.00894931518 0.47302416 -0.00136014086
      -6.65861353e-06 -6.60547315e-08 -0.000315016048 0.500568628
      0.182695895 -0.000360222301 0.574606597 0.756478846
      -5.61534989e-06 -0.00729280338 -0.0044983509 -0.000296521554
      -0.00408203434 -0.00499321008 1.58267117 -0.0159860067
      -0.000559101114 0.117133543 -0.004724673 -0.00177336659
      -2.40583904e-05 -0.00592157943 1.49178958 -5.2999593e-07
      -6.50558359e-05 -0.000842183654 3.92620707 -5.58120337e-05
      -2.73952974e-05 -0.00023725981 0.82018131 -0.00131922984
      -0.00675855903 -1.25214638e-05 -3.63299732e-05 -0.000251567253
      -5.24597453e-07 -1.63987102e-06 -9.88518223e-05 -3.83590486e-05
      -0.00562553294 -6.10760071e-06 -0.00530844834 -0.000285089598
      -0.0129802367 -0.00777698215 -0.00150592963 -0.0157146044
      -0.0180958323 -0.00131458486 -1.63864335e-08 0.107145682 0.227054
      -7.14439957e-05 -4.81511088e-05 0.0708729774 0.299758494
      0.172576606 -1.02549649e-08 -0.000174628862 0.42489785
      -2.65673498e-06 -2.72618514e-08 0.385220945 1.10083759
      -0.000174801404 0.0580086783 -0.00204976345 -9.13812137e-09
      -0.00027443975 -2.3440587e-05 -0.000108343185 -2.80848622e-06
      -2.97673819e-06 -0.000882163702 -0.000132785994 0.0619881302
      -0.0014579437 -1.28277793e-06 -0.00358329969 -4.52555787e-06
      -0.00277826958 0.459563941 0.213093609 0.185137808 -0.00142102793
      0.145663202 0.398306638 -2.35200532e-05 -0.000369313493
      0.0934886336 0.248613417 0.560200751 -0.000189307408 0.493376195
      -0.000453045795 0.0323486924 -0.00338239269 -7.63982541e-07
      -0.00158441416 0.43842274 -0.00155611627 -1.53072451e-05
      -0.00314202718 0.1723914 -0.00295904628 -0.00277723372
      -9.38041921e-05 -2.98866985e-06 -0.00174449058 -2.06318845e-07
      -4.72178982e-07 0.0317087136 -0.000272199308 -1.44777841e-05
      -1.78304163e-05 -0.000225814496 -0.000419107382 0.133221895
      -4.24749764e-08 -3.08842341e-10 -4.94188823e-09 -2.3263089e-13
      -0.000150558393 -8.26087955e-07 -2.26486357e-10 -9.35850767e-05
      0.0944427848 -1.89450911e-05 -0.000192841588 -0.000143422527
      -3.89826928e-05 -1.55865091e-05 0.269282639 -6.03036312e-07
      -7.68719292e-06 0.228555322 -0.000285262562 0.21390003
      -7.42458506e-05 0.0069334954 -0.00087236031 0.109060168
      -5.54809141e-08 0.109161302 -1.81904898e-06 -0.000120439603
      -3.41026043e-06 -3.52517219e-07 -0.000209440885 -2.21563639e-07
      -3.52118741e-06 0.25899592 -5.2461e-09 -6.83273937e-10
      -1.26519746e-08 -7.82393372e-10 0.0998923555 0.277285665
      -2.37211098e-05 0.213954538 -9.03429973e-05 -1.23921384e-09
      -1.40781879e-07 -4.12333829e-05 -3.44461393e-09 -0.000610684394
      -0.00019872986 -1.17182125e-10 -3.04615764e-06 -0.000266327988
      -0.000292774203 -1.48892042e-07 -0.000203148811 -9.98372762e-09
      -2.90531316e-05 -6.08507762e-05 -6.12029362e-06</_>
    <_>
      -1.8216424 -2.06438971 -0.00462897634 -0.0005322285
      -4.64888927e-08 -8.7496941e-05 -0.00901943259 -0.000370029564
      -0.0011716705 -5.39609232e-07 -1.08024606e-05 -2.72126613e-07
      -4.89033846e-05 -0.000151594635 -0.000124077327 2.40945435
      -0.00138691021 -0.00189021137 2.99194646 -0.000110379828
      -0.000812946528 -0.000486882287 -0.00345195574 -6.88691434e-05
      -6.81799429e-06 -0.00113932241 1.15212595 -1.07910146e-05
      -3.55623924e-05 -9.75057719e-06 1.28649104 -0.000159478092
      -0.00451413309 -0.000610223971 -6.42757368e-05 -0.000665008614
      -0.00024784694 -2.37370696e-05 -0.00386234489 -9.72399066e-05
      -0.000110200606 -0.000498899317 -0.000801502494 -0.000280454231
      -0.000306473929 -0.00134855881 -0.000299486332 3.99449921
      1.35685682 -0.00899795629 -0.00090417132 -0.000932877476
      -1.5508283e-06 -0.0075166598 -0.000280845969 -0.0139240418
      -0.0168656558 -0.0024347112 0.713758528 -0.00356186251
      -0.000444656791 -0.000418197014 -0.000630050374 1.34500957
      -0.0185121763 -3.74681331e-05 -2.38034645e-05 -8.41946621e-06
      -0.0036594274 -0.000935443386 -0.000586229726 3.20573425
      -0.00127780379 -8.20215573e-05 -2.34314621e-06 -0.000944629312
      -1.52223247e-05 -0.00855774526 0.47858116 -0.00128650106
      -6.37912945e-06 -4.62396734e-08 -0.000292257871 0.455723226
      0.24647364 -0.000340968574 0.593025446 0.688894928 -5.23691187e-06
      -0.00710803503 -0.00431086682 -0.000274470105 -0.00384776411
      -0.00492516952 1.64106297 -0.0154761672 -0.000562220055
      0.195302069 -0.00449363422 -0.00169756613 -2.08786769e-05
      -0.00550766895 1.49846482 -5.22009941e-07 -6.26829933e-05
      -0.000826748961 3.84867287 -5.04008349e-05 -2.71580502e-05
      -0.000225988319 0.664452612 -0.00124072493 -0.00661236048
      -1.20388004e-05 -3.33062526e-05 -0.000231182872 -4.60716166e-07
      -1.52786299e-06 -9.34626805e-05 -3.60100203e-05 -0.0054588113
      -5.78394656e-06 -0.00506127067 -0.000259103137 -0.0122138085
      -0.00773935253 -0.00141345337 -0.0159500316 -0.0173755661
      -0.00121169433 -1.64172231e-08 0.115002394 0.238327056
      -7.10762688e-05 -4.65594785e-05 0.0698834434 0.286326468
      0.15800868 -1.03173692e-08 -0.000174673405 0.408852339
      -2.63561515e-06 -2.74630736e-08 0.390908122 1.11798227
      -0.000174747707 0.0445951968 -0.00188955036 -9.01779451e-09
      -0.000229763231 -2.34854469e-05 -0.000107574073 -2.78913558e-06
      -2.9896396e-06 -0.000813960913 -0.000125716586 0.045678556
      -0.00151354971 -1.28563204e-06 -0.00365087856 -4.54429437e-06
      -0.00277138874 0.448339075 0.220900118 0.162245959 -0.00141018035
      0.164069325 0.413262904 -2.31088325e-05 -0.000366229477
      0.0967542976 0.24947539 0.570575655 -0.000189515951 0.506491542
      -0.000550936151 0.0386360586 -0.0033590463 0.00602022186
      -0.00153320993 0.436703444 -0.00157661259 -1.53353503e-05
      -0.00313422666 0.178034484 -0.00304578058 -0.00277108862
      -9.33823903e-05 -2.97905717e-06 -0.00186517916 -2.0489027e-07
      -4.73985892e-07 0.0246516354 -0.000161951 -1.44834212e-05
      -1.78403916e-05 -0.00022567717 -0.000418869284 0.134722918
      -4.25158291e-08 -3.08351927e-10 -4.9456359e-09 -2.3303649e-13
      -0.000150564578 -8.26414009e-07 -2.26512795e-10 -9.36020151e-05
      0.0957451388 -1.89515486e-05 -0.000192386113 -0.000143424957
      -3.89918132e-05 -1.55928901e-05 0.266893744 -6.03299952e-07
      -7.68943937e-06 0.226608604 -0.000284917565 0.211694345
      -7.44885983e-05 0.00739068165 -0.000870126241 0.109017923
      -5.55258239e-08 0.110408224 -1.81568021e-06 -0.000120444231
      -3.41290115e-06 -3.4423195e-07 -0.00020930059 -2.21965891e-07
      -3.52294023e-06 0.256552935 -5.25229726e-09 -6.83257451e-10
      -1.26331763e-08 -7.83053844e-10 0.100853831 0.279022872
      -2.37311961e-05 0.212586313 -9.03618347e-05 -1.24254107e-09
      -1.40882179e-07 -4.12441004e-05 -3.44703821e-09 -0.000609291892
      -0.000198327558 -1.17296145e-10 -3.04750688e-06 -0.000259247725
      -0.000292490906 -1.4902291e-07 -0.000203046031 -9.99106042e-09
      -2.90594016e-05 -6.14519522e-05 -6.12236909e-06</_>
    <_>
      -1.86113024 -2.15477037 -0.00465674372 0.0158470869
      -4.61169023e-08 -8.6112188e-05 -0.00905898958 -0.000367814675
      -0.00118121807 -5.15219767e-07 -1.07356018e-05 -2.6893062e-07
      -4.95013119e-05 -0.000147775747 -0.000125394625 2.42945313
      -0.00045173167 -0.00189853995 2.84476876 -0.000111608446
      -0.000801066461 -0.000493676635 -0.00344916317 0.011730615
      -6.72185524e-06 -0.00044805964 1.24251711 -1.05965682e-05
      -3.54688746e-05 -9.77177933e-06 1.27397704 -0.00016067535
      -0.00432102941 -0.000624855282 -6.32411611e-05 -0.000658582489
      -0.000242755093 -2.36240157e-05 -0.00371832144 -9.78867101e-05
      -0.000109909801 -0.000506176963 -0.000807235425 -0.000281789311
      0.016872149 -0.00133015658 -0.00029429415 3.73651981 1.33504701
      -0.00857874751 -0.000908586197 -0.00100834877 -1.50272092e-06
      -0.0075098807 0.00914362818 -0.0139304968 -0.0163954198
      -0.0024607724 0.756676376 -0.00359753473 -0.00044337174
      -0.000406451407 -0.000627925387 1.45181108 -0.018017007
      -3.74031697e-05 -2.39778437e-05 -8.3146324e-06 -0.00365815777
      -0.000952608127 -0.000593078788 3.28587985 -0.00127012061
      -8.29509154e-05 -2.43475233e-06 -0.000952787523 -1.54781937e-05
      -0.00761200767 0.42873916 -0.00128118822 -6.30918339e-06
      -4.85076548e-08 -0.000293808233 0.454326391 0.243506581
      -0.000340265891 0.603807569 0.666434824 -5.30901889e-06
      -0.00709741469 -0.00423047971 -0.000277499057 -0.00383657636
      -0.0048953346 1.79452097 -0.0156336688 -0.000549110759 0.161116078
      -0.00448878622 -0.00171330711 -2.09077607e-05 -0.00548291299
      1.62808347 -5.03378089e-07 -6.20031133e-05 -0.00082403142
      3.76955605 -5.06489814e-05 -2.69608099e-05 -0.000225327516
      0.799738586 -0.00123041985 -0.00685879588 -1.1994458e-05
      -3.35529548e-05 -0.000223701398 -4.55452522e-07 -1.52140035e-06
      -9.41030448e-05 -3.60984777e-05 -0.00547665963 -5.81459108e-06
      -0.00505651115 -0.000265163137 -0.0116740819 -0.00761359604
      -0.00143846788 -0.0157708377 -0.0169186704 -0.00134517753
      -1.62035327e-08 0.104538307 0.222971022 -7.15891583e-05
      -4.74985573e-05 0.0677927881 0.289891899 0.173791826
      -1.0146632e-08 -0.000173953653 0.441192657 -2.68041208e-06
      -2.69142344e-08 0.383972526 1.09677029 -0.000175493871
      0.0596067458 -0.0022368338 -8.94750674e-09 -0.000156034381
      -2.33153933e-05 -0.000109308618 -2.81228904e-06 -2.95797713e-06
      -0.000957700191 -0.000135599039 0.0384085551 -0.00152192789
      -1.27317207e-06 -0.0036267133 -4.49276968e-06 -0.00277085393
      0.470929503 0.203131199 0.184624329 -0.00142372714 0.135058895
      0.388586134 -2.34971649e-05 -0.000370644848 0.0866821483
      0.244884253 0.550021052 -0.000191534025 0.485841453
      -0.000353590993 0.0551431179 -0.003427858 0.00572695956
      -0.0014682149 0.432670355 -0.00155037374 -1.52094544e-05
      -0.00318543846 0.175857902 -0.0031051822 -0.00281277765
      -9.40146056e-05 -2.9721491e-06 -0.00169480767 -2.03876951e-07
      -4.67796127e-07 0.0399505496 -0.000234276537 -1.44739142e-05
      -1.78250157e-05 -0.000225857235 -0.000419368967 0.132751703
      -4.24509281e-08 -3.08709613e-10 -4.93949281e-09 -2.32432644e-13
      -0.000150548702 -8.258761e-07 -2.2642431e-10 -9.35740536e-05
      0.0941146314 -1.89410621e-05 -0.000191423998 -0.000143416313
      -3.89766137e-05 -1.55828202e-05 0.270134956 -6.02864532e-07
      -7.68581231e-06 0.229192942 -0.000285397808 0.214937449
      -7.41958211e-05 0.00692627206 -0.000873546291 0.108675562
      -5.54539881e-08 0.108802855 -1.82128622e-06 -0.000120431316
      -3.40848919e-06 -3.62688439e-07 -0.000209493373 -2.21364999e-07
      -3.52019379e-06 0.259969711 -5.24234967e-09 -6.83225143e-10
      -1.26598518e-08 -7.81980813e-10 0.100170046 0.277209908
      -2.37149907e-05 0.213965863 -9.03288892e-05 -1.23728228e-09
      -1.40716139e-07 -4.12268055e-05 -3.44322015e-09 -0.000611379277
      -0.000197722606 -1.17106172e-10 -3.0453416e-06 -0.000268291071
      -0.000292923884 -1.48812831e-07 -0.000203178293 -9.97920768e-09
      -2.90490443e-05 -6.1314815e-05 -6.11895121e-06</_>
    <_>
      -1.73198569 -2.47313643 -0.00474673416 -0.00165287312
      -4.88890208e-08 -9.35987991e-05 -0.00926663354 -0.000390997069
      -0.00118229631 -7.68912116e-07 -1.15297771e-05 -2.77549759e-07
      -5.27185766e-05 -0.000157283095 -0.000123042308 2.51913691
      -0.00280834665 -0.00198675413 3.15620685 -0.000112223905
      -0.000826990348 -0.0004967844 -0.00358551485 0.0142283365
      -7.55140718e-06 -0.00233280892 1.06378889 -1.08624445e-05
      -3.78556069e-05 -1.06965281e-05 1.39955938 -0.00016485597
      -0.00475304807 -0.000624588807 -6.52736999e-05 -0.000681440986
      -0.000249702542 -2.62953599e-05 -0.00371163804 -0.000106002757
      -0.000115487739 -0.000515553285 -0.00084668881 -0.000280813023
      -0.000541428453 -0.00145257555 -0.000311702228 4.17708254
      1.26729155 -0.00947028119 -0.000960958598 -0.000813302526
      -1.73758212e-06 -0.00776338484 0.110982858 -0.0140871126
      -0.0174084846 -0.00248612091 0.752351582 -0.00366971339
      -0.000492116553 -0.000437982031 -0.00066898705 1.29451799
      -0.0197048783 -3.82213111e-05 -2.5164507e-05 -9.51092716e-06
      -0.00377823692 -0.000949572539 -0.000607153925 3.38485575
      -0.00133704289 -8.58875937e-05 -2.26282077e-06 -0.000976705109
      -1.59268038e-05 -0.00971905421 0.493947864 -0.00135602348
      -6.75562933e-06 -7.24671594e-08 -0.000306775299 0.554614484
      0.108441003 -0.000353541749 0.595146418 0.740938723
      -5.43712758e-06 -0.00729847932 -0.00455955742 -0.000285901624
      -0.00403930712 -0.00503429864 1.47220492 -0.0157403257
      -0.00057399075 0.104768544 -0.00469287485 -0.00174500374
      -2.41294692e-05 -0.00595205603 1.39943492 -5.57475516e-07
      -6.40357539e-05 -0.000840904482 4.08171892 -5.46477677e-05
      -2.78344432e-05 -0.000230256963 0.799631774 -0.00129469601
      -0.00671847025 -1.23658392e-05 -3.50428636e-05 -0.000232845472
      -4.97621841e-07 -1.56238639e-06 -9.7065531e-05 -3.74976335e-05
      -0.00551737007 -6.02126011e-06 -0.00536935683 -0.000273597281
      -0.0131869977 -0.00803114101 -0.00143352675 -0.0160778593
      -0.0187954474 -0.00117776031 -1.65492953e-08 0.109379709
      0.240802318 -7.11601242e-05 -4.79606206e-05 0.0636554062
      0.319428325 0.176664799 -1.03941762e-08 -0.000176502464
      0.412835807 -2.59563672e-06 -2.77746359e-08 0.385041296 1.09984601
      -0.000174920497 0.0516072437 -0.00172393641 -9.22462373e-09
      -0.000454614899 -2.36133674e-05 -0.000106808213 -2.79266214e-06
      -3.00454735e-06 -0.000645895372 -8.64481553e-05 0.0774695948
      -0.0013587178 -1.29277623e-06 -0.00359094096 -4.56634052e-06
      -0.00271774177 0.431627035 0.219219267 0.186510712 -0.0013877193
      0.159957141 0.413918167 -2.34475337e-05 -0.000367812492
      0.100284755 0.242588103 0.587057352 -0.000186232661 0.50778532
      -0.000530063058 0.0119941235 -0.0032627834 -1.84275959e-05
      -0.00161262031 0.441758752 -0.00157536683 -1.54759637e-05
      -0.0031038397 0.170583606 -0.002874105 -0.00275390013
      -9.40318932e-05 -3.00052739e-06 -0.00173432613 -2.06382808e-07
      -4.77509673e-07 0.0168423057 -0.000285128306 -1.44778132e-05
      -1.7829283e-05 -0.000225856071 -0.000419026299 0.132774532
      -4.24718998e-08 -3.09224951e-10 -4.94176389e-09 -2.32566977e-13
      -0.000150562904 -8.26079884e-07 -2.26522259e-10 -9.3584662e-05
      0.0939867496 -1.89447946e-05 -0.000194290915 -0.000143426281
      -3.89825909e-05 -1.55859761e-05 0.269912124 -6.03030173e-07
      -7.68707105e-06 0.229115993 -0.000285344286 0.214269251
      -7.41508557e-05 0.00668132678 -0.00087263278 0.109409273
      -5.54779476e-08 0.108763054 -1.8190982e-06 -0.000120443845
      -3.41023838e-06 -3.48885067e-07 -0.0002094761 -2.21502333e-07
      -3.52102415e-06 0.259552896 -5.24572208e-09 -6.83321622e-10
      -1.26559421e-08 -7.82363285e-10 0.0991177782 0.276375234
      -2.37205059e-05 0.214717403 -9.03440887e-05 -1.23894195e-09
      -1.40779832e-07 -4.12328081e-05 -3.4444041e-09 -0.000610890274
      -0.000199803588 -1.17180821e-10 -3.04607374e-06 -0.000268669712
      -0.000292809535 -1.48883984e-07 -0.000203181989 -9.98334482e-09
      -2.90529842e-05 -6.01242718e-05 -6.12023723e-06</_>
    <_>
      -1.68243504 -2.0919292 -0.00472393073 0.162055463 -4.71144439e-08
      -8.97366845e-05 -0.00917335972 -0.00038097112 -0.00115105102
      -5.80888923e-07 -1.09573466e-05 -2.68012741e-07 -5.12467632e-05
      -0.000150784588 -0.000129134991 2.26148605 -0.000521706766
      -0.00195084047 2.88097405 -0.000113835988 -0.000811035337
      -0.000496776251 -0.00351594505 0.00924703851 -7.00619103e-06
      -0.000302993722 1.24985421 -1.13229262e-05 -3.60105914e-05
      -9.99230087e-06 1.2857399 -0.000163368226 -0.00396232726
      -0.000636265264 -6.43636522e-05 -0.000658629811 -0.000246749667
      -2.48841588e-05 -0.00336915208 -0.000103978346 -0.000111797046
      -0.000517194159 -0.000835804502 -0.000280515524 -0.000171928812
      -0.00138174044 -0.000298600848 3.7126348 1.41880774 -0.00848730747
      -0.000950748974 -0.00101471774 -1.67382007e-06 -0.00762177445
      -0.00160730747 -0.0139741283 -0.0157637298 -0.00248504337
      0.784697115 -0.0036359264 -0.000453355577 -0.000438098825
      -0.000645623135 1.43829799 -0.0176856071 -3.77620709e-05
      -2.49876593e-05 -8.65519542e-06 -0.00370576396 -0.000954893185
      -0.000585941889 3.22528481 -0.00128465914 -8.41046785e-05
      -2.4923479e-06 -0.000962995517 -1.56984479e-05 -0.00779970642
      0.339956254 -0.00130654091 -6.47530715e-06 -4.67215209e-08
      -0.000301037828 0.359411061 0.406592846 -0.000345739332
      0.657357931 0.767264068 -5.42316639e-06 -0.00726038218
      -0.0042926278 -0.000284507609 -0.00392963691 -0.00492980657
      1.79910123 -0.0158953909 -0.000547926815 0.256588459
      -0.00460718246 -0.00173317106 -2.22005292e-05 -0.00585208414
      1.60755908 -5.18033062e-07 -6.37709818e-05 -0.000836057356
      3.69326305 -5.24988063e-05 -2.70370347e-05 -0.000230520309
      0.77460295 -0.00127407932 -0.00708671426 -1.22937245e-05
      -3.51370363e-05 -0.000239159475 -5.02630485e-07 -1.5627902e-06
      -9.69330649e-05 -3.70435191e-05 -0.00562557764 -5.93956565e-06
      -0.00509434473 -0.000281047047 -0.0117199086 -0.00768403057
      -0.00146728172 -0.0157983471 -0.0165852439 -0.00142187311
      -1.65907288e-08 0.128380418 0.249858648 -7.09073356e-05
      -4.70328523e-05 0.0737215802 0.289223939 0.169105649
      -1.04535065e-08 -0.00017626278 0.384999484 -2.58093814e-06
      -2.79298629e-08 0.384573996 1.12316418 -0.000175856199
      0.0350594968 -0.00147845806 -9.2419814e-09 -0.000418643205
      -2.36452925e-05 -0.000107218286 -2.80109839e-06 -3.0133192e-06
      -0.000478749484 -0.000120700708 0.0591945499 -0.00146549416
      -1.29505918e-06 -0.00368373631 -4.58808654e-06 -0.00271629659
      0.417787194 0.224170029 0.160161853 -0.00139107788 0.180291057
      0.427563161 -2.29899051e-05 -0.000364697713 0.0979796052
      0.242422342 0.60418874 -0.000189108323 0.521479845 -0.000651370268
      0.021866098 -0.00321052806 0.00297402963 -0.00160049554
      0.432195008 -0.00161238923 -1.55053549e-05 -0.00309270131
