<?xml version="1.0"?>
<opencv_storage>
<opencv_ml_svm>
  <format>3</format>
  <svmType>EPS_SVR</svmType>
  <kernel>
    <type>RBF</type>
    <gamma>0.0050000000000000001</gamma></kernel>
  <C>1.</C>
  <p>0.001</p>
  <term_criteria><iterations>10000</iterations></term_criteria>
  <var_count>258</var_count>
  <sv_total>447</sv_total>
  <support_vectors>
    <_>
      -2.18310142 -2.29647088 -0.00614069076 -0.0172355641
      -6.1062984e-08 -0.000168717495 -0.0111294882 -0.000551825389
      -0.00166280649 -3.02735975e-06 -1.43486131e-05 -2.48538782e-07
      -9.1610942e-05 -0.000239978166 -0.000185442303 5.10863066
      0.460095465 -0.0028085222 1.27682161 -0.000144019185
      -0.000896274869 -0.000692593225 -0.00462416746 -0.00174846407
      -1.19437709e-05 -0.00167542184 1.82144034 -8.24537892e-06
      -4.61087257e-05 -1.58971397e-05 -0.00538228778 -0.000192796404
      -0.0128224669 -0.00107880507 -8.5581014e-05 -0.000755561341
      -0.000175939902 -5.71709497e-05 -0.00655803643 -0.00022920531
      -0.000138199845 -0.000576804334 -0.00148179301 -0.000203587217
      -0.000194328604 -0.00181170262 -0.000411046291 2.11667371
      0.994352579 -0.0174121205 -0.00180245796 -0.000935616496
      -4.07203788e-06 -0.00915650278 0.968134701 -0.0168007147
      -0.0498086251 -0.00323894736 -0.0050286022 -0.00463272212
      -0.000704367936 -0.000642194587 -0.000941143837 2.05354023
      -0.0219757352 -2.23656371e-05 -3.80503152e-05 -2.00823324e-05
      -0.00439573498 -0.00137263699 -0.000472465297 4.31163025
      -0.00160131557 -0.000110213441 -4.45723617e-06 -0.0008423978
      -1.59565625e-05 -0.00310596079 3.25894928 -0.00167676271
      -8.78119681e-06 -3.22840521e-07 -0.000387572334 0.67478919
      -0.0113470228 -0.00059815729 -0.00441701058 -0.00787522458
      -7.96306995e-06 -0.00789992325 -0.00518520689 -0.000453712622
      -0.00495455973 -0.0051581664 2.43777943 -0.0191153381
      -0.000590264739 -0.00499141682 -0.00593384681 -0.00211391225
      -5.63607246e-05 -0.00721855043 2.3797729 -1.0018631e-06
      -9.63153652e-05 -0.000757400703 3.27609873 -0.000118235039
      -2.66662373e-05 -0.000405769533 -0.00414337171 -0.00183117972
      -0.00243004248 -1.66733553e-05 -5.38349377e-05 -0.000672445865
      -6.20863204e-07 -2.42115311e-06 -0.000142004079 -4.71129242e-05
      -0.00707543734 -7.87231238e-06 -0.00599194737 -0.00062831759
      -0.010438852 -0.00789606106 -0.0026846868 -0.0139218383
      -0.0178116392 -0.00222770544 -1.66206284e-08 0.750388503
      0.658162057 -7.84605436e-05 -5.6505909e-05 0.110959724
      -0.0037667912 0.302099019 -9.38725986e-09 -0.000141675308
      0.172691226 -2.96064741e-06 -2.39079316e-08 0.302005768
      0.452712744 -0.000195897213 -0.00147540658 0.0210378543
      -1.89803906e-08 0.105248243 -2.64859191e-05 -0.000205876568
      -2.51434062e-06 -2.98894361e-06 0.453725487 -0.00189569185
      -0.00332475733 0.414025843 -1.21220296e-06 -0.000230150894
      -4.57413216e-06 0.0663798079 0.500001907 0.267277002 0.319830388
      -0.000389978202 0.45258069 0.277277857 -2.78678672e-05
      -0.000346834946 0.213355869 0.32026428 0.571490824 -0.000299874431
      0.673671126 0.434842557 0.174361378 -0.00168578723 0.042289231
      0.488333285 0.16468969 -0.00207071425 -1.54393765e-05
      -0.00325347949 0.145400077 -0.00387889799 -0.00195543282
      -0.000122543337 -3.06031257e-06 0.324899971 -1.92912438e-07
      -4.36510163e-07 -0.000240146954 0.987580299 -1.38968817e-05
      -1.70578423e-05 -0.00023085167 -0.000460940442 0.0771404356
      -3.89712547e-08 -2.76372342e-10 -4.58676519e-09 -2.05031738e-13
      -0.000148956125 -7.94594655e-07 -2.16022145e-10 -9.19472877e-05
      0.0601554587 -1.83508382e-05 0.0069719702 -0.000142367484
      -3.80747588e-05 -1.50509986e-05 0.376638174 -5.77484002e-07
      -7.48430966e-06 0.305863291 -0.000302839268 0.358014405
      -6.99099546e-05 0.0143636372 -0.00104125869 0.0391912907
      -5.15423082e-08 0.0682850406 -2.15241721e-06 -0.000119055177
      -3.14560839e-06 -1.99019428e-06 -0.000216151806 -1.93791095e-07
      -3.37764936e-06 0.387167305 -4.69613104e-09 -6.74516498e-10
      -1.37063338e-08 -7.21539439e-10 0.167756021 0.296128839
      -2.28234367e-05 0.189915448 -8.81906017e-05 -9.58613522e-10
      -1.30995105e-07 -4.02655642e-05 -3.24260641e-09 -0.000708149979
      -1.06957741e-05 -1.05838394e-10 -2.92658774e-06 -0.000483439566
      -0.000314045697 -1.3728453e-07 -0.000206476499 -9.3186765e-09
      -2.84453072e-05 -0.000155051515 -5.92088645e-06</_>
    <_>
      -2.21263981 -2.26176572 -0.00594093837 -0.0163292214
      -6.0154143e-08 -0.000168685612 -0.0109348418 -0.000520737842
      -0.00162049348 -2.60255297e-06 -1.37081988e-05 -2.41640635e-07
      -8.68385832e-05 -0.000235808184 -0.000177967726 5.02210522
      0.457850099 -0.00273666414 1.38163447 -0.000134776448
      -0.000887578935 -0.000647482055 -0.00446593948 -0.0015033331
      -1.08693512e-05 -0.00159067602 1.8150239 -8.08544883e-06
      -4.49325053e-05 -1.5599011e-05 -0.00390985701 -0.00019248882
      -0.0115947807 -0.0010477067 -8.17767141e-05 -0.000726215367
      -0.000179054245 -5.27010016e-05 -0.00562478416 -0.000214648768
      -0.000135278999 -0.000572169956 -0.00140277261 -0.000220781658
      -0.000691241177 -0.00184841105 -0.000409968256 2.18194294
      1.03974247 -0.0165291596 -0.00170177489 -0.000925910601
      -4.00728186e-06 -0.00906441174 0.967711031 -0.016811464
      -0.0469874293 -0.00311116804 -0.00462648179 -0.0043939203
      -0.000664607796 -0.000693463197 -0.000895808451 2.04091716
      -0.0210470576 -2.28164827e-05 -3.73318508e-05 -1.83339598e-05
      -0.00422469294 -0.00129751547 -0.000475798006 4.37096119
      -0.00152935809 -0.000104748586 -4.32078241e-06 -0.00081167114
      -1.61281569e-05 -0.00328467297 3.17376733 -0.00163295388
      -8.55331655e-06 -2.63700684e-07 -0.000372993527 0.63523972
      -0.010139429 -0.000558863743 -0.00382921379 -0.006337089
      -7.5364419e-06 -0.00790066551 -0.00520696864 -0.000432014349
      -0.00487927999 -0.00518980017 2.4477818 -0.0189768057
      -0.000582094537 -0.00443325285 -0.00580513058 -0.00202017953
      -5.00587121e-05 -0.00736526819 2.39532399 -9.21182561e-07
      -9.0222682e-05 -0.000764587428 3.3610487 -0.000110477908
      -2.64682203e-05 -0.000386091648 -0.00368359149 -0.00177839689
      -0.00248062657 -1.5716425e-05 -5.19500718e-05 -0.000622881053
      -6.53725806e-07 -2.25253052e-06 -0.000136240982 -4.6266945e-05
      -0.00689804321 -7.5351586e-06 -0.00591509091 -0.000579388114
      -0.0105904313 -0.00800013915 -0.0024971636 -0.0143639753
      -0.0174541287 -0.00224482687 -1.67516276e-08 0.750328422
      0.660997808 -7.79599504e-05 -5.69659933e-05 0.119457476
      -0.00370515045 0.293182939 -9.49805834e-09 -0.000141564655
      0.157789379 -2.90254616e-06 -2.4321988e-08 0.293548852 0.451678514
      -0.000195872184 -0.00149241509 0.0313539729 -1.89694056e-08
      0.0979147404 -2.6638083e-05 -0.000203777963 -2.48160677e-06
      -3.00583565e-06 0.465799719 -0.00197583041 -0.00323574082
      0.410265982 -1.22071037e-06 -0.000270655233 -4.60523324e-06
      0.0623890385 0.485443801 0.270178109 0.314633667 -0.000368921814
      0.467128873 0.290548414 -2.76794926e-05 -0.00034382852 0.221179247
      0.316614479 0.562725961 -0.000300320389 0.683648169 0.439247996
      0.167784438 -0.00163452921 0.049755495 0.48159948 0.158315688
      -0.00207581744 -1.55072685e-05 -0.00322724483 0.147070229
      -0.00383398193 -0.00193948031 -0.000122166166 -3.07187656e-06
      0.316592157 -1.94556577e-07 -4.40374123e-07 -0.000277502666
      0.984475434 -1.39072181e-05 -1.70741187e-05 -0.000230671649
      -0.00046036698 0.0791120231 -3.90406107e-08 -2.76126816e-10
      -4.59339056e-09 -2.05663814e-13 -0.000148975028 -7.95175879e-07
      -2.16131807e-10 -9.19774902e-05 0.0617552027 -1.83621178e-05
      0.00681484118 -0.000142378252 -3.80912243e-05 -1.5061737e-05
      0.37335521 -5.77954665e-07 -7.48820366e-06 0.303267151
      -0.000302348082 0.354635 -7.01927784e-05 0.0147752203
      -0.00103764632 0.0396888405 -5.16192209e-08 0.0698781163
      -2.14634451e-06 -0.000119070792 -3.15039301e-06 -1.96874612e-06
      -0.000215955559 -1.9442075e-07 -3.38057157e-06 0.383667976
      -4.70679318e-09 -6.74570289e-10 -1.36788714e-08 -7.22693572e-10
      0.168214023 0.297759086 -2.28408135e-05 0.188698083
      -8.82267777e-05 -9.64223812e-10 -1.31174701e-07 -4.02841324e-05
      -3.24667515e-09 -0.000705960207 -1.17433256e-05 -1.06044264e-10
      -2.92890854e-06 -0.000474491942 -0.000313588593 -1.37509716e-07
      -0.000206345241 -9.33140765e-09 -2.84565049e-05 -0.000154933994
      -5.92457764e-06</_>
    <_>
      -2.15327382 -2.37555075 -0.00613012537 -0.0175119638
      -5.99615646e-08 -0.000159406394 -0.0111700976 -0.000519358146
      -0.00167087279 -2.88024171e-06 -1.39388158e-05 -2.55342968e-07
      -8.93810429e-05 -0.000229453362 -0.000187346261 5.14932156
      0.524821758 -0.00275417767 1.18798375 -0.000139472628
      -0.000884837587 -0.00066404161 -0.00453772862 -0.00132923899
      -1.15184184e-05 -0.00105530012 1.89706445 -7.68057544e-06
      -4.61303898e-05 -1.51341474e-05 -0.00665900111 -0.000189585553
      -0.0115280701 -0.00110164366 -8.19884663e-05 -0.000744352117
      -0.000179690047 -5.53747668e-05 -0.00658156397 -0.000219948022
      -0.000131330846 -0.000535166415 -0.00145586603 -0.000210775703
      -0.000238864377 -0.00172991923 -0.000425487116 2.12284994
      0.987331867 -0.0169589501 -0.00174326694 -0.000840688765
      -3.69736404e-06 -0.00911436696 0.991875708 -0.0164399259
      -0.0499415062 -0.00323610916 -0.00585890096 -0.00459514558
      -0.000673539413 -0.000627815956 -0.000896778831 2.11711597
      -0.0214092545 -2.30334881e-05 -3.58968791e-05 -1.98073922e-05
      -0.00435866788 -0.00137303944 -0.000467557926 4.37794304
      -0.00160887104 -0.00010578752 -3.93491882e-06 -0.00081572606
      -1.55047674e-05 -0.00249130046 3.25563788 -0.00163927174
      -8.57591567e-06 -3.08146554e-07 -0.000367557426 0.726011157
      -0.0111940047 -0.000559869979 -0.00439795945 -0.00845858362
      -7.86262171e-06 -0.0078843357 -0.00512882927 -0.000436540839
      -0.00473379204 -0.00504669594 2.55644202 -0.019009782
      -0.00060557347 -0.00488592917 -0.00585993472 -0.00207457948
      -5.42602356e-05 -0.00700664753 2.47470427 -9.51178492e-07
      -9.27593283e-05 -0.000744035526 3.28850746 -0.00011538784
      -2.65848121e-05 -0.000410037144 -0.00492298137 -0.00174157869
      -0.00337566808 -1.60079744e-05 -5.0311628e-05 -0.000675482384
      -5.81465258e-07 -2.35812445e-06 -0.00013770262 -4.5771154e-05
      -0.00706719048 -7.95666074e-06 -0.00589227164 -0.000624803826
      -0.00954570808 -0.00793376006 -0.00251883408 -0.014256347
      -0.0172632337 -0.00190228329 -1.66495475e-08 0.738226175
      0.630681813 -7.91898201e-05 -5.62225214e-05 0.0851823613
      -0.00388929178 0.314838171 -9.44923162e-09 -0.000142428078
      0.198454052 -3.0736835e-06 -2.38082638e-08 0.295941174 0.455446631
      -0.000194169086 -0.00150861288 0.016894035 -1.91298817e-08
      0.105468988 -2.64063656e-05 -0.000206987665 -2.61045057e-06
      -3.00425904e-06 0.400912344 -0.0017731596 -0.00323824934
      0.394845843 -1.21967298e-06 -0.000257286942 -4.58435534e-06
      0.0577676073 0.512279391 0.239636391 0.315213054 -0.00047328751
      0.420697212 0.229534388 -2.83787631e-05 -0.000347260677
      0.183442861 0.303185761 0.572658956 -0.000297219958 0.639423847
      0.411810786 0.193689406 -0.00174941227 0.0445369445 0.473604888
      0.167368889 -0.00201083068 -1.54296722e-05 -0.00321576418
      0.127315789 -0.00388460676 -0.00193598389 -0.000122288868
      -3.09944789e-06 0.320616066 -1.93995191e-07 -4.39050552e-07
      -0.000226808785 0.938651621 -1.38985151e-05 -1.70642907e-05
      -0.00023068476 -0.000461111806 0.0789445341 -3.89929511e-08
      -2.75072548e-10 -4.58828175e-09 -2.05347553e-13 -0.000148944411
      -7.94718403e-07 -2.15922169e-10 -9.19536833e-05 0.061924547
      -1.83537013e-05 0.0074214004 -0.000142356948 -3.80778401e-05
      -1.50545484e-05 0.374015629 -5.77582853e-07 -7.48535967e-06
      0.303582817 -0.000302488363 0.356229514 -7.02695179e-05
      0.0152610075 -0.00103975774 0.0381298661 -5.15649248e-08
      0.0698637068 -2.1512426e-06 -0.000119043827 -3.14647946e-06
      -1.99860665e-06 -0.000216003114 -1.94098163e-07 -3.37867505e-06
      0.384745896 -4.6991584e-09 -6.74368283e-10 -1.36886529e-08
      -7.21831095e-10 0.170377493 0.299396634 -2.28283316e-05
      0.187204957 -8.81930682e-05 -9.60445834e-10 -1.3103184e-07
      -4.02705591e-05 -3.24397598e-09 -0.000707105966 -7.34563901e-06
      -1.05877085e-10 -2.92725031e-06 -0.000474237575 -0.000313853088
      -1.37348664e-07 -0.000206345401 -9.32206223e-09 -2.84476591e-05
      -0.000157418137 -5.92168863e-06</_>
    <_>
      -2.04937363 -2.31335449 -0.00587700401 -0.0178245977
      -5.83683502e-08 -0.000174554167 -0.0107762283 -0.000523741008
      -0.00163825124 -2.80338941e-06 -1.37765437e-05 -2.35399867e-07
      -8.85755799e-05 -0.00024090262 -0.000177644994 5.14810705
      0.509417176 -0.00267197751 1.29786658 -0.000139393422
      -0.00087321538 -0.000664782652 -0.00440080324 -0.00160695403
      -1.12666376e-05 -0.00121212506 1.84435332 -8.52296671e-06
      -4.43384633e-05 -1.54233549e-05 -0.00439397385 -0.000190341147
      -0.0126394602 -0.00104003772 -8.29802593e-05 -0.000733065361
      -0.00018092613 -5.45340299e-05 -0.00675108004 -0.00021467451
      -0.000134956339 -0.000597831386 -0.00138895551 -0.000218274377
      -0.000150142092 -0.00174946093 -0.000385010877 2.07985449
      0.986342072 -0.0175703056 -0.00170259189 -0.000798242807
      -3.91976619e-06 -0.00897309743 1.09700263 -0.0172813013
      -0.0485228114 -0.0031011661 -0.00401361007 -0.0044145612
      -0.000690239714 -0.00061591604 -0.000895630277 2.08061981
      -0.021240456 -2.31280592e-05 -3.69952359e-05 -1.94637105e-05
      -0.0041477331 -0.00132219004 -0.000477847381 4.30739117
      -0.00150310853 -0.000106594256 -4.48666606e-06 -0.000827456301
      -1.60211621e-05 -0.00280286279 3.28861475 -0.00160845637
      -8.61438821e-06 -2.95914788e-07 -0.000366523862 0.683860779
      -0.0122930855 -0.000566779694 -0.00417230977 -0.005384563
      -7.48397952e-06 -0.00778006529 -0.00521446532 -0.000433851324
      -0.00479134591 -0.00516863493 2.49496937 -0.0188520513
      -0.000556127576 -0.00544749713 -0.00567750866 -0.00203925674
      -5.2531901e-05 -0.00706668384 2.39990497 -9.71438226e-07
      -9.12077739e-05 -0.000768410042 3.32247686 -0.000109842447
      -2.63931961e-05 -0.000384831015 -0.00364027591 -0.00176835665
      -0.00171526161 -1.56990591e-05 -5.18324341e-05 -0.000616433623
      -6.37013727e-07 -2.20071956e-06 -0.000140614968 -4.53212851e-05
      -0.00692750188 -7.40905762e-06 -0.0058570765 -0.000585415808
      -0.0103734815 -0.00793061778 -0.00256609684 -0.0139834723
      -0.0177371837 -0.00237673055 -1.67739511e-08 0.741698682
      0.626252353 -7.83784271e-05 -5.64197981e-05 0.0969575271
      -0.0040339455 0.290313721 -9.58976631e-09 -0.000142086326
      0.172474444 -2.99007297e-06 -2.43138487e-08 0.288654894 0.47584188
      -0.000193563697 -0.00174088206 0.0425273702 -1.9117012e-08
      0.100289702 -2.66751667e-05 -0.000204037075 -2.56951284e-06
      -3.03079082e-06 0.416550815 -0.00209127832 -0.00325607741
      0.379637092 -1.22924757e-06 -0.00041241353 -4.62561775e-06
      0.0475888401 0.482942224 0.233636111 0.296988308 -0.000426072365
      0.43924886 0.235179305 -2.80715558e-05 -0.000342371 0.181193426
      0.272193968 0.559104323 -0.000299176376 0.636255622 0.430276304
      0.199304909 -0.00175784773 0.0602047406 0.470675796 0.132155836
      -0.00203069509 -1.54849167e-05 -0.00319347414 0.136634082
      -0.00389363756 -0.00191972847 -0.000121664663 -3.11873282e-06
      0.294525206 -1.96410198e-07 -4.43629688e-07 -0.000302107248
      0.935565174 -1.39192643e-05 -1.70966068e-05 -0.000230336256
      -0.000459936884 0.0827668384 -3.91311694e-08 -2.74696738e-10
      -4.60153959e-09 -2.06596147e-13 -0.000148983774 -7.95882215e-07
      -2.1615304e-10 -9.20141756e-05 0.0649956688 -1.83762404e-05
      0.0070589371 -0.000142379737 -3.81108584e-05 -1.50759324e-05
      0.367617965 -5.78525373e-07 -7.4931354e-06 0.298543692
      -0.000301527965 0.349553704 -7.08074585e-05 0.0160071179
      -0.00103259238 0.0392434075 -5.17183452e-08 0.0729408115
      -2.13907629e-06 -0.00011907646 -3.15607167e-06 -1.95452708e-06
      -0.000215620137 -1.95342977e-07 -3.38448808e-06 0.377889514
      -4.72043782e-09 -6.74489131e-10 -1.36347245e-08 -7.24137916e-10
      0.171050534 0.302385688 -2.28630142e-05 0.1850034 -8.82660024e-05
      -9.71619896e-10 -1.31391573e-07 -4.03076447e-05 -3.25207616e-09
      -0.000702774443 -9.79687957e-06 -1.06289776e-10 -2.93188168e-06
      -0.000457003334 -0.000312946737 -1.37798011e-07 -0.000206092183
      -9.34749078e-09 -2.84700782e-05 -0.000156951326 -5.92907782e-06</_>
    <_>
      -2.03769708 -2.27609086 -0.00597405201 -0.0182026811
      -5.96055969e-08 -0.000169331426 -0.0109285498 -0.000542639638
      -0.00167483569 -3.00400507e-06 -1.41012961e-05 -2.44154819e-07
      -9.0672067e-05 -0.000241012909 -0.000179995332 5.17554712
      0.474515319 -0.00273134722 1.33367801 -0.000143401921
      -0.000889933959 -0.000683365623 -0.00450302102 -0.00170746527
      -1.18817161e-05 -0.0016641703 1.82313454 -8.24912786e-06
      -4.5403478e-05 -1.57044215e-05 -0.00509447558 -0.000189600411
      -0.0123612424 -0.00105319032 -8.4528976e-05 -0.000747389975
      -0.00017831866 -5.66927047e-05 -0.00691878656 -0.000223650073
      -0.00013700749 -0.000583903689 -0.00144018792 -0.000208121099
      0.00966087542 -0.00178099656 -0.000395759474 2.13065577
      0.933454394 -0.0173631813 -0.00175966928 -0.000876691018
      -4.00932049e-06 -0.00896916818 1.07593226 -0.0170711856
      -0.0492976494 -0.00317606237 -0.00474539539 -0.00452450849
      -0.000705318351 -0.000602865184 -0.000925422646 2.07068992
      -0.0220139585 -2.27702567e-05 -3.7562706e-05 -2.00440609e-05
      -0.00432012323 -0.0013600589 -0.000477129215 4.31577969
      -0.00156711228 -0.000108391563 -4.5117381e-06 -0.000845366099
      -1.61289263e-05 -0.00280613778 3.26396322 -0.00164069317
      -8.72870351e-06 -3.26052032e-07 -0.000375119445 0.755407214
      -0.0125322398 -0.000595265883 -0.00463356962 -0.00705856085
      -7.75790886e-06 -0.00780722499 -0.00514566526 -0.000445610262
      -0.00488905935 -0.00518499734 2.4590168 -0.0190272965
      -0.000576068182 -0.00584039139 -0.0057884627 -0.0020919384
      -5.56526429e-05 -0.00709031755 2.38403296 -1.01763897e-06
      -9.56540462e-05 -0.000760691124 3.31767321 -0.000115183364
      -2.6922733e-05 -0.000393859111 -0.00346615072 -0.00180757267
      -0.00244008028 -1.65014753e-05 -5.25243886e-05 -0.000644865446
      -6.24108509e-07 -2.34575009e-06 -0.000140292846 -4.58855575e-05
      -0.00696433894 -7.62131913e-06 -0.00590893114 -0.000610937423
      -0.0104006892 -0.00795877818 -0.00266381307 -0.0140645299
      -0.0180886574 -0.00235224306 -1.66714109e-08 0.74195689
      0.632508516 -7.88290126e-05 -5.61391098e-05 0.0879985392
      -0.00395247526 0.304133564 -9.48590451e-09 -0.000142193472
      0.189661592 -3.03437901e-06 -2.39828477e-08 0.290761352 0.46356523
      -0.000194340959 -0.00155864086 0.0254669413 -1.91264178e-08
      0.106174707 -2.6521473e-05 -0.000205619857 -2.58928867e-06
      -3.00979809e-06 0.407843173 -0.0018701629 -0.00327301514
      0.391378701 -1.22178722e-06 -0.000317035534 -4.59503008e-06
      0.0576939955 0.504312217 0.237645268 0.308436573 -0.000438707008
      0.430531144 0.241492689 -2.82344772e-05 -0.000345848006
      0.181709364 0.29446429 0.566626191 -0.000298063329 0.64402914
      0.418649316 0.194750518 -0.00175626366 0.0556936078 0.471624941
      0.154889405 -0.00201920676 -1.54482386e-05 -0.00321615743
      0.134827495 -0.00393506465 -0.0019437687 -0.000122358091
      -3.10218547e-06 0.308375567 -1.94553607e-07 -4.40216951e-07
      -0.000265576906 0.94370681 -1.39091835e-05 -1.70774201e-05
      -0.00023063003 -0.000460272044 0.0795671865 -3.90543669e-08
      -2.76012768e-10 -4.59467575e-09 -2.05795477e-13 -0.000148977851
      -7.95288031e-07 -2.16146379e-10 -9.19833183e-05 0.0621403158
      -1.83643187e-05 0.00680948049 -0.000142379664 -3.80943857e-05
      -1.50638771e-05 0.372618258 -5.78045444e-07 -7.48896719e-06
      0.302673548 -0.000302240165 0.353923857 -7.02631951e-05
      0.0148971491 -0.00103690999 0.0397248268 -5.16344016e-08
      0.0702523217 -2.14517945e-06 -0.000119073025 -3.15130819e-06
      -1.96531414e-06 -0.000215911976 -1.94551575e-07 -3.38115728e-06
      0.382901788 -4.70889194e-09 -6.74571732e-10 -1.36729295e-08
      -7.22918891e-10 0.16843465 0.298228502 -2.28442314e-05 0.188334405
      -8.82334789e-05 -9.65340918e-10 -1.31209291e-07 -4.02877704e-05
      -3.24748783e-09 -0.000705506478 -1.17607788e-05 -1.06083732e-10
      -2.92936556e-06 -0.000472376472 -0.000313495228 -1.37554039e-07
      -0.000206314391 -9.33390076e-09 -2.84586622e-05 -0.000155036425
      -5.92529113e-06</_>
    <_>
      -2.16960239 -2.25200582 -0.0060510044 -0.0166216735
      -6.06441404e-08 -0.000178084258 -0.0109679466 -0.000562732865
      -0.00164929801 -3.10559085e-06 -1.44407677e-05 -2.36816376e-07
      -9.21237734e-05 -0.000247758871 -0.000182488293 5.06369925
      0.444562554 -0.00280093541 1.27531528 -0.000147028419
      -0.000888945011 -0.000700211152 -0.00459153391 -0.00213567191
      -1.21802395e-05 -0.00179938041 1.78338826 -8.52099947e-06
      -4.46156046e-05 -1.61844655e-05 -0.00538910972 -0.000192532796
      -0.0133112241 -0.00106938218 -8.65026814e-05 -0.000751873828
      -0.000175028399 -5.8514157e-05 -0.00681261765 -0.000234326682
      -0.000137923897 -0.000608057948 -0.00147787831 -0.000199869959
      -5.15896427e-05 -0.00180262327 -0.00039160403 2.10983753
      0.980611801 -0.0174321309 -0.00181585946 -0.000990848406
      -4.23928077e-06 -0.00909503456 0.94080621 -0.0172437243
      -0.05019667 -0.00319392351 -0.00493590301 -0.00461392011
      -0.00072394748 -0.000622572901 -0.000948563509 2.01970887
      -0.0219730269 -2.26672455e-05 -3.90355053e-05 -2.04516691e-05
      -0.00435168436 -0.00138069107 -0.000477263326 4.22592497
      -0.00155858975 -0.000111383233 -4.80300241e-06 -0.000851976569
      -1.65064885e-05 -0.0031599768 3.29548669 -0.0016665142
      -8.87845363e-06 -3.30632361e-07 -0.000387982262 0.660120368
      -0.0113035366 -0.000611069438 -0.00463962648 -0.00689924182
      -7.86607143e-06 -0.00786319096 -0.00523126032 -0.000458889903
      -0.00499381451 -0.0052239811 2.39345145 -0.019122459
      -0.000570533681 -0.00502082147 -0.00588871446 -0.00210576947
      -5.74246405e-05 -0.00719126221 2.32535744 -1.02276977e-06
      -9.85283696e-05 -0.000769477338 3.23496723 -0.000117739859
      -2.67244541e-05 -0.000402489095 -0.00389500335 -0.00186125247
      -0.00156405359 -1.69521118e-05 -5.54011312e-05 -0.000666250999
      -6.50318611e-07 -2.37241898e-06 -0.000146749459 -4.68121652e-05
      -0.00712045515 -7.6687802e-06 -0.00593442656 -0.000628315669
      -0.0108023109 -0.00782665983 -0.0027561069 -0.0137477769
      -0.0178573728 -0.00248314627 -1.67163581e-08 0.749412358
      0.650746644 -7.82945062e-05 -5.66750459e-05 0.114032552
      -0.00379357929 0.301862061 -9.46338563e-09 -0.000141350843
      0.16772151 -2.94560687e-06 -2.41239455e-08 0.29236269 0.4513129
      -0.000195578017 -0.00152332603 0.0236823782 -1.89947222e-08
      0.103460714 -2.6593696e-05 -0.000204957454 -2.51572465e-06
      -3.00354122e-06 0.456605077 -0.00197876757 -0.00330653368
      0.408347845 -1.2185651e-06 -0.000292082492 -4.59598004e-06
      0.0616765693 0.491139024 0.260465592 0.310641497 -0.000374037249
      0.458060443 0.274651885 -2.78984007e-05 -0.000344844739
      0.211367413 0.307397038 0.555933893 -0.000300195476 0.673319042
      0.4427858 0.175738156 -0.00167940941 0.0513728 0.486333102
      0.147571892 -0.00206187693 -1.54626887e-05 -0.00323652616
      0.148025602 -0.00390225579 -0.00194573053 -0.000122374389
      -3.07795926e-06 0.317011356 -1.9417304e-07 -4.39111744e-07
      -0.000210769023 0.981785357 -1.3900647e-05 -1.70652766e-05
      -0.000230732214 -0.000460833457 0.0784384161 -3.90006889e-08
      -2.75792056e-10 -4.58936045e-09 -2.05345967e-13 -0.00014895729
      -7.94818732e-07 -2.16016482e-10 -9.1958922e-05 0.0613277629
      -1.83553657e-05 0.00709978119 -0.00014236664 -3.80809397e-05
      -1.50556298e-05 0.374624848 -5.77664935e-07 -7.48589673e-06
      0.304190606 -0.000302554021 0.356298804 -7.01355675e-05
      0.0148378685 -0.00103958161 0.0389272496 -5.15743892e-08
      0.0693809316 -2.15012165e-06 -0.00011905549 -3.14739555e-06
      -1.98696216e-06 -0.000216034532 -1.94101119e-07 -3.37893289e-06
      0.385167181 -4.70053507e-09 -6.74475309e-10 -1.36911531e-08
      -7.22002236e-10 0.16891636 0.297894299 -2.28306017e-05 0.188490897
      -8.82025051e-05 -9.61024371e-10 -1.31063743e-07 -4.02731239e-05
      -3.24437099e-09 -0.000707081112 -9.70592737e-06 -1.05915755e-10
      -2.92754794e-06 -0.000477150519 -0.000313832366 -1.3737764e-07
      -0.000206385754 -9.32384747e-09 -2.84496127e-05 -0.000155938484
      -5.92231572e-06</_>
    <_>
      -2.15611815 -2.32894945 -0.00603211764 -0.017168805
      -5.95028631e-08 -0.000164934318 -0.0110631036 -0.000542116468
      -0.0016352284 -3.17398167e-06 -1.43681209e-05 -2.50141113e-07
      -9.14733246e-05 -0.000237791886 -0.00018265222 5.10418844
      0.522597432 -0.00278294855 1.26847649 -0.000143556405
      -0.000890306605 -0.00066652376 -0.00455397461 -0.00163850212
      -1.22257879e-05 -0.00121815165 1.89224172 -8.04914635e-06
      -4.70078485e-05 -1.59140127e-05 -0.00632007699 -0.000188466176
      -0.0121970493 -0.00108062988 -8.31244324e-05 -0.000742388132
      -0.000180649979 -5.77823557e-05 -0.00661627948 -0.000229910176
      -0.000134621427 -0.00055469689 -0.00145936804 -0.000202337906
      -0.000328819122 -0.00179696688 -0.000411278597 2.18306494
      0.97492528 -0.016604729 -0.00177599292 -0.000841972535
      -4.09465292e-06 -0.00904415827 0.984700143 -0.0165012162
      -0.0500831828 -0.00316209625 -0.00599263841 -0.00456080819
      -0.000713954563 -0.000618512393 -0.000927034649 2.10417509
      -0.0216243137 -2.27933833e-05 -3.71737915e-05 -2.11713996e-05
      -0.00429411698 -0.00135621382 -0.000476680783 4.34397888
      -0.00161089189 -0.000106979292 -4.10045413e-06 -0.000835224171
      -1.61988355e-05 -0.00275423843 3.32318735 -0.00165098161
      -8.94538243e-06 -3.44084498e-07 -0.000376466982 0.719804287
      -0.0109673925 -0.000580544816 -0.00475111138 -0.00845026877
      -7.81168183e-06 -0.00793532562 -0.00517242728 -0.000440835487
      -0.0047888183 -0.00511887437 2.53311849 -0.0189652145
      -0.000593452423 -0.00481080404 -0.0058925515 -0.00206990051
      -5.82167959e-05 -0.00709804054 2.43558431 -1.04645915e-06
      -9.67615342e-05 -0.000763401214 3.27290606 -0.000119257536
      -2.72135749e-05 -0.000404743798 -0.0057290229 -0.0017877206
      -0.00304184156 -1.66524205e-05 -5.19423302e-05 -0.000657403609
      -6.2014584e-07 -2.39490601e-06 -0.000137059265 -4.5683908e-05
      -0.00701761432 -7.75372609e-06 -0.00590089057 -0.000630003808
      -0.00992875639 -0.00794587471 -0.00256399089 -0.0143114133
      -0.0176454261 -0.00202170154 -1.67046394e-08 0.744417131
      0.641874909 -7.84218646e-05 -5.64707443e-05 0.105210096
      -0.00385334622 0.302670956 -9.47028678e-09 -0.000141883778
      0.175170839 -2.97014344e-06 -2.4097627e-08 0.290783614 0.457548678
      -0.000194973501 -0.00153743627 0.0269276723 -1.90191862e-08
      0.107956052 -2.65887884e-05 -0.000204749114 -2.53896815e-06
      -3.00503712e-06 0.438353896 -0.00191373809 -0.0033097805
      0.404176414 -1.21964763e-06 -0.000291077857 -4.59386274e-06
      0.0644010976 0.495999455 0.254766136 0.309106767 -0.000380726182
      0.448914945 0.271070153 -2.79903397e-05 -0.000345578592
      0.200093031 0.302420586 0.562990844 -0.000299312116 0.666554332
      0.433547854 0.180121496 -0.00169631315 0.0544932224 0.479963213
      0.153271899 -0.00204618298 -1.54646877e-05 -0.00323137804
      0.148372322 -0.0039433022 -0.00195844215 -0.000122449754
      -3.08559856e-06 0.310175627 -1.9423463e-07 -4.39488844e-07
      -0.000247917924 0.972807348 -1.38973592e-05 -1.7064287e-05
      -0.000230639969 -0.000461298769 0.0794233382 -3.89902297e-08
      -2.74508444e-10 -4.58775995e-09 -2.05378181e-13 -0.000148935404
      -7.94668381e-07 -2.15854903e-10 -9.19510712e-05 0.0624566525
      -1.83529446e-05 0.0076620914 -0.000142349993 -3.80762249e-05
      -1.50542155e-05 0.373396754 -5.77541641e-07 -7.48512775e-06
      0.302996367 -0.000302415108 0.356022656 -7.03857368e-05
      0.0156059898 -0.00103972584 0.0375375524 -5.15612264e-08
      0.0703073591 -2.15182035e-06 -0.000119035598 -3.14599833e-06
      -2.00652744e-06 -0.000215969863 -1.94125079e-07 -3.37861229e-06
      0.384262145 -4.69859485e-09 -6.74289069e-10 -1.36854776e-08
      -7.21753213e-10 0.171523973 0.300627023 -2.28273948e-05 0.18615827
      -8.81874948e-05 -9.60261759e-10 -1.31015653e-07 -4.02694495e-05
      -3.24386162e-09 -0.000707023719 -5.57472913e-06 -1.05856927e-10
      -2.92712957e-06 -0.000471584644 -0.000313847733 -1.37336869e-07
      -0.000206308308 -9.32128152e-09 -2.84466787e-05 -0.000158552313
      -5.92137849e-06</_>
    <_>
      -2.14891934 -2.36861014 -0.00613595964 -0.0173668563
      -6.06283876e-08 -0.000167423816 -0.0111942003 -0.00055623689
      -0.00164436572 -3.20973868e-06 -1.4565363e-05 -2.48187121e-07
      -9.36185606e-05 -0.000245525152 -0.000185836965 5.15216112
      0.507487714 -0.00284067681 1.21089458 -0.00014539907
      -0.000897435297 -0.000682759041 -0.00462368224 -0.00178283988
      -1.23355458e-05 -0.0015469694 1.86023259 -8.19866091e-06
      -4.72013489e-05 -1.62171491e-05 -0.00668684719 -0.000192365915
      -0.0126092862 -0.00110045739 -8.56741681e-05 -0.000754016277
      -0.000176035479 -5.88467337e-05 -0.00632622931 -0.00023559641
      -0.000137110925 -0.0005650362 -0.00150374742 -0.000198328067
      -0.000349648617 -0.00184892456 -0.000415748917 2.08059049
      0.947920799 -0.0169356074 -0.00183201546 -0.00089965493
      -4.218703e-06 -0.00914461073 1.01410794 -0.0166026261
      -0.0506264567 -0.00322107575 -0.0056870305 -0.00462229643
      -0.000728744722 -0.000643208623 -0.000947557681 2.07858419
      -0.0217218157 -2.23759562e-05 -3.85746498e-05 -2.10708349e-05
      -0.00436231866 -0.00137345179 -0.000474902685 4.36735344
      -0.00162062526 -0.000109519118 -4.3306195e-06 -0.000838292006
      -1.62476717e-05 -0.00277349516 3.34838033 -0.00168095483
      -8.93625838e-06 -3.44817806e-07 -0.000387130334 0.702079058
      -0.0112712942 -0.000593009521 -0.00498152478 -0.00828147493
      -7.9743686e-06 -0.00796555541 -0.00522244815 -0.000454824098
      -0.0049376362 -0.00515908469 2.49517679 -0.0191676263
      -0.000588799419 -0.00504339021 -0.00597116025 -0.0021034705
      -5.87783288e-05 -0.00730996113 2.41683412 -1.03604532e-06
      -9.76486772e-05 -0.000763921416 3.26334763 -0.000121420169
      -2.70266737e-05 -0.000410279579 -0.00492631318 -0.00183627522
      -0.00264133234 -1.67231319e-05 -5.40193614e-05 -0.000684817845
      -6.52441884e-07 -2.45204819e-06 -0.000142039149 -4.69884508e-05
      -0.00711313123 -7.91688217e-06 -0.00596948247 -0.000645917025
      -0.0101356311 -0.00790768582 -0.00265789451 -0.0141998613
      -0.0176732652 -0.00219941069 -1.66114908e-08 0.743424416
      0.652744472 -7.85269876e-05 -5.63503963e-05 0.099816367
      -0.00371572725 0.304608345 -9.36176647e-09 -0.000142394361
      0.181688458 -2.96574171e-06 -2.38452316e-08 0.306160361
      0.449084789 -0.000196133638 -0.00140085898 0.00970567018
      -1.89573317e-08 0.110678002 -2.64553164e-05 -0.000206152879
      -2.50387029e-06 -2.98549799e-06 0.443348199 -0.0018706274
      -0.00334540638 0.425724268 -1.21103187e-06 -0.000211725011
      -4.56708858e-06 0.0711843222 0.510145307 0.270640284 0.314242065
      -0.000388873421 0.447561622 0.284128606 -2.7901091e-05
      -0.000348307454 0.212345451 0.320329249 0.564546764
      -0.000298868661 0.67855829 0.429804713 0.176419929 -0.00166898093
      0.0463759638 0.489266306 0.169317365 -0.00206150673
      -1.54326081e-05 -0.00325951818 0.150259674 -0.00390045159
      -0.00197309512 -0.000122448255 -3.0581391e-06 0.327512294
      -1.92391383e-07 -4.35784244e-07 -0.000237683504 0.999297619
      -1.38886289e-05 -1.70495678e-05 -0.000230826699 -0.000461717165
      0.0773824379 -3.89289632e-08 -2.75031775e-10 -4.58204541e-09
      -2.047903e-13 -0.000148923093 -7.94169466e-07 -2.15791759e-10
      -9.1925147e-05 0.060725227 -1.83431475e-05 0.00767755136
      -0.000142343939 -3.80621896e-05 -1.50446822e-05 0.376698256
      -5.77138053e-07 -7.48173034e-06 0.3056584 -0.000302898348
      0.359194756 -7.00682212e-05 0.0150512997 -0.00104301015
      0.0373982266 -5.14936431e-08 0.0686280578 -2.15700106e-06
      -0.00011902587 -3.14192926e-06 -2.0216487e-06 -0.000216165092
      -1.93541197e-07 -3.37600318e-06 0.387688756 -4.6892521e-09
      -6.74283629e-10 -1.37120377e-08 -7.20751014e-10 0.170503587
      0.298497975 -2.28121826e-05 0.187812954 -8.81577434e-05
      -9.55286295e-10 -1.30861878e-07 -4.02532496e-05 -3.24024296e-09
      -0.000709048472 -5.55926908e-06 -1.05681505e-10 -2.92509526e-06
      -0.000481091294 -0.000314263947 -1.37139523e-07 -0.000206446814
      -9.31018462e-09 -2.84370781e-05 -0.00015805877 -5.91820617e-06</_>
    <_>
      -2.05645704 -2.40987968 -0.00614880444 -0.0186250936
      -6.07613302e-08 -0.000166821323 -0.0112117315 -0.000549732184
      -0.00166871748 -3.17770719e-06 -1.44208252e-05 -2.4907223e-07
      -9.27718502e-05 -0.000243130897 -0.000186501828 5.27682257
      0.529082894 -0.00281257927 1.20087266 -0.000143688841
      -0.000894100405 -0.000680523866 -0.00460128719 -0.00157449127
      -1.21757594e-05 -0.00126160681 1.89780724 -8.20237983e-06
      -4.7083362e-05 -1.59018964e-05 -0.00650534546 -0.000192409731
      -0.0126249213 -0.00109754608 -8.49360586e-05 -0.000756892201
      -0.000178099304 -5.80438391e-05 -0.00660787756 -0.000230247111
      -0.000136782299 -0.000568397809 -0.00148591609 -0.000203880118
      -0.000257291686 -0.00180802704 -0.000413996429 2.08868766
      0.954531312 -0.0173799936 -0.00180615077 -0.000799559755
      -4.07359266e-06 -0.00917231757 1.14027607 -0.0167035442
      -0.0510974452 -0.00323474128 -0.00575333182 -0.00462157372
      -0.000721292105 -0.000630487688 -0.000938454934 2.12016869
      -0.0218154378 -2.27625205e-05 -3.78257755e-05 -2.09791833e-05
      -0.00436422369 -0.00137747347 -0.000476062909 4.39796066
      -0.00161940826 -0.000109049521 -4.24884502e-06 -0.000833572703
      -1.61781536e-05 -0.00258327811 3.39036679 -0.00167410611
      -8.88426439e-06 -3.42936261e-07 -0.000382818078 0.769381523
      -0.0126665449 -0.000583721965 -0.00482121995 -0.00805107784
      -7.94770858e-06 -0.00793220289 -0.00529284962 -0.000449706829
      -0.00488596177 -0.00514620356 2.53786135 -0.0191996172
      -0.000584849389 -0.00562212337 -0.00593117997 -0.00210908428
      -5.7971436e-05 -0.00722132297 2.45496249 -1.03001628e-06
      -9.6268901e-05 -0.000760451832 3.32574344 -0.000119742435
      -2.69944976e-05 -0.000410755194 -0.00502595119 -0.00181151135
      -0.0025875913 -1.6526461e-05 -5.25493197e-05 -0.000676722091
      -6.37646338e-07 -2.43510658e-06 -0.000140691365 -4.67578466e-05
      -0.00711724255 -7.89934256e-06 -0.0059958091 -0.000634929514
      -0.00997276604 -0.00796177424 -0.00261950633 -0.014330483
      -0.0178384352 -0.00213162019 -1.6634365e-08 0.743628561
      0.653026581 -7.84822696e-05 -5.63933318e-05 0.101762928
      -0.00370220467 0.30254516 -9.3810355e-09 -0.000142295859
      0.179253459 -2.96145845e-06 -2.39093936e-08 0.305854023
      0.448280811 -0.000196110559 -0.00140753447 0.0122529343
      -1.89740277e-08 0.110990718 -2.64774808e-05 -0.000205814649
      -2.50625817e-06 -2.98840428e-06 0.445958316 -0.00186879782
      -0.00334268063 0.423517078 -1.21250821e-06 -0.00021577529
      -4.57209444e-06 0.0695741922 0.506514192 0.270675361 0.312942296
      -0.000386196654 0.451268792 0.284457713 -2.78783864e-05
      -0.0003477227 0.213392496 0.320690095 0.56400311 -0.000298925734
      0.679283202 0.430476993 0.175409079 -0.0016655029 0.0454192869
      0.489397585 0.16870901 -0.00206047529 -1.54468034e-05
      -0.00325423409 0.149540365 -0.0038953023 -0.00197004154
      -0.000122410202 -3.06030438e-06 0.32748118 -1.92723874e-07
      -4.36443116e-07 -0.00024503842 0.996492445 -1.38940477e-05
      -1.70561834e-05 -0.000230800768 -0.000461287331 0.0776792392
      -3.89600068e-08 -2.75526241e-10 -4.58528682e-09 -2.05014797e-13
      -0.000148940278 -7.94458288e-07 -2.15907139e-10 -9.19401718e-05
      0.0608145222 -1.83485263e-05 0.00735978782 -0.000142355653
      -3.8070586e-05 -1.50493952e-05 0.376016378 -5.77372589e-07
      -7.48355615e-06 0.305221558 -0.000302776025 0.358038962
      -7.00606688e-05 0.0148547105 -0.00104157638 0.0382254645
      -5.15287866e-08 0.0688080713 -2.15392583e-06 -0.000119040888
      -3.14437943e-06 -2.0045984e-06 -0.000216120388 -1.93768642e-07
      -3.37725623e-06 0.386776268 -4.69417705e-09 -6.74388823e-10
      -1.37042226e-08 -7.21301907e-10 0.169480532 0.297863394
      -2.28202261e-05 0.188422233 -8.81783199e-05 -9.57759316e-10
      -1.30951875e-07 -4.02619626e-05 -3.24201666e-09 -0.000708245498
      -7.85334032e-06 -1.05786366e-10 -2.92616551e-06 -0.000480251911
      -0.000314083882 -1.37243433e-07 -0.000206432567 -9.31617894e-09
      -2.84426587e-05 -0.000156815266 -5.92003198e-06</_>
    <_>
      -2.06566906 -2.38260627 -0.00615026243 -0.0186539534
      -6.05906649e-08 -0.000168516563 -0.0111861425 -0.000540249341
      -0.00165543472 -3.07789537e-06 -1.42841027e-05 -2.50809592e-07
      -9.25980494e-05 -0.000240615744 -0.000187936923 5.28588533
      0.504312098 -0.00278900727 1.21267653 -0.000143186946
      -0.000890626339 -0.000679536897 -0.00457715942 -0.00150657387
      -1.19988163e-05 -0.00145218638 1.86406803 -8.11846166e-06
      -4.71280073e-05 -1.57940794e-05 -0.00632424699 -0.000193162647
      -0.0128291743 -0.0010993249 -8.38966662e-05 -0.000751428888
      -0.000178728777 -5.73530669e-05 -0.00688852649 -0.000225963086
      -0.000137376555 -0.000570580421 -0.00147711125 -0.000208842961
      -0.000129182343 -0.0017934402 -0.000413609348 2.06223679
      0.935444117 -0.0178244822 -0.00178913132 -0.000796865497
      -3.92724905e-06 -0.00917416625 1.12196624 -0.0168327838
      -0.0507742539 -0.00324258581 -0.00568364048 -0.00460429769
      -0.000712126493 -0.000626601046 -0.000927836343 2.11055636
      -0.0218981355 -2.27503187e-05 -3.73267758e-05 -2.06731729e-05
      -0.00433835946 -0.00137709244 -0.000471178617 4.42759418
      -0.00160236843 -0.000109282053 -4.25030612e-06 -0.000829325872
      -1.60708369e-05 -0.00265159458 3.36610413 -0.00166548963
      -8.76828562e-06 -3.32161505e-07 -0.000377484801 0.744749188
      -0.0127734207 -0.000575966085 -0.00481098983 -0.00764561258
      -7.91125149e-06 -0.00789228454 -0.00528094405 -0.000447004626
      -0.00487057073 -0.00514722476 2.48892951 -0.0191822369
      -0.000581118104 -0.005798392 -0.00590009382 -0.00211188942
      -5.66119998e-05 -0.00719827041 2.4280405 -1.00906163e-06
      -9.4437084e-05 -0.000752199732 3.34497476 -0.000117726202
      -2.66583957e-05 -0.000408458262 -0.00459784549 -0.00180284888
      -0.00250681327 -1.62063534e-05 -5.21453549e-05 -0.000676331809
      -6.14203202e-07 -2.38479174e-06 -0.000141427648 -4.67437458e-05
      -0.00709549291 -7.90787271e-06 -0.00598282088 -0.000631293806
      -0.0100724548 -0.00799961574 -0.0026270987 -0.0141796982
      -0.0178772714 -0.002188229 -1.66550738e-08 0.740977347 0.646699429
      -7.84769727e-05 -5.61456836e-05 0.100696012 -0.00376542774
      0.300889254 -9.41809919e-09 -0.000142497229 0.179990351
      -2.97139445e-06 -2.39825582e-08 0.300795674 0.454001904
      -0.000195502784 -0.00145593553 0.0178649351 -1.90127221e-08
      0.109585762 -2.65284252e-05 -0.000205595934 -2.52368204e-06
      -2.99454655e-06 0.434364408 -0.00188318873 -0.00333316438
      0.413798898 -1.21605285e-06 -0.00024255953 -4.57984015e-06
      0.0705731884 0.504294395 0.264117002 0.312300116 -0.000386095548
      0.443891883 0.278576672 -2.79303113e-05 -0.000347295165
      0.204520553 0.314118981 0.571836293 -0.000298670609 0.669732332
      0.426926583 0.178341568 -0.00168012688 0.0481755622 0.481484681
      0.167255938 -0.00204965635 -1.54707486e-05 -0.00324031711
      0.145554215 -0.00392060447 -0.00196369179 -0.000122422614
      -3.07330333e-06 0.318302304 -1.93327097e-07 -4.37774389e-07
      -0.00028400062 0.985672116 -1.38982514e-05 -1.70638741e-05
      -0.000230689344 -0.000461126532 0.0788943022 -3.89911783e-08
      -2.75078543e-10 -4.58811256e-09 -2.05331425e-13 -0.000148943931
      -7.94703567e-07 -2.15919352e-10 -9.1952912e-05 0.061883837
      -1.83534121e-05 0.00742547587 -0.000142356672 -3.80774218e-05
      -1.50542737e-05 0.374099314 -5.77570802e-07 -7.48526008e-06
      0.303648978 -0.000302500877 0.356315762 -7.02623656e-05
      0.0152506046 -0.00103985006 0.0381170139 -5.15629601e-08
      0.0698231533 -2.15139789e-06 -0.000119043427 -3.14635713e-06
      -1.99915712e-06 -0.000216008106 -1.94082091e-07 -3.37860024e-06
      0.384835124 -4.69888572e-09 -6.7436684e-10 -1.36893545e-08
      -7.21801618e-10 0.170366079 0.299355328 -2.28278896e-05
      0.187235802 -8.81921369e-05 -9.60302504e-10 -1.31027249e-07
      -4.02700862e-05 -3.24387184e-09 -0.000707161846 -7.31857472e-06
      -1.05871825e-10 -2.92719096e-06 -0.000474465254 -0.000313864759
      -1.37342909e-07 -0.000206348748 -9.32173716e-09 -2.84473736e-05
      -0.000157421644 -5.92159449e-06</_>
    <_>
      -2.15455794 -2.40168619 -0.00615654793 -0.0172475502
      -6.10115976e-08 -0.000170922765 -0.0112181064 -0.000562588917
      -0.00164911791 -3.24049006e-06 -1.46538096e-05 -2.45855148e-07
      -9.41324324e-05 -0.000249517529 -0.000186958539 5.14600039
      0.540081263 -0.00285382802 1.19901848 -0.000147303668
      -0.000900933635 -0.000693791953 -0.00465067662 -0.00183807127
      -1.24767839e-05 -0.00126678497 1.88946652 -8.37605421e-06
      -4.68277176e-05 -1.63187688e-05 -0.00651846407 -0.000193699656
      -0.0128959091 -0.00110197905 -8.71783486e-05 -0.00075912819
      -0.000175855617 -5.95067213e-05 -0.00638422789 -0.00023918126
      -0.000137876646 -0.000577484141 -0.00151608221 -0.000194429624
      -0.000280750799 -0.0018542246 -0.000414149603 2.04137373
      0.968238711 -0.0173021685 -0.00185651018 -0.000938080659
      -4.30960245e-06 -0.00917600468 1.00137591 -0.0168356895
      -0.0509754494 -0.00324356486 -0.00542684412 -0.00465307292
      -0.000728206302 -0.000643373118 -0.000956721487 2.1002543
      -0.0215375554 -2.23109873e-05 -3.90470486e-05 -2.11601691e-05
      -0.00438093813 -0.00138626725 -0.000478348898 4.34606266
      -0.00161764526 -0.000110172929 -4.52034783e-06 -0.000845556671
      -1.6324122e-05 -0.00251174858 3.34614778 -0.00169051404
      -8.94935602e-06 -3.4766947e-07 -0.000391504145 0.690697551
      -0.0113691706 -0.000602345623 -0.00497224601 -0.00810347218
      -8.01168335e-06 -0.00797995925 -0.00522955181 -0.00046141952
      -0.00498899817 -0.00518573215 2.54752183 -0.0192700159
      -0.00058547518 -0.00497957738 -0.00599875022 -0.0021196052
      -5.94660814e-05 -0.00734153902 2.44677496 -1.05010599e-06
      -9.88187239e-05 -0.000771522231 3.22463679 -0.000121825455
      -2.70964156e-05 -0.000413225207 -0.00469092187 -0.00185655651
      -0.00236614398 -1.6789847e-05 -5.48976896e-05 -0.000690752408
      -6.65350797e-07 -2.46192508e-06 -0.000144537262 -4.74148292e-05
      -0.00718474388 -7.93370327e-06 -0.0060010897 -0.000650464732
      -0.0100447126 -0.00790792052 -0.00272223703 -0.0141791422
      -0.0175098386 -0.00229661912 -1.66535887e-08 0.74261272
      0.647749364 -7.84366857e-05 -5.62469831e-05 0.103256933
      -0.00376772834 0.302554905 -9.42247613e-09 -0.000142399964
      0.179757684 -2.96649227e-06 -2.40035494e-08 0.299199283
      0.450809419 -0.000195625325 -0.00145714066 0.0183081701
      -1.90102014e-08 0.108984366 -2.6531312e-05 -0.000205575852
      -2.52513928e-06 -2.99467206e-06 0.437226236 -0.00188189803
      -0.00333722518 0.411729932 -1.21605387e-06 -0.00025749972
      -4.58141949e-06 0.0696434751 0.502213418 0.264171302 0.313290834
      -0.000388378947 0.445817471 0.276165426 -2.79060205e-05
      -0.000347154128 0.20642668 0.314882189 0.569737077 -0.000299233827
      0.671476424 0.430218369 0.178748101 -0.00166903134 0.048208978
      0.48240009 0.16613999 -0.00205061375 -1.5476513e-05 -0.00324162049
      0.143833697 -0.003920143 -0.00196170784 -0.000122468249
      -3.07226105e-06 0.320014864 -1.93410827e-07 -4.37870455e-07
      -0.000276458421 0.983026683 -1.38923688e-05 -1.7055987e-05
      -0.000230742633 -0.000461545802 0.0783010572 -3.89555233e-08
      -2.74770373e-10 -4.584507e-09 -2.05048435e-13 -0.000148927938
      -7.94384107e-07 -2.1581531e-10 -9.1936301e-05 0.0615116954
      -1.83473749e-05 0.00768458843 -0.00014234618 -3.80682141e-05
      -1.50488195e-05 0.37522167 -5.77311653e-07 -7.48319826e-06
      0.30446279 -0.000302683329 0.357798219 -7.02134421e-05
      0.0153131373 -0.00104157592 0.0374252722 -5.15228997e-08
      0.0693868175 -2.15477621e-06 -0.000119029624 -3.14367526e-06
      -2.01552984e-06 -0.000216077984 -1.93797405e-07 -3.37713732e-06
      0.386165261 -4.69329331e-09 -6.74281186e-10 -1.37002614e-08
      -7.21183502e-10 0.171014816 0.299498349 -2.28187619e-05
      0.187030822 -8.81703891e-05 -9.57445234e-10 -1.30927987e-07
      -4.02602491e-05 -3.24181459e-09 -0.000708160514 -5.4645725e-06
      -1.0575682e-10 -2.92597542e-06 -0.000476789923 -0.000314082135
      -1.37224887e-07 -0.00020638424 -9.31497901e-09 -2.84412072e-05
      -0.000158339491 -5.91957132e-06</_>
    <_>
      -2.0986259 -2.26980567 -0.00609167153 -0.0177192427 -6.1073095e-08
      -0.00016863324 -0.0110471081 -0.000551987381 -0.00166375318
      -3.15151715e-06 -1.45049335e-05 -2.45997398e-07 -9.21546743e-05
      -0.000243436385 -0.000183285229 5.15673971 0.464952886
      -0.00280944351 1.33095598 -0.00014397729 -0.00090118614
      -0.000681576203 -0.0046003419 -0.00179382588 -1.22073561e-05
      -0.00158747577 1.82706058 -8.39296445e-06 -4.69694751e-05
      -1.61604748e-05 -0.00527510233 -0.000191758314 -0.0127553772
      -0.00106789358 -8.44794413e-05 -0.000752902532 -0.000177648661
      -5.78933468e-05 -0.00646484131 -0.0002294898 -0.000138829506
      -0.00057863869 -0.00146615354 -0.000204002223 -0.000246501004
      -0.00183639152 -0.000409751636 2.17840028 0.996032238
      -0.0174176432 -0.00178925553 -0.000864717818 -4.14972374e-06
      -0.00914835837 1.06501651 -0.0168357138 -0.0503547341
      -0.00318410899 -0.0051811724 -0.00459049828 -0.000723852252
      -0.000632092764 -0.000943471969 2.0548811 -0.0218703169
      -2.2702412e-05 -3.82594881e-05 -2.09300542e-05 -0.00433187606
      -0.00135714957 -0.000480865536 4.31881523 -0.00159874931
      -0.000110250316 -4.33705554e-06 -0.000837600091 -1.61890184e-05
      -0.00315681845 3.34112811 -0.00167609937 -8.90426418e-06
      -3.38223316e-07 -0.000386036874 0.716003299 -0.0119809108
      -0.00058812747 -0.004459952 -0.00782804843 -7.86065448e-06
      -0.0078650089 -0.00527922623 -0.000448134815 -0.00493133953
      -0.00516939489 2.43789411 -0.0189742651 -0.000584365218
      -0.00518242037 -0.00590434857 -0.00210243138 -5.75661797e-05
      -0.00721112965 2.37278247 -1.03723141e-06 -9.60790712e-05
      -0.000764945056 3.34290695 -0.000119034506 -2.70276632e-05
      -0.000401186029 -0.00404263334 -0.00182269991 -0.00200766698
      -1.6632026e-05 -5.33849125e-05 -0.000663683866 -6.34030414e-07
      -2.40309191e-06 -0.000141045966 -4.68103717e-05 -0.0070481333
      -7.77897276e-06 -0.00599615602 -0.000622136227 -0.0104667693
      -0.00796220079 -0.00262441067 -0.0141215473 -0.0179411564
      -0.00220405194 -1.66567808e-08 0.744264662 0.648344398
      -7.83669821e-05 -5.631776e-05 0.108676247 -0.00379241328
      0.304588258 -9.43071488e-09 -0.00014230072 0.179153383
      -2.95596396e-06 -2.40420555e-08 0.295112491 0.452450693
      -0.000195561501 -0.00148109847 0.0202948973 -1.89760829e-08
      0.108678058 -2.65411418e-05 -0.000205123069 -2.52496329e-06
      -2.99598992e-06 0.440899849 -0.0018961376 -0.003346076 0.409377575
      -1.21625249e-06 -0.00026841319 -4.58331078e-06 0.0675772578
      0.499212176 0.263744414 0.314311475 -0.000387400534 0.449645579
      0.275680304 -2.78630559e-05 -0.000346900284 0.207967728
      0.314404398 0.570780396 -0.000299534731 0.673480868 0.432963103
      0.17741099 -0.00166467915 0.0486463495 0.482513964 0.164236665
      -0.00205346826 -1.54767131e-05 -0.00324307848 0.145328701
      -0.00393192377 -0.00196324475 -0.00012241544 -3.07097184e-06
      0.31969282 -1.93513657e-07 -4.38081827e-07 -0.000266397896
      0.979705513 -1.38977857e-05 -1.70626026e-05 -0.000230716687
      -0.000461115909 0.078597866 -3.89865633e-08 -2.75264866e-10
      -4.5877484e-09 -2.05272946e-13 -0.000148945124 -7.94672928e-07
      -2.15930718e-10 -9.19513259e-05 0.061600998 -1.83527536e-05
      0.00736681744 -0.00014235788 -3.80766105e-05 -1.50535325e-05
      0.374539793 -5.77546245e-07 -7.48502407e-06 0.304025948
      -0.000302561006 0.356642336 -7.02058896e-05 0.0151165426
      -0.00104014215 0.0382525325 -5.15580396e-08 0.0695668235
      -2.15170121e-06 -0.000119044649 -3.14612566e-06 -1.99847977e-06
      -0.00021603331 -1.94024864e-07 -3.37839037e-06 0.385252774
      -4.6982187e-09 -6.74386269e-10 -1.36924481e-08 -7.21734394e-10
      0.169991732 0.298863739 -2.28268073e-05 0.187640116
      -8.81909655e-05 -9.59918256e-10 -1.31017998e-07 -4.0268962e-05
      -3.24358762e-09 -0.000707357482 -7.75868011e-06 -1.05861681e-10
      -2.92704544e-06 -0.000475950597 -0.000313902041 -1.37328797e-07
      -0.000206369979 -9.32097244e-09 -2.84467878e-05 -0.000157095958
      -5.92139759e-06</_>
    <_>
      -2.09221172 -2.34406137 -0.00603342336 -0.017832784
      -6.02088548e-08 -0.000169374791 -0.0109878015 -0.00054513599
      -0.00165617 -3.14549266e-06 -1.43904872e-05 -2.45172089e-07
      -9.20267921e-05 -0.000244441879 -0.000182179734 5.15556955
      0.53526336 -0.00278407149 1.27604723 -0.000143677898
      -0.000899762847 -0.000676719181 -0.00454727514 -0.00169669895
      -1.21997937e-05 -0.00105226925 1.88752854 -8.4192543e-06
      -4.66366291e-05 -1.60744639e-05 -0.00567099452 -0.000189746599
      -0.0125012249 -0.00107062422 -8.46016264e-05 -0.000746688165
      -0.000178502291 -5.81789172e-05 -0.00644652965 -0.000229485828
      -0.000136830655 -0.000578122097 -0.00146116759 -0.000205177188
      -0.000202989977 -0.00181462639 -0.00040789778 2.11520457
      0.998420715 -0.0171666536 -0.00178333698 -0.000870264135
      -4.13491216e-06 -0.00906234886 1.05737317 -0.0168681238
      -0.050031703 -0.00316056563 -0.00509989122 -0.00454568816
      -0.000714887166 -0.00062357157 -0.000932703668 2.10535336
      -0.0213417374 -2.2795808e-05 -3.80129604e-05 -2.11375336e-05
      -0.0042921002 -0.00135773642 -0.000480360934 4.31006908
      -0.00158901257 -0.000108888635 -4.31771923e-06 -0.000837317959
      -1.6320444e-05 -0.00254926109 3.3507874 -0.00165459421
      -8.96449092e-06 -3.39226716e-07 -0.000379048201 0.720599651
      -0.012064469 -0.000584247347 -0.00446349801 -0.00773342606
      -7.79464335e-06 -0.00783797726 -0.00520232413 -0.000444942969
      -0.00487707835 -0.00516612921 2.54110646 -0.018948989
      -0.000586270937 -0.00521607604 -0.00585240638 -0.0020867826
      -5.76748098e-05 -0.00718567707 2.43824577 -1.04151718e-06
      -9.62181948e-05 -0.000767373713 3.29378963 -0.000119197168
      -2.70710243e-05 -0.000400526857 -0.00415663514 -0.00180825614
      -0.00211758562 -1.65609126e-05 -5.31094556e-05 -0.000664329971
      -6.36896004e-07 -2.39177825e-06 -0.000141627839 -4.62196913e-05
      -0.00704676984 -7.73026113e-06 -0.00591538288 -0.000625375134
      -0.00994855445 -0.00793735031 -0.00261382037 -0.0142015694
      -0.0175206121 -0.00224143686 -1.66938605e-08 0.743826747
      0.636781156 -7.83338037e-05 -5.60410881e-05 0.0988922864
      -0.00398866367 0.293427616 -9.50642232e-09 -0.000142192817
      0.17940709 -2.97046722e-06 -2.41779343e-08 0.292370141 0.469640076
      -0.000194670167 -0.00159862719 0.0253420696 -1.90571363e-08
      0.109482974 -2.66244351e-05 -0.000204443946 -2.54515203e-06
      -3.01163823e-06 0.423163503 -0.00204627356 -0.00337244943
      0.393094301 -1.22283029e-06 -0.000371908303 -4.60322053e-06
      0.0588394552 0.495236456 0.242395014 0.303486615 -0.000402572856
      0.439495385 0.250990182 -2.79654087e-05 -0.000344699452
      0.187130541 0.289173722 0.562217414 -0.00029904276 0.647136927
      0.433308095 0.197708338 -0.00171488954 0.0620709993 0.474731117
      0.143967897 -0.00203342852 -1.54909321e-05 -0.00322280172
      0.147152901 -0.0039794785 -0.00194673368 -0.000122037061
      -3.09650727e-06 0.303351223 -1.94864455e-07 -4.40806787e-07
      -0.000296905841 0.956565917 -1.3899994e-05 -1.70668391e-05
      -0.000230651087 -0.00046104475 0.0793110579 -3.90034849e-08
      -2.74965078e-10 -4.5892552e-09 -2.05450335e-13 -0.000148946274
      -7.94803327e-07 -2.15931148e-10 -9.19580998e-05 0.062240012
      -1.83553748e-05 0.00742699206 -0.000142357778 -3.8080223e-05
      -1.505619e-05 0.373426497 -5.7765152e-07 -7.48594084e-06
      0.303104818 -0.000302402448 0.355677068 -7.03281694e-05
      0.0153683871 -0.00103918824 0.0381330699 -5.15765173e-08
      0.0701668561 -2.15036084e-06 -0.00011904526 -3.14717022e-06
      -1.9961974e-06 -0.000215968292 -1.94200069e-07 -3.37912479e-06
      0.384140015 -4.70075889e-09 -6.7436734e-10 -1.36839748e-08
      -7.22002347e-10 0.170591921 0.299803466 -2.283094e-05 0.186884135
      -8.8198045e-05 -9.61302038e-10 -1.31057988e-07 -4.02733313e-05
      -3.24459948e-09 -0.000706753111 -7.2875805e-06 -1.05906853e-10
      -2.9275991e-06 -0.00047251067 -0.000313780823 -1.37382486e-07
      -0.000206320299 -9.32396027e-09 -2.84492944e-05 -0.000157540882
      -5.92222887e-06</_>
    <_>
      -2.14151073 -2.38670611 -0.00612751488 -0.0177371763
      -6.09102244e-08 -0.000169779203 -0.0111394711 -0.000549857155
      -0.00165842345 -3.1227662e-06 -1.43964553e-05 -2.45815443e-07
      -9.25513741e-05 -0.000244216062 -0.000186256351 5.20282841
      0.527351797 -0.00281239627 1.21423364 -0.000144444217
      -0.000897299033 -0.000684901257 -0.00459696027 -0.00166402815
      -1.2170698e-05 -0.00121220271 1.87962306 -8.30667796e-06
      -4.66777237e-05 -1.60335785e-05 -0.00610016286 -0.000192480264
      -0.0128093241 -0.0010909487 -8.51475779e-05 -0.000751714222
      -0.000176908594 -5.82659231e-05 -0.00647918088 -0.000231619269
      -0.000137137671 -0.00058079412 -0.00148377649 -0.000203385585
      -0.000200916824 -0.00181601464 -0.000411588058 2.06836605
      0.996947289 -0.0175505616 -0.00180905056 -0.000866496121
      -4.12301051e-06 -0.00914963055 1.04352367 -0.01690384
      -0.0504227094 -0.00321928947 -0.00528550334 -0.00460829213
      -0.000713931804 -0.000636408979 -0.000938187062 2.1053946
      -0.021566119 -2.25636722e-05 -3.82255603e-05 -2.0930087e-05
      -0.00433997577 -0.00137689989 -0.000473505846 4.3409977
      -0.00159818248 -0.000109705921 -4.40469603e-06 -0.000836211024
      -1.62288197e-05 -0.0026241329 3.35093951 -0.00166971562
      -8.93382912e-06 -3.34630442e-07 -0.00038286153 0.692543566
      -0.0119910929 -0.000589455361 -0.00454475498 -0.00771833723
      -7.90686136e-06 -0.00789663289 -0.00523133017 -0.000451551372
      -0.0049188761 -0.00516426889 2.52211404 -0.0191626493
      -0.000585673901 -0.0053146109 -0.00591172138 -0.00210474594
      -5.75507147e-05 -0.00725374464 2.43469167 -1.02714409e-06
      -9.65974396e-05 -0.000761099975 3.2888875 -0.000119464952
      -2.68467993e-05 -0.000408431544 -0.0045677782 -0.00182355405
      -0.00219711964 -1.65499623e-05 -5.35004292e-05 -0.000676158292
      -6.41280053e-07 -2.41833095e-06 -0.000142761681 -4.68359103e-05
      -0.00713139866 -7.85039811e-06 -0.00596259441 -0.000635460776
      -0.0100769158 -0.00792005844 -0.00265764771 -0.0141188856
      -0.0176169258 -0.00226277602 -1.67100271e-08 0.749092221
      0.656703889 -7.82243296e-05 -5.66851995e-05 0.115634933
      -0.00374953356 0.299580157 -9.44901313e-09 -0.000141570636
      0.166930437 -2.93170888e-06 -2.413476e-08 0.296413302 0.446146697
      -0.000196388515 -0.00148095097 0.0148406401 -1.89746121e-08
      0.105203688 -2.65838498e-05 -0.000204989701 -2.48895071e-06
      -2.99913995e-06 0.461719245 -0.0019691356 -0.00333598419
      0.415302753 -1.21765197e-06 -0.000249085046 -4.59303556e-06
      0.0669203624 0.49449715 0.268741459 0.313221663 -0.000365840155
      0.458539069 0.280234545 -2.78252246e-05 -0.000345347769
      0.216431737 0.315664887 0.560432613 -0.000300092943 0.67890507
      0.442482144 0.175887316 -0.0016404771 0.0488539897 0.488205403
      0.15711695 -0.00206462387 -1.54797981e-05 -0.00323924166
      0.149066389 -0.00388662424 -0.00194482133 -0.000122272162
      -3.06934498e-06 0.324420899 -1.93862817e-07 -4.386184e-07
      -0.000228404693 0.98894316 -1.38940477e-05 -1.70561834e-05
      -0.000230800768 -0.000461287331 0.0776792392 -3.89600068e-08
      -2.75526241e-10 -4.58528682e-09 -2.05014797e-13 -0.000148940278
      -7.94458288e-07 -2.15907139e-10 -9.19401718e-05 0.0608145222
      -1.83485263e-05 0.00735978782 -0.000142355653 -3.8070586e-05
      -1.50493952e-05 0.376016378 -5.77372589e-07 -7.48355615e-06
      0.305221558 -0.000302776025 0.358038962 -7.00606688e-05
      0.0148547105 -0.00104157638 0.0382254645 -5.15287866e-08
      0.0688080713 -2.15392583e-06 -0.000119040888 -3.14437943e-06
      -2.0045984e-06 -0.000216120388 -1.93768642e-07 -3.37725623e-06
      0.386776268 -4.69417705e-09 -6.74388823e-10 -1.37042226e-08
      -7.21301907e-10 0.169480532 0.297863394 -2.28202261e-05
      0.188422233 -8.81783199e-05 -9.57759316e-10 -1.30951875e-07
      -4.02619626e-05 -3.24201666e-09 -0.000708245498 -7.85334032e-06
      -1.05786366e-10 -2.92616551e-06 -0.000480251911 -0.000314083882
      -1.37243433e-07 -0.000206432567 -9.31617894e-09 -2.84426587e-05
      -0.000156815266 -5.92003198e-06</_>
    <_>
      -2.2968781 -2.3870151 -0.00601710565 -0.0159128252 -5.90623408e-08
      -0.000162859593 -0.0110248132 -0.000528501696 -0.00161776133
      -3.02284548e-06 -1.41411374e-05 -2.46727382e-07 -9.01450185e-05
      -0.000234346764 -0.000183419615 4.94752455 0.570795774
      -0.00277230586 1.1911912 -0.00014157113 -0.000881006301
      -0.000657157565 -0.00450610043 -0.00150388118 -1.18287253e-05
      -0.00059081841 1.93504775 -8.0146574e-06 -4.63110555e-05
      -1.56635451e-05 -0.00664491113 -0.000186899138 -0.0118546067
      -0.00109722407 -8.25644092e-05 -0.00073118112 -0.000176969741
      -5.69759686e-05 -0.00615358446 -0.000229129277 -0.000130495027
      -0.000542359543 -0.00145961635 -0.000201006376 -0.000433957524
      -0.00176952034 -0.000419195509 2.14905024 1.04119432 -0.0158500858
      -0.00176620728 -0.000908034272 -4.01165789e-06 -0.00897512212
      0.832505107 -0.0162279326 -0.0488806851 -0.00316047389
      -0.00584424892 -0.00452876417 -0.000696589414 -0.000631071627
      -0.000903561595 2.12251878 -0.020672705 -2.28437366e-05
      -3.69272748e-05 -2.06212226e-05 -0.00428640284 -0.0013559286
      -0.000471123582 4.286057 -0.00159514823 -0.000105564912
      -4.00279805e-06 -0.000824970135 -1.63400491e-05 -0.00229157484
      3.24083447 -0.0016267082 -8.81230244e-06 -3.22327026e-07
      -0.000370137277 0.649401784 -0.00943883136 -0.000571650802
      -0.00421989989 -0.00860023685 -7.76396064e-06 -0.00790143479
      -0.00507015502 -0.000437925919 -0.00472493935 -0.00505648088
      2.60047483 -0.0189343896 -0.000596876373 -0.00401106058
      -0.00585601712 -0.00204149215 -5.67121315e-05 -0.00712480536
      2.48566628 -9.89273303e-07 -9.5050782e-05 -0.000759540184
      3.18633127 -0.000118135147 -2.68004078e-05 -0.000404194987
      -0.00570205366 -0.00175982015 -0.00324699911 -1.63368222e-05
      -5.20318208e-05 -0.00066743762 -6.25305802e-07 -2.3872883e-06
      -0.000138808507 -4.53438988e-05 -0.00705624791 -7.82097595e-06
      -0.00578276999 -0.000639456499 -0.0093261078 -0.00778468791
      -0.00252133748 -0.0142670656 -0.0166690443 -0.00201852527
      -1.67155783e-08 0.746450067 0.648229837 -7.82222487e-05
      -5.63558788e-05 0.109872028 -0.00379261258 0.294333577
      -9.46843226e-09 -0.00014185271 0.171939135 -2.94451866e-06
      -2.41558258e-08 0.299444526 0.457175076 -0.000195202156
      -0.00153538433 0.0265496895 -1.90220941e-08 0.105255887
      -2.65912513e-05 -0.000204679847 -2.51735878e-06 -3.00296597e-06
      0.445778936 -0.00195370032 -0.00329110911 0.411356211
      -1.21949336e-06 -0.000286711962 -4.59558805e-06 0.0624809116
      0.492714584 0.260004193 0.306376219 -0.000374680327 0.458098114
      0.279594183 -2.78367188e-05 -0.000344360014 0.209684581
      0.309061408 0.560866237 -0.000299636478 0.668893814 0.433943629
      0.176670074 -0.00170304428 0.0491690747 0.484165877 0.153749526
      -0.00206131372 -1.54901518e-05 -0.00323086255 0.146332204
      -0.00387587305 -0.00195343955 -0.000122207362 -3.0793185e-06
      0.312980205 -1.94284695e-07 -4.39474292e-07 -0.000278289896
      0.98316139 -1.38993555e-05 -1.70676503e-05 -0.000230597376
      -0.000461202784 0.0798883438 -3.90042345e-08 -2.74390066e-10
      -4.58906557e-09 -2.05512446e-13 -0.000148938227 -7.94782466e-07
      -2.15869447e-10 -9.19570011e-05 0.0628512949 -1.83551856e-05
      0.00765871629 -0.00014235139 -3.80794336e-05 -1.50563947e-05
      0.372643828 -5.77633955e-07 -7.48590446e-06 0.302389264
      -0.000302304805 0.355299592 -7.0458118e-05 0.0157326423
      -0.00103897543 0.0375687778 -5.15766736e-08 0.0706898943
      -2.1506346e-06 -0.000119037832 -3.14692898e-06 -2.00304544e-06
      -0.000215925305 -1.94258448e-07 -3.37920869e-06 0.383480906
      -4.70073047e-09 -6.74290734e-10 -1.36794212e-08 -7.21982363e-10
      0.171756983 0.301112235 -2.28308745e-05 0.185780406
      -8.81942979e-05 -9.6139896e-10 -1.31050811e-07 -4.0273153e-05
      -3.24468874e-09 -0.000706561317 -5.5768528e-06 -1.05897048e-10
      -2.92759478e-06 -0.000469416234 -0.000313752651 -1.37381974e-07
      -0.000206276731 -9.32381816e-09 -2.84488742e-05 -0.000158664625
      -5.92210381e-06</_>
    <_>
      -2.25152183 -2.33303905 -0.00605339091 -0.0164458286
      -6.00393264e-08 -0.000167659964 -0.0111006238 -0.000529772486
      -0.00163206598 -2.81261646e-06 -1.39597742e-05 -2.45646248e-07
      -8.95726262e-05 -0.000237371773 -0.000182563366 5.0612998
      0.506939709 -0.00278139696 1.26022077 -0.000139248092
      -0.000894214434 -0.000662439154 -0.00452518556 -0.00155764935
      -1.14174663e-05 -0.00133730739 1.86484718 -7.9546171e-06
      -4.57705464e-05 -1.56703372e-05 -0.00558361877 -0.000191653089
      -0.0120065389 -0.00108592212 -8.33581216e-05 -0.000737622788
      -0.000179041919 -5.51804878e-05 -0.00579616288 -0.000222920004
      -0.000133361609 -0.000560185581 -0.0014520461 -0.000210628903
      -0.000453495624 -0.00182340737 -0.000419401505 2.14726019
      1.02036572 -0.0161982086 -0.00176019978 -0.000988777843
      -3.99934697e-06 -0.00907420646 0.903829038 -0.0166989639
      -0.0482596047 -0.00318664894 -0.00532751391 -0.00450311136
      -0.000685724255 -0.000668043154 -0.000908037939 2.08432221
      -0.021375617 -2.30739897e-05 -3.75749405e-05 -1.9377987e-05
      -0.00432024756 -0.00134512596 -0.000473744818 4.37711859
      -0.00157692342 -0.000106098014 -4.23500205e-06 -0.000828771619
      -1.64074427e-05 -0.00285553723 3.22890735 -0.00164332241
      -8.68134885e-06 -2.93572214e-07 -0.000375052157 0.658260465
      -0.0101257022 -0.000575381098 -0.00416430598 -0.00780394953
      -7.78593494e-06 -0.00794682559 -0.00515253888 -0.000441496581
      -0.00486886362 -0.00514425756 2.52538347 -0.0191984735
      -0.000589297619 -0.00446706032 -0.00588001776 -0.00205508433
      -5.32743688e-05 -0.0072815693 2.44577765 -9.49237688e-07
      -9.27228612e-05 -0.000767763995 3.28806734 -0.000115052702
      -2.66586285e-05 -0.000400358433 -0.00441824785 -0.00178707507
      -0.00299973926 -1.60331128e-05 -5.26332333e-05 -0.000657559314
      -6.50774268e-07 -2.36204937e-06 -0.000138940944 -4.63927208e-05
      -0.00704383105 -7.77852529e-06 -0.00588241871 -0.000619586732
      -0.0101474877 -0.00793384109 -0.00256200484 -0.0144669758
      -0.0173581503 -0.00219752081 -1.67120557e-08 0.745374322
      0.647546768 -7.82857242e-05 -5.63555514e-05 0.108421892
      -0.00380348484 0.296260446 -9.46152134e-09 -0.000141891127
      0.173788846 -2.95212203e-06 -2.41207001e-08 0.298956931 0.4551965
      -0.000195051907 -0.0015158829 0.0229095295 -1.90255367e-08
      0.106276408 -2.65756189e-05 -0.000204834228 -2.51775896e-06
      -3.00242527e-06 0.442244649 -0.00193190342 -0.00328864926
      0.413050413 -1.21908408e-06 -0.000269443466 -4.59343164e-06
      0.0637267753 0.496751875 0.260456175 0.308006525 -0.000375624426
      0.455127656 0.277845591 -2.78865846e-05 -0.00034476447 0.208852351
      0.308810979 0.558762491 -0.000299485459 0.668511212 0.433922648
      0.178052098 -0.00170277944 0.049872946 0.485137016 0.15653345
      -0.00205628364 -1.548398e-05 -0.0032318586 0.145435601
      -0.0038737529 -0.00195548264 -0.000122193931 -3.07992059e-06
      0.314294845 -1.94159611e-07 -4.3927497e-07 -0.000264233939
      0.983135283 -1.39055628e-05 -1.70755902e-05 -0.000230554841
      -0.000460734329 0.0803657025 -3.9040799e-08 -2.74839873e-10
      -4.59282301e-09 -2.05789758e-13 -0.000148956547 -7.95116364e-07
      -2.15990864e-10 -9.19743688e-05 0.0630938709 -1.83614466e-05
      0.00733941421 -0.000142363657 -3.80890961e-05 -1.50619662e-05
      0.371668458 -5.77904984e-07 -7.48803723e-06 0.301715881
      -0.000302139291 0.353861898 -7.04787453e-05 0.0155853201
      -0.00103724643 0.0384083614 -5.16179099e-08 0.0710183382
      -2.14708962e-06 -0.000119053759 -3.14974795e-06 -1.98458088e-06
      -0.000215863212 -1.94538273e-07 -3.3806964e-06 0.382263899
      -4.70649786e-09 -6.74397149e-10 -1.36692435e-08 -7.22623794e-10
      0.170823783 0.30066514 -2.28402896e-05 0.186242744 -8.82175664e-05
      -9.64320179e-10 -1.31154721e-07 -4.02833284e-05 -3.24678795e-09
      -0.000705576793 -7.87332647e-06 -1.06017771e-10 -2.92884829e-06
      -0.000467731938 -0.000313535187 -1.37503676e-07 -0.000206250174
      -9.33081346e-09 -2.84553244e-05 -0.000157463248 -5.92421657e-06</_>
    <_>
      -2.04936671 -2.38200092 -0.00615646224 -0.0187435951
      -6.01357399e-08 -0.000165394507 -0.0111904545 -0.000535598781
      -0.00166402489 -3.07810683e-06 -1.42328181e-05 -2.5298317e-07
      -9.20153398e-05 -0.000235701082 -0.00018773794 5.29007769
      0.503477275 -0.00277136941 1.18462586 -0.000142539284
      -0.00088427827 -0.000678457087 -0.00457148859 -0.00141015137
      -1.19611223e-05 -0.00133499352 1.86797297 -7.81656126e-06
      -4.69393053e-05 -1.54362042e-05 -0.00657535763 -0.000191620231
      -0.0125034498 -0.00109786843 -8.31099605e-05 -0.000752793159
      -0.000178820454 -5.70314187e-05 -0.00692442525 -0.000223447118
      -0.00013514515 -0.00055746251 -0.00147287245 -0.000207291916
      -3.52779389e-05 -0.0017523272 -0.000416794966 2.0680747
      0.922845364 -0.017798325 -0.00177707686 -0.000771030027
      -3.80424103e-06 -0.00914165098 1.11400056 -0.0166670661
      -0.0508409217 -0.00325515913 -0.00582656683 -0.00462874537
      -0.00070716039 -0.000606914458 -0.000920486054 2.11647725
      -0.021887878 -2.28501522e-05 -3.65564956e-05 -2.06609329e-05
      -0.00435040565 -0.00138358073 -0.000467561622 4.42110825
      -0.001614557 -0.000108367276 -4.10211533e-06 -0.000824154122
      -1.58256553e-05 -0.00257541565 3.34381557 -0.00165944709
      -8.68911502e-06 -3.34289751e-07 -0.000374177791 0.778578401
      -0.0127520561 -0.000570717675 -0.00480592484 -0.00804287102
      -7.93747222e-06 -0.00786571577 -0.00523274392 -0.000443883793
      -0.00481430581 -0.00506662112 2.49404263 -0.0191105716
      -0.000583440997 -0.00579559011 -0.00587712042 -0.00210949196
      -5.64046131e-05 -0.00704054208 2.43147302 -9.94283823e-07
      -9.41059552e-05 -0.000747248298 3.33033848 -0.000116943891
      -2.65188974e-05 -0.000410397653 -0.00471648341 -0.00177559769
      -0.00278955209 -1.60838463e-05 -5.11190556e-05 -0.000674222421
      -5.88153966e-07 -2.37706513e-06 -0.000139645592 -4.63451215e-05
      -0.00707090786 -7.96235963e-06 -0.00598021969 -0.000629614515
      -0.00986573659 -0.00796405599 -0.00260128407 -0.0141622908
      -0.0177950133 -0.00205160538 -1.65928622e-08 0.740258098
      0.636545062 -7.89270562e-05 -5.59745022e-05 0.0843414217
      -0.0038698141 0.305926561 -9.39277989e-09 -0.000142987861
      0.199077576 -3.03156253e-06 -2.37785063e-08 0.301482767
      0.459813833 -0.000195037675 -0.00147144077 0.0147263482
      -1.90401774e-08 0.111960247 -2.64396731e-05 -0.000206570316
      -2.56042949e-06 -2.99144904e-06 0.404794335 -0.00178346632
      -0.00331079657 0.41118899 -1.21494372e-06 -0.000240210662
      -4.56974703e-06 0.0698165521 0.517147303 0.248044521 0.313879848
      -0.000419989286 0.425642431 0.258382112 -2.81810317e-05
      -0.00034895711 0.186472982 0.308672786 0.575988054 -0.000297200779
      0.652587712 0.411260813 0.190716431 -0.00172520394 0.0514855348
      0.47602424 0.172243178 -0.00202563195 -1.54383761e-05
      -0.00323943305 0.139573991 -0.00394839421 -0.00197107857
      -0.000122575104 -3.08239942e-06 0.317590147 -1.92901027e-07
      -4.37126744e-07 -0.000290386524 0.968021631 -1.3901833e-05
      -1.70701387e-05 -0.000230604666 -0.000460970274 0.0798196346
      -3.9016939e-08 -2.7479044e-10 -4.59048533e-09 -2.05585115e-13
      -0.000148948136 -7.94910136e-07 -2.15938378e-10 -9.19636514e-05
      0.0626827106 -1.83574939e-05 0.00744571537 -0.000142358433
      -3.80832025e-05 -1.50582937e-05 0.372621357 -5.77737865e-07
      -7.48667981e-06 0.302447408 -0.00030228676 0.354938686
      -7.04107661e-05 0.0155256782 -0.00103844819 0.0381108522
      -5.15912966e-08 0.0705902278 -2.14926126e-06 -0.000119046621
      -3.14803287e-06 -1.99366536e-06 -0.000215921173 -1.94333765e-07
      -3.37970346e-06 0.383318633 -4.70279771e-09 -6.74359346e-10
      -1.36776652e-08 -7.22219229e-10 0.170929849 0.300402731
      -2.28342542e-05 0.186413109 -8.82041641e-05 -9.62398827e-10
      -1.31090815e-07 -4.02768565e-05 -3.24539906e-09 -0.000706290302
      -7.12769088e-06 -1.05944156e-10 -2.92804316e-06 -0.000470112864
      -0.000313687022 -1.37425531e-07 -0.000206285506 -9.3263699e-09
      -2.8451348e-05 -0.00015775967 -5.92290871e-06</_>
    <_>
      -2.05831695 -2.41034102 -0.00603087991 -0.0183954909
      -5.97419216e-08 -0.000171357504 -0.0110689467 -0.000540002249
      -0.00165209046 -2.99010821e-06 -1.41790142e-05 -2.42848273e-07
      -9.23176849e-05 -0.00024515597 -0.000183330529 5.26620626
      0.526034117 -0.00275671948 1.22252524 -0.0001435757
      -0.000887408678 -0.000681486214 -0.00452373456 -0.00144205568
      -1.18700946e-05 -0.00142733927 1.87615132 -8.36658182e-06
      -4.64596778e-05 -1.5809137e-05 -0.00556208799 -0.000192832667
      -0.0127770398 -0.00107848144 -8.46073235e-05 -0.000744001649
      -0.000178498231 -5.70446464e-05 -0.00655999407 -0.000225242387
      -0.00013738648 -0.00058410049 -0.00145631097 -0.00020657861
      -1.96623805e-05 -0.00181231613 -0.000403553364 2.04554367
      0.908726215 -0.0174830146 -0.00178465969 -0.000806099619
      -4.06010804e-06 -0.00908694603 1.13205612 -0.0172192585
      -0.04949788 -0.00320356572 -0.0049878587 -0.00451688794
      -0.000717667339 -0.000626126537 -0.000923908548 2.11951089
      -0.0216558222 -2.26954835e-05 -3.7786438e-05 -2.01186667e-05
      -0.00428863568 -0.00136411993 -0.00047357782 4.44376802
      -0.00156029093 -0.000108323766 -4.50172138e-06 -0.000840010005
      -1.62696306e-05 -0.00249120756 3.32010436 -0.00165178685
      -8.8249426e-06 -3.19547723e-07 -0.000374983123 0.715264618
      -0.0126880212 -0.000590462121 -0.00478410814 -0.00647592451
      -7.77366768e-06 -0.0078957472 -0.00525495876 -0.000449100131
      -0.00492450409 -0.00520772068 2.52988434 -0.0193010736
      -0.00056546327 -0.0060832263 -0.00585702667 -0.0020876904
      -5.55385232e-05 -0.00733015174 2.45113182 -1.00239606e-06
      -9.40210375e-05 -0.000761533389 3.33205724 -0.000115292656
      -2.66326861e-05 -0.000399014156 -0.00352652208 -0.00181813398
      -0.00254238606 -1.60714389e-05 -5.30276047e-05 -0.000649445341
      -6.53416635e-07 -2.36211849e-06 -0.00014298012 -4.65766316e-05
      -0.00706305308 -7.71356918e-06 -0.00597175118 -0.000621447456
      -0.0101525886 -0.00801801123 -0.00268420088 -0.0142257651
      -0.0179678109 -0.00240909867 -1.67075704e-08 0.746617973
      0.644491792 -7.83013238e-05 -5.64509792e-05 0.112272382
      -0.00385547639 0.302785784 -9.46748013e-09 -0.000141846249
      0.170735568 -2.9499945e-06 -2.41337617e-08 0.289941907 0.455341101
      -0.000195212138 -0.00154366461 0.0246106908 -1.89779019e-08
      0.106877863 -2.66108545e-05 -0.000204849886 -2.51756865e-06
      -3.00384932e-06 0.445483983 -0.00197411608 -0.00333086099
      0.406831384 -1.21944674e-06 -0.000307373179 -4.59520015e-06
      0.0662810504 0.49369669 0.257491678 0.309903324 -0.000366214837
      0.449423254 0.271316499 -2.79077158e-05 -0.000345567823
      0.202811733 0.302745998 0.561529279 -0.000300006737 0.66621089
      0.441089898 0.181370765 -0.00167346804 0.0567968003 0.48187384
      0.149917573 -0.00205188082 -1.5477186e-05 -0.00323390961
      0.148037732 -0.00394768454 -0.00195330963 -0.00012239677
      -3.08226299e-06 0.311748087 -1.94192992e-07 -4.39327323e-07
      -0.000238262714 0.979026735 -1.39081894e-05 -1.70775529e-05
      -0.000230586695 -0.000460442097 0.0800315812 -3.90523915e-08
      -2.7548383e-10 -4.59424365e-09 -2.05829237e-13 -0.000148969601
      -7.95246137e-07 -2.16084386e-10 -9.19811209e-05 0.0626508743
      -1.83637057e-05 0.00703242794 -0.000142373261 -3.80930069e-05
      -1.50636561e-05 0.372012198 -5.78010884e-07 -7.48878256e-06
      0.302103788 -0.000302167697 0.353700817 -7.0373957e-05 0.01522227
      -0.00103685004 0.0391774401 -5.16315843e-08 0.0706805512
      -2.14566967e-06 -0.000119065466 -3.15089824e-06 -1.97255281e-06
      -0.000215879307 -1.94581915e-07 -3.38112295e-06 0.382419676
      -4.70845407e-09 -6.74497791e-10 -1.36697258e-08 -7.2285572e-10
      0.169507578 0.299390793 -2.28435001e-05 0.187348142
      -8.82285822e-05 -9.65215352e-10 -1.31195662e-07 -4.028689e-05
      -3.24741434e-09 -0.000705411425 -1.01193227e-05 -1.06066614e-10
      -2.92927189e-06 -0.000469824736 -0.000313486526 -1.37544873e-07
      -0.000206278666 -9.33327726e-09 -2.84578418e-05 -0.000156092952
      -5.92503147e-06</_>
    <_>
      -2.15076542 -2.32342362 -0.0060205292 -0.0171769299
      -5.95753562e-08 -0.000166427606 -0.0110614942 -0.000548281707
      -0.00163348578 -3.12156726e-06 -1.43289226e-05 -2.43201669e-07
      -9.15829733e-05 -0.000243702147 -0.000181151758 5.13909388
      0.493823409 -0.00280619878 1.23631048 -0.000142253964
      -0.000890941476 -0.000666259381 -0.00454813009 -0.00178626319
      -1.20746363e-05 -0.00172180147 1.84974992 -8.26386804e-06
      -4.65164703e-05 -1.60367745e-05 -0.00621307641 -0.000190605962
      -0.0122234561 -0.00108234608 -8.41789515e-05 -0.00074146915
      -0.000175022622 -5.74774203e-05 -0.00591541035 -0.000230869642
      -0.000134683622 -0.00056024926 -0.00147124357 -0.000195087705
      -0.000506145356 -0.00185170164 -0.000413026515 2.1286273
      0.942258477 -0.0163922682 -0.00179539958 -0.000868842297
      -4.25454618e-06 -0.00907034893 0.989616454 -0.0165652856
      -0.0499615893 -0.00315419119 -0.00552373379 -0.00452196226
      -0.000723588106 -0.000653315976 -0.000932885159 2.06313753
      -0.0216518603 -2.24968371e-05 -3.82743383e-05 -2.05723372e-05
      -0.00427792314 -0.00134154956 -0.00047493368 4.37361813
      -0.00159145461 -0.000106997824 -4.2754541e-06 -0.000823566166
      -1.62415508e-05 -0.0030700895 3.36347318 -0.00165655965
      -8.89325111e-06 -3.31858956e-07 -0.000381769874 0.701229513
      -0.0110038938 -0.000583929941 -0.00498020975 -0.00783138815
      -7.80921619e-06 -0.00796014071 -0.0052170027 -0.000446740451
      -0.00487726834 -0.00515444763 2.47632766 -0.0190676022
      -0.000581111002 -0.00499709463 -0.0059092748 -0.00204836996
      -5.72651697e-05 -0.00732941739 2.40494633 -1.02323486e-06
      -9.60030302e-05 -0.000763575197 3.30307674 -0.000118911565
      -2.68482599e-05 -0.000402906328 -0.00504617579 -0.00181147899
      -0.00257199956 -1.64529138e-05 -5.3247004e-05 -0.000657828874
      -6.67091626e-07 -2.39417045e-06 -0.00013828541 -4.62658245e-05
      -0.00704237306 -7.72475414e-06 -0.00592468912 -0.000628615322
      -0.0103828451 -0.00788198039 -0.00257848226 -0.0142677389
      -0.0177008249 -0.00218349043 -1.66871388e-08 0.744319201
      0.639996111 -7.8531164e-05 -5.6164281e-05 0.105644614
      -0.00390020921 0.302727878 -9.43480138e-09 -0.000141882309
      0.178368866 -2.98539658e-06 -2.39860913e-08 0.298149198
      0.459610254 -0.000194973603 -0.00153498433 0.0221110359
      -1.90411669e-08 0.115519017 -2.65578128e-05 -0.000205303237
      -2.53856342e-06 -2.99937892e-06 0.434575915 -0.00186329929
      -0.00333721936 0.412894666 -1.21735036e-06 -0.000241388901
      -4.58396971e-06 0.0696304664 0.502585411 0.257034183 0.307703972
      -0.000363076892 0.446347654 0.273056388 -2.80618769e-05
      -0.00034621224 0.199871838 0.305942804 0.565007627 -0.000299028412
      0.66269958 0.43115741 0.180366665 -0.00170829531 0.0515173338
      0.484762996 0.157004535 -0.00204497506 -1.54567606e-05
      -0.00323639647 0.151280493 -0.00394878117 -0.00196825853
      -0.00012250377 -3.08228914e-06 0.31317547 -1.93746885e-07
      -4.38307239e-07 -0.000247884978 0.982118666 -1.38987252e-05
      -1.70657986e-05 -0.000230638936 -0.000461179909 0.0794375837
      -3.89976229e-08 -2.74683193e-10 -4.58855709e-09 -2.05426198e-13
      -0.000148940308 -7.9473989e-07 -2.15888682e-10 -9.1954782e-05
      0.0624185801 -1.83542561e-05 0.0075641945 -0.000142353427
      -3.80783167e-05 -1.50553296e-05 0.373309672 -5.77599792e-07
      -7.48557022e-06 0.30296123 -0.000302395114 0.355784208
      -7.03714395e-05 0.0155243203 -0.00103940186 0.0377881676
      -5.15696641e-08 0.0702990443 -2.15105251e-06 -0.000119039927
      -3.14661156e-06 -2.00173758e-06 -0.000215963271 -1.94174092e-07
      -3.37890583e-06 0.384108573 -4.69978101e-09 -6.74322209e-10
      -1.36840548e-08 -7.21887661e-10 0.171168268 0.300348788
      -2.28293375e-05 0.186408997 -8.8192799e-05 -9.60847069e-10
      -1.31037993e-07 -4.02715596e-05 -3.24427951e-09 -0.000706849503
      -6.28495582e-06 -1.05883101e-10 -2.92738741e-06 -0.000471681793
      -0.000313807162 -1.37361909e-07 -0.000206309109 -9.32273636e-09
      -2.84480629e-05 -0.000158147232 -5.9218296e-06</_>
    <_>
      -1.94288099 -2.29589796 -0.00589372125 -0.0195349716
      -5.84013442e-08 -0.000167183171 -0.0108550424 -0.000518746616
      -0.00162061746 -2.89326704e-06 -1.38869364e-05 -2.45150375e-07
      -9.02157626e-05 -0.000239030807 -0.000179801209 5.23341656
      0.506119549 -0.00265966798 1.3840704 -0.000140575808
      -0.000872305827 -0.000657447788 -0.00436902372 -0.00111292396
      -1.15233343e-05 -0.00122538686 1.85394788 -8.52814082e-06
      -4.70765335e-05 -1.53635501e-05 -0.00421287259 -0.000189991071
      -0.0130174989 -0.0010566226 -8.2206956e-05 -0.000732431305
      -0.000184703676 -5.5244509e-05 -0.00713596679 -0.000211693885
      -0.000136508635 -0.000584796129 -0.00139496638 -0.000223505733
      0.00516431406 -0.00175785297 -0.000392430491 2.18397236
      0.884992599 -0.0171178002 -0.00169667869 -0.000699475408
      -3.80934102e-06 -0.00895379018 1.21380281 -0.0169936102
      -0.0475690961 -0.0031310448 -0.00446240557 -0.00438971259
      -0.000708696025 -0.000586600625 -0.00088744628 2.11348033
      -0.0214015376 -2.41669968e-05 -3.62458595e-05 -2.01343883e-05
      -0.00415206933 -0.00132524141 -0.000486053614 4.4409585
      -0.0015355642 -0.000106369123 -4.15687509e-06 -0.000846799347
      -1.63891928e-05 -0.00245123007 3.25495219 -0.00161198864
      -8.65642141e-06 -3.1377661e-07 -0.000358526449 0.784163237
      -0.0137659647 -0.000552997168 -0.00423448673 -0.00521000847
      -7.50355821e-06 -0.00773307309 -0.00525931129 -0.000427745632
      -0.00475876359 -0.00517931255 2.4936924 -0.0188357346
      -0.000558604021 -0.00638183346 -0.00569462962 -0.0020585719
      -5.36736479e-05 -0.00709597813 2.40908933 -9.88534907e-07
      -9.00361847e-05 -0.000761483272 3.48660803 -0.000110620298
      -2.65613944e-05 -0.000381937949 -0.00299505703 -0.00175433338
      -0.00241980003 -1.53499714e-05 -5.03980991e-05 -0.00062313641
      -6.27643431e-07 -2.21751475e-06 -0.000140340795 -4.52655586e-05
      -0.00688750623 -7.60653847e-06 -0.00588774867 -0.000598450075
      -0.00990792643 -0.00810964033 -0.0025106403 -0.0143664591
      -0.0181008093 -0.00233545015 -1.67933933e-08 0.739915073
      0.62830478 -7.83563737e-05 -5.61874658e-05 0.0947644114
      -0.00395330461 0.287574202 -9.56794199e-09 -0.000142234901
      0.177528173 -2.98924601e-06 -2.43015634e-08 0.291849971
      0.473424196 -0.000193445347 -0.001643511 0.0445848033
      -1.91573193e-08 0.102878228 -2.66943534e-05 -0.000203759701
      -2.55423652e-06 -3.02342528e-06 0.406932712 -0.00188654428
      -0.00312765851 0.397567213 -1.22870824e-06 -0.000334896962
      -4.61641002e-06 0.059249185 0.491856545 0.241354972 0.301845372
      -0.000392676477 0.442660391 0.264322549 -2.8101671e-05
      -0.000343095569 0.186264187 0.289463878 0.56201762 -0.000298324827
      0.646587908 0.416348726 0.181680128 -0.00177650712 0.0624025278
      0.465749234 0.150725812 -0.00202545337 -1.55017424e-05
      -0.00319042918 0.13712734 -0.00386174978 -0.00194666919
      -0.000122125319 -3.11751955e-06 0.289065659 -1.95947095e-07
      -4.43260319e-07 -0.000350503396 0.950880289 -1.39264557e-05
      -1.71087704e-05 -0.000230181031 -0.000459594652 0.0844617784
      -3.91817494e-08 -2.74252954e-10 -4.60625094e-09 -2.0708271e-13
      -0.000148993757 -7.96293534e-07 -2.16203944e-10 -9.20355378e-05
      0.0664370656 -1.83843204e-05 0.00705237314 -0.000142384582
      -3.81224236e-05 -1.5083805e-05 0.364878237 -5.78858135e-07
      -7.49593892e-06 0.296332389 -0.000301127031 0.346931636
      -7.10724344e-05 0.0164737701 -0.00102987746 0.0393425673
      -5.17741299e-08 0.0743365213 -2.13480394e-06 -0.000119084325
      -3.15942566e-06 -1.94215568e-06 -0.000215458102 -1.95826047e-07
      -3.38664336e-06 0.375050187 -4.72814721e-09 -6.74492739e-10
      -1.36127287e-08 -7.24964699e-10 0.171921328 0.30417186
      -2.28755689e-05 0.183610976 -8.82904569e-05 -9.75728276e-10
      -1.31518334e-07 -4.03210106e-05 -3.25506488e-09 -0.000701099634
      -9.76391129e-06 -1.06434341e-10 -2.93356061e-06 -0.000449091342
      -0.000312602671 -1.37960882e-07 -0.000205976961 -9.35664612e-09
      -2.84779944e-05 -0.000157386254 -5.93169352e-06</_>
    <_>
      -1.88870168 -2.276371 -0.00594332675 -0.0195321478 -5.9445135e-08
      -0.000161611068 -0.0109024784 -0.000523394905 -0.00166120823
      -2.90956314e-06 -1.39870363e-05 -2.5092217e-07 -8.8763205e-05
      -0.000234146748 -0.000178516057 5.26422071 0.481555223
      -0.00268591661 1.42012191 -0.00013944658 -0.000892811979
      -0.000659615325 -0.00444078818 -0.00127270701 -1.15377607e-05
      -0.00135506631 1.85773134 -8.25946245e-06 -4.65057565e-05
      -1.53118272e-05 -0.00402223365 -0.000188568287 -0.0122989984
      -0.00104318932 -8.12319267e-05 -0.000741529919 -0.000184397315
      -5.47814998e-05 -0.0069181351 -0.000211805775 -0.000136093091
      -0.000569699565 -0.0013940325 -0.000218728703 0.000104036182
      -0.00175921433 -0.000400996185 2.23506403 0.898194075
      -0.0169345811 -0.00168663927 -0.00076141028 -3.77264428e-06
      -0.00900789537 1.25157452 -0.0168682989 -0.0484328493
      -0.00313777407 -0.0044251848 -0.00445491262 -0.00069575035
      -0.000594307727 -0.000900938467 2.10987306 -0.0218489934
      -2.39536166e-05 -3.6226269e-05 -1.99593014e-05 -0.00424722163
      -0.00132909277 -0.000492696476 4.43939495 -0.00156551937
      -0.000106723215 -4.0649752e-06 -0.000838773849 -1.61178596e-05
      -0.00279086991 3.25275731 -0.00162817084 -8.69322594e-06
      -3.17119941e-07 -0.000366306223 0.843424439 -0.013721684
      -0.000555457314 -0.00429980503 -0.00662750192 -7.6041083e-06
      -0.00779578555 -0.00522242533 -0.000427798484 -0.00477774208
      -0.00516691664 2.49743652 -0.0188365448 -0.000581487082
      -0.00624509761 -0.00573639991 -0.00206818781 -5.35287145e-05
      -0.00703675533 2.42253566 -9.94332368e-07 -9.11923926e-05
      -0.000754506153 3.49385953 -0.000111643676 -2.71777153e-05
      -0.000385198102 -0.00232433248 -0.00174398639 -0.00294296327
      -1.58639741e-05 -4.98417285e-05 -0.000619926141 -6.00933163e-07
      -2.28130693e-06 -0.000136013972 -4.53568609e-05 -0.00687179854
      -7.59336808e-06 -0.00595121412 -0.000585032452 -0.0101530515
      -0.00811832491 -0.00249300827 -0.014305857 -0.0183240119
      -0.00214161747 -1.67670944e-08 0.738096774 0.616670549
      -7.89266705e-05 -5.5937031e-05 0.0907896161 -0.00408418011
      0.315544009 -9.56782298e-09 -0.000142054967 0.191268116
      -3.0662959e-06 -2.41068836e-08 0.279345095 0.475569606
      -0.00019246494 -0.00167731906 0.0387355909 -1.91843572e-08
      0.106789231 -2.65563176e-05 -0.00020532863 -2.62543313e-06
      -3.0270171e-06 0.393321544 -0.00190506515 -0.00314792665
      0.379425526 -1.22916356e-06 -0.000373691233 -4.61533682e-06
      0.0505640954 0.501175344 0.224046677 0.304279983 -0.000443487283
      0.411873937 0.212183818 -2.84678863e-05 -0.000343503052
      0.167356804 0.277808249 0.562269747 -0.0002973995 0.616623759
      0.420940191 0.196521267 -0.00178918219 0.0701865107 0.463637054
      0.142284721 -0.00199378608 -1.5457741e-05 -0.00318581099
      0.127079487 -0.00390926981 -0.00192142662 -0.000122122918
      -3.13237911e-06 0.297056228 -1.96091577e-07 -4.43273422e-07
      -0.00022531554 0.911116302 -1.39242584e-05 -1.71045522e-05
      -0.000230246384 -0.000459665316 0.0837505907 -3.91649024e-08
      -2.74551604e-10 -4.60475036e-09 -2.06906066e-13 -0.000148992607
      -7.96163647e-07 -2.16203583e-10 -9.2028793e-05 0.0658003241
      -1.83817119e-05 0.00699302182 -0.000142384684 -3.81188256e-05
      -1.50811602e-05 0.365987837 -5.78753202e-07 -7.49502533e-06
      0.297250241 -0.00030128489 0.347894967 -7.09507367e-05
      0.0162234735 -0.00103082764 0.0394596979 -5.17557268e-08
      0.0737382472 -2.13613794e-06 -0.000119083707 -3.15838565e-06
      -1.94440872e-06 -0.000215522829 -1.95651552e-07 -3.3859119e-06
      0.376159847 -4.72561723e-09 -6.74511946e-10 -1.36211789e-08
      -7.24697857e-10 0.171325445 0.303236455 -2.28714525e-05
      0.184362307 -8.82833992e-05 -9.74350156e-10 -1.31478501e-07
      -4.03166559e-05 -3.25405747e-09 -0.000701701851 -1.02289578e-05
      -1.06389363e-10 -2.93300923e-06 -0.000452517124 -0.000312723365
      -1.37907406e-07 -0.000206026423 -9.35366984e-09 -2.84754988e-05
      -0.000156944836 -5.93086588e-06</_>
    <_>
      -1.96544802 -2.28715038 -0.0057806191 -0.0186567735
      -5.78458526e-08 -0.000170954532 -0.0106547661 -0.000517429784
      -0.001599657 -2.75348361e-06 -1.35668488e-05 -2.34641547e-07
      -8.793093e-05 -0.000238694891 -0.000175911366 5.12573957
      0.501701653 -0.00262129889 1.36964715 -0.000140035234
      -0.00085882342 -0.000655198237 -0.00430725934 -0.00128437695
      -1.116558e-05 -0.0012310032 1.82788837 -8.53861457e-06
      -4.48129467e-05 -1.52504344e-05 -0.00340788858 -0.000189385115
      -0.0132048409 -0.00103192381 -8.21789072e-05 -0.000725159422
      -0.000182087359 -5.38885397e-05 -0.00698976638 -0.000207693156
      -0.000134800808 -0.000599131105 -0.00137020985 -0.000223457115
      0.00958518311 -0.00173119782 -0.000377185032 2.10648656
      0.890432239 -0.0170853287 -0.00167088339 -0.000805637101
      -3.86610782e-06 -0.00880633667 1.14866459 -0.0170578007
      -0.0460998565 -0.0030804642 -0.00401999988 -0.00432981318
      -0.00069062796 -0.00058171514 -0.000877203827 2.08399534
      -0.0212500989 -2.40961599e-05 -3.64524967e-05 -1.92390162e-05
      -0.00411864556 -0.00130580587 -0.000482296891 4.34070921
      -0.00148641935 -0.000105523904 -4.40619078e-06 -0.000845238974
      -1.64636731e-05 -0.00246156426 3.15825939 -0.00159279874
      -8.48936816e-06 -2.92555455e-07 -0.000358459482 0.725504756
      -0.0130111827 -0.000558302971 -0.00409189286 -0.00421115756
      -7.3691167e-06 -0.00764712552 -0.00512904394 -0.000426129758
      -0.00475792913 -0.00511995144 2.47013402 -0.0187190473
      -0.000532690261 -0.00604590867 -0.00560251717 -0.00203576148
      -5.13961168e-05 -0.00697307149 2.3774333 -9.44685212e-07
      -8.9969064e-05 -0.000760925701 3.39544439 -0.000106433377
      -2.64140308e-05 -0.00037257807 -0.00249687536 -0.00174884824
      -0.00211617933 -1.52336033e-05 -5.04633063e-05 -0.000604534813
      -6.40520852e-07 -2.13975045e-06 -0.000139894953 -4.4892593e-05
      -0.00680673542 -7.38952986e-06 -0.00579027226 -0.000577441126
      -0.0100353193 -0.00789010432 -0.0025256814 -0.0140795363
      -0.0179006234 -0.00246353936 -1.67558127e-08 0.743135393
      0.619599581 -7.85869343e-05 -5.56393788e-05 0.090764761
      -0.00411539944 0.298356712 -9.567799e-09 -0.000142050834
      0.187008351 -3.03849697e-06 -2.41736213e-08 0.286288857
      0.490168482 -0.000192182444 -0.00174603786 0.0568026975
      -1.92408312e-08 0.104255915 -2.65984836e-05 -0.000204361713
      -2.60696447e-06 -3.02531703e-06 0.388282865 -0.0018331568
      -0.00305356947 0.386980593 -1.22807091e-06 -0.000378641096
      -4.61255377e-06 0.0529650673 0.496861398 0.227746934 0.308670938
      -0.000427720021 0.419548333 0.239177272 -2.83150384e-05
      -0.000342498824 0.174012408 0.285446376 0.573179543
      -0.000297615334 0.625222027 0.411629558 0.17526269 -0.00186228333
      0.0721315145 0.462068647 0.152360499 -0.00200935546
      -1.54741501e-05 -0.00318792206 0.129541457 -0.00385644613
      -0.00194041443 -0.00012225844 -3.12780571e-06 0.284003526
      -1.96117554e-07 -4.43369771e-07 -0.000340881699 0.922721684
      -1.39406184e-05 -1.71305946e-05 -0.000229951489 -0.000458776951
      0.0869813561 -3.92754451e-08 -2.74072376e-10 -4.61527261e-09
      -2.07921923e-13 -0.000149021507 -7.97085931e-07 -2.1636859e-10
      -9.20767343e-05 0.0684420466 -1.83996417e-05 0.00677586347
      -0.000142400881 -3.81449318e-05 -1.50982896e-05 0.360637724
      -5.79499954e-07 -7.5012199e-06 0.293005288 -0.00030048794
      0.34244892 -7.14205453e-05 0.0169323962 -0.00102504261
      0.0401728526 -5.18782208e-08 0.07635732 -2.12651366e-06
      -0.000119107441 -3.16596584e-06 -1.91136951e-06 -0.000215203778
      -1.96663194e-07 -3.3905776e-06 0.370482028 -4.74259165e-09
      -6.74584444e-10 -1.35767158e-08 -7.26532556e-10 0.172225475
      0.306029975 -2.28991103e-05 0.182261437 -8.83404355e-05
      -9.8329811e-10 -1.31763372e-07 -4.03461963e-05 -3.26054983e-09
      -0.000698185118 -1.16528008e-05 -1.06715664e-10 -2.93670382e-06
      -0.000437797833 -0.000311991258 -1.38265861e-07 -0.000205810778
      -9.37392031e-09 -2.84932612e-05 -0.000156922237 -5.93672394e-06</_>
    <_>
      -1.90523386 -2.41301346 -0.00595653104 -0.0197110716
      -5.85293201e-08 -0.000164619196 -0.0109657152 -0.000526482414
      -0.00165255507 -2.99900739e-06 -1.40504026e-05 -2.48534178e-07
      -9.0966576e-05 -0.000239119894 -0.000181726282 5.29690981
      0.562433839 -0.00268049771 1.29177165 -0.000143324025
      -0.000882660563 -0.000673010712 -0.0044255713 -0.00110585114
      -1.18082071e-05 -0.000858950661 1.92375815 -8.46405419e-06
      -4.68611433e-05 -1.53293258e-05 -0.00502311019 -0.000189515064
      -0.0125735253 -0.0010730956 -8.32905134e-05 -0.000741672935
      -0.000183106589 -5.64849288e-05 -0.00739747612 -0.00021708131
      -0.000135687136 -0.000576722319 -0.00142179243 -0.000217252091
      0.0284571797 -0.00173414499 -0.000393474242 2.09274125 0.848291159
      -0.0171920825 -0.00172918336 -0.000709786837 -3.821267e-06
      -0.00896487013 1.24271536 -0.0169785302 -0.0487479568
      -0.00318536838 -0.00445765164 -0.00447224779 -0.000702873454
      -0.000569586875 -0.000900240964 2.17500186 -0.0214467738
      -2.3844721e-05 -3.64017687e-05 -2.0440626e-05 -0.0042546331
      -0.00136367662 -0.000489605009 4.4697485 -0.00156082655
      -0.00010703256 -4.21668528e-06 -0.00085470255 -1.64712565e-05
      -0.00191731227 3.25188065 -0.00162073283 -8.71341581e-06
      -3.30735872e-07 -0.000362296181 0.827042878 -0.0139155984
      -0.000570131815 -0.00460993173 -0.00603462383 -7.66229005e-06
      -0.00781423599 -0.00517789368 -0.000436680537 -0.00478200475
      -0.00518387556 2.61054873 -0.0190992933 -0.000567815907
      -0.00668312423 -0.00573985465 -0.00208884245 -5.55243278e-05
      -0.00710286107 2.49410081 -1.00679131e-06 -9.25811255e-05
      -0.000754956156 3.40338421 -0.000113337497 -2.70477394e-05
      -0.000390681234 -0.0022837501 -0.00176292937 -0.00308216945
      -1.58169169e-05 -5.04995296e-05 -0.00063622056 -6.15554541e-07
      -2.28895647e-06 -0.000141298879 -4.53575922e-05 -0.00697878096
      -7.68627251e-06 -0.00590410409 -0.000612933887 -0.00954488199
      -0.00808702223 -0.00260163983 -0.0142908804 -0.0180065818
      -0.0023171911 -1.67022165e-08 0.738875091 0.613622606
      -7.9012294e-05 -5.59718974e-05 0.0895128101 -0.00410440611
      0.31876716 -9.51396384e-09 -0.000142205157 0.195229083
      -3.07317237e-06 -2.39565452e-08 0.28423351 0.48181501
      -0.000192221778 -0.00169207214 0.0446894243 -1.91323828e-08
      0.107765913 -2.65041144e-05 -0.000205716977 -2.62779758e-06
      -3.01747309e-06 0.389977902 -0.00183084747 -0.00314072869
      0.385247409 -1.22474034e-06 -0.000361681799 -4.5981501e-06
      0.0562416017 0.503458261 0.225181282 0.311934888 -0.000449595915
      0.406709671 0.221912697 -2.84511771e-05 -0.000345211593
      0.167019874 0.284248143 0.575998306 -0.000297295104 0.617839217
      0.414686352 0.187064171 -0.00181330391 0.0673237294 0.462889701
      0.151351124 -0.00200198521 -1.54271074e-05 -0.00320047699
      0.132847428 -0.0039209649 -0.0019407284 -0.000122415513
      -3.12255452e-06 0.293993294 -1.95166706e-07 -4.41386732e-07
      -0.00025245591 0.919430792 -1.3924724e-05 -1.71034226e-05
      -0.000230304737 -0.000459513656 0.0831224248 -3.91628667e-08
      -2.75145906e-10 -4.60482319e-09 -2.06830904e-13 -0.000149000509
      -7.96174561e-07 -2.16264825e-10 -9.20293751e-05 0.0651444197
      -1.8381701e-05 0.00675877929 -0.000142391043 -3.81193349e-05
      -1.50807537e-05 0.366850317 -5.78762695e-07 -7.49499213e-06
      0.298031271 -0.000301393942 0.348344535 -7.08123916e-05
      0.0158429276 -0.00103111158 0.0400278792 -5.17541672e-08
      0.0731726512 -2.13596672e-06 -0.000119091048 -3.15854618e-06
      -1.93776623e-06 -0.000215570471 -1.95580228e-07 -3.38577274e-06
      0.376899987 -4.72545292e-09 -6.74589828e-10 -1.36263516e-08
      -7.24697302e-10 0.170124054 0.301865637 -2.28712033e-05
      0.185514838 -8.82865934e-05 -9.74148762e-10 -1.31482594e-07
      -4.03165031e-05 -3.25389182e-09 -0.000701938407 -1.19600445e-05
      -1.06395684e-10 -2.93297171e-06 -0.000455851987 -0.000312760531
      -1.37903839e-07 -0.000206073499 -9.35358369e-09 -2.84757243e-05
      -0.000155796035 -5.93092682e-06</_>
    <_>
      -2.02344561 -2.16199827 -0.00607668096 -0.018612504
      -5.97952834e-08 -0.000160242955 -0.0110750552 -0.000528323289
      -0.00167561136 -2.85069223e-06 -1.41310702e-05 -2.5899854e-07
      -8.88062496e-05 -0.000227556651 -0.000184130855 5.15118456
      0.433898568 -0.00269330083 1.55178261 -0.000142021934
      -0.000896460318 -0.000683767314 -0.00451984862 -0.00122761517
      -1.16210094e-05 -0.00138854585 1.83465099 -8.19247271e-06
      -4.59658622e-05 -1.50266442e-05 -0.0034616061 -0.000190716324
      -0.0121638393 -0.00106194476 -8.19338529e-05 -0.000753723434
      -0.00018964654 -5.51166559e-05 -0.00778831216 -0.000213313382
      -0.000136071976 -0.000571018609 -0.00141758251 -0.000226494943
      0.024931822 -0.00169776322 -0.000401252939 2.35525799 0.913094521
      -0.0175763573 -0.00170869718 -0.000790218997 -3.5874607e-06
      -0.00910080504 1.07501233 -0.0169440415 -0.0485979542
      -0.00324929832 -0.00456814654 -0.00459718145 -0.000680511934
      -0.000575674116 -0.00090154499 2.09436059 -0.0220977403
      -2.42922451e-05 -3.56526762e-05 -1.94757722e-05 -0.00438082311
      -0.00137784774 -0.000495828514 4.42417431 -0.00159215869
      -0.000108679575 -4.16598868e-06 -0.000863596622 -1.60825712e-05
      -0.00285769603 3.10906982 -0.00164634362 -8.59202737e-06
      -3.1381802e-07 -0.000368554814 0.814815402 -0.0128064053
      -0.000570004806 -0.00408167299 -0.00647491729 -7.78614958e-06
      -0.00785888638 -0.00517861731 -0.000437060982 -0.00481298799
      -0.00521229953 2.47172999 -0.0190671925 -0.000604024506
      -0.00571469404 -0.00580719765 -0.00212162361 -5.37961168e-05
      -0.00690244418 2.40427279 -9.90275339e-07 -9.23561747e-05
      -0.000752523832 3.49916053 -0.000110949826 -2.73769911e-05
      -0.000394253846 -0.00200234028 -0.00175859453 -0.00342367799
      -1.60872114e-05 -5.02740586e-05 -0.000645081105 -5.42905013e-07
      -2.28668887e-06 -0.000140088217 -4.59071489e-05 -0.00698455935
      -7.83357609e-06 -0.0059946957 -0.000600852305 -0.010136337
      -0.00821463671 -0.00259474781 -0.0141213369 -0.0182291176
      -0.00213237619 -1.67707217e-08 0.72910732 0.616036475
      -7.87207682e-05 -5.58203901e-05 0.0865598619 -0.00395356305
      0.304264784 -9.55405532e-09 -0.000142712248 0.198605567
      -3.05318054e-06 -2.41487914e-08 0.298038512 0.483497441
      -0.000190818784 -0.00163028471 0.0558182523 -1.91772571e-08
      0.107817397 -2.64995451e-05 -0.000204110678 -2.63119e-06
      -3.02249464e-06 0.382990837 -0.00172604457 -0.00303736213
      0.391398191 -1.22851975e-06 -0.000324068737 -4.60287811e-06
      0.0547698438 0.499142289 0.236970872 0.318286836 -0.000467213045
      0.417367816 0.246555045 -2.83161189e-05 -0.000343315565
      0.182169378 0.302331239 0.581608832 -0.000295367208 0.6266855
      0.39812386 0.165805742 -0.00185044506 0.0566124655 0.461709082
      0.1726643 -0.00200482272 -1.54765567e-05 -0.00318363123
      0.130572736 -0.00380559964 -0.00195119926 -0.000121790705
      -3.1225743e-06 0.289746821 -1.95761558e-07 -4.43138362e-07
      -0.000347095949 0.919758618 -1.39293306e-05 -1.71124957e-05
      -0.000230159567 -0.000459381292 0.0847032964 -3.91988131e-08
