<?xml version="1.0"?>
<opencv_storage>
<opencv_ml_svm>
  <format>3</format>
  <svmType>EPS_SVR</svmType>
  <kernel>
    <type>RBF</type>
    <gamma>0.0050000000000000001</gamma></kernel>
  <C>1.</C>
  <p>0.001</p>
  <term_criteria><iterations>10000</iterations></term_criteria>
  <var_count>258</var_count>
  <sv_total>550</sv_total>
  <support_vectors>
    <_>
      -1.60350347 -5.18400335 -0.00498059113 -0.022352824
      -4.14622576e-08 -0.000204935888 -0.0102337683 -0.000364484469
      -0.001717726 -2.63575521e-06 -1.27947569e-05 -2.34808311e-07
      -9.79073156e-05 -0.000316878635 -0.000186135061 4.95320559
      2.46651435 -0.00220750691 0.815181136 -0.000154543348
      -0.000941456528 -0.000644364918 -0.00355481822 0.280359566
      -1.21790763e-05 1.53222966 3.61351371 -1.09140419e-05
      -4.57146525e-05 -1.51560262e-05 -0.0097155543 -0.000164233163
      -0.00131261616 -0.00121904432 -0.000100949153 -0.000681039528
      -0.000223598472 -6.37164849e-05 -0.00715189334 -0.000224291012
      -0.000114745795 -0.000654806034 -0.00138645479 -0.000315829995
      0.147250175 -0.00130727154 -0.000342849118 1.67495883 1.24591732
      -0.0137654245 -0.00176544674 -0.000381446356 -3.29141699e-06
      -0.00732702157 1.48161054 -0.0208773203 -0.0416717529
      -0.00305330055 -0.00373992673 -0.00359612517 -0.000672482769
      -0.000380634796 -0.000638636702 3.36315703 -0.00484755589
      -2.70648852e-05 -3.16526348e-05 -2.23324951e-05 -0.003718958
      -0.00157704519 -0.000497683883 4.27109241 -0.00132183474
      -8.63082896e-05 -4.44624311e-06 -0.00102130894 -2.15274995e-05
      1.6070019 3.08044529 -0.00125494332 -9.39296388e-06
      -3.15750952e-07 -0.000217969093 0.90578109 -0.0187161677
      -0.000597787905 -0.000506792974 -0.0024381082 -6.50354013e-06
      -0.00671177078 -0.00403981749 -0.000421188306 -0.00421363814
      -0.0056492812 5.40538883 -0.0204883423 -0.000604851171
      -0.00788530335 -0.00489035109 -0.00197755429 -5.90263662e-05
      -0.00719584106 4.17984867 -1.19466938e-06 -8.81183005e-05
      -0.000893113727 2.57280827 -0.000119681492 -2.98886134e-05
      -0.000402668084 -0.00165486813 -0.00158846332 -0.00532461144
      -1.50956203e-05 -4.86144272e-05 -0.000728782266 -7.61064882e-07
      -2.12395184e-06 -0.000193328699 -3.77027718e-05 -0.00774841849
      -7.44029376e-06 -0.0044252337 -0.000791468541 0.562846482
      -0.00831356179 -0.00327383005 -0.0174099579 -0.0071680937
      -0.0036949499 -1.57949955e-08 0.718808532 0.507753551
      -8.38293417e-05 -5.02014991e-05 -0.000551549776 -0.00500353519
      0.450274825 -8.80889495e-09 -0.000128365631 0.296314657
      -3.73769649e-06 -2.06231654e-08 0.439203382 0.511712432
      -0.000183158438 -0.00135237689 -0.0020026851 -1.92851406e-08
      0.313779533 -2.60770867e-05 -0.000226387085 -3.11833946e-06
      -2.92872687e-06 0.311239779 -0.00203953777 -0.00451170886
      0.313546658 -1.18210585e-06 -0.000327941088 -4.41330531e-06
      0.0693571791 0.649344623 0.169839859 0.156152323 -0.000683227263
      0.272603989 0.0806785524 -3.13188684e-05 -0.00035769149
      0.087108016 0.354257733 0.575311244 -0.000305298396 0.519177973
      0.442091614 0.14285332 -0.00236237072 0.0809643269 0.519744694
      0.137420148 -0.00179316162 -1.46803268e-05 -0.00340532395
      0.167793751 -0.00422035251 -0.00196076394 -0.000126421641
      -3.16651153e-06 0.350382298 -1.87063989e-07 -4.11760652e-07
      -0.000459256233 0.901761115 -1.41242908e-05 -1.73557546e-05
      -0.000229041485 -0.000444257894 0.0973529816 -4.03303133e-08
      -2.90555968e-10 -4.72524153e-09 -2.15583641e-13 -0.000149600528
      -8.06886192e-07 -2.20255772e-10 -9.25865388e-05 0.0718056485
      -1.85822137e-05 -3.8647202e-05 -0.000142794801 -3.84296291e-05
      -1.52584716e-05 0.337068617 -5.87458544e-07 -7.56322515e-06
      0.277784795 -0.000296277867 0.303051054 -7.12391702e-05
      0.0104786232 -0.000976226933 0.0678862035 -5.30719433e-08
      0.0827380866 -2.02217097e-06 -0.000119613294 -3.24907728e-06
      -1.33536525e-06 -0.000213662104 -2.04420729e-07 -3.43318175e-06
      0.339170635 -4.90986318e-09 -6.78126888e-10 -1.33091334e-08
      -7.45234319e-10 0.138197318 0.285227478 -2.31723443e-05
      0.202280104 -8.90370138e-05 -1.06735576e-09 -1.34816631e-07
      -4.06420331e-05 -3.32083738e-09 -0.000670809939 -8.84451292e-05
      -1.10272035e-10 -2.97304996e-06 -0.000407556741 -0.000305858965
      -1.41795184e-07 -0.000205302713 -9.5774233e-09 -2.86825762e-05
      -0.000115376875 -5.99869418e-06</_>
    <_>
      -1.63552427 -4.3521266 -0.00441066502 -0.0205950849
      -3.88745462e-08 -0.000177659647 -0.00926732086 -0.000331052463
      -0.00155583443 -2.42264696e-06 -1.21178327e-05 -2.29439237e-07
      -8.60594373e-05 -0.000282338267 -0.000160803436 4.53240347
      2.11720967 -0.00198952202 1.14455473 -0.000140241682
      -0.000909741037 -0.000578586361 -0.00322394492 0.189397216
      -1.15708035e-05 1.30274642 3.248173 -1.0577327e-05 -4.26694351e-05
      -1.49284051e-05 -0.0058822725 -0.000147290441 -0.000272995239
      -0.00106335676 -8.96450147e-05 -0.000611838594 -0.000214347703
      -5.72024182e-05 -0.00576089649 -0.000198185531 -0.00010793125
      -0.000622233376 -0.00120612257 -0.000288097246 0.0525459275
      -0.00130933581 -0.000325482048 1.91240919 1.29758632 -0.0118346773
      -0.0015077698 -0.000343243504 -3.3998881e-06 -0.00674601365
      1.33364487 -0.0197254959 -0.0368640982 -0.00265432149
      -0.00101252983 -0.00317509635 -0.000611495227 -0.000395413022
      -0.000597260019 3.02279711 -0.00580135826 -2.76418159e-05
      -2.95303144e-05 -2.01303119e-05 -0.00335769146 -0.00136745465
      -0.000508673838 3.95007658 -0.00124317 -7.82574498e-05
      -3.99239343e-06 -0.00095469557 -2.02702013e-05 1.26971781
      2.76939368 -0.00114828185 -9.12795804e-06 -2.97172875e-07
      -0.000201285628 0.91824168 -0.016505776 -0.000550905359
      0.0479354449 -0.000843785529 -5.8326782e-06 -0.00637335097
      -0.0037856889 -0.000369715388 -0.0038846205 -0.00551481731
      4.88751984 -0.0189336408 -0.000597531733 -0.00639243471
      -0.00449973345 -0.00170442543 -5.30476718e-05 -0.00686251046
      3.77867293 -1.19642527e-06 -8.40842695e-05 -0.000865244074
      2.72992563 -0.000109304572 -2.84840444e-05 -0.00035959456
      -0.000104597435 -0.00147661509 -0.00500670541 -1.5368576e-05
      -4.3410193e-05 -0.000611863914 -7.1530576e-07 -1.93653523e-06
      -0.000159875315 -3.30373805e-05 -0.00691112503 -6.41254701e-06
      -0.00413134508 -0.000677825359 0.326533675 -0.00825844239
      -0.0028021615 -0.0168124679 -0.00781279709 -0.00331690744
      -1.58245435e-08 0.717928529 0.517310679 -8.33820377e-05
      -4.98170521e-05 -0.000682114623 -0.00509601505 0.413014054
      -8.88641694e-09 -0.000128595217 0.289195031 -3.7128018e-06
      -2.0899888e-08 0.440639973 0.54132396 -0.00018228413
      -0.00145115494 -0.00173201645 -1.9330102e-08 0.316343516
      -2.61373534e-05 -0.000222653354 -3.097633e-06 -2.93826679e-06
      0.29691276 -0.00192638196 -0.00445237709 0.304749966
      -1.18603452e-06 -0.000324904686 -4.42809596e-06 0.0626717061
      0.644935727 0.164818972 0.151852161 -0.000658982783 0.289279759
      0.107095838 -3.11972035e-05 -0.000354266085 0.0790132359
      0.341941923 0.582870722 -0.000304027228 0.52116549 0.420987457
      0.1418017 -0.00241793413 0.0887105763 0.508968592 0.151356831
      -0.0017966982 -1.4718119e-05 -0.00338530913 0.176318973
      -0.00420838129 -0.00198349729 -0.000125990904 -3.16894761e-06
      0.327449948 -1.8815382e-07 -4.14717874e-07 -0.00062807661
      0.890420496 -1.41386017e-05 -1.73756453e-05 -0.000228886754
      -0.000443285244 0.0990647376 -4.04190068e-08 -2.91076746e-10
      -4.73409489e-09 -2.16311317e-13 -0.000149636762 -8.07669096e-07
      -2.20487656e-10 -9.26272332e-05 0.0729856044 -1.85970912e-05
      -4.40697004e-05 -0.000142818084 -3.84521045e-05 -1.5272075e-05
      0.333958626 -5.88093485e-07 -7.56831923e-06 0.275466681
      -0.000295784441 0.299223721 -7.14155976e-05 0.010479439
      -0.000971860427 0.0693559498 -5.31712878e-08 0.0840386301
      -2.01391072e-06 -0.000119644348 -3.25562269e-06 -1.29763384e-06
      -0.000213470732 -2.0515084e-07 -3.43684269e-06 0.335599691
      -4.92370855e-09 -6.78307743e-10 -1.32802072e-08 -7.46757711e-10
      0.137088478 0.285428494 -2.31949343e-05 0.202316061 -8.9089328e-05
      -1.07447762e-09 -1.3505958e-07 -4.06663312e-05 -3.32597461e-09
      -0.00066825439 -9.23024272e-05 -1.10552872e-10 -2.9760613e-06
      -0.00040048614 -0.000305308291 -1.42087458e-07 -0.000205196324
      -9.59411306e-09 -2.86976792e-05 -0.000113582908 -6.00365456e-06</_>
    <_>
      -1.72186208 -4.81871891 -0.00475210324 -0.0206869002
      -4.07793692e-08 -0.000194326858 -0.00983512029 -0.000354397809
      -0.00168945407 -2.47513208e-06 -1.24464714e-05 -2.3108403e-07
      -9.3003473e-05 -0.000305241934 -0.000175448804 4.71631813
      2.29117656 -0.00212535891 0.903518021 -0.000148264851
      -0.000929097121 -0.000620326085 -0.00341764092 0.245079905
      -1.18153666e-05 1.39812076 3.41747093 -1.06726084e-05
      -4.41528791e-05 -1.48802992e-05 -0.00859853718 -0.000157279763
      -0.000848952972 -0.00114704424 -9.76238734e-05 -0.000658745063
      -0.000221051814 -6.04365523e-05 -0.00627632905 -0.000213252148
      -0.000112857822 -0.00063910574 -0.00130825979 -0.000309184979
      0.107070178 -0.00129811314 -0.000334789074 1.77263784 1.28317845
      -0.0132076796 -0.00166674657 -0.000404270104 -3.27996895e-06
      -0.0071129119 1.3518734 -0.0203057714 -0.0395925194 -0.00288756518
      -0.00279012276 -0.00341872033 -0.000650520436 -0.000395275012
      -0.000620684412 3.17590022 -0.00528614456 -2.67884079e-05
      -3.11607619e-05 -2.07525391e-05 -0.00360319042 -0.00149319903
      -0.000496000983 4.131845 -0.00127967936 -8.35197061e-05
      -4.30400269e-06 -0.000987975742 -2.06248278e-05 1.42152011
      2.89692235 -0.00121208164 -9.23547032e-06 -2.97251205e-07
      -0.000214622909 0.785435915 -0.0168573093 -0.000578653533
      -5.78068175e-05 -0.00183113141 -6.26493738e-06 -0.00659798738
      -0.00396149373 -0.000401461439 -0.00409525866 -0.00560885295
      5.11869144 -0.0197377875 -0.000596703438 -0.00696185324
      -0.0047292388 -0.00188225473 -5.58551474e-05 -0.00705380086
      3.98051286 -1.16465753e-06 -8.59272113e-05 -0.000888303621
      2.55840015 -0.000115205716 -2.93034173e-05 -0.000383603416
      -0.00099208951 -0.00154968363 -0.00523897773 -1.5172951e-05
      -4.75702764e-05 -0.000692469883 -7.54542157e-07 -2.05145875e-06
      -0.000183121054 -3.60288359e-05 -0.00739847263 -7.01796125e-06
      -0.00427957624 -0.000743258453 0.424359441 -0.00834866893
      -0.0030813117 -0.0171108432 -0.00758329593 -0.00353335333
      -1.58202749e-08 0.716621995 0.521199405 -8.31000943e-05
      -4.97135334e-05 -0.000849094358 -0.00518101361 0.402036369
      -8.94922891e-09 -0.000128300613 0.287507683 -3.69507984e-06
      -2.11053433e-08 0.425760686 0.55738306 -0.000182472708
      -0.00153058104 -0.00169089728 -1.92659559e-08 0.31751886
      -2.62218109e-05 -0.000220317612 -3.06079642e-06 -2.94793381e-06
      0.285794079 -0.00196704059 -0.0044944156 0.290330529
      -1.18957246e-06 -0.000333605625 -4.44180432e-06 0.0648867637
      0.64958775 0.159774929 0.143203557 -0.000635371718 0.287926257
      0.113027662 -3.11322983e-05 -0.000352541654 0.0596080646
      0.322487801 0.586862028 -0.000303891225 0.520915389 0.415492266
      0.152782023 -0.00239641569 0.105570287 0.499132663 0.151406854
      -0.00178646029 -1.47026922e-05 -0.00337829161 0.182430059
      -0.00426519755 -0.00198798114 -0.00012569745 -3.17216359e-06
      0.314222187 -1.88928979e-07 -4.1665632e-07 -0.00068794965
      0.879660547 -1.41285145e-05 -1.73638946e-05 -0.000228914796
      -0.000444124191 0.0987325236 -4.03627745e-08 -2.89971824e-10
      -4.72813166e-09 -2.15924704e-13 -0.000149602638 -8.07136018e-07
      -2.20255578e-10 -9.25995046e-05 0.0730410814 -1.85872359e-05
      -3.74867741e-05 -0.000142794524 -3.84365485e-05 -1.5263573e-05
      0.334918976 -5.87660338e-07 -7.56498366e-06 0.276006073
      -0.000295972422 0.301186293 -7.1475275e-05 0.010964565
      -0.000974393741 0.0676569268 -5.31073958e-08 0.0838990957
      -2.0196087e-06 -0.000119614386 -3.25107658e-06 -1.33115793e-06
      -0.000213536769 -2.04757725e-07 -3.43459237e-06 0.33702153
      -4.91473662e-09 -6.78087808e-10 -1.32927767e-08 -7.45747963e-10
      0.139356941 0.287045717 -2.31802696e-05 0.200821325
      -8.90505544e-05 -1.07001141e-09 -1.34893227e-07 -4.0650415e-05
      -3.32277916e-09 -0.000669647008 -8.75372061e-05 -1.10358556e-10
      -2.97411225e-06 -0.000400915742 -0.000305626018 -1.41898155e-07
      -0.000205206758 -9.58315471e-09 -2.86873747e-05 -0.000116238778
      -6.0002867e-06</_>
    <_>
      -1.7312783 -4.72166681 -0.00446986035 -0.019492507 -3.99527913e-08
      -0.000180286457 -0.00930236466 -0.000335719873 -0.00162092678
      -2.34769823e-06 -1.22246574e-05 -2.2287081e-07 -8.72840537e-05
      -0.000291862962 -0.000162214666 4.54351282 2.26299119
      -0.00203696894 1.02623272 -0.000141897719 -0.000934889424
      -0.000586794398 -0.0032948025 0.190607458 -1.14951854e-05 1.412444
      3.37659454 -1.06117704e-05 -4.29765132e-05 -1.53485871e-05
      -0.00675387261 -0.000149001542 0.00437904987 -0.00106845691
      -9.13417971e-05 -0.000622966734 -0.0002172393 -5.81795539e-05
      -0.0054413355 -0.000202974334 -0.000110750036 -0.000630997994
      -0.00121393101 -0.00029538275 0.0602397285 -0.00132737576
      -0.000323577697 1.78376269 1.38098717 -0.0119796274 -0.00153595011
      -0.000535993895 -3.37742722e-06 -0.00687964074 1.32320976
      -0.0201089922 -0.0378459953 -0.00267774076 -0.00118983246
      -0.00321503333 -0.000620238774 -0.000407788437 -0.000602864544
      3.12019205 -0.00497924117 -2.73266614e-05 -3.08505223e-05
      -2.01415005e-05 -0.00341261341 -0.00139201444 -0.000514117826
      4.00595427 -0.00122877047 -8.14758241e-05 -4.16345756e-06
      -0.000959190191 -2.04631233e-05 1.37700522 2.78315091
      -0.00116487045 -9.21823903e-06 -2.8192224e-07 -0.000205598102
      0.7508955 -0.0155200642 -0.000563189562 0.0734799802
      -0.00182858214 -5.84560075e-06 -0.00639079744 -0.00380605389
      -0.000376673706 -0.00398463616 -0.00561909378 5.09212112
      -0.0190776493 -0.000601835316 -0.00585083244 -0.00455294689
      -0.00175153231 -5.28389392e-05 -0.00690645818 3.95337605
      -1.18292496e-06 -8.46393305e-05 -0.000875682803 2.60247016
      -0.000109523506 -2.91656652e-05 -0.000359057449 0.10142798
      -0.00150024123 -0.00496591302 -1.56321112e-05 -4.59266666e-05
      -0.000631034956 -7.34654975e-07 -1.99861529e-06 -0.000169587263
      -3.40095794e-05 -0.00704727136 -6.42172063e-06 -0.00412180228
      -0.000687342195 0.393393248 -0.00832522195 -0.00292739319
      -0.0169200972 -0.00719181541 -0.00348862796 -1.58217297e-08
      0.709793508 0.516560316 -8.35417086e-05 -5.01020768e-05
      -0.000823857321 -0.00512244739 0.413592964 -8.94350727e-09
      -0.000127949781 0.284823984 -3.73546368e-06 -2.0981048e-08
      0.425827563 0.531791747 -0.000182976219 -0.00145944441
      -0.00191315857 -1.92686649e-08 0.322770655 -2.62012836e-05
      -0.000221893817 -3.07379105e-06 -2.94689221e-06 0.289259106
      -0.0019733829 -0.00458441768 0.279476881 -1.19076822e-06
      -0.000283236877 -4.44215584e-06 0.0652217194 0.654677689
      0.161603063 0.135841429 -0.000659218349 0.281486988 0.0910751373
      -3.12797893e-05 -0.000353780692 0.0592300221 0.323571831
      0.584022582 -0.000304711983 0.523012102 0.422337294 0.170582905
      -0.00232587173 0.0872785002 0.496671021 0.157703415 -0.00176508247
      -1.46977882e-05 -0.00337216677 0.166307151 -0.00425145356
      -0.00196301402 -0.000125590464 -3.17862805e-06 0.331893653
      -1.88931281e-07 -4.16141319e-07 -0.000631245668 0.864213645
      -1.41328492e-05 -1.73693352e-05 -0.00022888869 -0.000443790137
      0.0990253985 -4.03880307e-08 -2.90318353e-10 -4.73074113e-09
      -2.16112786e-13 -0.000149615793 -8.07368338e-07 -2.20343452e-10
      -9.26115827e-05 0.0731708556 -1.85915796e-05 -3.98222546e-05
      -0.000142803401 -3.84432824e-05 -1.52674129e-05 0.334294021
      -5.87848888e-07 -7.56646068e-06 0.275585085 -0.000295863865
      0.300219655 -7.14817652e-05 0.0108417459 -0.00097321131
      0.0682675317 -5.31359063e-08 0.0840927362 -2.01713692e-06
      -0.000119625845 -3.25304177e-06 -1.31792331e-06 -0.000213496445
      -2.04947654e-07 -3.43561624e-06 0.336223304 -4.91872587e-09
      -6.78166856e-10 -1.32860407e-08 -7.46192941e-10 0.138645053
      0.286658019 -2.31867889e-05 0.201204509 -8.90668744e-05
      -1.07202602e-09 -1.34965561e-07 -4.06574582e-05 -3.32422578e-09
      -0.000668978086 -8.92194003e-05 -1.10442655e-10 -2.97497945e-06
      -0.000399938959 -0.000305477268 -1.41982383e-07 -0.000205191056
      -9.58800239e-09 -2.86918621e-05 -0.000115343311 -6.00175554e-06</_>
    <_>
      -1.57978392 -5.1022253 -0.00442124903 -0.0211029518
      -3.82345284e-08 -0.000202846073 -0.00931055658 -0.000336003606
      -0.00171983324 -2.38789607e-06 -1.25531187e-05 -2.28014187e-07
      -8.98798535e-05 -0.00031018196 -0.000161729287 4.59545851
      2.56305456 -0.00203311536 1.13223684 -0.000147371888
      -0.00098654523 -0.000598286046 -0.00328180776 0.219099641
      -1.17581549e-05 1.66608036 3.69359946 -1.16710353e-05
      -4.43968456e-05 -1.55086072e-05 -0.00565092126 -0.000150250533
      0.176400915 -0.00107013748 -9.64966384e-05 -0.000644290936
      -0.000231531885 -6.01693173e-05 -0.00515502924 -0.000205105316
      -0.000113492773 -0.000679890625 -0.00121814641 -0.000324049557
      0.0615785457 -0.00134771015 -0.000314269797 1.93129492 1.37674236
      -0.012443603 -0.00156302401 -0.000511587423 -3.4360362e-06
      -0.00682626059 1.44749928 -0.0212086104 -0.037645869
      -0.00270070764 -0.00140591653 -0.00319111231 -0.000647378096
      -0.000384042069 -0.00059643772 3.35373259 -0.00283640227
      -2.91139168e-05 -3.10151627e-05 -2.13891308e-05 -0.00346319075
      -0.00144076464 -0.000532044971 4.0372076 -0.00126574154
      -8.1045946e-05 -4.32277648e-06 -0.00101209886 -2.19220292e-05
      1.67653573 2.83137584 -0.00117250963 -9.42641327e-06
      -2.89773453e-07 -0.000198289708 0.918275952 -0.0175080784
      -0.000586960348 0.0863487944 -0.00157881447 -5.79637481e-06
      -0.00617726566 -0.00387995807 -0.00037890143 -0.00409158645
      -0.00585259916 5.60097694 -0.0194695517 -0.00060327613
      -0.00657407707 -0.00451225787 -0.00180947303 -5.46991105e-05
      -0.00698516518 4.27593422 -1.24372775e-06 -8.58071871e-05
      -0.000935248623 2.63958168 -0.000114273389 -3.09352763e-05
      -0.000359928614 0.169064194 -0.0015187487 -0.00467938557
      -1.56914757e-05 -4.68616781e-05 -0.000647158886 -7.68774328e-07
      -1.98886528e-06 -0.000180659277 -3.43653846e-05 -0.00721842982
      -6.52698373e-06 -0.0041029756 -0.000704041799 0.594440281
      -0.00846860465 -0.00302931829 -0.0176565275 -0.00595835922
      -0.00367546361 -1.55987259e-08 0.708240569 0.523488283
      -8.37900952e-05 -5.03544034e-05 -0.00105294539 -0.00512488093
      0.440707564 -8.88633611e-09 -0.000127056453 0.29858771
      -3.76661319e-06 -2.07350936e-08 0.406351566 0.513853729
      -0.000184565652 -0.00147563929 -0.00227629696 -1.89451725e-08
      0.325389475 -2.61085479e-05 -0.000223318479 -3.05961817e-06
      -2.93261223e-06 0.277137339 -0.00199865899 -0.00486817025
      0.246296242 -1.18444041e-06 -0.00032666765 -4.42590863e-06
      0.0709678531 0.677866697 0.156973064 0.121585339 -0.00068480795
      0.266453803 0.0561174192 -3.12514494e-05 -0.000355947501
      0.0351142809 0.30668965 0.579484284 -0.000308056624 0.528528333
      0.442833006 0.208951488 -0.00219736295 0.0892099515 0.493741959
      0.154998869 -0.00173416908 -1.45907234e-05 -0.00341488165
      0.148435056 -0.00438007899 -0.00196116627 -0.000125878767
      -3.15809666e-06 0.345850229 -1.87881113e-07 -4.12805917e-07
      -0.000514351239 0.840814531 -1.41221935e-05 -1.73549142e-05
      -0.000228990015 -0.000444540783 0.0979014114 -4.03230551e-08
      -2.8980407e-10 -4.72419748e-09 -2.15592504e-13 -0.000149587358
      -8.06788591e-07 -2.2015903e-10 -9.25814311e-05 0.0724442601
      -1.85806093e-05 -3.53222713e-05 -0.000142784847 -3.8426595e-05
      -1.52574694e-05 0.336398125 -5.87378565e-07 -7.56271129e-06
      0.277123421 -0.000296204002 0.302941173 -7.13816989e-05
      0.010923367 -0.000976369309 0.0670624822 -5.30629833e-08
      0.0832581073 -2.0232676e-06 -0.000119601355 -3.24817938e-06
      -1.34722848e-06 -0.000213627136 -2.04424822e-07 -3.43294687e-06
      0.338693172 -4.9085509e-09 -6.78015755e-10 -1.33062281e-08
      -7.45069617e-10 0.139722154 0.286808103 -2.31701833e-05
      0.200928852 -8.9027606e-05 -1.06681775e-09 -1.34785481e-07
      -4.06395739e-05 -3.32047323e-09 -0.00067081087 -8.60045257e-05
      -1.10234176e-10 -2.97276711e-06 -0.000404425635 -0.000305875234
      -1.41767615e-07 -0.000205259246 -9.57571444e-09 -2.86806735e-05
      -0.00011691406 -5.99808391e-06</_>
    <_>
      -1.80181503 -5.13111448 -0.00475151977 -0.0197779723
      -4.06466647e-08 -0.000198307069 -0.00979737099 -0.000353178446
      -0.00171645486 -2.32070624e-06 -1.24124053e-05 -2.31818788e-07
      -9.25155982e-05 -0.000303696899 -0.000175117355 4.62194109
      2.42805839 -0.00212340266 0.849778414 -0.000149300686
      -0.000964383304 -0.000628710026 -0.00344932172 0.231584489
      -1.17001973e-05 1.52298796 3.54931259 -1.09931125e-05
      -4.46646009e-05 -1.51878303e-05 -0.00763308909 -0.000159370713
      0.0198249519 -0.00113221712 -9.78556563e-05 -0.000658661535
      -0.000225041425 -6.02969194e-05 -0.00600177376 -0.000210146027
      -0.000114974042 -0.000661016849 -0.00128749199 -0.00031693824
      0.0892760903 -0.00132138678 -0.000332240685 1.6612072 1.37893474
      -0.0135625154 -0.00164799881 -0.000558668165 -3.25292785e-06
      -0.00709583424 1.26823163 -0.0208758749 -0.0387590826
      -0.0028828457 -0.0025333669 -0.00339117763 -0.000647718203
      -0.000413047092 -0.000613168813 3.28001046 -0.00433977647
      -2.76175142e-05 -3.14971876e-05 -2.05545657e-05 -0.00365643459
      -0.00149876275 -0.000501245202 4.06862688 -0.00127858773
      -8.5063497e-05 -4.4446133e-06 -0.00100392045 -2.10416383e-05
      1.53836644 2.80386209 -0.00121886155 -9.28758527e-06
      -2.75323401e-07 -0.000215914406 0.724746466 -0.0162169747
      -0.00060107332 0.0583681129 -0.00173999323 -6.24875929e-06
      -0.00647188164 -0.00397275435 -0.000401176163 -0.00418134034
      -0.00573130418 5.33833981 -0.0200418178 -0.000597205886
      -0.00644240947 -0.00472731376 -0.00189774181 -5.4154134e-05
      -0.00712168077 4.13574219 -1.15157252e-06 -8.43225789e-05
      -0.000910235918 2.47928381 -0.000114265007 -3.0037465e-05
      -0.000376909506 -0.000134250673 -0.00156197767 -0.00476488238
      -1.55432099e-05 -4.82223768e-05 -0.000684790604 -7.55477458e-07
      -2.04774528e-06 -0.0001855351 -3.65487758e-05 -0.00742070423
      -6.9534276e-06 -0.00425552204 -0.000739054114 0.502589941
      -0.00835121609 -0.00317686843 -0.0173036326 -0.00672232499
      -0.00364407897 -1.57902829e-08 0.713957727 0.530260205
      -8.3065599e-05 -4.97840701e-05 -0.00101936224 -0.00513880001
      0.391779989 -8.98366714e-09 -0.000128188767 0.286784828
      -3.69030658e-06 -2.11580335e-08 0.417452633 0.566953838
      -0.000182335003 -0.00151262106 -0.00174970739 -1.9164899e-08
      0.318911195 -2.62682606e-05 -0.000219526628 -3.05326989e-06
      -2.9523585e-06 0.279019475 -0.00213189214 -0.00457297778
      0.26765281 -1.19197955e-06 -0.000347131543 -4.45180149e-06
      0.0602083877 0.657047629 0.157494649 0.123240337 -0.00063846726
      0.291169643 0.117620885 -3.109311e-05 -0.000351620605 0.0498286411
      0.313251048 0.585618794 -0.000303922337 0.530516148 0.405622929
      0.17073217 -0.00234826282 0.10678535 0.486392587 0.146695897
      -0.00178162602 -1.46834691e-05 -0.00338013284 0.173195779
      -0.00429112883 -0.0019815478 -0.000125164501 -3.17744843e-06
      0.307851106 -1.89290503e-07 -4.17510364e-07 -0.000766115787
      0.866184652 -1.41293176e-05 -1.73677381e-05 -0.000228808683
      -0.000444253965 0.0998790264 -4.03753049e-08 -2.89113566e-10
      -4.72895945e-09 -2.16117434e-13 -0.000149594343 -8.07202412e-07
      -2.20186064e-10 -9.26029388e-05 0.0741741285 -1.85888312e-05
      -3.44593063e-05 -0.000142787219 -3.84381492e-05 -1.52656394e-05
      0.333264053 -5.87713146e-07 -7.56557483e-06 0.274560034
      -0.000295752514 0.300090492 -7.17066141e-05 0.0115498081
      -0.000973494432 0.0669385344 -5.31203277e-08 0.0849059448
      -2.01899434e-06 -0.000119606404 -3.25152473e-06 -1.33735352e-06
      -0.000213443229 -2.04944755e-07 -3.43519423e-06 0.335505933
      -4.91645746e-09 -6.77987333e-10 -1.32817624e-08 -7.45910389e-10
      0.141086847 0.289174229 -2.31830491e-05 0.19905284 -8.90512092e-05
      -1.07107623e-09 -1.34912725e-07 -4.06532308e-05 -3.32357875e-09
      -0.000669012486 -8.52839803e-05 -1.10378644e-10 -2.97448946e-06
      -0.000395040144 -0.000305510417 -1.41934635e-07 -0.000205123142
      -9.58505897e-09 -2.86886316e-05 -0.000117814721 -6.00071826e-06</_>
    <_>
      -1.53584146 -4.61561823 -0.00440623658 -0.0210416745
      -3.91929618e-08 -0.000183916723 -0.00927067176 -0.000325111789
      -0.00163074932 -2.35956122e-06 -1.22375259e-05 -2.28319635e-07
      -8.6230124e-05 -0.000289328309 -0.000162021679 4.58177614
      2.32992291 -0.002000293 1.21774054 -0.000141007753 -0.000950100482
      -0.000579511456 -0.00325333956 0.1918163 -1.15519351e-05
      1.46548069 3.4662149 -1.08995928e-05 -4.26851802e-05
      -1.56722381e-05 -0.00569297373 -0.000146355538 0.049191311
      -0.00106843445 -9.11281022e-05 -0.000616633217 -0.00022102501
      -5.79748666e-05 -0.0053458917 -0.000200029666 -0.000109708941
      -0.000636874582 -0.00120977894 -0.000301756081 0.0384192169
      -0.00132551428 -0.00032333922 2.01279163 1.31945205 -0.0115283914
      -0.00150976167 -0.000471200125 -3.39741541e-06 -0.00677249348
      1.47577119 -0.0204986893 -0.0377809405 -0.00265115756
      -0.000987091102 -0.00315312087 -0.000608068716 -0.0004091624
      -0.000597639242 3.16429591 -0.00456303451 -2.79353408e-05
      -3.04544283e-05 -2.03952477e-05 -0.00336611527 -0.00137441349
      -0.00052397995 4.0413394 -0.00124585687 -7.96679597e-05
      -4.0926252e-06 -0.000954224437 -2.05917822e-05 1.46034229
      2.80884957 -0.00114892086 -9.22526124e-06 -2.89866591e-07
      -0.000200603303 0.972281218 -0.0172068551 -0.000554716855
      0.0607748367 -0.00195534946 -5.76270213e-06 -0.00630102959
      -0.00377671747 -0.0003694224 -0.00393001689 -0.00568752876
      5.25579643 -0.0191458315 -0.000622027728 -0.00633352622
      -0.0045115659 -0.00171634776 -5.25883588e-05 -0.00692812912
      4.04942608 -1.22687834e-06 -8.62391389e-05 -0.0008866383
      2.73531103 -0.000110545574 -2.99426774e-05 -0.000361574057
      0.152968287 -0.0014905195 -0.00532625895 -1.57673621e-05
      -4.48661158e-05 -0.000629523827 -7.35714707e-07 -1.98899261e-06
      -0.000164737343 -3.32476993e-05 -0.00698349718 -6.34389107e-06
      -0.00408554915 -0.000676751486 0.444812357 -0.00843811035
      -0.00288289716 -0.0172021519 -0.00698736543 -0.00348066445
      -1.56327271e-08 0.714417875 0.53223145 -8.39494678e-05
      -5.05214048e-05 -0.00110328139 -0.00513066258 0.425106823
      -8.90514507e-09 -0.000127118779 0.297267586 -3.78494542e-06
      -2.06868584e-08 0.406901419 0.51872915 -0.000184515331
      -0.0015030998 -0.00230184011 -1.89715976e-08 0.317530513
      -2.61487476e-05 -0.000223972529 -3.05737422e-06 -2.93775042e-06
      0.264061064 -0.001968859 -0.00471729599 0.245546445
      -1.18625098e-06 -0.000276599283 -4.43672889e-06 0.0617361963
      0.679746747 0.154267594 0.108202085 -0.000675159739 0.283999205
      0.0612332858 -3.1437361e-05 -0.000355204189 0.0398641005
      0.309274793 0.574628651 -0.000309260678 0.535030484 0.423522085
      0.211512476 -0.00220786175 0.0831261575 0.486218929 0.151423261
      -0.00174499722 -1.45895565e-05 -0.00339703308 0.131838828
      -0.0042838864 -0.00194711785 -0.000125575607 -3.17283116e-06
      0.342381209 -1.88309571e-07 -4.13589504e-07 -0.000594172918
      0.83983171 -1.41248056e-05 -1.73652261e-05 -0.000228723147
      -0.000444814737 0.10078609 -4.0357758e-08 -2.87725704e-10
      -4.72662265e-09 -2.16097539e-13 -0.000149568659 -8.06986463e-07
      -2.19999199e-10 -9.25916756e-05 0.0752728805 -1.85851859e-05
      -2.8137787e-05 -0.000142767996 -3.84315281e-05 -1.52631474e-05
      0.332204759 -5.87536647e-07 -7.56439022e-06 0.273477077
      -0.000295642938 0.300086915 -7.19566742e-05 0.0123580918
      -0.00097396929 0.0653657466 -5.30991571e-08 0.0857823193
      -2.02138904e-06 -0.000119583194 -3.2495725e-06 -1.36067683e-06
      -0.000213389372 -2.04915878e-07 -3.43458692e-06 0.334821284
      -4.9133928e-09 -6.77778722e-10 -1.32779574e-08 -7.45536188e-10
      0.14391318 0.292032719 -2.31780105e-05 0.196595401 -8.90315496e-05
      -1.06974773e-09 -1.34844214e-07 -4.06475665e-05 -3.3226637e-09
      -0.000669141416 -8.06492899e-05 -1.10296057e-10 -2.97382689e-06
      -0.00038971231 -0.000305567257 -1.41870174e-07 -0.000205049597
      -9.58112878e-09 -2.86844352e-05 -0.000120697892 -5.99936675e-06</_>
    <_>
      -1.72232711 -4.50974035 -0.00452873716 -0.0198884625
      -4.01028579e-08 -0.000185656027 -0.00946164317 -0.00033389157
      -0.00165705406 -2.27958026e-06 -1.2153223e-05 -2.30162286e-07
      -8.71955563e-05 -0.000287132978 -0.000167394755 4.47817373
      2.20946765 -0.00202842709 1.15083981 -0.000142982914
      -0.000951135298 -0.000603086548 -0.00330302119 0.191550195
      -1.15832881e-05 1.35306227 3.34081101 -1.08149789e-05
      -4.29337233e-05 -1.53252913e-05 -0.00561034773 -0.000152450448
      -7.34943023e-05 -0.00108876603 -9.32917465e-05 -0.000631129078
      -0.000218449175 -5.69150579e-05 -0.00605004374 -0.000200429204
      -0.000112342495 -0.000632565352 -0.00122995453 -0.000309101975
      0.0584981814 -0.00131797127 -0.000323432672 1.91344976 1.35777879
      -0.0127280243 -0.00155089691 -0.00044433563 -3.25158589e-06
      -0.00684626214 1.29617333 -0.0201971736 -0.0372583829 -0.002737734
      -0.00153981207 -0.00324155809 -0.000622055028 -0.000411858317
      -0.00059928745 3.06883407 -0.00557611929 -2.735819e-05
      -3.03852739e-05 -1.9224326e-05 -0.00353136263 -0.00140360335
      -0.000509207021 3.95579386 -0.00123674527 -8.24619274e-05
      -4.28153908e-06 -0.00097957463 -2.05461474e-05 1.34114873
      2.73371768 -0.00117286912 -9.04868102e-06 -2.78008912e-07
      -0.000207404402 0.806138158 -0.0160113387 -0.000585724832
      0.0857107788 -0.000997128314 -6.00483099e-06 -0.00640457496
      -0.00381124066 -0.000382141821 -0.00399402808 -0.00565802446
      5.0362215 -0.019446278 -0.000610959891 -0.00591264851
      -0.00458283396 -0.00178555038 -5.18861598e-05 -0.00694815675
      3.89960051 -1.17647824e-06 -8.42057998e-05 -0.000881953223
      2.68107104 -0.00010973154 -2.95312093e-05 -0.000360298931
      0.0472013578 -0.00151844707 -0.00460827304 -1.59368738e-05
      -4.56721245e-05 -0.000646096771 -7.34171465e-07 -1.95463076e-06
      -0.000170237821 -3.43718566e-05 -0.00703700772 -6.55034637e-06
      -0.00414172234 -0.000697418756 0.345573276 -0.00837753247
      -0.00295079639 -0.0170857217 -0.00765213696 -0.00350178313
      -1.57888529e-08 0.705389738 0.539678633 -8.28788252e-05
      -4.93862935e-05 -0.000990264234 -0.00511789834 0.384716123
      -8.98730423e-09 -0.000127624939 0.278648049 -3.67003872e-06
      -2.12227516e-08 0.398338497 0.581300139 -0.000180700561
      -0.00166939618 -0.00158272416 -1.89098195e-08 0.315362573
      -2.6374888e-05 -0.000218082583 -3.01043065e-06 -2.95049222e-06
      0.283227593 -0.00215185294 -0.00458168285 0.258521408
      -1.19224092e-06 -0.000315183774 -4.45069463e-06 0.0693641901
      0.650259495 0.161178946 0.124654576 -0.000531185535 0.298720717
      0.148988053 -3.10770592e-05 -0.000350422342 0.0387123749
      0.294941485 0.601303577 -0.000305461057 0.531592131 0.4090074
      0.1629868 -0.00231968332 0.115405723 0.479107171 0.145735174
      -0.00179644849 -1.46575412e-05 -0.00337781361 0.176166624
      -0.00437379116 -0.00199734722 -0.000125317107 -3.17731701e-06
      0.286000103 -1.89244673e-07 -4.17317153e-07 -0.000826724281
      0.881130457 -1.4119958e-05 -1.73569624e-05 -0.000228830017
      -0.000445041136 0.0996189117 -4.03234921e-08 -2.88045005e-10
      -4.72343942e-09 -2.15766099e-13 -0.000149562155 -8.0670867e-07
      -2.19966836e-10 -9.25772401e-05 0.0742765814 -1.85797217e-05
      -2.81668454e-05 -0.000142764926 -3.84237246e-05 -1.52578104e-05
      0.33408612 -5.87311945e-07 -7.56249347e-06 0.274998218
      -0.000295917562 0.301875859 -7.17730873e-05 0.0120304227
      -0.00097581459 0.0653162003 -5.30613846e-08 0.0848196447
      -2.02427213e-06 -0.000119578108 -3.24731013e-06 -1.36881476e-06
      -0.000213500476 -2.04586897e-07 -3.43312513e-06 0.336766243
      -4.90817387e-09 -6.77779e-10 -1.32930076e-08 -7.44977025e-10
      0.143286109 0.290780336 -2.31695121e-05 0.197573751
      -8.90151132e-05 -1.06696318e-09 -1.34758636e-07 -4.06385261e-05
      -3.32063754e-09 -0.000670281705 -8.07261822e-05 -1.10198517e-10
      -2.97269071e-06 -0.000395171402 -0.000305801106 -1.41759941e-07
      -0.000205129021 -9.57493462e-09 -2.86790892e-05 -0.000120367535
      -5.9975996e-06</_>
    <_>
      -1.64490521 -4.72253942 -0.00445682323 -0.0200353526
      -4.01030782e-08 -0.000184379591 -0.00928498805 -0.000330013252
      -0.00165122107 -2.26603402e-06 -1.21798957e-05 -2.21603486e-07
      -8.5856198e-05 -0.000288914336 -0.000162718759 4.55208158
      2.28512573 -0.00202974444 1.06986117 -0.000140272241
      -0.000956407341 -0.000593892008 -0.00330283516 0.189237416
      -1.13614951e-05 1.42725134 3.41417193 -1.04617166e-05
      -4.25232902e-05 -1.55926245e-05 -0.00626023812 -0.000148670413
      0.05372715 -0.00107105065 -9.14070479e-05 -0.000615873258
      -0.00021465648 -5.75546801e-05 -0.00505478727 -0.000202338881
      -0.000110364832 -0.000644327898 -0.00121742673 -0.000302937755
      0.0364923216 -0.00134659477 -0.000325598958 1.86766315 1.33810985
      -0.01182443 -0.00153027452 -0.00062394765 -3.38293398e-06
      -0.006839009 1.37926877 -0.0204160288 -0.0380034 -0.00267509138
      -0.00123465376 -0.00318871182 -0.000602233806 -0.000425224105
      -0.00060010032 3.12141371 -0.00454985304 -2.73703572e-05
      -3.07698756e-05 -1.99137376e-05 -0.00342325121 -0.00138934224
      -0.000516204513 4.0511179 -0.00123498391 -8.15413005e-05
      -4.27790519e-06 -0.000952219591 -2.06630957e-05 1.44709766
      2.80883956 -0.00116276846 -9.20456478e-06 -2.73746451e-07
      -0.000205228585 0.833668053 -0.0162780918 -0.000578175823
      0.0634437948 -0.00231357501 -5.86801252e-06 -0.00627978053
      -0.00374400988 -0.000376797223 -0.00400320208 -0.00565974601
      5.18199062 -0.0192237794 -0.000618326711 -0.00598774198
      -0.00455320487 -0.00173044344 -5.14486965e-05 -0.00699648913
      4.01229382 -1.18319474e-06 -8.51623408e-05 -0.000870989461
      2.63596964 -0.000109905021 -2.94149777e-05 -0.00036268431
      0.224252492 -0.00151069113 -0.00496773096 -1.59960455e-05
      -4.57686765e-05 -0.0006366038 -7.31486978e-07 -1.98425687e-06
      -0.000168795319 -3.40312181e-05 -0.00701786345 -6.37748417e-06
      -0.00411775894 -0.000682915794 0.416360736 -0.00832941383
      -0.00295137404 -0.0169416964 -0.00685238698 -0.00353655685
      -1.56616835e-08 0.711940348 0.532416821 -8.38516353e-05
      -5.01772229e-05 -0.00107892707 -0.00509437732 0.412532598
      -8.88191476e-09 -0.000127350198 0.294039607 -3.77163133e-06
      -2.06455457e-08 0.408732593 0.527344584 -0.000184095145
      -0.00154429942 -0.00225002528 -1.889474e-08 0.315960258
      -2.62000376e-05 -0.000224415897 -3.02412104e-06 -2.93161997e-06
      0.262314051 -0.00197620993 -0.00468906015 0.255754858
      -1.18563003e-06 -0.000279316388 -4.43326553e-06 0.0670896396
      0.678086936 0.153015599 0.101809531 -0.000605272653 0.286372304
      0.088561371 -3.14999306e-05 -0.000355114113 0.0414354578
      0.301815718 0.570367515 -0.000309001189 0.535241723 0.4202241
      0.205789089 -0.00220807223 0.0861032978 0.480541617 0.141653031
      -0.00175973587 -1.46044249e-05 -0.00339700282 0.135654777
      -0.00432947371 -0.00196046988 -0.000125667473 -3.17749095e-06
      0.326227456 -1.8794735e-07 -4.1298037e-07 -0.000618530554
      0.865880549 -1.41200644e-05 -1.73634144e-05 -0.000228603705
      -0.000445459998 0.102058738 -4.03416109e-08 -2.85998253e-10
      -4.72426898e-09 -2.16122652e-13 -0.000149538537 -8.06766479e-07
      -2.19777793e-10 -9.25801942e-05 0.0767511129 -1.85815861e-05
      -2.0494479e-05 -0.000142745193 -3.84246741e-05 -1.52609246e-05
      0.330641866 -5.87356453e-07 -7.56323789e-06 0.271939665
      -0.000295469537 0.29981339 -7.22864497e-05 0.013383992
      -0.000974269642 0.0634731054 -5.30791375e-08 0.086987108
      -2.02386059e-06 -0.000119555873 -3.24754569e-06 -1.38772532e-06
      -0.000213307678 -2.0492989e-07 -3.43406919e-06 0.333701342
      -4.91045959e-09 -6.7752548e-10 -1.32710989e-08 -7.45166207e-10
      0.147423282 0.295676976 -2.31731756e-05 0.193479031
      -8.90102019e-05 -1.06855391e-09 -1.34774012e-07 -4.06420586e-05
      -3.32185768e-09 -0.000669127738 -7.50374966e-05 -1.10210605e-10
      -2.97319457e-06 -0.000382453931 -0.000305601308 -1.41808528e-07
      -0.000204948781 -9.57729362e-09 -2.86801478e-05 -0.000124233076
      -5.9979925e-06</_>
    <_>
      -1.59589922 -4.75504494 -0.00439985376 -0.02014241 -4.11473238e-08
      -0.000180270785 -0.00915939268 -0.000342874235 -0.00167257281
      -2.36190067e-06 -1.24659537e-05 -2.19424635e-07 -8.53540187e-05
      -0.00029626285 -0.000156600581 4.56927252 2.29983258
      -0.00204964937 1.09609771 -0.000142329969 -0.000980559154
      -0.000595756923 -0.00333556789 0.139697731 -1.15679286e-05
      1.4314152 3.43164372 -1.07355763e-05 -4.20681135e-05
      -1.63645291e-05 -0.00576805649 -0.000144323654 0.126795739
      -0.00105102803 -9.24023043e-05 -0.000628600945 -0.000213761145
      -5.8842299e-05 -0.00505066803 -0.000208554338 -0.000111248788
      -0.000648740213 -0.00121553952 -0.000320976804 0.00183063745
      -0.00140430324 -0.000329729082 1.85416961 1.3428421 -0.0127891479
      -0.00153411424 -0.000652419636 -3.47204696e-06 -0.00688380515
      1.42083967 -0.0205430984 -0.0382720567 -0.00262482301
      -0.000696685514 -0.00321033597 -0.000600105908 -0.000431545865
      -0.000623299566 3.12054181 -0.00496997265 -2.68996228e-05
      -3.1502128e-05 -2.05954493e-05 -0.00347035658 -0.00137785089
      -0.000525981362 3.95266151 -0.0012416871 -8.30122081e-05
      -4.41771454e-06 -0.000973860151 -2.12976083e-05 1.43036759
      2.80947375 -0.00117547042 -9.49000059e-06 -2.8356996e-07
      -0.000205131422 0.82279402 -0.0159737729 -0.000608831062
      0.0369197167 -0.00308724446 -5.8100477e-06 -0.00622866396
      -0.00376708643 -0.000376099459 -0.00400768965 -0.00583916251
      5.2419939 -0.0190385953 -0.000636828539 -0.0055423216
      -0.00452570897 -0.00172206305 -5.32221311e-05 -0.00693525281
      4.04261494 -1.22002655e-06 -8.99115912e-05 -0.000894683588
      2.63323879 -0.000113194779 -3.0550822e-05 -0.000359009544
      0.269640684 -0.00154855056 -0.00473420415 -1.67448216e-05
      -4.72253232e-05 -0.000637509336 -7.14888301e-07 -2.06149252e-06
      -0.000170198924 -3.38036007e-05 -0.00701418985 -6.26323981e-06
      -0.00411253795 -0.000675372663 0.387508273 -0.00838825759
      -0.00297061168 -0.0167482272 -0.00718830433 -0.00351270987
      -1.56282365e-08 0.71425575 0.529784024 -8.43226444e-05
      -5.04103482e-05 -0.00103569508 -0.00513397856 0.422108591
      -8.84055318e-09 -0.000127105595 0.290644825 -3.82444887e-06
      -2.03952393e-08 0.401957452 0.521737933 -0.000184781253
      -0.00154818268 -0.00236218004 -1.88910771e-08 0.316399515
      -2.61640143e-05 -0.000226386823 -3.03590514e-06 -2.92614209e-06
      0.258128703 -0.0019528541 -0.00474497583 0.24669902
      -1.18347941e-06 -0.000220922448 -4.4247754e-06 0.0678639114
      0.684989452 0.147212863 0.0956984907 -0.000601657433 0.274309695
      0.0682027042 -3.1768006e-05 -0.000356575067 0.032815285
      0.299309462 0.573499143 -0.000310537405 0.52347827 0.425326377
      0.219684452 -0.00217171572 0.0831129029 0.473227322 0.13501133
      -0.00174885383 -1.45604008e-05 -0.00339823239 0.128350079
      -0.00436671404 -0.00194756337 -0.000126204512 -3.18509979e-06
      0.331031412 -1.87488112e-07 -4.11420132e-07 -0.000549479562
      0.854739368 -1.41153923e-05 -1.73606622e-05 -0.000228520614
      -0.000446030084 0.102938958 -4.03230196e-08 -2.84611307e-10
      -4.72183181e-09 -2.16093568e-13 -0.000149512533 -8.06541607e-07
      -2.19588958e-10 -9.25684799e-05 0.0778287947 -1.85777717e-05
      -1.41379232e-05 -0.000142725767 -3.8417802e-05 -1.52582716e-05
      0.32962817 -5.87172792e-07 -7.56199461e-06 0.270892262
      -0.00029536683 0.299858838 -7.25328937e-05 0.0141878799
      -0.000974797818 0.0618900433 -5.30568087e-08 0.0878420621
      -2.02634783e-06 -0.000119532378 -3.24552047e-06 -1.41140356e-06
      -0.000213256586 -2.04891847e-07 -3.43341799e-06 0.333066106
      -4.90723462e-09 -6.77315704e-10 -1.32676847e-08 -7.44774464e-10
      0.150248453 0.298517346 -2.31678732e-05 0.191034466 -8.8989982e-05
      -1.06714171e-09 -1.34702759e-07 -4.06361178e-05 -3.32088201e-09
      -0.000669288798 -7.03786864e-05 -1.10124868e-10 -2.97249721e-06
      -0.000377245538 -0.000305664871 -1.41740685e-07 -0.000204876997
      -9.57317159e-09 -2.86757804e-05 -0.000127123523 -5.9965846e-06</_>
    <_>
      -1.76878309 -4.81512213 -0.00467827916 -0.0204522349
      -4.20800923e-08 -0.000178246977 -0.00971804932 -0.000358192134
      -0.0016365496 -2.42578017e-06 -1.24193202e-05 -2.28582778e-07
      -8.89808289e-05 -0.000291717763 -0.000171330947 4.59441233
      2.29990792 -0.00212341174 0.980436802 -0.000145637052
      -0.000957989134 -0.000611420022 -0.00344542321 0.186239034
      -1.16629653e-05 1.40569127 3.43793774 -1.02738695e-05
      -4.21657605e-05 -1.59889278e-05 -0.00763064716 -0.000150711712
      0.0165142119 -0.00113288069 -9.5685522e-05 -0.000639505975
      -0.000217163397 -5.98037841e-05 -0.00548965205 -0.000215319145
      -0.000112779249 -0.00061832153 -0.00130698516 -0.000294029829
      0.0456995368 -0.00134333642 -0.000334610435 1.79626679 1.31128168
      -0.0127206082 -0.00163337693 -0.000587446382 -3.47185983e-06
      -0.00700314343 1.27299786 -0.0201660842 -0.0381584167
      -0.00280739809 -0.00171457021 -0.00336419279 -0.000603438239
      -0.000449931773 -0.00063581299 3.13421226 -0.00523807527
      -2.59414264e-05 -3.21753032e-05 -1.98445632e-05 -0.00360417203
      -0.00142603111 -0.000504741503 4.08548689 -0.00128471048
      -8.34707243e-05 -4.35732363e-06 -0.000962340971 -1.97459431e-05
      1.42103469 2.7808702 -0.00120471744 -9.18530804e-06
      -2.91777098e-07 -0.000221133712 0.729723871 -0.0157854464
      -0.000584087335 0.0024407059 -0.00316030066 -6.16886518e-06
      -0.00652360683 -0.00375906006 -0.000394978677 -0.00403872784
      -0.00569812767 5.20506382 -0.0195560213 -0.00064205454
      -0.00583310472 -0.00474590575 -0.00179220317 -5.44783652e-05
      -0.00707919896 4.0446806 -1.21086953e-06 -9.00751256e-05
      -0.000880232663 2.54774046 -0.0001154903 -3.02977114e-05
      -0.000383831066 0.0854468718 -0.00156851381 -0.00605733041
      -1.6142918e-05 -4.80842391e-05 -0.000700664357 -7.46967089e-07
      -2.15163254e-06 -0.000172871383 -3.51892631e-05 -0.00716701848
      -6.7137762e-06 -0.00417273631 -0.000721532619 0.421630502
      -0.00850467384 -0.00303300819 -0.0167944636 -0.00722800428
      -0.00352931442 -1.58266928e-08 0.713130772 0.534237444
      -8.39831482e-05 -5.04600248e-05 -0.000998567673 -0.00509380316
      0.39651978 -8.94920582e-09 -0.000127703519 0.276167333
      -3.79563267e-06 -2.07492565e-08 0.410341322 0.546881258
      -0.000182579504 -0.00152428658 -0.00205632229 -1.90366976e-08
      0.310896158 -2.62527974e-05 -0.000223549854 -3.0645358e-06
      -2.94879214e-06 0.265165657 -0.00198818534 -0.00452855555
      0.256901383 -1.19267918e-06 -0.000180803603 -4.4526405e-06
      0.0580708832 0.670655489 0.151252255 0.0956668258 -0.000586881302
      0.296654701 0.104717419 -3.17844424e-05 -0.000352496951
      0.0497474298 0.309792131 0.575065792 -0.000306842441 0.52917397
      0.400777966 0.18955043 -0.0022782099 0.0858932734 0.470067292
      0.134672165 -0.0017691981 -1.46182692e-05 -0.00335765723
      0.143372685 -0.00424717413 -0.00194688409 -0.000125657767
      -3.20663366e-06 0.309759229 -1.89186423e-07 -4.16017997e-07
      -0.000665192609 0.85933882 -1.41136297e-05 -1.73616172e-05
      -0.000228418008 -0.000446380058 0.104038954 -4.03215275e-08
      -2.834393e-10 -4.72115236e-09 -2.16193667e-13 -0.000149495158
      -8.06473224e-07 -2.19457341e-10 -9.25648928e-05 0.0790156499
      -1.85768877e-05 -9.29644284e-06 -0.000142712146 -3.84154555e-05
      -1.52582243e-05 0.328163266 -5.87116062e-07 -7.56174904e-06
      0.269534796 -0.000295187521 0.299232751 -7.27879305e-05
      0.0149196684 -0.000974518538 0.06070555 -5.3053764e-08
      0.0888473094 -2.02717547e-06 -0.000119516415 -3.24481539e-06
      -1.42640783e-06 -0.000213176754 -2.04984289e-07 -3.43346233e-06
      0.331865281 -4.90670837e-09 -6.77156109e-10 -1.32595321e-08
      -7.44682815e-10 0.152626708 0.301138312 -2.31669783e-05
      0.188815877 -8.89806834e-05 -1.06709519e-09 -1.3468015e-07
      -4.06349354e-05 -3.32088756e-09 -0.000668990426 -6.68096327e-05
      -1.10095676e-10 -2.97238626e-06 -0.000371272792 -0.000305626949
      -1.41729757e-07 -0.000204793134 -9.57232249e-09 -2.86744289e-05
      -0.000129442225 -5.99616533e-06</_>
    <_>
      -1.7056886 -4.9207263 -0.00445596129 -0.0203404371 -4.1097536e-08
      -0.0001750753 -0.0093092043 -0.000341826002 -0.001607941
      -2.35612447e-06 -1.22919428e-05 -2.25482481e-07 -8.53178426e-05
      -0.00028760382 -0.000164075827 4.54173756 2.32388616
      -0.00203794474 0.939586937 -0.000142024161 -0.000967496191
      -0.000593016681 -0.0033497056 0.150282204 -1.13399619e-05
      1.4327991 3.47051191 -1.03953562e-05 -4.12688969e-05
      -1.65021684e-05 -0.00689173304 -0.000145390775 0.0932257175
      -0.00109138223 -9.25425047e-05 -0.000620131381 -0.000212490311
      -5.95043457e-05 -0.00551444618 -0.000208948288 -0.000109658744
      -0.000627972535 -0.00125225738 -0.000300545158 -0.000171734238
      -0.00134736556 -0.00032997012 1.73490703 1.31241798 -0.012857982
      -0.00155271008 -0.000600621337 -3.36392873e-06 -0.00682019675
      1.2893889 -0.0203167535 -0.037709374 -0.00268076709 -0.00156012923
      -0.00321578025 -0.000567248906 -0.000445666577 -0.000617072626
      3.14150286 -0.00464461045 -2.62668855e-05 -3.11852455e-05
      -2.01025759e-05 -0.00349800312 -0.00138154172 -0.000504918396
      3.98804235 -0.0012395439 -8.29093042e-05 -4.25012877e-06
      -0.000943648804 -2.04052594e-05 1.47107446 2.80817747
      -0.0011659466 -9.26953453e-06 -2.82440737e-07 -0.000202435243
      0.772018671 -0.0152582936 -0.000601431879 -8.55161197e-05
      -0.00335899647 -5.89496221e-06 -0.00628603855 -0.00358057092
      -0.000379069301 -0.00391527126 -0.00575746642 5.26787949
      -0.0193784516 -0.000654404575 -0.00541564822 -0.00457079802
      -0.00169713586 -5.26679396e-05 -0.0070489631 4.07824993
      -1.21410574e-06 -8.89298681e-05 -0.000866875635 2.57764125
      -0.000113270195 -3.0248335e-05 -0.000371571543 0.074461855
      -0.00154575065 -0.00519556645 -1.66997252e-05 -4.66174097e-05
      -0.00065601035 -7.10335428e-07 -2.08092206e-06 -0.000167322345
      -3.3555847e-05 -0.00701395981 -6.40883445e-06 -0.00403602002
      -0.000695447612 0.451606929 -0.00833085831 -0.00302126748
      -0.0164271463 -0.0065219556 -0.00341348723 -1.58061315e-08
      0.714061975 0.531325102 -8.413256e-05 -5.04998934e-05
      -0.000932789408 -0.00511340983 0.409236252 -8.91109408e-09
      -0.000127494335 0.282717705 -3.80627307e-06 -2.06406501e-08
      0.414362252 0.535929382 -0.000183115946 -0.00146656693
      -0.00222803559 -1.90542142e-08 0.317871809 -2.61673285e-05
      -0.000224759802 -3.05957929e-06 -2.94189044e-06 0.269130379
      -0.00196111994 -0.00460702134 0.26576072 -1.19047729e-06
      -0.000156437978 -4.44279567e-06 0.0638745055 0.677590013
      0.155111134 0.102644339 -0.000591193035 0.282407701 0.0902389884
      -3.18036946e-05 -0.000353699201 0.0512478352 0.316708118
      0.567511618 -0.000307002949 0.520546854 0.412851453 0.195161805
      -0.00224414491 0.085412398 0.481544882 0.137070388 -0.00175696099
      -1.46263064e-05 -0.00336901657 0.140704632 -0.0042507248
      -0.00194297335 -0.000125579056 -3.19918854e-06 0.323281854
      -1.88641025e-07 -4.14685132e-07 -0.000579344924 0.860941112
      -1.41159071e-05 -1.73642838e-05 -0.000228411227 -0.000446191407
      0.104118615 -4.03342604e-08 -2.83684437e-10 -4.7225015e-09
      -2.16281664e-13 -0.000149502812 -8.06593732e-07 -2.19509425e-10
      -9.25711647e-05 0.079007715 -1.85791159e-05 -1.07711921e-05
      -0.000142717428 -3.84189698e-05 -1.52601515e-05 0.327939987
      -5.87213947e-07 -7.56250392e-06 0.269407302 -0.000295144215
      0.298785448 -7.27754668e-05 0.0148124918 -0.000973943912
      0.0610862747 -5.30682236e-08 0.0888829678 -2.02588899e-06
      -0.000119523131 -3.24584244e-06 -1.41887801e-06 -0.00021316146
      -2.05073704e-07 -3.43397232e-06 0.331538379 -4.9087383e-09
      -6.7720507e-10 -1.32566536e-08 -7.44911188e-10 0.152121603
      0.300781906 -2.31702961e-05 0.18914628 -8.89894145e-05
      -1.06810638e-09 -1.34717752e-07 -4.06385334e-05 -3.32161165e-09
      -0.000668673776 -6.78774159e-05 -1.10139578e-10 -2.97282759e-06
      -0.000371152302 -0.0003055548 -1.41772588e-07 -0.000204790413
      -9.57480051e-09 -2.86767572e-05 -0.000128849439 -5.99692657e-06</_>
    <_>
      -1.6263113 -4.83056879 -0.0044224388 -0.021003671 -4.10122816e-08
      -0.000177198861 -0.0092841424 -0.000336384837 -0.00162096438
      -2.36624078e-06 -1.23524651e-05 -2.25439663e-07 -8.51040095e-05
      -0.000289778749 -0.00016217446 4.56543207 2.3371737 -0.002038426
      1.06199121 -0.000140095552 -0.000981628546 -0.000584664522
      -0.00331451581 0.152566493 -1.14272152e-05 1.45096505 3.48826623
      -1.0467742e-05 -4.14040114e-05 -1.64590656e-05 -0.0063053011
      -0.000145014637 0.116608553 -0.00108485762 -9.25081767e-05
      -0.000620685401 -0.000215049891 -5.92374054e-05 -0.00511345966
      -0.000206109296 -0.000109694767 -0.000629304559 -0.00123919954
      -0.000300826156 -0.000147012135 -0.00136649352 -0.000329784991
      1.8344878 1.34180224 -0.0122424802 -0.00153428852 -0.000569180585
      -3.42975386e-06 -0.00681149866 1.36300898 -0.0203628205
      -0.0373814479 -0.00265014311 -0.00152161031 -0.00317783188
      -0.000586394104 -0.000447246392 -0.000610143528 3.15574765
      -0.00454958808 -2.67567993e-05 -3.13148812e-05 -2.03439213e-05
      -0.00346917822 -0.00137015863 -0.000515700551 3.99093676
      -0.00124302215 -8.26064497e-05 -4.12812369e-06 -0.000943965162
      -2.07006196e-05 1.47674072 2.83477616 -0.00116352225
      -9.26025405e-06 -2.8410949e-07 -0.000202689713 0.868806899
      -0.0161662735 -0.000586110167 0.0116592795 -0.003088461
      -5.83101337e-06 -0.00625553494 -0.00366362347 -0.000373628194
      -0.00392931094 -0.00579081476 5.29891396 -0.0192629434
      -0.000656404998 -0.00552297244 -0.00455850223 -0.00169441663
      -5.25538526e-05 -0.00705300923 4.09184933 -1.23494431e-06
      -8.79829458e-05 -0.00087680039 2.64828205 -0.000112497888
      -3.0428042e-05 -0.000366188091 0.135602266 -0.00152522372
      -0.00499352114 -1.66166683e-05 -4.65371995e-05 -0.00065539137
      -7.2760696e-07 -2.04186472e-06 -0.000167170234 -3.34087126e-05
      -0.00695741735 -6.35942024e-06 -0.00403557904 -0.000685868145
      0.454919696 -0.00847998168 -0.00291084219 -0.0168265961
      -0.00665190816 -0.00337803783 -1.57830886e-08 0.716739357
      0.531617045 -8.41941364e-05 -5.05213065e-05 -0.00095989136
      -0.00515737943 0.40633145 -8.9041885e-09 -0.00012733099
      0.280678302 -3.81096152e-06 -2.05970672e-08 0.414708853
      0.535663188 -0.000183654207 -0.00149432174 -0.00228436408
      -1.9040078e-08 0.318051577 -2.61654841e-05 -0.000225264797
      -3.04646255e-06 -2.94036363e-06 0.267424762 -0.00196264102
      -0.00464896346 0.264113873 -1.18976072e-06 -0.000151464119
      -4.44246098e-06 0.0648608655 0.678736746 0.150979921 0.0975386947
      -0.000578357023 0.281152666 0.0881899148 -3.18141174e-05
      -0.000354021526 0.0463851392 0.31145224 0.567357123
      -0.000307767303 0.518478036 0.413627207 0.203864723 -0.00222945726
      0.0831565559 0.481353372 0.134554923 -0.00175909698
      -1.46262919e-05 -0.00337039586 0.13988331 -0.00426873984
      -0.00193926226 -0.0001255354 -3.19874948e-06 0.323509127
      -1.88553713e-07 -4.14305561e-07 -0.000584971043 0.864300191
      -1.4119646e-05 -1.73707031e-05 -0.000228327175 -0.000446020043
      0.105037235 -4.03608169e-08 -2.83423063e-10 -4.72496309e-09
      -2.16539799e-13 -0.000149507658 -8.06808373e-07 -2.19532975e-10
      -9.25823115e-05 0.0797941834 -1.85833433e-05 -1.070084e-05
      -0.000142719655 -3.84249943e-05 -1.52642879e-05 0.326463461
      -5.87387547e-07 -7.56397185e-06 0.268211693 -0.000294929167
      0.297388852 -7.29206804e-05 0.0150743239 -0.000972509675
      0.0611133315 -5.30974766e-08 0.0896417201 -2.02366414e-06
      -0.000119526892 -3.24758844e-06 -1.41276041e-06 -0.000213074367
      -2.05329926e-07 -3.43510646e-06 0.330014855 -4.91277952e-09
      -6.77202516e-10 -1.3244879e-08 -7.45343676e-10 0.152632803
      0.30178228 -2.31768772e-05 0.188364163 -8.90020601e-05
      -1.07026532e-09 -1.34783861e-07 -4.06455365e-05 -3.32318262e-09
      -0.000667785935 -6.77827557e-05 -1.10214893e-10 -2.97370775e-06
      -0.000366850931 -0.000305372989 -1.41857939e-07 -0.000204727825
      -9.5795949e-09 -2.86808881e-05 -0.000129130145 -5.99829173e-06</_>
    <_>
      -1.74812698 -4.81473684 -0.00451166928 -0.0198503267
      -4.13899706e-08 -0.000179056748 -0.00940273609 -0.000340493047
      -0.00164490705 -2.26819611e-06 -1.21944731e-05 -2.2755215e-07
      -8.55800245e-05 -0.000289349875 -0.000166466532 4.49753809
      2.33585763 -0.00204490172 1.09084129 -0.000142718462
      -0.00099002861 -0.000598238083 -0.00335468631 0.15000762
      -1.12423195e-05 1.45473254 3.4743495 -1.05323579e-05
      -4.15907343e-05 -1.62283031e-05 -0.00618068501 -0.000149246203
      0.091946505 -0.00109170284 -9.34282216e-05 -0.000635167176
      -0.000218484143 -5.85407361e-05 -0.00625795126 -0.000204037016
      -0.000111844412 -0.00063115079 -0.00124566548 -0.000316220103
      0.0322942473 -0.00132193696 -0.000327946618 1.8368175 1.40484715
      -0.0131535251 -0.0015471105 -0.000712100707 -3.2441576e-06
      -0.00689911516 1.25810933 -0.0204615463 -0.0377594233
      -0.00271583511 -0.00174699328 -0.00326415314 -0.000577423372
      -0.000426775427 -0.000609639799 3.15881848 -0.00509848353
      -2.69136344e-05 -3.10863797e-05 -2.00042959e-05 -0.00355751952
      -0.00139708654 -0.000508115569 3.96066809 -0.00123652467
      -8.41781293e-05 -4.28148951e-06 -0.000958933379 -2.07389439e-05
      1.44846463 2.73935723 -0.00117282022 -9.1174652e-06
      -2.70021985e-07 -0.000205793694 0.785933554 -0.0152326059
      -0.000591617019 0.0691108257 -0.00286761462 -5.92022661e-06
      -0.00632620789 -0.00362914288 -0.000378317665 -0.00392146409
      -0.00581356557 5.2866621 -0.0194768645 -0.000644535583
      -0.00513607077 -0.0045919409 -0.00174985523 -5.19248133e-05
      -0.0068769413 4.08039093 -1.19423589e-06 -8.72408782e-05
      -0.0008882088 2.62295985 -0.000110735367 -3.09545758e-05
      -0.000365392596 0.0757333413 -0.00154082919 -0.00494155241
      -1.66388691e-05 -4.67359023e-05 -0.000661065278 -7.03519902e-07
      -2.03987065e-06 -0.000171583335 -3.40973565e-05 -0.00704116933
      -6.445709e-06 -0.00403910456 -0.000693411857 0.430485189
      -0.00838047732 -0.00298610446 -0.0169912446 -0.00684644468
      -0.00343463104 -1.58143294e-08 0.709680915 0.535245895
      -8.37982589e-05 -5.03577648e-05 -0.00100338517 -0.0050655799
      0.396448553 -8.9458716e-09 -0.000127504944 0.280441552
      -3.77452693e-06 -2.0802803e-08 0.411617517 0.543161929
      -0.000182328426 -0.00155953877 -0.00209324737 -1.89112956e-08
      0.312372148 -2.62402573e-05 -0.00022323124 -3.04002492e-06
      -2.94601068e-06 0.268096 -0.00197299989 -0.0045852894 0.25825122
      -1.19231822e-06 -0.000226241711 -4.44993884e-06 0.0619067922
      0.666912079 0.153553143 0.102934286 -0.000571281067 0.296019852
      0.109492913 -3.16896294e-05 -0.000352333242 0.0506726354
      0.308588594 0.572932959 -0.000306909293 0.530287027 0.408602566
      0.186513871 -0.00225609564 0.0867688209 0.475113809 0.136164233
      -0.00176934479 -1.46263337e-05 -0.00336567988 0.146131098
      -0.00428551389 -0.00195353269 -0.000125308332 -3.19819242e-06
      0.30869323 -1.8907501e-07 -4.15694188e-07 -0.000643309555
      0.865570366 -1.41154451e-05 -1.73643148e-05 -0.000228392164
      -0.000446268532 0.104323611 -4.03332621e-08 -2.8344832e-10
      -4.72229811e-09 -2.16295623e-13 -0.000149499101 -8.06573951e-07
      -2.19481489e-10 -9.25701243e-05 0.0792333484 -1.85788213e-05
      -9.77952004e-06 -0.000142714547 -3.84183295e-05 -1.52600333e-05
      0.327674031 -5.8719769e-07 -7.56241479e-06 0.269156724
      -0.000295112695 0.298689485 -7.28243758e-05 0.0149564147
      -0.00097392319 0.0608429685 -5.30668309e-08 0.0890722573
      -2.02611977e-06 -0.000119519733 -3.2456503e-06 -1.42216857e-06
      -0.000213147199 -2.05086209e-07 -3.43395209e-06 0.331327528
      -4.9085247e-09 -6.77171486e-10 -1.32552582e-08 -7.4488099e-10
      0.152597994 0.301297665 -2.31699414e-05 0.188709587 -8.8987159e-05
      -1.06804066e-09 -1.34711357e-07 -4.06381114e-05 -3.32157168e-09
      -0.000668634893 -6.71475718e-05 -1.10131571e-10 -2.97278166e-06
      -0.000370027876 -0.000305551686 -1.41768098e-07 -0.000204774682
      -9.5745003e-09 -2.86763716e-05 -0.000129319611 -5.9968047e-06</_>
    <_>
      -1.65725291 -4.80667543 -0.0044370587 -0.0205815136
      -4.14342587e-08 -0.000172184256 -0.00927013997 -0.000336309284
      -0.00159167766 -2.39073938e-06 -1.23436348e-05 -2.22008836e-07
      -8.48309428e-05 -0.000286809489 -0.000164374404 4.55001688
      2.29162002 -0.00204136642 1.01617885 -0.000142101853
      -0.000966584368 -0.000592011958 -0.00332839135 0.129759729
      -1.1333992e-05 1.40450585 3.44120955 -1.06790876e-05
      -4.08989945e-05 -1.6893302e-05 -0.00656177755 -0.000143860889
      0.100187525 -0.00109499134 -9.23882326e-05 -0.000615967088
      -0.000209373844 -5.91061907e-05 -0.00507686473 -0.000209949314
      -0.000107896747 -0.000629609043 -0.00125401421 -0.000296574086
      -0.000229682584 -0.00136359269 -0.000330310606 1.76611304
      1.34416211 -0.0124328174 -0.00154892367 -0.000607324415
      -3.44063619e-06 -0.00678938301 1.31969142 -0.0203167666
      -0.0377008915 -0.00266172295 -0.00131819095 -0.00320345513
      -0.000565187423 -0.000449113635 -0.000617107493 3.1138413
      -0.00498498464 -2.63949569e-05 -3.1026575e-05 -2.00714767e-05
      -0.00344157871 -0.00138023228 -0.000513159845 3.94510007
      -0.00123794621 -8.21744252e-05 -4.22973608e-06 -0.000958289427
      -2.05454598e-05 1.42812717 2.8105557 -0.00116144167
      -9.28180907e-06 -2.88168621e-07 -0.000202531519 0.834894776
      -0.0156975575 -0.000605301815 -1.11722948e-05 -0.0034251688
      -5.89746105e-06 -0.00624813186 -0.00360468053 -0.000378779921
      -0.00386802666 -0.00574071612 5.23061085 -0.0192790218
      -0.000656575488 -0.0054543633 -0.00456662569 -0.00166842551
      -5.31625265e-05 -0.00707604503 4.04313469 -1.23504549e-06
      -8.96722922e-05 -0.000870409713 2.62914228 -0.000115119561
      -2.97576134e-05 -0.000372554845 0.106684946 -0.0015450404
      -0.00510333758 -1.70653057e-05 -4.62581629e-05 -0.00065489125
      -7.13606141e-07 -2.05805964e-06 -0.000164530677 -3.32721429e-05
      -0.00702728517 -6.39428026e-06 -0.00401864061 -0.000698323245
      0.419220328 -0.00834385585 -0.0029659986 -0.0164631009
      -0.00676430343 -0.00333626522 -1.59502491e-08 0.711182535
      0.526038826 -8.44125971e-05 -5.09744677e-05 -0.000856492494
      -0.00509300688 0.411104232 -8.97730779e-09 -0.000127271705
      0.271827906 -3.84096438e-06 -2.07415631e-08 0.418729186
      0.530612886 -0.000182164833 -0.00140464958 -0.00222055311
      -1.91941076e-08 0.319936961 -2.61791247e-05 -0.000224529766
      -3.09239658e-06 -2.95669702e-06 0.275304586 -0.00188266195
      -0.00450826949 0.267499179 -1.19732977e-06 -4.47786588e-05
      -4.46083368e-06 0.0635305718 0.676028609 0.159305319 0.0997995883
      -0.00058937195 0.282679141 0.0886384845 -3.20344225e-05
      -0.00035244113 0.0570641905 0.325248986 0.568602324
      -0.000305271067 0.516682506 0.402592331 0.188327417 -0.00225534709
      0.0744108409 0.482639313 0.145607576 -0.00174473878
      -1.46573793e-05 -0.00333297416 0.135505438 -0.00412923191
      -0.00191722997 -0.000125351158 -3.21985749e-06 0.326871812
      -1.89801895e-07 -4.17259997e-07 -0.000566519564 0.849654734
      -1.41173996e-05 -1.7368724e-05 -0.000228310542 -0.000446249906
      0.105207741 -4.03500628e-08 -2.82968565e-10 -4.7237112e-09
      -2.16489424e-13 -0.000149497617 -8.06694857e-07 -2.1946199e-10
      -9.25763961e-05 0.0800565109 -1.8581326e-05 -8.43368434e-06
      -0.000142712364 -3.84216073e-05 -1.52626999e-05 0.326331735
      -5.87295062e-07 -7.56330019e-06 0.268023908 -0.000294925849
      0.297624528 -7.29862659e-05 0.0153214931 -0.000972920912
      0.0605412573 -5.30849675e-08 0.0898282826 -2.02489559e-06
      -0.000119517928 -3.24659504e-06 -1.42213594e-06 -0.000213069638
      -2.0527655e-07 -3.43469833e-06 0.330026358 -4.9110005e-09
      -6.7712852e-10 -1.32455016e-08 -7.45136786e-10 0.15356487
      0.302641988 -2.31739632e-05 0.187610388 -8.89928779e-05
      -1.06942633e-09 -1.34748163e-07 -4.06423278e-05 -3.32259109e-09
      -0.000667981338 -6.61278682e-05 -1.101726e-10 -2.97332235e-06
      -0.000365658401 -0.000305423891 -1.41820493e-07 -0.00020471192
      -9.57737889e-09 -2.86786872e-05 -0.00013012113 -5.99757777e-06</_>
    <_>
      -1.77938044 -4.96579123 -0.00472140172 -0.0208270997
      -4.23245048e-08 -0.000184757664 -0.0097915018 -0.000363464234
      -0.00170842372 -2.43034765e-06 -1.25697516e-05 -2.33886723e-07
      -9.04231347e-05 -0.000299803214 -0.00017487361 4.65924597
      2.38702106 -0.00213488122 0.998350382 -0.00014975504
      -0.000989914057 -0.000625019602 -0.00347799761 0.178007156
      -1.17206628e-05 1.47621822 3.52578044 -1.07146006e-05
      -4.27239247e-05 -1.61647731e-05 -0.0073361895 -0.000154701964
      0.0519321635 -0.00114626205 -9.78843309e-05 -0.000657392957
      -0.000221075548 -6.0634462e-05 -0.00612284057 -0.00021571001
      -0.00011503078 -0.00064055156 -0.0013208593 -0.000310580828
      0.0655468255 -0.0013440043 -0.000333607721 1.78690124 1.35233855
      -0.0137211168 -0.00165152573 -0.000743274402 -3.38629297e-06
      -0.00709215691 1.2760675 -0.0206084605 -0.0393019803
      -0.00285932375 -0.00189446087 -0.0034338336 -0.000601913198
      -0.000423811231 -0.000638848695 3.226722 -0.00509771332
      -2.71366571e-05 -3.2003707e-05 -2.04573753e-05 -0.00367556862
      -0.00146485551 -0.000509830134 4.11174393 -0.00129746436
      -8.60868531e-05 -4.50475954e-06 -0.000991712208 -2.07058129e-05
      1.51061833 2.84353447 -0.00122037157 -9.18931801e-06
      -2.90277967e-07 -0.000218516812 0.745093703 -0.0161933955
      -0.000604171131 0.0202569813 -0.00303298049 -6.21041227e-06
      -0.006491879 -0.00373163004 -0.000399849552 -0.00407411112
      -0.00585548906 5.36112118 -0.0199220348 -0.000645392749
      -0.00601270795 -0.00476649683 -0.00184580684 -5.54597427e-05
      -0.0070045162 4.14262676 -1.21955816e-06 -9.16935605e-05
      -0.000892872689 2.60230303 -0.000116460862 -3.12181292e-05
      -0.000383466395 0.0886319652 -0.00159120455 -0.00539093185
      -1.65963665e-05 -4.82627074e-05 -0.000705643441 -7.33713421e-07
      -2.1312419e-06 -0.00017928028 -3.57852223e-05 -0.00730591174
      -6.81161509e-06 -0.00420536613 -0.000731795037 0.463437945
      -0.00844332483 -0.00312492694 -0.0171178207 -0.00693413941
      -0.00360006653 -1.57551217e-08 0.708705783 0.532070577
      -8.38982451e-05 -5.03218798e-05 -0.000977434916 -0.00508907065
      0.412708759 -8.9087111e-09 -0.000127336476 0.283298403
      -3.78242794e-06 -2.06964543e-08 0.406791627 0.535883069
      -0.000182756747 -0.00155328959 -0.00216664886 -1.88449487e-08
      0.317793101 -2.62087506e-05 -0.000223851166 -3.04245145e-06
      -2.93897142e-06 0.271947563 -0.00199198257 -0.00467811106
      0.255785704 -1.18916819e-06 -0.00022937484 -4.43943691e-06
      0.0661138222 0.672973454 0.154907703 0.102208182 -0.000576129183
      0.287508428 0.0988262147 -3.1671334e-05 -0.000353600772
      0.0473084673 0.306426436 0.57413286 -0.000307564886 0.53099978
      0.420390517 0.191345721 -0.00223088171 0.0883976221 0.47719726
      0.136412963 -0.00176179549 -1.45938011e-05 -0.00338170351
      0.145920962 -0.00433868216 -0.00195731875 -0.000125682491
      -3.18967545e-06 0.31652084 -1.88480698e-07 -4.14100242e-07
      -0.00058374682 0.862667859 -1.41032006e-05 -1.73476201e-05
      -0.000228512989 -0.00044712238 0.102982238 -4.02582714e-08
      -2.82897566e-10 -4.71476191e-09 -2.15691112e-13 -0.000149466883
      -8.05906723e-07 -2.19273391e-10 -9.25354325e-05 0.0783498511
      -1.85661829e-05 -4.73519776e-06 -0.000142693607 -3.83991392e-05
      -1.52485491e-05 0.330160677 -5.86656483e-07 -7.55809242e-06
      0.270984769 -0.000295512029 0.301862866 -7.26998333e-05
      0.0150260311 -0.000977581833 0.0594873987 -5.29827027e-08
      0.088069208 -2.03316745e-06 -0.000119492011 -3.24006032e-06
      -1.45540923e-06 -0.0002133011 -2.04478809e-07 -3.43086685e-06
      0.334229052 -4.8967892e-09 -6.77004119e-10 -1.32789113e-08
      -7.43586637e-10 0.15376243 0.301377743 -2.31507929e-05 0.188466161
      -8.89421426e-05 -1.06202613e-09 -1.34504177e-07 -4.06174913e-05
      -3.31723693e-09 -0.000670763373 -6.35473625e-05 -1.09891811e-10
      -2.97023007e-06 -0.000375427218 -0.000306012778 -1.41520417e-07
      -0.000204856507 -9.56033741e-09 -2.86634986e-05 -0.000131056338
      -5.99257828e-06</_>
    <_>
      -1.60535324 -4.9109478 -0.00436691847 -0.0208993591
      -4.02364719e-08 -0.0001869322 -0.00919057988 -0.000334590295
      -0.00168869726 -2.25799181e-06 -1.2278434e-05 -2.24726065e-07
      -8.46898984e-05 -0.000297615683 -0.000160199692 4.54758978
      2.4208746 -0.00201257411 1.13186038 -0.000143003926 -0.00100129016
      -0.000592082448 -0.00327222818 0.157132566 -1.12277266e-05
      1.53196251 3.56046987 -1.06740345e-05 -4.14809219e-05
      -1.64747307e-05 -0.00541994628 -0.000145469923 0.154986992
      -0.0010596565 -9.35395874e-05 -0.000634430791 -0.000220031827
      -5.79080152e-05 -0.00534012076 -0.000201552466 -0.000110567518
      -0.000662739098 -0.00120202091 -0.000321915752 0.0232390016
      -0.00134765089 -0.000322536769 1.89852238 1.38962257 -0.0126076238
      -0.00150590413 -0.000714557769 -3.29865452e-06 -0.0067822258
      1.41996908 -0.0208705831 -0.0373484567 -0.0026361919
      -0.000916308665 -0.00317219063 -0.000590526382 -0.000407619023
      -0.000598453451 3.22058392 -0.0042652241 -2.80076074e-05
      -3.08068265e-05 -2.01921248e-05 -0.00345518137 -0.00138939486
      -0.000528284872 4.00339699 -0.0012263715 -8.28329576e-05
      -4.29358215e-06 -0.00096833799 -2.13097574e-05 1.54380834
      2.79040742 -0.00115397677 -9.2237633e-06 -2.72913041e-07
      -0.000198739508 0.8515836 -0.0166152399 -0.000593471224
      0.0803487822 -0.00244934135 -5.74555634e-06 -0.00618668087
      -0.00360510009 -0.000370445458 -0.00393539527 -0.00588923087
      5.44304562 -0.0193086509 -0.000643865322 -0.00571824284
      -0.00447925925 -0.00172863295 -5.16008076e-05 -0.00687615434
      4.17476749 -1.23072323e-06 -8.74458856e-05 -0.000906339788
      2.67867708 -0.000110766254 -3.12303637e-05 -0.00035625411
      0.24364379 -0.00152603548 -0.0046203197 -1.67007383e-05
      -4.62066419e-05 -0.000631766627 -7.13372344e-07 -1.97399004e-06
      -0.000170812418 -3.33460302e-05 -0.00698674703 -6.25451321e-06
      -0.00400816975 -0.00067441084 0.474456072 -0.00848074444
      -0.0029443705 -0.0171320513 -0.00664679892 -0.00352403661
      -1.57617563e-08 0.714476287 0.529102445 -8.43338858e-05
      -5.06225369e-05 -0.000947182882 -0.00516260182 0.414956868
      -8.89856189e-09 -0.000127120133 0.280148864 -3.82629196e-06
      -2.05417976e-08 0.410527945 0.525527775 -0.000183998025
      -0.00151020882 -0.00237045158 -1.89934646e-08 0.317829013
      -2.61671084e-05 -0.000226002012 -3.04472564e-06 -2.93837365e-06
      0.265359819 -0.0019264915 -0.00467743911 0.257493764
      -1.18961748e-06 -0.000145055048 -4.44123089e-06 0.0672992915
      0.68086195 0.151005909 0.0956927836 -0.000582377659 0.276871085
      0.077110365 -3.18559396e-05 -0.000354765856 0.0429631695
      0.308868974 0.570911288 -0.000308801857 0.518263221 0.418751001
      0.210108817 -0.00219832361 0.0778079778 0.477744728 0.137850404
      -0.00175056932 -1.46179627e-05 -0.00336942123 0.131005585
      -0.00427729124 -0.00192951225 -0.000125650578 -3.19939136e-06
      0.327773213 -1.8850443e-07 -4.13828957e-07 -0.000556278974
      0.856948078 -1.41198898e-05 -1.73723838e-05 -0.000228276622
      -0.000446094346 0.105584428 -4.0366043e-08 -2.82995488e-10
      -4.72527839e-09 -2.16626833e-13 -0.000149503205 -8.06832759e-07
      -2.19496268e-10 -9.25835702e-05 0.080339238 -1.85839708e-05
      -9.16805129e-06 -0.000142715828 -3.84255472e-05 -1.52651628e-05
      0.32568109 -5.87406873e-07 -7.56420877e-06 0.267524391
      -0.000294826285 0.296886593 -7.30323954e-05 0.0153608825
      -0.000972113165 0.0607485436 -5.31027951e-08 0.0901242346
      -2.02345109e-06 -0.00011952265 -3.24773919e-06 -1.41623548e-06
      -0.000213030391 -2.05414253e-07 -3.43536408e-06 0.329304755
      -4.91348118e-09 -6.77150502e-10 -1.32397497e-08 -7.45407513e-10
      0.153490871 0.302825093 -2.31780068e-05 0.187497824
      -8.90018418e-05 -1.07071407e-09 -1.34790895e-07 -4.06466643e-05
      -3.32352212e-09 -0.000667500484 -6.66437481e-05 -1.10221818e-10
      -2.97386146e-06 -0.000364037667 -0.00030532197 -1.41872803e-07
      -0.000204687865 -9.58035518e-09 -2.86813465e-05 -0.000129920052
      -5.99845225e-06</_>
    <_>
      -1.67122829 -4.55689192 -0.00452762516 -0.0197362658
      -4.19154915e-08 -0.000184590768 -0.00938002951 -0.000356493198
      -0.00170184637 -2.37231461e-06 -1.25306733e-05 -2.25198775e-07
      -8.69682772e-05 -0.000294872734 -0.00016372581 4.55477524
      2.19541383 -0.00208649342 1.12523305 -0.00014376406
      -0.000988726853 -0.000610660936 -0.00339473621 0.132602751
      -1.15197699e-05 1.31512845 3.32773042 -1.0408301e-05
      -4.22775884e-05 -1.59197407e-05 -0.00586832268 -0.000150747321
      0.0259208381 -0.00106708414 -9.37440782e-05 -0.000641585561
      -0.000215882028 -5.86341885e-05 -0.00520383241 -0.000206936282
      -0.000113466427 -0.00064977532 -0.00123896555 -0.000308644783
      0.0456987172 -0.0013955913 -0.00032842267 1.84759808 1.29736614
      -0.0126921088 -0.00156339596 -0.000764516008 -3.44503587e-06
      -0.00698327832 1.35027444 -0.0204829704 -0.0380178951
      -0.00270748814 -0.00140911073 -0.00328995613 -0.000623274595
      -0.00042749563 -0.00062893494 3.05546689 -0.0058830441
      -2.78837615e-05 -3.18955499e-05 -2.0045507e-05 -0.00356359081
      -0.00140092091 -0.000522758754 4.07693052 -0.00126028247
      -8.5755426e-05 -4.41740985e-06 -0.000978849945 -2.07983812e-05
      1.35281384 2.78115821 -0.00119925325 -9.29007183e-06
      -2.83498053e-07 -0.00021616515 0.78042984 -0.0157246031
      -0.000607407244 0.0210092589 -0.00261644903 -5.992968e-06
      -0.00636398606 -0.00379833789 -0.000383876177 -0.00408791471
      -0.00586416479 5.07842922 -0.0193343051 -0.000630083203
      -0.0057841111 -0.00465792557 -0.00177117065 -5.2957188e-05
      -0.00695746159 3.95034409 -1.21905623e-06 -8.85781847e-05
      -0.000893054064 2.68547153 -0.000111735659 -3.03436445e-05
      -0.00036434512 0.30395481 -0.00156543381 -0.00474327756
      -1.67600829e-05 -4.76705172e-05 -0.000655281998 -7.28095472e-07
      -2.04299113e-06 -0.000172171334 -3.47869791e-05 -0.00703810155
      -6.37850144e-06 -0.00417020777 -0.000687174324 0.300137937
      -0.00845594425 -0.00298731332 -0.0168894902 -0.00777849695
      -0.00354794529 -1.60236571e-08 0.710421264 0.523851097
      -8.4264153e-05 -5.11230282e-05 -0.000864361529 -0.00499712396
      0.407574862 -9.02435637e-09 -0.000127315958 0.271345496
      -3.82376811e-06 -2.09044426e-08 0.422833204 0.530196488
      -0.000181315598 -0.00139406917 -0.00214307127 -1.92218632e-08
      0.313067615 -2.62290505e-05 -0.000223808922 -3.10004475e-06
      -2.9663222e-06 0.276904225 -0.00188290246 -0.00438082404
      0.271229446 -1.20121706e-06 -7.99173868e-05 -4.47340108e-06
      0.0608129725 0.668223977 0.162886918 0.102653652 -0.000603990455
      0.29092145 0.0975308716 -3.19877836e-05 -0.000351527502
      0.0645130351 0.331875324 0.566275775 -0.000304122717 0.522868693
      0.394842923 0.172679365 -0.00229315786 0.0733772069 0.484866768
      0.146263748 -0.00174786209 -1.46793691e-05 -0.00332005857
      0.132002026 -0.00404455233 -0.00191097893 -0.000125038991
      -3.22680148e-06 0.322979927 -1.90518705e-07 -4.18999264e-07
      -0.000593943405 0.853078663 -1.41099426e-05 -1.73571661e-05
      -0.000228433826 -0.000446675898 0.103855394 -4.03005451e-08
      -2.8308586e-10 -4.71895323e-09 -2.16043763e-13 -0.000149483269
      -8.06277058e-07 -2.1937735e-10 -9.25546847e-05 0.0789742619
      -1.85732406e-05 -7.06613037e-06 -0.000142704012 -3.84097475e-05
      -1.5255041e-05 0.328601003 -5.86956673e-07 -7.56051213e-06
      0.269808352 -0.000295267149 0.300005436 -7.27973747e-05
      0.0150649119 -0.000975482748 0.0601256341 -5.30299786e-08
      0.0887413323 -2.02926503e-06 -0.000119506003 -3.24314942e-06
      -1.43814771e-06 -0.000213205611 -2.04832133e-07 -3.43261718e-06
      0.332463622 -4.90337237e-09 -6.77082779e-10 -1.32646916e-08
      -7.44309281e-10 0.153358251 0.301609963 -2.31615304e-05
      0.188366666 -8.89666262e-05 -1.06542408e-09 -1.34619015e-07
      -4.0629031e-05 -3.3196903e-09 -0.00066952809 -6.51988012e-05
      -1.10024385e-10 -2.9716623e-06 -0.000371742324 -0.000305747875
      -1.41659413e-07 -0.00020480137 -9.56826174e-09 -2.86706399e-05
      -0.000130321976 -5.99492523e-06</_>
    <_>
      -1.6325841 -5.36897326 -0.00460890867 -0.0213692132
      -4.06126652e-08 -0.000201285744 -0.00957408082 -0.000354615069
      -0.00177810073 -2.37956692e-06 -1.25215374e-05 -2.29975115e-07
      -9.04574481e-05 -0.000313193566 -0.000171084423 4.69849205
      2.59686494 -0.00210101297 0.936226189 -0.000151751941
      -0.00101293507 -0.000630601833 -0.00339920819 0.196759284
      -1.17116733e-05 1.66473758 3.72668743 -1.11767695e-05
      -4.40368385e-05 -1.58541479e-05 -0.00685385941 -0.000154215042
      0.166256905 -0.00112190412 -9.91787092e-05 -0.000664270425
      -0.000224948802 -6.18949562e-05 -0.00569502823 -0.000210833299
      -0.00011399699 -0.000690206478 -0.00127921777 -0.000333124975
      0.0704941005 -0.00133833662 -0.000330994691 1.66086137 1.37945724
      -0.0138704283 -0.00162484124 -0.000690473127 -3.28194892e-06
      -0.00700381584 1.37612581 -0.0213005058 -0.0390572585
      -0.00282916101 -0.00226285635 -0.00334384828 -0.000643527892
      -0.000392563525 -0.000609944342 3.3862164 -0.00350183621
      -2.85711158e-05 -3.13036762e-05 -2.16656081e-05 -0.0036420892
      -0.00150437013 -0.000516564643 4.04740143 -0.00128024037
      -8.59269421e-05 -4.56055614e-06 -0.00102985639 -2.25814201e-05
      1.71816099 2.85457563 -0.00120088027 -9.36273318e-06
      -2.83811318e-07 -0.000202683615 0.872872949 -0.0178049635
      -0.000630118884 0.0611376837 -0.00256145629 -6.13251723e-06
      -0.00623850292 -0.00381013076 -0.000394874602 -0.00412928732
      -0.00594215514 5.67991924 -0.020106595 -0.000630597409
      -0.00639388058 -0.00463542109 -0.00186005584 -5.4837612e-05
      -0.00697097927 4.32413387 -1.23117616e-06 -8.89655639e-05
      -0.00092481327 2.56040859 -0.000116061652 -3.15935067e-05
      -0.000375123491 0.0818493292 -0.00158474664 -0.00428714696
      -1.64237117e-05 -4.79679511e-05 -0.000683236402 -7.37852304e-07
      -2.02096999e-06 -0.000187834012 -3.54795666e-05 -0.0074334871
      -6.79121922e-06 -0.00413954491 -0.000732842018 0.604127526
      -0.00846569892 -0.00319229835 -0.017495526 -0.00600333186
      -0.00370950298 -1.57628453e-08 0.712755203 0.524586797
      -8.47118863e-05 -5.0953262e-05 -0.000855480437 -0.00511531066
      0.433817118 -8.88124507e-09 -0.000126897547 0.283685118
      -3.86854435e-06 -2.04198791e-08 0.415295601 0.511497796
      -0.000183576092 -0.00141893944 -0.00246192841 -1.90732532e-08
      0.323361844 -2.6074722e-05 -0.000227076627 -3.0986032e-06
      -2.9356836e-06 0.274303764 -0.00184470229 -0.0047148969
      0.252385646 -1.1890437e-06 -0.000108217071 -4.43535828e-06
      0.0693755373 0.68409282 0.156205118 0.104693756 -0.000615415978
      0.263415396 0.0554833524 -3.19985629e-05 -0.000355967786
      0.0458134636 0.322436988 0.570833445 -0.000308365154 0.511462808
      0.426533729 0.209441841 -0.00219107768 0.0702275932 0.487285048
      0.146754146 -0.00172784622 -1.46217226e-05 -0.00337267341
      0.121168949 -0.00422245031 -0.00191832881 -0.000126030835
      -3.20072536e-06 0.341712475 -1.88366613e-07 -4.13179805e-07
      -0.000480471703 0.838121414 -1.41166256e-05 -1.73657154e-05
      -0.000228388031 -0.000446172198 0.104373403 -4.03399056e-08
      -2.83569862e-10 -4.72300021e-09 -2.16342135e-13 -0.000149503016
      -8.06636592e-07 -2.19507856e-10 -9.25733839e-05 0.0792365894
      -1.85799836e-05 -1.05363497e-05 -0.000142717239 -3.84201558e-05
      -1.5261041e-05 0.327547073 -5.87248564e-07 -7.5628077e-06
      0.269081265 -0.000295089063 0.298447669 -7.28190498e-05
      0.0149033256 -0.000973620568 0.0610394403 -5.30743769e-08
      0.089098081 -2.02545357e-06 -0.00011952316 -3.24618304e-06
      -1.41835415e-06 -0.00021313873 -2.0513356e-07 -3.4342188e-06
      0.331146657 -4.90958429e-09 -6.77195411e-10 -1.32536817e-08
      -7.4499984e-10 0.152343214 0.30112493 -2.31716713e-05 0.188873291
      -8.89916992e-05 -1.06856946e-09 -1.34730868e-07 -4.06399886e-05
      -3.32195027e-09 -0.000668467139 -6.76949858e-05 -1.10154372e-10
      -2.97301153e-06 -0.000369931367 -0.000305513764 -1.41790423e-07
      -0.00020477279 -9.57579349e-09 -2.86775812e-05 -0.000129018532
      -5.99720033e-06</_>
    <_>
      -1.55181181 -5.22042084 -0.00461772876 -0.0213790946
      -4.14140402e-08 -0.000193473286 -0.00955671631 -0.000365175598
      -0.0017436255 -2.54585439e-06 -1.28235588e-05 -2.28972581e-07
      -9.1320464e-05 -0.000314505363 -0.000168490165 4.67753649
      2.55583549 -0.00213553337 1.02336252 -0.000151109765
      -0.00101435406 -0.000621860265 -0.00344148697 0.189500481
      -1.20215655e-05 1.63459337 3.69183874 -1.13845408e-05
      -4.42305936e-05 -1.62584256e-05 -0.00657935627 -0.000149741987
      0.118967354 -0.00111269532 -9.87541061e-05 -0.000661129132
      -0.000225270982 -6.27811241e-05 -0.00522393221 -0.000216640823
      -0.000116293995 -0.000670728157 -0.00128721667 -0.000321792089
      0.0636743829 -0.00137489068 -0.000329444476 1.76802158 1.33916509
      -0.012972055 -0.00163697463 -0.000663780083 -3.4816419e-06
      -0.00707017956 1.49747574 -0.0211241208 -0.0391566418
      -0.00279117539 -0.00148281897 -0.0033550954 -0.0006411738
      -0.000409402768 -0.000638400728 3.34337521 -0.00378519576
      -2.80687764e-05 -3.25852379e-05 -2.21053233e-05 -0.0036356952
      -0.00147204113 -0.000536659965 4.10286808 -0.00130469294
      -8.58405983e-05 -4.45034266e-06 -0.00101842533 -2.19992653e-05
      1.65665853 2.84288907 -0.00121153879 -9.64324136e-06
      -3.05627054e-07 -0.00021181698 0.848404765 -0.0178472307
      -0.000609867624 0.03172094 -0.00336693507 -6.09578365e-06
      -0.00634817686 -0.00384286069 -0.000394221541 -0.0041518705
      -0.00593111012 5.63920307 -0.0196595658 -0.000648275833
      -0.00631768024 -0.00469150906 -0.00184647553 -5.69316908e-05
      -0.00706493948 4.30898476 -1.27547287e-06 -9.26981011e-05
      -0.00092050893 2.59996271 -0.000118913267 -3.16206024e-05
      -0.000378633995 0.319382757 -0.00159095565 -0.00549793476
      -1.64571084e-05 -4.90921302e-05 -0.000695798371 -7.57844248e-07
      -2.17110778e-06 -0.000184572709 -3.54587828e-05 -0.00738301128
      -6.69984593e-06 -0.00417801132 -0.000727567065 0.566309929
      -0.00859868247 -0.00312921684 -0.0173326414 -0.00641311612
      -0.00369181717 -1.57375712e-08 0.714754641 0.523147166
      -8.50361685e-05 -5.12878578e-05 -0.000700840785 -0.00509938179
      0.457057476 -8.86553853e-09 -0.000126119499 0.282026649
      -3.90600508e-06 -2.0262334e-08 0.410089254 0.498470396
      -0.000184304969 -0.0014159733 -0.00263138744 -1.89741325e-08
      0.320613623 -2.5973457e-05 -0.000228572811 -3.12053999e-06
      -2.93244898e-06 0.281608939 -0.00174901204 -0.00477468688
      0.232660487 -1.18758055e-06 -0.000123628895 -4.43077715e-06
      0.0716876686 0.683403671 0.160028473 0.113126382 -0.00062347803
      0.248827621 0.0231791399 -3.21860025e-05 -0.000357028155
      0.0424131379 0.32785511 0.569784343 -0.000309658702 0.506023824
      0.441540569 0.218038172 -0.00211969926 0.0565905534 0.492089629
      0.144917473 -0.00171209988 -1.45971726e-05 -0.00338096707
      0.106170602 -0.00425205287 -0.00190167932 -0.000126066181
      -3.19744163e-06 0.349905103 -1.88255129e-07 -4.12030403e-07
      -0.000299717853 0.816371739 -1.41041864e-05 -1.73497992e-05
      -0.00022847348 -0.000447110127 0.103411794 -4.02666203e-08
      -2.82670665e-10 -4.71546935e-09 -2.15786224e-13 -0.000149466301
      -8.05967318e-07 -2.19264856e-10 -9.25385757e-05 0.0787475258
      -1.85674326e-05 -4.1212511e-06 -0.000142692646 -3.84007872e-05
      -1.52498724e-05 0.329507291 -5.86705312e-07 -7.55853353e-06
      0.270434797 -0.000295421109 0.3013376 -7.27775478e-05 0.0151994955
      -0.000977086951 0.0593514815 -5.29917266e-08 0.0884358212
      -2.03255377e-06 -0.000119491269 -3.24053508e-06 -1.45527883e-06
      -0.000213263396 -2.04572402e-07 -3.43123656e-06 0.333592832
      -4.89802332e-09 -6.76983802e-10 -1.3274132e-08 -7.43714423e-10
      0.154217154 0.302019358 -2.31527956e-05 0.187943906
      -8.89450675e-05 -1.06271381e-09 -1.34522651e-07 -4.06195977e-05
      -3.3177423e-09 -0.000670441834 -6.30807335e-05 -1.09912433e-10
      -2.97049928e-06 -0.000373315794 -0.000305949769 -1.41546508e-07
      -0.000204826181 -9.56177182e-09 -2.86646591e-05 -0.000131429377
      -5.99296527e-06</_>
    <_>
      -1.74652123 -4.8732686 -0.00464298995 -0.0203257482
      -4.14016803e-08 -0.000192827836 -0.00960397255 -0.000357640529
      -0.00174129626 -2.38905636e-06 -1.25475535e-05 -2.26727124e-07
      -8.98692015e-05 -0.000303694687 -0.000171095162 4.64672709
      2.3523283 -0.00211500796 1.00787759 -0.000148386986
      -0.000998270465 -0.000623884203 -0.00343275117 0.159492671
      -1.16321671e-05 1.44357502 3.48020434 -1.05269182e-05
      -4.33260939e-05 -1.57205723e-05 -0.00701265549 -0.000155960006
      0.00223660562 -0.00111836556 -9.70352776e-05 -0.000657736557
      -0.000219427602 -6.06521571e-05 -0.00595645653 -0.000211301362
      -0.000114142 -0.000661986473 -0.00128014293 -0.000324573892
      0.0677270591 -0.00135792128 -0.00033010784 1.79851961 1.3565768
      -0.0136516653 -0.00161939033 -0.000720806129 -3.33689968e-06
      -0.00704004616 1.3046906 -0.020820966 -0.0395584926 -0.00281043374
      -0.00239298074 -0.00337328063 -0.000639154809 -0.000410867506
      -0.00062104169 3.20350242 -0.00531019596 -2.76970804e-05
      -3.17355807e-05 -2.0807629e-05 -0.00364568294 -0.00147057604
      -0.000510976068 4.09086895 -0.00126566214 -8.687839e-05
      -4.48585342e-06 -0.000994842732 -2.17108045e-05 1.48410475
      2.85257006 -0.00120979594 -9.23337666e-06 -2.84804287e-07
      -0.000213922176 0.777767897 -0.0165395681 -0.00061614014
      0.0334286354 -0.00269391644 -6.12546637e-06 -0.00641069887
      -0.00387572241 -0.000394673349 -0.00410683919 -0.00590300141
      5.28831673 -0.0198485162 -0.000627845759 -0.00605523586
      -0.00469923299 -0.00183788547 -5.43221067e-05 -0.00698457705
      4.09527779 -1.20064726e-06 -8.89398798e-05 -0.000906661851
      2.60461378 -0.000114261842 -3.07194423e-05 -0.00037376635
      0.0759048536 -0.00158060901 -0.00444847485 -1.65291622e-05
      -4.81674615e-05 -0.000682072772 -7.30590955e-07 -2.04631851e-06
      -0.000182102929 -3.55424672e-05 -0.00727897743 -6.69428891e-06
      -0.00416376302 -0.000724992016 0.411220372 -0.00843895227
      -0.00311821443 -0.0172971971 -0.00719769858 -0.00358358817
      -1.58546651e-08 0.711177051 0.531508505 -8.41040528e-05
      -5.06106298e-05 -0.000867676688 -0.00506858155 0.412220001
      -8.92356056e-09 -0.000127342428 0.282790691 -3.8048513e-06
      -2.06918269e-08 0.415534079 0.531611145 -0.000182644493
      -0.00146253046 -0.00225281878 -1.89987102e-08 0.320749491
      -2.61532041e-05 -0.00022459848 -3.05631715e-06 -2.94364145e-06
      0.275616944 -0.00192912796 -0.00462805526 0.267278612
      -1.19202252e-06 -0.000141123601 -4.44526813e-06 0.0664901435
      0.675054967 0.15918538 0.107241243 -0.000569894619 0.281107187
      0.0910088718 -3.18615093e-05 -0.000353144074 0.0558241978
      0.320375025 0.56370455 -0.000306340487 0.518790364 0.418201029
      0.190487087 -0.00221440452 0.0835360587 0.486285627 0.136589259
      -0.00175080716 -1.46384145e-05 -0.00336575788 0.14273715
      -0.00425117556 -0.0019412887 -0.000125364284 -3.2005164e-06
      0.325047374 -1.8887701e-07 -4.15103898e-07 -0.000525023614
      0.860191405 -1.41113169e-05 -1.73591943e-05 -0.000228414778
      -0.000446590799 0.104067519 -4.03093807e-08 -2.83097545e-10
      -4.7198192e-09 -2.16120036e-13 -0.00014948631 -8.06353171e-07
      -2.19395946e-10 -9.25586428e-05 0.0791341215 -1.85747012e-05
      -7.46548176e-06 -0.000142705889 -3.8411923e-05 -1.52564044e-05
      0.328236341 -5.87018405e-07 -7.56101417e-06 0.269527912
      -0.00029521159 0.299593598 -7.28234882e-05 0.0150881484
      -0.00097503484 0.0602389239 -5.30398374e-08 0.0889083669
      -2.02846877e-06 -0.000119508579 -3.24378084e-06 -1.4349381e-06
      -0.000213183681 -2.04908631e-07 -3.43298552e-06 0.33205986
      -4.90474461e-09 -6.77094214e-10 -1.32614764e-08 -7.44458939e-10
      0.153321832 0.301717669 -2.31637659e-05 0.188299984
      -8.89715593e-05 -1.06613673e-09 -1.3464259e-07 -4.06314284e-05
      -3.32020544e-09 -0.000669260975 -6.54790347e-05 -1.10051558e-10
      -2.97196038e-06 -0.000370829774 -0.000305691385 -1.41688332e-07
      -0.000204787822 -9.56990576e-09 -2.86721079e-05 -0.000130215121
      -5.99540817e-06</_>
    <_>
      -1.61340427 -4.99241924 -0.00441101706 -0.0198719148
      -4.06832967e-08 -0.00018787678 -0.00916860346 -0.000345927256
      -0.00171047589 -2.30708906e-06 -1.24337657e-05 -2.21334304e-07
      -8.6244574e-05 -0.000300822139 -0.000159830015 4.46836376
      2.42705321 -0.00205893395 1.07882106 -0.000144261168
      -0.00100945856 -0.000597521313 -0.0033194737 0.160121739
      -1.15419189e-05 1.54262912 3.5650866 -1.10051305e-05
      -4.28205167e-05 -1.59247884e-05 -0.00513398182 -0.000145897575
      0.149831668 -0.0010518661 -9.3585455e-05 -0.000631728035
      -0.000219859416 -5.93027034e-05 -0.00458988221 -0.000205509918
      -0.000113102571 -0.000662982347 -0.00120095361 -0.000318636565
      0.0114513151 -0.0014086212 -0.000324660155 1.79499459 1.36863208
      -0.0121742077 -0.00153382716 -0.00073075504 -3.46225261e-06
      -0.00689448183 1.37196374 -0.0208479948 -0.0368976668
      -0.00263558002 -0.00117341417 -0.00317196129 -0.00060925039
      -0.000434854388 -0.000612352218 3.22895956 -0.00387052889
      -2.77533745e-05 -3.17186605e-05 -2.08005331e-05 -0.0034602785
      -0.00139405753 -0.000528677134 4.02126932 -0.00124655582
      -8.27203767e-05 -4.37662038e-06 -0.000984799583 -2.12801006e-05
      1.54351532 2.78073215 -0.00117234176 -9.45921329e-06
      -2.74287686e-07 -0.000205575328 0.818846762 -0.0160862114
      -0.000602138345 0.0473390929 -0.0029463761 -5.83358951e-06
      -0.00621252367 -0.0037619553 -0.000374765747 -0.00405871496
      -0.00588550512 5.45104504 -0.0191408489 -0.000644712301
      -0.00534595223 -0.00454431958 -0.00174390874 -5.26582335e-05
      -0.00702759437 4.17511749 -1.25189626e-06 -8.80156367e-05
      -0.000901148422 2.58645535 -0.000112913091 -3.06465918e-05
      -0.000357807236 0.34810093 -0.00154920504 -0.00505258562
      -1.64596804e-05 -4.74846856e-05 -0.000648483343 -7.38907659e-07
      -2.01593048e-06 -0.000174540837 -3.41550876e-05 -0.00708969776
      -6.29112856e-06 -0.0040774513 -0.000682801823 0.483103991
      -0.00855166838 -0.00295425253 -0.0168680139 -0.00642496161
      -0.00356286811 -1.60524518e-08 0.696717799 0.510577381
      -8.5321386e-05 -5.1943669e-05 -0.000745729369 -0.00481099309
      0.438373595 -8.99767549e-09 -0.000126889863 0.272830874
      -3.93631171e-06 -2.05889243e-08 0.42375648 0.489361107
      -0.000181012976 -0.00124669739 -0.00237148767 -1.93791152e-08
      0.311678618 -2.60944653e-05 -0.000227185927 -3.20398249e-06
      -2.96345434e-06 0.284817338 -0.00167673267 -0.00444920361
      0.251719326 -1.20225491e-06 0.00209564716 -4.46558033e-06
      0.0627698675 0.666872323 0.16665107 0.112953439 -0.000657712575
      0.270997524 0.0558441766 -3.23967797e-05 -0.000354532822
      0.0626911297 0.342481017 0.570379138 -0.000304505636 0.508353472
      0.404807627 0.18465811 -0.00225020223 0.0379667282 0.490730554
      0.158260599 -0.00170879066 -1.46900302e-05 -0.0033058892
      0.102801733 -0.00398874562 -0.00187294395 -0.000125635896
      -3.2417945e-06 0.343680054 -1.90430328e-07 -4.17963747e-07
      -0.000428283733 0.821991026 -1.41143892e-05 -1.73661228e-05
      -0.000228286546 -0.000446561578 0.105457827 -4.03357987e-08
      -2.82344204e-10 -4.72204098e-09 -2.16424535e-13 -0.000149483996
      -8.06543255e-07 -2.1936529e-10 -9.25684944e-05 0.0804276839
      -1.85786375e-05 -5.36151219e-06 -0.000142702469 -3.8417078e-05
      -1.52605953e-05 0.326126158 -5.87171485e-07 -7.56240615e-06
      0.267747432 -0.000294918078 0.297917128 -7.30776592e-05
      0.0156607386 -0.000973459217 0.0597681627 -5.30683515e-08
      0.0900970697 -2.02654564e-06 -0.000119505756 -3.24526536e-06
      -1.43490263e-06 -0.000213061823 -2.05207797e-07 -3.43415854e-06
      0.330013394 -4.90863794e-09 -6.77026213e-10 -1.32461295e-08
      -7.44861006e-10 0.15483734 0.303828269 -2.31700906e-05 0.186575979
      -8.89805524e-05 -1.06831477e-09 -1.34700485e-07 -4.06380605e-05
      -3.32180705e-09 -0.00066823361 -6.38845013e-05 -1.10116055e-10
      -2.97280985e-06 -0.000363965635 -0.000305490568 -1.4177067e-07
      -0.000204689233 -9.57443103e-09 -2.86757495e-05 -0.000131470879
      -5.99662371e-06</_>
    <_>
      -1.77128589 -4.87179041 -0.00475020055 -0.0205623694
      -4.21191899e-08 -0.000196047942 -0.00976632722 -0.000365227257
      -0.00178138865 -2.20372885e-06 -1.2308139e-05 -2.33395781e-07
      -9.01083986e-05 -0.000304490037 -0.000174551809 4.62323236
      2.40853333 -0.00213180273 1.17515779 -0.000152663633
      -0.00100002147 -0.000637366029 -0.00346990279 0.189555526
      -1.1218799e-05 1.5184058 3.55761361 -1.10000146e-05
      -4.32075794e-05 -1.55263515e-05 -0.00545631954 -0.000160014155
      0.0931728408 -0.00112329575 -0.000100085359 -0.000685737352
      -0.000224722055 -5.9099053e-05 -0.00669105398 -0.000206730547
      -0.000116495081 -0.000674954616 -0.00128756836 -0.000339904393
      0.09657415 -0.00131479197 -0.000325330388 1.87455106 1.4139595
      -0.0144716781 -0.00162681506 -0.000807620294 -3.14188446e-06
      -0.00710909627 1.25101888 -0.0209409781 -0.0386765748
      -0.00289431657 -0.0023844908 -0.00344736828 -0.000626747496
      -0.000402580161 -0.00061964232 3.27465725 -0.00519672735
      -2.81618941e-05 -3.14680947e-05 -2.01269977e-05 -0.00374734844
      -0.00149721804 -0.000508311554 4.06732178 -0.00128568825
      -8.83044631e-05 -4.64155528e-06 -0.00103344035 -2.20179863e-05
      1.52605665 2.76535153 -0.00122793391 -8.90629508e-06
      -2.59409262e-07 -0.000220221948 0.815130353 -0.0166758057
      -0.000621215673 0.0869103819 -0.00214592507 -6.25142866e-06
      -0.00641100761 -0.0038532638 -0.000398145465 -0.00415924657
      -0.00590392575 5.41356087 -0.0201117732 -0.000629781396
      -0.00587455416 -0.00469894614 -0.00191265834 -5.31920778e-05
      -0.00674408767 4.15112877 -1.16235333e-06 -8.7271852e-05
      -0.000915248471 2.67329264 -0.0001119843 -3.17065787e-05
      -0.000369185058 0.0182848349 -0.00158550008 -0.00465703988
      -1.61880489e-05 -4.82729083e-05 -0.000691099442 -7.07486095e-07
      -2.00436239e-06 -0.000186388686 -3.65253873e-05 -0.00734964479
      -6.88131195e-06 -0.00422822963 -0.000728792395 0.468405157
      -0.00832928624 -0.00312879845 -0.017448552 -0.00707715983
      -0.00362841738 -1.6112935e-08 0.698297143 0.517769933
      -8.43434173e-05 -5.13775558e-05 -0.000780514325 -0.0048701046
      0.416268647 -9.05168385e-09 -0.00012724736 0.270254046
      -3.83026872e-06 -2.09969393e-08 0.42825073 0.51437515
      -0.000180041854 -0.00134025305 -0.00211706338 -1.9216376e-08
      0.314427912 -2.6185231e-05 -0.000223619631 -3.12844031e-06
      -2.97069073e-06 0.291053385 -0.00180861889 -0.00438272068
      0.27406776 -1.20469906e-06 -7.75740264e-05 -4.47773937e-06
      0.0646971092 0.657905698 0.170370668 0.116271213 -0.000603536202
      0.288679779 0.0994990766 -3.20221006e-05 -0.000351071678
      0.0743313208 0.337894469 0.565748751 -0.000302424829 0.521669149
      0.39980641 0.16123347 -0.00227361615 0.0594438352 0.493644923
      0.155340686 -0.00173843256 -1.47218498e-05 -0.00330690132
      0.132822633 -0.00401830301 -0.00190323917 -0.000124715487
      -3.22965752e-06 0.327042252 -1.90960591e-07 -4.20084945e-07
      -0.000524948875 0.851550341 -1.4114773e-05 -1.73636527e-05
      -0.000228389763 -0.000446332619 0.104349092 -4.03298515e-08
      -2.83336021e-10 -4.72191664e-09 -2.16276541e-13 -0.000149496394
      -8.06539504e-07 -2.19462379e-10 -9.25683416e-05 0.0792841688
      -1.8578201e-05 -9.20884304e-06 -0.000142712612 -3.84173109e-05
      -1.52595258e-05 0.327671587 -5.87169666e-07 -7.56220652e-06
      0.269134194 -0.00029511677 0.298777461 -7.28378509e-05
      0.0150130857 -0.000974062539 0.0606989339 -5.30629087e-08
      0.0891050696 -2.0264938e-06 -0.000119517324 -3.24535108e-06
      -1.42479428e-06 -0.000213147956 -2.05066527e-07 -3.43381976e-06
      0.3313618 -4.90797092e-09 -6.77151502e-10 -1.32556623e-08
      -7.44817152e-10 0.152823001 0.301496297 -2.31690319e-05
      0.188536316 -8.8984496e-05 -1.0677732e-09 -1.34700542e-07
      -4.06371182e-05 -3.32138184e-09 -0.000668705557 -6.67319619e-05
      -1.10118852e-10 -2.97266115e-06 -0.000369817833 -0.00030556912
      -1.41756388e-07 -0.000204771975 -9.57381641e-09 -2.86757058e-05
      -0.000129565698 -5.99658733e-06</_>
    <_>
      -1.51762903 -5.31037378 -0.00447015651 -0.0209070556
      -3.85617369e-08 -0.000188700957 -0.00937605463 -0.000338534883
      -0.00167932233 -2.3697919e-06 -1.2354074e-05 -2.2716749e-07
      -8.9060246e-05 -0.000303590641 -0.000162150638 4.66318846
      2.62436533 -0.00202379352 1.02161229 -0.000146904567
      -0.000986677711 -0.000596534286 -0.00329438481 0.21993646
      -1.15805942e-05 1.6897248 3.76897192 -1.14484183e-05
      -4.36010851e-05 -1.56201222e-05 -0.00590924034 -0.000147315004
      0.15056394 -0.00107278489 -9.42244515e-05 -0.000639440841
      -0.000229197918 -5.9616661e-05 -0.00586960604 -0.000202106385
      -0.000111210902 -0.000656775839 -0.00121989998 -0.000319209095
      0.0914302543 -0.00132386608 -0.000311722717 1.78694057 1.39293063
      -0.0124133285 -0.00155634235 -0.00055516744 -3.3354936e-06
      -0.00686031161 1.58150673 -0.021450242 -0.0392179489
      -0.00270159123 -0.00164544338 -0.00319040404 -0.000632056268
      -0.000380980055 -0.000603660417 3.43307447 -0.00384829729
      -2.90034659e-05 -3.07839036e-05 -2.10775343e-05 -0.00347622228
      -0.00141883281 -0.000539460103 4.11828518 -0.00124817854
      -8.07778488e-05 -4.23195979e-06 -0.00100459589 -2.13923904e-05
      1.64572561 2.83444571 -0.00116173178 -9.38083485e-06
      -2.87440969e-07 -0.00020104766 0.906535149 -0.0170555729
      -0.000574872189 0.0857131481 -0.0023438246 -5.81053928e-06
      -0.00631735893 -0.0038973419 -0.000376959651 -0.00400968827
      -0.00586064812 5.74007034 -0.0196313914 -0.000612341741
      -0.00663512619 -0.00452779839 -0.00178935344 -5.37861597e-05
      -0.00690961583 4.38575459 -1.2451228e-06 -8.65473266e-05
      -0.000920113234 2.60330343 -0.000111995374 -3.15398647e-05
      -0.000358185207 0.254775286 -0.00151365413 -0.00583555223
      -1.57700015e-05 -4.63330653e-05 -0.000641901046 -7.1330868e-07
      -2.04852472e-06 -0.000175401961 -3.41117993e-05 -0.00714508025
      -6.37562107e-06 -0.00410619425 -0.000693564594 0.600495815
      -0.00857885182 -0.00303497259 -0.0176816285 -0.00655238843
      -0.00375611335 -1.6147272e-08 0.700415075 0.520432949
      -8.42016234e-05 -5.16367872e-05 -0.000770607265 -0.00490070507
      0.418167114 -9.08490705e-09 -0.000126901767 0.267239392
      -3.81035716e-06 -2.11266613e-08 0.418216705 0.513561547
      -0.000180364063 -0.00142831646 -0.00213230541 -1.91076719e-08
      0.317851514 -2.62321064e-05 -0.000222601622 -3.10021733e-06
      -2.97881365e-06 0.297279865 -0.00187962828 -0.00444717379
      0.27320078 -1.20619598e-06 -6.90673987e-05 -4.48696574e-06
      0.0631208345 0.656444609 0.170850903 0.112451762 -0.000574079575
      0.29551357 0.0922763348 -3.19822539e-05 -0.000350157934
      0.0713179931 0.324780524 0.555754662 -0.000302400091 0.52641654
      0.412240177 0.167912245 -0.00222929125 0.0641970485 0.501781285
      0.144452527 -0.00173071201 -1.46960747e-05 -0.00330827478
      0.139678895 -0.00407169852 -0.00190231611 -0.000124332364
      -3.22762639e-06 0.3316755 -1.91513621e-07 -4.20951835e-07
      -0.000445186481 0.84974426 -1.41216906e-05 -1.73734825e-05
      -0.000228307355 -0.000445877144 0.105260432 -4.03733118e-08
      -2.83518542e-10 -4.72622252e-09 -2.16640074e-13 -0.0001495131
      -8.06919786e-07 -2.19567892e-10 -9.25881104e-05 0.0799384937
      -1.85854533e-05 -1.15826724e-05 -0.000142723205 -3.8428203e-05
      -1.52662033e-05 0.326050758 -5.87477928e-07 -7.56469262e-06
      0.267909795 -0.000294863305 0.296854258 -7.294018e-05 0.0150579941
