<?xml version="1.0"?>
<opencv_storage>
<opencv_ml_svm>
  <format>3</format>
  <svmType>EPS_SVR</svmType>
  <kernel>
    <type>RBF</type>
    <gamma>0.0050000000000000001</gamma></kernel>
  <C>1.</C>
  <p>0.001</p>
  <term_criteria><iterations>10000</iterations></term_criteria>
  <var_count>258</var_count>
  <sv_total>488</sv_total>
  <support_vectors>
    <_>
      -1.37874973 -3.15956426 -0.00418521324 -0.00345388707
      -5.28730908e-08 -0.000138963573 -0.0079101054 -0.000385077525
      -0.00178697915 -1.24268445e-06 -1.11599602e-05 -1.80710458e-07
      -5.46736665e-05 -0.000239503745 -0.000119905628 3.08279252
      0.294507354 -0.00211524754 2.77902675 -0.000112339796
      -0.000991018256 -0.000579913554 -0.00340829953 -0.00108400907
      -8.14479336e-06 -0.000584097404 1.5040499 -7.34977539e-06
      -2.89167292e-05 -1.55168691e-05 0.95870924 -0.000138041549
      -0.000813084655 -0.000680990284 -8.28631019e-05 -0.000656305521
      -0.000160861149 -3.96115684e-05 -0.0013310241 -0.000166770347
      -0.000111850532 -0.000562866975 -0.000935993041 -0.000321793108
      0.0105161164 -0.00154531584 -0.000308843184 3.10379267 1.0711596
      -0.00713542616 -0.00119460025 -0.00221153488 -3.46496199e-06
      -0.0068027894 0.719809353 -0.0164367612 -0.0233490076
      -0.00221625855 0.0908234492 -0.00318488618 -0.000444380363
      -0.000586867623 -0.000677177042 1.47286201 -0.0144320652
      -2.78463758e-05 -3.50115733e-05 -1.06860325e-05 -0.00394681375
      -0.00103029725 -0.000605937734 3.57054901 -0.0011602618
      -9.37118384e-05 -4.42927831e-06 -0.000949826208 -1.73263124e-05
      -0.00234960834 1.30526161 -0.00123889395 -7.05841194e-06
      -1.20925563e-07 -0.000296101789 0.798463225 -0.00178524491
      -0.000598577142 0.200191289 -0.0072382763 -5.81423319e-06
      -0.00586175546 -0.00325341197 -0.000332503725 -0.00432485016
      -0.0053057787 2.39421225 -0.0154368253 -0.000601716398 0.124197163
      -0.00447632885 -0.00159901974 -3.12255361e-05 -0.00595302088
      2.18190503 -9.17624277e-07 -7.95150409e-05 -0.000803010364
      3.0602386 -7.67421661e-05 -2.88467763e-05 -0.000257021253
      1.4867605 -0.00142101245 -0.00483841961 -1.79382168e-05
      -5.09802012e-05 -0.000490994425 -5.93608831e-07 -1.64926416e-06
      -0.000134466114 -3.55991469e-05 -0.00530623738 -4.86901763e-06
      -0.00433142157 -0.0004047564 -0.00961652678 -0.00747535052
      -0.00200860272 -0.0132664787 -0.0137289064 -0.00270315958
      -1.70144219e-08 0.457085162 0.5079844 -7.91493439e-05
      -5.90917443e-05 0.416941255 0.200234205 0.722607911 -8.6516696e-09
      -0.000159692849 0.481615216 -3.28240549e-06 -2.23439951e-08
      0.378860831 0.555126965 -0.000192594802 0.193074793 -0.00197720295
      -1.60650089e-08 0.0803132206 -2.2655473e-05 -0.000208338315
      -2.81908547e-06 -2.69917064e-06 0.243291527 -1.00224088e-05
      -0.000188780876 0.367199242 -1.21656979e-06 -0.00035508236
      -4.28234671e-06 0.0176782031 0.653385878 0.423085183 0.495555401
      -0.000869620359 0.0412060022 0.168521732 -3.26879745e-05
      -0.000355126715 0.334734708 0.763049722 0.460704982
      -0.000270801509 0.281398535 0.368799388 -0.00224128133
      -0.000520068221 0.0515554212 0.147611365 0.209410757
      -0.00179137348 -1.54341706e-05 -0.00314741605 -1.29852442e-05
      -0.00283207861 -0.00211031409 -0.000119759519 -2.97254815e-06
      0.344126254 -2.14618595e-07 -4.1589314e-07 0.188795462 0.667581618
      -1.40406501e-05 -1.7250557e-05 -0.000229550817 -0.000450690684
      0.091611959 -3.98425435e-08 -2.83911367e-10 -4.67486272e-09
      -2.11945668e-13 -0.000149347004 -8.0240153e-07 -2.18566401e-10
      -9.23532571e-05 0.0692320019 -1.84983346e-05 0.000643778592
      -0.00014262386 -3.82996659e-05 -1.51842569e-05 0.349241674
      -5.83817723e-07 -7.53469067e-06 0.285999149 -0.000298383267
      0.321828753 -7.11039611e-05 0.0128360428 -0.000999096665
      0.0560787395 -5.25211625e-08 0.0789267719 -2.06985123e-06
      -0.000119392469 -3.2111484e-06 -1.58977809e-06 -0.00021444491
      -2.00745546e-07 -3.41339296e-06 0.354699403 -4.83276441e-09
      -6.76613654e-10 -1.34400642e-08 -7.36642858e-10 0.151908368
      0.292615294 -2.30464466e-05 0.194923043 -8.87220813e-05
      -1.02842579e-09 -1.33420514e-07 -4.05059036e-05 -3.29288397e-09
      -0.000683753751 -5.59776454e-05 -1.08648444e-10 -2.95629479e-06
      -0.000426697865 -0.000308734016 -1.40168297e-07 -0.000205609846
      -9.48382262e-09 -2.85959686e-05 -0.000132625326 -5.97032431e-06</_>
    <_>
      -1.40404713 -2.57545519 -0.00480766455 -0.00615937263
      -6.0396232e-08 -0.000159839532 -0.00885479338 -0.000449961633
      -0.00183084153 -1.66737482e-06 -1.22642341e-05 -1.94856156e-07
      -6.09727285e-05 -0.000232761653 -0.000134466682 3.51574659
      -0.00363650918 -0.00233665877 2.9195261 -0.000116802599
      -0.000976657728 -0.00063951005 -0.00388257089 -0.00215076795
      -8.96923848e-06 -0.0074135703 0.881063879 -6.22967127e-06
      -3.05148715e-05 -1.62708784e-05 0.777306259 -0.00016117355
      -0.00707398029 -0.000754797307 -8.56834522e-05 -0.000708686595
      -0.000152653447 -4.13261914e-05 -0.00452286564 -0.000180878225
      -0.000124425351 -0.000581791333 -0.00109445606 -0.000289645453
      0.0011376366 -0.00164390367 -0.00033969662 3.4919641 0.884879827
      -0.0124134356 -0.00135436223 -0.0019228576 -3.71799206e-06
      -0.00764294527 0.624377251 -0.0165614765 -0.0296747908
      -0.00252913311 -0.00140872446 -0.00371746463 -0.000504484691
      -0.000639006263 -0.000793114945 1.07649684 -0.0218188092
      -2.30521746e-05 -3.68869441e-05 -1.10949222e-05 -0.004268385
      -0.00107723102 -0.000532552716 3.67784309 -0.00123311428
      -0.000105463747 -5.00038641e-06 -0.000893009361 -1.66997033e-05
      -0.00866213441 1.62734938 -0.00143192883 -7.11969597e-06
      -1.57516723e-07 -0.000353367388 0.804618597 -0.0035953375
      -0.000643561594 -0.000702749181 -0.00687447097 -6.61182048e-06
      -0.00656281505 -0.003703102 -0.000377059856 -0.00468081888
      -0.00519783329 1.32748818 -0.0161213372 -0.000598356884
      -0.000762441021 -0.0050246818 -0.00176322483 -3.40100014e-05
      -0.00632453198 1.54647696 -8.15289923e-07 -8.46105249e-05
      -0.000774951011 3.47650099 -8.69672876e-05 -2.76810806e-05
      -0.000291251665 0.872297645 -0.00160338054 -0.00341096846
      -1.88277081e-05 -5.37963679e-05 -0.000542046153 -5.72910722e-07
      -1.70238775e-06 -0.000136283212 -4.02959085e-05 -0.00564722531
      -5.60438411e-06 -0.00502059516 -0.000418916083 -0.0151792169
      -0.00766011328 -0.00213251635 -0.0126311788 -0.0186388493
      -0.00231896434 -1.76801986e-08 0.402725488 0.499263704
      -7.2438881e-05 -5.57932726e-05 0.453061968 0.1741115 0.55965209
      -9.64349045e-09 -0.000174204077 0.461239427 -2.50590483e-06
      -2.67181708e-08 0.387724042 0.669946671 -0.000183315671
      0.115767375 -0.00165618293 -1.50945905e-08 -3.08272247e-05
      -2.41284997e-05 -0.000180080897 -2.25965391e-06 -2.8335885e-06
      0.101090595 -0.00056556327 -3.73926014e-05 0.38424778
      -1.29178227e-06 -0.000462344498 -4.50669086e-06 0.143106267
      0.636960328 0.512993515 0.463687152 -0.000799389964 0.0821440965
      0.322389007 -2.74874401e-05 -0.00034856284 0.316985399 0.666310191
      0.503145516 -0.000241818008 0.375875294 0.283402085 -0.00124866213
      -0.000508276804 0.0327293016 0.118508413 0.306042194 -0.0017897248
      -1.63457753e-05 -0.00297165802 -0.00033287995 -0.00229431572
      -0.00211396138 -0.000111691865 -2.93485164e-06 0.13977766
      -2.2624306e-07 -4.50805231e-07 0.0928208828 0.7192114
      -1.39748108e-05 -1.71740448e-05 -0.000229727055 -0.000456178997
      0.089510791 -3.9476042e-08 -2.76637019e-10 -4.63594985e-09
      -2.09433192e-13 -0.000149123531 -7.98923054e-07 -2.17045895e-10
      -9.21722822e-05 0.0696687251 -1.84340588e-05 0.00497202203
      -0.000142469391 -3.81981299e-05 -1.5128845e-05 0.355411589
      -5.80991411e-07 -7.51293464e-06 0.289429396 -0.000299596402
      0.334596515 -7.15102433e-05 0.0160512049 -0.00101558771
      0.0449094288 -5.21045962e-08 0.0780767128 -2.1070216e-06
      -0.000119196156 -3.18148045e-06 -1.80903464e-06 -0.000214870059
      -1.98189611e-07 -3.39873168e-06 0.363899469 -4.77425877e-09
      -6.75174527e-10 -1.35215323e-08 -7.30057181e-10 0.166867405
      0.303332865 -2.29508314e-05 0.185019433 -8.84688561e-05
      -9.99318961e-10 -1.32335074e-07 -4.04020939e-05 -3.27206062e-09
      -0.000692810863 -2.46404288e-05 -1.07380292e-10 -2.94358688e-06
      -0.000429102482 -0.000310801843 -1.38934084e-07 -0.000205672419
      -9.41236156e-09 -2.85287388e-05 -0.000150102918 -5.94834682e-06</_>
    <_>
      -1.47544408 -2.38613129 -0.00503356988 -0.00697939796
      -6.03267551e-08 -0.000141841228 -0.00919743255 -0.000455460016
      -0.00176002912 -1.78213872e-06 -1.25770002e-05 -2.03288891e-07
      -6.37440826e-05 -0.000224486081 -0.000141733544 3.5958569
      -0.00550869806 -0.00238742493 2.72606444 -0.000121235193
      -0.0009312068 -0.000634854368 -0.00398017233 -0.00236617355
      -8.96595247e-06 -0.0089111384 0.688411891 -5.67621828e-06
      -3.1635489e-05 -1.56751721e-05 0.550500035 -0.000165474004
      -0.0091814585 -0.000809638528 -8.41962028e-05 -0.000715527043
      -0.000154382244 -4.13811213e-05 -0.00461719511 -0.000184260643
      -0.000124072132 -0.000545093906 -0.0011771057 -0.000256974716
      -8.9268382e-05 -0.00159867539 -0.000365568383 3.31136751
      0.80520308 -0.0137677556 -0.00141541671 -0.00169119553
      -3.59409705e-06 -0.00790015608 0.627177179 -0.0158458017
      -0.0320112556 -0.00267164083 -0.00167410821 -0.00389614166
      -0.000531881873 -0.000638824713 -0.000809183344 0.942031324
      -0.0235763974 -2.17026845e-05 -3.5957135e-05 -1.04193132e-05
      -0.00425976934 -0.00110020838 -0.000501358241 3.67491007
      -0.00129108515 -0.000104230676 -4.75406569e-06 -0.000854159181
      -1.57542527e-05 -0.0108659752 1.6818881 -0.00147733651
      -6.93689253e-06 -1.63555555e-07 -0.000356756093 0.756278634
      -0.0044293385 -0.000621457992 -0.00147413253 -0.00658305222
      -6.72964325e-06 -0.00675913086 -0.00395948859 -0.000389380293
      -0.00462719146 -0.00489120139 0.984570861 -0.0161715727
      -0.000596195692 -0.000993398833 -0.0051541375 -0.00177445286
      -3.54286058e-05 -0.00633062236 1.31836772 -7.84366136e-07
      -8.48225172e-05 -0.000734083646 3.4856534 -8.95681878e-05
      -2.60802171e-05 -0.000310084986 0.715099871 -0.00162956398
      -0.00337152556 -1.78564678e-05 -5.20390349e-05 -0.000572559657
      -5.71843032e-07 -1.76911237e-06 -0.000132825284 -4.12102418e-05
      -0.00569755677 -6.12335134e-06 -0.00524516171 -0.000442057266
      -0.0164813474 -0.00762292882 -0.00212666113 -0.0121333199
      -0.0195072759 -0.00200345088 -1.78687483e-08 0.389344156
      0.483683944 -6.96113857e-05 -5.60537301e-05 0.5150913 0.200896174
      0.594815969 -9.73790382e-09 -0.000184384568 0.52876389
      -2.05197171e-06 -2.80454593e-08 0.356062531 0.726863563
      -0.000181405354 0.0708748773 -0.000948398898 -1.4111035e-08
      0.00293068588 -2.45672691e-05 -0.000168502811 -2.05787819e-06
      -2.88955766e-06 0.117595352 -0.00123540603 -0.000187801561
      0.478717446 -1.29891851e-06 -0.000344656175 -4.50573998e-06
      0.200598568 0.604607761 0.583538771 0.533223271 -0.000503561343
      0.11462979 0.392192096 -2.65595227e-05 -0.000350773917 0.333409935
      0.644563019 0.533698559 -0.00022230763 0.417497098 0.299408257
      -0.002163928 -0.000513501407 0.0131184123 0.166760087 0.275073171
      -0.00183806173 -1.64062312e-05 -0.00303031248 0.00146922469
      -0.00266874512 -0.00229287427 -0.000109580425 -2.86982004e-06
      0.0995023698 -2.28068302e-07 -4.54031863e-07 0.105171159
      0.776412964 -1.39323138e-05 -1.71164556e-05 -0.000230133795
      -0.000459166535 0.0849921256 -3.92167649e-08 -2.74610196e-10
      -4.60983562e-09 -2.0735479e-13 -0.000149010331 -7.96610266e-07
      -2.16312787e-10 -9.20520179e-05 0.0667415559 -1.83902866e-05
      0.00676667318 -0.000142395569 -3.81315731e-05 -1.50891556e-05
      0.363849163 -5.79115181e-07 -7.49797255e-06 0.295602471
      -0.000300957443 0.345496178 -7.11068424e-05 0.0163694154
      -0.00102820084 0.0400991961 -5.1813565e-08 0.0747170597
      -2.13146222e-06 -0.000119098666 -3.16208889e-06 -1.925486e-06
      -0.000215393491 -1.96100473e-07 -3.38807513e-06 0.373798907
      -4.73365214e-09 -6.74579614e-10 -1.36024001e-08 -7.25575156e-10
      0.171143755 0.303887755 -2.28845656e-05 0.183942676 -8.8312263e-05
      -9.78530146e-10 -1.31616787e-07 -4.03307167e-05 -3.25708172e-09
      -0.000700134609 -1.1819172e-05 -1.06548673e-10 -2.93475796e-06
      -0.000447126979 -0.000312391203 -1.3807707e-07 -0.0002059463
      -9.36332523e-09 -2.84841099e-05 -0.000156350172 -5.93369805e-06</_>
    <_>
      -1.54551017 -2.31573415 -0.00521105342 -0.00904434919
      -6.08938677e-08 -0.00014739632 -0.00956839882 -0.000464393554
      -0.00179094321 -1.89741911e-06 -1.26093801e-05 -2.02957466e-07
      -6.71021262e-05 -0.000231495942 -0.000150060383 3.90621161
      -0.00392811839 -0.0024462291 2.45148396 -0.000125522987
      -0.000909429684 -0.000650905306 -0.00404183613 -0.00208778773
      -9.20060029e-06 -0.00829790812 0.836690009 -5.48440039e-06
      -3.26661611e-05 -1.5859574e-05 0.31676957 -0.000170299667
      -0.0100011015 -0.000864010828 -8.63326568e-05 -0.000731051899
      -0.000152094319 -4.31240587e-05 -0.00520708086 -0.000192950101
      -0.000123331003 -0.000546725874 -0.00123798125 -0.000249205623
      0.0301871989 -0.00157145353 -0.000371668488 3.15946889 0.713754654
      -0.0140519291 -0.00148752553 -0.00165278534 -3.63712638e-06
      -0.0080513861 0.796322942 -0.0158836059 -0.0342995673
      -0.00280271424 -0.00291686086 -0.00404589064 -0.000550507975
      -0.000618064136 -0.000824060524 1.14066124 -0.0237039234
      -2.16339777e-05 -3.61883504e-05 -1.10989577e-05 -0.00430306233
      -0.00116310443 -0.000495234097 3.98621273 -0.00132522988
      -0.000104164246 -4.85761848e-06 -0.000843830465 -1.57156355e-05
      -0.0095931245 1.85153985 -0.00150181621 -6.90519391e-06
      -1.80805003e-07 -0.000358300138 0.82234019 -0.00639351271
      -0.000621584652 -0.00253419625 -0.00705877924 -6.91008199e-06
      -0.00687513081 -0.00396844791 -0.000405704748 -0.00465496769
      -0.00483338395 1.19370031 -0.016706869 -0.000594854064
      -0.0026447915 -0.00527392188 -0.00183427031 -3.7728827e-05
      -0.00630957726 1.51145768 -8.00230055e-07 -8.76358899e-05
      -0.000729752006 3.5181551 -9.17610378e-05 -2.57892534e-05
      -0.000327937421 0.596239388 -0.00165267359 -0.00383437169
      -1.77275015e-05 -5.24234638e-05 -0.000593555626 -5.97050757e-07
      -1.80220695e-06 -0.000135525697 -4.19581447e-05 -0.00590366963
      -6.41893484e-06 -0.00535299163 -0.000470559375 -0.01565478
      -0.00766102457 -0.00222291378 -0.0123696961 -0.0195702761
      -0.00209684717 -1.80865758e-08 0.404539973 0.458812654
      -6.88501968e-05 -5.64881811e-05 0.533536971 0.194441244
      0.618566394 -9.80415926e-09 -0.000184327801 0.577518702
      -1.9346835e-06 -2.85724013e-08 0.341660261 0.726617992
      -0.000183851807 0.0637993738 -0.00072982657 -1.42383341e-08
      0.028292127 -2.47604821e-05 -0.000166110578 -2.00925024e-06
      -2.89342006e-06 0.104158655 -0.0012134437 -0.000277571526
      0.559483886 -1.30897104e-06 -0.00014574184 -4.51456754e-06
      0.228949934 0.598969102 0.58005023 0.54469341 -0.000330126553
      0.110806569 0.415725857 -2.63425281e-05 -0.000347464869 0.35012731
      0.64338845 0.493737817 -0.000215184904 0.430362105 0.277985811
      -0.00269024121 -0.000501617789 -9.03173859e-05 0.187795401
      0.256103516 -0.00180759095 -1.65274378e-05 -0.00302141486
      0.0192858651 -0.00291794888 -0.00235260068 -0.000108797401
      -2.86919703e-06 0.0975847244 -2.296822e-07 -4.57035128e-07
      0.113579988 0.806526601 -1.3910093e-05 -1.70896546e-05
      -0.000230228266 -0.00046095287 0.083907634 -3.90903629e-08
      -2.72474043e-10 -4.59658489e-09 -2.06452178e-13 -0.000148938634
      -7.95428264e-07 -2.15829202e-10 -9.19905287e-05 0.066506207
      -1.83683205e-05 0.0081059821 -0.000142346544 -3.80971869e-05
      -1.50699861e-05 0.366461396 -5.78155209e-07 -7.49052015e-06
      0.297231883 -0.000301435997 0.35011664 -7.11640459e-05
      0.0172426701 -0.001034001 0.0366225317 -5.16703302e-08
      0.0740962401 -2.14406305e-06 -0.000119035918 -3.1520467e-06
      -1.99653891e-06 -0.000215566732 -1.95185464e-07 -3.38298469e-06
      0.377372891 -4.71356909e-09 -6.74132639e-10 -1.36332421e-08
      -7.23324955e-10 0.17554301 0.306742162 -2.28517547e-05 0.181241006
      -8.82276436e-05 -9.68467972e-10 -1.31248356e-07 -4.02951664e-05
      -3.24987037e-09 -0.000703367288 -2.14288002e-06 -1.06119127e-10
      -2.93039443e-06 -0.000449908373 -0.000313119555 -1.37653316e-07
      -0.000205995326 -9.33886213e-09 -2.84612724e-05 -0.000161640637
      -5.92622609e-06</_>
    <_>
      -1.4671011 -2.45684242 -0.0054350798 -0.00765765971
      -6.43142641e-08 -0.000149492 -0.00979082007 -0.000494263018
      -0.00185876363 -1.95587108e-06 -1.31421266e-05 -2.11203343e-07
      -6.80963421e-05 -0.000224413045 -0.000155476911 3.93777704
      -0.00646003522 -0.00253565004 2.5609777 -0.000131360342
      -0.000962863676 -0.00069864199 -0.0042809872 -0.00285120215
      -9.27530709e-06 -0.0106118545 0.642957091 -5.38272479e-06
      -3.21104308e-05 -1.63355817e-05 0.51663965 -0.000177946771
      -0.0112789655 -0.000857244188 -8.80690859e-05 -0.000761071744
      -0.000154853566 -4.33570785e-05 -0.00606879033 -0.000198888156
      -0.000131165521 -0.000583343732 -0.00127052166 -0.000274826103
      0.00835597515 -0.00164362323 -0.000378077093 3.28178787
      0.712326884 -0.0154057508 -0.00151469104 -0.00184173172
      -3.58036823e-06 -0.00840022787 0.735966861 -0.0166537557
      -0.0345891528 -0.0028928481 -0.00275956793 -0.00427364884
      -0.000559668173 -0.000652172253 -0.000879992731 1.00802171
      -0.0262685958 -2.10874387e-05 -3.75288291e-05 -1.10261217e-05
      -0.0044950149 -0.00120995287 -0.000516425411 4.0787735
      -0.00135753257 -0.000113905349 -5.31687374e-06 -0.000860143744
      -1.67101989e-05 -0.0118564498 1.79776692 -0.00156534137
      -7.11326084e-06 -1.89975907e-07 -0.000388303277 0.849058747
      -0.00594507903 -0.000679192308 -0.00273194583 -0.00814750511
      -7.30772445e-06 -0.00709675904 -0.00401788671 -0.000423166028
      -0.00484821945 -0.00513695087 0.885826945 -0.0173368882
      -0.000624184206 -0.00245139608 -0.00545051973 -0.00191030023
      -3.83442457e-05 -0.00655445782 1.34887993 -8.10798554e-07
      -9.31309914e-05 -0.000740057207 3.62862897 -9.48015877e-05
      -2.64714745e-05 -0.00033754512 0.647339284 -0.00173980417
      -0.00320449308 -1.95890934e-05 -5.44515024e-05 -0.000601993641
      -5.45852458e-07 -1.93969095e-06 -0.000135975439 -4.35211368e-05
      -0.0060005472 -6.40123972e-06 -0.00556253176 -0.000477557274
      -0.0183313228 -0.00783111434 -0.00236120587 -0.012042311
      -0.0211308803 -0.00210207235 -1.81690165e-08 0.418306291
      0.443802863 -6.80792873e-05 -5.6863948e-05 0.558421493 0.185444042
      0.620108545 -9.81799975e-09 -0.000185752186 0.59872365
      -1.81464213e-06 -2.88569524e-08 0.34328863 0.754106998
      -0.000185295474 0.0676004812 -0.000561980763 -1.41414258e-08
      0.0423258096 -2.47991502e-05 -0.000163025106 -1.95410894e-06
      -2.90179969e-06 0.107412443 -0.00124717958 -0.000213690626
      0.590513229 -1.30821604e-06 -0.000238007007 -4.51472761e-06
      0.227556348 0.582234025 0.577755153 0.543530107 -0.000286414783
      0.139513329 0.446435481 -2.62761951e-05 -0.000348989997
      0.362410069 0.657545805 0.464132488 -0.000213196923 0.434256464
      0.264390349 -0.00284505659 -0.000396008254 -2.20984221e-05
      0.201153308 0.221048594 -0.00184156769 -1.65734655e-05
      -0.00303764804 0.0566205606 -0.0031601307 -0.0024171446
      -0.000107981912 -2.84769385e-06 0.0890017003 -2.30958833e-07
      -4.57517956e-07 0.121671379 0.843102276 -1.38964406e-05
      -1.70737858e-05 -0.000230264923 -0.000462090917 0.0834719092
      -3.90143526e-08 -2.7096661e-10 -4.58851623e-09 -2.05930921e-13
      -0.00014889233 -7.94706921e-07 -2.15513926e-10 -9.19529994e-05
      0.0665959343 -1.83549928e-05 0.00900227949 -0.00014231453
      -3.80761303e-05 -1.50584947e-05 0.367741346 -5.7756904e-07
      -7.4860086e-06 0.297944009 -0.000301687804 0.35276252
      -7.12478723e-05 0.0179079417 -0.00103742105 0.0343099236
      -5.1583946e-08 0.0739198029 -2.15177215e-06 -0.000118995231
      -3.14589397e-06 -2.0420191e-06 -0.000215655004 -1.94655357e-07
      -3.37994379e-06 0.379280269 -4.70143702e-09 -6.73833878e-10
      -1.36501317e-08 -7.2195927e-10 0.178640306 0.308961362
      -2.28319241e-05 0.179191604 -8.8175133e-05 -9.6243169e-10
      -1.31023256e-07 -4.02736368e-05 -3.24555161e-09 -0.000705245591
      0.000434648246 -1.05856157e-10 -2.92775917e-06 -0.000450413529
      -0.000313548488 -1.37397365e-07 -0.000206008393 -9.32404287e-09
      -2.84473317e-05 -0.000165260164 -5.92166907e-06</_>
    <_>
      -1.56439042 -2.27426243 -0.00527994148 -0.00864721462
      -6.3714765e-08 -0.000145408019 -0.0096485652 -0.000492578663
      -0.00177159614 -1.96244127e-06 -1.27015101e-05 -1.91105656e-07
      -6.71256275e-05 -0.000230378602 -0.000149559433 4.05151367
      -0.00515644252 -0.00253088935 2.29773092 -0.000125868886
      -0.000904603279 -0.000657359371 -0.00417463342 -0.00273393025
      -9.23745847e-06 -0.00983956829 0.727640092 -5.48084608e-06
      -3.29421855e-05 -1.61834996e-05 0.318023294 -0.00017489845
      -0.0111846766 -0.0008418957 -8.41906294e-05 -0.000731159118
      -0.000143165322 -4.31082844e-05 -0.00467616925 -0.000199235801
      -0.000126393046 -0.000550824334 -0.00124035601 -0.000227215642
      -0.000173415203 -0.00168049918 -0.000370480499 2.99571705
      0.671392918 -0.0142721003 -0.00150602416 -0.00180110172
      -3.90845071e-06 -0.00831573363 0.835879862 -0.0159383826
      -0.0356024578 -0.00278784428 -0.0031804475 -0.00412765564
      -0.000572551042 -0.000668550027 -0.000866870687 1.09093022
      -0.0252574813 -2.0031317e-05 -3.80168458e-05 -1.10743658e-05
      -0.00432733633 -0.00115228666 -0.00048488719 4.08780956
      -0.00131292874 -0.000106203886 -5.20635695e-06 -0.000816320768
      -1.55875441e-05 -0.0108994441 1.93775678 -0.001544573
      -7.09099641e-06 -1.80882878e-07 -0.000379250589 0.721541047
      -0.00678754272 -0.000635154662 -0.00357637391 -0.00774616003
      -6.9803541e-06 -0.00708545558 -0.00416743429 -0.000416851399
      -0.00477451785 -0.00486747175 0.993876636 -0.0169348419
      -0.000591301185 -0.00322260195 -0.0054299063 -0.00181655167
      -3.78935511e-05 -0.00661961734 1.4285605 -8.03590865e-07
      -9.0782858e-05 -0.000691421912 3.53398514 -9.16422723e-05
      -2.48184915e-05 -0.000329174771 0.567254126 -0.00170504698
      -0.00377784623 -1.85273857e-05 -5.37398482e-05 -0.000562742818
      -6.19467016e-07 -1.94669178e-06 -0.000129293796 -4.3228225e-05
      -0.00598453404 -6.25350276e-06 -0.00552337198 -0.00045367307
      -0.0172873009 -0.00752521027 -0.00228350377 -0.0116123594
      -0.0204483774 -0.00211791112 -1.83485316e-08 0.424077421
      0.446706444 -6.77723729e-05 -5.66064045e-05 0.549563169 0.20108062
      0.60079205 -9.91812232e-09 -0.000184271848 0.600438714
      -1.79165841e-06 -2.9187099e-08 0.34724015 0.745450497
      -0.000185454614 0.0741076395 -0.00060864992 -1.42199807e-08
      0.0378078073 -2.48730612e-05 -0.000161819044 -1.91292679e-06
      -2.92051368e-06 0.0958886817 -0.00107437803 -3.39620565e-05
      0.609080672 -1.31716627e-06 -0.000244288676 -4.54217798e-06
      0.239228889 0.572544098 0.584059179 0.547166526 -0.000243250179
      0.148674026 0.460424483 -2.61425448e-05 -0.000345710607
      0.372043937 0.664214373 0.426335722 -0.000211400198 0.442687809
      0.243346572 -0.00304992334 -0.000408391206 -5.68291907e-05
      0.212160617 0.2179818 -0.00183007622 -1.66378104e-05
      -0.00301361131 0.0403164402 -0.00305586262 -0.00241226144
      -0.000106197629 -2.85903025e-06 0.0804787576 -2.31324478e-07
      -4.61396183e-07 0.126064241 0.860814035 -1.38824616e-05
      -1.70530802e-05 -0.000230461665 -0.000462954486 0.0813067108
      -3.89241883e-08 -2.70873407e-10 -4.57971172e-09 -2.05149144e-13
      -0.000148861756 -7.93931576e-07 -2.15326118e-10 -9.19126906e-05
      0.0649438053 -1.83401025e-05 0.00937754661 -0.000142295801
      -3.8054015e-05 -1.50445976e-05 0.371473372 -5.76940806e-07
      -7.48088905e-06 0.300824821 -0.000302259723 0.35691756
      -7.09720771e-05 0.0176347122 -0.00104199268 0.0332444832
      -5.14834575e-08 0.072211206 -2.15990849e-06 -0.000118969452
      -3.13946339e-06 -2.07494827e-06 -0.000215880675 -1.93873774e-07
      -3.37618258e-06 0.383386552 -4.68746952e-09 -6.73709699e-10
      -1.36828016e-08 -7.20435323e-10 0.178889811 0.307776332
      -2.28091503e-05 0.179980665 -8.81251108e-05 -9.55163726e-10
      -1.30783206e-07 -4.02492187e-05 -3.24029426e-09 -0.000707972038
      0.000696988776 -1.05579802e-10 -2.92472009e-06 -0.000459881703
      -0.000314125995 -1.37102475e-07 -0.000206148659 -9.30728739e-09
      -2.84323851e-05 -0.000166232247 -5.91675052e-06</_>
    <_>
      -1.66513181 -2.29851413 -0.00547494227 -0.0099783577
      -6.36023287e-08 -0.000139935932 -0.0100778174 -0.000479249633
      -0.0017840981 -1.92707535e-06 -1.29837354e-05 -2.06133919e-07
      -7.05191196e-05 -0.00022628525 -0.000165007616 4.30683374
      -0.00427767029 -0.00253273128 2.22619843 -0.000132624642
      -0.000926700013 -0.000687290099 -0.00424905121 -0.00255092559
      -9.11652114e-06 -0.00949695427 0.838844359 -5.57504927e-06
      -3.39007638e-05 -1.62648321e-05 0.19791913 -0.000183441764
      -0.0113878986 -0.000920828606 -8.63598907e-05 -0.000745588448
      -0.00015766453 -4.31156332e-05 -0.00598480552 -0.000200023089
      -0.000127647058 -0.00056676066 -0.00130421889 -0.000244618306
      0.0258341357 -0.00163416134 -0.000382282306 2.90827107 0.695778012
      -0.0158880521 -0.00155181543 -0.00167746469 -3.57463273e-06
      -0.00850448385 0.895181 -0.0167354643 -0.0378148295 -0.00297081377
      -0.00301379827 -0.00423899619 -0.000576341117 -0.000651061884
      -0.00085660239 1.21544075 -0.0256967973 -2.09589944e-05
      -3.64867483e-05 -1.04427954e-05 -0.00434509153 -0.00123472849
      -0.000493048807 4.34518623 -0.00134512165 -0.000109822875
      -5.37293408e-06 -0.000840287714 -1.62643537e-05 -0.0103690838
      2.00787497 -0.00156541041 -7.18833053e-06 -1.82351712e-07
      -0.000378696655 0.707623899 -0.00772953266 -0.000668586639
      -0.00345424702 -0.00649769232 -7.22635832e-06 -0.00727446657
      -0.00417435868 -0.000428221596 -0.00474452972 -0.00506650936
      1.15852737 -0.0178745203 -0.000608708127 -0.00362652657
      -0.00555337174 -0.00186834123 -3.86247666e-05 -0.00676846365
      1.57133317 -8.09246671e-07 -9.02476386e-05 -0.000721364981
      3.66022348 -9.40169994e-05 -2.51504898e-05 -0.000345810782
      0.570284724 -0.00173976552 -0.00403414387 -1.89509265e-05
      -5.28343335e-05 -0.00060739246 -5.59695707e-07 -1.90473634e-06
      -0.000134450238 -4.38417337e-05 -0.00618375186 -6.57092778e-06
      -0.00561321294 -0.000508633035 -0.0171958692 -0.00791997928
      -0.0024024758 -0.0125251301 -0.0206780266 -0.00212602247
      -1.85027229e-08 0.427140594 0.452951103 -6.80065059e-05
      -5.75846316e-05 0.557854295 0.197114691 0.59809047 -1.00042561e-08
      -0.000183879965 0.593772948 -1.81230098e-06 -2.93247755e-08
      0.344255179 0.750087798 -0.000183038283 0.0684790984
      -0.000520906528 -1.42080534e-08 0.0317299366 -2.49471632e-05
      -0.000160188341 -1.95044777e-06 -2.94895949e-06 0.105538227
      -0.00119070394 0.0183585957 0.59986794 -1.32402727e-06
      -0.000224486139 -4.56692806e-06 0.239453718 0.557856619
      0.583911955 0.556995928 -0.000284325186 0.164838567 0.442372233
      -2.63557486e-05 -0.000343626889 0.379187137 0.667935729
      0.420854658 -0.000209157282 0.445257783 0.238466993 -0.00311841397
      -0.000438300805 -3.06032598e-06 0.216992572 0.207786441
      -0.00183600211 -1.65964721e-05 -0.00299213291 0.039978914
      -0.00290971342 -0.00240068603 -0.00010514239 -2.8863094e-06
      0.0772262439 -2.3227706e-07 -4.64766856e-07 0.131791398
      0.834276617 -1.3884679e-05 -1.70505155e-05 -0.000230639343
      -0.000462422206 0.079398632 -3.89222876e-08 -2.72790984e-10
      -4.58039962e-09 -2.04947374e-13 -0.000148888779 -7.94006439e-07
      -2.15532869e-10 -9.19166268e-05 0.0629183725 -1.83408374e-05
      0.00860242546 -0.000142317251 -3.80567981e-05 -1.50440073e-05
      0.374055028 -5.77003561e-07 -7.4810464e-06 0.303189248
      -0.000302581291 0.358145118 -7.05406928e-05 0.0164222047
      -0.00104267045 0.0351338089 -5.14836103e-08 0.0704805031
      -2.15894192e-06 -0.000118994394 -3.14031013e-06 -2.05192123e-06
      -0.000216022425 -1.93684599e-07 -3.37592883e-06 0.385553718
      -4.68766093e-09 -6.73965883e-10 -1.36977416e-08 -7.20512205e-10
      0.175004125 0.303422898 -2.28095214e-05 0.183654785
      -8.81379528e-05 -9.54890167e-10 -1.30808701e-07 -4.02499827e-05
      -3.2400318e-09 -0.000708592357 0.000124944374 -1.05614358e-10
      -2.92475556e-06 -0.00047012954 -0.000314216013 -1.37106198e-07
      -0.000206292912 -9.30787358e-09 -2.84338785e-05 -0.000162478871
      -5.91720072e-06</_>
    <_>
      -1.62070453 -2.31724024 -0.00548294792 -0.0108982371
      -6.38388471e-08 -0.000137002266 -0.0101742977 -0.000488334044
      -0.00177277566 -2.0223647e-06 -1.30976723e-05 -2.11772758e-07
      -7.13600966e-05 -0.000231098893 -0.000165632853 4.3555541
      -0.00372220203 -0.00255352957 2.17610884 -0.000135414026
      -0.000931648421 -0.000688864966 -0.0042607314 -0.00260752859
      -9.3631661e-06 -0.00918325689 0.902415156 -5.99340592e-06
      -3.43336033e-05 -1.65818947e-05 0.160180539 -0.000183518583
      -0.0112189837 -0.000937986595 -8.8103312e-05 -0.000748661347
      -0.000159157396 -4.42728015e-05 -0.00551691279 -0.000203858086
      -0.000127306994 -0.000565363734 -0.00132842793 -0.000232249586
      0.00556420535 -0.0016654639 -0.000386770873 2.84758759 0.690765142
      -0.0158201307 -0.00157892657 -0.00160905684 -3.79194694e-06
      -0.0085142199 0.950949252 -0.0167626571 -0.0384360775
      -0.00298378291 -0.00282720593 -0.00423539337 -0.000590386218
      -0.000663367333 -0.00086116913 1.25265312 -0.0255361814
      -2.13350977e-05 -3.70266098e-05 -1.07051228e-05 -0.00438539637
      -0.00124009629 -0.000497985573 4.30934715 -0.00137341453
      -0.000108209191 -5.42249154e-06 -0.000857750303 -1.62727156e-05
      -0.00999760069 2.10125756 -0.00157500268 -7.41494387e-06
      -1.92006809e-07 -0.000379887089 0.759229243 -0.00828280114
      -0.000674251816 -0.00372361648 -0.00625927513 -7.28614441e-06
      -0.00732292654 -0.00425166637 -0.00043227803 -0.00476294383
      -0.00511129107 1.25483263 -0.018014783 -0.000620388601
      -0.00384487142 -0.0056032557 -0.00185754523 -4.0081919e-05
      -0.00686344132 1.62392259 -8.420472e-07 -9.21148603e-05
      -0.00073066086 3.65813923 -9.73448259e-05 -2.54531478e-05
      -0.000351505878 0.563891292 -0.00175775355 -0.00396072492
      -1.92177831e-05 -5.31181722e-05 -0.000616472564 -6.02708155e-07
      -1.9642755e-06 -0.000134107671 -4.39247488e-05 -0.00623791385
      -6.675039e-06 -0.00565684959 -0.000519497145 -0.0168675762
      -0.00792458467 -0.00239720731 -0.0126953609 -0.0205768701
      -0.00211162935 -1.84848954e-08 0.42672348 0.458249032
      -6.82481841e-05 -5.79327061e-05 0.556069911 0.177375734
      0.597208142 -9.99335459e-09 -0.000183682161 0.58362627
      -1.83317422e-06 -2.92344335e-08 0.338973045 0.753972113
      -0.000182193937 0.064008303 -0.000503874326 -1.42294043e-08
      0.0332080424 -2.4952793e-05 -0.000160577853 -1.97091299e-06
      -2.94400843e-06 0.117111407 -0.00131415064 0.00601535663
      0.590250969 -1.32316484e-06 -0.00023647405 -4.56844964e-06
      0.236223012 0.56071955 0.577031672 0.5543167 -0.000295610575
      0.156703517 0.432866961 -2.63203074e-05 -0.000344264437
      0.369891614 0.653829038 0.435690403 -0.000210488215 0.436439216
      0.247922316 -0.00286347023 -0.000448260078 0.00447427109
      0.215671539 0.203532234 -0.00184820057 -1.65856909e-05
      -0.00299392571 0.0521221235 -0.00292997365 -0.00238610548
      -0.000105123465 -2.89392619e-06 0.078822732 -2.32017939e-07
      -4.64609172e-07 0.130628616 0.832410097 -1.38855003e-05
      -1.70458879e-05 -0.000230836566 -0.000461976306 0.0772739798
      -3.89113985e-08 -2.74697765e-10 -4.58020732e-09 -2.04667758e-13
      -0.000148912717 -7.94003824e-07 -2.15720802e-10 -9.19165323e-05
      0.0607289672 -1.83400825e-05 0.00786677375 -0.000142336794
      -3.80573692e-05 -1.50420283e-05 0.377009094 -5.77003561e-07
      -7.48069124e-06 0.305840492 -0.000302959641 0.359790981
      -7.00823584e-05 0.0151846427 -0.00104380469 0.0369110033
      -5.14737337e-08 0.0685790852 -2.15878686e-06 -0.000119016739
      -3.14051454e-06 -2.03216268e-06 -0.000216186614 -1.93417435e-07
      -3.37529946e-06 0.388132215 -4.68645567e-09 -6.74210243e-10
      -1.37159564e-08 -7.20436766e-10 0.171150804 0.298955977
      -2.28076169e-05 0.187401071 -8.81457963e-05 -9.53890855e-10
      -1.30810207e-07 -4.0248302e-05 -3.23924465e-09 -0.000709485088
      -4.1946023e-06 -1.05621289e-10 -2.92448749e-06 -0.000481314055
      -0.000314363569 -1.37080463e-07 -0.000206451077 -9.30678379e-09
      -2.84338785e-05 -0.000158829906 -5.9171598e-06</_>
    <_>
      -1.64636743 -2.46976137 -0.00520029198 -0.0112853693
      -6.06739761e-08 -0.000148505816 -0.00983389933 -0.000468587183
      -0.00172063545 -1.82837653e-06 -1.24893995e-05 -1.9920428e-07
      -7.01642348e-05 -0.00024142972 -0.000160768512 4.34767866
      -0.000523253984 -0.00245346525 2.0046761 -0.000130724715
      -0.00090172916 -0.00065433397 -0.00405899715 -0.00173506408
      -9.15890359e-06 -0.00641456759 1.15605843 -6.2942604e-06
      -3.46578454e-05 -1.61151693e-05 0.138753235 -0.000182272808
      -0.00960727409 -0.000915067561 -8.61514709e-05 -0.000710745458
      -0.00015369989 -4.41300945e-05 -0.00423295284 -0.000193588436
      -0.00012293474 -0.000577779196 -0.00124879868 -0.000216278873
      0.0143540725 -0.00163113768 -0.000364035368 2.55317497 0.68306458
      -0.0141828712 -0.00151474588 -0.0016291521 -3.97984331e-06
      -0.00821809657 0.981611907 -0.0167912636 -0.0355232731
      -0.0028618779 -0.00277619739 -0.00395622943 -0.000586537761
      -0.000654043222 -0.000802277704 1.46625495 -0.0222268384
      -2.20748407e-05 -3.65157539e-05 -1.1040036e-05 -0.00422966946
      -0.00120053254 -0.000482109957 4.33835697 -0.00128133199
      -0.000102543439 -5.31888736e-06 -0.000845919887 -1.66069967e-05
      -0.00665630167 2.07236385 -0.00151169987 -7.39894949e-06
      -1.61887328e-07 -0.000357185287 0.770122945 -0.0088106608
      -0.000644310727 -0.00320391241 -0.00463647349 -6.84212864e-06
      -0.00707857357 -0.0041433312 -0.000414118345 -0.00473123696
      -0.00510269636 1.65924525 -0.0177719295 -0.000576086168
      -0.00449175946 -0.00544689083 -0.00177963614 -3.77500437e-05
      -0.00687754247 1.87432694 -7.7671865e-07 -8.57916675e-05
      -0.000712412351 3.50129104 -9.13846598e-05 -2.47344142e-05
      -0.000331720803 0.67684114 -0.00170262612 -0.0041724667
      -1.78530918e-05 -5.26243748e-05 -0.000585163943 -6.39389896e-07
      -1.83996337e-06 -0.000138776741 -4.26319275e-05 -0.00618909206
      -6.37660969e-06 -0.00545803877 -0.000502148119 -0.0138844987
      -0.00765468832 -0.00235354295 -0.0128316414 -0.0184362791
      -0.00240369118 -1.86708782e-08 0.42329523 0.458007485
      -6.78121505e-05 -5.74989099e-05 0.581231594 0.162385985
      0.602218628 -1.01479465e-08 -0.00018353507 0.573108733
      -1.80002314e-06 -2.97262055e-08 0.339040905 0.763314545
      -0.000179722876 0.0517267063 -0.000346162386 -1.41700136e-08
      0.0273928717 -2.50193498e-05 -0.000157622038 -1.99469946e-06
      -2.96953954e-06 0.125344306 -0.00132765959 0.0207975507
      0.585812986 -1.33498156e-06 -0.000323803484 -4.60606543e-06
      0.239291623 0.543830097 0.584736705 0.561273277 -0.000338354352
      0.165469065 0.424723506 -2.59498684e-05 -0.000339194608
      0.383301407 0.657682955 0.444802701 -0.000208632162 0.438376009
      0.249964535 -0.00292963209 -0.000455322559 0.00855650753
      0.221857667 0.21468322 -0.00184843806 -1.66865357e-05
      -0.00295645534 0.0504599884 -0.00279910909 -0.00237437873
      -0.000103596911 -2.90937055e-06 0.072261095 -2.3266962e-07
      -4.70214758e-07 0.13361311 0.812884331 -1.38910791e-05
      -1.70501953e-05 -0.000230899255 -0.000461363932 0.0766123012
      -3.89364345e-08 -2.76021289e-10 -4.58323823e-09 -2.04759725e-13
      -0.000148939856 -7.94280595e-07 -2.15915494e-10 -9.19309532e-05
      0.0598412827 -1.83449229e-05 0.00723697618 -0.000142356716
      -3.80657002e-05 -1.50456835e-05 0.37766844 -5.77229287e-07
      -7.48229058e-06 0.306599647 -0.000303009932 0.359418154
      -6.98718504e-05 0.0144481808 -0.00104292936 0.0384882241
      -5.15031573e-08 0.0679049268 -2.15575392e-06 -0.000119041106
      -3.14296472e-06 -2.00690351e-06 -0.000216216577 -1.93517508e-07
      -3.37622555e-06 0.388405263 -4.69065808e-09 -6.7442163e-10
      -1.3716571e-08 -7.20933424e-10 0.16846326 0.296364009
      -2.28145109e-05 0.189644188 -8.81690576e-05 -9.5582664e-10
      -1.3089749e-07 -4.02559381e-05 -3.24060179e-09 -0.000709109765
      -8.79991785e-06 -1.05725255e-10 -2.92539812e-06 -0.000485473109
      -0.000314255827 -1.37169039e-07 -0.000206507626 -9.31206667e-09
      -2.84392481e-05 -0.00015602044 -5.9188983e-06</_>
    <_>
      -1.35823143 -2.78722596 -0.005031229 -0.0117916297 -6.04589943e-08
      -0.000151659857 -0.00950086024 -0.000476738089 -0.00174753659
      -1.75587536e-06 -1.21685316e-05 -1.9022167e-07 -6.68596185e-05
      -0.000236654232 -0.00015070301 4.41119719 -0.000846287759
      -0.00241085142 2.23481297 -0.000125776933 -0.000917802274
      -0.0006449559 -0.00399003457 -0.00186841271 -8.95098492e-06
      -0.00661217142 1.11794543 -6.18255808e-06 -3.44274122e-05
      -1.58700059e-05 0.362456352 -0.000179223091 -0.00875716284
      -0.000825308904 -8.22733491e-05 -0.000701331533 -0.000150582375
      -4.22540215e-05 -0.0040897904 -0.000185412966 -0.000122828264
      -0.000593069592 -0.00114921923 -0.000224907824 0.0103019141
      -0.00166998082 -0.000342610088 2.71521425 0.686855316
      -0.0140144937 -0.00141972105 -0.00166241766 -4.00442059e-06
      -0.00811855681 1.17798936 -0.017018836 -0.0351087302
      -0.00271906331 -0.00243117916 -0.00384032773 -0.000580730499
      -0.000648449524 -0.000802633818 1.47406459 -0.0224386398
      -2.20463698e-05 -3.68486071e-05 -1.10526589e-05 -0.00408233935
      -0.00115078338 -0.000496299705 4.3625803 -0.00124319969
      -0.000102583115 -5.39123175e-06 -0.000810649362 -1.62560355e-05
      -0.00666742027 2.05973983 -0.00149239658 -7.28437999e-06
      -1.60994858e-07 -0.0003603636 0.895477355 -0.00989576988
      -0.000629704504 -0.00288219028 -0.00426865928 -6.6340458e-06
      -0.0069338223 -0.00423513772 -0.000397378899 -0.00473073171
      -0.00518251862 1.59036577 -0.0173582714 -0.000555933162
      -0.00510573993 -0.00529864663 -0.00175047747 -3.56205564e-05
      -0.00678229751 1.84451461 -8.01436101e-07 -8.44424503e-05
      -0.000693641719 3.60106039 -8.40466237e-05 -2.48625875e-05
      -0.000308261748 0.778213799 -0.00166604714 -0.00365929632
      -1.79768449e-05 -5.21440124e-05 -0.000522882969 -6.2086184e-07
      -1.8066861e-06 -0.000129953012 -4.18342279e-05 -0.0059259939
      -5.83377323e-06 -0.00540567841 -0.000447893835 -0.0144132543
      -0.00763294846 -0.00224733143 -0.012509428 -0.0188660827
      -0.00247625471 -1.85825755e-08 0.429505587 0.462312967
      -6.865053e-05 -5.70681223e-05 0.575593829 0.151488379 0.61112237
      -1.01342419e-08 -0.000181243755 0.57087481 -1.92261268e-06
      -2.93158404e-08 0.353036046 0.776682556 -0.000181020063
      0.0493081585 -0.000464613811 -1.43982808e-08 0.017220214
      -2.48194483e-05 -0.000160524345 -2.04484058e-06 -2.96827261e-06
      0.109114803 -0.00115889357 0.0533767492 0.541498005 -1.331926e-06
      -0.000352807401 -4.60422598e-06 0.235609651 0.557075143
      0.567494333 0.553185344 -0.000493165222 0.128752127 0.375173211
      -2.63578841e-05 -0.000336888363 0.370995104 0.66200459 0.448523492
      -0.000211855877 0.415446997 0.245175749 -0.00288085965
      -0.000466789817 0.00555241853 0.211587995 0.223332331
      -0.00184033893 -1.66280697e-05 -0.0029525694 0.0238421857
      -0.00255585415 -0.00231669936 -0.00010406183 -2.92436857e-06
      0.0791778415 -2.32234669e-07 -4.69486878e-07 0.136302084
      0.763711631 -1.390534e-05 -1.70690255e-05 -0.000230780541
      -0.000460328069 0.0779388547 -3.90220656e-08 -2.76863255e-10
      -4.59194194e-09 -2.05429437e-13 -0.000148979743 -7.95052699e-07
      -2.16176479e-10 -9.19711092e-05 0.0606296286 -1.83594748e-05
      0.00657275692 -0.000142383084 -3.80879756e-05 -1.50587648e-05
      0.375105202 -5.77855758e-07 -7.48725597e-06 0.304767072
      -0.000302588305 0.355917156 -6.99666052e-05 0.0142335799
      -0.00103881548 0.0402522162 -5.1599482e-08 0.0688634142
      -2.14758143e-06 -0.000119075608 -3.14945692e-06 -1.96634323e-06
      -0.000216056025 -1.94192026e-07 -3.37972938e-06 0.385320306
      -4.70411399e-09 -6.74640677e-10 -1.36911238e-08 -7.2242351e-10
      0.166697621 0.295790613 -2.28364752e-05 0.190331593
      -8.82220338e-05 -9.62681823e-10 -1.31137455e-07 -4.0279625e-05
      -3.24553495e-09 -0.000706741062 -1.35615091e-05 -1.06003553e-10
      -2.92832306e-06 -0.000480423769 -0.000313737895 -1.37452972e-07
      -0.000206429904 -9.3283461e-09 -2.84541493e-05 -0.000153614295
      -5.92378638e-06</_>
    <_>
      -1.47911775 -2.65266991 -0.00499451486 -0.0121576525
      -5.97076166e-08 -0.000153660076 -0.0095065441 -0.000474618952
      -0.00176290364 -1.81248947e-06 -1.20812474e-05 -1.88245451e-07
      -6.87873689e-05 -0.000249382458 -0.000150139764 4.35598755
      0.0539906919 -0.00241210428 2.15122914 -0.000124790735
      -0.000899770064 -0.000629162125 -0.00392942084 -0.00138696551
      -9.1436832e-06 -0.00530644692 1.244048 -6.39640348e-06
      -3.46446432e-05 -1.55060497e-05 0.224207968 -0.000175686087
      -0.0084728552 -0.000838929554 -8.33250597e-05 -0.000698863936
      -0.000154967754 -4.37525632e-05 -0.00422023097 -0.000189588885
      -0.000121608515 -0.000578741776 -0.00115974736 -0.000217650246
      0.0188018363 -0.00162248325 -0.0003432878 2.69614983 0.706573844
      -0.0135709094 -0.00144820358 -0.00157167774 -4.04687034e-06
      -0.00808913168 1.15470874 -0.0166881792 -0.0348960906
      -0.00272420631 -0.00306365849 -0.00380062452 -0.000574931211
      -0.000642316008 -0.000792866107 1.56063843 -0.0211189296
      -2.21670452e-05 -3.69267473e-05 -1.17187428e-05 -0.00406342186
      -0.00116521178 -0.000491807004 4.33209991 -0.00124702405
      -9.97130919e-05 -5.19036439e-06 -0.000824957329 -1.60711716e-05
      -0.00550650572 2.05659127 -0.00147454825 -7.29157318e-06
      -1.65456839e-07 -0.000350672519 0.828682125 -0.00989232864
      -0.000596960483 -0.00299845939 -0.00400998443 -6.55742861e-06
      -0.00691813976 -0.00417059846 -0.000397041324 -0.00470400508
      -0.00506897038 1.77554917 -0.0171727221 -0.000552892627
      -0.00516265538 -0.00526087172 -0.00177125691 -3.73074108e-05
      -0.00672703795 1.94680345 -8.04323861e-07 -8.47910123e-05
      -0.000692300033 3.47488809 -8.47531337e-05 -2.52944756e-05
      -0.000311600772 0.702044547 -0.00163698336 -0.00441977102
      -1.69691411e-05 -5.26202057e-05 -0.000542347145 -6.57601106e-07
      -1.81447342e-06 -0.000135937982 -4.18144264e-05 -0.006052488
      -5.99947725e-06 -0.00533577707 -0.000459328177 -0.0129450774
      -0.0076281256 -0.00225866027 -0.0126860589 -0.0180633739
      -0.00253108307 -1.85519422e-08 0.430225432 0.462237626
      -6.88956061e-05 -5.71792516e-05 0.572014987 0.139734775
      0.614763856 -1.01271116e-08 -0.000181547628 0.561086535
      -1.94667223e-06 -2.92272304e-08 0.347132027 0.778104842
      -0.000180606759 0.0421105996 -0.000441722339 -1.43645842e-08
      0.0230363831 -2.47928729e-05 -0.000161252727 -2.06299637e-06
      -2.96817075e-06 0.122363888 -0.00121960253 0.0323665142
      0.532959342 -1.33029562e-06 -0.000347928755 -4.60523097e-06
      0.22847496 0.559643686 0.559904814 0.538407266 -0.000495115004
      0.127029553 0.36798507 -2.64259415e-05 -0.000337228877 0.360503018
      0.649939775 0.461289704 -0.000212853178 0.40939945 0.256718278
      -0.00264293468 -0.000442534976 0.0168587677 0.215876579
      0.219445512 -0.00184057525 -1.66180089e-05 -0.00295663415
      0.0368329883 -0.00266002538 -0.00230829464 -0.000104727602
      -2.92673235e-06 0.0826664567 -2.31633678e-07 -4.68979465e-07
      0.136060819 0.761397779 -1.39055255e-05 -1.70677795e-05
      -0.000230832229 -0.000460213603 0.0773811787 -3.90190529e-08
      -2.7735933e-10 -4.59187444e-09 -2.0535521e-13 -0.000148985899
      -7.95050482e-07 -2.16225024e-10 -9.19710074e-05 0.0600566044
      -1.83592492e-05 0.00638270006 -0.000142388133 -3.80880811e-05
      -1.50582237e-05 0.375881672 -5.77854507e-07 -7.48715365e-06
      0.305462807 -0.00030268784 0.356355071 -6.98469303e-05
      0.0139115974 -0.00103911967 0.0407108068 -5.15967109e-08
      0.0683648437 -2.14755596e-06 -0.000119081364 -3.14949807e-06
      -1.9612512e-06 -0.000216099172 -1.94120986e-07 -3.37955817e-06
      0.386000216 -4.70377293e-09 -6.74704459e-10 -1.36959351e-08
      -7.22400917e-10 0.165697336 0.294626772 -2.28359368e-05
      0.191306293 -8.82239692e-05 -9.62407709e-10 -1.31137384e-07
      -4.02791411e-05 -3.24531979e-09 -0.000706978724 -1.4968291e-05
      -1.06004809e-10 -2.92824757e-06 -0.000483351789 -0.000313777418
      -1.3744571e-07 -0.000206471304 -9.3280299e-09 -2.84541202e-05
      -0.000152668741 -5.92376637e-06</_>
    <_>
      -1.50371611 -2.60691166 -0.00512657315 -0.011502983
      -6.19194509e-08 -0.000154002802 -0.00968046021 -0.000493120402
      -0.0017709668 -1.94808513e-06 -1.25621546e-05 -1.93112257e-07
      -6.93949332e-05 -0.000248641823 -0.000151305881 4.37919569
      -0.000874920632 -0.00248646853 2.21690917 -0.000126967338
      -0.000921444735 -0.000648336078 -0.00407394487 -0.00197926164
      -9.53406743e-06 -0.00671666348 1.12742865 -6.26406836e-06
      -3.43837382e-05 -1.60646432e-05 0.25697431 -0.000178812363
      -0.00944808684 -0.000849563163 -8.46648763e-05 -0.00071111857
      -0.000152687135 -4.4635497e-05 -0.00427935598 -0.000196727153
      -0.000124877406 -0.000590137905 -0.00120531698 -0.000211898398
      -5.73264406e-05 -0.00169586774 -0.000355584692 2.78488779
      0.696573853 -0.0141319642 -0.00149338553 -0.00165392703
      -4.20067317e-06 -0.0082826782 1.07991958 -0.0169267319
      -0.036207635 -0.00277286116 -0.00318896375 -0.00393013237
      -0.00058731914 -0.000675516785 -0.000832697493 1.47162485
      -0.0227174591 -2.14246938e-05 -3.80650235e-05 -1.17370528e-05
      -0.00415954413 -0.00117223046 -0.000495190034 4.35819054
      -0.00128208392 -0.000102723956 -5.38203039e-06 -0.000825081137
      -1.61518528e-05 -0.00714044739 2.09407449 -0.00152375503
      -7.45384932e-06 -1.7827162e-07 -0.000365881424 0.831959009
      -0.00932604168 -0.000617718848 -0.00349236769 -0.00487641757
      -6.78163178e-06 -0.00707553513 -0.00423573982 -0.000410079287
      -0.00483165542 -0.00515425624 1.58823967 -0.017410351
      -0.000575478829 -0.0049767755 -0.00541805895 -0.00178813399
      -3.86508109e-05 -0.00688778749 1.83844793 -8.39767154e-07
      -8.90084557e-05 -0.000696417177 3.55211139 -8.91084856e-05
      -2.54448569e-05 -0.000323067943 0.695392728 -0.00169320952
      -0.00410160376 -1.77686325e-05 -5.41157715e-05 -0.000559471315
      -6.61141428e-07 -1.88294223e-06 -0.00013496395 -4.28937965e-05
      -0.00610366091 -6.08517712e-06 -0.00548906019 -0.00046260361
      -0.0144999241 -0.00777068641 -0.00232016016 -0.0125291618
      -0.0190659892 -0.00247195992 -1.83342497e-08 0.443908513
      0.476192623 -6.96786228e-05 -5.68949945e-05 0.559222102
      0.125115588 0.617580712 -9.98950522e-09 -0.000179288923
      0.561437845 -2.04853905e-06 -2.85545383e-08 0.359078646
      0.796356082 -0.000182134201 0.0446989164 -0.000595348538
      -1.44442556e-08 0.029239282 -2.46019117e-05 -0.000164566416
      -2.08821029e-06 -2.94457072e-06 0.11271356 -0.00115785876
      0.0387630463 0.505553722 -1.31752927e-06 -0.000359791447
      -4.57242686e-06 0.220871553 0.579874039 0.549720228 0.528919995
      -0.000601716863 0.108320862 0.340521961 -2.68452695e-05
      -0.000338188314 0.354189545 0.664832473 0.463902831
      -0.000217535329 0.403034121 0.257264465 -0.00262533454
      -0.000459170638 0.0287842192 0.207488209 0.21733205 -0.00185013027
      -1.64624507e-05 -0.00299492315 0.0328718945 -0.0026289362
      -0.00229499792 -0.000105769555 -2.91865786e-06 0.0909381807
      -2.29947446e-07 -4.63684188e-07 0.134255454 0.740502477
      -1.39084323e-05 -1.7072789e-05 -0.000230766163 -0.000460081472
      0.0781008899 -3.90397545e-08 -2.77149359e-10 -4.5937889e-09
      -2.05557088e-13 -0.00014898958 -7.95217488e-07 -2.16242801e-10
      -9.19796803e-05 0.0606753826 -1.83625398e-05 0.006392546
      -0.000142389777 -3.80927631e-05 -1.50614487e-05 0.374724865
      -5.77989567e-07 -7.48829734e-06 0.30452466 -0.000302519184
      0.355268508 -6.99617958e-05 0.0141212791 -0.00103800045
      0.0407200903 -5.16195016e-08 0.0689599589 -2.14582269e-06
      -0.000119084201 -3.15085617e-06 -1.95651205e-06 -0.00021603085
      -1.94321146e-07 -3.3804431e-06 0.384809911 -4.7069193e-09
      -6.74702572e-10 -1.36867424e-08 -7.22737536e-10 0.16611433
      0.295422614 -2.2841059e-05 0.190679803 -8.82337699e-05
      -9.64090474e-10 -1.31188798e-07 -4.02845908e-05 -3.24654503e-09
      -0.000706285529 -1.48625486e-05 -1.06063366e-10 -2.9289331e-06
      -0.000479965209 -0.00031363545 -1.37512217e-07 -0.000206422075
      -9.33176203e-09 -2.84573343e-05 -0.000152905413 -5.92482775e-06</_>
    <_>
      -1.67970896 -2.38279629 -0.00544043537 -0.0115886759
      -6.34760156e-08 -0.000159002797 -0.0101365242 -0.000514999032
      -0.00180327496 -2.12451801e-06 -1.32210362e-05 -2.07343959e-07
      -7.43848796e-05 -0.000254496554 -0.000161895601 4.43659258
      -0.00116557383 -0.00260136928 2.16603541 -0.000134982896
      -0.0009514587 -0.000687240215 -0.00427678926 -0.00224933587
      -1.00603038e-05 -0.00697256858 1.13336658 -6.16402986e-06
      -3.52309908e-05 -1.65528963e-05 0.15493457 -0.00018629001
      -0.0103860889 -0.000909299473 -9.00716113e-05 -0.000750703737
      -0.000156127004 -4.69430888e-05 -0.00527225202 -0.000207043806
      -0.000131028719 -0.00060443586 -0.00130415021 -0.00022037985
      0.0273186397 -0.00170499051 -0.00037120693 2.79286146 0.734521151
      -0.0149813974 -0.00160369696 -0.00186920573 -4.13129374e-06
      -0.00856866874 0.955295384 -0.0172225721 -0.0379462168
      -0.0029385814 -0.00345473317 -0.00419626478 -0.000616576697
      -0.000670235022 -0.000874204095 1.47260499 -0.0237272773
      -2.19368612e-05 -3.93275732e-05 -1.23379214e-05 -0.00436009513
      -0.00124419283 -0.000505964679 4.38575554 -0.00136548118
      -0.00010957857 -5.51153425e-06 -0.000855653256 -1.66214286e-05
      -0.00742261577 2.17131209 -0.00159317709 -7.52852611e-06
      -2.01653677e-07 -0.000385416264 0.783302784 -0.00897563715
      -0.000633378164 -0.00347127183 -0.00586819462 -7.242641e-06
      -0.00727123255 -0.00430504512 -0.000434772461 -0.00500840647
      -0.00522368774 1.5704726 -0.0179623384 -0.000581280037
      -0.00470080599 -0.00563943665 -0.00191880076 -4.18188865e-05
      -0.00699423905 1.84179187 -8.46938121e-07 -9.23453554e-05
      -0.000721891935 3.52583408 -9.51992624e-05 -2.65709859e-05
      -0.000341898936 0.625673413 -0.00176246813 -0.00369026023
      -1.83036227e-05 -5.63989088e-05 -0.000623253465 -6.48584376e-07
      -1.97070131e-06 -0.000144707461 -4.50365842e-05 -0.00633761846
      -6.57333158e-06 -0.00564493658 -0.000508607074 -0.0148546211
      -0.00792871695 -0.00248241751 -0.0129643856 -0.0196315553
      -0.00251077022 -1.81259274e-08 0.441770762 0.482694894
      -7.11010362e-05 -5.75696286e-05 0.514572382 0.12238992 0.608606637
      -9.7997912e-09 -0.000177017035 0.545836151 -2.21270398e-06
      -2.7667399e-08 0.366979063 0.784222066 -0.000182294985 0.048946999
      -0.000847025542 -1.48277968e-08 0.0436121076 -2.44872172e-05
      -0.00017041355 -2.14585179e-06 -2.9015896e-06 0.109427199
      -0.0011458107 0.0177216083 0.49760887 -1.30371598e-06
      -0.00024187885 -4.53588655e-06 0.206234008 0.609933496 0.539459109
      0.497646421 -0.000627544418 0.089035809 0.321180671
      -2.73203677e-05 -0.000342736312 0.332101673 0.651501179
      0.473667979 -0.000223694587 0.392576277 0.264671355 -0.00228142738
      -0.000502843526 0.0354072861 0.204941511 0.226432875
      -0.00182775315 -1.63470013e-05 -0.00301901065 0.026558511
      -0.00259882957 -0.00226709968 -0.00010747755 -2.9272444e-06
      0.109609395 -2.29250503e-07 -4.56924965e-07 0.121147275
      0.749036014 -1.39271488e-05 -1.70946441e-05 -0.000230712292
      -0.00045852855 0.0787404329 -3.91442327e-08 -2.79183149e-10
      -4.60486538e-09 -2.06277093e-13 -0.000149052721 -7.96207246e-07
      -2.16671833e-10 -9.20311722e-05 0.0605924875 -1.83808424e-05
      0.00517299399 -0.000142433375 -3.81216414e-05 -1.5077253e-05
      0.372912467 -5.78793731e-07 -7.49449327e-06 0.303498238
      -0.000302166998 0.351599902 -6.98545482e-05 0.0132279582
      -0.00103328691 0.0438702479 -5.17382155e-08 0.0692388862
      -2.13525323e-06 -0.000119139644 -3.15929287e-06 -1.89454408e-06
      -0.00021590681 -1.95053417e-07 -3.3846261e-06 0.382140696
      -4.72358908e-09 -6.75106526e-10 -1.36631968e-08 -7.24612648e-10
      0.161924213 0.292454332 -2.2868302e-05 0.193432659 -8.83056782e-05
      -9.72390612e-10 -1.31497615e-07 -4.03141603e-05 -3.25248428e-09
      -0.000703691447 -2.36905544e-05 -1.06424078e-10 -2.9325538e-06
      -0.000479074108 -0.00031304438 -1.37863836e-07 -0.00020640131
      -9.35211641e-09 -2.84764628e-05 -0.000147995641 -5.93108189e-06</_>
    <_>
      -1.51069868 -2.62699747 -0.00525158644 -0.0104214996
      -6.18204368e-08 -0.000164887533 -0.00973497983 -0.000495534623
      -0.00182661007 -1.794372e-06 -1.2466e-05 -1.97411154e-07
      -7.04917838e-05 -0.000247164833 -0.000154587746 4.27607584
      -2.2186041e-05 -0.00250818278 2.24755907 -0.000131978624
      -0.000953270413 -0.000671818852 -0.00412368355 -0.00189918152
      -9.24146843e-06 -0.00568039529 1.20030463 -6.14305691e-06
      -3.41643427e-05 -1.61334083e-05 0.355439842 -0.000179562456
      -0.00920472387 -0.000849614444 -8.71476586e-05 -0.000732375309
      -0.000156144699 -4.43063473e-05 -0.00527103432 -0.000192926629
      -0.000127688792 -0.000616906618 -0.00119676429 -0.000250056037
      0.068126604 -0.00163038366 -0.00035338258 2.84245276 0.794490695
      -0.0138629349 -0.00147977367 -0.00205091271 -3.82967528e-06
      -0.00829073228 1.03511763 -0.0174948052 -0.0343509391
      -0.00281060906 -0.00274472986 -0.00404977007 -0.000571503886
      -0.000636354962 -0.000833373109 1.55716801 -0.0223903358
      -2.2746739e-05 -3.8450642e-05 -1.22702604e-05 -0.00424630148
      -0.00121972791 -0.000517813489 4.29160309 -0.00129889743
      -0.000107974978 -5.38284303e-06 -0.000839383458 -1.66196423e-05
      -0.00603490183 1.93880069 -0.00152963609 -7.28982332e-06
      -1.7168567e-07 -0.000371366885 0.907314181 -0.00867077056
      -0.000614329765 -0.00234745746 -0.00630652765 -6.95634071e-06
      -0.00695252884 -0.00412378693 -0.000410099397 -0.00490096677
      -0.00519448193 1.69158196 -0.0174472034 -0.000566685689
      -0.0046409294 -0.00535631366 -0.00190745352 -3.74601186e-05
      -0.00670005428 1.93066096 -7.64691265e-07 -8.92928874e-05
      -0.000720262819 3.42292285 -8.7177461e-05 -2.69963439e-05
      -0.000318233506 0.759140193 -0.00167747762 -0.00370976375
      -1.78339997e-05 -5.55127226e-05 -0.000577518018 -6.06491483e-07
      -1.86787508e-06 -0.000142570556 -4.35181428e-05 -0.00614143396
      -6.14712599e-06 -0.00537041435 -0.000461143645 -0.0137297437
      -0.00774355931 -0.0023841185 -0.0128667792 -0.0188108161
      -0.00261530047 -1.79927273e-08 0.452847987 0.482677877
      -7.1919123e-05 -5.79985317e-05 0.509243131 0.103063576 0.624439538
      -9.69819336e-09 -0.000175394176 0.558466613 -2.30837441e-06
      -2.71090865e-08 0.364198565 0.786143959 -0.000183457305
      0.0523256138 -0.000982973608 -1.50038968e-08 0.0483724326
      -2.42751212e-05 -0.000173253211 -2.1974181e-06 -2.87935677e-06
      0.0991460085 -0.0010561815 0.0159854032 0.485529482
      -1.29546368e-06 -0.000237575834 -4.51177675e-06 0.196521878
      0.627830744 0.527432323 0.490808725 -0.000687319669 0.0729555935
      0.295820653 -2.78382049e-05 -0.000343696505 0.322199196
      0.656802416 0.462281257 -0.000227864657 0.387341052 0.259686083
      -0.00213608914 -0.000499746937 0.0370416827 0.204327971
      0.223788768 -0.00182300142 -1.62502802e-05 -0.00304186437
      0.020282574 -0.0026435575 -0.00226598396 -0.000108087697
      -2.92761183e-06 0.119752005 -2.29091228e-07 -4.53078997e-07
      0.12766552 0.73338896 -1.39340127e-05 -1.71029533e-05
      -0.000230682039 -0.000457979098 0.0790892094 -3.91833588e-08
      -2.79833406e-10 -4.60896388e-09 -2.06557455e-13 -0.000149074767
      -7.96572635e-07 -2.16820228e-10 -9.20501916e-05 0.0606773496
      -1.83876364e-05 0.00476085395 -0.000142448436 -3.81322716e-05
      -1.50831875e-05 0.3720873 -5.79090567e-07 -7.49679884e-06
      0.302979499 -0.000302017172 0.350157082 -6.98389485e-05
      0.0129626654 -0.0010314876 0.0449416861 -5.17825391e-08
      0.0694426224 -2.13136195e-06 -0.000119158933 -3.16239516e-06
      -1.87273542e-06 -0.0002158524 -1.95337734e-07 -3.38620293e-06
      0.3810184 -4.72980455e-09 -6.75242251e-10 -1.36535361e-08
      -7.25308646e-10 0.160578102 0.291593015 -2.28784556e-05
      0.194253653 -8.83318062e-05 -9.75506342e-10 -1.31611486e-07
      -4.03251615e-05 -3.25471761e-09 -0.000702686957 -2.66676579e-05
      -1.06556826e-10 -2.93390417e-06 -0.000478157628 -0.000312818505
      -1.37994959e-07 -0.000206385332 -9.35968458e-09 -2.84835205e-05
      -0.000146373277 -5.933392e-06</_>
    <_>
      -1.61117995 -2.55787015 -0.00538934674 -0.0103387972
      -6.23959906e-08 -0.000164755096 -0.0099226879 -0.000504607218
      -0.00181885727 -1.84440512e-06 -1.27252824e-05 -2.02263237e-07
      -7.28390442e-05 -0.000244550029 -0.000160381547 4.33052826
      -4.41273296e-05 -0.00254086428 2.16433859 -0.000137751354
      -0.00095941429 -0.000698336633 -0.00421027606 -0.00210927729
      -9.33892625e-06 -0.00578846503 1.20644915 -6.16649368e-06
      -3.45309672e-05 -1.63950863e-05 0.317982554 -0.000183656637
      -0.00950518809 -0.000883530302 -8.98012659e-05 -0.000742825505
      -0.000156697948 -4.5352248e-05 -0.0058079958 -0.000198094276
      -0.000130453278 -0.000632925367 -0.00124936143 -0.000255650899
      0.0857439637 -0.00162390701 -0.000355822733 2.77605677 0.797002554
      -0.0147427199 -0.00152995274 -0.00205418025 -3.7729651e-06
      -0.00838074461 0.962382853 -0.0177835803 -0.0353145339
      -0.00290025794 -0.00269449526 -0.00414861413 -0.000581213157
      -0.000636485231 -0.000849124161 1.56459069 -0.0226662494
      -2.26573738e-05 -3.89038723e-05 -1.23770315e-05 -0.00429994473
      -0.0012595366 -0.000519453781 4.31522274 -0.00132587971
      -0.000111968089 -5.58533793e-06 -0.000847737771 -1.69205759e-05
      -0.00597279426 1.95193768 -0.00155428867 -7.30574948e-06
      -1.81142198e-07 -0.000379966077 0.858882248 -0.00865464937
      -0.000637487683 -0.00236750231 -0.00622333912 -7.16352406e-06
      -0.00698544504 -0.00416062865 -0.000423040299 -0.00497664092
      -0.00526213553 1.6949259 -0.0178497732 -0.000569768192
      -0.00467345817 -0.00543088838 -0.00195439369 -3.86171923e-05
      -0.00678743329 1.93990159 -7.61739614e-07 -9.12842443e-05
      -0.00072597072 3.43855762 -9.05186389e-05 -2.68525091e-05
      -0.000327602145 0.754060209 -0.00171942974 -0.00330472528
      -1.84131313e-05 -5.65408591e-05 -0.000612334348 -5.90808668e-07
      -1.91429194e-06 -0.000146825536 -4.43472927e-05 -0.00621981267
      -6.34058142e-06 -0.00541936373 -0.000491263054 -0.0139591591
      -0.00775975408 -0.00250328239 -0.0128732333 -0.0187817998
      -0.00272742542 -1.80626056e-08 0.452224016 0.48898831
      -7.13754853e-05 -5.67589159e-05 0.524457216 0.0961889699
      0.618492901 -9.74179049e-09 -0.000174232133 0.560393214
      -2.26771249e-06 -2.73350498e-08 0.37380141 0.794890583
      -0.000182323551 0.0544388369 -0.000937633566 -1.50133932e-08
      0.0507349297 -2.4335508e-05 -0.000171365115 -2.18659056e-06
      -2.88695082e-06 0.097943455 -0.000984586892 0.0301085562
      0.493192554 -1.29924092e-06 -0.000252230995 -4.51867845e-06
      0.200449899 0.623450398 0.533937275 0.501549721 -0.000647075998
      0.0834114701 0.308914006 -2.76630453e-05 -0.000338968355
      0.336354196 0.668435156 0.451426744 -0.000226334087 0.384382337
      0.258606344 -0.00236072531 -0.00057730329 0.0307093598 0.209663883
      0.231720164 -0.00182736327 -1.63045406e-05 -0.00303287432
      0.0132695436 -0.00257453369 -0.00227998709 -0.000107411412
      -2.92862956e-06 0.107233182 -2.28793667e-07 -4.54904438e-07
      0.130055889 0.73171556 -1.39417516e-05 -1.71129414e-05
      -0.000230625868 -0.000457401271 0.0797196776 -3.92291888e-08
      -2.8036537e-10 -4.6136579e-09 -2.06908058e-13 -0.000149097265
      -7.96989696e-07 -2.16968832e-10 -9.20718812e-05 0.0610148609
      -1.83954671e-05 0.00437284261 -0.000142463468 -3.81443278e-05
      -1.5090176e-05 0.370821953 -5.79429013e-07 -7.49946776e-06
      0.302096516 -0.000301804597 0.348333269 -6.98717413e-05
      0.0127972811 -0.00102931052 0.0459649153 -5.18341849e-08
      0.0698833391 -2.12693908e-06 -0.000119178469 -3.16591149e-06
      -1.85000818e-06 -0.000215772277 -1.95691399e-07 -3.38807058e-06
      0.37945652 -4.73702677e-09 -6.75370926e-10 -1.36405287e-08
      -7.26110727e-10 0.15947035 0.291103661 -2.28902445e-05 0.194774732
      -8.83607427e-05 -9.79170189e-10 -1.31741217e-07 -4.03378945e-05
      -3.2573515e-09 -0.000701443292 -2.94558886e-05 -1.06707469e-10
      -2.9354735e-06 -0.000475879904 -0.000312544609 -1.38147328e-07
      -0.000206349709 -9.36843669e-09 -2.84915732e-05 -0.000144927661
      -5.9360309e-06</_>
    <_>
      -1.5126344 -2.70329094 -0.00539162662 -0.0105913421
      -6.29456451e-08 -0.000160783631 -0.00996214896 -0.000500352762
      -0.00182431052 -1.77187792e-06 -1.26693731e-05 -2.03705284e-07
      -7.23490011e-05 -0.000246032898 -0.00016104203 4.37429142
      0.00202723593 -0.00253887312 2.23899817 -0.000136378556
      -0.000959594094 -0.000693083741 -0.0042062276 -0.0019890999
      -9.25087352e-06 -0.00578576233 1.21587968 -6.24684117e-06
      -3.47911373e-05 -1.63702407e-05 0.368861765 -0.000184019562
      -0.0093871206 -0.00088016456 -8.9626963e-05 -0.00074537925
      -0.000159416173 -4.46930389e-05 -0.00527013745 -0.00019662219
      -0.000129899476 -0.000622130756 -0.00123235898 -0.00025259197
      0.0763143152 -0.00163143512 -0.000359191734 2.80982018 0.821005344
      -0.014192353 -0.00151259266 -0.00205661124 -3.76183243e-06
      -0.00842967164 1.05433583 -0.017834343 -0.0352747403
      -0.00289398106 -0.00250923051 -0.0041226577 -0.000573972589
      -0.000651869166 -0.000842229929 1.58040404 -0.022778485
      -2.26924549e-05 -3.88232875e-05 -1.19917449e-05 -0.004294971
      -0.00125631026 -0.000523986644 4.36856461 -0.00131723448
      -0.000110840811 -5.52942493e-06 -0.000842171488 -1.67245289e-05
      -0.00616315752 1.96952248 -0.00155023974 -7.3245601e-06
      -1.71811408e-07 -0.000378048455 0.90326643 -0.00919423532
      -0.000632246549 -0.0022492581 -0.00659647165 -7.15136457e-06
      -0.00701328507 -0.00421241019 -0.000419662218 -0.00495442282
      -0.00530893542 1.71196985 -0.0178852454 -0.00058342627
      -0.00485434663 -0.00543995947 -0.00194663927 -3.7902726e-05
      -0.00680695148 1.95859206 -7.67128768e-07 -9.00509913e-05
      -0.000724170415 3.46534967 -8.8772802e-05 -2.69322791e-05
      -0.000326800218 0.808674634 -0.00170422136 -0.00357298926
      -1.83919274e-05 -5.63030444e-05 -0.000603631022 -6.01057479e-07
      -1.92598804e-06 -0.000145310274 -4.42857527e-05 -0.00623547472
      -6.30095519e-06 -0.0054585156 -0.000485114026 -0.0140256453
      -0.00784980692 -0.00246249954 -0.0129544111 -0.018967649
      -0.0026800558 -1.80409216e-08 0.463299572 0.482750714
      -7.17118528e-05 -5.60847293e-05 0.549083948 0.0687825382
      0.639552236 -9.73726255e-09 -0.000171071806 0.562366784
      -2.33285527e-06 -2.7129353e-08 0.374805629 0.794835031
      -0.000182794247 0.0490417257 -0.000931414717 -1.50643302e-08
      0.0558743626 -2.42327478e-05 -0.000172129003 -2.22579934e-06
      -2.88353408e-06 0.0965045094 -0.000693126291 0.0435331985
      0.476121724 -1.2979109e-06 -0.000243965682 -4.51261303e-06
      0.195552021 0.625919104 0.517109692 0.499823153 -0.000677771342
      0.0802385211 0.285505444 -2.79722644e-05 -0.000334847573
      0.336244792 0.674129784 0.432773978 -0.000229155252 0.371929049
      0.259297311 -0.00241312617 -0.000627636735 0.0161363743
      0.211328924 0.234812513 -0.00182012853 -1.62565429e-05
      -0.00302908081 0.00280296803 -0.00258821552 -0.0022689593
      -0.000108038446 -2.93210951e-06 0.105792038 -2.2820025e-07
      -4.54229593e-07 0.146438017 0.703221381 -1.39468448e-05
      -1.71187821e-05 -0.000230615042 -0.000456971378 0.0798519924
      -3.92573298e-08 -2.80953982e-10 -4.61665817e-09 -2.07098065e-13
      -0.000149114858 -7.9725811e-07 -2.17088819e-10 -9.20858511e-05
      0.0609503984 -1.84004184e-05 0.0040285252 -0.000142475663
      -3.8152175e-05 -1.5094427e-05 0.370387256 -5.79647178e-07
      -7.50114214e-06 0.301868975 -0.000301716296 0.347370923
      -6.98339281e-05 0.0125317574 -0.00102805335 0.0468518808
      -5.1866202e-08 0.0699221939 -2.12406735e-06 -0.000119193937
      -3.16820456e-06 -1.8328044e-06 -0.000215741777 -1.95884951e-07
      -3.38919335e-06 0.3787826 -4.74152584e-09 -6.75485612e-10
      -1.36344953e-08 -7.26618044e-10 0.158261687 0.290213734
      -2.28975987e-05 0.195591688 -8.8380395e-05 -9.81402848e-10
      -1.31825018e-07 -4.03458835e-05 -3.258948e-09 -0.000700756733
      -3.19502105e-05 -1.06805453e-10 -2.93645076e-06 -0.000475851499
      -0.00031238707 -1.38242243e-07 -0.000206347104 -9.37393629e-09
      -2.84967609e-05 -0.000143527446 -5.93772711e-06</_>
    <_>
      -1.59640312 -2.72729492 -0.00526974769 -0.0101764267
      -6.03449379e-08 -0.000164582059 -0.00978046004 -0.000486307574
      -0.00180944963 -1.69255361e-06 -1.23469899e-05 -1.97233646e-07
      -7.22400218e-05 -0.000246961921 -0.00015795292 4.34985542
      0.235888764 -0.0024873151 1.96407413 -0.000137204785
      -0.000951041351 -0.000679993595 -0.00409930944 -0.00160404353
      -8.99304359e-06 -0.00372507307 1.40656674 -6.2045242e-06
      -3.49569418e-05 -1.59392566e-05 0.252522588 -0.000180494113
      -0.00880365912 -0.000879357045 -8.83166867e-05 -0.000723042991
      -0.000159628093 -4.57385177e-05 -0.00525260624 -0.00019345367
      -0.000127271735 -0.000635974109 -0.0012063036 -0.000261140842
      0.109801292 -0.00155299599 -0.000348218979 2.57132673 0.828292012
      -0.0141922245 -0.00148599746 -0.00200178591 -3.62920969e-06
      -0.00825691875 1.05849385 -0.0179815181 -0.0344707035
      -0.00284891203 -0.00223315973 -0.00403435482 -0.000571041193
      -0.000620920677 -0.000810123165 1.75528288 -0.0209656209
      -2.30944479e-05 -3.84134873e-05 -1.2932459e-05 -0.00420010835
      -0.00127536175 -0.00052186352 4.31281376 -0.00128135982
      -0.000109405541 -5.41045392e-06 -0.000839287648 -1.71724369e-05
      -0.00401137304 1.93182945 -0.00150409725 -7.4310633e-06
      -1.63028517e-07 -0.000360915583 0.86133343 -0.009019983
      -0.000611582189 -0.00197885977 -0.00613256032 -6.9095363e-06
      -0.00684728567 -0.00413170736 -0.000411786546 -0.00489444658
      -0.00527259801 2.00517011 -0.0178203378 -0.000566535455
      -0.00491915038 -0.00527849467 -0.00193535013 -3.72663235e-05
      -0.00674121315 2.15557599 -7.34462731e-07 -8.84027322e-05
      -0.00071896083 3.3083148 -8.75899204e-05 -2.67519354e-05
      -0.00032090029 0.824064672 -0.00166545855 -0.00341651635
      -1.76544709e-05 -5.60307526e-05 -0.00059216161 -5.87800741e-07
      -1.90277467e-06 -0.000150491323 -4.33168279e-05 -0.00625783531
      -6.22285643e-06 -0.00525960652 -0.000487006269 -0.0121615119
      -0.00775446696 -0.00250932039 -0.0129771912 -0.0176514387
      -0.00284276088 -1.79801827e-08 0.472696304 0.476522088
      -7.20328389e-05 -5.50485747e-05 0.564875722 0.0413679257
      0.655491829 -9.69064207e-09 -0.000168542232 0.558865905
      -2.38102393e-06 -2.68509819e-08 0.36894697 0.797641277
      -0.000183983706 0.0382178053 -0.00100180646 -1.51076573e-08
      0.061782293 -2.41980251e-05 -0.000173463748 -2.24944256e-06
      -2.87429248e-06 0.102111205 -0.000647811743 0.0403996333
      0.467055738 -1.29370653e-06 -0.000299064734 -4.50141943e-06
      0.190390185 0.629612505 0.510228097 0.489986658 -0.000685113424
      0.0755366534 0.268290848 -2.80810964e-05 -0.00033269517
      0.330186009 0.669100404 0.425569355 -0.000232627572 0.371348441
      0.270174056 -0.00239098282 -0.00070593413 0.0170733519 0.217859775
      0.232533023 -0.00181846973 -1.61912467e-05 -0.00304227415
      -2.06682835e-05 -0.00269465987 -0.00226548128 -0.000108597415
      -2.93144922e-06 0.104598485 -2.26884794e-07 -4.52131303e-07
      0.15820232 0.697122455 -1.39475615e-05 -1.71185802e-05
      -0.000230650112 -0.000456841692 0.0794760361 -3.92584418e-08
      -2.81370094e-10 -4.61695526e-09 -2.07067694e-13 -0.000149121217
      -7.97287385e-07 -2.17136684e-10 -9.2087379e-05 0.0605406016
      -1.84008295e-05 0.00385494158 -0.000142480611 -3.81531499e-05
      -1.50945334e-05 0.370882213 -5.79671394e-07 -7.50126264e-06
      0.302331299 -0.000301776076 0.347566545 -6.97453943e-05
      0.0122745857 -0.0010281225 0.0472774655 -5.18679357e-08
      0.0695768967 -2.12372038e-06 -0.000119199765 -3.16849605e-06
      -1.82726535e-06 -0.00021576861 -1.95857282e-07 -3.38920245e-06
      0.379181862 -4.74180384e-09 -6.75543232e-10 -1.36371732e-08
      -7.26660399e-10 0.157418549 0.289293349 -2.28980643e-05
      0.196371645 -8.83840185e-05 -9.81466797e-10 -1.31834597e-07
      -4.03464619e-05 -3.25897997e-09 -0.000700844801 -3.32287127e-05
      -1.06817589e-10 -2.93650987e-06 -0.00047790556 -0.000312396762
      -1.38248041e-07 -0.000206375917 -9.37434663e-09 -2.84973394e-05
      -0.000142700635 -5.93790764e-06</_>
    <_>
      -1.28429425 -3.18157053 -0.00550421467 -0.01204246 -5.94605716e-08
      -0.000146232283 -0.0103149768 -0.00050023623 -0.00172437401
      -1.96516271e-06 -1.28504807e-05 -2.27409501e-07 -7.87184545e-05
      -0.000253364095 -0.000165562466 4.69554853 0.357450247
      -0.00254564243 2.03118634 -0.000143080208 -0.000937189441
      -0.000667162356 -0.00417370768 -0.000748308958 -9.32056537e-06
      -0.00293888524 1.60900509 -7.31560522e-06 -4.05291139e-05
      -1.51740696e-05 0.305984944 -0.000185711542 -0.0102801146
      -0.000926956302 -8.46608455e-05 -0.000738009636 -0.0001828885
      -4.72517058e-05 -0.00571421394 -0.000190076185 -0.000132220652
      -0.000613627373 -0.00124221784 -0.0002454645 0.168235704
      -0.00157082255 -0.000365070533 2.62746525 0.721057773
      -0.0137629407 -0.00151001243 -0.00147904165 -3.54612871e-06
      -0.0086726686 1.47587633 -0.0183853898 -0.0366067179
      -0.00297391834 -0.00310983672 -0.00415485306 -0.000651604496
      -0.000583296816 -0.000831802085 2.02363634 -0.0222504139
      -2.50543417e-05 -3.79192788e-05 -1.42987183e-05 -0.0041847867
      -0.00131036411 -0.00054467743 4.70702791 -0.0013700322
      -0.000109627152 -4.83427175e-06 -0.000877531827 -1.62904944e-05
      -0.00417141709 2.04613757 -0.00154515402 -8.02185787e-06
      -2.03034034e-07 -0.000366041088 1.12206709 -0.0113264034
      -0.000553877093 -0.00236439635 -0.0045955712 -7.01636736e-06
      -0.00727425423 -0.00467772642 -0.000414120092 -0.00488716876
      -0.00535211898 2.21020627 -0.0184090175 -0.000558484346
      -0.00706590712 -0.00547711318 -0.00200926932 -4.11844849e-05
      -0.00714852614 2.34328151 -8.42139627e-07 -8.8122375e-05
      -0.000728896528 3.53930116 -8.90462543e-05 -2.84528214e-05
      -0.000332060445 0.88478756 -0.00167424337 -0.00584893348
      -1.63777186e-05 -5.37661763e-05 -0.000565845985 -6.12738575e-07
      -2.09334598e-06 -0.000146424078 -4.45295118e-05 -0.00647055777
      -6.62705952e-06 -0.00562141091 -0.000492905499 -0.0116074346
      -0.00821519177 -0.00244781747 -0.0134379575 -0.019373199
      -0.00286693708 -1.8092825e-08 0.469194084 0.484748811
      -7.10058448e-05 -5.48116986e-05 0.56426096 0.0368728638
      0.623492241 -9.82154535e-09 -0.000169204839 0.54316473
      -2.25710528e-06 -2.75173804e-08 0.37820971 0.802567184
      -0.000182231961 0.0371530727 -0.000725770486 -1.51975783e-08
      0.0578351989 -2.44922794e-05 -0.000169188643 -2.22401195e-06
      -2.89481295e-06 0.108965009 -0.000858386571 0.0453607962
      0.480670393 -1.30373621e-06 -0.000378958939 -4.53345456e-06
      0.187558964 0.60976696 0.521204352 0.490872651 -0.000673090806
      0.119065389 0.302641779 -2.73534479e-05 -0.000329266622 0.34248662
      0.667238057 0.429137647 -0.000230577047 0.38766098 0.264929056
      -0.00241004513 -0.000799034198 0.00960680842 0.223163545
      0.238946736 -0.00184423535 -1.6318123e-05 -0.00301254634
      -5.55314091e-06 -0.00264627999 -0.00227322266 -0.000107466643
      -2.93064454e-06 0.0890641809 -2.2873806e-07 -4.56964329e-07
      0.139274821 0.719212055 -1.39543035e-05 -1.7128652e-05
      -0.000230552192 -0.000456430804 0.0805529058 -3.93021757e-08
      -2.81387774e-10 -4.62121186e-09 -2.07449604e-13 -0.000149135638
      -7.97662096e-07 -2.1722471e-10 -9.21068495e-05 0.0613707379
      -1.84080345e-05 0.00368469581 -0.000142489371 -3.81638274e-05
      -1.51012791e-05 0.369036078 -5.79974994e-07 -7.50374147e-06
      0.300900787 -0.000301494205 0.345535547 -6.98853837e-05
      0.012424916 -0.00102589675 0.0477655157 -5.19166399e-08
      0.0704298988 -2.11979022e-06 -0.000119211902 -3.17160084e-06
      -1.81162898e-06 -0.000215657157 -1.9623883e-07 -3.39102917e-06
      0.377160609 -4.74857131e-09 -6.75600076e-10 -1.36211247e-08
      -7.2739792e-10 0.157355011 0.289931357 -2.29090965e-05 0.195934981
      -8.84080873e-05 -9.84993642e-10 -1.31950586e-07 -4.03582853e-05
      -3.26153216e-09 -0.00069951429 -3.44141008e-05 -1.06951031e-10
      -2.93798212e-06 -0.000473167282 -0.000312115531 -1.38390917e-07
      -0.000206305849 -9.38245837e-09 -2.85045589e-05 -0.000142285033
      -5.94028506e-06</_>
    <_>
      -1.67563868 -7.72835302 -0.00282041635 -0.00571709918
      -2.03378647e-08 -0.000107904649 -0.00696033286 -0.000143946148
      -0.00106311217 -8.92612832e-07 -9.12932137e-06 -1.88206627e-07
      -5.47497293e-05 -0.000230122023 -0.000135107985 2.49007463
      3.74293351 -0.00115819729 0.855640948 -0.000114943497
      -0.000857617415 -0.000377307559 -0.00172504166 0.610458493
      -6.95830613e-06 3.01952052 4.72361994 -1.20173399e-05
      -3.23797321e-05 -9.76149477e-06 -0.00248962478 -8.64492686e-05
      1.00365639 -0.000886105932 -7.29726016e-05 -0.00037422523
      -0.000259704073 -4.10999455e-05 -0.00475102337 -0.000121812744
      -7.14116686e-05 -0.000453043729 -0.000746407837 -0.000345279899
      0.36035341 -0.000649505702 -0.000213161969 1.53110576 1.63086176
      0.273756474 -0.000885745627 -3.61935236e-05 -1.77415495e-06
      -0.00423152605 1.05463862 -0.0180195309 -0.0115725417
      -0.00194829353 0.676950514 -0.00173650112 -0.000306416216
      -0.000205112461 -0.000248406315 4.18971157 1.21225643
      -3.13191704e-05 -1.85292738e-05 -1.44599489e-05 -0.00234890403
      -0.00112729694 -0.000615204393 3.86758757 -0.00091399654
      -4.22851444e-05 -1.76276762e-06 -0.000945516862 -1.94387758e-05
      2.53461123 0.463592142 -0.000595591962 -7.22130335e-06
      -1.76633975e-07 -7.17725852e-05 0.577632546 -0.00667946367
      -0.000315036683 0.939807534 0.296471655 -2.99734643e-06
      -0.0046888981 -0.00223412504 -0.000216751025 -0.00234928937
      -0.00562881771 7.34762859 -0.0160068311 -0.00057519559
      -0.0029664461 -0.00293799699 -0.00128542539 -3.72928262e-05
      -0.00642353855 5.4422121 -1.18139337e-06 -6.26239198e-05
      -0.000880998152 2.09741735 -7.81089911e-05 -3.08700801e-05
      -0.000235186089 1.50876772 -0.000850040466 -0.0154936938
      -1.11617856e-05 -3.16670521e-05 -0.000479612092 -5.67991663e-07
      -1.76489323e-06 -0.000146513892 -1.9744788e-05 -0.00555050559
      -4.33331797e-06 -0.00200138032 -0.000512921833 1.63721251
      -0.00853824615 -0.00179583114 -0.0157354083 0.436377823
      -0.00359168928 -1.83277589e-08 0.434039921 0.458705932
      -7.03337137e-05 -5.34270512e-05 0.587422729 0.0522673354
      0.619261801 -1.00316386e-08 -0.000170169878 0.532426536
      -2.24209339e-06 -2.81571317e-08 0.382325113 0.774600863
      -0.000182918942 0.0430167541 -0.000802211347 -1.55654938e-08
      0.0498246178 -2.46146938e-05 -0.000166918806 -2.25325493e-06
      -2.92267646e-06 0.103523582 -0.000680911995 0.0340899602
      0.453374624 -1.32258663e-06 -0.000536272419 -4.57823171e-06
      0.189317286 0.584731936 0.546074927 0.488119692 -0.000763523509
      0.117509589 0.293055803 -2.72594898e-05 -0.000325138011
      0.347594202 0.674092352 0.416663945 -0.000231340295 0.38324666
      0.281261921 -0.00230457261 -0.000786144112 0.00154561177
      0.226460695 0.246456996 -0.00179823185 -1.65112269e-05
      -0.00294402894 -0.000172657441 -0.00270149251 -0.00224157027
      -0.000107016967 -2.95003611e-06 0.0747431293 -2.32369146e-07
      -4.63395537e-07 0.146390796 0.704184115 -1.39887852e-05
      -1.71730189e-05 -0.000230306367 -0.000453847053 0.083308287
      -3.95060127e-08 -2.83798818e-10 -4.64211158e-09 -2.09004811e-13
      -0.000149236381 -7.99519171e-07 -2.17890969e-10 -9.22034378e-05
      0.062823154 -1.84428936e-05 0.00194347277 -0.000142556702
      -3.82175349e-05 -1.5132352e-05 0.363472342 -5.81482254e-07
      -7.5156172e-06 0.297030807 -0.000300555897 0.337461591
      -7.00217715e-05 0.0116636865 -0.00101622939 0.0523517244
      -5.2146401e-08 0.072346434 -2.1000867e-06 -0.00011929938
      -3.18726552e-06 -1.7098954e-06 -0.000215304011 -1.97807537e-07
      -3.39933263e-06 0.37027055 -4.78069984e-09 -6.7617989e-10
      -1.35636657e-08 -7.30968119e-10 0.152346224 0.287655503
      -2.29615525e-05 0.198330492 -8.85370901e-05 -1.00128528e-09
      -1.32528271e-07 -4.04149396e-05 -3.27324323e-09 -0.000693997252
      -4.6930425e-05 -1.07621995e-10 -2.94496567e-06 -0.000463273813
      -0.000310899137 -1.39068916e-07 -0.000206150711 -9.42140588e-09
      -2.85404149e-05 -0.00013577599 -5.95203664e-06</_>
    <_>
      -0.169930056 -11.9231787 -0.00396961253 0.899050772 -1.9605281e-08
      -0.000121405821 -0.0093639791 -0.000121884783 -0.00110487803
      -1.29034186e-06 -1.04040309e-05 -3.39952209e-07 -6.86703061e-05
      -0.000238568449 -0.000174193483 0.252206743 5.4952383
      -0.00147269666 0.25021112 -0.000125324324 -0.00136336358
      -0.000552289654 -0.00213242206 0.726559639 -1.14584946e-05
      4.92220831 6.47668171 -1.27045369e-05 -4.53226312e-05
      -1.44921623e-05 -0.00282498659 -7.43492492e-05 2.25747252
      -0.00116890983 -9.31563482e-05 -0.000372210285 -0.000324289256
      -4.98945083e-05 -0.00400402071 -0.000204419528 -6.80155645e-05
      -0.000447527302 -0.00105395296 -0.000435333175 0.0917907059
      -0.00072418584 -0.000369457586 0.884015083 3.15233111 1.12983418
      -0.0012023045 -0.00114894297 -1.72962575e-06 -0.00457536941
      -0.00376201747 -0.0182805061 0.394095898 -0.00233480008
      0.691849649 -0.00204053195 -0.000558402156 -0.000351157447
      -0.000294695405 5.32059288 2.77519417 -2.95017926e-05
      -2.43042268e-05 -1.73793342e-05 -0.00294233439 -0.00143380277
      -0.000568268064 2.64854145 -0.00154684286 -2.56358871e-05
      -1.99114925e-06 -0.00110290304 -2.09260688e-05 3.90917492
      -0.00790755823 -0.000843041053 -8.44292845e-06 -6.02696275e-07
      -9.16952631e-05 0.309640646 0.304833621 -0.000320948457 1.90778327
      0.193892285 -5.24097186e-06 -0.00464902353 -0.00282256957
      -0.000291938806 -0.00236682058 -0.00637524342 10.1743641
      -0.0191821996 -0.000878744526 0.621814311 -0.00417257287
      -0.00162014447 -5.93783261e-05 -0.00786779914 7.08911896
      -1.67646385e-06 -6.97873256e-05 -0.00105991575 0.871779084
      -0.00011241316 -3.95067764e-05 -0.000335164252 0.420564473
      -0.000931327173 -0.0174920782 -1.393613e-05 -5.06861834e-05
      -0.000648491492 -8.23218045e-07 -3.45396938e-06 -0.0001840841
      -2.77237941e-05 -0.00703239441 -6.52196559e-06 -0.00179352192
      -0.000710796914 3.05689812 -0.00970101077 -0.00243541272
      -0.0166314989 1.77190709 -0.00322895194 -1.81482136e-08
      0.425962836 0.458267421 -6.991173e-05 -5.23848066e-05 0.597965002
      0.0414053053 0.606040895 -9.94035876e-09 -0.00017144646
      0.535296023 -2.19651315e-06 -2.79894525e-08 0.408917606
      0.823143184 -0.000179853771 0.0491267964 -0.000773573003
      -1.53244724e-08 0.0500172079 -2.44729199e-05 -0.00016496591
      -2.28865133e-06 -2.9059006e-06 0.100770712 -0.00083659438
      0.0124108307 0.438716173 -1.3125898e-06 -0.000692727161
      -4.54490464e-06 0.175646544 0.590499818 0.569756329 0.483826995
      -0.000782874646 0.136577293 0.33135429 -2.69154771e-05
      -0.000327732967 0.345549464 0.683439672 0.435400575 -0.00023082814
      0.385224223 0.273462176 -0.00218282896 -0.000908521703
      -6.11449796e-05 0.236485958 0.24848783 -0.0018354886
      -1.64630746e-05 -0.00299059809 0.000284813344 -0.00276129181
      -0.00229837443 -0.000106478779 -2.9152875e-06 0.0444126986
      -2.31731562e-07 -4.59606014e-07 0.142341405 0.730020344
      -1.39954509e-05 -1.71793745e-05 -0.00023033825 -0.000453197048
      0.0829840675 -3.95392661e-08 -2.84988588e-10 -4.64588146e-09
      -2.09181698e-13 -0.000149264277 -7.9985989e-07 -2.1808709e-10
      -9.22211766e-05 0.062233977 -1.84490127e-05 0.0013355352
      -0.000142576726 -3.82276412e-05 -1.51372969e-05 0.363604128
      -5.8175965e-07 -7.51766356e-06 0.297355801 -0.000300531188
      0.336620033 -6.98676813e-05 0.0110396929 -0.00101489387
      0.0538902991 -5.21848236e-08 0.0719551668 -2.09639961e-06
      -0.000119324213 -3.19022843e-06 -1.68343649e-06 -0.000215303226
      -1.97991753e-07 -3.40061433e-06 0.370011568 -4.78614126e-09
      -6.76382617e-10 -1.35602178e-08 -7.31595617e-10 0.149917752
      0.285489619 -2.29704638e-05 0.200236231 -8.85638947e-05
      -1.00389275e-09 -1.32635179e-07 -4.04247075e-05 -3.27509042e-09
      -0.000693331182 -5.13613777e-05 -1.07748192e-10 -2.94614597e-06
      -0.000465828023 -0.000310732983 -1.39183641e-07 -0.000206184006
      -9.42814715e-09 -2.85470123e-05 -0.000133151654 -5.95418305e-06</_>
    <_>
      -0.411553502 -12.2428408 -0.00402068859 0.68716985 -1.86782607e-08
      -0.000131117675 -0.00937146973 -0.000125525505 -0.00116213458
      -1.22834649e-06 -1.0327567e-05 -3.58904856e-07 -6.84118786e-05
      -0.000241359914 -0.000176492918 0.385606587 5.55990887
      -0.00147824013 0.0264971405 -0.000128242056 -0.00142881274
      -0.000563806563 -0.00212464528 0.704934716 -1.15701814e-05
      5.00672483 6.54056787 -1.29017571e-05 -4.54664041e-05
      -1.45188806e-05 -0.00393814687 -7.5504533e-05 2.35618591
      -0.00117156887 -9.40448663e-05 -0.00037707205 -0.000331023068
      -4.98702866e-05 -0.00287869712 -0.000197787929 -7.16909635e-05
      -0.000464073033 -0.00106723339 -0.0004314814 0.0580663159
      -0.000709729386 -0.000364168052 0.740999341 3.24426198 1.00593889
      -0.00119949249 -0.000978205586 -1.75848481e-06 -0.0046327454
      -0.00285390113 -0.0185259636 0.080055967 -0.00236460613
      0.651500821 -0.0020113592 -0.000599471154 -0.000370052963
      -0.000287358649 5.3411417 2.85075116 -2.97454226e-05
      -2.39006313e-05 -1.67585677e-05 -0.0029882004 -0.00146015955
      -0.000545973715 2.47384596 -0.0016256402 -2.51312194e-05
      -2.13585145e-06 -0.00108095619 -2.12621562e-05 3.99040842
      -0.00633605057 -0.000864398375 -8.59574993e-06 -5.54834514e-07
      -9.36524521e-05 0.29215914 0.112048231 -0.000321126689 1.97637105
      0.283184171 -5.52357005e-06 -0.00425654417 -0.00306907855
      -0.00029318122 -0.00241240859 -0.00636849692 10.2548189
      -0.0191846732 -0.000891866453 0.646545887 -0.00420127157
      -0.00164273882 -5.73390607e-05 -0.00781133911 7.09887981
      -1.70120063e-06 -6.97422074e-05 -0.00104692159 0.853506684
      -0.000115147181 -3.96104006e-05 -0.000339830614 0.315594584
      -0.000963718572 -0.0160598457 -1.36288263e-05 -4.85101518e-05
      -0.000667811604 -8.45503564e-07 -3.48508911e-06 -0.000184310789
      -2.84391845e-05 -0.00706957839 -6.68060557e-06 -0.00186022033
      -0.000704873702 3.11932707 -0.00970147364 -0.00244263513
      -0.0163585674 1.84249365 -0.00310294586 -1.81886364e-08 0.42323333
      0.454002112 -7.01409444e-05 -5.20822032e-05 0.589850903
      0.0266926512 0.597260833 -9.96693483e-09 -0.000171100954
      0.518556595 -2.2199888e-06 -2.79899943e-08 0.407391906 0.820780814
      -0.000179221519 0.0418865904 -0.000718976022 -1.54631756e-08
      0.0591587797 -2.45826413e-05 -0.000165546197 -2.30332398e-06
      -2.91585684e-06 0.112083249 -0.000869983109 -5.1380619e-05
      0.436610252 -1.31440174e-06 -0.000680906698 -4.55515419e-06
      0.176223695 0.587118983 0.571669102 0.467422903 -0.000764292374
      0.141742095 0.338469177 -2.69879492e-05 -0.000327747082
      0.335676491 0.667560518 0.445478708 -0.000232086517 0.386893213
      0.277431041 -0.00204673107 -0.000926397275 -7.5167045e-06
      0.244542778 0.24877885 -0.00183059415 -1.64756475e-05
      -0.00298029301 0.00636772066 -0.00284586521 -0.00228372053
      -0.000106773114 -2.92847267e-06 0.0404638276 -2.3129337e-07
      -4.60267017e-07 0.136458412 0.743553698 -1.39854856e-05
      -1.71666416e-05 -0.00023040596 -0.000453949702 0.0822204202
      -3.94806108e-08 -2.84260948e-10 -4.63985117e-09 -2.08737514e-13
      -0.00014923478 -7.99323857e-07 -2.17891871e-10 -9.21932951e-05
      0.0618497133 -1.84389646e-05 0.00185255334 -0.00014255695
      -3.82121289e-05 -1.51283593e-05 0.365164697 -5.81324514e-07
      -7.51424159e-06 0.298431069 -0.000300795713 0.338931143
      -6.98363001e-05 0.0112819523 -0.00101766677 0.0525299385
      -5.21186578e-08 0.0714307576 -2.10208646e-06 -0.00011929858
      -3.1857046e-06 -1.71306419e-06 -0.000215402426 -1.97543187e-07
      -3.39822805e-06 0.371963292 -4.77688422e-09 -6.76212419e-10
      -1.35765452e-08 -7.30566219e-10 0.151434481 0.286222458
      -2.29553498e-05 0.199476749 -8.85265108e-05 -9.99206162e-10
      -1.32468401e-07 -4.04083767e-05 -3.27172289e-09 -0.000694909832
      -4.76426067e-05 -1.07554389e-10 -2.94413462e-06 -0.00046849862
      -0.000311081618 -1.38988355e-07 -0.000206226163 -9.41692235e-09
      -2.85366641e-05 -0.000135098104 -5.95079155e-06</_>
    <_>
      -1.27986014 -10.8389425 -0.00375827681 0.0241556466
      -1.77757418e-08 -0.000120793709 -0.00902040675 -0.000131963243
      -0.00118008174 -1.38991015e-06 -1.07181804e-05 -3.34722785e-07
      -6.92657704e-05 -0.000247733697 -0.00016724474 1.11532569
      5.19752026 -0.00139365625 0.492350817 -0.000127531908
      -0.00130422541 -0.000521603797 -0.00201865262 0.719753921
      -1.12097441e-05 4.52453613 6.24605703 -1.24175422e-05
      -4.44521356e-05 -1.31579136e-05 -0.00385096367 -7.92521023e-05
      1.88593984 -0.00114475121 -8.91055461e-05 -0.000390655652
      -0.000318586186 -4.89922058e-05 -0.00330074085 -0.000173119697
      -7.74913933e-05 -0.000444547564 -0.00101886515 -0.0003671874
      0.209768772 -0.000746441307 -0.000324955094 1.27375746 2.68132114
      0.768802285 -0.00115660788 -0.000450753083 -1.9448978e-06
      -0.00450559286 0.295382887 -0.0184054095 -0.00395659171
      -0.00228534173 0.610074461 -0.0019278262 -0.000488323683
      -0.000231645812 -0.000282703433 5.17256975 2.29956055
      -3.18389611e-05 -2.12503382e-05 -1.65727033e-05 -0.0028767148
      -0.00138862105 -0.000613583834 3.04788303 -0.00152221869
      -3.02172175e-05 -1.72219734e-06 -0.00109943899 -2.11066636e-05
      3.65651417 -0.0036127849 -0.000785139564 -8.34641924e-06
      -3.9324425e-07 -8.50532451e-05 0.62784946 -0.0033597243
      -0.000310684758 1.63927186 0.196773335 -4.94084088e-06
      -0.00444770791 -0.00292561692 -0.000274727296 -0.00231067953
      -0.00648589619 9.66336346 -0.0183097031 -0.000761949399
      0.171564579 -0.00397590827 -0.00158023729 -5.29025674e-05
      -0.00735777896 6.8353529 -1.60573154e-06 -6.37116173e-05
      -0.00105318415 1.36082566 -0.000113802671 -3.88259141e-05
      -0.0003093376 0.667271972 -0.000899686187 -0.0166619588
      -1.26730993e-05 -3.67562207e-05 -0.000634548953 -7.52800418e-07
      -3.11202916e-06 -0.000170998275 -2.63328311e-05 -0.00672646286
      -6.18393733e-06 -0.00194046658 -0.000694095565 2.78675199
      -0.00974819902 -0.00220332225 -0.0169963352 1.34522724
      -0.00329360948 -1.82221651e-08 0.412651896 0.44020164
      -7.07335857e-05 -5.43588212e-05 0.558340967 0.0543722808
      0.602432907 -9.97133398e-09 -0.000173749475 0.528102875
      -2.2743568e-06 -2.78993877e-08 0.39475292 0.793753326
      -0.000179783383 0.0415692255 -0.00066502369 -1.55554361e-08
      0.0494988486 -2.45762149e-05 -0.000168075057 -2.33575611e-06
      -2.91231072e-06 0.102250874 -0.000820563291 -4.89587328e-05
      0.436531425 -1.31741649e-06 -0.000623296422 -4.56170665e-06
      0.186823338 0.588039279 0.556978762 0.460864782 -0.000792541541
      0.123763725 0.33662948 -2.74343292e-05 -0.000332875905 0.322731525
      0.655297458 0.456055224 -0.000231241735 0.385582507 0.263712704
      -0.00191040279 -0.000808564539 0.000451911241 0.226767004
      0.240376726 -0.00181585725 -1.64955909e-05 -0.00296065025
      0.00321516395 -0.00286654476 -0.00226145331 -0.000107880769
      -2.94782967e-06 0.0459185019 -2.33332855e-07 -4.60580367e-07
      0.127078667 0.74623543 -1.39941958e-05 -1.71789052e-05
      -0.00023030625 -0.000453368528 0.083324641 -3.95350241e-08
      -2.84527513e-10 -4.64526062e-09 -2.09188949e-13 -0.000149256259
      -7.9980174e-07 -2.18028207e-10 -9.22181425e-05 0.0626292005
      -1.84480632e-05 0.00153919682 -0.000142570643 -3.82258258e-05
      -1.5136713e-05 0.363185108 -5.81712015e-07 -7.51735979e-06
      0.296944052 -0.000300484564 0.336544901 -6.9955895e-05
      0.0113136135 -0.00101497106 0.0533858314 -5.21795478e-08
      0.0722774416 -2.09705354e-06 -0.000119316937 -3.18969251e-06
      -1.69062514e-06 -0.000215281267 -1.97995988e-07 -3.40047859e-06
      0.369710624 -4.78536766e-09 -6.76315004e-10 -1.35583713e-08
      -7.31497918e-10 0.150854111 0.286462307 -2.29691886e-05 0.19940424
      -8.8558234e-05 -1.00357922e-09 -1.3261662e-07 -4.0423256e-05
      -3.27487926e-09 -0.000693325826 -4.98664012e-05 -1.07725592e-10
      -2.9459793e-06 -0.000463885808 -0.000310741627 -1.39167398e-07
      -0.000206156998 -9.4271364e-09 -2.85458791e-05 -0.000134094473
      -5.95382016e-06</_>
    <_>
      -1.82399702 -8.90242958 -0.00318465428 -0.00806505885
      -1.71525851e-08 -0.0001071488 -0.00789966434 -0.00011881697
      -0.00107993383 -8.96059191e-07 -9.50330468e-06 -2.31152171e-07
      -6.02749715e-05 -0.000235298154 -0.000151525586 2.3650198
      4.21912575 -0.00122001313 0.616500258 -0.000123521269
      -0.000978539349 -0.000419282704 -0.00183402107 0.689374804
      -7.79680158e-06 3.54431963 5.29082727 -1.16614192e-05
      -3.72044633e-05 -1.05470972e-05 -0.00436534733 -9.15680357e-05
      1.35182619 -0.00101925572 -7.92020073e-05 -0.000389328779
      -0.000277395244 -4.26342849e-05 -0.00512967911 -0.000125523089
      -7.56213267e-05 -0.000430362357 -0.000860959932 -0.00035291753
      0.370648563 -0.000636096869 -0.000242940034 1.42283773 1.95992112
      0.164593339 -0.000990438974 0.0104995668 -1.79066842e-06
      -0.00426562969 0.930658281 -0.0182769224 -0.0114559866
      -0.00216743117 0.619446456 -0.00183393771 -0.000355751399
      -0.00014935073 -0.000221202907 4.57447052 1.54469693
      -3.22934029e-05 -1.77866023e-05 -1.44711248e-05 -0.0025981525
      -0.00123865658 -0.000604576839 3.56914592 -0.00107662112
      -3.86811662e-05 -1.65421466e-06 -0.00101176731 -2.009534e-05
      3.00402141 0.364751965 -0.000647158711 -7.50301433e-06
      -1.54015623e-07 -6.60319492e-05 0.511240482 -0.0081470944
      -0.000303928478 1.16581523 0.383543968 -3.59904448e-06
      -0.00447306782 -0.00260799727 -0.000235142215 -0.00229844823
      -0.00578504009 8.13349628 -0.0173337646 -0.000566440634
      -0.00326802838 -0.00323547353 -0.00142979028 -3.94069393e-05
      -0.00671327207 5.9137907 -1.22613028e-06 -5.35888394e-05
      -0.000922466221 1.83531916 -8.71112716e-05 -3.41644372e-05
      -0.000250460231 1.13481092 -0.000826362055 -0.0150345489
      -1.07051628e-05 -2.91736233e-05 -0.000551842502 -6.29205658e-07
      -1.9630304e-06 -0.000157680654 -2.25251333e-05 -0.005946171
      -5.23316157e-06 -0.002023004 -0.000594844401 2.13516903
      -0.00888163038 -0.00193192018 -0.016798256 0.698178172
      -0.00361119839 -1.82535835e-08 0.426255584 0.437728286
      -7.12690744e-05 -5.76146995e-05 0.541085005 0.0512570813
      0.619020402 -9.99373473e-09 -0.000175844412 0.519595444
      -2.27372243e-06 -2.78985155e-08 0.353241682 0.779143929
      -0.000181115494 0.030599691 -0.000646977336 -1.53567488e-08
      0.0469437465 -2.45984847e-05 -0.000169230319 -2.30010414e-06
      -2.92027016e-06 0.120963126 -0.00106751826 -0.000183829063
      0.442898631 -1.31805962e-06 -0.000529898447 -4.57945634e-06
      0.182168737 0.592851996 0.536213458 0.448978126 -0.000770509068
      0.116324112 0.323429495 -2.77195904e-05 -0.000338499289
      0.306825072 0.628828287 0.469449341 -0.000231973987 0.399032384
      0.270375997 -0.00159415544 -0.000567370211 0.0291472189
      0.216992214 0.219490126 -0.00181220879 -1.64486119e-05
      -0.00295976386 0.033605881 -0.00300163915 -0.00223274832
      -0.000108409935 -2.96082112e-06 0.0708648488 -2.34649121e-07
      -4.61378221e-07 0.126140505 0.744977117 -1.3998012e-05
      -1.71881675e-05 -0.000230123565 -0.000453377084 0.085307464
      -3.95696347e-08 -2.83378154e-10 -4.64810279e-09 -2.09603453e-13
      -0.000149250918 -8.00043097e-07 -2.17970128e-10 -9.22306572e-05
      0.0644930154 -1.84531345e-05 0.00187728927 -0.000142564357
      -3.82323124e-05 -1.51422337e-05 0.360205352 -5.81906363e-07
      -7.51916195e-06 0.294414788 -0.000300073909 0.334241867
      -7.03243277e-05 0.0121624134 -0.00101285649 0.052618444
      -5.22167269e-08 0.0739810169 -2.09463383e-06 -0.000119311109
      -3.19155447e-06 -1.69266127e-06 -0.000215110034 -1.98402773e-07
      -3.40203087e-06 0.36684674 -4.79043116e-09 -6.76202205e-10
      -1.35370088e-08 -7.32015837e-10 0.153156519 0.289588273
      -2.29774087e-05 0.196846604 -8.85688569e-05 -1.00644415e-09
      -1.32689919e-07 -4.04318416e-05 -3.27699112e-09 -0.000691930938
      -4.73168657e-05 -1.07806777e-10 -2.94708457e-06 -0.000454047607
      -0.000310471863 -1.39274476e-07 -0.000206015902 -9.43299039e-09
      -2.85505012e-05 -0.000136047282 -5.9553663e-06</_>
    <_>
      -1.46219766 -5.57651663 -0.00371595076 -0.0110721271
      -2.75873298e-08 -0.000102932681 -0.00835055765 -0.0002388227
      -0.00116848014 -1.20879486e-06 -1.05950594e-05 -2.18882676e-07
      -6.30616778e-05 -0.000247012067 -0.000147290717 3.2634685
      2.63725781 -0.00151928212 1.19824743 -0.000125280872
      -0.00087735994 -0.000470895378 -0.00248916075 0.429293782
      -7.11983921e-06 1.95740592 3.70371366 -1.07818842e-05
      -3.48796348e-05 -9.9826766e-06 -0.00138886075 -0.000118270829
      0.219540939 -0.000945828331 -8.24779418e-05 -0.000517294626
      -0.000244306138 -4.15254108e-05 -0.00597693352 -0.000141755503
      -8.61107837e-05 -0.000473424938 -0.000940261816 -0.000329234521
      0.294065982 -0.000850400014 -0.000247439602 1.9075048 1.12489974
      -0.00352258119 -0.00113649713 0.00842145458 -2.09580344e-06
      -0.00556898955 1.49322224 -0.0178321004 -0.0196627025
      -0.00243206206 0.536544025 -0.00249653263 -0.000432212255
      -0.000276130479 -0.000402025384 3.4424839 0.132295698
      -3.21277803e-05 -2.25763852e-05 -1.37043698e-05 -0.00294803223
      -0.00121630565 -0.00062647392 4.16370869 -0.00114108506
      -6.12113799e-05 -2.52593281e-06 -0.000952874077 -1.91586569e-05
      1.61674142 0.921184599 -0.000897341524 -7.55570773e-06
      -1.86858372e-07 -0.000147145343 0.761456013 -0.0107087893
      -0.000369659101 0.537111878 0.382793963 -4.23751726e-06
      -0.00546643557 -0.00291897566 -0.00028525907 -0.00308916741
      -0.00547427917 5.66759014 -0.0169894695 -0.000584215333
      -0.00627170084 -0.00373041094 -0.00154930411 -3.87146029e-05
      -0.00663078995 4.38577271 -1.07102198e-06 -6.43776439e-05
      -0.000823600742 2.54606676 -7.95320884e-05 -2.99512449e-05
      -0.000264462666 1.44683599 -0.00103981956 -0.0129122473
      -1.14912573e-05 -3.74060837e-05 -0.00053163257 -6.18635056e-07
      -1.87688022e-06 -0.000151804168 -2.78730458e-05 -0.00582938781
      -5.53671998e-06 -0.0033184241 -0.000525943993 0.791180432
      -0.0086152032 -0.00207721605 -0.0154243633 -0.00379261072
      -0.00327150035 -1.80744397e-08 0.454862148 0.448556483
      -7.2532559e-05 -5.93068798e-05 0.530417919 0.0283343419
      0.639688909 -9.83508563e-09 -0.000174644243 0.509823322
      -2.37678205e-06 -2.72127672e-08 0.332203925 0.769949615
      -0.000183159238 0.0136255696 -0.000762576354 -1.5077557e-08
      0.0715821162 -2.44963867e-05 -0.000173490116 -2.31382296e-06
      -2.90047046e-06 0.152956337 -0.0012085312 -0.000553153164
      0.439210355 -1.30381727e-06 -0.000366056483 -4.55105192e-06
      0.173642769 0.611055315 0.511594594 0.419394016 -0.000745336176
      0.119264096 0.292487472 -2.82177953e-05 -0.000343144551
      0.291453928 0.613632023 0.476093024 -0.000237051296 0.403926551
      0.290052503 -0.00126399868 -0.000422596786 0.0503226779
      0.224930435 0.19419159 -0.0018094253 -1.62273191e-05
      -0.00300771347 0.0638770089 -0.00323631824 -0.0022141363
      -0.000110420806 -2.9519224e-06 0.110793039 -2.3190637e-07
      -4.55188115e-07 0.132024989 0.742615521 -1.400578e-05
      -1.72020118e-05 -0.000229930782 -0.000453054963 0.0874094963
      -3.96262188e-08 -2.82670248e-10 -4.65327776e-09 -2.10168159e-13
      -0.000149259053 -8.00493183e-07 -2.18003837e-10 -9.22540494e-05
      0.0663251132 -1.84620603e-05 0.00195573643 -0.000142567384
      -3.82448925e-05 -1.5151074e-05 0.356863856 -5.82270218e-07
      -7.52226879e-06 0.291686714 -0.000299591309 0.331181377
