<?xml version="1.0"?>
<opencv_storage>
<opencv_ml_svm>
  <format>3</format>
  <svmType>EPS_SVR</svmType>
  <kernel>
    <type>RBF</type>
    <gamma>0.0050000000000000001</gamma></kernel>
  <C>1.</C>
  <p>0.001</p>
  <term_criteria><iterations>10000</iterations></term_criteria>
  <var_count>258</var_count>
  <sv_total>556</sv_total>
  <support_vectors>
    <_>
      -1.37582529 -3.15350819 -0.00542458473 -0.013878121
      -5.19764285e-08 -0.000135599694 -0.0107055968 -0.000391684269
      -0.00144204916 -1.70043199e-06 -1.38462319e-05 -3.34961555e-07
      -7.47322192e-05 -0.000222726347 -0.000177885435 4.04779911
      0.70878607 -0.00227988069 2.5120554 -0.000134755712
      -0.000918180391 -0.000596057973 -0.00373058557 0.219119519
      -9.43667328e-06 0.169777304 2.08586121 -8.96635538e-06
      -4.40270815e-05 -1.11936124e-05 0.212543756 -0.000160470881
      -0.011955373 -0.00106086035 -8.59166685e-05 -0.000712784589
      -0.000256682019 -4.38174793e-05 -0.00633632625 -0.000167388571
      -0.000107432395 -0.000470789004 -0.00130213203 -0.000287583767
      0.210315585 -0.00144177047 -0.000399026292 3.73691297 0.61494422
      -0.00958496705 -0.00145491608 -0.000183740398 -2.08837855e-06
      -0.0081402678 1.16957414 -0.0160620492 -0.0274947248
      -0.00315042585 0.0325265154 -0.00407810928 -0.000573725672
      -0.000405959785 -0.000686892949 2.15551305 -0.0187700726
      -3.73091061e-05 -2.72887482e-05 -1.36151184e-05 -0.0040703197
      -0.00138746377 -0.000678639393 4.82903767 -0.00159841799
      -9.14051052e-05 -2.36753317e-06 -0.00112458761 -1.89413513e-05
      -0.00204677205 1.41350222 -0.00139064505 -7.65322784e-06
      -2.11601503e-07 -0.000288525625 1.38009393 -0.00964873191
      -0.000417225325 -0.000404560851 0.00250691175 -6.4981873e-06
      -0.0071072923 -0.00418629358 -0.000370612426 -0.0041212975
      -0.00553555693 2.99039626 -0.0173048209 -0.000698806078
      -0.00703126378 -0.00511130085 -0.00192411162 -4.09643144e-05
      -0.00652785506 2.65437198 -9.07272522e-07 -8.96809288e-05
      -0.000914981065 4.15722418 -9.28948866e-05 -2.9383189e-05
      -0.000348679401 0.733894348 -0.00139518722 -0.0115679121
      -1.30729586e-05 -4.34018802e-05 -0.000595060759 -5.0431214e-07
      -1.99693682e-06 -0.00014559945 -4.00284516e-05 -0.0070723868
      -8.09710673e-06 -0.00539898267 -0.00055556657 -0.00697489362
      -0.00925662089 -0.00197155937 -0.0168887712 -0.0180974174
      -0.00199728925 -1.61108655e-08 0.0120317042 0.0608072802
      -7.45879079e-05 -5.48713906e-05 0.393121183 0.333034039
      0.475400448 -9.07843134e-09 -0.000192208652 0.542296648
      -3.11905978e-06 -2.38428175e-08 0.352551341 0.649556935
      -0.000183234952 0.170548797 -0.00308333058 -1.10860805e-08
      0.240496278 -2.25395052e-05 -0.000130010987 -2.73941464e-06
      -2.93717926e-06 -0.000145132464 0.290388674 -0.00184337457
      -0.00078434957 -1.20047969e-06 -0.00155221135 -4.16269177e-06
      -0.00277968054 0.624481142 0.424447209 0.434027046 -0.00231532636
      0.192332342 0.167696491 -2.97097722e-05 -0.000398212898
      0.261723846 0.561188579 0.451804131 -0.000185124998 0.483935356
      0.361104071 -0.00115588482 -0.00280096103 0.0844344795
      -0.00194946106 0.460395038 -0.0011662218 -1.40324464e-05
      -0.00338408398 0.300474882 -0.00400341721 -0.00295879412
      -0.000126031489 -2.78198263e-06 0.169127196 -2.08890739e-07
      -4.23257944e-07 0.197899207 -0.00154921063 -1.4357076e-05
      -1.77042293e-05 -0.000225636541 -0.000430128333 0.134851903
      -4.1841961e-08 -2.9095279e-10 -4.87226304e-09 -2.28803955e-13
      -0.000150096123 -8.19827619e-07 -2.23269542e-10 -9.32593684e-05
      0.100759685 -1.88311951e-05 -9.68520544e-05 -0.000143095473
      -3.87983746e-05 -1.54916634e-05 0.272898287 -5.97944961e-07
      -7.64888773e-06 0.228026986 -0.000286499097 0.232595518
      -7.6119788e-05 0.0157912597 -0.000899195205 0.0846253783
      -5.47552901e-08 0.112466633 -1.88647459e-06 -0.000120030163
      -3.35627055e-06 -7.98628889e-07 -0.000209794744 -2.17633541e-07
      -3.49635366e-06 0.268968314 -5.14379739e-09 -6.80044687e-10
      -1.27519639e-08 -7.70719655e-10 0.1363727 0.307780445
      -2.355365e-05 0.186826825 -8.98674916e-05 -1.18929533e-09
      -1.38822472e-07 -4.10506364e-05 -3.40907635e-09 -0.000624740089
      -0.000128920132 -1.14879828e-10 -3.02393391e-06 -0.00024255547
      -0.000296130311 -1.46733001e-07 -0.000202864685 -9.85771287e-09
      -2.89320051e-05 -0.000101348662 -6.08080654e-06</_>
    <_>
      -1.23009706 -3.50212145 -0.00522131985 -0.0143838236
      -5.15998551e-08 -0.000132224784 -0.0103770681 -0.000394621195
      -0.00139731006 -1.6395162e-06 -1.34742504e-05 -3.24323025e-07
      -7.20479729e-05 -0.000227651035 -0.000169715713 3.96987915
      0.763615906 -0.00224316423 2.51466608 -0.000131184293
      -0.000890955038 -0.000567504962 -0.00360104255 0.244904429
      -8.786531e-06 0.209768713 2.10280681 -9.50051708e-06
      -4.25345752e-05 -1.10626106e-05 0.30049178 -0.000154658512
      -0.0114191743 -0.00102907303 -8.42338777e-05 -0.000700950448
      -0.000251342746 -4.26238221e-05 -0.00537364464 -0.000162813216
      -0.00010460976 -0.000465822493 -0.00126373826 -0.000280856068
      0.205666766 -0.00146058516 -0.000377482938 3.70049787 0.537947893
      -0.00840381905 -0.00140416331 -0.000137951676 -2.16270041e-06
      -0.0079360446 1.30377531 -0.0158613157 -0.0257829931
      -0.00303640333 0.0790022761 -0.00395312672 -0.000581289234
      -0.00040086935 -0.000669771631 2.16518211 -0.0177920535
      -3.77697688e-05 -2.69452939e-05 -1.32108917e-05 -0.00396802509
      -0.00134742679 -0.00068667857 4.85285568 -0.00155808416
      -8.8382898e-05 -2.24663449e-06 -0.00113736559 -1.85524059e-05
      -0.00133246102 1.30564213 -0.00135917636 -7.42980183e-06
      -2.06239889e-07 -0.000279562926 1.37032175 -0.0100893909
      -0.000400058198 -0.000316630147 0.113183722 -6.26047085e-06
      -0.00698199868 -0.00405891612 -0.00035878687 -0.00405289838
      -0.00543562276 3.02811599 -0.0168024413 -0.000679677236
      -0.0073969271 -0.00496540358 -0.00185857131 -3.93002811e-05
      -0.00664039189 2.68112969 -9.1739156e-07 -8.99893421e-05
      -0.000913256081 4.11684465 -8.95906342e-05 -2.90517783e-05
      -0.000332461932 0.933435678 -0.0013578526 -0.0119552892
      -1.2439029e-05 -4.27956911e-05 -0.000553385296 -5.30842897e-07
      -1.90264598e-06 -0.000140958218 -3.89575289e-05 -0.00693598669
      -7.94165317e-06 -0.00528234337 -0.000523635244 -0.0063705151
      -0.00911713298 -0.00187173428 -0.016559666 -0.0178195778
      -0.00204282603 -1.61870801e-08 0.00510898232 0.0617225021
      -7.42451011e-05 -5.43972601e-05 0.40200153 0.331682444 0.473069012
      -9.13712661e-09 -0.000191100291 0.545018077 -3.0888832e-06
      -2.40605953e-08 0.345895231 0.651861846 -0.000182468255
      0.170565829 -0.00320892595 -1.10320544e-08 0.2400904
      -2.25317617e-05 -0.000128192056 -2.71994122e-06 -2.93898233e-06
      -0.000113983602 0.289824426 -0.00183542247 -0.000815884443
      -1.20518041e-06 -0.00161732582 -4.17606043e-06 -0.00282129273
      0.624710441 0.429590493 0.435177892 -0.00231303484 0.192162424
      0.173437193 -2.94366127e-05 -0.000395361014 0.268592179
      0.561792433 0.432551086 -0.000184411314 0.490463853 0.366537899
      -0.00106530648 -0.00277454825 0.0929255262 -0.00187632313
      0.460273027 -0.0011609178 -1.40621223e-05 -0.00338002457
      0.305621177 -0.00399335194 -0.00295859319 -0.000124784841
      -2.77911022e-06 0.16375789 -2.09589118e-07 -4.2518775e-07
      0.206546903 -0.00155110413 -1.43526458e-05 -1.76980921e-05
      -0.000225683747 -0.000430430868 0.134329408 -4.18145554e-08
      -2.90785063e-10 -4.8695239e-09 -2.28579769e-13 -0.00015008483
      -8.19585296e-07 -2.23197114e-10 -9.32467738e-05 0.100402251
      -1.88265931e-05 -9.51447291e-05 -0.000143088197 -3.87914188e-05
      -1.54874615e-05 0.273850441 -5.9774851e-07 -7.64731249e-06
      0.22873503 -0.000286650466 0.233774915 -7.60667899e-05
      0.0157956816 -0.000900542422 0.0841633081 -5.47245875e-08
      0.112070687 -1.88903039e-06 -0.000120020479 -3.35424443e-06
      -8.10368192e-07 -0.000209853402 -2.17408555e-07 -3.49522293e-06
      0.270064741 -5.13951681e-09 -6.79987899e-10 -1.27608537e-08
      -7.70248476e-10 0.136730596 0.307734579 -2.3546665e-05 0.186801478
      -8.98512808e-05 -1.18709498e-09 -1.38747282e-07 -4.10431203e-05
      -3.4074894e-09 -0.000625527813 -0.00012770461 -1.1479289e-10
      -3.02300282e-06 -0.000244703348 -0.000296300219 -1.46642662e-07
      -0.000202897063 -9.85255255e-09 -2.89273303e-05 -0.000101917423
      -6.07927086e-06</_>
    <_>
      -1.30957425 -3.3484385 -0.00531432871 -0.0135551207
      -5.23838004e-08 -0.000133723675 -0.010567599 -0.00038944991
      -0.00143614435 -1.64420533e-06 -1.37519692e-05 -3.3454657e-07
      -7.24294368e-05 -0.000222242699 -0.000173558292 3.94365096
      0.785244048 -0.0022427931 2.65000319 -0.000133103516
      -0.000919129525 -0.000585437054 -0.00365959806 0.241386592
      -9.40978225e-06 0.26731196 2.18286085 -9.46284763e-06
      -4.32050219e-05 -1.09773264e-05 0.329678446 -0.000156710477
      -0.0112791313 -0.00104044145 -8.4462743e-05 -0.000703918224
      -0.000264020637 -4.29838983e-05 -0.00602860423 -0.000163249206
      -0.000105611158 -0.000474820496 -0.00126086571 -0.000294364261
      0.210683241 -0.00144167966 -0.000390799483 3.84385848 0.672804832
      -0.00870096497 -0.00140370056 -0.000154809037 -2.08672327e-06
      -0.00809691194 1.20986986 -0.0162660647 -0.0260946434
      -0.0030923998 0.0879121274 -0.00401709415 -0.000563374022
      -0.000389042689 -0.000672530441 2.22506785 -0.0181625262
      -3.86556385e-05 -2.67550022e-05 -1.35689834e-05 -0.00403769733
      -0.00137344643 -0.000700826931 4.83856583 -0.00158751197
      -8.96189158e-05 -2.31338595e-06 -0.00114413782 -1.94357381e-05
      -0.00138991978 1.27087915 -0.00137164025 -7.61092906e-06
      -2.08860655e-07 -0.00028259703 1.4529295 -0.00957077462
      -0.000406269159 0.0284773707 0.0830530375 -6.34638855e-06
      -0.00708836783 -0.00414039567 -0.000359214784 -0.00405431259
      -0.00559618091 3.15377259 -0.017158648 -0.000703082362
      -0.00668549305 -0.00504034292 -0.00189812086 -4.01414254e-05
      -0.00650177244 2.75367951 -9.32421813e-07 -9.11087263e-05
      -0.000929479604 4.16746759 -9.03821565e-05 -3.00090196e-05
      -0.000338617858 0.846853077 -0.00136804953 -0.0120516485
      -1.30106109e-05 -4.27295308e-05 -0.000572048302 -4.96066207e-07
      -1.94434301e-06 -0.00014326672 -3.92420443e-05 -0.0070827771
      -7.97017947e-06 -0.0053401906 -0.000531818368 -0.00636349386
      -0.00937543064 -0.00188052654 -0.0170932114 -0.0178184547
      -0.00200378988 -1.62110823e-08 0.000773668289 0.0637709945
      -7.3746407e-05 -5.44636605e-05 0.393150151 0.346800596 0.477857769
      -9.21935506e-09 -0.000192248946 0.544573367 -3.04080345e-06
      -2.44294451e-08 0.332382023 0.664387405 -0.000181135911
      0.159199208 -0.00299846404 -1.09066098e-08 0.226981103
      -2.26110915e-05 -0.000126537605 -2.72513876e-06 -2.93975313e-06
      -0.000103656203 0.273576796 -0.00183662295 -0.000899387407
      -1.21110361e-06 -0.00172527996 -4.19746675e-06 -0.0027779697
      0.619802833 0.419297189 0.429548949 -0.00229814881 0.191067204
      0.167466655 -2.8984643e-05 -0.000395116804 0.257962942 0.554847062
      0.45426327 -0.000184858058 0.489659578 0.361485273 -0.00101939018
      -0.00271292473 0.0995207429 -0.00189436635 0.471337438
      -0.00116376439 -1.41581786e-05 -0.00335851777 0.30823949
      -0.00394414598 -0.00294322846 -0.000124710321 -2.7774372e-06
      0.157788336 -2.10747729e-07 -4.28293674e-07 0.200012088
      -0.0016101501 -1.43529287e-05 -1.76986541e-05 -0.000225674637
      -0.000430423039 0.134428561 -4.18167829e-08 -2.90740237e-10
      -4.86971974e-09 -2.28603621e-13 -0.000150084903 -8.19602292e-07
      -2.231966e-10 -9.32476469e-05 0.100491807 -1.8826935e-05
      -9.504646e-05 -0.000143088124 -3.87918844e-05 -1.54878107e-05
      0.273696959 -5.97762153e-07 -7.64743254e-06 0.228607476
      -0.000286628754 0.233644173 -7.6084063e-05 0.0158319101
      -0.000900415296 0.08414305 -5.47270105e-08 0.112154432
      -1.88885781e-06 -0.000120020486 -3.35437903e-06 -8.10138886e-07
      -0.000209844467 -2.17432074e-07 -3.49532024e-06 0.269912273
      -5.13984988e-09 -6.79984624e-10 -1.27596973e-08 -7.70283448e-10
      0.136819422 0.307869703 -2.35472053e-05 0.1866927 -8.98521757e-05
      -1.18727739e-09 -1.38752455e-07 -4.10436915e-05 -3.40762285e-09
      -0.00062544673 -0.000127628708 -1.14798726e-10 -3.02307535e-06
      -0.000244223629 -0.000296284037 -1.46649683e-07 -0.000202890122
      -9.85294246e-09 -2.89276559e-05 -0.000101985817 -6.07937909e-06</_>
    <_>
      -1.32129824 -3.30343771 -0.00535495626 -0.0134725589
      -5.26346753e-08 -0.000133812558 -0.0106178541 -0.000390578498
      -0.00144418248 -1.61486946e-06 -1.37611187e-05 -3.36484362e-07
      -7.25415885e-05 -0.000223870753 -0.000175046735 3.94641852
      0.756714821 -0.00225345651 2.63913345 -0.000132304078
      -0.000919338898 -0.000588390569 -0.00367731508 0.224683374
      -9.22831532e-06 0.234119713 2.1446805 -9.20133607e-06
      -4.30302716e-05 -1.10530827e-05 0.307620704 -0.000157877992
      -0.0116515504 -0.00104919786 -8.53301535e-05 -0.000710370776
      -0.000261090405 -4.28619132e-05 -0.00600365782 -0.000163800869
      -0.000105607563 -0.000472161977 -0.00126910524 -0.000292913377
      0.208372846 -0.00144623185 -0.000392888032 3.86017847 0.658689737
      -0.00877018087 -0.00141409354 -0.000217192763 -2.05742344e-06
      -0.00811736193 1.19573462 -0.016249517 -0.0262993313
      -0.00311227189 0.0569032729 -0.00403631339 -0.000557612104
      -0.000396391843 -0.000672750291 2.19539523 -0.0184082873
      -3.83307815e-05 -2.68466338e-05 -1.3327719e-05 -0.00404552184
      -0.00137758802 -0.000695172697 4.85355997 -0.00159487315
      -8.97367499e-05 -2.31999161e-06 -0.00113866013 -1.90372339e-05
      -0.00164366828 1.30265403 -0.00137703575 -7.53548602e-06
      -2.05037907e-07 -0.000283432251 1.43034196 -0.00929342955
      -0.000408260879 -3.02232797e-06 0.0418135077 -6.38622942e-06
      -0.00708003016 -0.00413683383 -0.000361896586 -0.0040742415
      -0.00561027415 3.10035872 -0.0171667151 -0.000707859057
      -0.00659194635 -0.00506108534 -0.00190461031 -3.98115881e-05
      -0.00643808581 2.72253489 -9.18110231e-07 -9.02936299e-05
      -0.000925100583 4.18318796 -9.02333195e-05 -2.98735595e-05
      -0.00034115772 0.830725133 -0.00137106248 -0.0119749783
      -1.28896218e-05 -4.30245163e-05 -0.0005837715 -4.89408592e-07
      -1.94250811e-06 -0.000144315811 -3.95008647e-05 -0.00707524782
      -8.01914666e-06 -0.00534375105 -0.000535802916 -0.00659038592
      -0.00936232042 -0.00190141692 -0.0170775317 -0.0179208871
      -0.00199066079 -1.61296221e-08 0.00609582663 0.0643170625
      -7.42801494e-05 -5.48853277e-05 0.387756914 0.33350879 0.47114253
      -9.1303578e-09 -0.000191728584 0.54848069 -3.09647521e-06
      -2.40616504e-08 0.348360717 0.640774786 -0.000182764474
      0.165024102 -0.00313563528 -1.09875531e-08 0.236457199
      -2.25405929e-05 -0.000128844185 -2.71768454e-06 -2.93782227e-06
      -0.000169298117 0.295259207 -0.00183618395 -0.000828395889
      -1.20404979e-06 -0.0016261983 -4.17494311e-06 -0.00283499504
      0.618622899 0.419567108 0.439508438 -0.00232931739 0.194798306
      0.163272962 -2.94581841e-05 -0.000396457646 0.25986436 0.556433499
      0.45164299 -0.000186824574 0.479783237 0.363185585 -0.0010575339
      -0.00276670838 0.0884995088 -0.00194776617 0.471075535
      -0.00116102223 -1.40797147e-05 -0.00337436725 0.301381886
      -0.00397428684 -0.00295164157 -0.000124951388 -2.78293214e-06
      0.170495003 -2.09241946e-07 -4.25029299e-07 0.197445199
      -0.00161808694 -1.43491889e-05 -1.76922349e-05 -0.000225758689
      -0.00043059446 0.133509949 -4.17902264e-08 -2.91001612e-10
      -4.86725815e-09 -2.28345473e-13 -0.000150080057 -8.19387651e-07
      -2.23173036e-10 -9.32365001e-05 0.0997053459 -1.88227077e-05
      -9.51168113e-05 -0.000143085897 -3.87858599e-05 -1.54836725e-05
      0.275173485 -5.97588553e-07 -7.64596462e-06 0.229803085
      -0.000286843773 0.235040769 -7.59388495e-05 0.015570078
      -0.000901849533 0.0841159821 -5.46977574e-08 0.111395687
      -1.89108243e-06 -0.000120016724 -3.35263303e-06 -8.16257625e-07
      -0.000209931546 -2.17175852e-07 -3.4941861e-06 0.271435767
      -5.13580867e-09 -6.79987178e-10 -1.27714719e-08 -7.69850961e-10
      0.136308223 0.306869358 -2.3540626e-05 0.187474817 -8.98395301e-05
      -1.18511845e-09 -1.38686346e-07 -4.1036692e-05 -3.40605122e-09
      -0.000626334629 -0.000127723382 -1.14723411e-10 -3.02219519e-06
      -0.000248525001 -0.00029646582 -1.46564318e-07 -0.000202952695
      -9.84814896e-09 -2.8923525e-05 -0.000101705133 -6.07801348e-06</_>
    <_>
      -1.35095477 -3.11382246 -0.00544432877 -0.0147456666
      -5.19249141e-08 -0.000141381053 -0.0107643558 -0.000405801315
      -0.0014646186 -1.79758115e-06 -1.38447385e-05 -3.35185035e-07
      -7.51571934e-05 -0.000225984521 -0.000177337555 4.1606164
      0.603445709 -0.00228574919 2.47667193 -0.000135554947
      -0.000904723711 -0.00059890782 -0.00375169935 0.190355182
      -9.39439997e-06 0.0527077839 1.96536934 -9.17779289e-06
      -4.26959559e-05 -1.12760645e-05 0.166348398 -0.00016296425
      -0.0125025818 -0.00106259796 -8.65332186e-05 -0.000725818623
      -0.000254863 -4.38868992e-05 -0.00661029341 -0.000167588529
      -0.000108053107 -0.000482223521 -0.00131625147 -0.000283525442
      0.194275573 -0.00143837405 -0.000387009379 3.7393744 0.512926102
      -0.0113665592 -0.00147330726 -3.52390089e-05 -2.13529802e-06
      -0.00818543602 1.19690907 -0.0160253476 -0.0288622808
      -0.00318224216 0.0418192893 -0.00414232584 -0.000605161767
      -0.000405458792 -0.000700621284 2.07138824 -0.0197166596
      -3.69809131e-05 -2.73174919e-05 -1.37210172e-05 -0.00411348138
      -0.00138877728 -0.000671893766 4.82665586 -0.00161582604
      -9.18793812e-05 -2.51466486e-06 -0.00111011101 -1.85940826e-05
      -0.00269152736 1.46541083 -0.00140734611 -7.60740022e-06
      -2.2554002e-07 -0.000292908429 1.37585759 -0.0100552347
      -0.000421636505 -0.00113363983 0.085446164 -6.55019539e-06
      -0.00721704029 -0.00422736909 -0.000376150303 -0.00417995127
      -0.00549630588 2.80419803 -0.0173524003 -0.00068196049
      -0.00740975887 -0.00511503313 -0.00192819326 -4.15686045e-05
      -0.00664223405 2.54056263 -9.07177821e-07 -9.10053641e-05
      -0.000917401048 4.20132303 -9.37827936e-05 -2.92500426e-05
      -0.000352124451 0.669753969 -0.00141554512 -0.0113268094
      -1.29144191e-05 -4.34427457e-05 -0.000588605821 -5.11516987e-07
      -1.97409668e-06 -0.000143957936 -4.00857534e-05 -0.00707956636
      -8.13830866e-06 -0.00548296561 -0.000547975302 -0.00788747147
      -0.0091421511 -0.00198602234 -0.0167027507 -0.0187611133
      -0.00201476249 -1.62037086e-08 -9.19190061e-05 0.0539866686
      -7.40481555e-05 -5.67810275e-05 0.363294393 0.365169525
      0.473335207 -9.24547727e-09 -0.000193204338 0.549891293
      -3.05438834e-06 -2.4441988e-08 0.335940242 0.643242776
      -0.000181634838 0.167091727 -0.00310299033 -1.08440199e-08
      0.213594019 -2.268563e-05 -0.000125528124 -2.7187491e-06
      -2.95701307e-06 -0.00020124919 0.27863571 -0.00166756264
      -0.000968767505 -1.21384767e-06 -0.00169783051 -4.20476408e-06
      -0.00282619405 0.617882907 0.420738637 0.438304424 -0.00236129109
      0.211617589 0.172948197 -2.93539233e-05 -0.000398320582
      0.246215552 0.547319531 0.450583398 -0.000183850323 0.499370933
      0.344127685 -0.00107891602 -0.00279477565 0.0836383402
      -0.00204580859 0.471837699 -0.00114879641 -1.4083399e-05
      -0.00334821362 0.293759882 -0.00381058455 -0.0029396445
      -0.000124977974 -2.79161441e-06 0.157484323 -2.12591502e-07
      -4.28805578e-07 0.189033061 -0.00167334743 -1.43549287e-05
      -1.77037673e-05 -0.000225569631 -0.000430444867 0.135565683
      -4.18356372e-08 -2.90053426e-10 -4.87123852e-09 -2.28835343e-13
      -0.000150081105 -8.19730815e-07 -2.23158381e-10 -9.32543117e-05
      0.101569548 -1.88296635e-05 -9.29413363e-05 -0.000143084006
      -3.87953114e-05 -1.54908266e-05 0.271996379 -5.97865551e-07
      -7.6484057e-06 0.227157801 -0.000286395225 0.232358292
      -7.62984637e-05 0.0163338892 -0.000899245555 0.083659783
      -5.47471863e-08 0.113134578 -1.88757372e-06 -0.000120016499
      -3.35536288e-06 -8.11959012e-07 -0.000209746853 -2.1765905e-07
      -3.49617085e-06 0.268289626 -5.14259169e-09 -6.7991579e-10
      -1.27476341e-08 -7.70562003e-10 0.138201773 0.309711337
      -2.35516545e-05 0.185179472 -8.98575236e-05 -1.18884147e-09
      -1.38791421e-07 -4.10483262e-05 -3.40877815e-09 -0.000624669599
      -0.000126045692 -1.14841657e-10 -3.02367425e-06 -0.000238545312
      -0.000296134618 -1.46707706e-07 -0.000202808791 -9.85610082e-09
      -2.89301151e-05 -0.000103173814 -6.08020355e-06</_>
    <_>
      -1.35332716 -3.13977313 -0.00549368979 -0.0140364124
      -5.32485132e-08 -0.000140563687 -0.0107945707 -0.000414661743
      -0.00149244838 -1.88854574e-06 -1.40400398e-05 -3.36418395e-07
      -7.61200063e-05 -0.000228299235 -0.000178027985 4.11274385
      0.759173036 -0.00231163297 2.49682498 -0.000137797586
      -0.000917193887 -0.000611792551 -0.00378929009 0.210798174
      -9.88005559e-06 0.226352751 2.14484477 -9.50496997e-06
      -4.40779404e-05 -1.12842972e-05 0.174063861 -0.000161610544
      -0.0116572184 -0.00107136182 -8.66637274e-05 -0.000726709142
      -0.000256692234 -4.54766741e-05 -0.00633943407 -0.000171622829
      -0.000108371241 -0.000488036254 -0.00132174569 -0.000279693981
      0.220963523 -0.00143267273 -0.000398257747 3.69520378 0.649780393
      -0.0101987459 -0.00147894095 -0.000157624963 -2.1908163e-06
      -0.00825476646 1.19914651 -0.0164263863 -0.0285563599
      -0.00319982809 0.0384229198 -0.00420342479 -0.00060402212
      -0.000372511859 -0.000702490099 2.21944571 -0.018744681
      -3.71327988e-05 -2.74328831e-05 -1.47112805e-05 -0.00414483249
      -0.0014218603 -0.000672583585 4.8146863 -0.00163000845
      -9.29578673e-05 -2.47464072e-06 -0.00112462917 -1.92851494e-05
      -0.00138329668 1.41512704 -0.0014175328 -7.70955739e-06
      -2.37618153e-07 -0.000291012664 1.47910595 -0.0100082764
      -0.000425823178 -0.000343884079 -0.000119658558 -6.66655296e-06
      -0.00716259843 -0.0042198766 -0.000375902397 -0.00416270085
      -0.00549233472 3.06617618 -0.0175062288 -0.00068192801
      -0.00694297766 -0.00515568536 -0.00196039607 -4.34559261e-05
      -0.00657899026 2.71135712 -9.24062533e-07 -9.40437676e-05
      -0.000912314572 4.12280273 -9.47076333e-05 -2.97402858e-05
      -0.000355623197 0.701886177 -0.00141196244 -0.0113675483
      -1.31554189e-05 -4.40434305e-05 -0.000603435736 -4.97762983e-07
      -1.980977e-06 -0.000147106941 -4.02425794e-05 -0.00715758465
      -8.27308395e-06 -0.0054621282 -0.000558770902 -0.0064896578
      -0.00918574166 -0.00199622079 -0.016748067 -0.0179063976
      -0.00199309038 -1.61052203e-08 0.00453202426 0.0480354466
      -7.44885401e-05 -5.39610119e-05 0.396024317 0.319929957
      0.468867421 -9.06146624e-09 -0.000191908999 0.544743776
      -3.12301904e-06 -2.37630182e-08 0.350275934 0.657744706
      -0.000183309792 0.176636487 -0.00324727199 -1.11683081e-08
      0.251130402 -2.24733176e-05 -0.000129393055 -2.7555277e-06
      -2.92651998e-06 -0.000196643392 0.296095729 -0.00196562102
      -0.000870351621 -1.19873891e-06 -0.00163941679 -4.15775639e-06
      -0.00277027301 0.636432409 0.418617159 0.425496608 -0.0023125303
      0.182933107 0.168155551 -2.95259852e-05 -0.000398340431
      0.262917936 0.566884995 0.438169986 -0.000184120232 0.485712826
      0.356920302 -0.000849914853 -0.00282295491 0.102552593
      -0.00183608558 0.450490296 -0.00116412132 -1.40316424e-05
      -0.00340028689 0.31929329 -0.00407769065 -0.00298416079
      -0.000125779276 -2.77541926e-06 0.154576331 -2.08404174e-07
      -4.22594098e-07 0.204409063 -0.00138105021 -1.43419711e-05
      -1.76832727e-05 -0.000225798518 -0.000431157503 0.133059219
      -4.17484465e-08 -2.90390711e-10 -4.86292295e-09 -2.28037993e-13
      -0.000150057749 -8.19001514e-07 -2.23023669e-10 -9.32164185e-05
      0.0995288268 -1.88155009e-05 -9.10801828e-05 -0.000143070793
      -3.87746586e-05 -1.54773243e-05 0.276160926 -5.97275061e-07
      -7.64351535e-06 0.230455816 -0.00028701729 0.236624166
      -7.5936623e-05 0.015798742 -0.00090379524 0.0830620825
      -5.46505312e-08 0.111106507 -1.89519062e-06 -0.000119997261
      -3.34936294e-06 -8.38565143e-07 -0.000209995604 -2.1686489e-07
      -3.49249513e-06 0.272720039 -5.12919529e-09 -6.79852119e-10
      -1.27823725e-08 -7.69112662e-10 0.137568861 0.307597846
      -2.35298248e-05 0.1867636 -8.98122598e-05 -1.18178711e-09
      -1.38566094e-07 -4.10250068e-05 -3.40366069e-09 -0.000627430796
      -0.000124812956 -1.14583461e-10 -3.02075819e-06 -0.000249942677
      -0.000296710379 -1.46424782e-07 -0.00020297592 -9.84011184e-09
      -2.89160689e-05 -0.000103266029 -6.07557195e-06</_>
    <_>
      -1.4350642 -2.97852778 -0.00546250865 -0.0153852869
      -5.33456728e-08 -0.00014060305 -0.0108081009 -0.000408725173
      -0.00146133266 -1.93004803e-06 -1.40024622e-05 -3.35576857e-07
      -7.68630489e-05 -0.000232638748 -0.000178999093 4.20134783
      0.743749917 -0.00233001378 2.36946225 -0.000135679089
      -0.000894722238 -0.000593961275 -0.00376472855 0.243626982
      -9.84329927e-06 0.172178626 2.1060605 -9.12430187e-06
      -4.47032326e-05 -1.1692322e-05 0.00644135103 -0.000159886607
      -0.0121530732 -0.00109084428 -8.68254501e-05 -0.000715769886
      -0.000249377423 -4.62728094e-05 -0.00627993559 -0.000172721237
      -0.000108087806 -0.000468587154 -0.00134477671 -0.000263909227
      0.209403768 -0.00147185975 -0.000405331695 3.69055247 0.615858316
      -0.0101430733 -0.00150438107 -6.78985671e-05 -2.24542919e-06
      -0.00821441598 1.21232939 -0.015967045 -0.0293557476
      -0.00317426655 -0.000505277072 -0.00414437801 -0.000615308585
      -0.00038555052 -0.000698931224 2.17387938 -0.0190187562
      -3.66524582e-05 -2.74661688e-05 -1.47948713e-05 -0.00410031527
      -0.00140736834 -0.000659325684 4.85289478 -0.00163093174
      -9.12549513e-05 -2.21099253e-06 -0.00112344266 -1.89708117e-05
      -0.00170546188 1.54742658 -0.00141189306 -7.80218852e-06
      -2.35019897e-07 -0.000283719448 1.38390815 -0.0108587863
      -0.00041511099 -0.000760285533 -0.00044698565 -6.61246941e-06
      -0.00719146524 -0.00422200095 -0.000376465992 -0.00413389597
      -0.0054161679 2.97312284 -0.0172848031 -0.000687434571
      -0.00764794461 -0.00517220981 -0.0019253738 -4.37310737e-05
      -0.00657922216 2.65341735 -9.26695463e-07 -9.29073285e-05
      -0.000903522654 4.1087079 -9.67806336e-05 -2.89159962e-05
      -0.000359224301 0.619727552 -0.00139928178 -0.0112525821
      -1.25405022e-05 -4.35197799e-05 -0.000602641841 -5.26610449e-07
      -1.96806491e-06 -0.000146665669 -4.02034057e-05 -0.00724254688
      -8.32259775e-06 -0.00546306139 -0.000569495722 -0.00645123282
      -0.00916039664 -0.00199155184 -0.0170268491 -0.0183724277
      -0.00187793479 -1.61862044e-08 0.00209346414 0.049416028
      -7.49166065e-05 -5.66676572e-05 0.378883839 0.355133563
      0.482812345 -9.13301346e-09 -0.000193644853 0.555719852
      -3.13045894e-06 -2.39498625e-08 0.351719856 0.61986059
      -0.000183866578 0.175693303 -0.00320416712 -1.10747314e-08
      0.213886201 -2.26530283e-05 -0.000129481778 -2.72461943e-06
      -2.96268308e-06 -0.000271288678 0.299686313 -0.00164846412
      -0.000804033829 -1.2076556e-06 -0.00150613161 -4.17685851e-06
      -0.00278359698 0.614653707 0.430916995 0.452744901 -0.002390248
      0.210556448 0.169345781 -3.01765504e-05 -0.00040008474 0.252513081
      0.558746874 0.452171504 -0.00018334284 0.490592718 0.347567379
      -0.0012806356 -0.00283666095 0.0693304837 -0.00211080699
      0.456766367 -0.0011503502 -1.39839849e-05 -0.00335877948
      0.283797443 -0.00388378254 -0.00294897263 -0.000126408733
      -2.80393488e-06 0.167848378 -2.10499579e-07 -4.24919335e-07
      0.193601802 -0.00159976073 -1.43496727e-05 -1.76973172e-05
      -0.00022559597 -0.000430859684 0.135265499 -4.1805432e-08
      -2.89584551e-10 -4.86809082e-09 -2.2861571e-13 -0.000150064574
      -8.19450349e-07 -2.230474e-10 -9.32397234e-05 0.10147012
      -1.88244358e-05 -8.99024453e-05 -0.000143072757 -3.8787166e-05
      -1.54862391e-05 0.272675395 -5.97637779e-07 -7.64663037e-06
      0.227597326 -0.000286516239 0.233489066 -7.63030766e-05
      0.0165171809 -0.000900644169 0.0828681067 -5.47130092e-08
      0.112948984 -1.89055902e-06 -0.000120002049 -3.35298478e-06
      -8.28406769e-07 -0.000209791207 -2.17436636e-07 -3.49495076e-06
      0.269189984 -5.13780307e-09 -6.79815038e-10 -1.27553221e-08
      -7.70026654e-10 0.139171302 0.310300827 -2.35438347e-05
      0.184610873 -8.98375874e-05 -1.18643451e-09 -1.38704038e-07
      -4.10398607e-05 -3.40705175e-09 -0.000625454413 -0.000123852617
      -1.14739884e-10 -3.02263379e-06 -0.000239426197 -0.000296310318
      -1.46606666e-07 -0.000202823561 -9.85027526e-09 -2.89246964e-05
      -0.000104358864 -6.07842958e-06</_>
    <_>
      -1.4502033 -3.19066143 -0.00530748162 -0.0130635882
      -5.15430365e-08 -0.000134147864 -0.0105510401 -0.000382418686
      -0.00141430518 -1.58718876e-06 -1.34709198e-05 -3.30781944e-07
      -7.23794437e-05 -0.000222033254 -0.000176612884 3.87779284
      0.874483049 -0.00223221676 2.44637132 -0.000132123576
      -0.0009051339 -0.000581394183 -0.00361439469 0.260641903
      -9.21922674e-06 0.334593534 2.24788165 -9.27936071e-06
      -4.29494794e-05 -1.08087488e-05 0.217172444 -0.000155233822
      -0.0112050865 -0.00106289738 -8.49460994e-05 -0.000693050853
      -0.000258757791 -4.33537862e-05 -0.00571563095 -0.000164956815
      -0.000102172613 -0.000465241872 -0.00127091154 -0.000286083785
      0.216389358 -0.00140407006 -0.000394096278 3.64207935 0.681920052
      -0.00804694649 -0.00141614955 -0.0002847125 -2.05149513e-06
      -0.00798101351 1.10268676 -0.0160242617 -0.0251103435
      -0.00310055097 0.0361394733 -0.00398113858 -0.000538039953
      -0.000393387978 -0.000653650204 2.27961802 -0.0172241665
      -3.81622158e-05 -2.64415576e-05 -1.3444137e-05 -0.0039888951
      -0.00138438086 -0.000683143793 4.84483624 -0.00157050753
      -8.8378918e-05 -2.23114125e-06 -0.00113628933 -1.92019197e-05
      -0.000598456187 1.26968718 -0.0013436079 -7.53355334e-06
      -1.99861347e-07 -0.000273883459 1.39039505 -0.0087996861
      -0.000402622856 0.0195814818 0.00839446485 -6.36974573e-06
      -0.00702523999 -0.00395044638 -0.000359096884 -0.00398346409
      -0.00547530409 3.26250148 -0.0172007456 -0.000703677943
      -0.00651679514 -0.00500508538 -0.00189066015 -3.98828743e-05
      -0.00640799152 2.82766104 -9.04856449e-07 -8.99812658e-05
      -0.000918644771 4.00816202 -9.02644242e-05 -2.94473157e-05
      -0.000342882238 0.793252289 -0.00134571618 -0.0123868203
      -1.25938241e-05 -4.25782637e-05 -0.000588947907 -5.0074209e-07
      -1.92555376e-06 -0.000145566184 -3.89247107e-05 -0.00714647258
      -8.01768419e-06 -0.00520387338 -0.000548745098 -0.00546068605
      -0.00922891218 -0.00190273265 -0.0170932822 -0.0169334617
      -0.00201908499 -1.6223634e-08 0.00315153599 0.0650961101
      -7.34011774e-05 -5.39861612e-05 0.393742472 0.344725043
      0.473886073 -9.26669852e-09 -0.000191785395 0.54406172
      -3.01761133e-06 -2.46249119e-08 0.33326298 0.665736318
      -0.000180899093 0.155568734 -0.00287258183 -1.09276979e-08
      0.227372721 -2.26527445e-05 -0.000125504943 -2.72690022e-06
      -2.93900825e-06 -0.000137409646 0.27709803 -0.00180079427
      -0.000987247331 -1.21373046e-06 -0.00181369565 -4.20917013e-06
      -0.00276982412 0.616679966 0.414238274 0.428815812 -0.00228356104
      0.196598709 0.16033794 -2.87068087e-05 -0.00039383152 0.260150969
      0.558122754 0.46031785 -0.000185135243 0.496737808 0.355159491
      -0.00102405134 -0.00270169694 0.0984178782 -0.00188777805
      0.483142912 -0.00116564461 -1.42227354e-05 -0.00334827346
      0.304232299 -0.00391082512 -0.00293992623 -0.00012423005
      -2.77596223e-06 0.15544951 -2.10793871e-07 -4.30167233e-07
      0.196286753 -0.00168743276 -1.43498764e-05 -1.76934318e-05
      -0.000225742682 -0.000430564076 0.133684948 -4.17951469e-08
      -2.90948321e-10 -4.86771201e-09 -2.28393801e-13 -0.000150080887
      -8.19427214e-07 -2.23176866e-10 -9.32385592e-05 0.099856168
      -1.88234881e-05 -9.50841568e-05 -0.000143086261 -3.87869695e-05
      -1.5484442e-05 0.274893463 -5.97620556e-07 -7.64623655e-06
      0.229575634 -0.000286803144 0.234778985 -7.59668183e-05
      0.0156216472 -0.000901582243 0.0841161981 -5.47031718e-08
      0.11154063 -1.89067293e-06 -0.000120017357 -3.35295408e-06
      -8.15183114e-07 -0.000209915073 -2.17223786e-07 -3.49439665e-06
      0.271148086 -5.13655651e-09 -6.79985956e-10 -1.27692532e-08
      -7.69930897e-10 0.136412799 0.307065725 -2.35418429e-05
      0.187320605 -8.98418366e-05 -1.18551891e-09 -1.38698525e-07
      -4.10379871e-05 -3.40634321e-09 -0.000626168621 -0.000127691295
      -1.14737268e-10 -3.02235821e-06 -0.000247702264 -0.000296431943
      -1.46580135e-07 -0.000202940748 -9.84903625e-09 -2.89242871e-05
      -0.000101766549 -6.07826496e-06</_>
    <_>
      -1.31379759 -3.18479204 -0.00543609448 -0.0151823899
      -5.2293899e-08 -0.000138619405 -0.0107430965 -0.000406287872
      -0.0014549857 -1.81674477e-06 -1.38436108e-05 -3.33456427e-07
      -7.54543362e-05 -0.000226363074 -0.000176832298 4.19528532
      0.655049145 -0.00229337113 2.45897985 -0.000136012517
      -0.000900168612 -0.000595668796 -0.00375406165 0.223397017
      -9.47333137e-06 0.0946441442 2.02230453 -9.13238637e-06
      -4.3494947e-05 -1.13793858e-05 0.177796066 -0.000161177115
      -0.011962424 -0.00106448866 -8.62570378e-05 -0.00072081323
      -0.000252039608 -4.43134741e-05 -0.00636237441 -0.000168402999
      -0.000108101907 -0.000476301269 -0.00132069865 -0.000278414693
      0.194410875 -0.00145224505 -0.000393080554 3.69466639 0.517088056
      -0.0107736969 -0.00147408794 -3.03201177e-05 -2.17315846e-06
      -0.00817636866 1.25020158 -0.0159963407 -0.0283811856
      -0.00317069842 0.0419336036 -0.00412972039 -0.000607771624
      -0.000405616913 -0.000700953649 2.11868501 -0.0193300806
      -3.66793502e-05 -2.73852875e-05 -1.38752994e-05 -0.00408746628
      -0.00138613384 -0.00066931214 4.86760712 -0.00160712819
      -9.15124401e-05 -2.42689339e-06 -0.00111979945 -1.85556073e-05
      -0.002304747 1.4862144 -0.00140619453 -7.64899778e-06
      -2.26150831e-07 -0.000291046599 1.39394307 -0.0106875049
      -0.00041896943 -0.00107336603 0.0546184927 -6.56771181e-06
      -0.00719237421 -0.00418808404 -0.000375327916 -0.00415572291
      -0.00544419745 2.86942649 -0.0173346549 -0.000680058089
      -0.00784259196 -0.00512565672 -0.0019189876 -4.19440148e-05
      -0.00673915865 2.58454561 -9.10803237e-07 -9.13473486e-05
      -0.000905763358 4.19377995 -9.43825726e-05 -2.89545151e-05
      -0.000352678035 0.688485086 -0.001408273 -0.0116221542
      -1.29228201e-05 -4.36073315e-05 -0.000585174887 -5.19875243e-07
      -1.98193902e-06 -0.000143803525 -4.00672579e-05 -0.00706039462
      -8.16562169e-06 -0.00548481941 -0.000552132085 -0.00734369736
      -0.00913883839 -0.00197786791 -0.0165361464 -0.0186663009
      -0.00197662832 -1.61059326e-08 0.0140268803 0.0573196821
      -7.48378152e-05 -5.47036798e-05 0.397532374 0.332767487
      0.481171608 -9.05396025e-09 -0.000192074251 0.545258284
      -3.14611998e-06 -2.37202542e-08 0.35742712 0.640969098
      -0.000183806231 0.174936324 -0.00312024704 -1.1200588e-08
      0.241107821 -2.25250878e-05 -0.000130988497 -2.7458052e-06
      -2.9367302e-06 -0.000198201451 0.301258087 -0.00181396806
      -0.000794765947 -1.1994091e-06 -0.00150428177 -4.1557837e-06
      -0.00275322818 0.627157271 0.424422115 0.437215209 -0.0023212661
      0.190652639 0.161847576 -2.99221883e-05 -0.000398580771
      0.262425512 0.568792343 0.451092005 -0.000184923498 0.481589049
      0.360352218 -0.00119376206 -0.00280053867 0.08004646
      -0.00195080787 0.460271478 -0.00115960161 -1.40136954e-05
      -0.00338315312 0.293778658 -0.00398308737 -0.00295933057
      -0.00012658484 -2.78447783e-06 0.172038168 -2.08634191e-07
      -4.22397335e-07 0.200116217 -0.00156298117 -1.43527204e-05
      -1.76995309e-05 -0.000225635245 -0.000430516026 0.134852484
      -4.18187156e-08 -2.90353241e-10 -4.86973217e-09 -2.2865794e-13
      -0.000150079955 -8.19600359e-07 -2.2315795e-10 -9.3247545e-05
      0.100930527 -1.88270424e-05 -9.35430071e-05 -0.000143084108
      -3.87917025e-05 -1.54881691e-05 0.273109674 -5.97760277e-07
      -7.64748893e-06 0.228078902 -0.000286553783 0.233323589
      -7.61761839e-05 0.0160820484 -0.000900199404 0.0837792307
      -5.47287051e-08 0.112534545 -1.88891408e-06 -0.00012001588
      -3.35431787e-06 -8.14241332e-07 -0.000209811871 -2.17483844e-07
      -3.4954362e-06 0.269402385 -5.14005105e-09 -6.79934664e-10
      -1.27561073e-08 -7.70294051e-10 0.137601614 0.30877164
      -2.35475218e-05 0.185935408 -8.98504295e-05 -1.18745769e-09
      -1.38751417e-07 -4.1043957e-05 -3.40776629e-09 -0.000625274086
      -0.000126516796 -1.14796492e-10 -3.02312037e-06 -0.000241985166
      -0.000296255865 -1.46654003e-07 -0.000202858486 -9.85311299e-09
      -2.89276104e-05 -0.000102728904 -6.07937227e-06</_>
    <_>
      -1.3609544 -3.23149347 -0.00522906892 -0.0130063407
      -5.08762241e-08 -0.00013428634 -0.0103719076 -0.000388798187
      -0.00144016067 -1.68186978e-06 -1.35046557e-05 -3.27265809e-07
      -7.15833594e-05 -0.000220344707 -0.000171734355 3.83411193
      0.828053772 -0.00220497581 2.6078794 -0.000132424742
      -0.000901516876 -0.000580664782 -0.00358311995 0.235081941
      -9.3367662e-06 0.331314981 2.19932532 -9.49438436e-06
      -4.23790334e-05 -1.06589459e-05 0.310631961 -0.000153208617
      -0.0108050331 -0.00103312836 -8.37344269e-05 -0.000695933297
      -0.000256283878 -4.29238607e-05 -0.00579429138 -0.000162251454
      -0.000101752899 -0.000471558567 -0.00124282402 -0.000286518654
      0.218754336 -0.00137752888 -0.000382368104 3.78982377 0.688676119
      -0.00818203762 -0.00138584059 -0.000264890346 -2.09281052e-06
      -0.00789728295 1.10320675 -0.015960861 -0.0255620386
      -0.00305251568 0.0975229144 -0.00399021944 -0.000558819971
      -0.000356819422 -0.000652519404 2.23150897 -0.0173815526
      -3.81783866e-05 -2.59875287e-05 -1.38554833e-05 -0.00395876914
      -0.00137501908 -0.000686580723 4.72894573 -0.00156572508
      -8.79397994e-05 -2.23423808e-06 -0.00112866971 -1.94235708e-05
      -0.000740294869 1.24343073 -0.00133535953 -7.43804185e-06
      -2.16450317e-07 -0.000273071753 1.45655346 -0.00899391528
      -0.000401799916 0.0392123275 0.0261282027 -6.3284906e-06
      -0.00694563007 -0.0039712349 -0.000353635696 -0.00395008456
      -0.0054592262 3.19272327 -0.0169559121 -0.000681929349
      -0.0062734019 -0.00492153363 -0.00187495141 -4.0788811e-05
      -0.00630955165 2.76431489 -9.13533484e-07 -9.11704337e-05
      -0.000917884463 4.05513811 -8.8777364e-05 -2.95341979e-05
      -0.000336386292 0.831624448 -0.00132806576 -0.0118077612
      -1.27349685e-05 -4.20894939e-05 -0.000569348224 -4.63065192e-07
      -1.89209879e-06 -0.000142591365 -3.82078724e-05 -0.00700134551
      -7.91128423e-06 -0.00516507123 -0.000535983825 -0.00569365313
      -0.00912643783 -0.00185836444 -0.0168782678 -0.0169902872
      -0.00198663631 -1.61585412e-08 -7.76991237e-06 0.0512536317
      -7.3975636e-05 -5.30503858e-05 0.381363064 0.314979136 0.452778637
      -9.15617893e-09 -0.000192125925 0.542484403 -3.08611357e-06
      -2.41068232e-08 0.348366857 0.652501523 -0.000182084172
      0.166742504 -0.00313312979 -1.10494964e-08 0.251225293
      -2.25861222e-05 -0.000128765823 -2.7238525e-06 -2.94003348e-06
      -0.000229765399 0.285088897 -0.00210781209 -0.000942629704
      -1.20496316e-06 -0.00177425798 -4.18470154e-06 -0.00274066138
      0.62348938 0.4074063 0.41888687 -0.00227588019 0.186401993
      0.160447359 -2.92032291e-05 -0.000397323311 0.260977864
      0.555389881 0.443680644 -0.000185063909 0.483467996 0.355699807
      -0.000686062267 -0.00274885935 0.110857099 -0.0017501273
      0.454951942 -0.00116531306 -1.4128881e-05 -0.00337614492
      0.325892478 -0.00415542675 -0.00295887515 -0.000124670783
      -2.78371726e-06 0.150476843 -2.07814239e-07 -4.2609426e-07
      0.198773488 -0.00136815186 -1.43410343e-05 -1.76792146e-05
      -0.000225907032 -0.000431034918 0.131885737 -4.17350101e-08
      -2.9125255e-10 -4.86200902e-09 -2.27836901e-13 -0.000150065796
      -8.1892756e-07 -2.23091892e-10 -9.32125913e-05 0.0983737931
      -1.88137583e-05 -9.40901009e-05 -0.000143077952 -3.87728433e-05
      -1.5475116e-05 0.277860343 -5.97216058e-07 -7.64287233e-06
      0.231937081 -0.000287243747 0.237765446 -7.57014204e-05
      0.0152076986 -0.000904742454 0.0837743133 -5.46365868e-08
      0.110077828 -1.895884e-06 -0.000120005039 -3.34885249e-06
      -8.32636147e-07 -0.000210091748 -2.1666952e-07 -3.49185461e-06
      0.274282902 -5.12733367e-09 -6.79951928e-10 -1.27937572e-08
      -7.68935193e-10 0.135831714 0.305446088 -2.3526818e-05 0.18854925
      -8.98111321e-05 -1.18064836e-09 -1.38544252e-07 -4.10219473e-05
      -3.40280781e-09 -0.000628094363 -0.000127055086 -1.14560694e-10
      -3.02035073e-06 -0.000255939958 -0.000296831975 -1.46385347e-07
      -0.00020306131 -9.83804149e-09 -2.89146647e-05 -0.000101690326
      -6.07509082e-06</_>
    <_>
      -1.31546021 -3.2070055 -0.00545044942 -0.0153956339
      -5.23186188e-08 -0.000140791482 -0.0108082937 -0.000403434649
      -0.001462418 -1.87133037e-06 -1.40293205e-05 -3.3684384e-07
      -7.66087251e-05 -0.000228773672 -0.000177715745 4.19606161
      0.734222233 -0.0023021067 2.47236657 -0.000138177289
      -0.000910711184 -0.000598891813 -0.00375170633 0.236839265
      -9.83380232e-06 0.170878753 2.111588 -9.23780499e-06
      -4.46896811e-05 -1.14442428e-05 0.159309104 -0.000160950731
      -0.0118237035 -0.00107946701 -8.70638542e-05 -0.000719078525
      -0.000257504638 -4.54120709e-05 -0.00664660567 -0.000170696352
      -0.00010851329 -0.000482030649 -0.00133052166 -0.000279825967
      0.204665571 -0.00144916854 -0.000399133132 3.70440054 0.553019047
      -0.0104090497 -0.00148547674 -2.21350874e-05 -2.20328479e-06
      -0.00818984117 1.26531196 -0.0161504261 -0.0285146423
      -0.00318138138 0.0247204937 -0.00412803097 -0.000609343755
      -0.00039305145 -0.000699897762 2.19196153 -0.0189919379
      -3.74918127e-05 -2.74585982e-05 -1.44235391e-05 -0.0041135205
      -0.00140384375 -0.000677046599 4.8719635 -0.00162253482
      -9.1758804e-05 -2.37646054e-06 -0.00113284402 -1.94359036e-05
      -0.00170896412 1.46411419 -0.0014058305 -7.82905681e-06
      -2.33840467e-07 -0.000287627685 1.42465603 -0.011014197
      -0.000417874544 -0.000821035472 0.0756277591 -6.56625571e-06
      -0.00724225398 -0.00423590513 -0.000375993666 -0.00415077992
      -0.00550446613 3.01358056 -0.0175012723 -0.000690160959
      -0.00787448511 -0.00514783803 -0.00193661661 -4.32092129e-05
      -0.00669953693 2.67258906 -9.37136974e-07 -9.23589105e-05
      -0.000918872014 4.19499254 -9.63666535e-05 -2.96286144e-05
      -0.000355209486 0.693250716 -0.00140989758 -0.011656303
      -1.3010248e-05 -4.36245391e-05 -0.00059628248 -5.30022078e-07
      -1.99387841e-06 -0.000146468214 -4.00722893e-05 -0.00714059034
      -8.21742105e-06 -0.00547646405 -0.00056464877 -0.00678982027
      -0.00926778093 -0.00199124985 -0.016988907 -0.0184269585
      -0.00200118287 -1.62817848e-08 -5.91246753e-05 0.0564156696
      -7.37840455e-05 -5.5625922e-05 0.380327731 0.360869884 0.481408894
      -9.30087385e-09 -0.000192930733 0.546097517 -3.0318281e-06
      -2.46222811e-08 0.329177409 0.65093261 -0.000180623232 0.158532321
      -0.00301331421 -1.08333849e-08 0.211726338 -2.27220389e-05
      -0.000125597158 -2.724762e-06 -2.96494909e-06 -0.000169030347
      0.26991266 -0.00169414666 -0.000998738687 -1.21842982e-06
      -0.00173218781 -4.21834875e-06 -0.00275747641 0.611836255
      0.422312766 0.436457902 -0.00231707422 0.203643858 0.167139024
      -2.92101431e-05 -0.000395476207 0.254174262 0.550890982
      0.455548465 -0.000183040553 0.501704574 0.351916283 -0.0011600455
      -0.00274173869 0.0850926265 -0.00195773039 0.470039368
      -0.00115168386 -1.41419296e-05 -0.00333611481 0.290565819
      -0.00383911724 -0.00292629236 -0.000124517857 -2.79529831e-06
      0.151902899 -2.12596532e-07 -4.30813799e-07 0.196228817
      -0.00171967223 -1.43549287e-05 -1.77037673e-05 -0.000225569631
      -0.000430444867 0.135565683 -4.18356372e-08 -2.90053426e-10
      -4.87123852e-09 -2.28835343e-13 -0.000150081105 -8.19730815e-07
      -2.23158381e-10 -9.32543117e-05 0.101569548 -1.88296635e-05
      -9.29413363e-05 -0.000143084006 -3.87953114e-05 -1.54908266e-05
      0.271996379 -5.97865551e-07 -7.6484057e-06 0.227157801
      -0.000286395225 0.232358292 -7.62984637e-05 0.0163338892
      -0.000899245555 0.083659783 -5.47471863e-08 0.113134578
      -1.88757372e-06 -0.000120016499 -3.35536288e-06 -8.11959012e-07
      -0.000209746853 -2.1765905e-07 -3.49617085e-06 0.268289626
      -5.14259169e-09 -6.7991579e-10 -1.27476341e-08 -7.70562003e-10
      0.138201773 0.309711337 -2.35516545e-05 0.185179472
      -8.98575236e-05 -1.18884147e-09 -1.38791421e-07 -4.10483262e-05
      -3.40877815e-09 -0.000624669599 -0.000126045692 -1.14841657e-10
      -3.02367425e-06 -0.000238545312 -0.000296134618 -1.46707706e-07
      -0.000202808791 -9.85610082e-09 -2.89301151e-05 -0.000103173814
      -6.08020355e-06</_>
    <_>
      -1.33277404 -3.32526827 -0.00529057253 -0.0127269169
      -5.14978069e-08 -0.000136675677 -0.0104553122 -0.000394706003
      -0.00145309605 -1.74245235e-06 -1.37962734e-05 -3.31603644e-07
      -7.30300017e-05 -0.000223296054 -0.000172143773 3.85588336
      0.794559956 -0.00223673298 2.60313821 -0.000133923997
      -0.000904965505 -0.000590627897 -0.00364478398 0.217773825
      -9.3945273e-06 0.28774038 2.15937519 -9.49452169e-06
      -4.33300302e-05 -1.09741932e-05 0.298065096 -0.000155347734
      -0.0114791486 -0.00103657821 -8.47559786e-05 -0.000707622676
      -0.000256733474 -4.37487797e-05 -0.00569333415 -0.000164379293
      -0.000104320701 -0.000476047862 -0.00125870062 -0.000288000447
      0.233069986 -0.00140129484 -0.000383583421 3.81794882 0.657473207
      -0.00825348776 -0.00140752911 -0.000337971142 -2.11058182e-06
      -0.00796585437 1.12413883 -0.0162005424 -0.0258129872
      -0.00308293733 0.0867863372 -0.00404972257 -0.000578413776
      -0.000347035617 -0.000666247215 2.21483111 -0.0178191904
      -3.80850288e-05 -2.64251303e-05 -1.43143716e-05 -0.00401243242
      -0.00138693908 -0.000688536617 4.780972 -0.00159020082
      -8.98451617e-05 -2.25092867e-06 -0.00112699263 -1.94907443e-05
      -0.00103376794 1.24896979 -0.00136343658 -7.51702464e-06
      -2.24097192e-07 -0.000277715095 1.4706893 -0.00886533875
      -0.000410479377 0.0172389895 -0.000253155828 -6.40208509e-06
      -0.00697536441 -0.00404356699 -0.000358930294 -0.00403017085
      -0.00551759358 3.13079619 -0.0170204733 -0.000683968654
      -0.00619268324 -0.00499246921 -0.00190031878 -4.14716596e-05
      -0.00633668294 2.74365687 -9.15258397e-07 -9.09946393e-05
      -0.000925462809 4.09556818 -9.01992098e-05 -2.97527786e-05
      -0.000337947626 0.909506917 -0.00135257281 -0.0115749333
      -1.28579168e-05 -4.28962048e-05 -0.000573882251 -4.70812353e-07
      -1.91012487e-06 -0.000144639926 -3.8819082e-05 -0.00700184703
      -8.01418719e-06 -0.00525176153 -0.000539858651 -0.00609837798
      -0.00913155079 -0.00189933239 -0.0169046056 -0.0173533969
      -0.0019722383 -1.62059948e-08 0.00540715456 0.0491337851
      -7.44038771e-05 -5.30562829e-05 0.391590297 0.317823827
      0.457573295 -9.12726783e-09 -0.000190688705 0.544245601
      -3.12910515e-06 -2.39311149e-08 0.343021333 0.657036185
      -0.000182833028 0.16950649 -0.00328734959 -1.11940377e-08
      0.256733835 -2.2573573e-05 -0.000129387467 -2.75705179e-06
      -2.93583776e-06 -0.000173036082 0.282538503 -0.00206859387
      -0.000868365576 -1.20488482e-06 -0.00163943402 -4.17902947e-06
      -0.0027326697 0.632358849 0.412013859 0.409541398 -0.00226517487
      0.180327863 0.166198358 -2.9352912e-05 -0.00039560115 0.263403237
      0.561643183 0.435137212 -0.000184388657 0.485434473 0.351987004
      -0.00075891224 -0.00280605466 0.1088707 -0.00170016231 0.446884155
      -0.00115454989 -1.40798784e-05 -0.00338085159 0.318646848
      -0.0041023558 -0.00296225073 -0.000124820537 -2.79265169e-06
      0.156129152 -2.07749025e-07 -4.25154667e-07 0.20351027
      -0.00133884384 -1.43465932e-05 -1.76885969e-05 -0.000225787793
      -0.000430769287 0.133190125 -4.17740509e-08 -2.90916319e-10
      -4.86565011e-09 -2.28211737e-13 -0.000150073611 -8.19245315e-07
      -2.23131763e-10 -9.32291005e-05 0.0994804949 -1.88199992e-05
      -9.41837934e-05 -0.000143081779 -3.87817781e-05 -1.54811914e-05
      0.27575171 -5.97473161e-07 -7.64503693e-06 0.23023662
      -0.000286935392 0.235739991 -7.59042232e-05 0.0155623499
      -0.000902648317 0.0838623866 -5.46796528e-08 0.111151293
      -1.89258515e-06 -0.000120011209 -3.35144387e-06 -8.23055132e-07
      -0.000209967155 -2.17041901e-07 -3.4935174e-06 0.272094518
      -5.13328757e-09 -6.79954593e-10 -1.27767974e-08 -7.69573738e-10
      0.136485651 0.30680874 -2.35365133e-05 0.187491089 -8.98300714e-05
      -1.18381926e-09 -1.38642207e-07 -4.10322682e-05 -3.40511397e-09
      -0.000626803027 -0.000127061023 -1.14672417e-10 -3.02164699e-06
      -0.000249866833 -0.000296566664 -1.46511084e-07 -0.000202972835
      -9.84511317e-09 -2.89207801e-05 -0.000102008038 -6.07711172e-06</_>
    <_>
      -1.38232458 -3.28128958 -0.00537745235 -0.0130556487
      -5.29783009e-08 -0.000143613855 -0.0106230294 -0.000409618748
      -0.00150341482 -1.78426296e-06 -1.40646689e-05 -3.35525499e-07
      -7.5111202e-05 -0.000236078267 -0.000175248715 3.97811055
      0.700686753 -0.00229513901 2.74888539 -0.000137319934
      -0.000935737044 -0.000606005313 -0.00374066643 0.189265609
      -9.33280717e-06 0.151607782 2.0707922 -9.59816862e-06
      -4.3436703e-05 -1.13953784e-05 0.329384923 -0.000161121017
      -0.0126651162 -0.00104729959 -8.76012418e-05 -0.000734146743
      -0.000259159977 -4.465655e-05 -0.00626263209 -0.000168981787
      -0.00010909469 -0.000498254376 -0.0012840631 -0.000292564044
      0.237152725 -0.00144936016 -0.00037733803 4.03429985 0.642012596
      -0.00940706674 -0.00145157741 -0.000392293296 -2.22400445e-06
      -0.00817004498 1.086357 -0.016700767 -0.0273664128 -0.00313491956
      0.0447779894 -0.00412736088 -0.000595939287 -0.000371188624
      -0.000691365043 2.15238643 -0.0192158669 -3.78409532e-05
      -2.75307011e-05 -1.42182871e-05 -0.00409923075 -0.00140689383
      -0.000702364661 4.91156292 -0.0016109792 -9.29996168e-05
      -2.52569203e-06 -0.00114382245 -1.93943997e-05 -0.00223618792
      1.31492352 -0.00140273047 -7.65974983e-06 -2.26926701e-07
      -0.000289673684 1.43170071 -0.00858733617 -0.00043203868
      -0.000309023628 -0.000180040894 -6.49835238e-06 -0.00715726474
      -0.00415718136 -0.000371300004 -0.00419638818 -0.00570605602
      2.98107719 -0.0172442757 -0.000689524226 -0.00622451771
      -0.00512161711 -0.00193732954 -4.21762925e-05 -0.00654040789
      2.6750319 -9.49982564e-07 -9.25281711e-05 -0.000952060218
      4.22895575 -9.24131382e-05 -3.02472199e-05 -0.000342662359
      0.888082147 -0.00141216465 -0.0115016168 -1.31471897e-05
      -4.44103389e-05 -0.000586559472 -4.83640918e-07 -1.93065648e-06
      -0.000148263091 -3.98847587e-05 -0.00709645916 -8.04991669e-06
      -0.00539045082 -0.00054753077 -0.00744380383 -0.00930956751
      -0.00199761288 -0.0169466529 -0.0184587445 -0.00209231884
      -1.62044014e-08 0.00703497231 0.0521544628 -7.49030005e-05
      -5.56478735e-05 0.386116564 0.349635363 0.482799947
      -9.14323284e-09 -0.000193201209 0.554727554 -3.13201008e-06
      -2.39337119e-08 0.345192194 0.632336259 -0.000184024015
      0.170329049 -0.00319131417 -1.10612008e-08 0.217293978
      -2.26719585e-05 -0.000129958702 -2.72814373e-06 -2.9670091e-06
      -0.000249000121 0.287868023 -0.00171948876 -0.000844585127
      -1.20842503e-06 -0.00149744446 -4.18038553e-06 -0.00273594912
      0.617520571 0.429237038 0.441669315 -0.002338483 0.201849669
      0.1678866 -3.01799482e-05 -0.000398239703 0.252484441 0.556963205
      0.4514516 -0.000182699951 0.493758798 0.348964453 -0.00128374272
      -0.00282267202 0.0739498585 -0.00203368533 0.451033413
      -0.00115055963 -1.39893191e-05 -0.00336131267 0.282089859
      -0.00395372044 -0.00294598332 -0.000126325001 -2.80859877e-06
      0.164101139 -2.09471395e-07 -4.2532065e-07 0.197731316
      -0.00162634277 -1.43571006e-05 -1.7706805e-05 -0.000225545504
      -0.00043029862 0.135834113 -4.18491481e-08 -2.90126673e-10
      -4.87258633e-09 -2.28946744e-13 -0.000150086547 -8.19849845e-07
      -2.23192978e-10 -9.32605108e-05 0.101755999 -1.88319282e-05
      -9.37584919e-05 -0.000143087498 -3.87987311e-05 -1.54929003e-05
      0.271513045 -5.97962128e-07 -7.6491815e-06 0.226796567
      -0.000286319089 0.231767014 -7.63264907e-05 0.0163363609
      -0.000898577971 0.083882466 -5.47623209e-08 0.113339402
      -1.88632112e-06 -0.000120021155 -3.35635673e-06 -8.06321623e-07
      -0.000209717255 -2.17770904e-07 -3.49672951e-06 0.267735988
      -5.14470111e-09 -6.7994177e-10 -1.27431585e-08 -7.70793762e-10
      0.138039887 0.309753478 -2.3555096e-05 0.185177863 -8.98654544e-05
      -1.18992738e-09 -1.38828341e-07 -4.10520261e-05 -3.4095613e-09
      -0.000624278036 -0.000126626808 -1.14884338e-10 -3.02413287e-06
      -0.000237438158 -0.00029605045 -1.467522e-07 -0.000202792129
      -9.85864279e-09 -2.89324107e-05 -0.000102907768 -6.08095752e-06</_>
    <_>
      -1.36868167 -3.42452788 -0.00528291333 -0.0138553735
      -5.08430524e-08 -0.000138900577 -0.0104390737 -0.000394751725
      -0.00142061198 -1.60363254e-06 -1.34122138e-05 -3.23508033e-07
      -7.34050118e-05 -0.00022932078 -0.000172762753 3.98808384
      0.814715803 -0.00225311145 2.42917466 -0.00013435485
      -0.000898212777 -0.000581695989 -0.0036515384 0.223818958
      -8.65317998e-06 0.242356688 2.13508964 -9.37005825e-06
      -4.27268351e-05 -1.08974264e-05 0.260230035 -0.000158706971
      -0.0120022912 -0.00104047055 -8.60499858e-05 -0.000713379879
      -0.000251285528 -4.28656567e-05 -0.00555813499 -0.000163462566
      -0.000107198306 -0.000477987516 -0.00127431122 -0.000291135366
      0.226089552 -0.00141004496 -0.000369781483 3.61538434 0.549655795
      -0.00918906741 -0.001425836 -0.000299611274 -2.16381181e-06
      -0.00793619175 1.18687654 -0.0160790533 -0.0263211392
      -0.00307612447 0.113097467 -0.00400481792 -0.00058441679
      -0.000396885385 -0.00067046535 2.20719337 -0.0173675232
      -3.71036258e-05 -2.711255e-05 -1.32864125e-05 -0.00399753451
      -0.00136761647 -0.000680326775 4.84493732 -0.0015530237
      -8.96535421e-05 -2.43689055e-06 -0.00112815411 -1.84643213e-05
      -0.000864686794 1.34587884 -0.00136764743 -7.40469432e-06
      -2.00752766e-07 -0.000283034315 1.27331281 -0.00924421288
      -0.000409843953 -0.000382828992 0.0809558183 -6.32363299e-06
      -0.00696425606 -0.00405948237 -0.000364711508 -0.00410818495
      -0.00544193666 3.0808599 -0.0169813838 -0.00066355773
      -0.00696689542 -0.00498316204 -0.00188751309 -3.93339833e-05
      -0.0066848537 2.73304987 -8.97060147e-07 -8.8989982e-05
      -0.000922024541 4.06879473 -8.94920959e-05 -2.92461118e-05
      -0.000336676283 0.955735326 -0.00138771778 -0.0115937088
      -1.26352707e-05 -4.3562497e-05 -0.000565160008 -5.22512835e-07
      -1.90500896e-06 -0.000144755337 -3.94167328e-05 -0.00691542355
      -7.96907716e-06 -0.00528420787 -0.000534559309 -0.0062148599
      -0.00899374299 -0.0019685193 -0.0163331926 -0.0174029823
      -0.00212033396 -1.6281021e-08 0.00791698694 0.057685595
      -7.40720425e-05 -5.3391399e-05 0.410994828 0.329968452 0.469744444
      -9.20274967e-09 -0.000190411287 0.533697367 -3.08754329e-06
      -2.42328486e-08 0.346428275 0.663408875 -0.000182547563
      0.167761087 -0.00316947792 -1.11032818e-08 0.241018057
      -2.26147513e-05 -0.000127891602 -2.7377946e-06 -2.94800907e-06
      -0.000108870787 0.282617331 -0.00176644651 -0.000892405922
      -1.21119899e-06 -0.00165145868 -4.19528897e-06 -0.00279491302
      0.625229001 0.42286393 0.418976218 -0.00226256298 0.189328581
      0.166232884 -2.93149005e-05 -0.000392246904 0.27065751 0.566592574
      0.430610836 -0.000183451673 0.488921046 0.361113012 -0.00109598495
      -0.00279552839 0.0965444297 -0.00184624037 0.456213415
      -0.00115576899 -1.41101282e-05 -0.00335739669 0.30335924
      -0.00394886779 -0.00294203637 -0.000124557308 -2.79410438e-06
      0.155100793 -2.09637648e-07 -4.27756305e-07 0.208816588
      -0.00158345082 -1.43585185e-05 -1.77054317e-05 -0.000225649623
      -0.000429976208 0.134716243 -4.18486792e-08 -2.91266289e-10
      -4.87305885e-09 -2.28832551e-13 -0.000150102816 -8.19899924e-07
      -2.2331717e-10 -9.32631374e-05 0.10056489 -1.88324721e-05
      -9.83878563e-05 -0.000143100362 -3.88005428e-05 -1.54926511e-05
      0.273019612 -5.98003965e-07 -7.64931156e-06 0.22818014
      -0.000286505965 0.232466698 -7.60722178e-05 0.0156183541
      -0.000898947415 0.0850116834 -5.4763138e-08 0.112323642
      -1.88568754e-06 -0.000120036158 -3.35690606e-06 -7.9240067e-07
      -0.000209799837 -2.1766418e-07 -3.49660604e-06 0.268993855
      -5.14491516e-09 -6.80094814e-10 -1.27517996e-08 -7.70850606e-10
      0.135730952 0.30717665 -2.35554835e-05 0.1873537 -8.98734434e-05
      -1.18981747e-09 -1.38845223e-07 -4.10526554e-05 -3.40944384e-09
      -0.000624626759 -0.000130042157 -1.14906862e-10 -3.02417607e-06
      -0.00024345587 -0.000296099752 -1.46756548e-07 -0.000202876807
      -9.85911086e-09 -2.89334075e-05 -0.000100671612 -6.08126084e-06</_>
    <_>
      -1.4259218 -3.48251677 -0.00518475985 -0.0112550398
      -5.07936768e-08 -0.000129526103 -0.0102700349 -0.000374246592
      -0.00139410794 -1.46481705e-06 -1.31453353e-05 -3.18537559e-07
      -7.0389644e-05 -0.000217890964 -0.000172072614 3.70293331
      0.955906212 -0.00219046394 2.50238347 -0.000129973574
      -0.000885442772 -0.000566035393 -0.00354750687 0.292341024
      -8.59797819e-06 0.442751974 2.30443573 -9.45529609e-06
      -4.2183714e-05 -1.03347929e-05 0.347813457 -0.00015248415
      -0.0104656098 -0.00103268865 -8.28138291e-05 -0.000686674786
      -0.000254962739 -4.15651302e-05 -0.00490877219 -0.000157781295
      -0.000101199817 -0.000458784954 -0.00122244156 -0.000290458294
      0.252070427 -0.00137021288 -0.000375410949 3.54682779 0.724897385
      -0.00668124016 -0.0013572271 -0.000454301946 -1.98491034e-06
      -0.00782062486 1.10675657 -0.0159275699 -0.0232084598
      -0.00301891356 0.156480312 -0.00391678326 -0.000531893864
      -0.00036085528 -0.000633688178 2.33683515 -0.0157723501
      -3.80179517e-05 -2.57806987e-05 -1.3016821e-05 -0.00389541755
      -0.00135971664 -0.000689965615 4.83933687 -0.00151929865
      -8.68131538e-05 -2.10606117e-06 -0.00113585067 -1.89059265e-05
      0.024611894 1.11549735 -0.001319053 -7.24784968e-06
      -1.86735377e-07 -0.000269891199 1.30491042 -0.00753012998
      -0.000386917905 0.0966338515 0.0439674705 -6.21611753e-06
      -0.00686672563 -0.00384595199 -0.000348380272 -0.00391327916
      -0.00536088087 3.35187674 -0.0168157462 -0.000674309791
      -0.0059419116 -0.00489454251 -0.00185319374 -3.77507931e-05
      -0.00641351938 2.90005231 -8.71962357e-07 -8.77699495e-05
      -0.000914625649 3.92282772 -8.49020944e-05 -2.91329125e-05
      -0.000327583606 1.07865846 -0.00131062593 -0.0125379656
      -1.22876627e-05 -4.16222065e-05 -0.000548547192 -4.82453174e-07
      -1.8516248e-06 -0.000143023746 -3.81850805e-05 -0.00699938228
      -7.86408327e-06 -0.00511801243 -0.000524933741 -0.00455522351
      -0.00906086713 -0.00184957718 -0.0167741906 -0.0161745045
      -0.00200054841 -1.62952531e-08 -8.87602528e-06 0.0581853352
      -7.3815514e-05 -5.38941567e-05 0.410745353 0.362615168 0.483698428
      -9.25282695e-09 -0.000192195177 0.535787702 -3.0444337e-06
      -2.44585134e-08 0.339890659 0.671260655 -0.00018218375 0.169385925
      -0.00306198769 -1.09164979e-08 0.213394642 -2.26608918e-05
      -0.000126792307 -2.73454407e-06 -2.95515133e-06 -0.000115881929
      0.269691557 -0.00162668049 -0.000946998887 -1.21589801e-06
      -0.00166755822 -4.20550532e-06 -0.00275753741 0.619276762
      0.427071601 0.425678253 -0.00228673918 0.189444497 0.173724443
      -2.91581964e-05 -0.000392811227 0.265515059 0.565381706
      0.445578694 -0.000181755589 0.492865562 0.352563769 -0.00125382247
      -0.00278247613 0.0810132325 -0.00195586891 0.464303136
      -0.00115898496 -1.41535957e-05 -0.00333955302 0.288064033
      -0.00385653903 -0.00292960391 -0.000125153179 -2.79164624e-06
      0.144457102 -2.10707441e-07 -4.29444469e-07 0.206179172
      -0.00164755981 -1.43663538e-05 -1.77180464e-05 -0.000225503303
      -0.000429560314 0.13631779 -4.19020125e-08 -2.90990509e-10
      -4.87811436e-09 -2.29327028e-13 -0.000150116117 -8.20342734e-07
      -2.23391874e-10 -9.3286144e-05 0.101885706 -1.88410959e-05
      -9.9246965e-05 -0.000143107667 -3.88130611e-05 -1.5500922e-05
      0.270380557 -5.98362419e-07 -7.65229379e-06 0.226078689
      -0.000286114257 0.229814082 -7.63089265e-05 0.0159890261
      -0.000896142912 0.0853095427 -5.48221841e-08 0.113626286
      -1.88106992e-06 -0.000120047014 -3.36054063e-06 -7.76999514e-07
      -0.000209642705 -2.18156273e-07 -3.49886091e-06 0.26620701
      -5.15309351e-09 -6.80124235e-10 -1.27300233e-08 -7.71733177e-10
      0.136257634 0.308626056 -2.35688058e-05 0.186253369
      -8.99006409e-05 -1.19413723e-09 -1.38981946e-07 -4.10668763e-05
      -3.41257955e-09 -0.000622917083 -0.00013058992 -1.15063341e-10
      -3.02595595e-06 -0.000236119551 -0.000295744685 -1.46929267e-07
      -0.000202769472 -9.86885862e-09 -2.89419331e-05 -0.000100750585
      -6.08407436e-06</_>
    <_>
      -1.35905135 -3.43835783 -0.00534285698 -0.0130106872
      -5.22542543e-08 -0.000133648617 -0.0105562871 -0.000398539152
      -0.00144227559 -1.6182629e-06 -1.36473573e-05 -3.31191274e-07
      -7.27330989e-05 -0.000223702387 -0.000173756183 3.90495014
      0.846043587 -0.0022563322 2.58350301 -0.000133458103
      -0.000909998722 -0.000591255957 -0.00367448013 0.246969819
      -9.11800726e-06 0.313803107 2.22533965 -9.51119364e-06
      -4.26870247e-05 -1.07724582e-05 0.330248982 -0.000157246555
      -0.010952713 -0.0010417205 -8.54437239e-05 -0.000712338428
      -0.00025884778 -4.27966406e-05 -0.00551971002 -0.000164700337
      -0.000105259511 -0.000479256152 -0.00126849499 -0.000290414377
      0.231216863 -0.00142423913 -0.000381109567 3.68812823 0.663981795
      -0.00854077563 -0.00141360529 -0.000259318709 -2.09785549e-06
      -0.00805997383 1.17773914 -0.0162638705 -0.0258109793
      -0.0031046404 0.136602074 -0.00404635584 -0.00056354847
      -0.00038851198 -0.000672490569 2.27947378 -0.0174632277
      -3.83057886e-05 -2.69572483e-05 -1.32895166e-05 -0.00403603027
      -0.00138381345 -0.00069860724 4.8700633 -0.00158485339
      -9.04287808e-05 -2.37312952e-06 -0.00114856719 -1.91180588e-05
      -0.000766010722 1.22031367 -0.00137347274 -7.42903239e-06
      -2.06821454e-07 -0.000285292714 1.38460457 -0.00897828117
      -0.000406216859 0.0335630178 0.0810862333 -6.41618999e-06
      -0.0070464937 -0.00407715654 -0.000362664665 -0.00408024713
      -0.00554873468 3.21660399 -0.0171435922 -0.000691776397
      -0.00657151733 -0.00502724806 -0.00190778554 -3.99692108e-05
      -0.00653006788 2.81919456 -9.17084378e-07 -9.08160291e-05
      -0.000929431291 4.09315538 -8.89135117e-05 -2.98327359e-05
      -0.000337804202 0.956627488 -0.00136893371 -0.0123155434
      -1.27934472e-05 -4.3216729e-05 -0.000574845704 -4.96641348e-07
      -1.93931419e-06 -0.000144674545 -3.95173811e-05 -0.00707243197
      -8.02218347e-06 -0.00531228213 -0.000534885272 -0.00586535968
      -0.0092454236 -0.00191161095 -0.0168549642 -0.0173160974
      -0.00206274027 -1.6276811e-08 -7.88569423e-07 0.0637824833
      -7.38074959e-05 -5.47480013e-05 0.377601862 0.349552691
      0.471188724 -9.28967481e-09 -0.000191197993 0.548743546
      -3.0533306e-06 -2.45764067e-08 0.338449061 0.645262778
      -0.00018133226 0.159392774 -0.00313082011 -1.08657447e-08
      0.221957505 -2.26848297e-05 -0.00012609543 -2.70196369e-06
      -2.95705331e-06 -0.00023055679 0.281431854 -0.00176986307
      -0.000966797874 -1.2176281e-06 -0.00174620026 -4.21639334e-06
      -0.0027644306 0.616174817 0.422308445 0.433333963 -0.00231281179
      0.198697746 0.164071336 -2.9065357e-05 -0.000393735099 0.258693337
      0.554244936 0.445729256 -0.000183873359 0.503306746 0.35085547
      -0.0010955059 -0.00272524916 0.0874600783 -0.00191784941
      0.478926301 -0.00114111428 -1.4149663e-05 -0.00334051717
      0.289124578 -0.00385382026 -0.0029250693 -0.000123624603
      -2.79338315e-06 0.159804523 -2.11000952e-07 -4.30609873e-07
      0.198463365 -0.00172786578 -1.43518846e-05 -1.76958001e-05
      -0.000225735974 -0.000430399145 0.133762285 -4.18064232e-08
      -2.91157876e-10 -4.86890261e-09 -2.28472514e-13 -0.000150087551
      -8.19533511e-07 -2.23222149e-10 -9.32440817e-05 0.0998571515
      -1.8825458e-05 -9.63490602e-05 -0.000143090845 -3.87900691e-05
      -1.54861482e-05 0.274686158 -5.97706901e-07 -7.64690321e-06
      0.229453623 -0.000286763476 0.234380394 -7.59576214e-05
      0.0155324638 -0.000901070889 0.0844430327 -5.47159686e-08
      0.111578479 -1.88953675e-06 -0.000120023207 -3.35385994e-06
      -8.08591722e-07 -0.000209900958 -2.17303651e-07 -3.4948489e-06
      0.270851493 -5.13835152e-09 -6.80028811e-10 -1.27666562e-08
      -7.70132624e-10 0.135984153 0.306769013 -2.35447787e-05
      0.187595874 -8.984952e-05 -1.18641519e-09 -1.38731693e-07
      -4.10411667e-05 -3.40698469e-09 -0.000625886023 -0.000128606349
      -1.1477598e-10 -3.02274861e-06 -0.000247553369 -0.00029636774
      -1.46618021e-07 -0.000202937779 -9.8512265e-09 -2.89263407e-05
      -0.000101259575 -6.07893753e-06</_>
    <_>
      -1.3384366 -3.34316158 -0.00532541377 -0.0131016346
      -5.13006384e-08 -0.000134107875 -0.0104876384 -0.000396031217
      -0.00141655875 -1.54833901e-06 -1.3535082e-05 -3.27200752e-07
      -7.14898342e-05 -0.000217831912 -0.000171399035 3.9206934
      0.65944463 -0.00224064663 2.51616645 -0.000131118504
      -0.000895706296 -0.000586572627 -0.00367973745 0.205559522
      -8.63094738e-06 0.140884817 2.01080012 -8.8996203e-06
      -4.18477975e-05 -1.07665765e-05 0.315282583 -0.00015864367
      -0.011682244 -0.00101655547 -8.40847279e-05 -0.000712396577
      -0.000250865094 -4.16397015e-05 -0.00575751811 -0.000160264914
      -0.000105836778 -0.000471093284 -0.00125607487 -0.000284919486
      0.198340416 -0.00143378286 -0.000377242919 3.68661165 0.553103328
      -0.00928669702 -0.00140371895 -0.000181838841 -2.03173886e-06
      -0.00799945649 1.15585637 -0.0158722475 -0.0256149545
      -0.00309905666 0.124953702 -0.00403497368 -0.000572516758
      -0.000411164539 -0.00067648862 2.10203362 -0.0184759386
      -3.73885305e-05 -2.69364318e-05 -1.2663244e-05 -0.00404898776
      -0.00135054172 -0.000681851816 4.78606749 -0.00156967563
      -9.03096516e-05 -2.4068213e-06 -0.0011164652 -1.83754182e-05
      -0.00210405444 1.27087951 -0.00137923413 -7.37819801e-06
      -1.95661258e-07 -0.000287876232 1.30099201 -0.00874856114
      -0.000408969878 -0.000287414325 0.0954229087 -6.37439689e-06
      -0.00706319185 -0.00412405515 -0.000363268919 -0.00412492454
      -0.00545752374 2.89157081 -0.0169895105 -0.000679538294
      -0.00664955378 -0.005024957 -0.00188442983 -3.81665122e-05
      -0.00650804257 2.59252048 -8.61020169e-07 -8.63864552e-05
      -0.000908669608 4.10208464 -8.72698874e-05 -2.91061624e-05
      -0.000334772689 0.892944217 -0.00138221274 -0.0117726559
      -1.25572069e-05 -4.29724751e-05 -0.000563132053 -4.95408017e-07
      -1.94570816e-06 -0.000141806493 -3.95129573e-05 -0.00686140871
      -7.92361152e-06 -0.00532877212 -0.000519497262 -0.00723851053
      -0.00906456355 -0.00191156415 -0.0165207293 -0.0180306546
      -0.0019855327 -1.622257e-08 0.00167137384 0.0587499812
      -7.41491458e-05 -5.50373479e-05 0.382383078 0.347312748
      0.472620666 -9.21266974e-09 -0.000191733605 0.545660198
      -3.08093672e-06 -2.42841711e-08 0.344736338 0.648761928
      -0.00018209203 0.163286328 -0.00316118402 -1.08957758e-08
      0.226042867 -2.26415832e-05 -0.000127306455 -2.71586987e-06
      -2.95518771e-06 -0.000204671247 0.281939983 -0.00177809235
      -0.000929835893 -1.21186076e-06 -0.00166623201 -4.19667958e-06
      -0.00276639336 0.618803322 0.426097184 0.431443185 -0.00230964599
      0.199814335 0.168357626 -2.94106885e-05 -0.000395701296
      0.257355154 0.554530025 0.44445464 -0.000183392753 0.49648273
      0.35381642 -0.00114978815 -0.00278636324 0.0821365714
      -0.00194164901 0.46455121 -0.00114958733 -1.40732454e-05
      -0.00335752382 0.291286677 -0.00390237686 -0.00293985661
      -0.000124520477 -2.79134883e-06 0.158348396 -2.10629565e-07
      -4.27755936e-07 0.199943006 -0.00165450783 -1.43597699e-05
      -1.77077945e-05 -0.00022561384 -0.000429933076 0.135104209
      -4.18581543e-08 -2.91109081e-10 -4.87390706e-09 -2.28930996e-13
      -0.000150103617 -8.19973479e-07 -2.23318641e-10 -9.326695e-05
      0.100911468 -1.88339454e-05 -9.80842669e-05 -0.00014310042
      -3.88025837e-05 -1.54941372e-05 0.272410989 -5.98063309e-07
      -7.64982633e-06 0.227677554 -0.000286418828 0.231935203
      -7.613856e-05 0.015753638 -0.000898416562 0.0849524215
      -5.47735084e-08 0.112649404 -1.88492879e-06 -0.000120036646
      -3.35749746e-06 -7.90964123e-07 -0.00020976417 -2.17761325e-07
      -3.49701668e-06 0.268384039 -5.14634024e-09 -6.80086321e-10
      -1.27471473e-08 -7.71001263e-10 0.13604863 0.3076801
      -2.35578009e-05 0.186947912 -8.98774888e-05 -1.19059196e-09
      -1.38867804e-07 -4.10551111e-05 -3.41000961e-09 -0.000624291599
      -0.000129803098 -1.1493239e-10 -3.02448689e-06 -0.000241583955
      -0.000296032231 -1.46786689e-07 -0.00020284974 -9.86079041e-09
      -2.89348209e-05 -0.000100903118 -6.08172968e-06</_>
    <_>
      -1.309075 -3.43055725 -0.00534434011 -0.0130100083 -4.99208426e-08
      -0.000136655406 -0.0105214287 -0.000399693992 -0.00144204032
      -1.61643561e-06 -1.36734789e-05 -3.28679192e-07 -7.3609408e-05
      -0.000223952302 -0.000173730965 3.97995377 0.714995205
      -0.00222600787 2.62568069 -0.000137617899 -0.000919154845
      -0.000607685826 -0.00367381494 0.175264537 -8.96027177e-06
      0.175203875 2.07822752 -9.7972852e-06 -4.28346902e-05
      -1.07134438e-05 0.319963574 -0.000160792246 -0.012156534
      -0.0010329471 -8.59135253e-05 -0.00072425697 -0.000260201021
      -4.22928097e-05 -0.00655637868 -0.000163059216 -0.000107556203
      -0.000497244589 -0.00125885557 -0.00030296843 0.260035008
      -0.0013907206 -0.000362351711 3.73974323 0.556899905
      -0.00954010151 -0.00141592778 -0.000276636711 -2.01591229e-06
      -0.00799550209 1.15409112 -0.0166524872 -0.0272517074
      -0.00313404575 0.12641713 -0.004077408 -0.000593260338
      -0.000366585649 -0.000674683717 2.17573261 -0.0187305026
      -3.79440862e-05 -2.69576722e-05 -1.33506182e-05 -0.0040703658
      -0.00139415497 -0.000704189355 4.82429504 -0.00157300895
      -9.2503411e-05 -2.68839585e-06 -0.00114311883 -1.90266801e-05
      -0.00156603544 1.28679228 -0.0013702088 -7.46713158e-06
      -2.15217881e-07 -0.000288252253 1.42946255 -0.00929072313
      -0.000427412335 -0.000312374235 0.100650534 -6.41478391e-06
      -0.00707198447 -0.00420848327 -0.000367746368 -0.00410963548
      -0.00566118537 3.02663445 -0.0173436534 -0.000662117265
      -0.00675567985 -0.00500682835 -0.00192549091 -4.00534627e-05
      -0.00652814377 2.68711615 -8.96924348e-07 -8.93501419e-05
      -0.000942078885 4.16120863 -8.8133922e-05 -3.02023855e-05
      -0.000336012134 0.926896274 -0.00140234269 -0.0113287922
      -1.31896768e-05 -4.37187809e-05 -0.000579749467 -4.77840501e-07
      -1.9773438e-06 -0.000146678081 -3.93970913e-05 -0.00692516565
      -7.93685558e-06 -0.00525780115 -0.000542984519 -0.00732832728
      -0.0091158906 -0.00199976983 -0.0166315269 -0.0180268548
      -0.00222009281 -1.61280109e-08 0.00881892443 0.058615651
      -7.37972878e-05 -5.33335551e-05 0.399864227 0.322075635
      0.473955572 -9.15372045e-09 -0.000191540588 0.541221023
      -3.05941853e-06 -2.41824569e-08 0.343402267 0.677145123
      -0.000182217758 0.161793739 -0.00305391569 -1.09468754e-08
      0.244752511 -2.25402146e-05 -0.000127223975 -2.73235401e-06
      -2.92927348e-06 -0.000132841087 0.279659748 -0.00199285732
      -0.00094733102 -1.20430468e-06 -0.00176162983 -4.17974252e-06
      -0.00276137167 0.629238963 0.413538277 0.41921699 -0.00227710023
      0.183529168 0.162777364 -2.8975679e-05 -0.000395542331 0.258436888
      0.559280992 0.447037131 -0.000184710996 0.488075376 0.361997277
      -0.000881573244 -0.00276134163 0.104107335 -0.00178235525
      0.463167071 -0.00116631505 -1.41212349e-05 -0.00338580366
      0.318542689 -0.00407316955 -0.00296792085 -0.000125054692
      -2.7668425e-06 0.149004191 -2.08971954e-07 -4.25811322e-07
      0.20597969 -0.00153054844 -1.43469715e-05 -1.76881022e-05
      -0.000225820113 -0.000430674321 0.132840231 -4.17735713e-08
      -2.91261515e-10 -4.86575891e-09 -2.28174305e-13 -0.000150078413
      -8.19257593e-07 -2.23168872e-10 -9.3229748e-05 0.0991120636
      -1.88201084e-05 -9.55555734e-05 -0.000143085592 -3.87822438e-05
      -1.54810623e-05 0.276225388 -5.97483506e-07 -7.64505694e-06
      0.230668694 -0.000286994153 0.235973969 -7.58264359e-05
      0.0153452083 -0.000902778469 0.0841951966 -5.46795214e-08
      0.110834695 -1.89242098e-06 -0.000120015648 -3.35158711e-06
      -8.18904368e-07 -0.000209993028 -2.17006487e-07 -3.49346601e-06
      0.272495836 -5.13329779e-09 -6.80001555e-10 -1.27795747e-08
      -7.69585118e-10 0.135791972 0.306024313 -2.35365424e-05
      0.188149214 -8.98322978e-05 -1.18375831e-09 -1.38646428e-07
      -4.10323664e-05 -3.40505824e-09 -0.000626919675 -0.000128074244
      -1.14678211e-10 -3.02164835e-06 -0.00025172747 -0.000296583719
      -1.46511283e-07 -0.000202999043 -9.84519133e-09 -2.89210275e-05
      -0.000101339479 -6.07718539e-06</_>
    <_>
      -1.33555758 -3.49338675 -0.00525946124 -0.0115511771
      -5.10821963e-08 -0.000127432373 -0.010331437 -0.000386728032
      -0.00140561815 -1.43163436e-06 -1.31817442e-05 -3.18170805e-07
      -7.01087265e-05 -0.000211786552 -0.000168792118 3.82169366
      0.755526602 -0.00221051741 2.53580832 -0.000129780819
      -0.000893489574 -0.000579057902 -0.0036459656 0.228328496
      -8.47757383e-06 0.257755548 2.1085422 -9.08663515e-06
      -4.15709947e-05 -1.03528619e-05 0.384994 -0.000156086724
      -0.0107293082 -0.00100360112 -8.16695756e-05 -0.000697234645
      -0.000251415564 -4.03164959e-05 -0.00545942225 -0.000156909024
      -0.000104691135 -0.000464520941 -0.00122952822 -0.000288457144
      0.224621758 -0.00139841728 -0.000375109783 3.55149984 0.626376033
      -0.00822536554 -0.00136383541 -0.000352632662 -1.94246695e-06
      -0.00792734511 1.14071846 -0.0158085171 -0.0245683193
      -0.00304123224 0.173006535 -0.00399826048 -0.000535898143
      -0.000389352615 -0.000664922933 2.18961453 -0.0171808731
      -3.71256283e-05 -2.64631108e-05 -1.2420136e-05 -0.00398831535
      -0.00134033454 -0.000682188082 4.77149487 -0.00152681069
      -8.91499076e-05 -2.35277025e-06 -0.00111072976 -1.80648276e-05
      -0.00121660554 1.17914081 -0.0013564846 -7.22947152e-06
      -1.80857526e-07 -0.000284857117 1.28500116 -0.00795074645
      -0.000400714198 0.033580862 0.0476936549 -6.29884471e-06
      -0.00695867185 -0.00400537811 -0.000355290016 -0.00402703136
      -0.00534983724 3.04726648 -0.0168958344 -0.000669698231
      -0.00621698191 -0.00495388871 -0.00186268473 -3.66453896e-05
      -0.0065144375 2.69807553 -8.35899527e-07 -8.69663781e-05
      -0.000893168442 4.0220418 -8.4166415e-05 -2.90119788e-05
      -0.00032924331 1.04783237 -0.00135665655 -0.0118458113
      -1.26661052e-05 -4.22681915e-05 -0.000543031783 -4.79422738e-07
      -1.92126959e-06 -0.000139198921 -3.89649249e-05 -0.00680751493
      -7.81196013e-06 -0.0052568065 -0.000506877434 -0.00626334734
      -0.00892308634 -0.00188806222 -0.0162130278 -0.0170524865
      -0.00197989051 -1.61945533e-08 0.00792911649 0.0480471626
      -7.46801234e-05 -5.3641983e-05 0.417259336 0.330851734 0.477999389
      -9.0890806e-09 -0.000191066094 0.526102841 -3.14224212e-06
      -2.37850042e-08 0.354311854 0.66933316 -0.000183761382 0.181168765
      -0.00326504069 -1.11587246e-08 0.245298788 -2.25349886e-05
      -0.000129818145 -2.76423043e-06 -2.93919584e-06 -0.000117320189
      0.286959529 -0.00180998142 -0.000874154968 -1.20335471e-06
      -0.00150566397 -4.16463126e-06 -0.00276353303 0.63681525
      0.42711702 0.41349259 -0.00227835285 0.181285918 0.175597146
      -2.97152801e-05 -0.000395454379 0.266503543 0.571175396
      0.430538416 -0.000182512886 0.479284048 0.360058755 -0.0010910097
      -0.00286659203 0.0877355635 -0.00190858333 0.439350069
      -0.00115776097 -1.40028606e-05 -0.00337782619 0.304525822
      -0.0039988202 -0.00295898016 -0.000126419516 -2.78918128e-06
      0.149873331 -2.08957985e-07 -4.23417646e-07 0.211053237
      -0.00143326086 -1.43643374e-05 -1.771391e-05 -0.000225572774
      -0.0004296072 0.135563135 -4.18858122e-08 -2.91351054e-10
      -4.87670615e-09 -2.29150141e-13 -0.000150116073 -8.2022143e-07
      -2.23399604e-10 -9.32798503e-05 0.101197511 -1.88386293e-05
      -0.000100119578 -0.000143108598 -3.88097287e-05 -1.54983682e-05
      0.271542668 -5.98264535e-07 -7.65142613e-06 0.227048993
      -0.000286277849 0.23078306 -7.61756237e-05 0.0157020502
      -0.000897078367 0.0854959786 -5.4804584e-08 0.11298652
      -1.88230842e-06 -0.000120047393 -3.35957884e-06 -7.78261438e-07
      -0.000209710168 -2.17981949e-07 -3.49815105e-06 0.26735276
      -5.15068077e-09 -6.80152379e-10 -1.27386874e-08 -7.71480935e-10
      0.135535166 0.307560921 -2.35648822e-05 0.187116161
      -8.98943908e-05 -1.1928083e-09 -1.38944841e-07 -4.10627472e-05
      -3.41160544e-09 -0.000623517379 -0.000131259803 -1.15021659e-10
      -3.02542981e-06 -0.0002397973 -0.000295863691 -1.4687825e-07
      -0.000202822441 -9.86603421e-09 -2.89396048e-05 -0.00010018114
      -6.08329992e-06</_>
    <_>
      -1.33596265 -3.31996918 -0.00531432871 -0.015819313 -5.105856e-08
      -0.000143144265 -0.0106645348 -0.000390709989 -0.0014352873
      -1.89102457e-06 -1.38321493e-05 -3.34514141e-07 -7.74086802e-05
      -0.000241246555 -0.000177904396 4.14365149 0.954695761
      -0.00226711715 2.39253831 -0.000137818308 -0.00090578763
      -0.000586157606 -0.00362497568 0.279976249 -9.57296652e-06
      0.331984729 2.29451418 -9.68806671e-06 -4.48919091e-05
      -1.16487172e-05 0.0801196694 -0.000157194998 -0.0119770085
      -0.00110362493 -8.88962459e-05 -0.000712742796 -0.000256147672
      -4.65049416e-05 -0.00617547007 -0.000172008789 -0.000106659703
      -0.000475878682 -0.00132589159 -0.000284652342 0.244598672
      -0.00144432299 -0.000381287333 3.67314386 0.587826133
      -0.00890331063 -0.00148875243 -0.000123021178 -2.26785369e-06
      -0.0079533942 1.30156267 -0.0165069308 -0.0276347306
      -0.00313338847 0.0252288282 -0.00401205011 -0.000618948485
      -0.000362208812 -0.000668876222 2.33488202 -0.0172677506
      -3.76369753e-05 -2.70690671e-05 -1.51167524e-05 -0.00401530555
      -0.00141615875 -0.000684366969 4.93904972 -0.00160642632
      -8.90136653e-05 -2.2790648e-06 -0.00115519343 -1.94247659e-05
      0.016397167 1.45952749 -0.00136399001 -7.8152998e-06
      -2.40660199e-07 -0.000270658202 1.46137524 -0.0112233991
      -0.000411937595 -0.000448149571 0.0681142658 -6.42869554e-06
      -0.00706172409 -0.00407207711 -0.000370960945 -0.00406468567
      -0.00556568243 3.29682994 -0.017354209 -0.000683508348
      -0.00794813875 -0.00504756626 -0.00191362225 -4.38983552e-05
      -0.00671321154 2.87548494 -9.85564043e-07 -9.16957069e-05
      -0.000939666701 4.10635948 -9.66637454e-05 -2.98461164e-05
      -0.00035157986 0.793716252 -0.00138053193 -0.0118286377
      -1.26418163e-05 -4.33965433e-05 -0.000604972651 -5.49768401e-07
      -1.93196229e-06 -0.000150759515 -3.90643727e-05 -0.00716591347
      -8.24084691e-06 -0.00527589442 -0.000581450586 -0.0051809065
      -0.00925156381 -0.00199818006 -0.0172344465 -0.017482467
      -0.00217274157 -1.60976672e-08 0.00195868313 0.0461281314
      -7.38913805e-05 -5.3178137e-05 0.376087636 0.314065248 0.456099093
      -9.13194054e-09 -0.000191610205 0.54952246 -3.08382869e-06
      -2.40362343e-08 0.337279707 0.675074518 -0.000181700059
      0.157805055 -0.00324376044 -1.08892726e-08 0.257060677
      -2.25177409e-05 -0.000127608757 -2.73731416e-06 -2.9282769e-06
      -0.000221733964 0.2722224 -0.00221591163 -0.000998862204
      -1.20216487e-06 -0.00182190386 -4.17739511e-06 -0.00272924872
      0.637962222 0.398091167 0.403665006 -0.00225641765 0.178545326
      0.155879214 -2.90165317e-05 -0.000397512486 0.249118507
      0.550256073 0.43717733 -0.000184685137 0.483671069 0.356311977
      -0.000526439399 -0.00278116274 0.123315558 -0.0016298854
      0.447222292 -0.00115958368 -1.40726188e-05 -0.00340223243
      0.337210625 -0.00418548938 -0.00298068998 -0.000124472412
      -2.77062122e-06 0.14450188 -2.08192787e-07 -4.24971404e-07
      0.207041651 -0.00137386553 -1.43491279e-05 -1.76916856e-05
      -0.000225775919 -0.000430567714 0.133326173 -4.17885531e-08
      -2.91149965e-10 -4.86716534e-09 -2.28316362e-13 -0.000150081672
      -8.19380432e-07 -2.23185956e-10 -9.3236129e-05 0.0995193869
      -1.88225131e-05 -9.56799413e-05 -0.000143087265 -3.87857071e-05
      -1.54833924e-05 0.275436699 -5.97582925e-07 -7.64589004e-06
      0.230035812 -0.000286878698 0.235201553 -7.59000832e-05
      0.0154687539 -0.000901979336 0.0842517242 -5.46960734e-08
      0.111233026 -1.89114712e-06 -0.00012001826 -3.35259006e-06
      -8.1505857e-07 -0.000209946462 -2.17147914e-07 -3.49410243e-06
      0.271671116 -5.13558884e-09 -6.80003887e-10 -1.27731665e-08
      -7.69831254e-10 0.136002004 0.306506038 -2.35402713e-05 0.18778111
      -8.98397047e-05 -1.18497434e-09 -1.38684285e-07 -4.10363391e-05
      -3.40594219e-09 -0.000626428693 -0.00012814143 -1.14721468e-10
      -3.02214698e-06 -0.000249489181 -0.000296482671 -1.46559628e-07
      -0.000202966388 -9.84791448e-09 -2.89233903e-05 -0.00010142164
      -6.07796574e-06</_>
    <_>
      -1.35408282 -3.31517029 -0.00535748992 -0.0150000779
      -5.19371852e-08 -0.000142373174 -0.0106868315 -0.000399119803
      -0.00144128082 -1.81221446e-06 -1.38184032e-05 -3.34529631e-07
      -7.58275273e-05 -0.000238595036 -0.000177750597 4.07307863
      0.857309401 -0.00228890986 2.41576886 -0.000136326271
      -0.000907685899 -0.000589541742 -0.00367104704 0.242323577
      -9.33114643e-06 0.249773085 2.20098901 -9.59309273e-06
      -4.39745236e-05 -1.14673039e-05 0.134815007 -0.000159012954
      -0.0125430329 -0.00108662492 -8.83267276e-05 -0.000719814037
      -0.000254458369 -4.53966095e-05 -0.00602349499 -0.000170679981
      -0.000106685948 -0.000479111652 -0.00131436181 -0.000284572016
      0.233265981 -0.00146192557 -0.000382513535 3.70385933 0.58164084
      -0.00924596563 -0.00148037693 -0.000210926155 -2.22960057e-06
      -0.00806504954 1.25543392 -0.0163268074 -0.0273084324
      -0.00314543722 0.0289942697 -0.00405720528 -0.000605719921
      -0.000378560275 -0.00067713653 2.25937104 -0.0180514827
      -3.77947727e-05 -2.73520545e-05 -1.45011463e-05 -0.00404661149
      -0.0014093949 -0.000688762229 4.92938709 -0.0016099991
      -9.0086578e-05 -2.33660353e-06 -0.00114970689 -1.9161509e-05
      -0.000736252812 1.40122366 -0.00138116232 -7.68623613e-06
      -2.28592427e-07 -0.0002790078 1.40399098 -0.0102260048
      -0.000414363545 -0.000589891977 0.0420407057 -6.45002183e-06
      -0.00711234566 -0.0040935236 -0.000372342824 -0.0041162842
      -0.00556750037 3.16128373 -0.0172908232 -0.000685420935
      -0.00752732623 -0.00508086244 -0.00192084641 -4.25130856e-05
      -0.00662777293 2.79286838 -9.53931476e-07 -9.15885685e-05
      -0.000937991426 4.11200666 -9.47651133e-05 -2.96588787e-05
      -0.000348979782 0.8254897 -0.00138750114 -0.0118134711
      -1.25823262e-05 -4.36533082e-05 -0.000593778677 -5.4033103e-07
      -1.92002426e-06 -0.000148885505 -3.9616818e-05 -0.00718461536
      -8.22123002e-06 -0.00533814263 -0.000565355585 -0.0060425452
      -0.00923063699 -0.0019858845 -0.0171575453 -0.0179257207
      -0.00209488859 -1.62099241e-08 0.002902776 0.058409147
      -7.42399207e-05 -5.51212725e-05 0.381536186 0.342100024 0.47927469
      -9.20309162e-09 -0.000191463449 0.544669926 -3.0858555e-06
      -2.42430129e-08 0.339817762 0.650172651 -0.000181939584 0.16261895
      -0.00319852727 -1.08847251e-08 0.225261703 -2.2637063e-05
      -0.000127684179 -2.71565295e-06 -2.95150676e-06 -0.000192176027
      0.27526015 -0.00185178092 -0.000917697966 -1.21154335e-06
      -0.0016625392 -4.19468188e-06 -0.00276086573 0.623318672
      0.422542363 0.428131104 -0.00231313962 0.193736076 0.165485784
      -2.93770154e-05 -0.000395821146 0.252063364 0.551095784
      0.442584187 -0.000184007804 0.493140221 0.359429061 -0.00104823546
      -0.00277654198 0.0881069452 -0.00189899595 0.459336102
      -0.00114726217 -1.40566608e-05 -0.00336148427 0.296814978
      -0.00394389313 -0.00293778768 -0.000124706159 -2.79108281e-06
      0.157346934 -2.1062111e-07 -4.27298488e-07 0.203787372
      -0.00159212714 -1.43552215e-05 -1.77029942e-05 -0.000225608674
      -0.00043034507 0.135146245 -4.18341806e-08 -2.90448804e-10
      -4.87127805e-09 -2.28784412e-13 -0.000150086329 -8.19737181e-07
      -2.2319889e-10 -9.32546609e-05 0.101131484 -1.88296399e-05
      -9.45042411e-05 -0.000143088226 -3.87956279e-05 -1.5490541e-05
      0.27257356 -5.97871178e-07 -7.64837841e-06 0.227680296
      -0.00028646845 0.232659623 -7.62059717e-05 0.0160795711
      -0.000899439387 0.084039256 -5.47460353e-08 0.112757057
      -1.88747026e-06 -0.000120021352 -3.35546201e-06 -8.07596336e-07
      -0.000209778824 -2.17610747e-07 -3.49607421e-06 0.268785089
      -5.1424669e-09 -6.79967083e-10 -1.27511006e-08 -7.70560005e-10
      0.137399822 0.308796704 -2.35514635e-05 0.185949653
      -8.98595899e-05 -1.18869958e-09 -1.38793865e-07 -4.10481989e-05
      -3.40866224e-09 -0.000624829787 -0.000127200867 -1.1484555e-10
      -3.02364583e-06 -0.000240775858 -0.000296160026 -1.46705005e-07
      -0.000202840267 -9.85602533e-09 -2.89302479e-05 -0.00010240791
      -6.08023902e-06</_>
    <_>
      -1.26327384 -3.40369701 -0.00528386096 -0.0146866916
      -5.15290388e-08 -0.00013677137 -0.0105073545 -0.000397453638
      -0.00142400712 -1.65666597e-06 -1.34449429e-05 -3.23741801e-07
      -7.32632034e-05 -0.000223854848 -0.000171297419 4.06467867
      0.803733051 -0.00224841898 2.43755674 -0.000132564412
      -0.000885393179 -0.000574006117 -0.00366008841 0.263309687
      -8.96701385e-06 0.242196977 2.15488029 -9.18586829e-06
      -4.28319472e-05 -1.10854808e-05 0.257576317 -0.000157498449
      -0.0106615685 -0.00103368436 -8.43001544e-05 -0.000705472601
      -0.000249806268 -4.27872073e-05 -0.00566624291 -0.000162471188
      -0.000106367021 -0.000468888466 -0.00127382763 -0.000278050516
      0.190664127 -0.00144953502 -0.000385216641 3.57335424 0.549807131
      -0.00937333424 -0.00141594047 -8.77705534e-05 -2.14129955e-06
      -0.00798112713 1.30727637 -0.0158366002 -0.026269611
      -0.00307782483 0.0940958783 -0.00400749175 -0.000590193493
      -0.000404696155 -0.000680549943 2.22695756 -0.0175585411
      -3.65462147e-05 -2.70204237e-05 -1.33155954e-05 -0.00400684355
      -0.00134960841 -0.000665241329 4.83671188 -0.00156046357
      -8.88432187e-05 -2.29736111e-06 -0.00111858628 -1.81524592e-05
      -0.000920468825 1.35970283 -0.00137809105 -7.45884199e-06
      -2.04640813e-07 -0.000284961279 1.35649776 -0.0102706719
      -0.000402706064 -0.000324267428 0.12471126 -6.35844981e-06
      -0.00706777489 -0.00407904666 -0.000362688443 -0.00408018753
      -0.00536516402 3.0776813 -0.0171057265 -0.000670147245
      -0.00768368458 -0.00501996931 -0.00187864807 -3.95540083e-05
      -0.00678485073 2.71822762 -8.87172575e-07 -8.91609598e-05
      -0.00089531613 4.09585142 -9.01161111e-05 -2.89151922e-05
      -0.00033804524 0.832402229 -0.00138294429 -0.011928116
      -1.25076685e-05 -4.3169206e-05 -0.000551374163 -5.38177687e-07
      -1.91605591e-06 -0.000141617216 -3.92888214e-05 -0.00690447772
      -7.98321616e-06 -0.00538087077 -0.000523949682 -0.00597147737
      -0.00902322773 -0.00190325954 -0.0162650049 -0.0176485907
      -0.00198052591 -1.61122173e-08 0.00862096995 0.0585592315
      -7.42496704e-05 -5.35188192e-05 0.396078467 0.316074014
      0.476436138 -9.11919074e-09 -0.000190947772 0.542642355
      -3.10362316e-06 -2.40127562e-08 0.354691327 0.645213068
      -0.000182818461 0.167164505 -0.0031708118 -1.10166294e-08
      0.244381413 -2.25753502e-05 -0.000129878797 -2.72924012e-06
      -2.93207063e-06 -0.000214652639 0.287498116 -0.00202996167
      -0.00089851598 -1.20390803e-06 -0.00167528505 -4.17147248e-06
      -0.00273147388 0.622154355 0.41711548 0.427902043 -0.0023090546
      0.181752071 0.15988256 -2.92705245e-05 -0.000396160292 0.26135987
      0.558515131 0.448068082 -0.000186017191 0.479840785 0.369170994
      -0.000912208692 -0.00275668851 0.0910791606 -0.00183849747
      0.458406091 -0.00115694467 -1.40836619e-05 -0.0033798432
      0.305827647 -0.00411160337 -0.00295036077 -0.000125276187
      -2.77925392e-06 0.158213526 -2.08366345e-07 -4.24356244e-07
      0.202639133 -0.00147316291 -1.43561019e-05 -1.76997801e-05
      -0.000225757612 -0.000429985463 0.133543491 -4.18273416e-08
      -2.91923707e-10 -4.87128471e-09 -2.28582019e-13 -0.000150105378
      -8.19748777e-07 -2.23347382e-10 -9.32552939e-05 0.0994689614
      -1.88293179e-05 -0.000100263373 -0.000143103665 -3.87964574e-05
      -1.54892568e-05 0.27478981 -5.97882206e-07 -7.64819379e-06
      0.229677856 -0.000286750816 0.233856037 -7.58564711e-05
      0.0151273068 -0.000900235318 0.0854337439 -5.47401662e-08
      0.111318588 -1.88720855e-06 -0.000120039076 -3.35573259e-06
      -7.91773175e-07 -0.000209901715 -2.17418062e-07 -3.49565403e-06
      0.270703822 -5.14178167e-09 -6.80157486e-10 -1.27645894e-08
      -7.7052853e-10 0.134415314 0.305364907 -2.35503958e-05 0.188832849
      -8.98665239e-05 -1.18805488e-09 -1.38799237e-07 -4.10473294e-05
      -3.40814599e-09 -0.000625471468 -0.000131459979 -1.14855764e-10
      -3.02349213e-06 -0.000249252684 -0.000296263897 -1.46690297e-07
      -0.000202960015 -9.8554791e-09 -2.89305099e-05 -9.95684022e-05
      -6.08029313e-06</_>
    <_>
      -1.2884897 -3.27647114 -0.00540152052 -0.0160536505
      -5.15399989e-08 -0.000147342551 -0.0107788332 -0.000410420675
      -0.00146147958 -1.93255892e-06 -1.38865598e-05 -3.31294899e-07
      -7.83056821e-05 -0.000239648289 -0.00017717127 4.24051714
      0.841984332 -0.0023022953 2.37709785 -0.000139301279
      -0.000909478636 -0.000596540049 -0.00373488897 0.234714448
      -9.62009835e-06 0.214416206 2.18734169 -9.57769589e-06
      -4.42716155e-05 -1.16441897e-05 0.128001764 -0.000161982156
      -0.0119483899 -0.00108411128 -8.91835007e-05 -0.000728032843
      -0.000255068793 -4.63090873e-05 -0.00651131151 -0.000173561508
      -0.000110410467 -0.000488346501 -0.00133925199 -0.000278506399
      0.196846351 -0.00146826205 -0.000385420019 3.61571479 0.500162363
      -0.0107750101 -0.0015093158 -3.25444817e-05 -2.30188675e-06
      -0.00809431914 1.3257829 -0.0163738206 -0.0285617057 -0.0031732698
      -4.63936485e-05 -0.00410387246 -0.000632107549 -0.000396697986
      -0.000703339465 2.26128221 -0.0181272309 -3.66477798e-05
      -2.79314136e-05 -1.48259332e-05 -0.00410161586 -0.00140483654
      -0.00066841481 4.91454697 -0.00161200354 -9.12510804e-05
      -2.48423771e-06 -0.00113577745 -1.85724639e-05 -0.000639963604
      1.51473427 -0.00140626251 -7.79885431e-06 -2.41655584e-07
      -0.000288348558 1.42090881 -0.0109949308 -0.000427161809
      -0.00128396682 0.109208867 -6.55256372e-06 -0.00722630974
      -0.00415787334 -0.00037978086 -0.00419034343 -0.00551601592
      3.12604713 -0.017577922 -0.000672545866 -0.0081140399
      -0.00513433618 -0.00193601067 -4.40105468e-05 -0.00696950173
      2.76613593 -9.61562705e-07 -9.27387082e-05 -0.000930136361
      4.13235092 -9.73623755e-05 -2.94982401e-05 -0.000355096039
      0.69845444 -0.00144085125 -0.0115384758 -1.29860646e-05
      -4.48220344e-05 -0.000594403537 -5.67127358e-07 -1.97863642e-06
      -0.000148850042 -4.00666504e-05 -0.00708483066 -8.22345555e-06
      -0.0054504443 -0.000568082789 -0.00618508086 -0.00915938616
      -0.00205429224 -0.0165468752 -0.0179873314 -0.00213454198
      -1.61124589e-08 0.00765928626 0.0534871258 -7.40223259e-05
      -5.37090746e-05 0.39836514 0.32042563 0.483865738 -9.13804232e-09
      -0.000191496612 0.538219213 -3.07918731e-06 -2.41027998e-08
      0.346713006 0.667203546 -0.000182991513 0.165570825 -0.00315011339
      -1.08837206e-08 0.240693063 -2.25741023e-05 -0.000128422282
      -2.7294368e-06 -2.93240646e-06 -0.000172891683 0.274490327
      -0.00207587029 -0.000966210209 -1.20497441e-06 -0.00170596829
      -4.17512001e-06 -0.00270551746 0.628211617 0.41434449 0.418403059
      -0.00228573848 0.178356022 0.163241073 -2.91211145e-05
      -0.000396376126 0.252942681 0.555306792 0.447868764
      -0.000184410252 0.480347693 0.367907435 -0.000870636839
      -0.00277292402 0.0941753089 -0.00183204503 0.448359132
      -0.00115826703 -1.40791453e-05 -0.00338385184 0.315647215
      -0.00414123759 -0.0029583096 -0.000125678678 -2.77272761e-06
      0.145400524 -2.09113097e-07 -4.24877868e-07 0.207845822
      -0.00145330885 -1.43585348e-05 -1.77067213e-05 -0.000225604192
      -0.000430060813 0.135206312 -4.18522852e-08 -2.90854618e-10
      -4.87322271e-09 -2.28903945e-13 -0.000150098058 -8.19911179e-07
      -2.23279062e-10 -9.32637122e-05 0.10106191 -1.88328395e-05
      -9.68461827e-05 -0.000143096389 -3.88007247e-05 -1.54932713e-05
      0.272328198 -5.98012662e-07 -7.64945889e-06 0.227566093
      -0.000286416122 0.232052788 -7.61753399e-05 0.0158902016
      -0.000898638507 0.0846414566 -5.4766673e-08 0.112759054
      -1.8856083e-06 -0.000120031684 -3.35695108e-06 -7.96222594e-07
      -0.000209761143 -2.17732861e-07 -3.49679431e-06 0.268378615
      -5.14536991e-09 -6.80043688e-10 -1.27474031e-08 -7.70887965e-10
      0.136562064 0.308160454 -2.35562093e-05 0.18653138 -8.98724393e-05
      -1.19013466e-09 -1.38848222e-07 -4.10533612e-05 -3.40968698e-09
      -0.000624395732 -0.000128899235 -1.14909193e-10 -3.02427611e-06
      -0.000240902518 -0.000296059763 -1.46766212e-07 -0.000202840616
      -9.85957982e-09 -2.89336149e-05 -0.000101448684 -6.08133769e-06</_>
    <_>
      -1.30101109 -3.53559017 -0.00528694689 -0.0150459306
      -5.10956006e-08 -0.000132695408 -0.0105700511 -0.000391513313
      -0.00140287518 -1.68792462e-06 -1.32264167e-05 -3.22565057e-07
      -7.38092276e-05 -0.000226728051 -0.000176114394 4.07590055
      1.05641305 -0.00224270415 2.19596744 -0.000134614529
      -0.000880357111 -0.000574717415 -0.00360279973 0.322774351
      -9.15132296e-06 0.463504702 2.40782428 -9.48395427e-06
      -4.32065353e-05 -1.07696378e-05 0.121875972 -0.00015521959
      -0.00972309522 -0.00107813138 -8.4920488e-05 -0.000693455222
      -0.000250872457 -4.41202901e-05 -0.00533232931 -0.000165959354
      -0.000102894628 -0.000463520206 -0.0012945442 -0.000276112201
      0.221216127 -0.00141547772 -0.000387002743 3.26604605 0.600562692
      -0.00851427391 -0.00143836089 -0.000103669314 -2.1443941e-06
      -0.00789762102 1.34762716 -0.0158607569 -0.025617959
      -0.00310557988 0.0853634998 -0.00398364943 -0.000574928126
      -0.000379741192 -0.00065951288 2.43771672 -0.0155966096
      -3.71150891e-05 -2.65784602e-05 -1.38463447e-05 -0.00397874927
      -0.00139096822 -0.000670565118 4.90237617 -0.00155883981
      -8.68665011e-05 -2.19891467e-06 -0.00113782578 -1.87983078e-05
      0.150515288 1.35570884 -0.00134849339 -7.48798402e-06
      -2.12130175e-07 -0.000272216712 1.36446667 -0.0105682714
      -0.000397763535 -7.18945957e-05 0.121787474 -6.40158123e-06
      -0.00702766469 -0.00392254721 -0.00036319744 -0.00398061611
      -0.00533690676 3.47183681 -0.0173249152 -0.000671755406
      -0.00785597507 -0.00498853531 -0.00188362598 -4.1020543e-05
      -0.00680820877 2.98221278 -9.1074287e-07 -9.06726127e-05
      -0.000893339049 3.94579697 -9.15788842e-05 -2.90748885e-05
      -0.000346371933 0.883358777 -0.00134652457 -0.0123231234
      -1.22884403e-05 -4.24371246e-05 -0.000572414254 -5.5393582e-07
      -1.91237314e-06 -0.000144477657 -3.88242515e-05 -0.00705681648
      -8.12300914e-06 -0.00525079248 -0.000552121317 -0.0038188945
      -0.00908422284 -0.00192332489 -0.0165399443 -0.0162675139
      -0.00207560603 -1.61095102e-08 0.00707738101 0.0555695035
      -7.36937436e-05 -5.32468403e-05 0.395800203 0.316099465
      0.486276448 -9.17278609e-09 -0.000191620522 0.544712782
      -3.04727428e-06 -2.42813272e-08 0.343176544 0.666638732
      -0.000182134856 0.158564657 -0.00308087212 -1.08353904e-08
      0.239509121 -2.2607519e-05 -0.000127959953 -2.72697798e-06
      -2.93231483e-06 -0.000186723089 0.269232333 -0.00216752291
      -0.000986641739 -1.2069911e-06 -0.00179059536 -4.18274658e-06
      -0.00267372909 0.623028159 0.410349369 0.422077179 -0.0022900796
      0.177511096 0.156352043 -2.88530846e-05 -0.000395463663
      0.251167774 0.552998006 0.4571383 -0.000185189521 0.479963005
      0.370837539 -0.00079459534 -0.00273390976 0.097788021
      -0.00175629405 0.454031706 -0.00116116763 -1.41382352e-05
      -0.0033822516 0.318973601 -0.00418991735 -0.00295593729
      -0.000125247258 -2.76893593e-06 0.142695457 -2.08980452e-07
      -4.26070102e-07 0.206295505 -0.00144119689 -1.43550051e-05
      -1.76994272e-05 -0.000225727621 -0.000430139189 0.133863777
      -4.1823796e-08 -2.91503016e-10 -4.87074869e-09 -2.28591506e-13
      -0.00015009816 -8.19698471e-07 -2.23294161e-10 -9.32526673e-05
      0.0998367369 -1.88285067e-05 -9.84200597e-05 -0.000143098179
      -3.87948821e-05 -1.54887748e-05 0.274391979 -5.97840994e-07
      -7.64793458e-06 0.229290217 -0.000286706083 0.233769923
