<?xml version="1.0"?>
<opencv_storage>
<opencv_ml_svm>
  <format>3</format>
  <svmType>EPS_SVR</svmType>
  <kernel>
    <type>RBF</type>
    <gamma>0.0050000000000000001</gamma></kernel>
  <C>1.</C>
  <p>0.001</p>
  <term_criteria><iterations>10000</iterations></term_criteria>
  <var_count>258</var_count>
  <sv_total>572</sv_total>
  <support_vectors>
    <_>
      1.66636026 -6.51974201 -0.00546406535 4.54739475 -3.62367203e-08
      -0.000146188206 -0.0103308242 -0.000395931362 -0.00133896258
      -7.49331093e-07 -1.22719548e-05 -3.04871122e-07 -6.18490158e-05
      -0.000193816202 -0.000176983434 -0.0202055816 2.15204263
      -0.00231524906 1.42340255 -0.000128698855 -0.00118000386
      -0.000633819553 -0.00364859868 -0.00570631074 -9.46554701e-06
      2.094491 3.10974431 -1.23774898e-05 -4.15372197e-05
      -1.46336452e-05 0.234980732 -0.000152489825 0.22648032
      -0.00108184153 -7.99666959e-05 -0.000526128511 -0.000271337805
      -4.61137934e-05 0.544371784 -0.000207940946 -0.000110285822
      -0.000577708299 -0.000993396854 -0.000422977115 -0.00091440673
      -0.00132737961 -0.000368237786 2.03872943 3.34733248 1.13797677
      -0.0012802945 -0.00384529727 -2.5878046e-06 -0.00740039442
      -0.0338710211 -0.0180304274 2.41453075 -0.00269041141 1.0377574
      -0.00379883335 -0.000568870688 -0.000627407338 -0.000507549499
      2.54004121 0.474563688 -3.46282613e-05 -3.18806706e-05
      -1.40599786e-05 -0.00469306298 -0.00155291765 -0.000643674575
      1.48363221 -0.00126248074 -8.69091964e-05 -3.19867831e-06
      -0.00104916771 -2.39437595e-05 1.22226048 -0.0199120678
      -0.00105538662 -8.64891081e-06 -2.01547365e-07 -0.000236847322
      -0.0159528013 4.51022863 -0.000454469264 1.62506366 -0.0058913338
      -6.49128606e-06 -0.00943035446 -0.00239754422 -0.00036762128
      -0.00409994135 -0.00702542299 5.63944817 -0.0206963513
      -0.000697046577 2.77886844 -0.00578675931 -0.00193067698
      -4.03809681e-05 -0.00799661502 3.7961607 -1.07369829e-06
      -7.8038247e-05 -0.00106310647 0.602667212 -9.13600161e-05
      -3.43168467e-05 -0.00032919689 1.30268586 -0.00128051185
      -0.0149400728 -1.93874694e-05 -5.81625427e-05 -0.000604513101
      -6.39033544e-07 -3.13639498e-06 -0.000182788368 -3.78559671e-05
      -0.00788441766 -6.77223579e-06 -0.00171048986 -0.000701153418
      0.209183306 -0.00890343543 -0.00290145748 -0.0188849196
      0.627801418 -0.00524386344 -1.86516615e-08 0.548775911 0.623200357
      -6.78829383e-05 -5.3779364e-05 0.578327537 0.0465045422
      0.395160496 -1.03910844e-08 -0.000188615784 0.283893555
      -1.96376868e-06 -3.04469978e-08 0.138167217 0.601337373
      -0.000184437493 0.0799391046 0.404945403 -1.48725627e-08
      0.117296934 -2.56470466e-05 -0.000158562223 -2.26228667e-06
      -3.05866001e-06 0.571443021 -0.00153615978 -0.00288392324
      0.470564455 -1.30829301e-06 -0.00104370259 -4.76281184e-06
      0.080242388 0.250237763 0.587698162 0.461026669 -0.000172518499
      0.332422405 0.551527619 -2.45731408e-05 -0.000334005948
      0.399131387 0.399014562 0.500930607 -0.000242246024 0.476030588
      0.419330835 -0.00016682774 -0.000371937 0.231183335 0.187884212
      0.0955885947 -0.002122598 -1.71230076e-05 -0.00295397732
      0.251820147 -0.00528796203 -0.00228849403 -0.00011230907
      -2.97915176e-06 0.283986092 -2.03383451e-07 -4.8124366e-07
      0.0276626647 0.826079905 -1.39311187e-05 -1.7064629e-05
      -0.000231941784 -0.000455864734 0.0655983388 -3.90703008e-08
      -2.90935137e-10 -4.60299843e-09 -2.04493039e-13 -0.000149198488
      -7.96132838e-07 -2.17807106e-10 -9.20277744e-05 0.0470308512
      -1.83750981e-05 0.000618141145 -0.000142552875 -3.81235477e-05
      -1.5064049e-05 0.391273856 -5.78747347e-07 -7.49192486e-06
      0.319971502 -0.000304541754 0.361827374 -6.699816e-05
      0.00553681329 -0.0010405716 0.0549144223 -5.16699252e-08
      0.0574819222 -2.13497515e-06 -0.000119275879 -3.1600382e-06
      -1.77715265e-06 -0.000216935689 -1.93354893e-07 -3.38047039e-06
      0.398162931 -4.71522643e-09 -6.76575018e-10 -1.37764573e-08
      -7.2403683e-10 0.138044909 0.264832228 -2.28548979e-05 0.216701657
      -8.83507601e-05 -9.657114e-10 -1.31488832e-07 -4.03020713e-05
      -3.24724647e-09 -0.000709366053 -5.73665093e-05 -1.06445644e-10
      -2.93067319e-06 -0.000548614538 -0.000313998986 -1.3768333e-07
      -0.000207386722 -9.3441388e-09 -2.84753332e-05 -0.000125408449
      -5.93046161e-06</_>
    <_>
      1.80691695 -5.84351444 -0.00537154358 4.64491892 -3.63652255e-08
      -0.00014809503 -0.0100160874 -0.000395140494 -0.00125780678
      -7.7836097e-07 -1.2407314e-05 -2.91307714e-07 -5.99938212e-05
      -0.000187345518 -0.000166870814 -0.0213111937 1.76683378
      -0.00228564139 1.78261399 -0.00012488458 -0.00117674354
      -0.000632178097 -0.00363172707 -0.00660709012 -9.22895561e-06
      1.77032983 2.72683668 -1.22490519e-05 -4.11465517e-05
      -1.54254758e-05 0.382861584 -0.000155231639 -0.000664930616
      -0.0010232667 -7.96047025e-05 -0.000524959934 -0.000268078846
      -4.4972021e-05 0.55164963 -0.000198347159 -0.000115131807
      -0.000580919674 -0.000962898834 -0.000436979666 -0.00102084992
      -0.00139055832 -0.000354188145 2.45305014 3.30919051 1.12851632
      -0.00124992186 -0.00370372878 -2.54637916e-06 -0.00735220173
      -0.0336122178 -0.0182498153 2.27711058 -0.00260626082 0.993852854
      -0.00371161266 -0.000615596771 -0.000640634156 -0.000516666623
      2.20542932 0.203369349 -3.45462977e-05 -3.19864484e-05
      -1.35923892e-05 -0.00476852804 -0.00148542831 -0.000649748603
      1.25284278 -0.00120112824 -9.15966448e-05 -3.22938922e-06
      -0.00103623013 -2.39686087e-05 0.877971828 -0.0194301102
      -0.00105332222 -8.72336113e-06 -2.05642891e-07 -0.00025109938
      -0.0148290358 4.57192135 -0.000470757659 1.63475227 -0.00542636868
      -6.31155126e-06 -0.00951875187 -0.00271678064 -0.000363317115
      -0.00421019224 -0.00705835689 5.02157307 -0.0203319546
      -0.000672548893 2.9018333 -0.00575824687 -0.00189863262
      -3.79183584e-05 -0.00798841752 3.36834693 -1.05588799e-06
      -7.19763993e-05 -0.00107346533 0.736641943 -8.8776811e-05
      -3.43542961e-05 -0.000311190757 1.34976923 -0.00130756048
      -0.0130356718 -1.95863577e-05 -5.91092576e-05 -0.0006003413
      -6.43092676e-07 -2.98212012e-06 -0.00018114617 -3.78234363e-05
      -0.00764657697 -6.4983592e-06 -0.00171986455 -0.000668813474
      -0.000813596183 -0.00891774055 -0.00283857272 -0.018969208
      0.449174583 -0.00512840785 -1.87070075e-08 0.568114042 0.601312459
      -6.76338386e-05 -5.21855982e-05 0.603164315 0.0239687115
      0.350337684 -1.0389436e-08 -0.000186708829 0.249688238
      -1.96944939e-06 -3.04819778e-08 0.184370056 0.653277576
      -0.000185047873 0.0908422172 0.496455222 -1.54887552e-08
      0.137900174 -2.56247131e-05 -0.000158269992 -2.27683358e-06
      -3.04739297e-06 0.61570245 -0.00164384022 -0.00272815023
      0.469157279 -1.30535511e-06 -0.00118310144 -4.77029153e-06
      0.0512807593 0.219072282 0.562949419 0.447263002 -0.000267024065
      0.333859444 0.577598274 -2.42357073e-05 -0.000330467505
      0.414382011 0.406566352 0.502784133 -0.000244423893 0.424545407
      0.402731031 -1.37427451e-05 -0.000512064085 0.235193953
      0.199321181 0.0677592158 -0.00220024376 -1.72523432e-05
      -0.00292637455 0.301512837 -0.00519201579 -0.00225771195
      -0.000112899019 -2.98194868e-06 0.292479426 -2.02911068e-07
      -4.82230178e-07 -3.49447123e-06 0.883574963 -1.39319081e-05
      -1.70671465e-05 -0.000231882572 -0.000455907488 0.0662419796
      -3.90791186e-08 -2.90502122e-10 -4.60366012e-09 -2.04612057e-13
      -0.000149195141 -7.96187749e-07 -2.17776797e-10 -9.20306193e-05
      0.0476517677 -1.8376315e-05 0.000759456307 -0.000142549703
      -3.81249629e-05 -1.50654787e-05 0.39032954 -5.78791344e-07
      -7.4923646e-06 0.3191576 -0.000304414658 0.361151397
      -6.71227099e-05 0.00583935902 -0.00103998976 0.0545853078
      -5.16792333e-08 0.0580416247 -2.13444446e-06 -0.000119272554
      -3.1604402e-06 -1.77945469e-06 -0.000216882079 -1.93471237e-07
      -3.38087875e-06 0.397277236 -4.71648276e-09 -6.76526224e-10
      -1.37699416e-08 -7.24160898e-10 0.138909385 0.265942514
      -2.28569297e-05 0.215788275 -8.83524772e-05 -9.66450364e-10
      -1.31505288e-07 -4.03041704e-05 -3.24779559e-09 -0.000708969019
      -5.63096073e-05 -1.06463387e-10 -2.9309474e-06 -0.000545375806
      -0.000313924567 -1.37709876e-07 -0.000207340476 -9.34556343e-09
      -2.84763792e-05 -0.000126175073 -5.93081586e-06</_>
    <_>
      1.8408736 -6.16405058 -0.00586328236 4.61469746 -3.82584062e-08
      -0.000155407382 -0.0108823404 -0.000408705237 -0.00139414635
      -8.18523233e-07 -1.28178863e-05 -3.18467897e-07 -6.78372235e-05
      -0.000200627197 -0.000189053084 -0.0187331662 2.00921273
      -0.00245763408 1.32423604 -0.000130600762 -0.00119747198
      -0.000659726909 -0.00388146751 -0.00600131461 -9.48660818e-06
      1.93097627 2.95890117 -1.14872591e-05 -4.27838932e-05
      -1.47980363e-05 0.0783945322 -0.000164137819 -0.000393863913
      -0.00115191098 -8.2591956e-05 -0.000561978435 -0.000267125404
      -4.8967162e-05 0.543174207 -0.000217032357 -0.000116069452
      -0.000581735629 -0.00107689435 -0.000438258401 -0.000748672639
      -0.00134918524 -0.000386323372 2.04231763 3.27731824 0.940371811
      -0.00137630559 -0.00383931003 -2.34107915e-06 -0.00784446485
      -0.0351378731 -0.0183280576 2.23043752 -0.00288384035 0.941542566
      -0.0040904195 -0.000598176732 -0.000662296196 -0.000528838602
      2.46100426 0.320812643 -3.43013817e-05 -3.33617791e-05
      -1.54124937e-05 -0.00478610676 -0.00164149445 -0.000639175298
      1.64592993 -0.001322706 -9.61470432e-05 -3.16726482e-06
      -0.00103124557 -2.41374946e-05 1.09401965 -0.0191570166
      -0.00112286722 -8.94042023e-06 -2.09961243e-07 -0.000253748207
      -0.0174212065 4.59478331 -0.000448705512 1.55790162 -0.00661993679
      -6.87788634e-06 -0.00963263493 -0.00236999686 -0.000390003348
      -0.00434769783 -0.00705361832 5.34107685 -0.0210847221
      -0.000722838973 2.73969769 -0.00600377377 -0.00206189067
      -4.13203925e-05 -0.00827722251 3.67397809 -1.01743046e-06
      -7.67070378e-05 -0.00105183397 0.694165587 -9.50305403e-05
      -3.40905754e-05 -0.000346044631 1.31924999 -0.00132299704
      -0.014552257 -1.89010007e-05 -6.1841376e-05 -0.000659868703
      -5.96538996e-07 -3.22047231e-06 -0.000195783636 -4.08001579e-05
      -0.00822702143 -7.45657235e-06 -0.00185494032 -0.000745269121
      0.101890169 -0.00912410952 -0.00303316046 -0.0190391578
      0.511242092 -0.00532982685 -1.85489117e-08 0.54712218 0.627693713
      -6.78061551e-05 -5.34377577e-05 0.576585531 0.0655577928
      0.40380758 -1.0313185e-08 -0.000189853992 0.312739313
      -1.95119264e-06 -3.03017167e-08 0.141354755 0.60717988
      -0.000185136189 0.0911032781 0.386518002 -1.47183732e-08
      0.114013433 -2.55363157e-05 -0.000158957104 -2.27621376e-06
      -3.04213904e-06 0.541444659 -0.00140747963 -0.00283307279
      0.47864002 -1.30296451e-06 -0.00102137809 -4.73646924e-06
      0.0902364999 0.262518585 0.599024177 0.468963534 -0.000145270693
      0.319929302 0.560584366 -2.44090461e-05 -0.000335955439
      0.407724112 0.413637787 0.498817772 -0.000239683053 0.49027878
      0.401465237 -0.000425966369 -0.000362304156 0.217877969
      0.169657052 0.111246206 -0.00210853061 -1.7129074e-05
      -0.00297928741 0.229755253 -0.00526283588 -0.00233075558
      -0.000112174945 -2.96164649e-06 0.276130646 -2.02554247e-07
      -4.78864365e-07 0.0276037902 0.815236926 -1.3926644e-05
      -1.70547992e-05 -0.000232119055 -0.00045592463 0.0636712611
      -3.90325745e-08 -2.91945995e-10 -4.59979121e-09 -2.04064589e-13
      -0.000149200816 -7.95858341e-07 -2.1784391e-10 -9.20135208e-05
      0.0452497452 -1.83694392e-05 0.000348225236 -0.000142556979
      -3.8116068e-05 -1.50580699e-05 0.39420706 -5.78525999e-07
      -7.48992716e-06 0.322438568 -0.000304950372 0.364194632
      -6.66502383e-05 0.00476360694 -0.00104280352 0.0555099621
      -5.16291117e-08 0.05583819 -2.1377557e-06 -0.000119279022
      -3.15788475e-06 -1.77791685e-06 -0.000217105073 -1.92933257e-07
      -3.37880078e-06 0.401022971 -4.70964512e-09 -6.7666539e-10
      -1.3797953e-08 -7.23458626e-10 0.136025235 0.261969686
      -2.28458321e-05 0.219028965 -8.83374232e-05 -9.62603663e-10
      -1.31405088e-07 -4.02925471e-05 -3.24496341e-09 -0.000710815482
      -5.94185658e-05 -1.0635208e-10 -2.92945583e-06 -0.000558073574
      -0.000314283214 -1.37565351e-07 -0.000207522695 -9.33763999e-09
      -2.84700691e-05 -0.000123755439 -5.92870674e-06</_>
    <_>
      1.78007758 -6.25677156 -0.0055340291 4.62952423 -3.65249306e-08
      -0.000143216021 -0.0103811901 -0.000393491529 -0.00131758209
      -7.69185533e-07 -1.21875264e-05 -2.98117016e-07 -6.27065529e-05
      -0.000191746047 -0.000179262337 -0.0204365272 2.08073592
      -0.00232181652 1.38916397 -0.000128877684 -0.00116689666
      -0.000633837481 -0.00370420329 -0.0055549955 -9.5090445e-06
      2.058568 3.04347253 -1.24343078e-05 -4.15307004e-05
      -1.48718927e-05 0.21950677 -0.000156076145 0.189305425
      -0.00109112612 -8.03992589e-05 -0.000525078212 -0.000268724543
      -4.62783501e-05 0.475259036 -0.000209297912 -0.000110210349
      -0.000573015946 -0.00101358921 -0.000426814804 -0.000918180624
      -0.00132605911 -0.000372115988 1.98153687 3.36839032 1.07164562
      -0.00130524114 -0.00385374646 -2.57551346e-06 -0.00745643675
      -0.0352071598 -0.0179985259 2.31032753 -0.0027070865 1.02417576
      -0.00385616114 -0.000547616801 -0.000640722632 -0.000516726461
      2.48054147 0.441843301 -3.44689215e-05 -3.18628408e-05
      -1.44837977e-05 -0.00472177099 -0.00156013446 -0.000631149684
      1.36008596 -0.00125067797 -8.66353657e-05 -3.20039999e-06
      -0.00105467229 -2.3887771e-05 1.16355121 -0.0194296595
      -0.00107078336 -8.72266355e-06 -2.17024095e-07 -0.000242128546
      -0.0164768957 4.57369566 -0.000457426882 1.62756813 -0.00588605786
      -6.5537738e-06 -0.00944437459 -0.00238458067 -0.000371155387
      -0.00414122967 -0.00693028094 5.51666164 -0.0208547208
      -0.000680251105 2.80018377 -0.00580127165 -0.00194518059
      -4.0471019e-05 -0.00809624325 3.70414448 -1.03577077e-06
      -7.77785535e-05 -0.00105554261 0.50385052 -9.29907037e-05
      -3.33924763e-05 -0.000336703175 1.22778904 -0.0012848964
      -0.0142780971 -1.94361455e-05 -5.91205171e-05 -0.000609146548
      -6.44863292e-07 -3.12796169e-06 -0.000183514989 -3.81525679e-05
      -0.00800518226 -6.88480714e-06 -0.0017574206 -0.00070664275
      0.185491502 -0.00877139531 -0.00295494846 -0.0188655797 0.63406074
      -0.00515025854 -1.86248403e-08 0.556329429 0.609149098
      -6.76947457e-05 -5.36746848e-05 0.585353851 0.038650386
      0.379032254 -1.03658362e-08 -0.000187656464 0.26558426
      -1.96267683e-06 -3.03913161e-08 0.158107325 0.634056449
      -0.000184903591 0.08443477 0.436053485 -1.50421648e-08 0.128006727
      -2.56107833e-05 -0.000157954317 -2.25379995e-06 -3.04546597e-06
      0.590181291 -0.0016866707 -0.00279769627 0.462672889
      -1.30445085e-06 -0.00110206823 -4.76101422e-06 0.0705038458
      0.250307918 0.572787464 0.449748516 -0.000179865892 0.325978279
      0.556162417 -2.44582188e-05 -0.000334924203 0.398929775
      0.400516719 0.498407602 -0.000242966096 0.452186108 0.415210456
      0.000185415149 -0.000437703042 0.240345284 0.195770785
      0.0770615339 -0.00215379149 -1.71360462e-05 -0.0029534339
      0.277935505 -0.00519482978 -0.00227517844 -0.000112889036
      -2.9729606e-06 0.283073127 -2.04391981e-07 -4.80652716e-07
      0.0187921152 0.852946699 -1.39523427e-05 -1.71010779e-05
      -0.00023146419 -0.000454892608 0.0708172172 -3.92210744e-08
      -2.89447882e-10 -4.61697169e-09 -2.05959002e-13 -0.000149225918
      -7.9735122e-07 -2.17940457e-10 -9.20910752e-05 0.0514999479
      -1.83990996e-05 0.000660013407 -0.000142565506 -3.81577447e-05
      -1.50875449e-05 0.382885933 -5.79732898e-07 -7.50025902e-06
      0.313178867 -0.000303320383 0.353896737 -6.78233991e-05
      0.00702606887 -0.00103242719 0.0550631993 -5.18360217e-08
      0.0617928952 -2.12234499e-06 -0.000119297183 -3.16994988e-06
      -1.74245099e-06 -0.000216440996 -1.94809957e-07 -3.38691007e-06
      0.389509559 -4.73817119e-09 -6.76560363e-10 -1.37095784e-08
      -7.264922e-10 0.140956253 0.270521045 -2.28922527e-05 0.212252796
      -8.84225374e-05 -9.7796915e-10 -1.31864098e-07 -4.03418089e-05
      -3.256168e-09 -0.000704323931 -5.68140458e-05 -1.06873177e-10
      -2.9356695e-06 -0.000524173083 -0.000312966615 -1.38167934e-07
      -0.000207031175 -9.37135258e-09 -2.84987782e-05 -0.000127009975
      -5.93821233e-06</_>
    <_>
      1.73459101 -6.39585161 -0.0053256047 4.26578808 -3.34376935e-08
      -0.000146384395 -0.0100479135 -0.000389422436 -0.00135544024
      -7.72452438e-07 -1.20805798e-05 -2.9824443e-07 -6.10427742e-05
      -0.000197076006 -0.000169077248 -0.0174343009 2.14883208
      -0.00223108171 1.35938525 -0.000127304258 -0.00115587772
      -0.000628313923 -0.00352181727 -0.00565273874 -9.037175e-06
      2.06656075 3.11206031 -1.22514966e-05 -4.00959507e-05
      -1.36577419e-05 0.201835454 -0.000148990846 0.303723663
      -0.0010447324 -7.88911129e-05 -0.00053551473 -0.000270041899
      -4.54317633e-05 0.682374358 -0.000195552537 -0.000109677647
      -0.000568145188 -0.000959666737 -0.000418388838 -0.000569488213
      -0.00126413046 -0.000342246349 1.93983865 3.20567036 1.00909114
      -0.00124341168 -0.003520848 -2.37821769e-06 -0.00717098359
      -0.0314631984 -0.0180336069 2.17739677 -0.00263727224 1.02768648
      -0.00367712369 -0.00057647418 -0.000583931804 -0.000485638011
      2.56480336 0.520172536 -3.45287081e-05 -3.0672807e-05
      -1.4078184e-05 -0.00457204413 -0.00152639463 -0.000640420592
      1.57440269 -0.00124283857 -8.84760593e-05 -3.1412826e-06
      -0.00100925926 -2.38618741e-05 1.26165235 -0.0181915388
      -0.00100410136 -8.55369217e-06 -1.6580816e-07 -0.000233494036
      -0.0150666088 4.24667311 -0.000456078822 1.55489039 -0.00555504719
      -6.39675909e-06 -0.0092158569 -0.00238646986 -0.000359282945
      -0.00408870634 -0.00687949825 5.58307457 -0.0203737319
      -0.000672521652 2.65282273 -0.00555212703 -0.00191692007
      -3.82847502e-05 -0.00780053902 3.79850173 -1.02879619e-06
      -7.39270545e-05 -0.00103934389 0.760949969 -8.84692563e-05
      -3.46348061e-05 -0.000310591218 1.36419475 -0.00125100964
      -0.0147132007 -1.86730904e-05 -5.48918797e-05 -0.000594290963
      -5.80068502e-07 -3.03855518e-06 -0.000179398878 -3.66770691e-05
      -0.00765954889 -6.53595407e-06 -0.00166266388 -0.000684274943
      0.251816422 -0.00877908058 -0.00283524976 -0.0184502006
      0.626875281 -0.00523495534 -1.85944096e-08 0.55697155 0.622658908
      -6.77088392e-05 -5.34583669e-05 0.569760263 0.0523833595 0.3831954
      -1.03474287e-08 -0.00018784804 0.282739073 -1.96133215e-06
      -3.03615941e-08 0.159987569 0.626395643 -0.000185853525
      0.0848526359 0.419397205 -1.50963437e-08 0.122327864
      -2.56051026e-05 -0.000158995317 -2.25108511e-06 -3.04249738e-06
      0.575410664 -0.00156097603 -0.00272990973 0.468224347
      -1.3034221e-06 -0.00110674731 -4.75597017e-06 0.0799849778
      0.259901375 0.578579962 0.456732303 -0.000174249319 0.32596153
      0.54964304 -2.45787269e-05 -0.000334405806 0.399178267 0.409879476
      0.504278123 -0.000242755952 0.46513629 0.409723252 -0.000220710339
      -0.000357888173 0.241835475 0.186027586 0.0948685408
      -0.00214056764 -1.71577212e-05 -0.002958728 0.261713952
      -0.00514506269 -0.00228067441 -0.000112922447 -2.96868438e-06
      0.287639648 -2.03665067e-07 -4.80204505e-07 0.0174372494
      0.842170775 -1.39320755e-05 -1.7070206e-05 -0.000231779821
      -0.000456087146 0.067351386 -3.90879897e-08 -2.89589297e-10
      -4.60410776e-09 -2.04777981e-13 -0.000149184867 -7.96220263e-07
      -2.17693988e-10 -9.20322855e-05 0.0487711281 -1.83772772e-05
      0.00109750032 -0.000142541059 -3.81255813e-05 -1.50669903e-05
      0.388758302 -5.78816696e-07 -7.49274159e-06 0.317766488
      -0.000304209709 0.360190928 -6.73541217e-05 0.00644484162
      -0.00103925983 0.0537755154 -5.1688037e-08 0.0590251237
      -2.13419207e-06 -0.000119262848 -3.16060073e-06 -1.78763992e-06
      -0.00021679404 -1.93631223e-07 -3.38133282e-06 0.395870954
      -4.71762629e-09 -6.76413592e-10 -1.37598573e-08 -7.24258598e-10
      0.140750051 0.268137157 -2.28587633e-05 0.213956937
      -8.83507237e-05 -9.67223857e-10 -1.31514227e-07 -4.03059639e-05
      -3.24838578e-09 -0.000708429783 -5.3801683e-05 -1.064712e-10
      -2.93119888e-06 -0.000539617555 -0.000313830358 -1.37734133e-07
      -0.000207258796 -9.34676159e-09 -2.84769831e-05 -0.000127888648
      -5.93103414e-06</_>
    <_>
      1.71608377 -6.15933752 -0.00512096519 4.45813847 -3.51671936e-08
      -0.000135679831 -0.00968704 -0.000381497783 -0.00127164542
      -6.80432834e-07 -1.177372e-05 -2.81256746e-07 -5.55083243e-05
      -0.000182113625 -0.000160554016 -0.0191728901 1.89380419
      -0.00218585576 1.58924818 -0.000119714547 -0.00113613682
      -0.000601593172 -0.00347149931 -0.00559980609 -8.81404685e-06
      1.89662373 2.85940003 -1.19998485e-05 -3.90853784e-05
      -1.42404806e-05 0.39602682 -0.000146478196 0.269012004
      -0.000971968228 -7.52976266e-05 -0.000506218465 -0.00026292511
      -4.12705704e-05 0.587066054 -0.000188217382 -0.000108607783
      -0.000559485634 -0.000909252791 -0.000405450526 -0.000850303331
      -0.00132257305 -0.000341807143 2.17701387 3.26507473 1.17373741
      -0.00117033592 -0.00364348618 -2.62670846e-06 -0.007065129
      -0.0319086313 -0.0174280722 2.28215075 -0.00247634342 1.0829941
      -0.00354395434 -0.000553347345 -0.00060834107 -0.00050021772
      2.3326571 0.366657019 -3.37404308e-05 -3.02691569e-05
      -1.24933758e-05 -0.00449541956 -0.00141281646 -0.000632826297
      1.40152919 -0.00117486797 -8.35542887e-05 -3.1403647e-06
      -0.000997225638 -2.30705282e-05 0.997926056 -0.0188276637
      -0.00101349375 -8.29422788e-06 -1.80551751e-07 -0.000241501082
      -0.014352059 4.36227417 -0.000442563585 1.62830961 -0.00492156576
      -6.04347042e-06 -0.00918095931 -0.00255526206 -0.000343306456
      -0.00400256319 -0.00678425003 5.20465851 -0.0197813828
      -0.000643171719 2.75630593 -0.00554010086 -0.00180005573
      -3.60577978e-05 -0.00779531524 3.48902655 -1.01524427e-06
      -7.32175613e-05 -0.00102626521 0.734941602 -8.59277861e-05
      -3.33507451e-05 -0.000296559418 1.34523475 -0.00123880722
      -0.0140683968 -1.90890296e-05 -5.42960261e-05 -0.000538035703
      -6.13688144e-07 -2.88493948e-06 -0.000164970843 -3.57668796e-05
      -0.00732321851 -6.02437831e-06 -0.00176428282 -0.000619523984
      0.0675865039 -0.00863494072 -0.00265252357 -0.0181213338
      0.53349489 -0.00493134325 -1.86474267e-08 0.561466515 0.61315918
      -6.76898053e-05 -5.28876189e-05 0.581486583 0.0384988412
      0.369268596 -1.03759223e-08 -0.000186937934 0.264992476
      -1.9721665e-06 -3.04312344e-08 0.172380269 0.633132279
      -0.000185984914 0.0854365155 0.447030365 -1.52817528e-08
      0.129141659 -2.56252461e-05 -0.00015899718 -2.25618078e-06
      -3.04620244e-06 0.592863083 -0.00157289545 -0.00272020907
      0.465572059 -1.3050103e-06 -0.00115061435 -4.76524156e-06
      0.0702212751 0.242196098 0.571011126 0.452043086 -0.000220284099
      0.328011692 0.557641566 -2.44400417e-05 -0.000332528434
      0.404109031 0.407308698 0.504951298 -0.000244034221 0.44587791
      0.412378579 -0.000110051333 -0.000409102737 0.238732278
      0.194015115 0.0824128985 -0.00216279435 -1.71996489e-05
      -0.00294214091 0.278320789 -0.00515392004 -0.00226094783
      -0.0001128808 -2.97524389e-06 0.293637753 -2.03433075e-07
      -4.81286577e-07 0.0111365169 0.8606233 -1.39274471e-05
      -1.70640451e-05 -0.0002318201 -0.000456420181 0.0669020712
      -3.90600583e-08 -2.89331531e-10 -4.6012758e-09 -2.04557888e-13
      -0.00014917209 -7.95969243e-07 -2.17610707e-10 -9.20192324e-05
      0.0484965295 -1.83725406e-05 0.0013076216 -0.000142532648
      -3.81183418e-05 -1.50627193e-05 0.389616549 -5.78613026e-07
      -7.49112451e-06 0.318384528 -0.00030434996 0.361343741
      -6.73194809e-05 0.00650457665 -0.00104060688 0.0532158762
      -5.16566381e-08 0.0586974174 -2.13684712e-06 -0.000119251818
      -3.15849206e-06 -1.80065513e-06 -0.00021684762 -1.93409662e-07
      -3.38018845e-06 0.396895975 -4.71324091e-09 -6.76344425e-10
      -1.37682878e-08 -7.23773541e-10 0.141293064 0.268286854
      -2.28516074e-05 0.213763744 -8.8333567e-05 -9.64986757e-10
      -1.31436224e-07 -4.02982441e-05 -3.24677552e-09 -0.000709207321
      -5.22966111e-05 -1.06380765e-10 -2.93024573e-06 -0.000541351852
      -0.000314000004 -1.37641607e-07 -0.000207285397 -9.34146005e-09
      -2.84721373e-05 -0.000128641201 -5.92944434e-06</_>
    <_>
      1.70326459 -6.29553032 -0.00541693578 4.48937702 -3.58488101e-08
      -0.000151526241 -0.0101672197 -0.000400955905 -0.00135106384
      -7.46489377e-07 -1.22998781e-05 -2.99225178e-07 -6.10972129e-05
      -0.000191822488 -0.00017032343 -0.0193946958 1.97097385
      -0.00229721097 1.57759345 -0.000126011393 -0.00117398845
      -0.000633531949 -0.00361956935 -0.00600587018 -9.18655405e-06
      1.92362785 2.94486785 -1.21592993e-05 -4.04287348e-05
      -1.43069547e-05 0.311618835 -0.000153320914 0.171099171
      -0.00104601926 -7.95711967e-05 -0.000538107008 -0.000269362587
      -4.55372574e-05 0.639698744 -0.000200840455 -0.000112359776
      -0.000578135136 -0.000975515286 -0.000424674246 -0.000830761797
      -0.00132956833 -0.000355339114 2.18106461 3.24904037 1.06567836
      -0.00126163545 -0.00370081887 -2.48342599e-06 -0.00734373787
      -0.0330856368 -0.0180501342 2.32134151 -0.00265865144 1.00736403
      -0.00377502921 -0.00057997473 -0.000623533386 -0.000506550074
      2.41940022 0.356143773 -3.45915178e-05 -3.17741687e-05
      -1.3801653e-05 -0.00468674581 -0.00152790034 -0.000640619372
      1.50515509 -0.00124882755 -9.07313442e-05 -3.19859782e-06
      -0.00102580257 -2.39824094e-05 1.07602108 -0.0193822477
      -0.001041207 -8.58465228e-06 -1.79242448e-07 -0.000244317373
      -0.0152245378 4.45101881 -0.000457457674 1.58456516 -0.00570898456
      -6.42884561e-06 -0.00944054965 -0.00243865838 -0.00036572924
      -0.00417099334 -0.00697939098 5.34483242 -0.0204140656
      -0.00068033312 2.7640295 -0.00571152382 -0.00192741468
      -3.86426436e-05 -0.00788664725 3.62342715 -1.03794991e-06
      -7.47161321e-05 -0.00105854648 0.757158995 -8.92008466e-05
      -3.44787331e-05 -0.000314916513 1.3800329 -0.00128146552
      -0.0144347018 -1.91174749e-05 -5.78240542e-05 -0.00059758639
      -6.09225424e-07 -3.02795752e-06 -0.000181767115 -3.78140248e-05
      -0.00773894414 -6.65008793e-06 -0.00172673922 -0.000685651379
      0.0935663208 -0.0089019658 -0.0028263533 -0.0186178628 0.534596026
      -0.00521683088 -1.85616571e-08 0.556830943 0.620507419
      -6.78021606e-05 -5.23332965e-05 0.587160587 0.0524653345
      0.387497544 -1.03372084e-08 -0.00018957234 0.296693444
      -1.96486963e-06 -3.03393826e-08 0.150004387 0.624518692
      -0.000185691679 0.0819873214 0.439549088 -1.49459041e-08
      0.114993811 -2.5551426e-05 -0.000159029747 -2.29699936e-06
      -3.04314676e-06 0.569595635 -0.00145087042 -0.00280793128
      0.468525738 -1.30236754e-06 -0.00116115855 -4.74695298e-06
      0.0749279112 0.236980811 0.583770871 0.461486161 -0.000220859176
      0.32265538 0.570166171 -2.42761125e-05 -0.000333684147 0.404532462
      0.404794604 0.514432967 -0.000241654488 0.47329244 0.398917198
      -0.000315367884 -0.000424774218 0.226625308 0.179103017
      0.100823909 -0.00214854348 -1.71809297e-05 -0.00296766264
      0.249319643 -0.00532851368 -0.00231411401 -0.000112914982
      -2.96607618e-06 0.282715142 -2.00962859e-07 -4.7984139e-07
      0.013300702 0.82979244 -1.39161266e-05 -1.70429121e-05
      -0.000232135251 -0.000456824288 0.063466236 -3.89749495e-08
      -2.90674929e-10 -4.59361793e-09 -2.03681744e-13 -0.000149163854
      -7.95305368e-07 -2.17590806e-10 -9.19847516e-05 0.0454507321
      -1.83592656e-05 0.00107879564 -0.000142531251 -3.80998899e-05
      -1.50493788e-05 0.395009518 -5.78076651e-07 -7.48648927e-06
      0.322824329 -0.000305120688 0.36612159 -6.67419954e-05
      0.00534743816 -0.00104535744 0.0536324605 -5.15634753e-08
      0.0558183193 -2.14367742e-06 -0.000119246484 -3.15315492e-06
      -1.81400276e-06 -0.000217162829 -1.92542899e-07 -3.37650727e-06
      0.402328312 -4.70041561e-09 -6.76420919e-10 -1.38097924e-08
      -7.22416016e-10 0.138629332 0.263939261 -2.28307435e-05
      0.217234343 -8.82966997e-05 -9.58035429e-10 -1.31232412e-07
      -4.0276147e-05 -3.24169935e-09 -0.000712201756 -5.41222653e-05
      -1.0615004e-10 -2.92745153e-06 -0.000557787716 -0.000314603152
      -1.37370648e-07 -0.000207523175 -9.32634414e-09 -2.84593807e-05
      -0.000126747706 -5.92521474e-06</_>
    <_>
      1.70247018 -6.00756121 -0.00549216848 4.44610977 -3.72501248e-08
      -0.000141975441 -0.0102670668 -0.000389883149 -0.00130127824
      -7.94089544e-07 -1.19713914e-05 -2.89081726e-07 -6.21182844e-05
      -0.000186173173 -0.000177308582 -0.0184298865 1.95752084
      -0.00230440497 1.36546636 -0.000127502091 -0.00112785469
      -0.000635890116 -0.00367824011 -0.00537153753 -9.25234053e-06
      1.92327464 2.92446494 -1.12538564e-05 -4.08279157e-05
      -1.50956303e-05 0.232069343 -0.000154149049 0.103349328
      -0.00109120563 -7.99693371e-05 -0.000517146254 -0.000255885185
      -4.5507215e-05 0.403987855 -0.000212244573 -0.000108011169
      -0.000563015928 -0.00103161472 -0.000415839779 -0.000756686029
      -0.00131247635 -0.000373148097 1.97989774 3.1911819 1.06983972
      -0.00131785893 -0.00382086425 -2.57469151e-06 -0.00732203526
      -0.0340368524 -0.0176928118 2.2440598 -0.00270413514 0.91911459
      -0.00383508205 -0.000543693663 -0.00064424501 -0.000520853791
      2.40895844 0.345192671 -3.20580257e-05 -3.16071673e-05
      -1.33593821e-05 -0.00465610716 -0.00154756615 -0.000606271147
      1.50702345 -0.0012179293 -8.57832274e-05 -3.30175385e-06
      -0.0010251007 -2.31584181e-05 1.09642434 -0.0183414295
      -0.0010688632 -8.40823395e-06 -2.48196613e-07 -0.000246174139
      -0.0153712826 4.40979242 -0.00046167578 1.52415621 -0.00621328875
      -6.53294728e-06 -0.00931086764 -0.00236264733 -0.000373956922
      -0.00407369714 -0.00682296278 5.29353714 -0.0205725096
      -0.000673592731 2.67754841 -0.00577157969 -0.00190780335
      -4.10289504e-05 -0.00801692437 3.59111142 -1.01726437e-06
      -7.68108002e-05 -0.00102344749 0.58490181 -9.28369045e-05
      -3.28529495e-05 -0.00033983076 1.10838377 -0.00128107297
      -0.0143325329 -1.91769377e-05 -5.93435689e-05 -0.000615730358
      -6.29535577e-07 -3.06819697e-06 -0.000180382238 -3.78559489e-05
      -0.00775206788 -6.82271229e-06 -0.00176788773 -0.000705026614
      0.125586092 -0.00866422057 -0.00297477725 -0.0183747057
      0.565152407 -0.00496591395 -1.85554203e-08 0.565452099 0.645225227
      -6.75103583e-05 -5.35761537e-05 0.567682028 0.0687236786
      0.393677324 -1.03002522e-08 -0.000188185761 0.296341181
      -1.93876713e-06 -3.02925223e-08 0.15259245 0.632350504
      -0.000186018238 0.0951986834 0.381379694 -1.48302783e-08
      0.112591386 -2.55496889e-05 -0.000158769748 -2.20662378e-06
      -3.03430875e-06 0.553259611 -0.00156353496 -0.00261211698
      0.475817502 -1.30112369e-06 -0.000960910402 -4.74570197e-06
      0.0948593244 0.293778062 0.586359262 0.467839509 -3.46793349e-05
      0.318178475 0.53621757 -2.47228436e-05 -0.000334768469 0.402289659
      0.429684669 0.490435809 -0.000240421665 0.473196268 0.401046932
      -0.000402678997 -0.000295122183 0.249324724 0.173116922
      0.103228733 -0.00212014606 -1.71065185e-05 -0.00297433464
      0.237830907 -0.00492958585 -0.00229639001 -0.000112773887
      -2.96233497e-06 0.277011007 -2.04039239e-07 -4.7913818e-07
      0.02907525 0.82381165 -1.39431759e-05 -1.7090757e-05
      -0.000231476864 -0.000455679372 0.0706537068 -3.91709669e-08
      -2.88327112e-10 -4.61159555e-09 -2.05627589e-13 -0.000149193569
      -7.96869699e-07 -2.17718663e-10 -9.20660241e-05 0.0516908541
      -1.83902448e-05 0.00130206347 -0.000142542965 -3.81436512e-05
      -1.50799897e-05 0.383563638 -5.79341474e-07 -7.49726723e-06
      0.313495725 -0.000303465931 0.355564058 -6.79067016e-05
      0.00754389912 -0.00103464338 0.0534139425 -5.17789225e-08
      0.0617891103 -2.12750297e-06 -0.000119268683 -3.16582873e-06
      -1.7740158e-06 -0.000216490138 -1.94471923e-07 -3.38491714e-06
      0.390628338 -4.73014117e-09 -6.76345868e-10 -1.3719764e-08
      -7.25584703e-10 0.143253535 0.272269458 -2.28791268e-05
      0.210661471 -8.83870089e-05 -9.7399766e-10 -1.31713705e-07
      -4.03275371e-05 -3.25333116e-09 -0.000705524813 -5.21585534e-05
      -1.06697144e-10 -2.93392554e-06 -0.000523842173 -0.000313244265
      -1.37998541e-07 -0.000207030476 -9.36152134e-09 -2.84894668e-05
      -0.000129643784 -5.93517143e-06</_>
    <_>
      1.70252872 -6.31775522 -0.00548329065 4.44724464 -3.54310359e-08
      -0.000141058117 -0.0102202715 -0.000390415196 -0.00125865557
      -7.00515955e-07 -1.19706365e-05 -2.93583128e-07 -5.97992184e-05
      -0.000184290591 -0.000175064837 -0.0194572769 2.00556445
      -0.00227784878 1.33409262 -0.000125919454 -0.00111379731
      -0.000621907937 -0.00361478887 -0.00568647031 -8.95985067e-06
      1.97165883 2.9661901 -1.21014646e-05 -3.94405106e-05
      -1.3737168e-05 0.193407476 -0.000150956505 0.130316064
      -0.00107295613 -7.70125553e-05 -0.00052503089 -0.000265599694
      -4.39552241e-05 0.646403193 -0.000196339097 -0.000107338317
      -0.000565779745 -0.000986627652 -0.000398249249 -0.000861153705
      -0.00128203956 -0.000355590048 1.96289027 3.20354748 1.02447808
      -0.00126108655 -0.00370591017 -2.45994556e-06 -0.0073067802
      -0.032897938 -0.0174789373 2.31115961 -0.00266676419 1.02338016
      -0.0037977777 -0.000552284357 -0.000612957869 -0.00050576881
      2.42572618 0.419238627 -3.38288592e-05 -3.0692474e-05
      -1.34570128e-05 -0.00460695708 -0.00150555919 -0.000623741653
      1.4534024 -0.00122559746 -8.74224716e-05 -3.07077676e-06
      -0.000990305911 -2.30435253e-05 1.1264689 -0.0191430915
      -0.00102986535 -8.5665597e-06 -1.49225059e-07 -0.000245343341
      -0.0158185437 4.4924531 -0.000438962015 1.52923322 -0.00513439626
      -6.5856384e-06 -0.00937787071 -0.00233364687 -0.000361993181
      -0.00407267781 -0.00666332338 5.37548542 -0.0203436632
      -0.000670740963 2.76612163 -0.00564842904 -0.00189000869
      -3.64781008e-05 -0.00790794473 3.61993384 -9.46654609e-07
      -7.44264471e-05 -0.00102363911 0.615191758 -8.90865922e-05
      -3.3143293e-05 -0.000327436399 1.29569805 -0.00126599497
      -0.0150351869 -1.8741548e-05 -5.49315155e-05 -0.000591817079
      -5.6855032e-07 -3.04569448e-06 -0.000173100008 -3.72734394e-05
      -0.00774262194 -6.68727125e-06 -0.0017014828 -0.000679418969
      0.152169287 -0.00855714269 -0.00278890971 -0.018153606 0.580186307
      -0.00506865 -1.86529121e-08 0.567993701 0.617208302
      -6.76578056e-05 -5.26500298e-05 0.592131972 0.03715083 0.368783295
      -1.03713012e-08 -0.000186375488 0.259476334 -1.97481631e-06
      -3.04339665e-08 0.181311563 0.63930285 -0.000185968122 0.089277491
      0.453359246 -1.5378582e-08 0.132009953 -2.56068488e-05
      -0.000159086892 -2.27084979e-06 -3.04221976e-06 0.599822998
      -0.00155036582 -0.00265563442 0.466830075 -1.30467652e-06
      -0.00110337336 -4.76482364e-06 0.0670580938 0.242729381
      0.568568945 0.451898366 -0.000211096121 0.32982862 0.553042352
      -2.44028124e-05 -0.000331016898 0.410206825 0.417358249
      0.506117105 -0.000244104522 0.436034203 0.410481542
      -0.000168393395 -0.00042677141 0.233087867 0.192936659 0.084890008
      -0.00216906518 -1.7227012e-05 -0.0029361099 0.277769327
      -0.00506273191 -0.00225202553 -0.000113165057 -2.9746343e-06
      0.297395676 -2.0350538e-07 -4.81391623e-07 0.00838418305
      0.85571152 -1.39357171e-05 -1.70763324e-05 -0.000231702448
      -0.000455911708 0.0681977272 -3.91135018e-08 -2.89375746e-10
      -4.60648986e-09 -2.05022346e-13 -0.000149190062 -7.96428253e-07
      -2.1772073e-10 -9.20431048e-05 0.0494878292 -1.8381359e-05
      0.00108871609 -0.000142543635 -3.81314348e-05 -1.50709611e-05
      0.387388468 -5.78984952e-07 -7.49415722e-06 0.316662759
      -0.000304009183 0.358870924 -6.7485249e-05 0.0066725947
      -0.00103789323 0.053839501 -5.17161922e-08 0.0597211123
      -2.13203225e-06 -0.000119266966 -3.16229762e-06 -1.78130108e-06
      -0.000216713059 -1.93874016e-07 -3.38241921e-06 0.394447565
      -4.72151873e-09 -6.76416145e-10 -1.37488199e-08 -7.24676263e-10
      0.141164452 0.269013345 -2.28651024e-05 0.213277578 -8.8363151e-05
      -9.69295866e-10 -1.31578346e-07 -4.03127124e-05 -3.2498928e-09
      -0.000707587635 -5.38252825e-05 -1.0654435e-10 -2.93204653e-06
      -0.000535681786 -0.00031365722 -1.37816343e-07 -0.000207201447
      -9.35138633e-09 -2.84809867e-05 -0.000128083659 -5.93235654e-06</_>
    <_>
      1.62812912 -6.3270545 -0.00525967963 4.36783028 -3.5369272e-08
      -0.000145043741 -0.00990790036 -0.000386622851 -0.00130364299
      -7.19438958e-07 -1.20619334e-05 -2.94909484e-07 -5.8166388e-05
      -0.000185255994 -0.000162685174 -0.0190470535 1.91667187
      -0.00223774347 1.63040137 -0.000121997575 -0.00115464325
      -0.000616771926 -0.00352387689 -0.00591325993 -8.81828873e-06
      1.87969708 2.89762235 -1.16668043e-05 -3.99251803e-05
      -1.43715361e-05 0.381713718 -0.000147921892 0.212070405
      -0.00100341847 -7.70469342e-05 -0.000527286087 -0.000264492148
      -4.33535679e-05 0.656130731 -0.000192418505 -0.000110977409
      -0.000568689138 -0.000927997462 -0.000417374773 -0.000904349959
      -0.00132566004 -0.000349533337 2.20654535 3.16922688 1.09186757
      -0.00120124745 -0.00365974684 -2.42341594e-06 -0.00719083613
      -0.0315182246 -0.0177606065 2.33824015 -0.00256068679 1.01229823
      -0.00365310791 -0.000575767132 -0.000611204887 -0.000500963826
      2.38196087 0.328523487 -3.40841252e-05 -3.11339281e-05
      -1.32010855e-05 -0.00457385881 -0.00146536331 -0.000640018145
      1.5177424 -0.00122113212 -8.85376066e-05 -3.08599647e-06
      -0.00100195594 -2.32423135e-05 1.04443288 -0.0192443077
      -0.00101652707 -8.46145031e-06 -1.78881663e-07 -0.000242981085
      -0.0143441409 4.36035824 -0.000438842719 1.55977821 -0.00542538799
      -6.25917164e-06 -0.00928013027 -0.00243674894 -0.000351691211
      -0.00407021074 -0.00686884765 5.26771069 -0.0199704804
      -0.000673556235 2.73029256 -0.00557904411 -0.00187009422
      -3.69600239e-05 -0.00766705256 3.56770873 -1.02713432e-06
      -7.07424479e-05 -0.0010357881 0.804528296 -8.60598957e-05
      -3.43346437e-05 -0.000302160159 1.41359293 -0.001242831
      -0.0145259667 -1.88172944e-05 -5.59231194e-05 -0.000571650569
      -5.96813379e-07 -2.96033409e-06 -0.000174278131 -3.67650246e-05
      -0.00744676264 -6.35363449e-06 -0.00169768056 -0.000648889574
      0.0637368634 -0.00881316327 -0.00269708131 -0.0184152592
      0.496356249 -0.00509075215 -1.85565376e-08 0.550086379 0.617399156
      -6.78189899e-05 -5.28835662e-05 0.591184258 0.0568695441
      0.400073051 -1.0325401e-08 -0.000189403814 0.305263668
      -1.96279984e-06 -3.03244043e-08 0.147776335 0.617047548
      -0.00018526327 0.0847669095 0.422011584 -1.4820607e-08 0.115774542
      -2.55394643e-05 -0.00015892167 -2.3001071e-06 -3.04104697e-06
      0.562023699 -0.00145046331 -0.00283653382 0.470682263
      -1.30324895e-06 -0.0011014539 -4.73973341e-06 0.0805762485
      0.243092671 0.590156674 0.466258496 -0.000207179983 0.319153219
      0.565654457 -2.4318646e-05 -0.000334126351 0.406362861 0.408132613
      0.510748506 -0.000240820256 0.473125219 0.404250771
      -0.000364681764 -0.000427282823 0.217566073 0.174814105
      0.102106467 -0.00213390426 -1.71560459e-05 -0.0029714941
      0.24439019 -0.00533026224 -0.00232021185 -0.000112708469
      -2.96440862e-06 0.281320453 -2.01759576e-07 -4.79240214e-07
      0.0203943402 0.822981656 -1.39158556e-05 -1.7046259e-05
      -0.000232005157 -0.000457094371 0.0648679286 -3.89835897e-08
      -2.89453461e-10 -4.59390215e-09 -2.0387545e-13 -0.000149149069
      -7.95321284e-07 -2.17473747e-10 -9.1985552e-05 0.0468851477
      -1.83600223e-05 0.00154444948 -0.000142519057 -3.809993e-05
      -1.50509022e-05 0.393047094 -5.78088134e-07 -7.48681077e-06
      0.321071386 -0.000304867455 0.364991665 -6.70411973e-05
      0.00614686683 -0.00104454637 0.0525100529 -5.15716501e-08
      0.057068646 -2.1436274e-06 -0.000119232616 -3.15314173e-06
      -1.82605811e-06 -0.000217053384 -1.9272855e-07 -3.37697975e-06
      0.400600493 -4.70144412e-09 -6.76266876e-10 -1.37975205e-08
      -7.22492288e-10 0.141098469 0.266826957 -2.28323806e-05
      0.214815155 -8.82925815e-05 -9.58809476e-10 -1.31235836e-07
      -4.02776714e-05 -3.24230087e-09 -0.000711579458 -5.06736869e-05
      -1.06150651e-10 -2.92767913e-06 -0.000550439639 -0.000314497913
      -1.37392547e-07 -0.000207419173 -9.32734867e-09 -2.84596517e-05
      -0.000129072723 -5.92533115e-06</_>
    <_>
      1.64039195 -6.08229303 -0.00514942035 4.41702938 -3.64121533e-08
      -0.000131546389 -0.00961636472 -0.000394224102 -0.0012303018
      -7.11796645e-07 -1.1674143e-05 -2.72501609e-07 -5.50012737e-05
      -0.000178763861 -0.000159962394 -0.0198001396 1.7123276
      -0.00221682875 1.67290485 -0.00011739388 -0.0011077706
      -0.000590983778 -0.00351506355 -0.00592296571 -8.55342387e-06
      1.74955261 2.67959952 -1.17252912e-05 -3.82651378e-05
      -1.45192043e-05 0.496506423 -0.000147606333 0.112632647
      -0.000946315005 -7.39518437e-05 -0.000507504446 -0.000253136997
      -4.00946337e-05 0.59131217 -0.00018901458 -0.000107250824
      -0.00055515283 -0.000894992903 -0.000384805637 -0.00113210001
      -0.00135312788 -0.000341241277 2.2614212 3.13888907 1.17342305
      -0.0011716279 -0.00378707843 -2.72094735e-06 -0.0071313628
      -0.0319015346 -0.0168915857 2.29840875 -0.00245071505 1.02125919
      -0.0035975161 -0.00053736585 -0.000631973555 -0.000516580942
      2.15862751 0.209691197 -3.34147444e-05 -3.09399729e-05
      -1.21904695e-05 -0.00445400691 -0.00138865749 -0.000633471587
      1.3752265 -0.00115451042 -8.42378795e-05 -3.09208826e-06
      -0.000988371554 -2.25828226e-05 0.86289376 -0.0184398163
      -0.00103030459 -8.18501758e-06 -1.92750775e-07 -0.000255154184
      -0.0141297476 4.38035679 -0.000429348671 1.52646434 -0.00478262221
      -6.09669087e-06 -0.0091634877 -0.00244155736 -0.000341875217
      -0.00402381457 -0.00667115394 4.935112 -0.0194219369
      -0.00063998939 2.77497649 -0.00555514544 -0.00178751582
      -3.57386671e-05 -0.00764033757 3.29704499 -9.97792313e-07
      -7.15734714e-05 -0.00100565376 0.713169515 -8.35653482e-05
      -3.21115513e-05 -0.000298494677 1.41654968 -0.00123248296
      -0.0137664555 -1.88119138e-05 -5.51984631e-05 -0.00052660075
      -6.18624256e-07 -2.8170025e-06 -0.000161243704 -3.62813153e-05
      -0.00726277055 -6.06119966e-06 -0.00179505139 -0.000599770341
      -0.000672468741 -0.00847782381 -0.00259130076 -0.0180767197
      0.443706036 -0.00471945992 -1.86575608e-08 0.564180851 0.614364445
      -6.76932032e-05 -5.35181789e-05 0.581979156 0.0382636078
      0.371959031 -1.03927267e-08 -0.000186781952 0.261561185
      -1.97253189e-06 -3.04661114e-08 0.161941737 0.6331352
      -0.000185186378 0.084117353 0.441866964 -1.51425485e-08 0.12798655
      -2.56319308e-05 -0.000158160343 -2.25543295e-06 -3.0496642e-06
      0.592408478 -0.00163706078 -0.00272766547 0.464456618
      -1.30664876e-06 -0.0010784443 -4.76954847e-06 0.0704862773
      0.248542905 0.566856742 0.44871822 -0.000176943897 0.329178214
      0.55611366 -2.44540242e-05 -0.000332431984 0.400935292 0.402841181
      0.495264798 -0.000243243296 0.446899831 0.412123173
      -5.57410713e-05 -0.000440479576 0.240612313 0.194788635
      0.0775616318 -0.00215364271 -1.71587562e-05 -0.00294082356
      0.276004285 -0.00512781274 -0.00226029614 -0.000112902395
      -2.97893803e-06 0.288820922 -2.04255187e-07 -4.81812606e-07
      0.0148570836 0.852541685 -1.39412195e-05 -1.70878193e-05
      -0.000231505837 -0.000455797272 0.0703345984 -3.91582446e-08
      -2.88327084e-10 -4.61035921e-09 -2.05516051e-13 -0.000149189436
      -7.96760901e-07 -2.17693669e-10 -9.20603707e-05 0.0514437705
      -1.83881493e-05 0.00135014579 -0.000142540463 -3.81405516e-05
      -1.50780261e-05 0.384108305 -5.79253367e-07 -7.49654646e-06
      0.313918531 -0.000303548761 0.356159985 -6.7864974e-05
      0.00749752671 -0.00103529263 0.0532750785 -5.17647543e-08
      0.0615357608 -2.12864256e-06 -0.000119265213 -3.16492856e-06
      -1.77848267e-06 -0.000216522894 -1.9436041e-07 -3.38438508e-06
      0.391223371 -4.72817341e-09 -6.76330492e-10 -1.37244802e-08
      -7.25370486e-10 0.143263638 0.272072971 -2.28759181e-05
      0.210796565 -8.83800458e-05 -9.72971259e-10 -1.31680039e-07
      -4.03241029e-05 -3.25258842e-09 -0.000705913582 -5.18244851e-05
      -1.06658432e-10 -2.93349763e-06 -0.000525247306 -0.000313326251
      -1.37957016e-07 -0.000207051227 -9.35916411e-09 -2.84873695e-05
      -0.000129756736 -5.93448112e-06</_>
    <_>
      1.55792832 -6.70339155 -0.0053519737 4.46520805 -3.44762299e-08
      -0.000135200491 -0.0100618452 -0.000380304002 -0.00126898999
      -6.23931385e-07 -1.18679682e-05 -2.96937372e-07 -5.70406191e-05
      -0.000181593103 -0.000168680024 -0.0195085239 1.98064029
      -0.00223240303 1.3965199 -0.000121504978 -0.00112549157
      -0.000609372451 -0.00352059142 -0.0055377339 -8.67960171e-06
      1.95445335 2.94479728 -1.16572546e-05 -3.85163294e-05
      -1.35421878e-05 0.257251054 -0.000147159168 0.213101074
      -0.00104265439 -7.46551013e-05 -0.000515011721 -0.000264962233
      -4.20622237e-05 0.740711153 -0.000188918217 -0.000106213185
      -0.000554337166 -0.000946616754 -0.000397552329 -0.000680677884
      -0.00128829642 -0.000349988259 1.98484051 3.16640973 1.16725814
      -0.00120440242 -0.00368021685 -2.46209197e-06 -0.00717466278
      -0.0320138931 -0.0173678119 2.46329689 -0.00259345933 1.07494771
      -0.00369450264 -0.000550377648 -0.000603731547 -0.000489926082
      2.40736794 0.44112286 -3.39814251e-05 -2.98247523e-05
      -1.26452369e-05 -0.0045364676 -0.00147160422 -0.000633753894
      1.52023208 -0.00122056657 -8.45921313e-05 -2.9578423e-06
      -0.000976537762 -2.29565812e-05 1.12431848 -0.0199187584
      -0.00100673526 -8.44454007e-06 -1.31420251e-07 -0.000240999754
      -0.0149389943 4.43347597 -0.00042346507 1.5557642 -0.00512459269
      -6.47383195e-06 -0.00929228682 -0.00232014968 -0.000349740701
      -0.00403004233 -0.00675437413 5.36579037 -0.0200725291
      -0.000669466099 2.74412012 -0.00560853723 -0.0018425578
      -3.44714936e-05 -0.00788241532 3.61242247 -9.52595371e-07
      -7.25157079e-05 -0.00102300534 0.648142576 -8.72609526e-05
      -3.31424162e-05 -0.000314601464 1.46170843 -0.00123140961
      -0.0155272279 -1.85192002e-05 -5.25154828e-05 -0.000566502335
      -5.51481492e-07 -3.03566367e-06 -0.000166866186 -3.63639083e-05
      -0.00755357835 -6.43378326e-06 -0.00167171052 -0.000652609277
      0.134489447 -0.00864473265 -0.00266148266 -0.0180970561 0.56493932
      -0.00506262062 -1.8631928e-08 0.56041944 0.626790226
      -6.77395801e-05 -5.32013255e-05 0.582357407 0.0593804158
      0.392074227 -1.03651745e-08 -0.00018789756 0.287111253
      -1.96430619e-06 -3.04161674e-08 0.157027021 0.628685236
      -0.000186208927 0.0837977827 0.422455937 -1.51038027e-08
      0.114768296 -2.55623436e-05 -0.000158884315 -2.26577936e-06
      -3.04602463e-06 0.574145138 -0.00148170558 -0.00261075096
      0.470224559 -1.30523847e-06 -0.0010855993 -4.75888555e-06
      0.0783017427 0.25714609 0.582486749 0.461711168 -0.000183576951
      0.323049963 0.546917975 -2.45925621e-05 -0.000332291529
      0.403123409 0.41681096 0.506085336 -0.000242189533 0.46530962
      0.406301856 -0.000371579808 -0.000346327201 0.241977751
      0.180297062 0.100704089 -0.00213865028 -1.7175289e-05
      -0.00294937007 0.25120911 -0.00510029774 -0.00228162366
      -0.000112941205 -2.96978078e-06 0.29136014 -2.03372323e-07
      -4.80975928e-07 0.0204859003 0.830894887 -1.39279055e-05
      -1.7065775e-05 -0.000231776095 -0.000456463022 0.0673788339
      -3.90659238e-08 -2.88992691e-10 -4.60169369e-09 -2.04642008e-13
      -0.000149169122 -7.96003349e-07 -2.17585061e-10 -9.20210005e-05
      0.0489617586 -1.83733209e-05 0.00142242014 -0.000142529956
      -3.81192003e-05 -1.50636788e-05 0.38892293 -5.78640254e-07
      -7.49141009e-06 0.317782789 -0.000304257177 0.360864848
      -6.74136973e-05 0.00673778355 -0.00104020478 0.052946005
      -5.16627736e-08 0.0591140091 -2.13652402e-06 -0.000119248922
      -3.15873376e-06 -1.80280244e-06 -0.000216808316 -1.93491616e-07
      -3.38046448e-06 0.396252692 -4.71406425e-09 -6.76305456e-10
      -1.37635832e-08 -7.238532e-10 0.141970992 0.26913929
      -2.2852937e-05 0.2130595 -8.83343309e-05 -9.65481584e-10
      -1.3144637e-07 -4.02996084e-05 -3.247145e-09 -0.000708928565
      -5.14406311e-05 -1.06391534e-10 -2.93042558e-06 -0.000538933091
      -0.000313948374 -1.37659015e-07 -0.00020725088 -9.34238287e-09
      -2.84727867e-05 -0.000129251639 -5.92966535e-06</_>
    <_>
      1.73764563 -6.15812731 -0.00569841685 4.49472761 -3.78941891e-08
      -0.000155937974 -0.0106571717 -0.000420579308 -0.00135803502
      -8.57772932e-07 -1.27807098e-05 -3.07239276e-07 -6.50303627e-05
      -0.000201381816 -0.000184156626 -0.019211391 1.97883546
      -0.00242376723 1.56896436 -0.00013149732 -0.00120277097
      -0.000665250584 -0.003830906 -0.00618106173 -9.64034007e-06
      1.90358353 2.95012736 -1.23873642e-05 -4.20344513e-05
      -1.52817393e-05 0.312489897 -0.000162423865 0.00724710617
      -0.00109915959 -8.37259358e-05 -0.000560972141 -0.000269603595
      -4.77770409e-05 0.519745409 -0.000217208537 -0.000116757168
      -0.000590139243 -0.00105231709 -0.000439231953 -0.000972691167
      -0.00137551141 -0.000373357674 2.24459696 3.24937773 1.01938999
      -0.00135725655 -0.00385459443 -2.614815e-06 -0.00768658798
      -0.0336318575 -0.0184578132 2.28402185 -0.00281892135 0.965968311
      -0.00398936542 -0.000600087689 -0.000670226524 -0.000540886715
      2.44152451 0.271263301 -3.43203174e-05 -3.38041573e-05
      -1.44422002e-05 -0.00483779237 -0.00159613602 -0.000650484115
      1.61922371 -0.00129826274 -9.56403383e-05 -3.46518209e-06
      -0.00105496577 -2.39766377e-05 1.0566709 -0.0190578345
      -0.00111835334 -8.82852419e-06 -2.25229954e-07 -0.000261967769
      -0.0156622715 4.45304203 -0.000480299699 1.55638623 -0.00631473353
      -6.74032071e-06 -0.0096388692 -0.00250690989 -0.000388349552
      -0.00433033984 -0.00712613668 5.3481102 -0.0210380387
      -0.000712834648 2.73642516 -0.00597427972 -0.00202478282
      -4.20349461e-05 -0.008142028 3.66014028 -1.07785854e-06
      -7.83545474e-05 -0.0010680753 0.73404336 -9.36796569e-05
      -3.48097092e-05 -0.000336008845 1.37195206 -0.00134926231
      -0.0143858977 -1.97454792e-05 -6.22861116e-05 -0.000650098082
      -6.43543387e-07 -3.15468424e-06 -0.000191289597 -4.02914302e-05
      -0.00798449572 -7.08919515e-06 -0.00187573023 -0.000724342826
      0.0510850474 -0.00906067621 -0.00300066476 -0.0189043153
      0.469439924 -0.00526028965 -1.85700983e-08 0.548602581 0.615156114
      -6.78187134e-05 -5.2958716e-05 0.594004512 0.0574984401 0.39769277
      -1.03266133e-08 -0.000188951075 0.300385505 -1.96701194e-06
      -3.03355101e-08 0.152491435 0.617030799 -0.000185518831
      0.0871882439 0.425014466 -1.4911322e-08 0.117684275
      -2.55448504e-05 -0.000158668379 -2.29655257e-06 -3.03935417e-06
      0.567431986 -0.00143290556 -0.00277617155 0.470569462
      -1.3035085e-06 -0.00109094928 -4.74068656e-06 0.0783094689
      0.242749393 0.591772437 0.46594575 -0.00022202851 0.32216832
      0.568239629 -2.43669674e-05 -0.000333894102 0.40643248 0.40823409
      0.509315491 -0.00024145974 0.467307597 0.408380806 -0.000352478033
      -0.000434564194 0.219353795 0.175257623 0.100504473 -0.00213805889
      -1.71598676e-05 -0.00296700909 0.246714622 -0.00528312661
      -0.00231571053 -0.000112824644 -2.96439885e-06 0.286135167
      -2.02312933e-07 -4.79279265e-07 0.0188598186 0.828557909
      -1.39085187e-05 -1.70339881e-05 -0.000232158534 -0.000457452523
      0.0631891489 -3.89323809e-08 -2.89860941e-10 -4.58910954e-09
      -2.03387031e-13 -0.00014913833 -7.94902803e-07 -2.17417723e-10
      -9.19637969e-05 0.0454685837 -1.8351815e-05 0.00157145038
      -0.000142513643 -3.80881465e-05 -1.5042936e-05 0.395769358
      -5.77749461e-07 -7.48396587e-06 0.32326144 -0.000305266498
      0.367630482 -6.67827262e-05 0.00570375845 -0.00104728318
      0.0523582511 -5.15151157e-08 0.0556899682 -2.14797342e-06
      -0.000119224074 -3.14972522e-06 -1.83902796e-06 -0.00021721443
      -1.92243093e-07 -3.37480128e-06 0.403435588 -4.69362504e-09
      -6.76259271e-10 -1.38195242e-08 -7.21652793e-10 0.140312344
      0.265117496 -2.28196477e-05 0.216136038 -8.8267494e-05
      -9.54652135e-10 -1.31106802e-07 -4.02641053e-05 -3.23927796e-09
      -0.00071326358 -5.05569005e-05 -1.06003366e-10 -2.92597679e-06
      -0.000558226835 -0.000314844627 -1.37227445e-07 -0.000207532721
      -9.31805566e-09 -2.84515972e-05 -0.000128724801 -5.92267088e-06</_>
    <_>
      1.74855638 -6.10012865 -0.00530694332 4.53047657 -3.59699399e-08
      -0.00014261961 -0.00995803718 -0.000394067611 -0.00128915173
      -7.65469281e-07 -1.20769482e-05 -2.86258768e-07 -5.92449942e-05
      -0.000188481165 -0.000167237144 -0.0197807197 1.91197109
      -0.00225931453 1.54055226 -0.000122989222 -0.00114750385
      -0.000621736282 -0.00361172133 -0.00586698344 -9.32398598e-06
      1.89243352 2.85606742 -1.23666814e-05 -4.04919265e-05
      -1.47867831e-05 0.349082261 -0.000152238703 0.132287607
      -0.00101533905 -7.8246303e-05 -0.000516403699 -0.000262690184
      -4.40270451e-05 0.526769161 -0.00020124673 -0.000110816422
      -0.000569149328 -0.000960281526 -0.000419389107 -0.000912261312
      -0.00133677479 -0.000353573938 2.16601419 3.24909449 1.1466738
      -0.00124260481 -0.00374132884 -2.7107385e-06 -0.0072648651
      -0.0332412533 -0.0177265629 2.26634669 -0.00258465367 1.04326856
      -0.00370264263 -0.000574126956 -0.000631666335 -0.000517556211
      2.32757449 0.337207943 -3.38352074e-05 -3.16811311e-05
      -1.32505966e-05 -0.00466473168 -0.00147538108 -0.000633375719
      1.37959945 -0.00120528997 -8.66008122e-05 -3.28613419e-06
      -0.00102619396 -2.34716917e-05 1.01134861 -0.0189599488
      -0.00105631619 -8.51197819e-06 -2.1560983e-07 -0.000246132695
      -0.0149343805 4.42407131 -0.00046559039 1.59521294 -0.00547288638
      -6.24379936e-06 -0.0093424432 -0.00256562233 -0.000360781472
      -0.0041367081 -0.00686324574 5.21115303 -0.0201938525
      -0.000654369069 2.76217628 -0.00571657531 -0.00187828881
      -3.88614935e-05 -0.00797216874 3.50380826 -1.03789478e-06
      -7.58912429e-05 -0.00104320864 0.651678443 -8.84840119e-05
      -3.34675788e-05 -0.000314288278 1.32521653 -0.00128684426
      -0.014028864 -1.9386056e-05 -5.82231696e-05 -0.000579473039
      -6.55504039e-07 -2.98223722e-06 -0.000175627487 -3.72057439e-05
      -0.00760200061 -6.41621909e-06 -0.00177886209 -0.000656717282
      0.0639143065 -0.00865091104 -0.00284321164 -0.018308552
      0.537288845 -0.00507312687 -1.86557667e-08 0.559517145 0.605691612
      -6.77053322e-05 -5.35582658e-05 0.584114671 0.0366092958
      0.366048366 -1.03870521e-08 -0.000185829995 0.256071717
      -1.98137468e-06 -3.04712167e-08 0.183115333 0.635760069
      -0.000185810932 0.0948311538 0.450143546 -1.53424207e-08
      0.134707481 -2.56419498e-05 -0.000158226598 -2.25623239e-06
      -3.04288642e-06 0.590353906 -0.00156077824 -0.00254212995
      0.462559462 -1.3067646e-06 -0.00110757968 -4.76659898e-06
      0.0673073456 0.246205792 0.567709923 0.450734586 -0.00024703957
      0.327464342 0.560522854 -2.44342555e-05 -0.000332379423
      0.404658109 0.406502485 0.49663353 -0.000244152005 0.433147579
      0.41546914 -7.45067009e-05 -0.000450743362 0.234236777 0.186921671
      0.0816563144 -0.00215954473 -1.72020391e-05 -0.00293088099
      0.280012667 -0.00504243793 -0.00225259014 -0.000112909263
      -2.97938868e-06 0.298980713 -2.05055869e-07 -4.81762186e-07
      0.00644667447 0.862331867 -1.39270187e-05 -1.70682433e-05
      -0.000231653525 -0.000456773269 0.0686965585 -3.90706809e-08
      -2.87756763e-10 -4.60159244e-09 -2.04803093e-13 -0.000149152853
      -7.95985216e-07 -2.17458718e-10 -9.20200328e-05 0.0503360778
      -1.83734301e-05 0.00190994516 -0.00014251683 -3.8118269e-05
      -1.50646047e-05 0.387108088 -5.78624281e-07 -7.49150922e-06
      0.316141307 -0.000304026849 0.359910965 -6.7703455e-05
      0.0075334385 -0.00103958754 0.0517630652 -5.1666607e-08
      0.0602993816 -2.13682847e-06 -0.00011923381 -3.1584384e-06
      -1.81638165e-06 -0.000216707849 -1.9364451e-07 -3.38077598e-06
      0.394692093 -4.71448658e-09 -6.76145084e-10 -1.37526541e-08
      -7.23863192e-10 0.144477248 0.272002399 -2.28535882e-05
      0.210649878 -8.8327979e-05 -9.65942992e-10 -1.31439279e-07
      -4.03000668e-05 -3.24752047e-09 -0.000708420761 -4.78363945e-05
      -1.06379988e-10 -2.93052176e-06 -0.000531934202 -0.000313867611
      -1.37668167e-07 -0.000207152116 -9.34265998e-09 -2.84724065e-05
      -0.000131642999 -5.92956667e-06</_>
    <_>
      1.70559323 -6.25866032 -0.0056169522 4.4385581 -3.6232489e-08
      -0.000146246181 -0.0105405208 -0.000392404181 -0.00130252866
      -7.05450759e-07 -1.21810781e-05 -3.09050193e-07 -6.29821152e-05
      -0.000190284059 -0.000182128351 -0.0186024774 2.01961446
      -0.00234745536 1.40222645 -0.000126502302 -0.00114642899
      -0.000632888637 -0.00370835466 -0.00557228969 -8.92041317e-06
      1.95980489 2.98605895 -1.17731142e-05 -4.07103726e-05
      -1.44626729e-05 0.216071457 -0.000157502232 0.0543635637
      -0.00110142515 -7.8766243e-05 -0.0005398629 -0.000264199247
      -4.44818652e-05 0.654886067 -0.000200303708 -0.000112582973
      -0.000560891232 -0.00102126889 -0.000407766143 -0.000843586167
      -0.00131867151 -0.000368347712 2.0462563 3.22253108 1.04970455
      -0.00129731442 -0.00370384287 -2.41576913e-06 -0.00751562044
      -0.0331629626 -0.0177607965 2.298594 -0.00276039378 0.963777483
      -0.00389719894 -0.000545731978 -0.000638515339 -0.000510787533
      2.47057462 0.349131197 -3.38638929e-05 -3.1337011e-05
      -1.32802961e-05 -0.00463979971 -0.00155084732 -0.000621070736
      1.62664211 -0.00127334311 -9.09137307e-05 -3.10615746e-06
      -0.000992281013 -2.26326592e-05 1.10949028 -0.0190768763
      -0.00106457109 -8.610039e-06 -1.49095584e-07 -0.000251595193
      -0.0154911075 4.44941854 -0.000434802496 1.55947828 -0.00575938169
      -6.73800878e-06 -0.00938104652 -0.00230785063 -0.000369252142
      -0.00414784206 -0.00686025387 5.35812187 -0.0206754394
      -0.000685499224 2.71460676 -0.00580368564 -0.00195322884
      -3.7445654e-05 -0.00793910678 3.66364431 -9.74523573e-07
      -7.297509e-05 -0.00102703227 0.652629495 -9.16781501e-05
      -3.33042808e-05 -0.000331379881 1.3148036 -0.00127341493
      -0.0150629897 -1.86473881e-05 -5.60280168e-05 -0.000623602886
      -5.80867777e-07 -3.10386258e-06 -0.000179635972 -3.87926048e-05
      -0.00785017572 -6.96814732e-06 -0.00178805611 -0.000698060147
      0.133559346 -0.00887228828 -0.00281889737 -0.0186382458
      0.530786633 -0.00511131436 -1.85972659e-08 0.562728286 0.624052107
      -6.76700292e-05 -5.36596672e-05 0.578274488 0.0517725423
      0.378742874 -1.03427418e-08 -0.000187183818 0.282969505
      -1.96728365e-06 -3.03734602e-08 0.175909102 0.636759222
      -0.00018665391 0.0986585394 0.423425704 -1.5288748e-08 0.12540403
      -2.55700779e-05 -0.000158420386 -2.25896542e-06 -3.03488082e-06
      0.574046671 -0.00146707252 -0.00251455093 0.46832037
      -1.30298281e-06 -0.00106855098 -4.75482375e-06 0.0728393942
      0.266355246 0.574537337 0.458684742 -0.000215918059 0.32997036
      0.54545331 -2.460211e-05 -0.000333450793 0.406526178 0.424341232
      0.498622179 -0.000242825292 0.453215718 0.403618157
      -0.000252815022 -0.000361465063 0.239828065 0.17710489 0.101359174
      -0.0021459898 -1.7198201e-05 -0.00294704433 0.26514861
      -0.00498862425 -0.00227635819 -0.000113199843 -2.96776602e-06
      0.29764843 -2.04469103e-07 -4.80586493e-07 0.0124393702
      0.835026503 -1.3920765e-05 -1.70570111e-05 -0.00023181185
      -0.00045702653 0.0669703484 -3.902489e-08 -2.88355312e-10
      -4.59741667e-09 -2.04343649e-13 -0.000149146654 -7.95622213e-07
      -2.17434321e-10 -9.20011735e-05 0.0488266721 -1.83662214e-05
      0.00183598697 -0.000142514662 -3.810813e-05 -1.50574469e-05
      0.389845967 -5.78330798e-07 -7.48899856e-06 0.318380028
      -0.000304421526 0.362403154 -6.74200855e-05 0.00698756054
      -0.00104210514 0.0518681407 -5.16163396e-08 0.0588614196
      -2.14057923e-06 -0.000119229291 -3.15550301e-06 -1.82513429e-06
      -0.000216868546 -1.93189436e-07 -3.3788067e-06 0.39747712
      -4.70755745e-09 -6.76168732e-10 -1.37740379e-08 -7.23125837e-10
      0.143290907 0.269941479 -2.28423105e-05 0.212284684
      -8.83072571e-05 -9.62211311e-10 -1.31327653e-07 -4.02881014e-05
      -3.24479954e-09 -0.000709994871 -4.84560223e-05 -1.06253249e-10
      -2.929012e-06 -0.000540128094 -0.000314187113 -1.37521738e-07
      -0.000207270918 -9.33446831e-09 -2.84654252e-05 -0.000130863918
      -5.92725564e-06</_>
    <_>
      1.59946787 -6.4450922 -0.00542329671 4.50332928 -3.47529081e-08
      -0.000140450706 -0.0102315638 -0.00037736728 -0.00126452628
      -6.20007597e-07 -1.19114748e-05 -3.04408587e-07 -5.87864961e-05
      -0.000179804032 -0.000172269371 -0.0195041969 1.91668499
      -0.00226246123 1.46435916 -0.000121060366 -0.00112446304
      -0.000605953566 -0.00356642064 -0.00565052079 -8.5129077e-06
      1.88516748 2.87996387 -1.13689994e-05 -3.99527635e-05
      -1.40197017e-05 0.231087893 -0.000151207103 0.0969756842
      -0.00106140401 -7.45422585e-05 -0.000513471081 -0.000262217596
      -4.16838338e-05 0.713442922 -0.000188497041 -0.000109782115
      -0.000546199386 -0.000960727513 -0.000399412122 -0.000756911293
      -0.00133276032 -0.000358907535 2.13533354 3.18126369 1.18736589
      -0.00121480192 -0.00369551266 -2.4264732e-06 -0.00727100438
      -0.0327818207 -0.0173138846 2.44696236 -0.00262786471 0.993562222
      -0.00373560889 -0.000550463388 -0.000616730773 -0.000493756146
      2.36410046 0.362298697 -3.35949444e-05 -3.01729633e-05
      -1.24629587e-05 -0.00452698627 -0.0014713906 -0.000619039754
      1.59078658 -0.00123439031 -8.64200483e-05 -2.892255e-06
      -0.000960907491 -2.2413833e-05 1.06107759 -0.0199214071
      -0.00102523842 -8.42371446e-06 -1.33781597e-07 -0.000244085182
      -0.0152689619 4.50361872 -0.00041301595 1.5637033 -0.00529661961
      -6.49317462e-06 -0.00936072227 -0.00234392821 -0.00035100794
      -0.00405532168 -0.00680882204 5.23214626 -0.0201411117
      -0.000672534748 2.746176 -0.00570543436 -0.00186241174
      -3.44922191e-05 -0.00788942445 3.549752 -9.46851685e-07
      -7.01739045e-05 -0.00101765851 0.697564244 -8.77423008e-05
      -3.28306051e-05 -0.000316487567 1.37835479 -0.00123090949
      -0.0155099649 -1.82596777e-05 -5.29362187e-05 -0.000577067025
      -5.56185171e-07 -3.05957474e-06 -0.000167596896 -3.72018767e-05
      -0.00756940991 -6.56280645e-06 -0.00167746597 -0.000653000316
      0.0791660026 -0.00874963775 -0.00266645523 -0.0185363069
      0.519510686 -0.00509776594 -1.85502049e-08 0.55076766 0.627638638
      -6.77924618e-05 -5.34659812e-05 0.566010952 0.068375133
      0.387729138 -1.03293054e-08 -0.000188651364 0.293965518
      -1.97263785e-06 -3.03434149e-08 0.163455456 0.618648767
      -0.000186299847 0.0933778808 0.411308765 -1.50896931e-08
      0.11693278 -2.55618106e-05 -0.000159112504 -2.26735528e-06
      -3.03834577e-06 0.556217194 -0.00144432345 -0.00260235742
      0.465961337 -1.30298838e-06 -0.00107218418 -4.7472472e-06
      0.0860111415 0.26497972 0.586603701 0.461172611 -0.000201295363
      0.325585753 0.547868133 -2.4557783e-05 -0.00033499219 0.396590173
      0.412472218 0.507379711 -0.000242574621 0.463616163 0.406496942
      -0.000257781736 -0.000336320547 0.232700646 0.174197078 0.10570579
      -0.00213370239 -1.71690044e-05 -0.00295852358 0.242898285
      -0.00507513015 -0.00229423493 -0.000112886541 -2.96296321e-06
      0.297043979 -2.03544928e-07 -4.79724179e-07 0.0144629031
      0.834450543 -1.39120602e-05 -1.70430121e-05 -0.000231973856
      -0.000457489252 0.0651941448 -3.89656805e-08 -2.88656626e-10
      -4.59179939e-09 -2.03795273e-13 -0.000149131782 -7.9513029e-07
      -2.17350957e-10 -9.19756058e-05 0.047364518 -1.83566408e-05
      0.00193571672 -0.000142506484 -3.8094222e-05 -1.50482629e-05
      0.392772317 -5.77932553e-07 -7.48568664e-06 0.320708811
      -0.000304855581 0.365352213 -6.71588277e-05 0.00658121333
      -0.0010452182 0.0515255705 -5.15507672e-08 0.0574172884
      -2.14570582e-06 -0.000119217169 -3.15146576e-06 -1.84223745e-06
      -0.00021704266 -1.92643412e-07 -3.37630354e-06 0.400570691
      -4.69847405e-09 -6.76136813e-10 -1.37982168e-08 -7.22145455e-10
      0.142723382 0.268346012 -2.28275112e-05 0.213490814
      -8.82770182e-05 -9.57414925e-10 -1.31175767e-07 -4.02723053e-05
      -3.24131788e-09 -0.000711892382 -4.7816131e-05 -1.06079388e-10
      -2.92703498e-06 -0.000548246026 -0.000314581062 -1.37329963e-07
      -0.000207389719 -9.32364141e-09 -2.84559537e-05 -0.000130793487
      -5.92413062e-06</_>
    <_>
      1.58510256 -6.3218751 -0.00526918005 4.48245907 -3.52283891e-08
      -0.000146322331 -0.00994952116 -0.000391359354 -0.0012864524
      -7.36536151e-07 -1.20787727e-05 -2.96684846e-07 -5.78952749e-05
      -0.000184668374 -0.000164548968 -0.0200679172 1.862486
      -0.0022426981 1.69370258 -0.000120378681 -0.00116208184
      -0.000613688782 -0.00352453999 -0.00609722175 -8.79041636e-06
      1.85362351 2.82583356 -1.17836962e-05 -3.98196935e-05
      -1.43589914e-05 0.381368488 -0.000148454419 0.14055635
      -0.00100705947 -7.68108148e-05 -0.000520740927 -0.000266407384
      -4.30813016e-05 0.619078159 -0.000194506662 -0.000109901426
      -0.000567170442 -0.000925838249 -0.000420222786 -0.000908362097
      -0.00133740006 -0.000350078335 2.30260372 3.20426869 1.17128158
      -0.00120273384 -0.00371219777 -2.46981153e-06 -0.00717391912
      -0.0325931571 -0.017681174 2.45508337 -0.00255639944 1.02563095
      -0.00366008817 -0.000579869607 -0.000620686158 -0.000500144786
      2.30619025 0.313536435 -3.42081184e-05 -3.12254015e-05
      -1.32405103e-05 -0.00456401985 -0.0014655242 -0.000643156294
      1.44484317 -0.00121805456 -8.74661418e-05 -3.04289483e-06
      -0.00100372976 -2.3158269e-05 1.00756598 -0.0198755432
      -0.00102084957 -8.41886958e-06 -2.04394738e-07 -0.000245816307
      -0.0146481199 4.4830184 -0.00043195879 1.58394325 -0.00495070126
      -6.25814346e-06 -0.00936238468 -0.00239679147 -0.000350777438
      -0.0040630619 -0.00693164859 5.19055462 -0.0199295245
      -0.000677297765 2.78988695 -0.00562881771 -0.00186319766
      -3.77226243e-05 -0.00776679069 3.48911047 -1.04617459e-06
      -7.14158887e-05 -0.00104680494 0.779176116 -8.61535882e-05
      -3.41846935e-05 -0.000304239104 1.39395499 -0.0012399375
      -0.0147984885 -1.88059748e-05 -5.68695759e-05 -0.00056862575
      -5.94692551e-07 -2.99712178e-06 -0.000173453431 -3.68175824e-05
      -0.00744780758 -6.37245876e-06 -0.00164223998 -0.000647428969
      0.0210719481 -0.00888712052 -0.00269848271 -0.0186313614
      0.494516551 -0.00511468574 -1.85809732e-08 0.551440656 0.61535269
      -6.7827641e-05 -5.33379643e-05 0.582148552 0.0557909757
      0.383028448 -1.03440829e-08 -0.000188164617 0.290700883
      -1.97785562e-06 -3.03842e-08 0.168222815 0.621319592
      -0.000186302132 0.0957986042 0.436782002 -1.5231441e-08
      0.120145231 -2.55593786e-05 -0.000158485389 -2.28219005e-06
      -3.03653769e-06 0.574283838 -0.00138437608 -0.0025836667
      0.465627611 -1.3037519e-06 -0.00112981116 -4.74982426e-06
      0.0742268339 0.247912228 0.581234396 0.466345191 -0.000286920666
      0.325190127 0.562269986 -2.44356452e-05 -0.000333717006
      0.402529836 0.41068843 0.508633912 -0.000243054528 0.453949034
      0.407976925 -0.000207524587 -0.000402961276 0.233431622
      0.175781101 0.1048114 -0.00214860938 -1.72081218e-05
      -0.00295061991 0.258676678 -0.0051237056 -0.00229260814
      -0.000113199749 -2.96687108e-06 0.299953163 -2.03124088e-07
      -4.80312679e-07 0.00873851031 0.840314746 -1.39080475e-05
      -1.70358726e-05 -0.000232072911 -0.000457656482 0.0641123205
      -3.89364843e-08 -2.8901731e-10 -4.5891273e-09 -2.03504436e-13
      -0.000149127518 -7.94897915e-07 -2.17333165e-10 -9.19635277e-05
      0.0464234501 -1.83520315e-05 0.00189830735 -0.000142504869
      -3.80877245e-05 -1.50437018e-05 0.39449203 -5.77744572e-07
      -7.4840832e-06 0.322111785 -0.000305103778 0.366932571
      -6.69829606e-05 0.00624748692 -0.0010468174 0.0515678972
      -5.15187004e-08 0.0565177947 -2.14810734e-06 -0.000119213997
      -3.14958447e-06 -1.8480431e-06 -0.000217143621 -1.92355103e-07
      -3.37505003e-06 0.402326167 -4.69404915e-09 -6.76149636e-10
      -1.38117144e-08 -7.2167422e-10 0.14201352 0.267080694
      -2.28203135e-05 0.214489758 -8.8263645e-05 -9.55036938e-10
      -1.31104272e-07 -4.02646583e-05 -3.23958482e-09 -0.000712890178
      -4.81394491e-05 -1.05998148e-10 -2.9260716e-06 -0.000553359452
      -0.000314783887 -1.37236512e-07 -0.00020746392 -9.31840827e-09
      -2.84514826e-05 -0.000130341476 -5.92265087e-06</_>
    <_>
      1.6582557 -6.14754915 -0.00549964234 4.33629227 -3.53449039e-08
      -0.000144047473 -0.0103571862 -0.000385426305 -0.00129909243
      -6.86776048e-07 -1.17892441e-05 -3.03079446e-07 -6.05037712e-05
      -0.000182595861 -0.000179748007 -0.018097369 1.96367884
      -0.00227450998 1.47656775 -0.000123347767 -0.00113203377
      -0.000622218125 -0.00359879551 -0.00569938635 -8.61096214e-06
      1.90633392 2.92446208 -1.16242272e-05 -3.97822223e-05
      -1.41794735e-05 0.251173466 -0.000153811736 0.0249608308
      -0.00109117094 -7.82378775e-05 -0.000519409135 -0.000261130714
      -4.30795553e-05 0.597254574 -0.000194821347 -0.000110092289
      -0.000555442588 -0.00100366364 -0.000410140783 -0.000736338494
      -0.00128526322 -0.00035800453 2.12529516 3.13971782 1.08950424
      -0.00126281322 -0.00362596987 -2.42140732e-06 -0.00727745565
      -0.0325381346 -0.0177483298 2.28378582 -0.00270051509 0.927174628
      -0.00381343532 -0.000527608267 -0.000633235031 -0.000491355546
      2.40329981 0.31707716 -3.36786361e-05 -3.03973065e-05
      -1.27695221e-05 -0.00455582235 -0.00153038709 -0.000619447615
      1.55295217 -0.00123913737 -8.67457638e-05 -3.13372493e-06
      -0.000995852053 -2.29693942e-05 1.11027884 -0.018061148
      -0.00102151255 -8.40768007e-06 -1.70584386e-07 -0.000242922033
      -0.014600479 4.3674984 -0.000425699021 1.50786257 -0.00567320175
      -6.61779359e-06 -0.00925697759 -0.00228227279 -0.000360073987
      -0.00401648413 -0.0068397061 5.29413509 -0.0204569008
      -0.000677786535 2.69760466 -0.00565612735 -0.00190117478
      -3.70499984e-05 -0.00776973693 3.59273553 -9.84114422e-07
      -7.18476149e-05 -0.00103144278 0.671096504 -9.0142792e-05
      -3.32581949e-05 -0.000331545831 1.26819289 -0.00123728346
      -0.0147666167 -1.83672892e-05 -5.47184827e-05 -0.000615350495
      -5.95766323e-07 -3.01482783e-06 -0.000175477166 -3.76847856e-05
      -0.00773533853 -6.78006245e-06 -0.00162157963 -0.000684776751
      0.104945131 -0.00875574537 -0.00278553902 -0.018892549 0.506501734
      -0.00501128938 -1.85070892e-08 0.549359083 0.631670117
      -6.77584176e-05 -5.38676577e-05 0.568456531 0.0718529001
      0.392460138 -1.02850475e-08 -0.000188828679 0.299310297
      -1.96451606e-06 -3.02562917e-08 0.1682643 0.628413081
      -0.000186893521 0.102501266 0.394999892 -1.50659023e-08
      0.119603485 -2.55241885e-05 -0.00015856899 -2.25392955e-06
      -3.02702438e-06 0.5475685 -0.00142194703 -0.00248842733
      0.467509419 -1.29958539e-06 -0.0010427559 -4.73493901e-06
      0.0849346295 0.280313134 0.590925395 0.46364513 -0.000207546225
      0.325269163 0.543614924 -2.46348736e-05 -0.000336773694
      0.398773044 0.42281267 0.504971147 -0.00024216139 0.465579301
      0.407884032 -0.000319287763 -0.000289517862 0.239277184 0.16285868
      0.112177387 -0.00212798524 -1.71482861e-05 -0.00296847895
      0.245794803 -0.00500695826 -0.00230988115 -0.000113050002
      -2.95371751e-06 0.298944831 -2.04281633e-07 -4.78399784e-07
      0.0166524425 0.825126529 -1.39213162e-05 -1.70544608e-05
      -0.000231924336 -0.000456764799 0.0657584146 -3.90191168e-08
      -2.89453878e-10 -4.59735583e-09 -2.04186982e-13 -0.000149160594
      -7.95625056e-07 -2.17543664e-10 -9.20013481e-05 0.0475745425
      -1.83658703e-05 0.0014099516 -0.000142526027 -3.81085847e-05
      -1.50563847e-05 0.391527057 -5.78334266e-07 -7.48882303e-06
      0.319891363 -0.000304636284 0.363328159 -6.71576345e-05
      0.00627608225 -0.0010427332 0.0528980866 -5.16112095e-08
      0.0577755719 -2.14044462e-06 -0.000119242301 -3.15565671e-06
      -1.81356847e-06 -0.000216961853 -1.93039895e-07 -3.37846541e-06
      0.398939699 -4.70694017e-09 -6.76310064e-10 -1.37843514e-08
      -7.2309092e-10 0.141069412 0.267374545 -2.28413392e-05 0.214438677
      -8.83120447e-05 -9.61676072e-10 -1.3132987e-07 -4.02872683e-05
      -3.24437566e-09 -0.000710493885 -5.16083455e-05 -1.062588e-10
      -2.92887466e-06 -0.000546518655 -0.000314268866 -1.37508565e-07
      -0.000207361227 -9.33393451e-09 -2.84655089e-05 -0.000128756335
      -5.92725928e-06</_>
    <_>
      1.89014125 -6.19664717 -0.00550899142 4.15478277 -3.48077407e-08
      -0.000151384869 -0.0103936028 -0.000387996435 -0.00137140241
      -7.95443043e-07 -1.22067968e-05 -3.08077716e-07 -6.4618318e-05
      -0.000203907228 -0.000180174102 -0.0165395848 2.32272768
      -0.00231427536 1.27038372 -0.000130525063 -0.00119000755
      -0.00064182363 -0.00363025442 -0.00527407741 -9.29490125e-06
      2.19661927 3.28195214 -1.22340325e-05 -4.14248134e-05
      -1.44302048e-05 0.161819041 -0.000154313748 0.282427549
      -0.00110270258 -8.31980215e-05 -0.00054646068 -0.000270674034
      -4.73325963e-05 0.567637086 -0.000207711375 -0.000111378846
      -0.000570420758 -0.00103739765 -0.000429639651 -0.000732364017
      -0.00125773135 -0.000364533073 1.88054872 3.28508329 0.985841453
      -0.0013183218 -0.00362569652 -2.40608074e-06 -0.00738626765
      -0.0318230763 -0.0184333213 1.97981369 -0.00274658669 0.957006693
      -0.00379929692 -0.000554484024 -0.000619981554 -0.000491147744
      2.70655084 0.540717244 -3.49524198e-05 -3.16468031e-05
      -1.46679504e-05 -0.00463692145 -0.00159865525 -0.000643628358
      1.63990951 -0.0012912862 -8.99320148e-05 -3.28407305e-06
      -0.00105428637 -2.42899332e-05 1.36432874 -0.0169370007
      -0.00103743968 -8.76159083e-06 -1.90288475e-07 -0.000233125684
      -0.0153459478 4.14948034 -0.000446230115 1.57514715 -0.00622391608
      -6.51509663e-06 -0.00913578086 -0.00236526458 -0.000372318493
      -0.00409271056 -0.00693738507 5.82434559 -0.0208004992
      -0.00070130697 2.59989619 -0.00565333525 -0.00198851968
      -4.1169671e-05 -0.00779259065 3.98001671 -1.07948767e-06
      -7.63979988e-05 -0.00105747872 0.65695703 -9.22531253e-05
      -3.51178678e-05 -0.000330041832 1.25279295 -0.0012652342
      -0.0142678833 -1.86498037e-05 -5.75825543e-05 -0.000652340706
      -6.3370328e-07 -3.09005668e-06 -0.000190882172 -3.81980353e-05
      -0.00796192791 -6.90816751e-06 -0.0016999587 -0.000727305072
      0.349049985 -0.00892747194 -0.00295524136 -0.0192665141
      0.646778047 -0.00521477312 -1.85644016e-08 0.54408288 0.618154109
      -6.78843207e-05 -5.41427617e-05 0.575282216 0.0608944111
      0.398706079 -1.03296935e-08 -0.00018848294 0.292083323
      -1.97788381e-06 -3.03388497e-08 0.161046222 0.607212603
      -0.000186893769 0.0998979881 0.398297399 -1.50753667e-08
      0.122982651 -2.55862415e-05 -0.000158673589 -2.26182237e-06
      -3.03727097e-06 0.560179472 -0.00142739306 -0.00264819292
      0.468131363 -1.3035642e-06 -0.0010377937 -4.74581157e-06
      0.0825326368 0.267271101 0.593356848 0.459243655 -0.000246989599
      0.328143001 0.544333339 -2.4611898e-05 -0.000336604047 0.398335606
      0.409826398 0.495480061 -0.000243280112 0.465115905 0.419965714
      -0.000120224948 -0.00032668293 0.233169854 0.177439153 0.10144347
      -0.00212043314 -1.71388219e-05 -0.00295798597 0.252938002
      -0.00514886528 -0.00229512108 -0.000113116388 -2.96142389e-06
      0.304586798 -2.04394667e-07 -4.79267953e-07 0.0218295157
      0.835733593 -1.39091708e-05 -1.70393359e-05 -0.000231992875
      -0.000457708375 0.064977318 -3.89487198e-08 -2.88439911e-10
      -4.59005189e-09 -2.036675e-13 -0.000149123167 -7.94975051e-07
      -2.17293905e-10 -9.19675222e-05 0.0472591817 -1.83537304e-05
      0.00208921358 -0.000142500692 -3.80897218e-05 -1.5045679e-05
      0.393217504 -5.77806418e-07 -7.48469574e-06 0.321013451
      -0.000304931018 0.366021633 -6.71513844e-05 0.00665651262
      -0.00104601902 0.0511214882 -5.15316287e-08 0.0572695732
      -2.14735201e-06 -0.000119209661 -3.15015495e-06 -1.85084298e-06
      -0.00021707089 -1.92514165e-07 -3.37561391e-06 0.40113169
      -4.69579353e-09 -6.76087519e-10 -1.38029188e-08 -7.2184736e-10
      0.143179238 0.268573403 -2.28231402e-05 0.213255435
      -8.82661479e-05 -9.56059676e-10 -1.31127436e-07 -4.0267576e-05
      -3.24034444e-09 -0.000712347624 -4.67117316e-05 -1.06023211e-10
      -2.92645313e-06 -0.000548985205 -0.000314681587 -1.37273446e-07
      -0.000207401448 -9.32039157e-09 -2.84529524e-05 -0.000131373177
      -5.92314746e-06</_>
    <_>
      1.89674687 -5.94461679 -0.00554543501 4.24177933 -3.53390099e-08
      -0.000155194924 -0.0104482817 -0.000404476334 -0.00138109119
      -8.14456826e-07 -1.23542814e-05 -3.09068326e-07 -6.52938979e-05
      -0.000205069256 -0.000181717856 -0.0169727262 2.17527652
      -0.00234109466 1.43666697 -0.000133040929 -0.0012050427
      -0.00065347855 -0.00368916127 -0.00568279484 -9.37991354e-06
      2.06759167 3.13433838 -1.24080088e-05 -4.131073e-05
      -1.45648692e-05 0.247207046 -0.000157095696 0.158841923
      -0.00109824585 -8.41049623e-05 -0.000554299331 -0.000271138997
      -4.77559624e-05 0.540381789 -0.000209397273 -0.000114934235
      -0.000579650223 -0.00103973818 -0.000440540636 -0.000721431337
      -0.00128173525 -0.000359489233 2.10205746 3.28948617 0.979168236
      -0.00132516085 -0.0036872013 -2.48582865e-06 -0.0074671749
      -0.0326164998 -0.018673785 1.99983847 -0.00276735006 0.991543472
      -0.0038471797 -0.000574204023 -0.000635401171 -0.000504917698
      2.57841992 0.431766987 -3.48585309e-05 -3.23890054e-05
      -1.46358734e-05 -0.00469954172 -0.00160495995 -0.000646335306
      1.61677158 -0.00129512325 -9.2793307e-05 -3.45132867e-06
      -0.00105683587 -2.44459588e-05 1.23246825 -0.0172188543
      -0.00105855102 -8.77427192e-06 -1.99642926e-07 -0.000244002222
      -0.0151045294 4.19380569 -0.000465432444 1.59043515 -0.00649270928
      -6.59132184e-06 -0.00922139362 -0.00245054322 -0.000376986631
      -0.00417967141 -0.0070897839 5.59275913 -0.0208916664
      -0.000702179561 2.61999273 -0.00573082035 -0.00200686837
      -4.13445596e-05 -0.00787149277 3.83096528 -1.08260735e-06
      -7.82091811e-05 -0.00106935354 0.72228539 -9.37726581e-05
      -3.51404306e-05 -0.000331459683 1.24934506 -0.00129761803
      -0.0140512185 -1.92839489e-05 -5.89967822e-05 -0.000655332929
      -6.32558454e-07 -3.10586574e-06 -0.000191795945 -3.87684304e-05
      -0.00794995297 -6.93230504e-06 -0.00173746934 -0.000729501306
      0.229455262 -0.00900733564 -0.0029967546 -0.0191540848 0.572693169
      -0.0052795196 -1.85254763e-08 0.547475994 0.620484054
      -6.78260185e-05 -5.4108692e-05 0.570116639 0.0585629605
      0.391516179 -1.03141264e-08 -0.000188259539 0.284865975
      -1.97554459e-06 -3.03013508e-08 0.16730468 0.624161422
      -0.000186973688 0.102059729 0.401500821 -1.50745336e-08
      0.123918116 -2.55683899e-05 -0.000158392853 -2.26066709e-06
      -3.03210504e-06 0.558815122 -0.00150349329 -0.00258930773
      0.461794406 -1.30133901e-06 -0.00105290511 -4.74342551e-06
      0.0789809376 0.274080426 0.586326659 0.451519549 -0.000248012075
      0.327910185 0.545467615 -2.45200263e-05 -0.000337009988
      0.394029796 0.407441586 0.496895373 -0.00024312883 0.458841175
      0.418829948 -3.36563571e-05 -0.000330599083 0.238213897
      0.174372166 0.0951384753 -0.0021324351 -1.71319261e-05
      -0.00296419254 0.260643005 -0.00510530407 -0.00229662051
      -0.000113173162 -2.95747532e-06 0.301536977 -2.04562213e-07
      -4.78940251e-07 0.0186603218 0.84137255 -1.39168005e-05
      -1.70484836e-05 -0.000231962404 -0.000457091461 0.0653297752
      -3.89919741e-08 -2.89191504e-10 -4.59459581e-09 -2.03974329e-13
      -0.000149147992 -7.95380458e-07 -2.17461577e-10 -9.19886224e-05
      0.0473189056 -1.83612574e-05 0.00162171945 -0.000142517718
      -3.8101527e-05 -1.50522355e-05 0.392349064 -5.78135769e-07
      -7.48724915e-06 0.320479691 -0.000304770598 0.364449918
      -6.71270682e-05 0.00634405017 -0.00104403996 0.0523341335
      -5.15806633e-08 0.0574648902 -2.14302895e-06 -0.000119231408
      -3.15360171e-06 -1.82629844e-06 -0.00021701309 -1.92825482e-07
      -3.37735401e-06 0.399928868 -4.70267203e-09 -6.76242673e-10
      -1.37925005e-08 -7.22618632e-10 0.14162977 0.267549753
      -2.28343761e-05 0.21422109 -8.82952663e-05 -9.595017e-10
      -1.31253827e-07 -4.02797559e-05 -3.24281069e-09 -0.00071124715
      -5.00903079e-05 -1.06170628e-10 -2.92794743e-06 -0.000548140786
      -0.000314433244 -1.37418567e-07 -0.000207386198 -9.32877331e-09
      -2.84607868e-05 -0.000129519627 -5.92571041e-06</_>
    <_>
      1.87276995 -6.40268135 -0.00560376514 4.2828722 -3.44649429e-08
      -0.000154579247 -0.0106292367 -0.000393615454 -0.00140639406
      -7.58511703e-07 -1.22913052e-05 -3.14832675e-07 -6.6529763e-05
      -0.000206961995 -0.000187387312 -0.016897032 2.40703654
      -0.00234263763 1.24563313 -0.000134812668 -0.00121615094
      -0.000652313058 -0.00368916616 -0.0051208064 -9.42621318e-06
      2.27322984 3.36660647 -1.24983799e-05 -4.2038555e-05
      -1.45146596e-05 0.163830072 -0.000156984155 0.28534618
      -0.00114563201 -8.36728141e-05 -0.000543927599 -0.000273995072
      -4.85614401e-05 0.567984283 -0.000211601582 -0.000114021634
      -0.000571345328 -0.00105932821 -0.000434483343 -0.000599308871
      -0.00127927482 -0.000367616507 1.93322289 3.34262013 1.04104316
      -0.0013444759 -0.00370394508 -2.48611991e-06 -0.00746334717
      -0.0325470492 -0.0187956057 2.05709243 -0.00282330904 1.00275373
      -0.00385130988 -0.000558237545 -0.000617175247 -0.000490156759
      2.76189971 0.609064639 -3.48365029e-05 -3.18579841e-05
      -1.47281071e-05 -0.0047126892 -0.00164629694 -0.000643882668
      1.69685376 -0.00131008774 -9.01631429e-05 -3.3808235e-06
      -0.0010669406 -2.43658596e-05 1.44523835 -0.017714195
      -0.00105227856 -8.8126535e-06 -1.71909704e-07 -0.000234156396
      -0.0157536715 4.22394896 -0.000460628828 1.6290834 -0.00679988135
      -6.65791276e-06 -0.00922072027 -0.00238038669 -0.00038015499
      -0.00415257737 -0.00711730588 5.96289635 -0.0212963764
      -0.000703059777 2.59662127 -0.00579692656 -0.00202272483
      -4.11799301e-05 -0.00808296446 4.08240032 -1.08939662e-06
      -7.91078055e-05 -0.00106634642 0.621318698 -9.58332312e-05
      -3.51919589e-05 -0.000341775449 1.272246 -0.00128800876
      -0.0149290841 -1.91012205e-05 -5.70981501e-05 -0.000661020691
      -6.32570504e-07 -3.17872991e-06 -0.000193680651 -3.87709224e-05
      -0.00813342538 -7.08134985e-06 -0.0016951462 -0.000753150787
      0.409577101 -0.00904297177 -0.00308351521 -0.0193795413
      0.707730353 -0.00539295794 -1.85449966e-08 0.543310225 0.628961384
      -6.78854121e-05 -5.45964649e-05 0.578721404 0.0704214871
      0.425318778 -1.03129265e-08 -0.0001894054 0.302085012
      -1.96718815e-06 -3.02997343e-08 0.145511627 0.609977901
      -0.00018706538 0.105269663 0.368341237 -1.49071884e-08 0.115734279
      -2.55296509e-05 -0.000158666895 -2.26234624e-06 -3.03440265e-06
      0.545459032 -0.00143835973 -0.00264409487 0.466153204
      -1.30303931e-06 -0.000949002104 -4.73941191e-06 0.0939145237
      0.291413546 0.602557838 0.461297631 -0.000173957145 0.317760289
      0.528776586 -2.47898988e-05 -0.000337495905 0.393437654
      0.416116387 0.490232229 -0.000241582165 0.475531787 0.424639523
      -0.000197111221 -0.000226323071 0.23627013 0.169473723 0.104841679
      -0.00209662295 -1.71075644e-05 -0.00296880305 0.238255203
      -0.00512205996 -0.00231059734 -0.000113265378 -2.95645259e-06
      0.296403468 -2.05325193e-07 -4.78625736e-07 0.0382512063
      0.814903259 -1.39129697e-05 -1.70443927e-05 -0.000231959726
      -0.000457435206 0.0653459728 -3.89716455e-08 -2.88650132e-10
      -4.59237448e-09 -2.03848345e-13 -0.000149133601 -7.95180938e-07
      -2.1736217e-10 -9.19782324e-05 0.0474857241 -1.83576158e-05
      0.00191868469 -0.000142507575 -3.8095659e-05 -1.50491833e-05
      0.39251256 -5.77973537e-07 -7.48602315e-06 0.320505142
      -0.000304815621 0.365078449 -6.71803282e-05 0.00660964474
      -0.0010449132 0.0515752956 -5.15573966e-08 0.0575386509
      -2.14517149e-06 -0.000119218683 -3.15188595e-06 -1.84014323e-06
      -0.000217026827 -1.92696078e-07 -3.3765532e-06 0.400291353
      -4.69939154e-09 -6.76144696e-10 -1.37960088e-08 -7.22245486e-10
      0.142740905 0.268455565 -2.28290119e-05 0.213407442
      -8.82802124e-05 -9.57895985e-10 -1.31191442e-07 -4.02739061e-05
      -3.24166649e-09 -0.000711709261 -4.79327864e-05 -1.06097395e-10
      -2.92723553e-06 -0.00054755254 -0.000314542354 -1.37349389e-07
      -0.000207379489 -9.32474187e-09 -2.84569287e-05 -0.000130762361
      -5.92445167e-06</_>
    <_>
      1.74366665 -6.30246878 -0.0050463099 4.17564964 -3.31181873e-08
      -0.0001353056 -0.00956245791 -0.000370869995 -0.00128298788
      -6.28319356e-07 -1.13305905e-05 -2.82421752e-07 -5.51320336e-05
      -0.000181678028 -0.000159840522 -0.0165062062 2.06181026
      -0.00211798283 1.49424613 -0.000119697055 -0.00113407616
      -0.000590095064 -0.00335256034 -0.00511507131 -8.48131913e-06
      2.02355504 3.0387814 -1.20630039e-05 -3.8180111e-05 -1.3621062e-05
      0.397446662 -0.000141862285 0.40212363 -0.000980549026
      -7.4315285e-05 -0.00049603224 -0.000264411647 -4.02477672e-05
      0.660534739 -0.000178752307 -0.000106075982 -0.000547461445
      -0.00089534279 -0.000402755628 -0.000525674259 -0.00126143778
      -0.000331362244 2.04334927 3.16706276 1.13746607 -0.00114238029
      -0.00348886871 -2.52462951e-06 -0.00688190805 -0.0298128929
      -0.0176117793 2.11531878 -0.00244159787 1.07518268 -0.00343794911
      -0.000531449274 -0.000586953596 -0.000469839986 2.47258186
      0.455898911 -3.39125472e-05 -2.89592208e-05 -1.21198245e-05
      -0.00436012447 -0.00141009234 -0.00064102246 1.50624478
      -0.00116570981 -7.95276792e-05 -3.07627283e-06 -0.00100514223
      -2.32159691e-05 1.16144252 -0.0173394494 -0.000959574361
      -8.19771503e-06 -1.54890941e-07 -0.000229952158 -0.0137626342
      4.1162715 -0.000427359628 1.583202 -0.00474708108 -6.08663822e-06
      -0.00883442815 -0.00246774452 -0.000332563475 -0.00386407599
      -0.00670704572 5.47419357 -0.0196944419 -0.000630996423 2.63481832
      -0.00533155259 -0.0017757694 -3.46654087e-05 -0.00763136242
      3.67974305 -1.01222895e-06 -7.20063472e-05 -0.00102927012
      0.74529314 -8.44211318e-05 -3.37020756e-05 -0.000296237879
      1.40535605 -0.0011921745 -0.0144298952 -1.83314951e-05
      -5.10063837e-05 -0.000542815949 -5.95083293e-07 -2.82583346e-06
      -0.000163520657 -3.44573236e-05 -0.00729498919 -5.89597266e-06
      -0.00162439339 -0.000618588063 0.190416604 -0.0085533252
      -0.00260344381 -0.0183349811 0.574222445 -0.00490910187
      -1.85129068e-08 0.549457431 0.616824985 -6.77951903e-05
      -5.38801614e-05 0.576956511 0.0503107011 0.390250027
      -1.03026965e-08 -0.000187902377 0.28013435 -1.97479108e-06
      -3.0265852e-08 0.171146825 0.630497754 -0.000187170022 0.101656489
      0.408060402 -1.51131978e-08 0.129918575 -2.55772829e-05
      -0.000158408628 -2.26064299e-06 -3.02730086e-06 0.564954162
      -0.00153195695 -0.0025892579 0.461081296 -1.29982436e-06
      -0.00107611541 -4.74095123e-06 0.0747223869 0.271992743
      0.580287397 0.447654486 -0.000255907187 0.326875836 0.546523631
      -2.44710773e-05 -0.000337283564 0.396116823 0.409642309
      0.498604894 -0.000243752482 0.455151737 0.420374542
      -4.35009588e-06 -0.000346117973 0.241515815 0.177130803
      0.0927507132 -0.00213917973 -1.71378397e-05 -0.00296597951
      0.27084294 -0.00514018815 -0.00229457533 -0.000113555194
      -2.9561561e-06 0.302005917 -2.04300378e-07 -4.78532797e-07
      0.0162953958 0.843485057 -1.39203594e-05 -1.70576186e-05
      -0.000231774393 -0.000457133108 0.0673712119 -3.90256147e-08
      -2.87959073e-10 -4.59730698e-09 -2.04388305e-13 -0.000149141168
      -7.95609651e-07 -2.17392368e-10 -9.20005114e-05 0.0492508933
      -1.8366125e-05 0.0019958131 -0.000142510296 -3.81076388e-05
      -1.50576197e-05 0.389300108 -5.78320112e-07 -7.48898537e-06
      0.317881554 -0.0003043529 0.362137616 -6.75104602e-05
      0.00724014267 -0.0010419488 0.0514782742 -5.16166736e-08
      0.0592242926 -2.14074726e-06 -0.000119224227 -3.15535226e-06
      -1.82974327e-06 -0.000216838409 -1.93231372e-07 -3.37887309e-06
      0.397016495 -4.70756767e-09 -6.76116718e-10 -1.37708502e-08
      -7.23115567e-10 0.144096479 0.270846695 -2.2842316e-05 0.21151951
      -8.8304776e-05 -9.62294355e-10 -1.31323262e-07 -4.02880323e-05
      -3.24487304e-09 -0.00070985686 -4.72763713e-05 -1.06247136e-10
      -2.92901586e-06 -0.000537974585 -0.000314166362 -1.37522065e-07
      -0.000207240577 -9.3344088e-09 -2.84651705e-05 -0.000131639405
      -5.92718061e-06</_>
    <_>
      1.76448488 -6.32492876 -0.00566184381 4.44304371 -3.51694673e-08
      -0.000142649267 -0.0106504904 -0.000382177328 -0.00130452064
      -6.80441985e-07 -1.20006443e-05 -3.11038548e-07 -6.3954998e-05
      -0.000188669859 -0.000186180638 -0.0174676422 2.10135627
      -0.00233988417 1.19659555 -0.000126493658 -0.00114144722
      -0.000627795118 -0.00369371381 -0.00538558932 -8.76151444e-06
      2.02257323 3.04634881 -1.12059042e-05 -4.10245484e-05
      -1.41312466e-05 0.0818405151 -0.000157280752 0.0603027716
      -0.00113978179 -7.89081678e-05 -0.000531007943 -0.000261689798
      -4.46273079e-05 0.639305651 -0.000201428542 -0.000110453824
      -0.000554085826 -0.00103747123 -0.000405220169 -0.000627027883
      -0.00127331959 -0.000373177667 1.92350233 3.20449376 1.0375061
      -0.00130680169 -0.00370886642 -2.37104359e-06 -0.00748214545
      -0.0332216583 -0.0176366121 2.24127936 -0.00279268948 0.93668294
      -0.00390065834 -0.000538001826 -0.000636576384 -0.000494893
      2.51838064 0.427185535 -3.35578334e-05 -3.08836825e-05
      -1.34717829e-05 -0.00455513876 -0.00157159159 -0.000614071556
      1.67664802 -0.00128585857 -8.85889822e-05 -3.06873721e-06
      -0.000985624269 -2.30230053e-05 1.19734609 -0.0185619853
      -0.00105543539 -8.57745999e-06 -1.5343339e-07 -0.000243739894
      -0.0160922967 4.47026157 -0.000417739677 1.54599547 -0.0057149143
      -6.7641854e-06 -0.0092749102 -0.00226045633 -0.000368133973
      -0.00407717703 -0.00680588372 5.46417904 -0.0207317639
      -0.000688016764 2.68453622 -0.00579661597 -0.0019649954
      -3.75204654e-05 -0.00796342362 3.73391247 -9.55293444e-07
      -7.19619638e-05 -0.00102050789 0.619016051 -9.12492178e-05
      -3.27612579e-05 -0.000339100545 1.27205479 -0.0012436111
      -0.0153296171 -1.81974938e-05 -5.52502388e-05 -0.000630016613
      -5.86461681e-07 -3.11740291e-06 -0.000180345101 -3.88278713e-05
      -0.00796044711 -7.08542348e-06 -0.00169729616 -0.000709011103
      0.203330517 -0.0088067418 -0.00284590479 -0.0189733561 0.587221265
      -0.00513348076 -1.85021172e-08 0.540694952 0.623057663
      -6.7885092e-05 -5.41730442e-05 0.578903556 0.0708922148
      0.411430717 -1.02841922e-08 -0.000189959741 0.310667723
      -1.96774772e-06 -3.02458325e-08 0.156775147 0.608192623
      -0.000187306359 0.102677993 0.38579151 -1.49393209e-08 0.116243303
      -2.5516827e-05 -0.000158805429 -2.27167584e-06 -3.02783928e-06
      0.542681992 -0.00132424803 -0.00257879286 0.472704887
      -1.3003114e-06 -0.00104597153 -4.72946476e-06 0.0895821601
      0.27493456 0.601339698 0.468429923 -0.000250455574 0.320998639
      0.547086298 -2.4591207e-05 -0.000338281359 0.400356114 0.415942281
      0.500394225 -0.000241828515 0.4781003 0.417081177 -0.000273376238
      -0.000303124194 0.231429502 0.166725233 0.115256466 -0.00211160607
      -1.7141354e-05 -0.00297593419 0.240665495 -0.00517798308
      -0.00232846313 -0.000113315036 -2.95103837e-06 0.30098182
      -2.0360541e-07 -4.77839933e-07 0.0252743959 0.821661294
      -1.39097156e-05 -1.70382682e-05 -0.000232052087 -0.000457548158
      0.0643406957 -3.89470465e-08 -2.89052782e-10 -4.5901678e-09
      -2.03593652e-13 -0.000149131447 -7.9498983e-07 -2.17357896e-10
      -9.1968308e-05 0.0465910882 -1.83537886e-05 0.00184550509
      -0.000142507342 -3.80903512e-05 -1.50453252e-05 0.394088328
      -5.77819094e-07 -7.48468528e-06 0.321804613 -0.000305040739
      0.366463959 -6.70100198e-05 0.00626507401 -0.00104629004
      0.0517137088 -5.15304848e-08 0.0566951483 -2.14713873e-06
      -0.000119217337 -3.15034981e-06 -1.84385738e-06 -0.000217118941
      -1.92444347e-07 -3.37548818e-06 0.401874244 -4.69568961e-09
      -6.76168177e-10 -1.38080889e-08 -7.21853965e-10 0.14193812
      0.267165482 -2.28229874e-05 0.214441091 -8.82696695e-05
      -9.55886037e-10 -1.31132765e-07 -4.02675287e-05 -3.24019811e-09
      -0.000712578592 -4.85120509e-05 -1.0603101e-10 -2.92642858e-06
      -0.000552378537 -0.000314717239 -1.37271158e-07 -0.00020744931
      -9.32038002e-09 -2.84532543e-05 -0.000130183063 -5.9232334e-06</_>
    <_>
      1.67530715 -6.34183979 -0.00522956764 4.30578756 -3.36976562e-08
      -0.000136462695 -0.00977630261 -0.000373685791 -0.00127756817
      -5.87092984e-07 -1.14248851e-05 -2.81620828e-07 -5.58339525e-05
      -0.000178990769 -0.000164580284 -0.017462749 1.91796672
      -0.00218216842 1.46349645 -0.000118736141 -0.00110267766
      -0.000595321704 -0.00344776525 -0.00533867721 -8.08616369e-06
      1.88291562 2.8723104 -1.09398015e-05 -3.76897187e-05
      -1.34622223e-05 0.309150428 -0.000145689643 0.224753052
      -0.00101911696 -7.38940289e-05 -0.000507321383 -0.000252820028
      -4.04074635e-05 0.708539009 -0.000184245408 -0.000106122978
      -0.000537598506 -0.000925120898 -0.000391960988 -0.000508909405
      -0.00127332716 -0.000338030921 2.06229591 3.07108235 1.14795399
      -0.00117812271 -0.0035893824 -2.47853313e-06 -0.00697901286
      -0.0307233948 -0.0171740521 2.21600437 -0.00252782693 1.00180519
      -0.0035848713 -0.000532549806 -0.000599314983 -0.000474906672
      2.34381652 0.393792421 -3.2611948e-05 -2.92746499e-05
      -1.20261848e-05 -0.00441908929 -0.00144793943 -0.000621672429
      1.58598053 -0.00117874658 -8.30965218e-05 -3.02236731e-06
      -0.000977392308 -2.25479016e-05 1.09378731 -0.0184126142
      -0.000979795121 -8.03341209e-06 -1.29067672e-07 -0.000241391856
      -0.0143775865 4.26867628 -0.000419276766 1.50028086 -0.00540713174
      -6.26619249e-06 -0.00903636962 -0.00229474297 -0.000342451764
      -0.00394755695 -0.00660133827 5.22768974 -0.0196195692
      -0.000637979421 2.64466834 -0.00547890645 -0.00180886523
      -3.34652395e-05 -0.00776747148 3.53497982 -9.47020169e-07
      -7.00429155e-05 -0.000999371405 0.723663032 -8.45969189e-05
      -3.22983506e-05 -0.000306148955 1.40654445 -0.00120072463
      -0.0149189169 -1.79984618e-05 -5.13434134e-05 -0.000552063168
      -5.5456286e-07 -2.87962052e-06 -0.000163877849 -3.5559664e-05
      -0.00733781792 -6.20010769e-06 -0.00161658099 -0.00063774822
      0.115802519 -0.00846250914 -0.00263905479 -0.0179460179
      0.537900627 -0.00493837753 -1.84550935e-08 0.573294401 0.648895204
      -6.75055489e-05 -5.33463135e-05 0.591909409 0.0683703199
      0.398459673 -1.02073638e-08 -0.000188749909 0.296192735
      -1.93431379e-06 -3.01050598e-08 0.174284726 0.63906008
      -0.000188302656 0.110858105 0.389816046 -1.49430548e-08 0.11356613
      -2.549292e-05 -0.000159395116 -2.22370704e-06 -3.01392856e-06
      0.561331332 -0.0015057486 -0.0024390067 0.482993901 -1.293232e-06
      -0.000974374008 -4.72301963e-06 0.0890090987 0.292890251
      0.59580934 0.470706344 -0.00011606553 0.332440674 0.534964621
      -2.46330383e-05 -0.000336931203 0.416561544 0.448626667
      0.495239615 -0.000242456692 0.468003809 0.405882388
      -0.000438940828 -0.00031834899 0.242565885 0.167959452 0.102663144
      -0.00215503713 -1.71140891e-05 -0.00299058203 0.242521256
      -0.00487828581 -0.00231378712 -0.000113745773 -2.94106735e-06
      0.298499376 -2.02830378e-07 -4.76178627e-07 0.0243344083
      0.834213555 -1.39269232e-05 -1.70670974e-05 -0.000231690748
      -0.000456711306 0.068295151 -3.9067281e-08 -2.88082641e-10
      -4.6014117e-09 -2.04741755e-13 -0.000149156447 -7.95971687e-07
      -2.17487875e-10 -9.20193343e-05 0.0499315858 -1.83730481e-05
      0.00178889558 -0.000142519872 -3.81179925e-05 -1.5064029e-05
      0.387678921 -5.78613651e-07 -7.49136188e-06 0.31664592
      -0.000304101617 0.360262454 -6.76199124e-05 0.00731519982
      -0.00103986007 0.0520530865 -5.16632035e-08 0.0599439591
      -2.13694125e-06 -0.000119237207 -3.15836428e-06 -1.81355972e-06
      -0.000216739878 -1.93585365e-07 -3.38060386e-06 0.395203948
      -4.71404338e-09 -6.76184553e-10 -1.37563321e-08 -7.23824389e-10
      0.143815994 0.271212727 -2.2852877e-05 0.21130991 -8.83284811e-05
      -9.65647895e-10 -1.31435485e-07 -4.02993683e-05 -3.24729621e-09
      -0.000708620297 -4.87351972e-05 -1.06376512e-10 -2.93042422e-06
      -0.000534019433 -0.000313902739 -1.37658731e-07 -0.000207181685
      -9.34218924e-09 -2.84721536e-05 -0.000131029694 -5.92947617e-06</_>
    <_>
      1.67660725 -6.46571112 -0.00545265665 4.52466202 -3.36620438e-08
      -0.000141882731 -0.0102510005 -0.000372733368 -0.00127731927
      -6.38095798e-07 -1.1867879e-05 -2.97278092e-07 -5.91939897e-05
      -0.000181690339 -0.000175234964 -0.0192104131 2.02505374
      -0.00225576758 1.29775965 -0.000123032587 -0.00113082945
