<?xml version="1.0"?>
<opencv_storage>
<opencv_ml_svm>
  <format>3</format>
  <svmType>EPS_SVR</svmType>
  <kernel>
    <type>RBF</type>
    <gamma>0.0050000000000000001</gamma></kernel>
  <C>1.</C>
  <p>0.001</p>
  <term_criteria><iterations>10000</iterations></term_criteria>
  <var_count>258</var_count>
  <sv_total>540</sv_total>
  <support_vectors>
    <_>
      -2.56955099 -7.85524559 -0.00482429564 -0.0116352318
      -3.6246167e-08 -0.000205242439 -0.0105436947 -0.000307933078
      -0.00185974711 -1.87771832e-06 -1.27362237e-05 -3.08882306e-07
      -9.19137165e-05 -0.000328482594 -0.000201257615 3.60662627
      3.71082401 -0.00200997642 0.817329824 -0.000162226235
      -0.0012428764 -0.000668015738 -0.0032002728 0.36913082
      -1.17574164e-05 2.77466607 4.89827013 -1.47979008e-05
      -4.31361041e-05 -1.53721685e-05 -0.00608581165 -0.000153523768
      1.03195548 -0.00134570175 -0.000116115953 -0.000670081296
      -0.000281852379 -6.25957764e-05 -0.000813426217 -0.000218367539
      -0.00010360033 -0.000687756808 -0.00139130768 -0.000395644805
      0.086392805 -0.0011553769 -0.000345373002 1.75030994 2.1873138
      -0.0091225123 -0.00172499253 -0.000882496068 -2.90323101e-06
      -0.00674070045 0.324772745 -0.0215376392 -0.0276033785
      -0.00310830609 0.0170909688 -0.00317676179 -0.000628645706
      -0.000430102315 -0.000489473518 4.14972782 0.707909942
      -3.55496122e-05 -3.05379399e-05 -1.90063001e-05 -0.00421427796
      -0.00164660404 -0.000563190726 3.66160583 -0.00159140909
      -7.9988713e-05 -4.39135147e-06 -0.00119037228 -2.64624014e-05
      2.47768402 1.72804213 -0.00114619231 -9.53902781e-06
      -2.17408669e-07 -0.000171719599 0.431921363 -0.00878791884
      -0.000626685214 0.763032675 0.0889860541 -6.66204869e-06
      -0.00597794121 -0.00341753033 -0.000408593565 -0.00411742367
      -0.00653389562 7.52556324 -0.0225780774 -0.000716981362
      -0.000918561069 -0.00484766159 -0.00201004976 -5.4175689e-05
      -0.00767646171 5.51167679 -1.3359172e-06 -9.010543e-05
      -0.00105437415 2.19568944 -0.000121584133 -3.55551238e-05
      -0.000395319832 0.346478611 -0.00148704543 -0.0084251035
      -1.70470939e-05 -5.09315796e-05 -0.000869275478 -8.50549156e-07
      -2.25629651e-06 -0.000224614007 -3.63704894e-05 -0.00831253175
      -7.97437951e-06 -0.00357231777 -0.000870023272 1.39766014
      -0.00904606562 -0.00313955639 -0.0192543101 0.233984873
      -0.00418938464 -1.25060851e-08 0.705378771 0.495555997
      -8.50761862e-05 -5.05387907e-05 0.0368519388 -0.0042184582
      0.821387291 -6.29646912e-09 -0.000146835417 0.333678246
      -3.46459638e-06 -1.4160987e-08 0.337188721 0.495509654
      -0.000215311273 -0.00185021036 -0.00399587117 -1.38900873e-08
      0.302898526 -2.41637972e-05 -0.000251395337 -2.63319657e-06
      -2.50998187e-06 0.483331084 -0.00385063211 -0.00675093755
      0.331448555 -9.60285433e-07 -0.00187366037 -3.78259006e-06
      0.209067076 0.732024312 0.33648771 0.276102722 -0.000722537225
      0.0300537199 -2.55539635e-05 -2.94197616e-05 -0.000448342733
      0.102665856 0.30248186 0.797356069 -0.000326858368 0.814900398
      0.757604241 0.066337347 -0.00159857713 0.122937068 0.445360452
      0.113482073 -0.00203941995 -1.28927331e-05 -0.00438055629
      0.281660765 -0.00640706392 -0.00252044736 -0.000136536648
      -2.60419301e-06 0.434187025 -1.5159695e-07 -3.16063336e-07
      0.11249347 1.0542022 -1.41883465e-05 -1.7294562e-05
      -0.000233715837 -0.000429756125 0.0472148806 -4.03111322e-08
      -3.41777801e-10 -4.74666173e-09 -2.10469378e-13 -0.000150332446
      -8.09154187e-07 -2.25836835e-10 -9.27057481e-05 0.0183355063
      -1.86069919e-05 -0.00024702205 -0.000143373793 -3.85116073e-05
      -1.52475532e-05 0.404637516 -5.89353363e-07 -7.56918553e-06
      0.33986643 -0.000304662157 0.334290713 -5.98169936e-05
      -0.000218065194 -0.000992708257 0.118749231 -5.31111333e-08
      0.0371662453 -1.99356555e-06 -0.000120288358 -3.27390671e-06
      -7.09902338e-07 -0.000217367531 -1.996452e-07 -3.42771864e-06
      0.395525634 -4.91986674e-09 -6.84999724e-10 -1.3696055e-08
      -7.47816919e-10 0.0343364663 0.169431716 -2.31901977e-05
      0.300121516 -8.93976321e-05 -1.06259246e-09 -1.35580805e-07
      -4.06708823e-05 -3.31566641e-09 -0.000686410058 -0.000242162583
      -1.11290574e-10 -2.97505312e-06 -0.000677769014 -0.000308060786
      -1.41997077e-07 -0.000209104823 -9.59887547e-09 -2.87276289e-05
      -1.47938817e-05 -6.012423e-06</_>
    <_>
      -2.53875232 -8.1172924 -0.00491262972 -0.0088055646
      -3.78842522e-08 -0.0001937817 -0.0106855156 -0.000304731861
      -0.00183156715 -1.95162124e-06 -1.28277979e-05 -3.09311872e-07
      -9.2710121e-05 -0.000328856171 -0.00020027424 3.3638823 3.72909474
      -0.00204628054 0.600758672 -0.000163013727 -0.00124121807
      -0.000686596439 -0.00326653291 0.393591464 -1.21632747e-05
      2.81463289 4.92105007 -1.38929236e-05 -4.27225968e-05
      -1.59829196e-05 -0.00763466349 -0.000149706408 1.04768658
      -0.00139043131 -0.000117993557 -0.000667665794 -0.00027623371
      -6.48111381e-05 -0.00177972787 -0.00023149616 -0.000102591635
      -0.000677163713 -0.00144981651 -0.000415691349 0.0917657167
      -0.00114414806 -0.000360301579 1.57810593 2.21444654
      -0.00889332592 -0.00178778835 -0.00107761228 -2.8531681e-06
      -0.00678249868 0.117524661 -0.0212644842 -0.0263251588
      -0.00316827046 0.000321276486 -0.00325078657 -0.000606980349
      -0.000424310158 -0.000506174576 4.16789532 0.758980811
      -3.40993429e-05 -3.12715565e-05 -1.92091338e-05 -0.00431636395
      -0.00168869121 -0.000551567122 3.6243844 -0.00161150738
      -8.01729693e-05 -4.44681064e-06 -0.0012122076 -2.69814991e-05
      2.50161409 1.52675676 -0.00115981488 -9.72967428e-06
      -2.2396452e-07 -0.000171554537 0.314431161 -0.00628497545
      -0.000640604936 0.781060219 -0.000242109076 -6.81694428e-06
      -0.00607841648 -0.00329190725 -0.000423809019 -0.00409612572
      -0.0065951501 7.57405663 -0.0228137877 -0.000740436721
      -2.72224843e-05 -0.00494178571 -0.00204711291 -5.59636937e-05
      -0.00788109843 5.54985905 -1.33807464e-06 -9.2788483e-05
      -0.00104669377 2.04043078 -0.000128685148 -3.58383986e-05
      -0.000405780884 0.342392892 -0.00152220705 -0.00912558567
      -1.75722071e-05 -5.28256132e-05 -0.000896559504 -8.49283424e-07
      -2.40360532e-06 -0.000231912723 -3.68627516e-05 -0.00849267747
      -8.18663921e-06 -0.00357379019 -0.000902489352 1.43331015
      -0.00896335486 -0.00331756822 -0.0185556952 0.292976946
      -0.0041793636 -1.25363657e-08 0.704107761 0.478903264
      -8.5236672e-05 -5.09416386e-05 0.0154481158 -0.00428300211
      0.817375064 -6.34952135e-09 -0.00014734779 0.345744997
      -3.48864296e-06 -1.4213283e-08 0.330808103 0.501078784
      -0.000214880769 -0.00180228672 -0.00390476896 -1.417264e-08
      0.291834325 -2.41983744e-05 -0.000251172896 -2.68408462e-06
      -2.52109066e-06 0.458393484 -0.00386934006 -0.00660249917
      0.32968688 -9.6525082e-07 -0.00191441469 -3.79596827e-06
      0.211372748 0.735766411 0.326222181 0.271706164 -0.000764075201
      0.0243378729 0.00550849736 -2.95721456e-05 -0.000448670442
      0.0866213292 0.291468561 0.788513601 -0.000326585287 0.814085603
      0.730915308 0.0774261355 -0.00166367076 0.127634421 0.442910075
      0.110397324 -0.00203753263 -1.29169666e-05 -0.00436072797
      0.273403496 -0.00638126675 -0.00252259849 -0.000136547591
      -2.62426897e-06 0.417793483 -1.52896988e-07 -3.18245441e-07
      0.102147698 1.06128395 -1.41863256e-05 -1.72955206e-05
      -0.000233603132 -0.000430148095 0.0484242141 -4.03090397e-08
      -3.40478534e-10 -4.74587036e-09 -2.10576362e-13 -0.000150313062
      -8.09074663e-07 -2.25690175e-10 -9.27015717e-05 0.0196420252
      -1.86059406e-05 -0.000241662885 -0.000143358615 -3.85089043e-05
      -1.5247434e-05 0.403032064 -5.89287481e-07 -7.56888858e-06
      0.338376522 -0.000304466375 0.333612949 -6.00978456e-05
      -0.000209992111 -0.000992421294 0.117437795 -5.31072715e-08
      0.0382725298 -1.99452506e-06 -0.000120270539 -3.27309363e-06
      -7.26722647e-07 -0.000217280191 -1.99743823e-07 -3.42774956e-06
      0.394212872 -4.9192157e-09 -6.84820922e-10 -1.36871661e-08
      -7.47708062e-10 0.0369653963 0.17232576 -2.31890972e-05
      0.297673672 -8.9387082e-05 -1.06250553e-09 -1.35554615e-07
      -4.06694598e-05 -3.31564709e-09 -0.000686092593 -0.000238213252
      -1.1125692e-10 -2.97491556e-06 -0.000671203248 -0.000308021525
      -1.41983534e-07 -0.000209012607 -9.59785496e-09 -2.87260627e-05
      -1.73605204e-05 -6.01193506e-06</_>
    <_>
      -2.46703696 -7.30516911 -0.00443488639 -0.00918934587
      -3.68831934e-08 -0.000197541973 -0.0097345328 -0.000285815273
      -0.00183109159 -1.48680158e-06 -1.17978798e-05 -2.72455196e-07
      -8.12333892e-05 -0.000309762196 -0.00018416348 3.28368592
      3.43716645 -0.00188982708 1.01439381 -0.000151658052
      -0.00118655711 -0.000617324375 -0.0029912889 0.335134268
      -1.08685945e-05 2.58835149 4.59525585 -1.47545079e-05
      -3.90688874e-05 -1.45768427e-05 -0.00343772816 -0.000144900783
      1.04329395 -0.00122259313 -0.000108073815 -0.000632598239
      -0.000267837924 -5.66017698e-05 -0.000888425857 -0.000199245464
      -9.71521586e-05 -0.000677950913 -0.00123347249 -0.000402002013
      0.0633950606 -0.00114777638 -0.000311937823 1.81506145 2.18651724
      -0.00804306474 -0.00154687336 -0.00107458525 -2.81296002e-06
      -0.00644891197 0.204678684 -0.0205376875 -0.0231683627
      -0.00284918002 0.0892774239 -0.00296736346 -0.000583093963
      -0.000423268822 -0.000450033433 3.90053606 0.613264143
      -3.51845592e-05 -2.94819492e-05 -1.74856832e-05 -0.00403140858
      -0.0015118788 -0.000561336055 3.41765189 -0.00142733718
      -7.66754747e-05 -4.28778321e-06 -0.00115496269 -2.65955787e-05
      2.26250648 1.47788763 -0.0010674618 -9.08251968e-06
      -1.62924408e-07 -0.000159772404 0.345422268 -0.00659949053
      -0.000604142027 0.779706359 0.111542672 -6.04469597e-06
      -0.00586663466 -0.003237786 -0.000375151838 -0.00395489065
      -0.00632191543 7.12885189 -0.0213446617 -0.000684334373 0.05864162
      -0.00450668065 -0.00188843545 -4.7526144e-05 -0.00719737494
      5.20264053 -1.21905293e-06 -8.60013824e-05 -0.00101414544
      2.10571337 -0.000108235334 -3.40654478e-05 -0.000354197342
      0.419827789 -0.00138312601 -0.00769086694 -1.65633483e-05
      -4.93997286e-05 -0.000771715306 -8.15393605e-07 -1.98391058e-06
      -0.000211847946 -3.39349099e-05 -0.00791551359 -7.14945645e-06
      -0.00334828091 -0.000781026843 1.20566511 -0.00854448136
      -0.00285942154 -0.0185045674 0.166237533 -0.00408838363
      -1.25631026e-08 0.69408828 0.466165781 -8.48569762e-05
      -5.04185446e-05 0.020597823 -0.00427684607 0.827984571
      -6.42262732e-09 -0.000148401261 0.34560445 -3.46333809e-06
      -1.44830548e-08 0.32889384 0.50423044 -0.000214674204
      -0.00181029947 -0.00374583271 -1.43579735e-08 0.281407475
      -2.42456772e-05 -0.000250959391 -2.72566831e-06 -2.5276322e-06
      0.449181616 -0.00392721873 -0.00655892678 0.315735459
      -9.70745418e-07 -0.00202293904 -3.80958841e-06 0.216441691
      0.72750175 0.328539878 0.27882725 -0.000784484495 0.00839631259
      -4.52226013e-05 -2.93827889e-05 -0.000448404608 0.077021122
      0.278386086 0.791253507 -0.00032560504 0.802201211 0.738353014
      0.084279865 -0.00167329074 0.120822892 0.4414424 0.102618754
      -0.00203582691 -1.30158051e-05 -0.00434033712 0.262629867
      -0.00641644839 -0.00250687078 -0.000136643212 -2.62683898e-06
      0.4036313 -1.54933147e-07 -3.20580966e-07 0.102587193 1.06165433
      -1.41811724e-05 -1.72880991e-05 -0.000233668121 -0.000430480723
      0.0477082282 -4.02763902e-08 -3.40375395e-10 -4.74265294e-09
      -2.10299904e-13 -0.000150301013 -8.08790674e-07 -2.25614583e-10
      -9.26868161e-05 0.0191154629 -1.86005109e-05 -0.000240035501
      -0.000143351048 -3.85007806e-05 -1.52424127e-05 0.404292583
      -5.89057322e-07 -7.56702593e-06 0.339336455 -0.00030466239
      0.335073471 -6.00131207e-05 -0.000210559097 -0.000994055765
      0.116986848 -5.30708064e-08 0.0377156138 -1.99751389e-06
      -0.000120260294 -3.27072962e-06 -7.39526001e-07 -0.000217356981
      -1.99467067e-07 -3.42639396e-06 0.395623028 -4.91414109e-09
      -6.84765911e-10 -1.36984699e-08 -7.4715234e-10 0.0371916033
      0.172050372 -2.31808208e-05 0.297831357 -8.93684701e-05
      -1.05987819e-09 -1.35466593e-07 -4.06605759e-05 -3.31374861e-09
      -0.000687059306 -0.000237065629 -1.11155418e-10 -2.97381166e-06
      -0.000674272305 -0.000308227842 -1.41876399e-07 -0.0002090583
      -9.59175583e-09 -2.87205876e-05 -1.78445134e-05 -6.01013426e-06</_>
    <_>
      -2.45522022 -7.10063601 -0.00456566364 -0.0078086569
      -3.97055722e-08 -0.000188737016 -0.00993332732 -0.000306903821
      -0.00186828326 -1.68201802e-06 -1.20479253e-05 -2.73924542e-07
      -8.25595562e-05 -0.000313132652 -0.000183011813 3.18927693
      3.34818053 -0.00196003704 1.08283615 -0.000154368274
      -0.00117255712 -0.000628791633 -0.00307088438 0.340511113
      -1.13863962e-05 2.5434289 4.52751589 -1.43778379e-05
      -3.84238228e-05 -1.41844139e-05 -0.00366145 -0.000142588979
      1.02126718 -0.00124899403 -0.000110300367 -0.000648423738
      -0.000269996643 -5.89188785e-05 -0.00184833445 -0.000210685655
      -9.73389833e-05 -0.000675061601 -0.00128111418 -0.000410373003
      0.102031276 -0.00108667905 -0.000314623117 1.93513513 2.15540385
      -0.00788784306 -0.00160383026 -0.00117467088 -2.86438672e-06
      -0.00660820166 0.0900630429 -0.0201632716 -0.0224975143
      -0.00292678527 0.109458439 -0.00311762537 -0.000579402258
      -0.000407766434 -0.000484115793 3.87075925 0.525054216
      -3.45003646e-05 -3.09873467e-05 -1.78479004e-05 -0.00419421354
      -0.00155421719 -0.000571125012 3.43678737 -0.0014588593
      -7.70939223e-05 -4.32263323e-06 -0.00118925923 -2.75102466e-05
      2.1840291 1.28815615 -0.00109324709 -9.01584917e-06 -1.877914e-07
      -0.000165594291 0.34831813 -0.00540634524 -0.000597651 0.771928787
      -0.000115719697 -6.2020531e-06 -0.00608719932 -0.00320237782
      -0.00039047742 -0.00397815416 -0.00636226125 7.03847694
      -0.0213423017 -0.000698843272 0.101169132 -0.00455566682
      -0.0019747396 -5.09209749e-05 -0.00725246547 5.1396122
      -1.22855249e-06 -9.13195909e-05 -0.00100150786 2.11696291
      -0.000113523885 -3.53043142e-05 -0.000362749503 0.473183364
      -0.00139990228 -0.00919678807 -1.66638292e-05 -5.09397905e-05
      -0.000807643519 -8.2335265e-07 -2.11925703e-06 -0.000217722656
      -3.44608197e-05 -0.00809695851 -7.39849156e-06 -0.00341722416
      -0.000799844682 1.16055584 -0.00851671305 -0.00294982013
      -0.0181419831 0.12445949 -0.00410497049 -1.26113102e-08 0.68691653
      0.465030432 -8.4798914e-05 -5.05962962e-05 0.0231429264
      -0.00420754356 0.836335957 -6.4779111e-09 -0.000148820982
      0.343376726 -3.46933371e-06 -1.46272665e-08 0.320497453
      0.498244286 -0.000214093801 -0.00184508623 -0.00377841527
      -1.42496122e-08 0.278461814 -2.42496608e-05 -0.000250356155
      -2.74604827e-06 -2.53780877e-06 0.45309025 -0.00394703168
      -0.00663856743 0.298478544 -9.7562372e-07 -0.00206644507
      -3.82305052e-06 0.214194819 0.720141113 0.33392185 0.276947975
      -0.000813157239 0.00916065276 -0.000191098487 -2.94244419e-05
      -0.000447454106 0.0758610964 0.284146488 0.802167952
      -0.000326232519 0.798621356 0.743334889 0.0873549283
      -0.00162242737 0.124594599 0.437633902 0.101232886 -0.00202394277
      -1.30191074e-05 -0.00432714494 0.261635214 -0.00643792748
      -0.00249108905 -0.000136395305 -2.63292895e-06 0.404592574
      -1.55785301e-07 -3.22142427e-07 0.105380177 1.04214025
      -1.41637138e-05 -1.72648415e-05 -0.000233820785 -0.000431735505
      0.0460077077 -4.01709812e-08 -3.39410972e-10 -4.73197392e-09
      -2.09468429e-13 -0.000150252978 -8.07843833e-07 -2.25301194e-10
      -9.26375724e-05 0.0180706382 -1.85826411e-05 -0.000232177481
      -0.000143319441 -3.84734849e-05 -1.52262992e-05 0.407539845
      -5.88289026e-07 -7.56092368e-06 0.341677904 -0.000305193127
      0.339419425 -5.98801344e-05 -0.000208393292 -0.000999141135
      0.114894405 -5.2952327e-08 0.0364739001 -2.0075347e-06
      -0.000120218792 -3.26277427e-06 -7.88617172e-07 -0.000217559762
      -1.98630346e-07 -3.42207431e-06 0.399494588 -4.89759744e-09
      -6.8450462e-10 -1.37303005e-08 -7.45322248e-10 0.0392109416
      0.172590137 -2.31538197e-05 0.297129393 -8.93038014e-05
      -1.05143538e-09 -1.35172357e-07 -4.06314648e-05 -3.30767014e-09
      -0.000689995592 -0.000231439248 -1.10814406e-10 -2.97021484e-06
      -0.00068086898 -0.000308868272 -1.41527252e-07 -0.00020915932
      -9.57175406e-09 -2.8702314e-05 -2.06573495e-05 -6.00413887e-06</_>
    <_>
      -2.4623425 -7.23614836 -0.00457433658 -0.00871119555
      -3.83288565e-08 -0.000189184764 -0.00997618958 -0.000306229398
      -0.0018667843 -1.70856492e-06 -1.20417944e-05 -2.79675959e-07
      -8.35375467e-05 -0.000316287915 -0.000185590907 3.26557493
      3.42127252 -0.00194716349 1.05710042 -0.000154852401
      -0.00117820955 -0.000630190014 -0.00304479944 0.357877254
      -1.13426295e-05 2.60985041 4.60148144 -1.43575862e-05
      -3.86506945e-05 -1.41217861e-05 -0.00393695338 -0.000142861929
      1.06884909 -0.0012526412 -0.000111308844 -0.000652018993
      -0.000270750257 -5.89897827e-05 -0.00110844313 -0.00021165525
      -9.6615513e-05 -0.000663609942 -0.00128373422 -0.000398320059
      0.102959588 -0.00105556287 -0.000313536962 1.90539169 2.15812469
      -0.0072087436 -0.00161324756 -0.00112186652 -2.88317869e-06
      -0.00654094247 0.124013253 -0.0200945754 -0.0231588427
      -0.00293694669 0.0961672291 -0.00308777764 -0.000586487236
      -0.000409342814 -0.000475657318 3.91821313 0.582938552
      -3.45188055e-05 -3.06405709e-05 -1.76473568e-05 -0.00416905433
      -0.00156202295 -0.000571580953 3.48495483 -0.00147940463
      -7.64194338e-05 -4.27480745e-06 -0.00118483172 -2.69317115e-05
      2.24949503 1.34915161 -0.00108368776 -8.95216544e-06
      -1.94141791e-07 -0.000164971832 0.384658813 -0.00591758126
      -0.000593789096 0.778923571 -0.000208455909 -6.26996189e-06
      -0.00599374948 -0.00316177052 -0.000389798486 -0.00394501723
      -0.00634656753 7.12868595 -0.021312546 -0.000694864546
      0.0784573331 -0.00455408078 -0.00197509397 -5.17436092e-05
      -0.00720959157 5.20472622 -1.25217673e-06 -8.99128499e-05
      -0.00100646052 2.08945704 -0.000113179762 -3.52871684e-05
      -0.000365774817 0.453986257 -0.00138183334 -0.009543919
      -1.63473906e-05 -5.06991819e-05 -0.000819863519 -8.2731043e-07
      -2.13517274e-06 -0.000217997876 -3.43391876e-05 -0.00804793183
      -7.42647308e-06 -0.00337748928 -0.000807524251 1.22966969
      -0.0085897604 -0.00294043357 -0.0183109418 0.160852253
      -0.00411396706 -1.27573729e-08 0.682346106 0.45601362
      -8.44005044e-05 -5.06398246e-05 0.0178355277 -0.00416782498
      0.827355742 -6.58634125e-09 -0.000148484454 0.343363196
      -3.44811406e-06 -1.49673518e-08 0.325799525 0.49272567
      -0.000213883759 -0.00186985394 -0.00374212163 -1.44656962e-08
      0.26950559 -2.43563481e-05 -0.000249829405 -2.74624949e-06
      -2.55313876e-06 0.441253692 -0.00394817069 -0.00640547276
      0.303800583 -9.85877705e-07 -0.00209036167 -3.85089243e-06
      0.216979295 0.713843882 0.331617832 0.276531696 -0.000798310677
      0.013927415 -6.69377623e-05 -2.95029986e-05 -0.000443655532
      0.0841416568 0.283739507 0.791303933 -0.00032493411 0.800320268
      0.734302521 0.0692497343 -0.0016592578 0.115050107 0.430475384
      0.0963554829 -0.00202584779 -1.31016768e-05 -0.00428569084
      0.253416628 -0.00631078146 -0.00246517244 -0.000135686671
      -2.65414087e-06 0.395453751 -1.58774796e-07 -3.26103532e-07
      0.100105584 1.04940689 -1.41626851e-05 -1.72665623e-05
      -0.000233719416 -0.00043201822 0.0470968485 -4.01733296e-08
      -3.38349015e-10 -4.73171857e-09 -2.09591608e-13 -0.00015023844
      -8.07813478e-07 -2.25189228e-10 -9.26359644e-05 0.0192177892
      -1.85824465e-05 -0.000227928453 -0.000143307829 -3.84722625e-05
      -1.52268267e-05 0.406054437 -5.88263276e-07 -7.56091094e-06
      0.340325117 -0.000305006542 0.338679671 -6.01233733e-05
      -0.00020162556 -0.000998699456 0.113860741 -5.29536877e-08
      0.0374581739 -2.00795307e-06 -0.000120205339 -3.26239729e-06
      -8.00904786e-07 -0.000217477893 -1.9874652e-07 -3.4222694e-06
      0.398234069 -4.89769292e-09 -6.84364621e-10 -1.37215466e-08
      -7.45301543e-10 0.0413637608 0.175022393 -2.31539398e-05
      0.295079142 -8.92973985e-05 -1.05169196e-09 -1.35161685e-07
      -4.06313957e-05 -3.30789152e-09 -0.000689612236 -0.000228301054
      -1.1079921e-10 -2.97023917e-06 -0.000675048213 -0.000308810064
      -1.41529441e-07 -0.00020907729 -9.57166968e-09 -2.87016992e-05
      -2.2726008e-05 -6.00396015e-06</_>
    <_>
      -2.39639807 -7.04779768 -0.00478206109 -0.00674795359
      -4.00434104e-08 -0.000181913521 -0.0101315351 -0.000332997501
      -0.00184686377 -1.91476943e-06 -1.24253756e-05 -2.83907525e-07
      -8.54315585e-05 -0.000315901998 -0.000187470549 3.10591936
      3.33202386 -0.00202223589 1.06456637 -0.000153890476
      -0.00116693997 -0.000655931362 -0.00320279645 0.331843764
      -1.20662953e-05 2.57271671 4.51583576 -1.42405443e-05
      -3.98589655e-05 -1.41979981e-05 -0.00443404494 -0.000140366654
      0.992497563 -0.00127643184 -0.000112745147 -0.00065914978
      -0.000272522389 -6.21483268e-05 -0.00245730625 -0.000225307187
      -9.89325854e-05 -0.000650762522 -0.0013501778 -0.00039037547
      0.0926438347 -0.00102838129 -0.00033017667 1.94685173 2.17845416
      -0.0071327812 -0.00168137462 -0.00122936512 -2.99371186e-06
      -0.00668775709 -0.000263278547 -0.0200363901 -0.0243505482
      -0.00300985808 0.108150668 -0.00326040853 -0.000561395835
      -0.000415285787 -0.000520534348 3.83437943 0.538896799
      -3.27693306e-05 -3.18500643e-05 -1.84822366e-05 -0.0043206769
      -0.00160523586 -0.00056170515 3.35868073 -0.00150575943
      -7.8025434e-05 -4.33488776e-06 -0.00118682778 -2.6184729e-05
      2.15344524 1.3014977 -0.00112425617 -9.14894554e-06
      -2.19759556e-07 -0.000175507928 0.348962814 -0.00438332884
      -0.000612566131 0.777087808 -0.0021299771 -6.58819044e-06
      -0.00609665224 -0.00320117176 -0.000405939878 -0.00400441093
      -0.00628349511 6.99940109 -0.0212510359 -0.000714609923
      0.171366781 -0.00469691399 -0.00201976392 -5.49158576e-05
      -0.0072572669 5.10353661 -1.26278246e-06 -9.58072487e-05
      -0.000999345444 2.04120994 -0.000119498472 -3.59430378e-05
      -0.0003865982 0.441368163 -0.0014505639 -0.010025694
      -1.69415071e-05 -5.21585607e-05 -0.000881144835 -8.31309649e-07
      -2.39662086e-06 -0.000221487135 -3.52261195e-05 -0.00812861975
      -7.69256621e-06 -0.00345735298 -0.000835854793 1.19320917
      -0.00847950671 -0.00310666068 -0.0175244324 0.170452937
      -0.00407465827 -1.3309335e-08 0.666532934 0.432571054
      -8.35835526e-05 -4.99531197e-05 0.0148159787 -0.00428765919
      0.791013956 -7.03224146e-09 -0.000146624589 0.340901524
      -3.44459431e-06 -1.63304268e-08 0.36123088 0.464336157
      -0.00020918074 -0.00179676258 -0.00342988223 -1.53560009e-08
      0.279587507 -2.46666132e-05 -0.000245901028 -2.84801581e-06
      -2.6229402e-06 0.420959294 -0.00366833387 -0.00625256868
      0.305395871 -1.02513843e-06 -0.00195151777 -3.95252118e-06
      0.208805323 0.687508464 0.307130367 0.274486899 -0.000829296885
      0.0315163285 -0.000130268512 -2.93451958e-05 -0.000428714033
      0.0947018489 0.286930144 0.758623779 -0.000318403647 0.750811458
      0.718702078 0.0742704868 -0.00178627507 0.0840176493 0.451290935
      0.106964499 -0.00196960941 -1.34952725e-05 -0.00412809802
      0.252114624 -0.00602921937 -0.00237351446 -0.000134011847
      -2.73211435e-06 0.392019361 -1.6488265e-07 -3.42797961e-07
      0.0867299587 1.02345943 -1.4159802e-05 -1.72672135e-05
      -0.000233584302 -0.000432529225 0.0485476404 -4.01683593e-08
      -3.36729672e-10 -4.73050132e-09 -2.09704243e-13 -0.000150213527
      -8.07694164e-07 -2.25001517e-10 -9.26297289e-05 0.0208018944
      -1.85807494e-05 -0.000221167647 -0.000143288446 -3.8468319e-05
      -1.52263137e-05 0.40415144 -5.88164767e-07 -7.56040663e-06
      0.338544458 -0.000304777845 0.337940514 -6.04655434e-05
      -0.000191656014 -0.000998461037 0.112203658 -5.29462518e-08
      0.0387921631 -2.00936188e-06 -0.0001201825 -3.26121631e-06
      -8.2274255e-07 -0.000217375113 -1.98848895e-07 -3.42220915e-06
      0.396704137 -4.89651919e-09 -6.84138468e-10 -1.37113103e-08
      -7.45126127e-10 0.0446397886 0.178593636 -2.31519734e-05
      0.29205516 -8.92829703e-05 -1.05139353e-09 -1.35122775e-07
      -4.06289837e-05 -3.30772987e-09 -0.000689287903 -0.000223321724
      -1.10750062e-10 -2.96998815e-06 -0.000667121843 -0.000308776449
      -1.41504856e-07 -0.000208966201 -9.56995994e-09 -2.86993563e-05
      -2.5943471e-05 -6.00322392e-06</_>
    <_>
      -2.43093038 -6.28259325 -0.00468767108 -0.00665244507
      -4.09584935e-08 -0.000172285989 -0.00986357685 -0.000343208987
      -0.00184723898 -1.91311801e-06 -1.25981469e-05 -2.87237441e-07
      -8.39815184e-05 -0.000306341186 -0.000181538606 3.10926294
      3.03622246 -0.00203797221 1.31672788 -0.000154347232
      -0.00115999184 -0.000637933146 -0.00318881357 0.253867477
      -1.17327654e-05 2.26930189 4.24155951 -1.41474593e-05
      -4.03840022e-05 -1.42902381e-05 -0.00286540133 -0.00014116973
      0.822291672 -0.00121809298 -0.000109232031 -0.000656029501
      -0.000266676507 -5.97006765e-05 -0.00086471159 -0.000216666813
      -0.000103831298 -0.000635892386 -0.0013053047 -0.000376673037
      0.085909456 -0.00114288041 -0.000331555115 2.14217949 2.15997005
      -0.00634774053 -0.00161788845 -0.00137034501 -3.10673863e-06
      -0.00676191971 -0.000652113347 -0.0194556713 -0.0241966806
      -0.00289085926 0.137113065 -0.00319929887 -0.000568623364
      -0.00043324384 -0.000538621971 3.61777902 0.257360399
      -3.42037565e-05 -3.25627443e-05 -1.74676243e-05 -0.00424952386
      -0.00151748699 -0.000579677348 3.45766973 -0.00150436978
      -8.0703976e-05 -4.22024823e-06 -0.00117250613 -2.56959065e-05
      1.82914186 1.3164705 -0.0011269619 -8.93701417e-06 -2.20827019e-07
      -0.000190621053 0.378567487 -0.00406622933 -0.000609635434
      0.758518159 -0.00275732251 -6.4503929e-06 -0.00610289024
      -0.00334188971 -0.000391130248 -0.00399653614 -0.00635307422
      6.5626564 -0.0204754677 -0.000709129032 0.20202221 -0.00468936842
      -0.00195953157 -5.30198122e-05 -0.00696671335 4.861269
      -1.28696331e-06 -9.69725734e-05 -0.00100805447 2.1889751
      -0.00011623199 -3.5391884e-05 -0.000368151843 0.523365319
      -0.00147537724 -0.00966535509 -1.74417946e-05 -5.16850159e-05
      -0.000849329517 -8.28475379e-07 -2.32835532e-06 -0.000208871614
      -3.47324567e-05 -0.00785563514 -7.32712624e-06 -0.00352773769
      -0.000792682462 0.920792699 -0.00859405939 -0.00286294124
      -0.0176700521 -0.000270488788 -0.00395079236 -1.34409692e-08
      0.685300589 0.432687253 -8.41443907e-05 -5.05304888e-05
      -2.68644089e-05 -0.00443181861 0.770864129 -7.04189107e-09
      -0.000145008453 0.339065552 -3.49883749e-06 -1.61731712e-08
      0.364212811 0.458192706 -0.000208591126 -0.00177626219
      -0.00353624043 -1.56325211e-08 0.279903531 -2.47521748e-05
      -0.000246942975 -2.84875068e-06 -2.63928609e-06 0.418132573
      -0.00369854923 -0.00602514902 0.34247452 -1.02834042e-06
      -0.00177744415 -3.96637188e-06 0.201640785 0.70033288 0.293601006
      0.259962142 -0.000822924136 0.052753374 0.00338551775
      -2.98169107e-05 -0.000426157552 0.104649864 0.298501909
      0.735885739 -0.000318545848 0.761316299 0.692108631 0.0629722178
      -0.00193858799 0.0990761071 0.463303953 0.104337007 -0.0019742134
      -1.34248803e-05 -0.00410841918 0.259221017 -0.00585506903
      -0.00236261566 -0.000133920184 -2.76875221e-06 0.400805503
      -1.6426435e-07 -3.44046697e-07 0.0786336064 1.04656684
      -1.41553755e-05 -1.72662003e-05 -0.000233448547 -0.00043317696
      0.0499932319 -4.01551681e-08 -3.3489625e-10 -4.72838213e-09
      -2.09765731e-13 -0.000150182808 -8.07494189e-07 -2.2477438e-10
      -9.26192952e-05 0.0224468932 -1.85775752e-05 -0.000213160776
      -0.000143264988 -3.84619998e-05 -1.5224563e-05 0.40232724
      -5.88000773e-07 -7.55940664e-06 0.336783171 -0.000304567919
      0.33747676 -6.0829203e-05 -0.000180582952 -0.000998579431
      0.110225141 -5.29293906e-08 0.040146336 -2.01162607e-06
      -0.000120154546 -3.25934548e-06 -8.49972707e-07 -0.000217278226
      -1.98898235e-07 -3.4218242e-06 0.395338178 -4.89401319e-09
      -6.83876789e-10 -1.37026221e-08 -7.44799833e-10 0.0483764112
      0.182528883 -2.31478334e-05 0.288693368 -8.92624521e-05
      -1.05044429e-09 -1.3505867e-07 -4.06241961e-05 -3.30710459e-09
      -0.000689153851 -0.000217436769 -1.10671312e-10 -2.9694495e-06
      -0.000658975448 -0.00030878713 -1.41452318e-07 -0.00020885274
      -9.56661772e-09 -2.86954564e-05 -2.9673949e-05 -6.00197927e-06</_>
    <_>
      -2.43522763 -6.61530542 -0.00480647245 -0.00590342702
      -4.07688816e-08 -0.000180527932 -0.0101594692 -0.000345594977
      -0.00183392793 -2.00125737e-06 -1.28334186e-05 -2.89350339e-07
      -8.84693945e-05 -0.000316281745 -0.000187070851 3.1242094
      3.11477041 -0.0020813744 1.09007299 -0.000158517971 -0.00117690384
      -0.000667825458 -0.00330912741 0.256768286 -1.21531666e-05
      2.31112576 4.30022001 -1.39691911e-05 -4.1029165e-05
      -1.51678059e-05 -0.00452156877 -0.000145957834 0.780920982
      -0.00127484114 -0.00011274885 -0.000666037551 -0.000265759852
      -6.3035186e-05 -0.0021901459 -0.000230366655 -0.00010531587
      -0.000655642711 -0.0013761163 -0.000397938653 0.0698953941
      -0.00119359489 -0.000345010194 1.92915654 2.15647149
      -0.00794420671 -0.00171597139 -0.00136739516 -3.07056371e-06
      -0.00682722591 -0.00145669072 -0.0200420152 -0.0246575847
      -0.00300837681 0.0846968368 -0.00329216709 -0.000580994703
      -0.000442496617 -0.000550827652 3.67646384 0.350080878
      -3.25549481e-05 -3.29530412e-05 -1.8327155e-05 -0.00438694376
      -0.0015923325 -0.000558472122 3.44454646 -0.00151717197
      -8.3754072e-05 -4.4869812e-06 -0.00118273415 -2.62024969e-05
      1.94123733 1.37258601 -0.00116609514 -9.2933933e-06
      -2.27023477e-07 -0.000193369036 0.28868103 -0.00336565217
      -0.000651917944 0.721282959 -0.00217716489 -6.65901553e-06
      -0.00630073529 -0.0033518197 -0.000414575392 -0.0041301148
      -0.00639942195 6.63890648 -0.0214072764 -0.000717264484
      0.191842973 -0.00487722969 -0.00201332732 -5.4978369e-05
      -0.00738831423 4.92299366 -1.27611941e-06 -9.74305221e-05
      -0.00101665151 2.09447002 -0.000121655343 -3.55535885e-05
      -0.000382424012 0.357368797 -0.00154470385 -0.00905770529
      -1.78528826e-05 -5.33854582e-05 -0.000874716905 -8.28808481e-07
      -2.3988016e-06 -0.000219814552 -3.60854501e-05 -0.00808888767
      -7.70542101e-06 -0.00357701001 -0.000846459647 0.978093088
      -0.00856796 -0.00317152706 -0.0175765883 0.0554481819
      -0.00401249714 -1.31073667e-08 0.682297468 0.442280918
      -8.46149924e-05 -5.12578044e-05 -4.29297979e-05 -0.0042399955
      0.785965681 -6.77286494e-09 -0.000146169114 0.352766007
      -3.50348228e-06 -1.53657407e-08 0.3512097 0.472219408
      -0.000211328472 -0.00175771501 -0.00374242617 -1.52236108e-08
      0.275462776 -2.44950224e-05 -0.000248428958 -2.80775248e-06
      -2.59230887e-06 0.423827261 -0.0037538656 -0.00606710324
      0.334533125 -1.00506747e-06 -0.00184150541 -3.89986008e-06
      0.206588894 0.71327728 0.31034407 0.271506548 -0.000816772168
      0.0406330675 0.0117382668 -2.98937775e-05 -0.00043475884
      0.0993034616 0.293887854 0.75230521 -0.000321328844 0.790167391
      0.69397819 0.0585683584 -0.00186033023 0.0941017419 0.446498007
      0.111669347 -0.00200609211 -1.32363903e-05 -0.00420079287
      0.253448218 -0.00594917824 -0.00243030279 -0.000134365298
      -2.71789327e-06 0.399921447 -1.61477928e-07 -3.34326131e-07
      0.0839460492 1.0498805 -1.41622704e-05 -1.72790551e-05
      -0.000233257146 -0.000432929606 0.05207856 -4.02069595e-08
      -3.34082678e-10 -4.73304551e-09 -2.10298494e-13 -0.000150187872
      -8.07898402e-07 -2.24787106e-10 -9.26402718e-05 0.0242950618
      -1.85856552e-05 -0.000211783976 -0.000143265876 -3.84732339e-05
      -1.52326802e-05 0.39905262 -5.88327339e-07 -7.56222835e-06
      0.3340877 -0.000304099609 0.334574044 -6.1179795e-05
      -0.000173566747 -0.000995690702 0.109974854 -5.29860884e-08
      0.0418935418 -2.00746672e-06 -0.000120157842 -3.26259578e-06
      -8.41779411e-07 -0.000217086708 -1.99425187e-07 -3.42406383e-06
      0.392039031 -4.90181717e-09 -6.83830936e-10 -1.36774139e-08
      -7.45626061e-10 0.0499891751 0.185164005 -2.31605318e-05
      0.286589295 -8.92849057e-05 -1.05467368e-09 -1.35182773e-07
      -4.06376457e-05 -3.31019279e-09 -0.000687333348 -0.00021633826
      -1.10811839e-10 -2.97115002e-06 -0.000648998772 -0.000308420218
      -1.41617221e-07 -0.000208708327 -9.57581836e-09 -2.87032235e-05
      -3.08188828e-05 -6.00455451e-06</_>
    <_>
      -2.40085196 -6.47867107 -0.00465894351 -0.00706259534
      -4.06416127e-08 -0.000184278033 -0.00983772706 -0.000344154221
      -0.00182624068 -1.94819359e-06 -1.2636855e-05 -2.78149059e-07
      -8.51447403e-05 -0.000315246434 -0.000181727417 3.13108897
      3.08560824 -0.00204790966 1.22285199 -0.000155057816
      -0.00115990895 -0.000640369835 -0.00322104828 0.230254114
      -1.20038867e-05 2.29946899 4.26687765 -1.4629316e-05
      -4.03845297e-05 -1.4766978e-05 -0.00339735229 -0.000144005098
      0.790997624 -0.0012178648 -0.000109549947 -0.000653376861
      -0.000263724098 -6.11492069e-05 -0.000860868604 -0.000221093287
      -0.000103992294 -0.000662615639 -0.00131262571 -0.000378782512
      0.039706409 -0.00121107174 -0.000333443459 1.96749878 2.17286158
      -0.00716397213 -0.00164659449 -0.00132161868 -3.22976371e-06
      -0.00681708008 -0.00029212542 -0.0199372601 -0.0248674396
      -0.00287973788 0.146464944 -0.00318829343 -0.00058207626
      -0.000453592831 -0.000539702363 3.61729431 0.353863984
      -3.36145094e-05 -3.29462491e-05 -1.85078425e-05 -0.00422828272
      -0.00152706902 -0.000567909447 3.31992865 -0.00148041022
      -8.15932799e-05 -4.38915413e-06 -0.00116240943 -2.60381239e-05
      1.91467106 1.48966861 -0.00113961415 -9.32796411e-06
      -2.14550383e-07 -0.000188268677 0.328275174 -0.0043959925
      -0.000621245999 0.715045571 -0.00175237609 -6.39264181e-06
      -0.00619322574 -0.0033893385 -0.000398030708 -0.0040998715
      -0.00628665136 6.60415554 -0.0207772497 -0.000704898906
      0.203118369 -0.00474215578 -0.00195298379 -5.30176403e-05
      -0.00723736035 4.86568928 -1.27920225e-06 -9.64081046e-05
      -0.00100554922 2.09342813 -0.000116646312 -3.51161652e-05
      -0.000371462927 0.41550222 -0.001495993 -0.00817666948
      -1.74915531e-05 -5.25105461e-05 -0.000836103107 -8.52365702e-07
      -2.27247574e-06 -0.00021314944 -3.53818505e-05 -0.00801907387
      -7.37778601e-06 -0.00355880405 -0.000799397414 0.955065191
      -0.00853622612 -0.00299136899 -0.0177012533 0.0333702788
      -0.00400444726 -1.36795375e-08 0.682178795 0.432119787
      -8.30872596e-05 -4.80245799e-05 0.0284795091 -0.00468382891
      0.758604765 -7.26191152e-09 -0.000143790356 0.325504214
      -3.42624344e-06 -1.70189427e-08 0.385307074 0.47190091
      -0.000206585115 -0.00184562407 -0.0032970428 -1.58574274e-08
      0.295255214 -2.49569839e-05 -0.000244055089 -2.86117506e-06
      -2.66974257e-06 0.431259185 -0.0036732906 -0.00616300758
      0.338871568 -1.04518824e-06 -0.00182248501 -4.01605303e-06
      0.203073502 0.676313102 0.295110494 0.255132049 -0.000774005137
      0.0599594861 -1.31449096e-05 -2.92151144e-05 -0.000417259434
      0.111815333 0.298521459 0.735937059 -0.000315802492 0.725281715
      0.705305934 0.0683445781 -0.00196599448 0.0920266584 0.485221654
      0.0997107178 -0.00196843199 -1.36846675e-05 -0.00404767459
      0.268120378 -0.00588027574 -0.0023199562 -0.000132900968
      -2.78362882e-06 0.389684826 -1.65470766e-07 -3.51720075e-07
      0.0765220076 1.04520226 -1.41571136e-05 -1.72718046e-05
      -0.000233315863 -0.000433274836 0.0514319539 -4.01747613e-08
      -3.33922029e-10 -4.72984674e-09 -2.10031523e-13 -0.000150175154
      -8.0761555e-07 -2.24705934e-10 -9.26255816e-05 0.0238379985
      -1.8580271e-05 -0.000209949794 -0.00014325777 -3.84651285e-05
      -1.5227738e-05 0.400216341 -5.88098032e-07 -7.56038344e-06
      0.334961951 -0.00030428337 0.335974693 -6.11091091e-05
      -0.000173764565 -0.00099728338 0.109475076 -5.29500674e-08
      0.0413981751 -2.01045032e-06 -0.000120146964 -3.26023383e-06
      -8.55169446e-07 -0.000217158187 -1.99157725e-07 -3.42273256e-06
      0.393362224 -4.89680074e-09 -6.83768042e-10 -1.36880951e-08
      -7.45074835e-10 0.050328467 0.185025051 -2.31523463e-05
      0.286635101 -8.9266141e-05 -1.0520872e-09 -1.3509505e-07
      -4.06288491e-05 -3.30832606e-09 -0.000688268687 -0.000215036722
      -1.10710517e-10 -2.97005863e-06 -0.000651714799 -0.000308621267
      -1.41511279e-07 -0.000208749057 -9.56977608e-09 -2.86977702e-05
      -3.14083518e-05 -6.00276144e-06</_>
    <_>
      -2.48107934 -6.44825315 -0.00485915737 -0.00626553409
      -4.25088551e-08 -0.000178738934 -0.0101770824 -0.000348742062
      -0.0018370914 -1.99564897e-06 -1.28172442e-05 -2.88037057e-07
      -8.76976337e-05 -0.000312914839 -0.000187539903 3.21537662
      3.03650928 -0.00208615302 1.12504733 -0.000157125687
      -0.00116092176 -0.000666714623 -0.00333002163 0.279145539
      -1.21341855e-05 2.2505188 4.23085642 -1.41001592e-05
      -4.10139401e-05 -1.46385701e-05 -0.00431690877 -0.000144403341
      0.780112803 -0.00126961188 -0.000111506961 -0.000669235713
      -0.000268206961 -6.30315626e-05 -0.0030973854 -0.000229176236
      -0.000105165091 -0.000647609646 -0.00137578871 -0.000398767093
      0.0745781362 -0.00115046406 -0.000346612651 1.9545269 2.12134147
      -0.00872002635 -0.00169959618 -0.00124019571 -3.00678107e-06
      -0.00694803754 -0.000507162651 -0.019893676 -0.0259555485
      -0.0030273099 0.0925939605 -0.0033590307 -0.000563488051
      -0.000442600198 -0.000560649903 3.64927936 0.276341885
      -3.20115651e-05 -3.27731177e-05 -1.84802775e-05 -0.00440124003
      -0.00159937993 -0.000556548126 3.49658823 -0.00150202261
      -8.39327331e-05 -4.51235519e-06 -0.00116580352 -2.60421402e-05
      1.87043512 1.36012888 -0.00117181765 -9.29479211e-06
      -2.26124712e-07 -0.00019331876 0.332725167 -0.00407589646
      -0.000648916059 0.701087475 -0.00227208529 -6.69222391e-06
      -0.00632849336 -0.00341111235 -0.000413528905 -0.00409355294
      -0.00635372335 6.52155685 -0.0212276913 -0.000721513235
      0.153527066 -0.0048557925 -0.0020185539 -5.48936587e-05
      -0.00737733906 4.85656643 -1.26178566e-06 -9.92118948e-05
      -0.00100492314 2.13853931 -0.000121549878 -3.5597408e-05
      -0.000389338238 0.325249702 -0.00155268388 -0.00948725455
      -1.78150531e-05 -5.31060286e-05 -0.00087883306 -8.23316554e-07
      -2.41651242e-06 -0.000218626039 -3.59067344e-05 -0.00809550844
      -7.7242139e-06 -0.00363884331 -0.00083924114 0.935618699
      -0.00858585723 -0.00315083843 -0.0172137544 0.00354666635
      -0.00394903449 -1.31636462e-08 0.684144616 0.440651983
      -8.46590483e-05 -5.10810023e-05 -8.79136423e-05 -0.00431682216
      0.780837178 -6.80487888e-09 -0.000146093415 0.357566148
      -3.52432949e-06 -1.54184399e-08 0.355862379 0.470110655
      -0.000210468061 -0.00174788141 -0.00378212542 -1.53066857e-08
      0.275896013 -2.45071733e-05 -0.000248404656 -2.81920893e-06
      -2.60107322e-06 0.416214466 -0.00367418351 -0.00603608368
      0.341822505 -1.00855584e-06 -0.00180634763 -3.90851983e-06
      0.209348068 0.716597199 0.308396608 0.273671746 -0.000826332602
      0.0391386598 0.0105672535 -3.00175489e-05 -0.000433463225
      0.0998928472 0.302071154 0.750243306 -0.000321039464 0.782354355
      0.685373783 0.0582680404 -0.00190359203 0.103103869 0.452000827
      0.117804646 -0.00199638284 -1.32536625e-05 -0.00418673875
      0.254917711 -0.00588749815 -0.00242543267 -0.000134296279
      -2.73170031e-06 0.399068385 -1.61185071e-07 -3.35742044e-07
      0.0805644989 1.04866672 -1.41482533e-05 -1.72619057e-05
      -0.000233325321 -0.00043403983 0.0512992144 -4.01265581e-08
      -3.32813166e-10 -4.72465711e-09 -2.0971583e-13 -0.000150143533
      -8.07150684e-07 -2.24489441e-10 -9.26013818e-05 0.024051778
      -1.85717308e-05 -0.000203608928 -0.000143235695 -3.84515079e-05
      -1.52204721e-05 0.400833547 -5.87720137e-07 -7.55750034e-06
      0.335232973 -0.000304418354 0.337572813 -6.1196748e-05
      -0.000168555154 -0.000999408076 0.107846051 -5.28950821e-08
      0.0414175838 -2.01542662e-06 -0.000120119097 -3.25625456e-06
      -8.8581578e-07 -0.000217203269 -1.98835025e-07 -3.42081762e-06
      0.394413948 -4.88906293e-09 -6.83559875e-10 -1.36977309e-08
      -7.44199757e-10 0.0526128709 0.186780259 -2.31396989e-05
      0.285035551 -8.92317112e-05 -1.04826725e-09 -1.34949843e-07
      -4.06150866e-05 -3.30559868e-09 -0.000689416484 -0.000210437633
      -1.10540473e-10 -2.96837902e-06 -0.000651234819 -0.000308887073
      -1.41348139e-07 -0.000208746074 -9.56030011e-09 -2.86887807e-05
      -3.40149745e-05 -5.9998265e-06</_>
    <_>
      -2.4357388 -6.21501827 -0.00459613558 -0.00715967827
      -3.91039343e-08 -0.000174107845 -0.0097445827 -0.000325003435
      -0.00182097533 -1.79415292e-06 -1.22597194e-05 -2.84488181e-07
      -8.2273662e-05 -0.000305202906 -0.000182059608 3.12895131 3.010638
      -0.00196714932 1.29480445 -0.000153424946 -0.00115333567
      -0.000627770845 -0.00308758859 0.255149633 -1.13139085e-05
      2.23380804 4.18525076 -1.40591719e-05 -3.99375967e-05
      -1.42009158e-05 -0.002918171 -0.000141928729 0.808414578
      -0.00122019299 -0.000108205095 -0.000645882275 -0.000263139314
      -5.81439926e-05 -0.000711058208 -0.000208779864 -0.000100719182
      -0.000633562799 -0.00127528096 -0.000386235566 0.0734125152
      -0.00116100651 -0.000326345296 2.16763353 2.13112211
      -0.00651915697 -0.0015849031 -0.00126271392 -2.99531621e-06
      -0.00659509003 -0.000363254308 -0.0194324423 -0.0232661385
      -0.00285887974 0.141741246 -0.00309060211 -0.000581689586
      -0.000422547484 -0.000504379976 3.56231236 0.286584765
      -3.47323257e-05 -3.14762765e-05 -1.74520646e-05 -0.00421706121
      -0.00150027173 -0.00057742733 3.40929866 -0.00147753814
      -7.97849862e-05 -4.19017942e-06 -0.00116306031 -2.58812142e-05
      1.85338485 1.32686758 -0.00109283254 -8.99973202e-06
      -2.07539372e-07 -0.000178882852 0.356598496 -0.00439844606
      -0.000610119547 0.753540635 -0.00163264526 -6.31310741e-06
      -0.00605668174 -0.00327540562 -0.000382833241 -0.00396264298
      -0.00632086024 6.49295044 -0.0205045212 -0.000697228243
      0.181185946 -0.00460618129 -0.00191940495 -5.04782802e-05
      -0.00696164835 4.80112743 -1.24671726e-06 -9.25847053e-05
      -0.00100686797 2.2239821 -0.000113095957 -3.44573709e-05
      -0.000362796331 0.456428438 -0.00143869163 -0.00896900706
      -1.69896357e-05 -5.02993898e-05 -0.000835443148 -8.15383146e-07
      -2.21613027e-06 -0.000208610494 -3.40149491e-05 -0.0077859601
      -7.24127722e-06 -0.00340714329 -0.000787800411 0.90697366
      -0.00854573864 -0.00281922403 -0.0181353632 -0.000163272169
      -0.00401047198 -1.34384095e-08 0.685790241 0.43218872
      -8.4330728e-05 -5.05520475e-05 -6.07542688e-06 -0.00450145965
      0.762243986 -7.00308078e-09 -0.00014466235 0.343228549
      -3.51568406e-06 -1.60265881e-08 0.372089326 0.462515742
      -0.000207879551 -0.00175264687 -0.00357665354 -1.57285651e-08
      0.288113505 -2.46982636e-05 -0.000246464188 -2.85170677e-06
      -2.63576703e-06 0.420504004 -0.00360200088 -0.00599938957
      0.354683757 -1.0253965e-06 -0.0016951611 -3.95684128e-06
      0.200901181 0.704928398 0.297268003 0.261924863 -0.000821423018
      0.0578374416 0.0128154252 -2.98824179e-05 -0.000426060869
      0.108247153 0.304527611 0.735012233 -0.000318822335 0.761362612
      0.682844043 0.0606405884 -0.00200358895 0.0974785239 0.471659362
      0.120151356 -0.0019800975 -1.34165584e-05 -0.00411578221
      0.262327611 -0.00576866418 -0.00238318136 -0.00013373619
      -2.76806645e-06 0.401601702 -1.63354173e-07 -3.43136691e-07
      0.0737327784 1.04918051 -1.41595592e-05 -1.72787113e-05
      -0.000233164203 -0.000433345209 0.0530724376 -4.01996374e-08
      -3.32870564e-10 -4.73178385e-09 -2.10351308e-13 -0.000150168038
      -8.07778235e-07 -2.24639585e-10 -9.26340072e-05 0.0254104137
      -1.85837907e-05 -0.000206572557 -0.000143250669 -3.84694031e-05
      -1.52317398e-05 0.397783935 -5.88228659e-07 -7.56164718e-06
      0.332875371 -0.00030395182 0.334193796 -6.14243545e-05
      -0.000166222046 -0.000995696406 0.108690754 -5.29765103e-08
      0.0428190231 -2.00884188e-06 -0.000120139754 -3.26145732e-06
      -8.59352838e-07 -0.000217019042 -1.99470207e-07 -3.42386829e-06
      0.39106518 -4.90038055e-09 -6.8365813e-10 -1.36711105e-08
      -7.45434048e-10 0.0524489507 0.187783331 -2.31581507e-05
      0.284359962 -8.92721291e-05 -1.05415976e-09 -1.3514412e-07
      -4.06348663e-05 -3.3098615e-09 -0.000687201158 -0.000212505824
      -1.10764072e-10 -2.97084125e-06 -0.000643461943 -0.000308418239
      -1.41587066e-07 -0.000208631041 -9.57387059e-09 -2.87008788e-05
      -3.32637574e-05 -6.00380736e-06</_>
    <_>
      -2.38808846 -6.17116022 -0.00488749985 -0.00415074592
      -4.3164146e-08 -0.00017020895 -0.0100396546 -0.000354314281
      -0.00182393566 -1.98110229e-06 -1.27735557e-05 -2.89314642e-07
      -8.42170557e-05 -0.000299559499 -0.000184489414 2.99264669
      2.91703701 -0.00208917842 1.26897693 -0.000155427406
      -0.00115187478 -0.000656921242 -0.00331950001 0.257165432
      -1.20742807e-05 2.18992138 4.11668444 -1.38204014e-05
      -4.09006243e-05 -1.44133946e-05 -0.00326675619 -0.000141059252
      0.792415082 -0.00123060565 -0.000108408909 -0.000660396006
      -0.000265902549 -6.13628799e-05 -0.00220810995 -0.000222719886
      -0.000106262589 -0.000634092954 -0.00134780922 -0.000393535855
      0.0824355185 -0.00112437154 -0.000346558605 2.07634926 2.17025518
      -0.00726347836 -0.00164669508 -0.00137212977 -3.01966998e-06
      -0.00693490123 -0.00189434062 -0.0192499906 -0.0240701698
      -0.00297225593 0.15584518 -0.00338072423 -0.000552572252
      -0.000441905431 -0.000568973832 3.53837013 0.208112955
      -3.24604807e-05 -3.30297298e-05 -1.8062552e-05 -0.00444269786
      -0.00155431428 -0.0005689385 3.38354254 -0.0015056642
      -8.399332e-05 -4.31067565e-06 -0.00115377537 -2.58088457e-05
      1.72862995 1.18227601 -0.00115782954 -9.12921223e-06
      -2.30602737e-07 -0.000199206246 0.318710089 -0.00241295015
      -0.000627981499 0.772556663 -0.00373714743 -6.72043325e-06
      -0.00631373515 -0.00338903 -0.000402431673 -0.00407104194
      -0.00629229005 6.36890984 -0.0206121244 -0.000718106923
      0.257196307 -0.00479830429 -0.00200446625 -5.39761895e-05
      -0.00714618899 4.74284649 -1.24976191e-06 -0.00010000883
      -0.00100237154 2.096802 -0.000120898119 -3.58587858e-05
      -0.000384491315 0.428874999 -0.00152871083 -0.0100486875
      -1.77364709e-05 -5.24362367e-05 -0.000879801344 -8.14264411e-07
      -2.47523417e-06 -0.000210897546 -3.52724091e-05 -0.0079156775
      -7.51999733e-06 -0.00359703228 -0.000804418523 0.851805508
      -0.00857474748 -0.00297795935 -0.0171326604 -0.000409052824
      -0.00393948378 -1.34181954e-08 0.683833957 0.436467677
      -8.42309091e-05 -5.02642542e-05 0.00441925973 -0.00447287131
      0.767857909 -6.98885172e-09 -0.000144816295 0.341182709
      -3.50869141e-06 -1.60161786e-08 0.37077111 0.463513374
      -0.000207833247 -0.00175771059 -0.00361333578 -1.55847584e-08
      0.289934397 -2.46630316e-05 -0.000246574316 -2.83985128e-06
      -2.6328928e-06 0.422439277 -0.00357432291 -0.00603268016
      0.350088745 -1.02396768e-06 -0.00172178587 -3.95208372e-06
      0.205726787 0.703634202 0.303190112 0.268177301 -0.000797235058
      0.0505414456 0.00969884358 -2.98513787e-05 -0.000426526123
      0.110615745 0.308220804 0.74135989 -0.000318923587 0.760047317
      0.690711141 0.0530212522 -0.00196033414 0.099463053 0.468620032
      0.122294977 -0.00197754474 -1.34153288e-05 -0.00412392709
      0.261262953 -0.00578922639 -0.00238623191 -0.000133586058
      -2.76170317e-06 0.401354939 -1.6292951e-07 -3.42524942e-07
      0.0775814801 1.04389238 -1.41395312e-05 -1.72521213e-05
      -0.000233336163 -0.000434790505 0.0511556417 -4.00789801e-08
      -3.31735556e-10 -4.71954431e-09 -2.09402537e-13 -0.000150112595
      -8.0669281e-07 -2.24277416e-10 -9.25775603e-05 0.0242468119
      -1.85633144e-05 -0.000197442845 -0.000143214129 -3.84381019e-05
      -1.52132998e-05 0.401460707 -5.87347927e-07 -7.55465726e-06
      0.335518241 -0.000304554327 0.33915177 -6.12790755e-05
      -0.000163539982 -0.00100150844 0.106262349 -5.28408464e-08
      0.0414248258 -2.02033038e-06 -0.000120091849 -3.25233486e-06
      -9.15921987e-07 -0.000217248948 -1.9851521e-07 -3.41892633e-06
      0.395464092 -4.88143437e-09 -6.8335515e-10 -1.37073197e-08
      -7.43337225e-10 0.0548262447 0.188472927 -2.31272261e-05
      0.28349483 -8.91978707e-05 -1.04449693e-09 -1.34806797e-07
      -4.06015206e-05 -3.30290573e-09 -0.000690553163 -0.000205965654
      -1.1037303e-10 -2.96672238e-06 -0.000650847971 -0.000309150113
      -1.41187229e-07 -0.000208744386 -9.55095736e-09 -2.86799295e-05
      -3.65468586e-05 -5.99693476e-06</_>
    <_>
      -2.36761713 -6.09695387 -0.00468080584 -0.00467158901
      -4.12678851e-08 -0.000166128273 -0.00976607949 -0.00034444817
      -0.00180290453 -1.88186618e-06 -1.24323451e-05 -2.76008848e-07
      -8.16178654e-05 -0.000298798055 -0.000178302362 2.94203019
      2.88105869 -0.00202917238 1.2201519 -0.000151714761 -0.0011274959
      -0.000636094715 -0.00320582232 0.228199065 -1.17085356e-05
      2.12658072 4.05975819 -1.33843614e-05 -3.94740637e-05
      -1.42207782e-05 -0.00380261079 -0.000138899311 0.743958533
      -0.00120146573 -0.000106745647 -0.000644891697 -0.000257017091
      -5.92154393e-05 -0.000799198868 -0.000218009605 -0.000102731268
      -0.000620492036 -0.00130073854 -0.000370437658 0.0599423759
      -0.00114705996 -0.000333496893 2.11215377 2.08788157
      -0.00574778859 -0.00160941074 -0.00142040825 -3.12237057e-06
      -0.00672046049 -0.00188657129 -0.0190156233 -0.0223026387
      -0.00286928168 0.161660194 -0.00321131991 -0.000543215952
      -0.00044380399 -0.00054828095 3.48249745 0.197305083
      -3.21514635e-05 -3.26028894e-05 -1.69244686e-05 -0.00426698336
      -0.00149855949 -0.000563501613 3.43861103 -0.00146947324
      -8.07792094e-05 -4.21965251e-06 -0.00113327801 -2.52977225e-05
      1.71518481 1.22659445 -0.00112472486 -8.93142806e-06
      -2.16650875e-07 -0.000192000487 0.283917218 -0.00203492539
      -0.000615237688 0.694096208 -0.003534541 -6.40624467e-06
      -0.00629642839 -0.00322338403 -0.000392977207 -0.00399747537
      -0.00628824206 6.30319595 -0.0202367008 -0.000710911641
      0.272000521 -0.00471993862 -0.00191946863 -5.21272377e-05
      -0.00706018182 4.69508171 -1.23798804e-06 -9.68794775e-05
      -0.000986287254 2.04062319 -0.000116332703 -3.4739227e-05
      -0.000368668319 0.509335339 -0.001491384 -0.0100530041
      -1.72487489e-05 -5.1542087e-05 -0.000846624956 -8.27224198e-07
      -2.36784854e-06 -0.000204728945 -3.43378597e-05 -0.00772247184
      -7.23753828e-06 -0.0034825753 -0.000780568342 0.812671483
      -0.00853536371 -0.00290164072 -0.0170814134 -0.000511010876
      -0.00388702052 -1.33305678e-08 0.679960191 0.439647347
      -8.47529591e-05 -5.08155354e-05 -0.000116459873 -0.00431403844
      0.764284372 -6.8911401e-09 -0.00014516231 0.353423029
      -3.55309658e-06 -1.56153455e-08 0.367275655 0.459883749
      -0.000208954938 -0.00169382954 -0.003784823 -1.55571005e-08
      0.282560349 -2.45588344e-05 -0.000247809279 -2.83762483e-06
      -2.61993932e-06 0.414043576 -0.00353219453 -0.00593139231
      0.350667596 -1.01718331e-06 -0.00167990266 -3.93032542e-06
      0.205365717 0.712995529 0.305055052 0.274784982 -0.000821501308
      0.0447231084 0.0144076385 -3.01340406e-05 -0.000429550477
      0.109898299 0.310994953 0.744835198 -0.000319358252 0.774166942
      0.673918843 0.0466941297 -0.00196385058 0.0956895351 0.455744773
      0.134525284 -0.00197983789 -1.33281919e-05 -0.00414522458
      0.25315848 -0.00572316581 -0.00240268931 -0.000133660564
      -2.75953153e-06 0.404485255 -1.61538637e-07 -3.39511445e-07
      0.0742906332 1.03817987 -1.41498922e-05 -1.72698674e-05
      -0.000233104613 -0.000434312591 0.0536839217 -4.01524574e-08
      -3.31024125e-10 -4.72635886e-09 -2.10115752e-13 -0.000150126143
      -8.07287222e-07 -2.24343988e-10 -9.26084322e-05 0.026410237
      -1.85750196e-05 -0.000197277812 -0.000143220415 -3.8454793e-05
      -1.52247467e-05 0.397392392 -5.87828765e-07 -7.55872088e-06
      0.332225144 -0.00030396122 0.33529976 -6.16785692e-05
      -0.000156352064 -0.000997544033 0.106343389 -5.29218056e-08
      0.0435122848 -2.01416492e-06 -0.000120102399 -3.25717247e-06
      -8.98801943e-07 -0.000217008812 -1.99223024e-07 -3.42206363e-06
      0.391264915 -4.89261831e-09 -6.83350654e-10 -1.36748541e-08
      -7.44534656e-10 0.0562228486 0.191216707 -2.31454378e-05
      0.28134802 -8.92329408e-05 -1.05046971e-09 -1.34989904e-07
      -4.06208965e-05 -3.30725292e-09 -0.000688100467 -0.000205725562
      -1.10581655e-10 -2.96915823e-06 -0.00063900603 -0.000308647548
      -1.4142347e-07 -0.000208572092 -9.56422586e-09 -2.86913655e-05
      -3.73060211e-05 -6.00071553e-06</_>
    <_>
      -2.39821839 -6.40172958 -0.0048450795 -0.00495125959
      -4.19764277e-08 -0.000174262226 -0.0100560337 -0.000349458831
      -0.0017981471 -2.04400817e-06 -1.27608328e-05 -2.85189714e-07
      -8.60892105e-05 -0.000304543908 -0.000185438359 3.0360353
      3.00576639 -0.00207887683 1.1157825 -0.000157466289 -0.00114599452
      -0.000657693192 -0.00331244664 0.235785633 -1.22529218e-05
      2.22977972 4.202456 -1.4068888e-05 -4.1088213e-05 -1.47641676e-05
      -0.00464822864 -0.000141078868 0.747176051 -0.0012555205
      -0.000109621993 -0.000660661841 -0.000262105255 -6.26308392e-05
      -0.00215161196 -0.000227237819 -0.00010464232 -0.000631498697
      -0.00136115821 -0.000386171858 0.0608384013 -0.001150153
      -0.000345223118 1.98293591 2.19925833 -0.00755539443
      -0.00167179597 -0.00135703362 -3.09447978e-06 -0.00687348191
      -0.00260402844 -0.0194216873 -0.0247212648 -0.00296883658
      0.143411309 -0.00333171664 -0.00055008271 -0.000444285601
      -0.000565454713 3.60005045 0.228470176 -3.18172388e-05
      -3.31023184e-05 -1.84696928e-05 -0.00437270058 -0.00156192214
      -0.000560801884 3.36200237 -0.00150550483 -8.3131592e-05
      -4.35252286e-06 -0.00115685759 -2.56146377e-05 1.78997409
      1.3264339 -0.00115266629 -9.24354117e-06 -2.37264501e-07
      -0.000193532294 0.290705621 -0.00270853029 -0.000646162312
      0.719218433 -0.00362444459 -6.65208472e-06 -0.00634396309
      -0.00334538124 -0.000406948762 -0.00403725216 -0.00633626105
      6.48870468 -0.020817671 -0.000726421247 0.265854061 -0.00480615441
      -0.00197535683 -5.50324075e-05 -0.00720684789 4.82067871
      -1.26913972e-06 -0.000100324272 -0.00100280659 2.04124689
      -0.000122602665 -3.53829055e-05 -0.000387199834 0.264143914
      -0.00154292234 -0.00964350998 -1.78574082e-05 -5.24598108e-05
      -0.000876335485 -8.33298429e-07 -2.49635559e-06 -0.000211365885
      -3.49180737e-05 -0.00801282004 -7.54796702e-06 -0.00354415621
      -0.000825722062 0.901150584 -0.00852940325 -0.00306712789
      -0.0171121862 0.00151179731 -0.00390561414 -1.33475844e-08
      0.689240038 0.440255612 -8.45092873e-05 -5.02940857e-05
      -4.22569356e-05 -0.00445136661 0.762258291 -6.91188884e-09
      -0.00014488172 0.349513322 -3.52511165e-06 -1.57184417e-08
      0.368132472 0.471806884 -0.000208721307 -0.00174710387
      -0.00372282462 -1.55225592e-08 0.282853097 -2.46374893e-05
      -0.000247273972 -2.83049667e-06 -2.6233165e-06 0.419919401
      -0.00358886272 -0.00594449136 0.356127948 -1.01805074e-06
      -0.00172886392 -3.93833898e-06 0.207359016 0.709999204 0.302530229
      0.265657306 -0.000791201368 0.052255556 0.0231210999
      -2.99996827e-05 -0.00042823574 0.109580539 0.3113392 0.744870603
      -0.000319855724 0.774353623 0.672938943 0.0472705364
      -0.00199401821 0.107161708 0.462852091 0.126512796 -0.00199268875
      -1.33547301e-05 -0.00414760364 0.261117935 -0.00576236285
      -0.00240936084 -0.000133861977 -2.76169794e-06 0.394934326
      -1.61088096e-07 -3.40155964e-07 0.0710022449 1.05228817
      -1.41475857e-05 -1.7268625e-05 -0.000233059429 -0.000434602
      0.0541637391 -4.0143604e-08 -3.30301397e-10 -4.72517048e-09
      -2.10107864e-13 -0.000150112872 -8.07177173e-07 -2.24247232e-10
      -9.26026987e-05 0.0269878358 -1.85731678e-05 -0.000194002379
      -0.000143210462 -3.84514133e-05 -1.52234943e-05 0.396828473
      -5.87738839e-07 -7.55812016e-06 0.331651807 -0.000303902343
      0.335283399 -6.18096383e-05 -0.000152138207 -0.000997776864
      0.10552913 -5.29110906e-08 0.0439745486 -2.01538751e-06
      -0.000120090386 -3.25617611e-06 -9.10858489e-07 -0.000216980057
      -1.99210476e-07 -3.42175872e-06 0.390894473 -4.89106577e-09
      -6.83242185e-10 -1.36727625e-08 -7.44344419e-10 0.0576924272
      0.192708552 -2.31428839e-05 0.280067086 -8.92228491e-05
      -1.04980069e-09 -1.34954973e-07 -4.06180225e-05 -3.30679284e-09
      -0.000688158849 -0.000203323958 -1.10539522e-10 -2.96882286e-06
      -0.000636201876 -0.000308675313 -1.41390828e-07 -0.00020853334
      -9.5622319e-09 -2.86892264e-05 -3.88032604e-05 -6.00002704e-06</_>
    <_>
      -2.4106667 -6.22745895 -0.00455733901 -0.00627123239
      -4.0089116e-08 -0.000168064566 -0.00963028055 -0.000338609127
      -0.00178410916 -1.98091266e-06 -1.24335766e-05 -2.7438864e-07
      -8.32422447e-05 -0.000306258211 -0.000176268994 3.06528068
      3.02041793 -0.0019991002 1.21091557 -0.000154788999 -0.00110597047
      -0.000621546991 -0.00311897695 0.235029787 -1.17440741e-05
      2.2138443 4.17502499 -1.40953407e-05 -4.06619292e-05
      -1.40867651e-05 -0.00382432179 -0.000137749215 0.669129014
      -0.0011974615 -0.000107228938 -0.000646240427 -0.000259006774
      -6.01972351e-05 -0.000692116737 -0.000214922518 -0.000101510268
      -0.000626132241 -0.00127814524 -0.000361578597 0.0840778723
      -0.00113558886 -0.00032249096 2.12178326 2.07416058 -0.00544322049
      -0.00159382634 -0.00132103486 -3.18585694e-06 -0.00662321178
      -0.000498298614 -0.0193059146 -0.023083536 -0.0028198394
      0.203897297 -0.00310805743 -0.000550420955 -0.000412365102
      -0.00053177774 3.57974935 0.217058629 -3.33089338e-05
      -3.23160748e-05 -1.81035575e-05 -0.0041673393 -0.00149479508
      -0.000576419057 3.4559772 -0.00144488551 -7.93510117e-05
      -4.09824224e-06 -0.00115444104 -2.59823119e-05 1.78264654
      1.3121438 -0.00109545642 -8.96215442e-06 -2.34494038e-07
      -0.000181657684 0.394805342 -0.00354709523 -0.000604432425
      0.682457566 -0.00294454442 -6.1646324e-06 -0.00618883409
      -0.00322494004 -0.000383687904 -0.00393297477 -0.0063295099
      6.4818573 -0.0200358629 -0.00069159962 0.210853636 -0.00460050954
      -0.00189491897 -5.38960703e-05 -0.00684407027 4.80852985
      -1.2621698e-06 -9.6911368e-05 -0.00101030723 2.14344692
      -0.00011653726 -3.48138346e-05 -0.000362567458 0.475149274
      -0.00146018073 -0.0100341942 -1.7120652e-05 -5.07512341e-05
      -0.00082990434 -8.2614298e-07 -2.2996494e-06 -0.000204171156
      -3.31781084e-05 -0.00771924993 -7.11682696e-06 -0.00342354714
      -0.000783438911 0.890314281 -0.00857596751 -0.00283967727
      -0.0176720191 -0.000466382946 -0.00394479139 -1.33522935e-08
      0.67363888 0.440563709 -8.43283342e-05 -5.06290089e-05
      0.0164305493 -0.00438461453 0.765606344 -6.93862123e-09
      -0.000144900478 0.339231968 -3.50586538e-06 -1.58973172e-08
      0.38335228 0.46577096 -0.000208146477 -0.00169215561
      -0.00362628698 -1.554268e-08 0.30034098 -2.45498741e-05
      -0.000245852367 -2.82963379e-06 -2.61548621e-06 0.42939803
      -0.0034436034 -0.00607221574 0.341634572 -1.01918442e-06
      -0.00165090943 -3.93374648e-06 0.203886151 0.705056787 0.313087255
      0.273875952 -0.000786079327 0.048039332 0.0155947078
      -2.97637889e-05 -0.000428035069 0.114838518 0.307974368
      0.746485889 -0.000318020699 0.764999449 0.692572594 0.0543909371
      -0.00190961536 0.0700664371 0.46491468 0.146392986 -0.00197511585
      -1.34413294e-05 -0.0041337898 0.253004879 -0.00575354556
      -0.00240082899 -0.000133479043 -2.7411088e-06 0.404743224
      -1.63294985e-07 -3.40649052e-07 0.0776867718 1.02712321
      -1.41501332e-05 -1.72724285e-05 -0.000233022525 -0.000434446672
      0.0545694232 -4.01601099e-08 -3.30308864e-10 -4.72677764e-09
      -2.10251955e-13 -0.000150118329 -8.07318713e-07 -2.24280539e-10
      -9.26100547e-05 0.027300559 -1.8575889e-05 -0.000194645108
      -0.000143213794 -3.84554442e-05 -1.522604e-05 0.396132469
      -5.87853435e-07 -7.55905603e-06 0.331112564 -0.000303796027
      0.334517717 -6.18623017e-05 -0.000151572254 -0.000996936695
      0.105713181 -5.29294795e-08 0.0442958474 -2.01390253e-06
      -0.000120094985 -3.25734868e-06 -9.04941658e-07 -0.000216938046
      -1.99354474e-07 -3.42244857e-06 0.390132487 -4.89362062e-09
      -6.83263723e-10 -1.36667104e-08 -7.4462303e-10 0.057668142
      0.192948461 -2.31470494e-05 0.279902577 -8.9231944e-05
      -1.05113218e-09 -1.34998771e-07 -4.06224863e-05 -3.30775629e-09
      -0.000687656808 -0.000203771226 -1.10589905e-10 -2.96937878e-06
      -0.000634415832 -0.000308569171 -1.41444772e-07 -0.000208506957
      -9.56529433e-09 -2.8691953e-05 -3.8645514e-05 -6.00092471e-06</_>
    <_>
      -2.45082116 -6.81033659 -0.00491864514 -0.0119462628
      -3.54101317e-08 -0.000181859199 -0.010499401 -0.000340440747
      -0.00157512887 -1.94913446e-06 -1.35406881e-05 -3.21062004e-07
      -8.98801736e-05 -0.000319616345 -0.000194576729 3.43532443
      3.54453087 -0.00204418157 1.36961913 -0.000165794205
      -0.00119266019 -0.000658690755 -0.00330120488 0.30270493
      -1.15442926e-05 2.59112406 4.80006981 -1.66041627e-05
      -4.63638644e-05 -1.38843106e-05 0.00974464789 -0.000147904517
      0.274815261 -0.00127962464 -0.000109244043 -0.000665065949
      -0.000296857674 -6.18937338e-05 -0.00509398337 -0.000213677267
      -0.000106845029 -0.000671209535 -0.00133942254 -0.000372404524
      0.180633321 -0.0010938989 -0.000325668516 2.23502684 1.86555398
      -0.00826967601 -0.00166491698 -0.000780215254 -3.04730406e-06
      -0.00692122011 0.582163751 -0.0222044978 -0.0252343547
      -0.00311660254 0.182568669 -0.00332208094 -0.000586710812
      -0.000357484183 -0.000526841672 4.17824745 0.211701065
      -3.6460915e-05 -3.02632707e-05 -1.91774889e-05 -0.00420210278
      -0.00164037698 -0.000658231089 3.95543075 -0.00149934855
      -7.90830672e-05 -4.08965298e-06 -0.00127400807 -2.67061623e-05
      2.09440708 1.34944963 -0.001154923 -9.63345792e-06 -2.56614214e-07
      -0.000174943503 0.768428922 -0.00857957266 -0.000604829576
      0.697937965 0.0246849954 -6.15754789e-06 -0.00638550008
      -0.00362772099 -0.000401320052 -0.00402066438 -0.006899809
      7.31390285 -0.0213760417 -0.000685773091 -0.00275902078
      -0.00486985175 -0.0020398139 -5.70787233e-05 -0.00734695187
      5.45574474 -1.35513221e-06 -9.3458897e-05 -0.00110620237
      2.55261469 -0.000119847311 -3.84235755e-05 -0.000378878816
      0.659271419 -0.00147116731 -0.0125183268 -1.65320726e-05
      -4.8244161e-05 -0.000844815804 -7.70930171e-07 -2.54092538e-06
      -0.00021189457 -3.5427387e-05 -0.00804241095 -7.69757753e-06
      -0.00367697026 -0.000835350191 1.17795444 -0.00928026997
      -0.0031517935 -0.0182813574 -0.00150282262 -0.00429329416
      -1.26605526e-08 0.707295597 0.48338294 -8.51715304e-05
      -5.16506079e-05 0.0659045056 -0.00430499623 0.816519082
      -6.27440011e-09 -0.000146813298 0.356219918 -3.49289212e-06
      -1.3944975e-08 0.335314929 0.542214215 -0.000211425082
      -0.00179440936 -0.00385656999 -1.39474157e-08 0.32154271
      -2.37808999e-05 -0.000246272277 -2.74857507e-06 -2.50458243e-06
      0.511262298 -0.00351015967 -0.00671210513 0.344474465
      -9.58621513e-07 -0.0017565235 -3.77183915e-06 0.191685647
      0.738375485 0.34873727 0.260639936 -0.000711302506 0.0664093643
      0.0762512088 -3.00127722e-05 -0.000442189223 0.129125103
      0.348126084 0.790233791 -0.000323655404 0.843495369 0.706833363
      0.0334622115 -0.00183068356 0.12747921 0.463248163 0.130348921
      -0.00209637824 -1.28632246e-05 -0.00440493645 0.315581352
      -0.00636536861 -0.00263344403 -0.000135854556 -2.60518686e-06
      0.395509809 -1.5243036e-07 -3.16135186e-07 0.115455911 1.05364287
      -1.414494e-05 -1.72621676e-05 -0.00023318718 -0.000434593414
      0.0527725667 -4.01195095e-08 -3.31107752e-10 -4.72319384e-09
      -2.09818897e-13 -0.000150116641 -8.07009485e-07 -2.24288629e-10
      -9.25939894e-05 0.0256820172 -1.85696408e-05 -0.000196352077
      -0.0001432149 -3.84469058e-05 -1.5219649e-05 0.398915827
      -5.87603779e-07 -7.55686642e-06 0.333422989 -0.000304189103
      0.336900771 -6.15523822e-05 -0.000158060007 -0.000999252428
      0.106060281 -5.28852162e-08 0.0427793562 -2.01706371e-06
      -0.000120094512 -3.25488463e-06 -9.09271137e-07 -0.000217099689
      -1.98926529e-07 -3.42067779e-06 0.392902493 -4.88753926e-09
      -6.83323342e-10 -1.36877407e-08 -7.43984208e-10 0.0560859591
      0.190520421 -2.31371632e-05 0.281851918 -8.92154785e-05
      -1.0478054e-09 -1.34904042e-07 -4.06120489e-05 -3.30532202e-09
      -0.000689132779 -0.000205097051 -1.1048315e-10 -2.96805365e-06
      -0.000643084175 -0.000308863295 -1.41316335e-07 -0.000208631987
      -9.5581596e-09 -2.86860159e-05 -3.74412375e-05 -5.99895247e-06</_>
    <_>
      -1.89403987 -11.6256704 -0.00429767743 -0.00138828694
      -1.74678867e-08 -0.000118771139 -0.010207721 -0.000187233614
      -0.00109420076 -1.29645707e-06 -1.12909356e-05 -3.56298102e-07
      -7.58354436e-05 -0.0002726698 -0.000201126633 1.24371445
      5.43728828 -0.00145015039 0.376565695 -0.00014020245
      -0.00138791662 -0.00053067581 -0.0023568722 0.650141001
      -1.09831162e-05 4.67115259 6.55437231 -1.87087808e-05
      -4.38604729e-05 -1.1775719e-05 -0.00145636813 -0.000111226203
      1.83520138 -0.0013237698 -9.4292438e-05 -0.000457192509
      -0.000336823636 -5.17277113e-05 -0.00626349682 -0.000166996484
      -8.57193081e-05 -0.000512877479 -0.00109110237 -0.000399763056
      0.119589999 -0.000837483909 -0.00032931997 1.34372592 3.04366088
      0.0284896139 -0.00130698306 -0.000449266052 -1.94949234e-06
      -0.00522623584 -0.0039059394 -0.0204924289 -0.00491091236
      -0.00277163857 0.640815616 -0.0023103985 -0.000426499115
      -0.000217362365 -0.000269379903 5.46182585 2.16570234
      -3.64487896e-05 -2.07730754e-05 -1.79279341e-05 -0.00344999996
      -0.00149893062 -0.00059675466 2.9550643 -0.00150943652
      -4.14709211e-05 -2.21377422e-06 -0.00115231238 -2.43908016e-05
      3.67771626 -0.00197369605 -0.00085789006 -9.26605026e-06
      -2.02174405e-07 -5.8025802e-05 0.051192645 -0.00180301303
      -0.00040756489 1.68699622 0.31938386 -5.34649052e-06
      -0.00500297174 -0.00304867141 -0.0003035634 -0.00279199053
      -0.00678861374 10.1000137 -0.0220619459 -0.000642603263
      0.129319742 -0.00421731127 -0.00179750705 -4.89143931e-05
      -0.00783439819 7.09309101 -1.38362907e-06 -6.73820468e-05
      -0.00107910566 1.33087695 -0.00011052037 -3.74194751e-05
      -0.000337028352 0.205822289 -0.00105886243 -0.0156988464
      -1.3613223e-05 -3.38282443e-05 -0.000750910491 -7.89241824e-07
      -3.05655135e-06 -0.000195765024 -2.88353021e-05 -0.00786833372
      -6.99338216e-06 -0.00212650234 -0.000790869177 2.80769396
      -0.00933035277 -0.00251730415 -0.0179214124 1.33995843
      -0.00430569751 -1.2400851e-08 0.730929673 0.481727153
      -8.41824221e-05 -5.20016329e-05 0.101233155 -0.00490593119
      0.839906216 -6.26028029e-09 -0.000145630416 0.331746399
      -3.35845107e-06 -1.41602365e-08 0.353710264 0.568567395
      -0.000210581042 -0.00211268431 -0.00354947383 -1.33897453e-08
      0.351998121 -2.38040411e-05 -0.000244015639 -2.66981124e-06
      -2.48733545e-06 0.533118904 -0.00354497903 -0.00713653211
      0.326343596 -9.47501235e-07 -0.00192494004 -3.75403056e-06
      0.201657057 0.73011291 0.35835591 0.254359245 -0.000617252779
      0.077957347 0.0841932446 -2.92366567e-05 -0.000445802783
      0.124641933 0.33039093 0.800177634 -0.000326336391 0.867266536
      0.755168319 0.047515288 -0.00176498888 0.101833403 0.50210166
      0.126229644 -0.00212738756 -1.28490801e-05 -0.00446285028
      0.326660782 -0.00664404035 -0.00266870763 -0.000135995899
      -2.53632948e-06 0.386918277 -1.54753465e-07 -3.12458781e-07
      0.123285711 1.074229 -1.4146337e-05 -1.72639611e-05
      -0.000233177401 -0.000434488407 0.0528820902 -4.01277553e-08
      -3.31207006e-10 -4.72404027e-09 -2.09881591e-13 -0.000150120744
      -8.07084632e-07 -2.24315802e-10 -9.25978966e-05 0.0257388726
      -1.85710505e-05 -0.000197062342 -0.000143217636 -3.84490813e-05
      -1.5220905e-05 0.398693264 -5.87664772e-07 -7.55734663e-06
      0.333268642 -0.000304151472 0.336575806 -6.15574536e-05
      -0.000158377617 -0.000998861971 0.106247 -5.28945101e-08
      0.0428551883 -2.0162654e-06 -0.00012009807 -3.255519e-06
      -9.05132595e-07 -0.00021708553 -1.98989795e-07 -3.42101384e-06
      0.392626077 -4.88883822e-09 -6.83346935e-10 -1.36854332e-08
      -7.44128814e-10 0.0558804572 0.190424681 -2.3139286e-05
      0.281951606 -8.92207026e-05 -1.04846409e-09 -1.34927433e-07
      -4.06143372e-05 -3.30579542e-09 -0.00068891031 -0.000205607619
      -1.10510316e-10 -2.96833628e-06 -0.000642693078 -0.000308814168
      -1.41343762e-07 -0.000208625861 -9.55973523e-09 -2.86874656e-05
      -3.71745955e-05 -5.99942814e-06</_>
    <_>
      -1.76318419 -12.4614916 -0.00432500383 -0.000487294485
      -1.70098478e-08 -0.000126072599 -0.0103446003 -0.000162694996
      -0.000918140751 -1.17572938e-06 -1.08275435e-05 -3.55334436e-07
      -7.26558937e-05 -0.000251333113 -0.000192076652 1.07847548
      5.68755198 -0.0014308074 -0.00319189532 -0.000139381169
      -0.00138961023 -0.000548924319 -0.00231912127 0.669646025
      -1.13653005e-05 4.94656658 6.74168968 -1.69414834e-05
      -4.22196681e-05 -1.28972479e-05 -0.00311806286 -9.70384863e-05
      1.94996345 -0.00133389607 -9.14666016e-05 -0.00041086378
      -0.000317035272 -5.04351265e-05 -0.00673382496 -0.000176080604
      -7.16603681e-05 -0.000553493388 -0.00111115433 -0.000345740264
      -0.000500914583 -0.000815562438 -0.000342167652 0.882883668
      2.97144198 -0.00112677598 -0.00129717763 -0.000367461907
      -1.84150645e-06 -0.00505535584 -0.00287406053 -0.0197732337
      -0.00356291444 -0.0027430167 0.531422794 -0.00225074589
      -0.000469518709 -0.00026575115 -0.000282428227 5.51272917
      2.53673315 -3.04366495e-05 -2.07670091e-05 -1.70655676e-05
      -0.00307646347 -0.00149654294 -0.000520207337 2.69639778
      -0.00156798225 -3.06028996e-05 -2.31020954e-06 -0.0010649024
      -2.33590345e-05 4.00113392 -0.00132211205 -0.000889500894
      -9.02501051e-06 -2.53196163e-07 -6.4745589e-05 0.23336494
      -0.00412959931 -0.000370126887 1.61837411 0.523050129
      -5.98861425e-06 -0.00496905297 -0.00335307652 -0.000312715099
      -0.0026480353 -0.00652753143 10.4959841 -0.0223384332
      -0.000705009908 0.108297579 -0.00434503751 -0.00168621016
      -4.90050006e-05 -0.00849108212 7.22317028 -1.37192569e-06
      -6.30859358e-05 -0.00101866806 1.11387789 -0.000112891932
      -3.47244022e-05 -0.000377548131 -0.003850393 -0.00108124525
      -0.0144753158 -1.33036856e-05 -3.43629908e-05 -0.00065529003
      -8.40768678e-07 -3.30460512e-06 -0.000181111012 -2.96359503e-05
      -0.00797275547 -7.24014672e-06 -0.00219284114 -0.00075372163
      3.06745958 -0.00920605008 -0.00257964595 -0.0152655346 1.6142807
      -0.00367421331 -1.23172841e-08 0.724077404 0.496970087
      -8.35544706e-05 -5.18903689e-05 0.146517724 -0.00493598217
      0.872363091 -6.20717744e-09 -0.000149030384 0.322721392
      -3.2730818e-06 -1.41991512e-08 0.295276225 0.573699951
      -0.000212022162 -0.0022745484 -0.00355653884 -1.25622748e-08
      0.366143346 -2.37688328e-05 -0.00024248581 -2.62379763e-06
      -2.47778416e-06 0.598753273 -0.00391809316 -0.00797253009
      0.279533476 -9.40902964e-07 -0.00222268072 -3.74341266e-06
      0.197099 0.698288321 0.379604191 0.25734973 -0.000601812906
      0.0743675679 0.0643063039 -2.91256711e-05 -0.000450494903
      0.124198526 0.342889428 0.854830682 -0.000330508221 0.871964097
      0.810225964 0.0731487423 -0.00146740256 0.16469574 0.481527358
      0.08081536 -0.00216466654 -1.27734884e-05 -0.00452392502
      0.380478442 -0.00732384063 -0.00269060605 -0.000136531642
      -2.50302082e-06 0.383432359 -1.52921345e-07 -3.09196309e-07
      0.143900409 1.04616237 -1.41306555e-05 -1.7229715e-05
      -0.000233791521 -0.000434712158 0.0462086797 -3.99960918e-08
      -3.34684863e-10 -4.71282924e-09 -2.08391044e-13 -0.00015012818
      -8.06124206e-07 -2.2443869e-10 -9.25480563e-05 0.0195753276
      -1.85512799e-05 -0.000206313693 -0.000143231387 -3.84229024e-05
      -1.52000475e-05 0.408861697 -5.86890394e-07 -7.55036854e-06
      0.341817081 -0.000305569498 0.344798326 -6.03537519e-05
      -0.000185079902 -0.00100663514 0.108285919 -5.27520392e-08
      0.0371653661 -2.02600313e-06 -0.000120108394 -3.24797861e-06
      -9.08486527e-07 -0.000217673063 -1.97522951e-07 -3.41519171e-06
      0.40254721 -4.86935026e-09 -6.83653911e-10 -1.3760034e-08
      -7.42108153e-10 0.0489218272 0.180542201 -2.31076283e-05
      0.28998819 -8.91738018e-05 -1.03762232e-09 -1.34634405e-07
      -4.05810824e-05 -3.29783179e-09 -0.000693953072 -0.000212644896
      -1.10182814e-10 -2.96408598e-06 -0.000675447402 -0.000309803989
      -1.40931817e-07 -0.000209096776 -9.53703516e-09 -2.86690465e-05
      -3.1493124e-05 -5.9932886e-06</_>
    <_>
      -1.72759521 -12.6294098 -0.00439477386 -0.000163978038
      -1.46793964e-08 -0.000121125755 -0.010519457 -0.000152885084
      -0.000946521934 -9.08638754e-07 -1.07007136e-05 -3.77454967e-07
      -7.17540461e-05 -0.000255343242 -0.000195187211 1.00539052
      5.84246159 -0.00142147241 -0.00151624158 -0.000141014767
      -0.00145472458 -0.000545762654 -0.00227560964 0.678061962
      -1.08367585e-05 5.12884378 6.91565371 -1.67930793e-05
      -4.30534674e-05 -1.2233344e-05 -0.00236560008 -0.000100793121
      2.12180066 -0.0013604468 -9.10173912e-05 -0.000417786126
      -0.000326645299 -4.79444934e-05 -0.00560579402 -0.00016176347
      -7.48391612e-05 -0.000555978622 -0.00108206272 -0.000347111112
      -0.000253659586 -0.000796908571 -0.000354269694 1.1318953
      3.16734338 -0.00015085598 -0.00124506885 -0.000548161275
      -1.67867802e-06 -0.00507285446 -0.00388560328 -0.0200221296
      -0.00273020077 -0.00278161303 0.56737262 -0.00224243896
      -0.000476038782 -0.00024010973 -0.000238148175 5.67696857
      2.62488031 -3.31602932e-05 -1.88872345e-05 -1.6128266e-05
      -0.00308261742 -0.00154142198 -0.00054990151 2.67834425
      -0.00163562817 -2.8360786e-05 -2.11798374e-06 -0.00110298663
      -2.38093107e-05 4.10819101 -0.00222806772 -0.000868095434
      -8.95142057e-06 -1.69894875e-07 -5.45539551e-05 0.188970193
      -0.00359289069 -0.00035031978 1.74797368 0.471555412
      -6.12085569e-06 -0.00481918314 -0.00349598122 -0.000303410867
      -0.00257496233 -0.00673611788 10.712307 -0.0226702187
      -0.00069564156 0.120891169 -0.00435809745 -0.00173238723
      -4.52186287e-05 -0.00855795573 7.39560699 -1.37584323e-06
      -5.97984508e-05 -0.00106328912 1.16978562 -0.000110882938
      -3.6197649e-05 -0.000373637333 -0.00365617615 -0.00105479814
      -0.0147897005 -1.31413199e-05 -2.92599034e-05 -0.000652352232
      -8.15979433e-07 -3.33842263e-06 -0.000179683979 -2.97413171e-05
      -0.00813231897 -7.31585305e-06 -0.00206459523 -0.000758957001
      3.19743419 -0.0094089834 -0.00252637267 -0.0163437333 1.69664276
      -0.00377131789 -1.2746427e-08 0.721589863 0.473874629
      -8.34547973e-05 -5.17997796e-05 0.119364671 -0.00497142412
      0.847695172 -6.52475141e-09 -0.000146288337 0.310220689
      -3.31875458e-06 -1.49438861e-08 0.327927202 0.579158783
      -0.000207653953 -0.00225832872 -0.003221747 -1.33628806e-08
      0.338383555 -2.41291254e-05 -0.000241529298 -2.71654221e-06
      -2.53945518e-06 0.545723438 -0.00365328044 -0.00687791593
      0.302049428 -9.69784537e-07 -0.0020474866 -3.82686676e-06
      0.207028851 0.69351995 0.3645733 0.260740578 -0.00056966726
      0.0750369281 0.0838752389 -2.93336143e-05 -0.000440911041
      0.132719919 0.327408254 0.824432194 -0.000325445289 0.854795158
      0.754129052 0.013357237 -0.00173087767 0.125798702 0.479233891
      0.106039241 -0.00212643761 -1.29888103e-05 -0.00438821828
      0.325671017 -0.00656008162 -0.00260958658 -0.000135181224
      -2.59569697e-06 0.35591957 -1.57458757e-07 -3.22007566e-07
      0.115670919 1.04271019 -1.41411501e-05 -1.72482778e-05
      -0.000233536091 -0.0004342678 0.0489968061 -4.00721447e-08
      -3.33774147e-10 -4.71980455e-09 -2.09146001e-13 -0.000150139706
      -8.06731123e-07 -2.24488331e-10 -9.2579583e-05 0.0219961405
      -1.85632998e-05 -0.000205445307 -0.000143235942 -3.84398809e-05
      -1.52119246e-05 0.404421389 -5.8738118e-07 -7.55455039e-06
      0.338198066 -0.000304927496 0.34070313 -6.08056107e-05
      -0.000176556248 -0.0010024783 0.108200364 -5.2835631e-08
      0.039481543 -2.01972671e-06 -0.000120117009 -3.25289625e-06
      -8.92961395e-07 -0.000217412089 -1.98271351e-07 -3.41845475e-06
      0.398008555 -4.88088414e-09 -6.83624934e-10 -1.3725109e-08
      -7.43337669e-10 0.0507166609 0.183774248 -2.31264021e-05
      0.287437439 -8.92088428e-05 -1.04381537e-09 -1.3482115e-07
      -4.06010222e-05 -3.30234484e-09 -0.000691362598 -0.000211881357
      -1.10395089e-10 -2.966598e-06 -0.000662277453 -0.000309276773
      -1.41175434e-07 -0.000208905607 -9.55068291e-09 -2.86807208e-05
      -3.26171175e-05 -5.99715167e-06</_>
    <_>
      -2.03230691 -12.0486965 -0.00421144813 -0.00459106127
      -1.62625149e-08 -0.000109085762 -0.010127034 -0.000156186841
      -0.000918356294 -8.52135372e-07 -1.0315046e-05 -3.53728126e-07
      -6.76200507e-05 -0.000246657059 -0.000198951297 1.38111115
      5.52823353 -0.00135849149 0.161228478 -0.000136695424
      -0.00135613198 -0.000508895377 -0.00217686919 0.719492793
      -9.93698541e-06 4.80467129 6.67477226 -1.76993999e-05
      -4.08968444e-05 -1.1156043e-05 -0.000581518165 -0.000105793733
      2.14827228 -0.00132626342 -8.79786021e-05 -0.000418025505
      -0.000325479399 -4.56711095e-05 -0.00511481892 -0.000148125881
      -7.58753158e-05 -0.000514397922 -0.00103044533 -0.000391166424
      0.0580186136 -0.000738679373 -0.000327496266 1.13756585 3.03048325
      -0.000408369058 -0.00117974565 -0.000388924964 -1.68627594e-06
      -0.00501450244 -0.00111951341 -0.0197262112 -0.00434130663
      -0.00272114715 0.564127326 -0.00220812648 -0.000471360196
      -0.000233747793 -0.000215435794 5.57734823 2.33039832
      -3.58123434e-05 -1.84376167e-05 -1.51646809e-05 -0.00311927707
      -0.00145075074 -0.000593517034 2.96025109 -0.00149535097
      -3.3819575e-05 -2.07189214e-06 -0.00112084858 -2.35644784e-05
      3.83922958 -0.00142702542 -0.000804836222 -8.61231365e-06
      -1.53623617e-07 -4.39286086e-05 0.0731230825 -0.00564773381
      -0.000359410944 1.69244146 0.557153523 -5.43494616e-06
      -0.00463861832 -0.00319743413 -0.000289420597 -0.00250149611
      -0.00653517433 10.2063732 -0.0220487919 -0.000644164393
      -0.000673830917 -0.00403172569 -0.00168965035 -4.27468949e-05
      -0.00805618521 7.17350578 -1.3248648e-06 -5.98941624e-05
      -0.00101951149 1.40929615 -0.00010344234 -3.62801693e-05
      -0.000337282254 0.029432334 -0.000974664639 -0.0151518993
      -1.31457891e-05 -2.97981933e-05 -0.000671557034 -7.71898613e-07
      -2.95959376e-06 -0.000178959031 -2.76233859e-05 -0.00765691139
      -6.86370231e-06 -0.00201117387 -0.000737966213 2.96944237
      -0.00922147278 -0.00227011065 -0.0169807486 1.40464866
      -0.00401868019 -1.23653248e-08 0.726767778 0.487313569
      -8.38163323e-05 -5.08130615e-05 0.11727345 -0.00483656535
      0.860761762 -6.26563512e-09 -0.000147009501 0.329530597
      -3.33761318e-06 -1.42470382e-08 0.327812165 0.580585659
      -0.000210697428 -0.00222458364 -0.00344244484 -1.30248186e-08
      0.347869784 -2.38423327e-05 -0.000243943068 -2.68143867e-06
      -2.48996571e-06 0.540095627 -0.00365490955 -0.00732849305
      0.296584427 -9.46713612e-07 -0.00208363892 -3.75358854e-06
      0.208845839 0.718137085 0.367355675 0.260329962 -0.00059638283
      0.0606428236 0.0651055574 -2.90768912e-05 -0.000446829625
      0.119328484 0.326138884 0.824858844 -0.000326885784 0.862228513
      0.77707541 0.0428091288 -0.00166091649 0.126860633 0.486927032
      0.104407907 -0.00212211884 -1.28249494e-05 -0.00448230468
      0.330017328 -0.00685735978 -0.00267264899 -0.00013644695
      -2.53051621e-06 0.376154125 -1.52960126e-07 -3.12191901e-07
      0.133244798 1.05328858 -1.41359551e-05 -1.72419241e-05
      -0.000233561281 -0.000434679503 0.0487087667 -4.00423481e-08
      -3.33302719e-10 -4.71669548e-09 -2.0893019e-13 -0.000150123262
      -8.06454011e-07 -2.24377919e-10 -9.2565162e-05 0.0219070017
      -1.85581393e-05 -0.000202409457 -0.000143224737 -3.843183e-05
      -1.52074008e-05 0.40508014 -5.87156137e-07 -7.55279825e-06
      0.338621378 -0.000305045454 0.341814369 -6.081217e-05
      -0.000174690635 -0.00100385549 0.107409857 -5.28019051e-08
      0.0393058807 -2.02267665e-06 -0.000120102639 -3.25054611e-06
      -9.09286882e-07 -0.000217455206 -1.98052732e-07 -3.41725172e-06
      0.398887873 -4.87615681e-09 -6.83524459e-10 -1.37326337e-08
      -7.42809037e-10 0.0516916402 0.184375718 -2.31186805e-05
      0.286859155 -8.91891177e-05 -1.04144149e-09 -1.34734819e-07
      -4.05926585e-05 -3.30064243e-09 -0.000692134316 -0.000209690072
      -1.1029451e-10 -2.96557073e-06 -0.000663100567 -0.000309449737
      -1.41075716e-07 -0.000208919533 -9.54493196e-09 -2.86753675e-05
      -3.38042482e-05 -5.99539953e-06</_>
    <_>
      -2.29507113 -10.8047247 -0.00435887044 -0.0108420514
      -2.00832524e-08 -0.000116507363 -0.0101948865 -0.000209789825
      -0.00113952626 -1.4031333e-06 -1.15273806e-05 -3.30630968e-07
      -7.61744377e-05 -0.000270578108 -0.00020252289 2.19020104
      4.97303152 -0.00151484704 0.362756133 -0.000137393916
      -0.00121603615 -0.000527402794 -0.00241939235 0.656262755
      -1.01910227e-05 4.14201975 6.18881607 -1.66341688e-05
      -4.14925853e-05 -1.07680607e-05 -0.00321695115 -0.000116866897
      1.73662162 -0.00133993581 -9.62345439e-05 -0.000503837189
      -0.000320500898 -5.11660219e-05 -0.00675622886 -0.000172403714
      -7.59452814e-05 -0.000511319085 -0.00113523402 -0.000362442952
      0.174099579 -0.000751098967 -0.000302592758 1.20848501 2.44047332
      -0.00296502397 -0.00136263738 -0.000483244279 -2.11541465e-06
      -0.00520364055 0.235303134 -0.0197357573 -0.0132834492
      -0.00283792103 0.402205914 -0.00253930804 -0.000374621159
      -0.000193094704 -0.000293675228 5.24265099 1.68806589
      -3.89835877e-05 -2.14542415e-05 -1.69164978e-05 -0.00337223802
      -0.00149631558 -0.000640415703 3.51823878 -0.00148803275
      -4.46656886e-05 -2.32981893e-06 -0.00122509105 -2.29835041e-05
      3.45568824 0.389780432 -0.000850019744 -8.34976163e-06
      -2.14979835e-07 -6.69891524e-05 0.210419595 -0.00712689757
      -0.000409048924 1.22042966 0.344037235 -5.20181584e-06
      -0.00519320043 -0.00262918975 -0.000315576035 -0.00280693104
      -0.00632472243 9.50603962 -0.0212855712 -0.000654536998
      -0.00281623006 -0.00401422987 -0.00181836844 -5.15543179e-05
      -0.00733987428 6.75147915 -1.36995948e-06 -6.70078298e-05
      -0.00100221299 1.71008265 -0.000105635409 -3.68713954e-05
      -0.000336156256 0.439202279 -0.000994382892 -0.0168776587
      -1.30583321e-05 -3.52535099e-05 -0.000748217863 -7.98266228e-07
      -2.66617531e-06 -0.000191514002 -2.84826074e-05 -0.00756676309
      -6.99418797e-06 -0.0023632755 -0.000791056489 2.54135466
      -0.00868447032 -0.00243130838 -0.017952228 0.889857531
      -0.0043388824 -1.26438655e-08 0.703075409 0.482627124
      -8.33651866e-05 -5.16925757e-05 0.105788328 -0.00444934797
      0.843962073 -6.50430021e-09 -0.000147680315 0.325364769
      -3.32496188e-06 -1.49902188e-08 0.353631973 0.570928276
      -0.000207730744 -0.00207747403 -0.00326724257 -1.36119382e-08
      0.311535418 -2.39771925e-05 -0.000241720263 -2.76397577e-06
      -2.52300697e-06 0.516205609 -0.00344926119 -0.00659663044
      0.290894747 -9.68778409e-07 -0.00203045155 -3.81088921e-06
      0.209423631 0.701131225 0.373745501 0.288552016 -0.000642470317
      0.0649879128 0.0684926063 -2.90668777e-05 -0.000441548444
      0.128302649 0.329362959 0.816887438 -0.00032237664 0.840713739
      0.74994576 0.00676037371 -0.00176507025 0.087979041 0.470764428
      0.130997464 -0.00210359716 -1.30609797e-05 -0.00437682634
      0.285095304 -0.00625252118 -0.00260521518 -0.000135400172
      -2.57193142e-06 0.359538883 -1.5937654e-07 -3.21565153e-07
      0.113561913 1.02904606 -1.41573391e-05 -1.72726286e-05
      -0.000233295068 -0.0004332932 0.051650241 -4.01775928e-08
      -3.33762851e-10 -4.73004524e-09 -2.10071909e-13 -0.000150173728
      -8.07632091e-07 -2.24694416e-10 -9.26264256e-05 0.0240555108
      -1.85806475e-05 -0.000209358361 -0.000143256475 -3.84655395e-05
      -1.52281973e-05 0.399894834 -5.8811122e-07 -7.56052077e-06
      0.334681153 -0.000304239191 0.335763961 -6.1154562e-05
      -0.000172616943 -0.00099709339 0.109332226 -5.29530091e-08
      0.0415895134 -2.01028524e-06 -0.000120145582 -3.26035411e-06
      -8.56009422e-07 -0.000217139546 -1.99196492e-07 -3.42286467e-06
      0.393069029 -4.89719154e-09 -6.83752832e-10 -1.36859546e-08
      -7.45113193e-10 0.0506642312 0.185432225 -2.3152983e-05
      0.286288917 -8.92664902e-05 -1.05232389e-09 -1.35099981e-07
      -4.06294967e-05 -3.30850325e-09 -0.000688137545 -0.000214597094
      -1.10715728e-10 -2.97014526e-06 -0.000650568749 -0.000308596529
      -1.41519678e-07 -0.000208732701 -9.57021928e-09 -2.86980849e-05
      -3.17118902e-05 -6.00286876e-06</_>
    <_>
      -2.15445518 -9.37700176 -0.00436702697 -0.0187523104
      -2.35278552e-08 -0.000147611659 -0.0103399046 -0.000229354759
      -0.0013344998 -1.58373689e-06 -1.2300763e-05 -3.3211839e-07
      -8.20989808e-05 -0.000295562146 -0.000202481402 3.13775349
      4.48775005 -0.00161085255 0.649505734 -0.000150427106
      -0.00117226364 -0.000545387447 -0.00257276325 0.568489134
      -1.00072066e-05 3.52140522 5.77791786 -1.59758947e-05
      -4.26741317e-05 -1.15053635e-05 -0.00452792924 -0.000126951301
      1.09917331 -0.00133921485 -0.000105470099 -0.000582359964
      -0.000319273415 -5.51929697e-05 -0.00552396663 -0.000185233876
      -8.08609984e-05 -0.000543868809 -0.00120804645 -0.000357285724
      0.186230347 -0.000837512081 -0.000299895095 1.5373528 1.78588164
      -0.00599633344 -0.00147763698 -5.38871245e-05 -2.43527029e-06
      -0.00552924722 0.976262033 -0.0205796361 -0.0196977556
      -0.00297518214 0.2466335 -0.00271461112 -0.000423232035
      -0.000223372946 -0.000342883111 4.89181995 1.08315325
      -3.92031943e-05 -2.32933689e-05 -1.73383814e-05 -0.00351629988
      -0.00153940567 -0.000657903089 4.1267271 -0.00152175245
      -5.31933038e-05 -2.73365163e-06 -0.00123220717 -2.40932422e-05
      3.09875011 1.15100193 -0.000904001063 -8.95956873e-06
      -2.36696465e-07 -9.09851296e-05 0.639726877 -0.012646541
      -0.000458438619 0.748774409 0.375686288 -5.17335866e-06
      -0.0057408819 -0.00256714784 -0.000339273945 -0.00307472888
      -0.00650820695 8.87649632 -0.0212116744 -0.000699063297
      -0.00597699964 -0.0041810507 -0.00182694464 -5.42155867e-05
      -0.00722371554 6.38918495 -1.45906972e-06 -7.4454947e-05
      -0.00103904167 2.16543484 -0.00011197885 -3.75478558e-05
      -0.0003470667 0.570569515 -0.00112908892 -0.0172857177
      -1.35278488e-05 -3.85556305e-05 -0.000779419846 -8.34794321e-07
      -2.43050499e-06 -0.000196400273 -2.9099514e-05 -0.007515206
      -7.3035535e-06 -0.00280981977 -0.00081530906 2.07780862
      -0.00919393729 -0.00252412935 -0.0186695512 0.390521348
      -0.004273667 -1.25336594e-08 0.712960064 0.481912076
      -8.44517344e-05 -5.23310409e-05 0.0882614553 -0.0044836211
      0.831085742 -6.32509112e-09 -0.000146659091 0.338800728
      -3.41223108e-06 -1.42604604e-08 0.364183187 0.566742957
      -0.000209358695 -0.00195832388 -0.00357412128 -1.37731035e-08
      0.319979519 -2.37776403e-05 -0.000243947652 -2.7523472e-06
      -2.49916889e-06 0.506550372 -0.00336310687 -0.00649969373
      0.325225949 -9.56841518e-07 -0.00182014843 -3.77151514e-06
      0.20215176 0.731009662 0.357987195 0.279295325 -0.000655990385
      0.0635155886 0.0749303028 -2.94655019e-05 -0.000443540979
      0.127815187 0.332441837 0.79873246 -0.000322284235 0.847478628
      0.726301432 0.0129331201 -0.001876764 0.0805805176 0.474298328
      0.15189068 -0.00210103649 -1.2939211e-05 -0.00440940633 0.28685689
      -0.00613528816 -0.00264116307 -0.000135678551 -2.57189186e-06
      0.378203422 -1.56466712e-07 -3.16486108e-07 0.112436399 1.03777719
      -1.4169962e-05 -1.72987602e-05 -0.000232851948 -0.000433015695
      0.0564667583 -4.0279609e-08 -3.31429384e-10 -4.73889461e-09
      -2.11192012e-13 -0.000150173146 -8.08393338e-07 -2.24639043e-10
      -9.26659413e-05 0.0284549892 -1.85961617e-05 -0.000203642296
      -0.000143249912 -3.84864325e-05 -1.52442999e-05 0.392491162
      -5.88725413e-07 -7.56597728e-06 0.328493655 -0.0003031987
      0.329615474 -6.20075516e-05 -0.000154179928 -0.000991181587
      0.108105481 -5.30638182e-08 0.0456762612 -2.00252384e-06
      -0.000120142358 -3.26638224e-06 -8.48881882e-07 -0.00021671009
      -2.00300306e-07 -3.42734256e-06 0.38577944 -4.91237984e-09
      -6.83565093e-10 -1.36308813e-08 -7.46699091e-10 0.0553300604
      0.192276061 -2.31776685e-05 0.280745029 -8.93054312e-05
      -1.06070075e-09 -1.35332755e-07 -4.06555046e-05 -3.31464456e-09
      -0.000684337399 -0.000210216414 -1.10977075e-10 -2.97345741e-06
      -0.000627082889 -0.000307844195 -1.41840715e-07 -0.000208394413
      -9.58798196e-09 -2.8712695e-05 -3.54109288e-05 -6.0077291e-06</_>
    <_>
      -2.13399339 -7.94090986 -0.0042566224 -0.0166115966
      -2.67015619e-08 -0.000154761728 -0.00988537911 -0.000251951802
      -0.00146831269 -1.60572949e-06 -1.25191764e-05 -3.20793447e-07
      -8.24604067e-05 -0.000304870016 -0.000186503414 3.22097445
      3.99895191 -0.0016746833 1.17251897 -0.000155423986 -0.00117419998
      -0.000559204083 -0.00269499584 0.410849839 -1.00238803e-05
      3.02320361 5.24323845 -1.62998404e-05 -4.21826007e-05
      -1.27748117e-05 -0.000638537982 -0.000126923958 0.808257103
      -0.00121913932 -0.000106028034 -0.000610683172 -0.000311155338
      -5.53037826e-05 -0.00455402629 -0.000190235878 -8.92756798e-05
      -0.000587599585 -0.00116641633 -0.000366833439 0.138456449
      -0.000957732613 -0.000279956061 1.95492196 1.69231761
      -0.0048954878 -0.00145978318 -0.000433784269 -2.697936e-06
      -0.00579968095 0.90687114 -0.0209755488 -0.0191287976
      -0.00284800562 0.2768071 -0.00272508804 -0.000456193549
      -0.000287687406 -0.000404049264 4.46629572 0.67318511
      -3.84521918e-05 -2.58879118e-05 -1.70766889e-05 -0.00365143432
      -0.00148915069 -0.000677256437 4.13555145 -0.00147483987
      -5.99322957e-05 -3.25449264e-06 -0.00121488725 -2.45641477e-05
      2.58724117 1.22530842 -0.000955096388 -9.09966548e-06
      -2.59416197e-07 -0.000121119505 0.807361364 -0.0108170249
      -0.000511318853 0.646519244 0.22813572 -5.15000784e-06
      -0.00595990289 -0.00269105937 -0.000345332082 -0.00338193518
      -0.00674473727 8.10111427 -0.0205345713 -0.000716321403
      -0.00417321455 -0.00427505141 -0.00182963128 -5.35344516e-05
      -0.00697293924 5.91036034 -1.48673871e-06 -8.0393911e-05
      -0.00105597835 2.36854649 -0.000110110217 -3.77586111e-05
      -0.000333487347 0.743260264 -0.00122611492 -0.0160278361
      -1.48310419e-05 -4.25471699e-05 -0.00076810614 -8.01673593e-07
      -2.37842573e-06 -0.000192595457 -2.93571411e-05 -0.00723988563
      -6.91711239e-06 -0.00298873591 -0.000773887965 1.59537792
      -0.00937275309 -0.00266943802 -0.0183399748 0.131405741
      -0.00421333266 -1.2431741e-08 0.712989926 0.47959286
      -8.51268269e-05 -5.28491291e-05 0.0781725794 -0.00434222678
      0.841349542 -6.23932328e-09 -0.000146587772 0.352179825
      -3.47747005e-06 -1.38961029e-08 0.361448884 0.55273068
      -0.000210187427 -0.00189091917 -0.0036845149 -1.37919605e-08
      0.314680994 -2.36533488e-05 -0.00024589806 -2.77514687e-06
      -2.48374067e-06 0.489952862 -0.00327922287 -0.00639537955
      0.325751036 -9.51648531e-07 -0.00174834486 -3.74937258e-06
      0.199486747 0.746886015 0.347700119 0.282315135 -0.000700868724
      0.0513151735 0.0556515306 -2.96470789e-05 -0.000445799233
      0.120007291 0.329813927 0.791441381 -0.000322562759 0.843667746
      0.720630407 0.0196468085 -0.00188137323 0.0718965232 0.466234207
      0.162296668 -0.00207821117 -1.28679321e-05 -0.00442046579
      0.265371859 -0.00605337834 -0.00264379266 -0.000136317118
      -2.56968133e-06 0.394700557 -1.55382722e-07 -3.13829702e-07
      0.115794197 1.02176046 -1.41740229e-05 -1.73055869e-05
      -0.000232765844 -0.00043281971 0.0574080348 -4.03080449e-08
      -3.31192851e-10 -4.74154982e-09 -2.11464282e-13 -0.000150178952
      -8.08625259e-07 -2.24669047e-10 -9.2677983e-05 0.0292522088
      -1.86007128e-05 -0.000203739561 -0.000143252779 -3.84929554e-05
      -1.52487246e-05 0.390966773 -5.88912997e-07 -7.56755526e-06
      0.327265471 -0.000302975415 0.328146756 -6.21534928e-05
      -0.000151644388 -0.000989658874 0.108176336 -5.30951993e-08
      0.0464502499 -2.00011505e-06 -0.000120146964 -3.26827399e-06
      -8.41786346e-07 -0.000216619941 -2.00570767e-07 -3.42855333e-06
      0.384195626 -4.91671726e-09 -6.83568369e-10 -1.36185987e-08
      -7.47164663e-10 0.055791121 0.193250299 -2.31847353e-05
      0.279988796 -8.93192846e-05 -1.06300979e-09 -1.35404235e-07
      -4.06630279e-05 -3.31632366e-09 -0.000683399325 -0.000210242273
      -1.11058628e-10 -2.9744017e-06 -0.000622702646 -0.000307651295
      -1.41932333e-07 -0.000208330603 -9.59313606e-09 -2.87171588e-05
      -3.56274977e-05 -6.00920339e-06</_>
    <_>
      -2.36789012 -7.45340204 -0.00443530781 -0.0112909554
      -3.05846015e-08 -0.000170076964 -0.0098674465 -0.000294077385
      -0.00157065922 -1.75832247e-06 -1.30002709e-05 -3.15311297e-07
      -8.46010807e-05 -0.000312214543 -0.000181445997 3.04573226
      3.76960468 -0.00183977478 1.29326725 -0.000156949594
      -0.00119349221 -0.00059739995 -0.00297027943 0.32781592
      -1.08574268e-05 2.84521341 4.97641802 -1.64546673e-05
      -4.34674512e-05 -1.32283076e-05 0.123942047 -0.000133714508
      0.812710166 -0.00117498823 -0.000107068474 -0.0006415362
      -0.000304176938 -5.85134367e-05 -0.00319275842 -0.000202585448
      -9.93632784e-05 -0.000625502667 -0.00118723395 -0.000371457485
      0.102649435 -0.0010419871 -0.000288564421 1.99304438 1.84822464
      -0.00590199232 -0.00152572559 -0.000858436804 -2.83374766e-06
      -0.00622880924 0.544182718 -0.0210364033 -0.0187752359
      -0.00287290057 0.264644057 -0.00293064653 -0.000535667816
      -0.000342987943 -0.000468629558 4.27607775 0.573059201
      -3.80100573e-05 -2.90856078e-05 -1.80229672e-05 -0.00390258105
      -0.00151518267 -0.000665105588 3.90985394 -0.00149173301
      -6.95948111e-05 -3.56259807e-06 -0.00123694341 -2.50365647e-05
      2.34185362 1.09338558 -0.00106124463 -9.28885947e-06
      -2.75134767e-07 -0.000150593594 0.59680903 -0.00704750977
      -0.000557937659 0.709754169 0.102122143 -5.4876009e-06
      -0.00607610494 -0.00298608118 -0.000367193017 -0.00380943948
      -0.00665907981 7.67522526 -0.0205629673 -0.000712755602
      -0.00174746639 -0.00450419262 -0.00192852796 -5.53888385e-05
      -0.00705870148 5.63493729 -1.44445198e-06 -8.51296791e-05
      -0.00105364248 2.38115931 -0.000110551191 -3.80201091e-05
      -0.000335608318 0.89239198 -0.00133623555 -0.0142729161
      -1.5592379e-05 -4.83565891e-05 -0.000776136643 -7.92750996e-07
      -2.38707207e-06 -0.000202954892 -3.22589149e-05 -0.00741663668
      -7.10496215e-06 -0.0032880269 -0.000778772868 1.41154194
      -0.00931155216 -0.00293071778 -0.0178065468 0.0888876915
      -0.00412564818 -1.26351445e-08 0.691754878 0.472818673
      -8.4798121e-05 -5.18848028e-05 0.0663375631 -0.00415780814
      0.828229666 -6.42660414e-09 -0.000147041879 0.348384798
      -3.48171511e-06 -1.44477887e-08 0.363340974 0.538657069
      -0.000209973587 -0.00190356036 -0.00367138698 -1.41901078e-08
      0.292840123 -2.38619923e-05 -0.000245745061 -2.81050097e-06
      -2.51358665e-06 0.467907459 -0.00324374973 -0.00609644875
      0.312329233 -9.69732582e-07 -0.00178306282 -3.79694916e-06
      0.205750525 0.729880214 0.346586943 0.298415542 -0.000719635689
      0.0352897793 0.0359506644 -2.9589215e-05 -0.000441726152
      0.116804138 0.319068432 0.8050403 -0.000320150313 0.821308732
      0.713624001 0.00381483138 -0.00190815353 0.061025586 0.44388482
      0.173012167 -0.00204428448 -1.30570779e-05 -0.00434030546
      0.23785311 -0.00582687603 -0.00257036532 -0.000135634502
      -2.61219861e-06 0.38531819 -1.5808196e-07 -3.21099321e-07
      0.102069885 0.995644391 -1.41762157e-05 -1.73055723e-05
      -0.000232851482 -0.000432463974 0.0564935356 -4.03131502e-08
      -3.3226874e-10 -4.74253747e-09 -2.11405139e-13 -0.000150196123
      -8.08720074e-07 -2.24797153e-10 -9.26829453e-05 0.0282358825
      -1.86021407e-05 -0.00020833443 -0.000143266036 -3.84960222e-05
      -1.52493467e-05 0.392149925 -5.88991043e-07 -7.56799227e-06
      0.328386366 -0.000303115696 0.328543007 -6.1931496e-05
      -0.000158234048 -0.000989723718 0.109307431 -5.31021627e-08
      0.0456030592 -1.99902161e-06 -0.000120162644 -3.26918598e-06
      -8.26724545e-07 -0.000216683577 -2.00518784e-07 -3.42866929e-06
      0.38512066 -4.91778085e-09 -6.8371897e-10 -1.36246756e-08
      -7.47311879e-10 0.0536020175 0.190901265 -2.31864997e-05
